Date,ADBE,AMZN,AVGO,CAT,COST,JPM,LLY,MA,MSFT,NVDA,UNH,XOM,total
2023-01-03,0.9567873,-0.48878247,0.17420422,-1.5341265,0.21071652,-0.07852697,0.64403564,0.32361653,0.73631495,0.8862792,1.3475926,2.1458907,0.0
2023-01-04,-0.4189656,-0.52962077,0.6713619,-1.8347139,0.3370735,-0.83003217,1.4410725,-0.174795,1.094135,0.7506575,0.4622243,1.9053305,1892.6714
2023-01-05,-0.49266073,-0.6382014,0.614237,-1.5948106,0.67426145,-0.83733827,1.4847343,-0.38483882,1.3028221,0.8440382,0.32859927,1.44809,368.206
2023-01-06,-1.0622982,-0.74759895,0.47882923,-0.7130865,1.6300603,-0.81085515,1.7204084,-0.9434554,1.789776,0.9300156,-0.43776947,-0.075585894,902.0509
2023-01-09,-0.36450964,-0.6790817,0.4856378,-1.6018889,0.43143907,-0.7803803,1.230084,-0.2247313,1.1118525,0.68070257,0.6127879,1.7204238,3063.6685
2023-01-10,-0.98203975,-0.9436543,-0.15362538,-0.4859821,1.5615245,-0.60581416,1.455092,-0.7018782,1.6021873,0.6858044,-0.0016413331,-0.09093457,1174.9878
2023-01-11,-0.9019606,-0.9657575,-0.25503156,-0.3391259,1.7333146,-0.48810965,1.3770124,-0.73460287,1.6005248,0.73508835,0.055605553,-0.23430717,3799.9673
2023-01-12,-1.2058511,-1.1478945,-0.6920647,0.40853503,2.607361,-0.13776165,1.5857816,-0.8769887,1.8413622,0.8233484,-0.45807028,-1.6505108,2156.3909
2023-01-13,-0.92670494,-1.3447059,-1.3430434,1.0717605,2.9595563,0.46106923,1.1463213,-0.5819722,1.6337935,0.81745726,-0.18761125,-2.3694966,920.8391
2023-01-17,-1.0379013,-1.3894262,-1.3538259,1.2437916,3.1261628,0.45852742,1.2182764,-0.6215944,1.6908202,0.8304676,-0.31163427,-2.7154808,137.2349
2023-01-18,-0.93838763,-1.6324329,-1.7797276,1.7532862,3.2529237,0.8444597,0.7199788,-0.32451257,1.436775,0.73091596,-0.14453083,-3.1608808,373.45413
2023-01-19,-0.7653903,-1.5909706,-1.7409927,1.5113049,2.8587832,0.7550847,0.3996197,-0.21633914,1.1726725,0.5927169,0.13640144,-2.3629515,394.39203
2023-01-20,-0.81801075,-1.4364845,-1.47004,1.1489407,2.70194,0.5047462,0.6421302,-0.38341013,1.2862788,0.5984225,0.10019075,-1.9402102,287.765
2023-01-23,-0.6718565,-1.7740008,-1.9650975,2.0730634,3.099799,1.2000146,-0.10496761,0.03578893,0.9288361,0.57309705,0.26541686,-2.8752832,778.75116
2023-01-24,-0.7594598,-1.8193597,-1.9031093,2.276751,3.1334958,1.3239024,-0.25540525,0.07994426,0.9412545,0.61277014,0.19942337,-3.19544,350.94034
2023-01-25,-0.84562486,-1.820171,-1.8806456,2.250909,3.2393737,1.2639437,-0.050296936,0.00026194006,1.0653253,0.6491925,0.090738975,-3.3260794,279.30576
2023-01-26,-0.85277635,-1.8096869,-1.8769397,2.171554,3.1719499,1.2106676,-0.041133914,0.0047630295,1.0339875,0.6023698,0.10161074,-3.2017372,1773.8989
2023-01-27,-0.7238522,-1.8203671,-1.8882457,2.205397,3.0418456,1.3188713,-0.38118693,0.12610129,0.8142292,0.5395642,0.29859442,-2.9246256,3639.3037
2023-01-30,-1.0035112,-1.7735007,-1.7121539,1.9475031,3.2509158,1.0031865,0.25775927,-0.19106409,1.1829042,0.58706117,0.011143796,-3.027724,666.0494
2023-01-31,-0.31418672,-1.6394144,-1.6042966,1.2068939,2.1406598,1.0216272,-0.6642243,0.40658864,0.44612646,0.19303885,1.0057759,-0.71352065,9958.334
2023-02-01,-0.031336565,-1.5492383,-1.3977329,1.0227879,1.906272,1.1176426,-0.89425933,0.59561086,0.222262,0.09743079,1.3229349,-0.008552007,455.169
2023-02-02,0.04352502,-1.4622872,-1.2765952,1.0282369,1.7122625,1.1795857,-1.1642007,0.7238172,0.058744468,-0.031020738,1.3809094,0.20932433,3078.592
2023-02-03,-0.19085824,-1.5545806,-1.3702943,1.351257,1.877084,1.2224896,-1.2738376,0.6379058,0.08284719,-0.003471449,1.1691085,-0.3834931,1046.5004
2023-02-06,-0.2570766,-1.571359,-1.4066037,1.4979161,1.9602333,1.2803359,-1.3380569,0.61884165,0.093087405,0.012174539,1.0914037,-0.58569586,588.9074
2023-02-07,-0.51278645,-1.6988337,-1.5144478,1.8706377,2.286845,1.3545611,-1.2245737,0.447834,0.2904598,0.17686097,0.7623676,-1.5066091,1950.8273
2023-02-08,-0.4870459,-1.6823913,-1.462336,1.7145798,2.1416576,1.3097513,-1.2748783,0.519686,0.21747868,0.078896105,0.84679353,-1.1280878,164.29538
2023-02-09,-0.4437138,-1.641689,-1.4008156,1.6737788,2.0337784,1.2885273,-1.341537,0.5587148,0.18365726,0.045484237,0.8901918,-0.9865353,112.873055
2023-02-10,-0.490034,-1.6972616,-1.4905871,1.7191743,2.2314446,1.281759,-1.2069485,0.47098854,0.25355035,0.10195098,0.84679484,-1.1457931,242.14339
2023-02-13,-0.45152235,-1.7148355,-1.5450317,1.5408719,2.3301163,1.1704702,-0.9463973,0.38560805,0.35524333,0.16619168,0.88811845,-0.99696004,196.72678
2023-02-14,-0.86023134,-1.828075,-1.7543248,2.3954115,3.3604367,1.3678324,-0.097865045,-0.03548222,1.1596957,0.7760623,0.059799157,-3.5304646,1366.8752
2023-02-15,-0.9490665,-1.7758532,-1.6620989,2.305483,3.426606,1.2573569,0.15202059,-0.153765,1.3137887,0.7985885,-0.07506109,-3.606632,864.8048
2023-02-16,-0.9075884,-1.8729042,-1.7707132,2.2339041,3.3363116,1.3156254,-0.13301878,-0.024990074,1.057929,0.65859544,0.14665574,-3.2047672,641.5219
2023-02-17,-0.671962,-1.786111,-1.609567,1.6713927,2.6491213,1.1611705,-0.65389025,0.2064499,0.58279955,0.29149246,0.63092023,-1.6569579,1894.0731
2023-02-21,-0.52240205,-1.7515358,-1.5213612,1.5095491,2.4211638,1.1632333,-0.88017416,0.33857572,0.41973585,0.16833863,0.838156,-1.035768,287.3088
2023-02-22,-0.73851806,-1.8030832,-1.5837291,1.6927027,2.7414854,1.1435928,-0.53890365,0.14389884,0.6734642,0.32881474,0.5549202,-1.8196414,436.98746
2023-02-23,-0.41972926,-1.7434592,-1.4987737,1.4112383,2.2838807,1.2102704,-0.9978639,0.48842224,0.33229834,0.09593224,0.9824861,-0.732275,673.8641
2023-02-24,-0.38176218,-1.7191089,-1.4286531,1.515073,2.2478364,1.2617066,-1.1348922,0.49641505,0.26531422,0.08893192,0.9786376,-0.78073984,78.1404
2023-02-27,-0.7195396,-1.7502409,-1.4664894,1.5310096,2.541039,1.0569835,-0.65620357,0.20437148,0.5762413,0.19099846,0.62769216,-1.3635013,566.7333
2023-02-28,-0.69304615,-1.8118361,-1.5500413,1.724812,2.658684,1.1984296,-0.74105805,0.23354852,0.56213427,0.25012818,0.6074264,-1.6689824,129.81567
2023-03-01,-0.8897302,-1.8124787,-1.5259732,1.6849493,2.836978,1.0769277,-0.42378217,0.057618074,0.7519799,0.29219007,0.3995295,-1.9255086,267.4512
2023-03-02,-0.84985834,-1.7930914,-1.4717313,1.6200316,2.7526762,1.0383179,-0.4701597,0.07104234,0.7253818,0.2593509,0.46276772,-1.7125751,95.4203
2023-03-03,-0.78876525,-1.7973406,-1.4902574,1.6885443,2.753034,1.0988542,-0.5792026,0.09884695,0.6624794,0.2639193,0.51719,-1.6951813,104.29643
2023-03-06,-0.5426186,-1.7503659,-1.4752017,1.5706762,2.3973594,1.1459415,-0.9556928,0.33210364,0.4094237,0.1147706,0.8178032,-1.0270873,552.2414
2023-03-07,-0.7804387,-1.8460478,-1.6454788,1.7738725,2.8451643,1.1728106,-0.5395018,0.14174417,0.69332314,0.3105559,0.5008644,-1.9388589,563.12286
2023-03-08,-0.7953453,-1.8336796,-1.6160187,1.8494501,2.8086383,1.193464,-0.6279592,0.16770744,0.645933,0.28034526,0.47595933,-2.009867,71.58684
2023-03-09,-0.7048619,-1.8029876,-1.5906167,1.9104729,2.6851823,1.2649736,-0.8636867,0.24782655,0.5169297,0.23732127,0.5721498,-1.8585368,176.67854
2023-03-10,-0.59619254,-1.7119564,-1.4311026,1.798699,2.3366263,1.2169454,-1.0921197,0.36446372,0.38557464,0.13590991,0.7229487,-1.4379474,243.76414
2023-03-13,-0.39199907,-1.5839955,-1.2174054,1.4026824,1.8422323,1.1173189,-1.3224235,0.5967239,0.17158377,-0.109316796,1.029682,-0.38005283,544.76306
2023-03-14,-0.39256325,-1.6203537,-1.2559144,1.294017,1.8270326,1.0901682,-1.2509115,0.63030475,0.18401442,-0.12960444,1.079139,-0.22217333,99.78754
2023-03-15,-0.39780363,-1.6121913,-1.2645274,1.610975,2.0030828,1.2430837,-1.3852081,0.5551226,0.18556778,-0.012040645,0.9796678,-0.67606217,378.41144
2023-03-16,-0.4100391,-1.5210074,-1.1073824,1.6857218,1.8586501,1.2035129,-1.4631203,0.5253811,0.18595724,0.006811887,0.89402205,-0.8236433,234.5305
2023-03-17,-0.37939608,-1.4232479,-0.91551393,1.6294858,1.6663978,1.1750362,-1.5809977,0.54486096,0.12824054,-0.030990697,0.89200675,-0.653451,665.9135
2023-03-20,-0.4234998,-1.4095584,-0.8828813,1.6959238,1.6632452,1.147629,-1.5360926,0.49086478,0.17593904,0.0086738765,0.7976191,-0.88116276,246.11249
2023-03-21,-0.4369426,-1.4511524,-0.9240371,1.7268797,1.7339228,1.1974819,-1.530915,0.49509647,0.19338013,0.027980223,0.80171347,-0.9306537,261.02783
2023-03-22,-0.4338419,-1.4635719,-0.9537616,1.6358346,1.7243072,1.1721373,-1.5179106,0.51965755,0.15624186,-0.029903404,0.8647125,-0.71256703,275.90582
2023-03-23,-0.42997512,-1.4048039,-0.84953964,1.5899609,1.6111344,1.105757,-1.5116929,0.50408244,0.16753146,-0.039553843,0.8377919,-0.68659145,80.52816
2023-03-24,-0.4046943,-1.359317,-0.77677774,1.5345936,1.5105089,1.0816462,-1.5496935,0.52117133,0.14320771,-0.061002567,0.86253405,-0.56433123,125.00036
2023-03-27,-0.38801542,-1.3099338,-0.68490976,1.5258819,1.4624048,1.0669379,-1.568318,0.49289903,0.14161591,-0.04794295,0.84723663,-0.54760194,58.577614
2023-03-28,-0.37268868,-1.3324326,-0.6933219,1.3834732,1.3780448,1.0498636,-1.5615178,0.57706606,0.1074353,-0.09979783,0.93425095,-0.30594733,227.80275
2023-03-29,-0.330869,-1.2758349,-0.6197453,1.2965719,1.2687738,1.0249274,-1.5905013,0.6075582,0.07005896,-0.112231836,0.9760877,-0.14648104,153.65613
2023-03-30,-0.32310602,-1.2999718,-0.67171305,1.3479177,1.34243,1.0485747,-1.5914464,0.5913342,0.071826726,-0.1008919,0.98065567,-0.20391056,79.72722
2023-03-31,-0.30185518,-1.2100347,-0.53573817,1.1104583,1.1109356,0.9629032,-1.5892643,0.65215975,0.007733777,-0.14455618,1.059517,0.17968783,415.8668
2023-04-03,-0.27683303,-1.1965247,-0.54051924,1.106507,1.0959564,0.97662574,-1.6157868,0.6724636,-0.0076739937,-0.14463447,1.0862684,0.22290921,244.06946
2023-04-04,-0.21058248,-1.2350544,-0.5349775,1.2126266,1.1685995,1.0472955,-1.6056049,0.6671652,0.03894569,-0.07177131,1.0759621,0.016775735,804.35254
2023-04-05,-0.21900633,-1.1390629,-0.35876495,0.9589021,0.90234566,0.9154151,-1.5232166,0.7114024,0.02049838,-0.10092713,1.0877872,0.32835385,2059.176
2023-04-06,-0.17946158,-0.9646074,-0.11869274,0.40549833,0.4941337,0.7126965,-1.3328875,0.86367244,-0.02753529,-0.17770837,1.1994534,1.13945,826.97345
2023-04-10,-0.09690344,-0.83021456,-0.005686011,0.05372973,0.24148914,0.5939312,-1.1964558,0.99667484,-0.0985968,-0.20273729,1.2960076,1.6636261,661.5343
2023-04-11,-0.0847287,-0.84868824,0.044765715,0.1474863,0.27809787,0.6162419,-1.157007,0.92023796,-0.0078081936,-0.11607191,1.2195944,1.3699341,1264.8416
2023-04-12,-0.04972757,-0.9799297,0.044435535,1.1196903,0.9608316,0.90576106,-1.0556608,0.3613587,0.37447378,0.3539524,0.79265594,-0.58446205,6557.1885
2023-04-13,-0.67616355,-1.0987526,-0.44330403,1.7774215,2.4820354,0.9783245,0.20974493,-0.31855464,1.4299631,1.0695046,-0.027490593,-2.8333597,3874.863
2023-04-14,-0.8932514,-1.1468502,-0.5175195,1.7281367,2.8736596,0.86060005,0.71420187,-0.53732336,1.7387012,1.1844488,-0.27960816,-3.2332308,1356.5502
2023-04-17,-0.84915566,-1.1003561,-0.52676576,1.6293958,2.90283,0.7908872,0.9346206,-0.56871,1.8321246,1.2662607,-0.34217632,-3.2806294,98.433525
2023-04-18,-0.76067674,-1.1952503,-0.7503335,1.8463737,2.9902294,0.9988242,0.7843317,-0.42209342,1.785048,1.3031086,-0.31230932,-3.5715847,169.04175
2023-04-19,-0.7578834,-1.2283986,-0.8406929,1.8926069,3.0850384,1.0279546,0.7890896,-0.4240894,1.7894689,1.2975148,-0.3047948,-3.630408,29.583735
2023-04-20,-0.7439028,-1.3171569,-1.0340109,2.028362,3.141137,1.1024493,0.6280201,-0.34306264,1.6919663,1.203805,-0.2554922,-3.693514,118.40651
2023-04-21,-0.70781547,-1.2705454,-0.99412155,2.0669408,3.0798008,1.1282806,0.55398506,-0.34391412,1.6693883,1.2233077,-0.24152616,-3.7138078,39.452457
2023-04-24,-0.6463254,-1.2019011,-0.9303357,2.0415995,3.0239403,1.1153564,0.5632079,-0.3661432,1.6740068,1.2616566,-0.23367333,-3.673955,40.555935
2023-04-25,-0.56515944,-1.2110072,-0.9541795,2.1202369,2.912059,1.242723,0.3455906,-0.2422035,1.5776045,1.2538878,-0.16817227,-3.6750207,141.77315
2023-04-26,-0.5032893,-1.1086801,-0.8114388,2.0560217,2.729337,1.2089198,0.28250176,-0.25302786,1.538111,1.2750068,-0.13349423,-3.5361478,97.69165
2023-04-27,-0.38466185,-1.1252576,-0.87587273,2.160788,2.5900972,1.296648,-0.05748043,-0.09930732,1.3294144,1.1487448,0.0048052296,-3.363406,363.5155
2023-04-28,-0.34494242,-1.1021217,-0.8609898,2.235919,2.5944092,1.3531451,-0.14434165,-0.10606784,1.2985392,1.1770669,0.037120543,-3.3872259,858.0029
2023-05-01,-0.29227164,-1.0583168,-0.86076367,2.2536695,2.613855,1.3802719,-0.117845744,-0.13579267,1.3242608,1.2465901,0.051819794,-3.4465573,118.436775
2023-05-02,-0.163178,-0.98305583,-0.8053531,2.2482657,2.4270513,1.453754,-0.29138038,-0.057244517,1.2492049,1.2690538,0.12312307,-3.3725631,422.74313
2023-05-03,0.007796172,-0.8887566,-0.66958845,2.2123475,2.0071409,1.4923778,-0.6829624,0.095398895,1.0047776,1.1561552,0.25127155,-3.0328407,696.4415
2023-05-04,0.19283186,-0.64929914,-0.3898095,2.0499146,1.7076677,1.4615455,-0.78734046,0.05274278,0.9104284,1.19816,0.32636407,-2.7369332,2579.134
2023-05-05,0.19125676,-0.57888734,-0.24121997,1.9530874,1.5012625,1.3930933,-0.8831416,0.059905045,0.8453758,1.1257201,0.32101682,-2.5705063,117.931305
2023-05-08,0.24074635,-0.5822046,-0.1931313,1.9412498,1.4563496,1.4170983,-1.0114484,0.09680515,0.75008017,1.0752894,0.3962532,-2.4036934,173.5105
2023-05-09,0.19069856,-0.62787795,-0.23730648,1.9694525,1.4813771,1.4287524,-1.0006524,0.106119566,0.78028953,1.0705997,0.36326706,-2.493754,82.7244
2023-05-10,0.19722512,-0.6045842,-0.17287764,1.9337925,1.4113934,1.3948894,-1.0446013,0.097345226,0.7467301,1.044793,0.38059956,-2.3978515,71.17617
2023-05-11,0.2492015,-0.5186262,-0.055953156,1.8034152,1.2472948,1.3223431,-1.0532522,0.09208252,0.70354915,1.0107793,0.39771298,-2.2020586,159.7098
2023-05-12,0.18076846,-0.54240066,-0.043893483,1.8332336,1.257138,1.2902386,-1.072809,0.061085336,0.7134785,0.98435915,0.36721247,-2.2356732,107.2085
2023-05-15,0.1988256,-0.4776551,0.06316139,1.7462016,1.1509304,1.238205,-1.0815718,0.034587286,0.69008785,0.96771026,0.37887144,-2.1042736,341.2693
2023-05-16,0.13205466,-0.5572969,-0.007324677,1.7938861,1.2068996,1.2583523,-1.0823286,0.055786528,0.7135043,0.94184947,0.34421867,-2.2059438,252.47926
2023-05-17,0.08167228,-0.5441115,0.025844011,1.7601312,1.1485149,1.1915057,-1.0754575,0.035893656,0.7191593,0.89855367,0.30075762,-2.1852858,560.63055
2023-05-18,-0.012065727,-0.6813427,-0.12844342,1.9279767,1.350777,1.264859,-1.098279,0.05247128,0.7500189,0.8940189,0.26616585,-2.4023514,844.8302
2023-05-19,-0.06740772,-0.76066184,-0.1987904,1.9817601,1.4178299,1.2640939,-1.1354415,0.068580136,0.7388366,0.8432756,0.26780218,-2.4227831,575.61163
2023-05-22,0.0056704395,-0.7169131,-0.091641456,1.8430275,1.236316,1.203311,-1.2287393,0.11008125,0.631201,0.75809133,0.3508086,-2.0970185,330.51794
2023-05-23,-0.074471995,-0.86167276,-0.30725673,2.0823185,1.5259614,1.3309457,-1.2245483,0.12367421,0.6955182,0.81415254,0.3218547,-2.4485765,1771.1215
2023-05-24,-0.15161902,-0.8479911,-0.26351762,1.9888073,1.4328173,1.1830919,-1.1471543,0.0754199,0.72104436,0.7425314,0.261361,-2.3736575,220.7784
2023-05-25,-0.19761208,-0.85745066,-0.3266285,2.0482738,1.5624565,1.1536033,-1.0523841,0.006741859,0.7963724,0.78567743,0.23677519,-2.495855,200.06485
2023-05-26,-0.3477191,-1.0070592,-0.47319943,2.1600854,1.7752204,1.1906307,-1.0174927,0.033331156,0.8309462,0.7372281,0.17305902,-2.664414,602.4463
2023-05-30,-0.5781475,-1.177914,-0.61413497,2.2413995,2.1148894,1.1862087,-0.9089245,-0.03564197,0.895314,0.6778579,0.12449723,-2.7670367,401.60242
2023-05-31,-0.7239359,-1.2078694,-0.57475746,2.1183693,2.1151984,1.0848446,-0.7431097,-0.06446435,0.9696908,0.6222319,0.010646038,-2.7625148,255.45535
2023-06-01,-0.7380546,-1.214959,-0.585786,2.139518,2.1966949,1.0980486,-0.7112381,-0.09977011,0.99257636,0.65039206,0.02527412,-2.788449,214.8098
2023-06-02,-0.69280875,-1.2201228,-0.6040516,2.1850908,2.2501566,1.1561067,-0.74737275,-0.089324534,0.9794066,0.6804953,0.064984225,-2.8112261,198.96472
2023-06-05,-0.8574391,-1.231189,-0.58495224,2.100427,2.436558,1.0686984,-0.38166457,-0.23164332,1.1964364,0.76591533,-0.10635389,-3.0218413,561.67596
2023-06-06,-0.82547814,-1.227171,-0.5790608,2.1135807,2.3948958,1.1007235,-0.45299584,-0.20209548,1.1654323,0.7630776,-0.068809636,-2.9963343,80.94625
2023-06-07,-0.81519836,-1.2552365,-0.6878393,2.2036788,2.5077975,1.1574678,-0.42442635,-0.19169778,1.1950955,0.7933785,-0.08963282,-3.1771672,90.71494
2023-06-08,-0.31249216,-0.9988959,-0.16076797,1.710584,1.2645098,1.0423036,-1.4250681,0.15551111,0.4149744,0.32225,0.38031662,-1.4927559,1359.4851
2023-06-09,-0.28701392,-0.8163314,0.11245765,0.7630538,0.5370811,0.7492247,-1.4787179,0.5078139,0.066188395,-0.017554209,0.8048737,0.2927155,988.46606
2023-06-12,-0.24882828,-0.8234438,0.08550349,0.9284823,0.6411568,0.80262274,-1.5305564,0.44559336,0.08508371,0.026057303,0.77391666,0.078487165,456.10672
2023-06-13,-0.2648632,-0.9760412,-0.04758456,1.4063033,0.9562716,0.975214,-1.5498095,0.30462325,0.22213136,0.15115482,0.5506255,-0.8481907,2186.3228
2023-06-14,-0.21393448,-1.0266291,-0.2368477,1.6437718,1.2395557,1.1109877,-1.6425322,0.2861945,0.20460914,0.19284937,0.5941288,-1.0327204,559.7454
2023-06-15,-0.29292327,-1.1239303,-0.476579,1.8593632,1.4620812,1.1955903,-1.6099455,0.28149423,0.25947902,0.256913,0.51563895,-1.4788948,306.3774
2023-06-16,-0.33334473,-1.2459084,-0.7177056,2.0864923,1.7453994,1.335068,-1.5887575,0.30282262,0.3108318,0.35145283,0.5283406,-1.8515822,211.65233
2023-06-20,-0.29613346,-1.2453738,-0.7674515,2.0685678,1.7691401,1.3412819,-1.6168618,0.31840065,0.26676986,0.3193882,0.5838898,-1.7331674,67.943245
2023-06-21,-0.32360497,-1.2699035,-0.797763,2.131246,1.7861282,1.3725741,-1.5833478,0.34313318,0.31997657,0.3667832,0.53196114,-1.9571031,87.95811
2023-06-22,-0.2727527,-1.2491564,-0.8012885,2.134022,1.7899588,1.4035416,-1.6359293,0.36029503,0.2820409,0.35967183,0.5835691,-1.8734924,56.48152
2023-06-23,-0.33145186,-1.2704856,-0.8348691,2.2089603,1.8651845,1.4009352,-1.5666238,0.3234796,0.34874028,0.4067592,0.52152205,-2.0816605,108.25806
2023-06-26,-0.36229673,-1.3039685,-0.9099113,2.2760298,1.9534953,1.4184358,-1.5090141,0.31326312,0.39322436,0.44127083,0.4895904,-2.2560878,72.52789
2023-06-27,-0.36954966,-1.336035,-0.9494976,2.3162076,2.0058424,1.4489417,-1.4491113,0.3147628,0.45896113,0.48977262,0.45153236,-2.4155595,62.40634
2023-06-28,-0.41886672,-1.3350769,-1.0007843,2.413138,2.1538527,1.46194,-1.3089086,0.23842177,0.5862057,0.5803728,0.363594,-2.7082124,143.02162
2023-06-29,-0.56561345,-1.3331019,-0.96549404,2.317337,2.1419466,1.2886479,-1.050428,0.14190176,0.7252047,0.5542018,0.20215848,-2.7936544,191.0913
2023-06-30,-0.44579503,-1.331868,-1.0579993,2.4197676,2.1985512,1.4126556,-1.1571379,0.18510473,0.6831249,0.61891395,0.2844647,-2.867728,148.99211
2023-07-03,-0.44441792,-1.3903662,-1.1648974,2.5066497,2.3249462,1.4887519,-1.1815424,0.20297548,0.66366,0.6401589,0.3114426,-2.9710069,60.661816
2023-07-05,-0.46703312,-1.455857,-1.2818737,2.665522,2.6137953,1.587707,-1.020495,0.14115113,0.8249271,0.78363234,0.24709165,-3.3853552,170.65932
2023-07-06,-0.42214707,-1.4648646,-1.2851461,2.557624,2.4035237,1.5737796,-1.268665,0.27383187,0.5950691,0.6273324,0.3796588,-2.9747112,255.36296
2023-07-07,-0.36527833,-1.4236012,-1.1667931,2.3735816,2.136487,1.5260656,-1.4676158,0.36275965,0.39857605,0.47948122,0.51521957,-2.469225,204.27975
2023-07-10,-0.23487175,-1.3360273,-1.0260867,2.0446522,1.7957721,1.413959,-1.653878,0.47164986,0.1728634,0.23781984,0.70960623,-1.6025871,313.62833
2023-07-11,-0.22156522,-1.3532149,-0.9891193,1.9434066,1.7043476,1.3893604,-1.644706,0.5148733,0.17221494,0.2103026,0.75734615,-1.4559273,59.880924
2023-07-12,-0.22899607,-1.3636249,-1.0127741,1.9393071,1.7224269,1.3968511,-1.6557275,0.5216152,0.16018808,0.19373828,0.7714798,-1.4185399,29.599207
2023-07-13,-0.2626113,-1.3795868,-1.0883049,2.094013,1.8786775,1.4600959,-1.6463802,0.4718469,0.19608031,0.258797,0.703084,-1.6979645,139.54068
2023-07-14,-0.22432545,-1.353397,-1.013988,1.9281421,1.7175351,1.3821645,-1.6713088,0.5143359,0.1415415,0.18403696,0.78988767,-1.3673753,144.17891
2023-07-17,-0.47787982,-1.4838854,-1.3390113,2.7396338,2.6952808,1.6389749,-1.0345978,0.15675905,0.81233037,0.805717,0.2324692,-3.4813735,1416.8285
2023-07-18,-0.54067624,-1.5254617,-1.3704023,2.718751,2.711125,1.6311443,-0.993465,0.16761354,0.83308554,0.786868,0.19250238,-3.5303552,54.508423
2023-07-19,-0.5543591,-1.5011662,-1.3273671,2.7334104,2.78366,1.635668,-0.9048081,0.11153401,0.9063993,0.8434184,0.151526,-3.6165788,92.8529
2023-07-20,-0.5464186,-1.4757878,-1.2866229,2.72281,2.744655,1.6266093,-0.92318666,0.104535185,0.90146637,0.84327865,0.15140936,-3.5872927,18.289173
2023-07-21,-0.5404442,-1.4405197,-1.2485683,2.7122746,2.7187636,1.6338143,-0.9004245,0.09629693,0.926929,0.86766946,0.115243755,-3.6260986,49.24523
2023-07-24,-0.5241352,-1.4109634,-1.2223175,2.7131839,2.7395453,1.6423166,-0.86451507,0.072801284,0.9569914,0.8987248,0.10032397,-3.651222,57.33899
2023-07-25,-0.596441,-1.4551824,-1.2761749,2.7099144,2.8738873,1.6287608,-0.7171442,0.024796747,1.0488588,0.92796195,0.05138015,-3.778683,175.30037
2023-07-26,-0.5810955,-1.466309,-1.2825011,2.7183924,2.8593905,1.6409621,-0.7667556,0.0464864,1.0109146,0.91045576,0.07789474,-3.727085,158.26163
2023-07-27,-0.5875718,-1.4415243,-1.259869,2.709086,2.8721063,1.6331794,-0.7207744,0.02272863,1.042479,0.92672867,0.047938757,-3.7622983,107.24606
2023-07-28,-0.5760768,-1.3672811,-1.1331897,2.6454818,2.7206151,1.5886688,-0.7599316,0.013399266,1.0334867,0.9205108,0.0318793,-3.6717653,111.42862
2023-07-31,-0.5241689,-1.3519956,-1.1273233,2.6681023,2.6999104,1.6244521,-0.82423073,0.034366377,0.9885769,0.92196363,0.06019675,-3.632862,273.84534
2023-08-01,-0.55640125,-1.3640594,-1.1223502,2.6387594,2.7165124,1.6136627,-0.7681566,0.019438557,1.0333858,0.93656754,0.03865152,-3.6691082,103.00776
2023-08-02,-0.5001032,-1.3649018,-1.1347221,2.6682975,2.640343,1.6474392,-0.9281133,0.07794366,0.9380916,0.89471924,0.10426428,-3.5749676,525.10706
2023-08-03,-0.42427942,-1.2065085,-0.8562245,2.456783,2.1545818,1.5305767,-1.1518629,0.1333347,0.7886219,0.77546406,0.1433019,-3.1188123,259.3642
2023-08-04,-0.42380634,-1.2863681,-1.0142539,2.5927374,2.3715713,1.625603,-1.141394,0.15144604,0.7852911,0.80540943,0.17139018,-3.2761178,90.421265
2023-08-07,-0.44163975,-1.2778195,-0.9835087,2.538575,2.2948608,1.563395,-1.1590729,0.1609199,0.7608639,0.75393695,0.17156741,-3.1655624,37.83806
2023-08-08,-0.45679948,-1.358094,-1.0957427,2.5894096,2.426443,1.6255167,-1.1304251,0.18832213,0.76738244,0.7577875,0.18766707,-3.2520308,65.81908
2023-08-09,-0.035856362,-0.8960934,-0.46196568,2.1717875,1.5905086,1.5107026,-1.3282312,0.20158637,0.61179245,0.8237269,0.30963334,-2.5019867,383.22452
2023-08-10,0.1284309,-0.70953345,-0.24301305,1.9255967,1.2786893,1.4203179,-1.3687167,0.21364674,0.5112738,0.78428364,0.3970718,-2.0949688,638.0771
2023-08-11,0.22255582,-0.619689,-0.120551795,1.757536,1.0801154,1.3476546,-1.4085076,0.24107176,0.42645484,0.7169677,0.4639034,-1.7839776,238.30934
2023-08-14,0.45031717,-0.32976097,0.20187959,1.1658385,0.5612493,1.0798614,-1.2344759,0.28975877,0.37807018,0.6351613,0.5745124,-0.92365825,645.5389
2023-08-15,0.49025008,-0.34713703,0.1497837,1.249441,0.632276,1.1508527,-1.1644549,0.27384034,0.4622087,0.717314,0.54809743,-1.1675348,143.6985
2023-08-16,0.45572326,-0.1514823,0.36619258,0.71555877,0.24156968,0.93469816,-0.9827943,0.3433111,0.41213065,0.63625914,0.6024418,-0.5454366,457.49344
2023-08-17,0.5381661,-0.012842972,0.4690353,0.54630446,0.15055157,0.872869,-0.89046675,0.3190066,0.4399324,0.68087137,0.5947561,-0.3986966,264.0531
2023-08-18,0.45310375,0.0657727,0.6377466,-0.17995764,-0.28511012,0.6201021,-0.6724227,0.48550662,0.3434341,0.5277847,0.7251951,0.5228646,1489.3552
2023-08-21,0.54647964,0.1501958,0.7047704,-0.33989552,-0.33044565,0.57541907,-0.5684475,0.46272948,0.36840382,0.57629716,0.7166831,0.66029465,335.52985
2023-08-22,0.48690394,0.0605782,0.6161933,-0.15663616,-0.23493238,0.6382364,-0.62993044,0.4951634,0.38119808,0.5449575,0.73555666,0.44701207,238.54549
2023-08-23,0.38781163,0.05168489,0.62539655,-0.08889605,-0.249101,0.62525743,-0.6491083,0.46806124,0.37108094,0.50253475,0.68789244,0.3407025,137.05583
2023-08-24,0.48269686,0.017523114,0.47440994,0.5239074,0.101379305,0.80093807,-0.81180304,0.29193184,0.44830453,0.6423308,0.56322086,-0.45292693,1335.2347
2023-08-25,0.4301602,0.05577075,0.5332127,0.3945922,0.00475185,0.707676,-0.7299127,0.25235656,0.45143563,0.62775415,0.54834825,-0.32409915,430.88394
2023-08-28,0.3980687,0.102617055,0.63681525,-0.08594878,-0.26113737,0.5415957,-0.59543985,0.3713431,0.36920142,0.5056124,0.6458149,0.3101798,6168.3525
2023-08-29,0.3876438,-0.044196274,0.41505033,0.5587928,0.12935412,0.7749164,-0.7196365,0.26410243,0.4959432,0.5898472,0.5093243,-0.6228665,1545.942
2023-08-30,0.34499225,-0.08690959,0.39128375,0.58156514,0.15270112,0.77276593,-0.7426978,0.26312548,0.48150516,0.5658013,0.502162,-0.6361231,149.87218
2023-08-31,0.3360288,-0.18015239,0.27409858,0.9187875,0.39875546,0.8727221,-0.82918864,0.16043308,0.5258562,0.6257594,0.42660624,-1.1007575,530.45795
2023-09-01,0.25102028,-0.2268184,0.28281817,0.7711514,0.32062808,0.77300036,-0.77018327,0.18513751,0.4910642,0.53711134,0.43223917,-0.8902637,165.21107
2023-09-05,0.31973925,-0.32671958,0.042205665,1.3680373,0.8265996,1.0434542,-0.9399385,0.09960363,0.60223734,0.7419014,0.38391626,-1.671393,654.6224
2023-09-06,0.22886413,-0.3330966,0.2023113,0.7620685,0.3631362,0.7746947,-0.78581065,0.25980556,0.46526366,0.47685295,0.5107207,-0.8083657,856.211
2023-09-07,0.16752706,-0.32167864,0.26171377,0.41542843,0.15732317,0.6419551,-0.6905372,0.36019912,0.4015538,0.37659186,0.59408873,-0.3136043,341.9018
2023-09-08,0.27799505,-0.2985405,0.1767961,0.9759302,0.5375706,0.8543446,-0.7885249,0.1636487,0.54913455,0.5943446,0.43358696,-1.1716013,979.2248
2023-09-11,0.30278736,-0.2603734,0.22498213,0.8667444,0.46164203,0.8130581,-0.74004304,0.17562589,0.5369462,0.58074754,0.4477527,-1.0268356,112.700676
2023-09-12,0.18953559,-0.3617084,0.14304425,1.0336589,0.58202106,0.8611395,-0.7864216,0.15514988,0.57389337,0.58927244,0.38357088,-1.2842681,229.66895
2023-09-13,0.16225508,-0.3377289,0.18798476,0.8384187,0.46279153,0.7615881,-0.683712,0.17189327,0.56038934,0.52393234,0.39876223,-1.0478694,163.0354
2023-09-14,0.14569387,-0.36144146,0.1028353,1.0890106,0.66247696,0.83974254,-0.698556,0.10296061,0.6404611,0.61156905,0.30319452,-1.4465276,281.1219
2023-09-15,0.18554188,-0.40385637,0.038651634,1.257384,0.82755274,0.93337584,-0.74229276,0.08252417,0.6684408,0.6924543,0.31271642,-1.6273419,212.3736
2023-09-18,0.09830399,-0.28353682,0.24845375,0.77621865,0.43936446,0.6790655,-0.5565469,0.088043116,0.623523,0.5400538,0.30343208,-1.0896089,828.48676
2023-09-19,-0.009126056,-0.33766922,0.23171201,0.72540796,0.43778768,0.6525891,-0.48689666,0.090588294,0.65013355,0.4957304,0.25609007,-1.0838736,189.92656
2023-09-20,-0.010038301,-0.39062124,0.1331891,0.9428201,0.6005694,0.7276025,-0.53754264,0.05866938,0.68905526,0.54565996,0.2072601,-1.3780366,254.74887
2023-09-21,-0.11852447,-0.31533647,0.36578885,0.4709492,0.26586103,0.5337957,-0.3894932,0.0879546,0.61303145,0.42593265,0.21839336,-0.76106715,1567.627
2023-09-22,-0.18257537,-0.23606464,0.5500947,0.056751855,-0.012599509,0.40371028,-0.2705214,0.17005089,0.53390056,0.3106767,0.22677544,-0.24388129,582.2693
2023-09-25,-0.1614423,-0.2637806,0.44097096,0.651459,0.5923133,0.6120188,-0.21314028,-0.09467764,0.8688418,0.6372086,0.04484301,-1.2501466,6781.2974
2023-09-26,-0.2433182,-0.25945148,0.49719012,0.5287175,0.7171813,0.5513407,0.07131918,-0.17653143,1.0543846,0.7237853,-0.050440393,-1.2883997,585.3428
2023-09-27,-0.37611955,-0.22984393,0.6224791,0.19010817,0.6244379,0.34438974,0.34475347,-0.22765529,1.1044822,0.6777024,-0.13526016,-0.9975451,819.90845
2023-09-28,-0.33343026,-0.21115975,0.69286245,0.053148165,0.5981131,0.30754814,0.40918258,-0.22963852,1.1041579,0.67058074,-0.097370826,-0.8098611,185.20914
2023-09-29,-0.502377,-0.45271116,0.31870243,0.7814503,1.5154936,0.5882846,0.566635,-0.43985686,1.4505126,1.074241,-0.2709526,-1.9960762,2380.3765
2023-10-02,-0.5102937,-0.36351338,0.5592419,0.39664793,1.2595881,0.34687054,0.7365671,-0.4967964,1.4635795,1.0172122,-0.3088553,-1.5625539,288.77023
2023-10-03,-0.40642285,-0.42906594,0.31289917,0.8301337,1.3079906,0.68218446,0.30801558,-0.31580317,1.2941593,0.97582895,-0.16978389,-1.8891002,468.42056
2023-10-04,-0.47985408,-0.21943817,0.8809605,-0.36464238,0.6028574,0.067500874,0.7443617,-0.33815566,1.2008758,0.6781293,-0.22235739,-0.47040838,828.9336
2023-10-05,-0.29012877,-0.19550644,0.7097301,0.37518597,0.6378996,0.5076562,0.07594973,-0.21521816,1.0001165,0.6878604,-0.066056825,-1.0876735,1276.4746
2023-10-06,-0.29564673,-0.19125691,0.6831963,0.5471984,0.8275363,0.5540212,0.15258302,-0.31444636,1.1258581,0.8611214,-0.11680695,-1.410694,383.816
2023-10-09,-0.14903899,-0.15619384,0.59022903,0.83537924,0.8683268,0.7538062,-0.07766308,-0.27482086,1.0676029,0.9701119,-0.05546666,-1.6896211,428.80258
2023-10-10,-0.05165379,-0.08920942,0.7138995,0.43622097,0.63084096,0.62641424,0.07909137,-0.21918306,1.0848651,0.913491,-0.021846313,-1.224908,538.86707
2023-10-11,-0.073075384,-0.27395716,0.22867939,1.2413214,1.396201,1.0014961,-0.010442872,-0.31575304,1.2170056,1.247643,-0.021651521,-2.2946348,976.54285
2023-10-12,0.009810697,-0.21794589,0.27481666,1.1398398,1.4224528,0.91548866,0.12326555,-0.40193692,1.2900342,1.3658669,-0.028088626,-2.247424,1527.6287
2023-10-13,0.012102496,-0.11004153,0.50463676,0.78433216,1.1548742,0.7031757,0.26836464,-0.45527,1.3173144,1.3088571,-0.053721577,-1.8579571,475.54517
2023-10-16,-0.09943937,-0.12100439,0.6281558,0.623397,1.1461637,0.571764,0.41751617,-0.5394763,1.3901803,1.3116275,-0.0962638,-1.7080594,1163.1191
2023-10-17,-0.14301902,-0.4004377,0.10966727,1.2376329,1.8298388,0.957799,0.34282982,-0.46523118,1.4508662,1.4565511,-0.08492652,-2.5054166,688.5155
2023-10-18,-0.20982863,-0.3760028,0.17262079,1.2540991,1.6717137,0.9742492,0.22088253,-0.4217805,1.3857973,1.3468983,-0.09089429,-2.4643152,187.50034
2023-10-19,-0.3439573,-0.3229899,0.499128,0.62165844,1.4781693,0.5804405,0.70060676,-0.5427085,1.5502642,1.3189183,-0.22746816,-1.8867708,803.0919
2023-10-20,-0.33535412,-0.19302677,0.8065494,0.16692653,1.0549617,0.31028777,0.7815811,-0.5269083,1.4817878,1.1493641,-0.26368135,-1.2879965,332.04913
2023-10-23,-0.11937569,-0.04055369,0.9590713,-0.22585735,0.78698444,0.20695148,0.7850349,-0.46877107,1.3499739,1.0599831,-0.19301626,-0.73007196,554.5769
2023-10-24,-0.23391081,-0.3519475,0.4276487,0.6042092,1.5749605,0.60401547,0.7269132,-0.49210665,1.5572473,1.3816348,-0.17229718,-1.8733708,1804.134
2023-10-25,-0.09199265,-0.19043495,0.6852046,0.31958053,1.1924285,0.4737459,0.6373868,-0.48825216,1.4489378,1.2856916,-0.086351745,-1.394111,362.21576
2023-10-26,0.14957045,-0.103898674,1.2629517,-1.9947084,-0.22786541,-0.3042267,0.98345214,0.18902439,0.8067924,0.8000866,0.44647318,1.903246,2528.4973
2023-10-27,-0.11827353,-0.18806726,1.2822629,-2.2562385,-0.4497872,-0.52410287,0.93756807,0.3581818,0.59538686,0.5585123,0.5064193,2.5009468,639.7743
2023-10-30,-0.31064758,-0.27270308,1.2823213,-1.8446894,0.10945661,-0.5289787,1.1138146,-0.073419325,0.933272,0.7798954,0.18696827,1.6762809,682.9044
2023-10-31,-0.2678616,-0.2833868,1.3087059,-1.9771849,0.031981234,-0.5279214,1.1202385,0.024033688,0.89341116,0.761344,0.27792758,1.8929671,299.4502
2023-11-01,-0.43195757,-0.34159,1.3088135,-1.6789411,0.41904664,-0.5238759,1.240181,-0.25502837,1.109199,0.87450814,0.039347433,1.3309863,2634.331
2023-11-02,-0.3113657,-0.25481802,1.3565029,-2.050018,-0.19037487,-0.5291711,0.92796975,0.17517433,0.66476566,0.5489766,0.32791072,2.1872077,1294.3645
2023-11-03,-0.28213552,-0.23786135,1.3437908,-2.0555208,-0.28853774,-0.5134428,0.8419366,0.22951806,0.5814413,0.49237394,0.3821949,2.291505,156.24472
2023-11-06,-0.31893697,-0.23210709,1.3314384,-2.0859587,-0.46537358,-0.5143175,0.68077695,0.36639708,0.39344198,0.3245641,0.45228782,2.5397954,253.68944
2023-11-07,-0.1455766,-0.08437021,1.3597461,-1.2046019,0.0067991354,-0.025940299,0.51119685,-0.113082685,0.8376235,0.7347858,0.19446951,0.89194304,875.74695
2023-11-08,-0.5003832,-0.27725792,1.1764467,-0.12307468,1.0286434,0.10297316,0.6886475,-0.7196673,1.4027108,1.1503191,-0.17165276,-0.7286876,17166.703
2023-11-09,-0.57883185,-0.34661928,1.0433843,0.16209531,1.2531863,0.1647612,0.7006902,-0.7560949,1.5117474,1.1961977,-0.1926916,-1.0698789,443.1945
2023-11-10,-0.76081306,-0.4165047,1.0749071,0.015582025,1.218743,0.043980356,0.74764985,-0.76364005,1.4664835,1.0476544,-0.26778176,-0.8495201,303.7425
2023-11-13,-0.99858695,-0.65503186,0.662729,0.5583675,1.7863537,0.224076,0.71956223,-0.7870615,1.599569,0.9784475,-0.27922165,-1.4470356,4163.451
2023-11-14,-0.9734393,-0.71106136,0.5383006,0.7701856,1.9021019,0.3683685,0.63584447,-0.7360353,1.6115323,1.0257984,-0.25177073,-1.7374105,192.25957
2023-11-15,-0.8864215,-0.81424683,0.3778371,1.0823345,1.8441827,0.56841284,0.1274473,-0.5906199,1.3462231,0.86518,-0.07294313,-1.7324983,354.28406
2023-11-16,-0.879512,-0.83936787,0.41339162,1.0614282,1.6587129,0.5379853,-0.09940615,-0.49627241,1.190311,0.68315774,-0.023584433,-1.4732326,339.84082
2023-11-17,-0.67544675,-0.8334784,0.3957948,1.0359462,1.3976444,0.57833004,-0.51573783,-0.31967732,0.8559663,0.46710843,0.19024166,-0.96531045,1509.0342
2023-11-20,-0.60386986,-0.7718261,0.47096127,0.6153282,1.0185218,0.41767168,-0.66039777,-0.1729728,0.55535454,0.17120501,0.4214176,-0.007980444,525.5914
2023-11-21,-0.47150233,-0.915938,0.23633042,0.74790514,0.8550351,0.62527555,-1.1406153,0.18148857,0.26234758,-0.0045673996,0.6444713,0.1887519,3128.891
2023-11-22,-0.48230067,-0.8769583,0.23787344,0.54324764,0.65819633,0.5766907,-1.1906875,0.30837044,0.15324447,-0.11392245,0.72830576,0.56159526,2786.0342
2023-11-24,-0.5193633,-0.9093114,0.21416782,0.49301323,0.68589145,0.5430696,-1.1517245,0.31513876,0.14941767,-0.16323872,0.7173243,0.64298177,107.877754
2023-11-27,-0.5943013,-0.8406808,0.32256007,0.16351168,0.5455219,0.36441836,-0.9689508,0.2942557,0.1289202,-0.2296483,0.71000946,1.0379657,332.13004
2023-11-28,-0.6069476,-0.9285088,0.23173016,0.32117617,0.67189884,0.41843703,-0.94418615,0.28116187,0.21878004,-0.2027799,0.653447,0.7162312,302.5182
2023-11-29,-0.7278641,-0.9027996,0.34809226,0.049236387,0.6288548,0.22728056,-0.6379903,0.18654189,0.3021322,-0.19774799,0.5537495,0.8710306,353.19827
2023-11-30,-0.907075,-1.0684568,0.035167385,0.98974884,1.4134818,0.47046044,-0.47342196,-0.14472196,0.79888415,0.16488636,0.021083646,-0.93876266,3129.9746
2023-12-01,-1.2758852,-1.1731449,-0.069163546,1.2848371,2.203986,0.5399145,0.2722981,-0.5012158,1.4231375,0.6465348,-0.38881004,-2.3044906,3311.3403
2023-12-04,-1.3469589,-1.2326069,-0.18898958,1.3229843,2.4316165,0.5255351,0.46760148,-0.5549552,1.5414947,0.6867098,-0.47205532,-2.5146441,327.35587
2023-12-05,-1.4256276,-1.1903021,-0.0074099265,0.9853941,2.3516424,0.31755203,0.7775343,-0.64485735,1.6611162,0.7114604,-0.562369,-2.2301147,298.02606
2023-12-06,-1.4541904,-1.08978,0.16995853,0.7337785,2.178241,0.1396085,0.8984958,-0.68411106,1.6662678,0.65674573,-0.6098854,-1.9013535,2545.889
2023-12-07,-1.414829,-1.0035173,0.26342905,0.61711097,2.0460813,0.08651955,0.9146931,-0.7011016,1.6610545,0.6639317,-0.60323447,-1.7548548,140.10115
2023-12-08,-1.2824464,-0.93879783,0.2929832,0.7001935,1.7951806,0.18722509,0.5307195,-0.60266566,1.4724948,0.5565338,-0.4563551,-1.5908141,286.38992
2023-12-11,-1.2517148,-1.1361741,-0.05772115,1.2570432,2.1068661,0.5415889,0.20509389,-0.47888258,1.3853986,0.6113955,-0.41969252,-2.2485018,576.32776
2023-12-12,-1.2466161,-1.4255236,-0.62892514,1.8633133,2.662379,0.9350036,0.022125546,-0.3415049,1.3934894,0.685856,-0.3846616,-3.0641649,1337.9886
2023-12-13,-1.2047962,-1.4276127,-0.64300686,1.9570134,2.6023533,1.0144005,-0.18945995,-0.27525473,1.2795168,0.6444133,-0.33443865,-3.0622993,1024.5481
2023-12-14,-1.1412255,-1.3816952,-0.63081974,2.0230427,2.5781806,1.0385231,-0.24967489,-0.28739378,1.2671542,0.68496644,-0.2992112,-3.1124916,72.69316
2023-12-15,-1.2149559,-1.4246424,-0.63670826,1.9216213,2.4246285,0.9615329,-0.38887098,-0.21647415,1.1203996,0.4973482,-0.2786219,-2.8171256,164.65593
2023-12-18,-1.1317668,-1.4523546,-0.75706553,2.0398054,2.4867122,1.0638102,-0.56153625,-0.1619994,1.007867,0.47882855,-0.15620631,-2.8072588,174.66324
2023-12-19,-0.9377577,-1.5803415,-1.1284301,2.4263408,2.7581322,1.3633378,-0.71060926,-0.012864269,0.9676613,0.6277307,-0.016537584,-3.2752852,392.80597
2023-12-20,-0.88421404,-1.6159986,-1.2414315,2.5079858,2.8653393,1.4308641,-0.6999042,0.005871229,0.97322726,0.67349756,0.012519024,-3.3849108,364.24478
2023-12-21,-0.95974064,-1.5906001,-1.1322373,2.3690963,2.689033,1.3358238,-0.7416823,0.02520933,0.92393756,0.57011956,-0.019668318,-3.1890662,655.8893
2023-12-22,-0.8868399,-1.6083977,-1.2325538,2.4902275,2.810187,1.4185815,-0.75843143,0.030462407,0.9233258,0.6307279,0.028160296,-3.3210175,314.49524
2023-12-26,-0.8933963,-1.6328698,-1.279999,2.4989133,2.8499734,1.4324162,-0.75030893,0.040125363,0.9119279,0.62179804,0.034738354,-3.3379261,68.16059
2023-12-27,-0.8945695,-1.6629041,-1.3389173,2.5291986,2.917642,1.451019,-0.701027,0.03359411,0.94787735,0.65306675,0.026631348,-3.4371588,69.585144
2023-12-28,-0.83943087,-1.6320754,-1.3230605,2.5622752,2.876084,1.4778926,-0.7713193,0.04447531,0.9165523,0.66620195,0.055352025,-3.4314535,169.53079
2023-12-29,-0.84650546,-1.6362454,-1.361427,2.5892901,2.9324982,1.4766076,-0.70303965,0.0227435,0.9626796,0.69821155,0.022342615,-3.5452235,137.60425
2024-01-02,-0.9208179,-1.651054,-1.3600099,2.5399601,2.9681523,1.4143374,-0.5855089,-0.015130229,1.0145298,0.68179256,-0.040090866,-3.5700057,488.2424
2024-01-03,-0.6867436,-1.0952142,-0.2322678,0.36348358,0.47060376,0.38120452,-0.88621867,0.482232,0.12996109,-0.28938752,0.71541154,0.78049004,5959.4287
2024-01-04,-0.48454335,-0.7904456,0.14791541,-0.29629317,-0.14669017,0.2523092,-0.88647705,0.74238485,-0.08657445,-0.3261037,0.9915489,1.8614086,977.82275
2024-01-05,-0.33382228,-0.76314354,0.10715783,-0.2786587,-0.10684186,0.3766011,-1.0166509,0.8504254,-0.11203875,-0.2929703,1.1230075,1.9903659,233.48985
2024-01-08,-0.34552088,-0.70142555,0.19770283,-0.48268268,-0.33825302,0.19407383,-0.75069577,0.7937667,-0.086516485,-0.2832973,0.99359274,2.0205646,506.30942
2024-01-09,-0.18447831,-0.82871926,-0.078663096,0.10838428,0.101381734,0.5232664,-1.0783708,0.78898907,-0.012809351,-0.15239869,1.0330226,1.2691908,843.4
2024-01-10,-0.33371648,-1.012521,-0.32746956,1.2721334,0.81410277,0.685666,-0.96800596,0.22044685,0.39417052,0.17564347,0.3057335,-1.0396028,5954.209
2024-01-11,-0.7245691,-0.8313763,-0.115502566,1.1854942,0.8318284,0.4222125,-0.32076332,-0.07734546,0.7820712,0.32434887,-0.20486078,-1.6288918,855.8634
2024-01-12,-0.7849237,-1.0496541,-0.40704632,1.7502913,1.5488529,0.74250555,-0.36023572,-0.16884807,1.001079,0.56330764,-0.25282183,-2.5828025,810.9594
2024-01-16,-0.4510226,-0.9860876,-0.5220969,1.9202465,1.3917559,0.9002773,-0.7906139,-0.02592672,0.76173913,0.56800723,0.023221307,-2.4232213,462.18356
2024-01-17,-0.96186453,-1.3024148,-0.8511896,2.1503327,2.4230819,0.9885156,-0.0103244,-0.2369662,1.3360445,0.818599,-0.37585583,-3.5162826,3100.1406
2024-01-18,-0.9837246,-1.3369015,-0.90577704,2.209643,2.5597115,1.0347853,0.011618841,-0.24412629,1.3624741,0.8428899,-0.3760845,-3.6224756,247.99695
2024-01-19,-0.9589131,-1.3906487,-1.0638283,2.3265438,2.7532322,1.118052,0.0014494769,-0.23871428,1.3611197,0.86605775,-0.34212434,-3.7759,150.74417
2024-01-22,-0.97635525,-1.4205362,-1.1397742,2.3290923,2.8359742,1.1021974,0.06584436,-0.26011375,1.3796635,0.8674873,-0.3460397,-3.8098083,4470.803
2024-01-23,-0.86963207,-1.4741169,-1.2344837,2.4583724,2.7503946,1.2407031,-0.27613813,-0.12715608,1.1970668,0.8111042,-0.17965636,-3.7520897,683.9737
2024-01-24,-0.58642256,-1.474681,-1.2339705,2.4523988,2.2677,1.3282542,-1.0075102,0.15988216,0.675047,0.57413554,0.22414583,-3.0047362,865.5961
2024-01-25,-0.391301,-1.2018567,-0.7007686,1.8129851,1.3665876,1.0096068,-1.30842,0.26651663,0.33073136,0.2382089,0.44711947,-1.6384194,535.8114
2024-01-26,-0.31493816,-1.1986234,-0.7059515,1.7016758,1.3093797,1.0264413,-1.444592,0.36527663,0.22200386,0.1446082,0.63342166,-1.2365127,218.34589
2024-01-29,-0.23509681,-1.1214181,-0.5845844,1.538379,1.1202179,0.9757238,-1.5001718,0.42423362,0.16019419,0.09175582,0.740502,-0.8663455,209.18822
2024-01-30,-0.3362103,-1.3016237,-0.9079035,2.0107365,1.640787,1.2345543,-1.4770775,0.35005778,0.27722198,0.2863012,0.56969,-1.7613012,648.56085
2024-01-31,-0.34203357,-1.3266507,-0.9847758,2.0781386,1.7432083,1.2902653,-1.4862919,0.35403472,0.27718735,0.30328357,0.57447106,-1.8430731,39.414726
2024-02-01,-0.36967,-1.3392068,-1.0125878,2.169029,1.808176,1.3119123,-1.4194176,0.33406028,0.35228628,0.3842755,0.5177695,-2.1124256,110.05306
2024-02-02,-0.3911455,-1.384617,-1.1615195,2.3648632,2.0444233,1.4138751,-1.336827,0.29953018,0.44912565,0.5087171,0.45072684,-2.5341544,162.71442
2024-02-05,-0.40004024,-1.3046104,-1.0459758,2.3868358,1.9966775,1.3304088,-1.1919715,0.21037677,0.5916871,0.5928515,0.30223736,-2.7692058,158.26833
2024-02-06,-0.5047312,-1.104174,-0.88984054,2.412629,2.276914,1.2875142,-0.54929215,-0.11096463,1.1291771,0.94486076,-0.07328541,-3.5599597,584.4827
2024-02-07,-0.5261055,-1.0332404,-0.7709374,2.2935119,2.1093843,1.176671,-0.5023269,-0.13404778,1.1229266,0.8965366,-0.11200597,-3.4076178,137.06026
2024-02-08,-0.4538398,-0.93252957,-0.6540158,2.2294462,1.9765234,1.1545105,-0.49777207,-0.15522662,1.125258,0.9514211,-0.101553746,-3.339217,83.99927
2024-02-09,-0.43178466,-0.884071,-0.6632289,2.2106059,2.0496254,1.147408,-0.34148574,-0.21025982,1.2185969,1.0494568,-0.138471,-3.443066,141.5357
2024-02-12,-0.4371725,-0.8352681,-0.5799794,2.0891733,1.9055804,1.0446498,-0.28435877,-0.22577304,1.214884,1.0126808,-0.16165861,-3.295787,89.73599
2024-02-13,-0.49320266,-0.7392754,-0.30462572,1.6952386,1.3542572,0.76834,-0.33410156,-0.18673015,1.0593071,0.7706852,-0.16889822,-2.625913,242.31532
2024-02-14,-0.60882026,-0.9511403,-0.6372723,2.0761662,2.0379226,0.9970993,-0.17074576,-0.24237904,1.271559,0.956864,-0.23341498,-3.3470123,452.57516
2024-02-15,-0.48128974,-0.8360455,-0.52866083,1.9685577,1.7451183,0.9505325,-0.28378025,-0.1933037,1.1522441,0.89479434,-0.1815455,-3.0854518,206.66678
2024-02-16,-0.46963653,-0.62461823,-0.13954087,1.4491826,1.0460341,0.601604,-0.33776695,-0.20087326,0.9362499,0.6429443,-0.14844,-2.2079341,320.97427
2024-02-20,-0.40141213,-0.36376402,0.24740776,0.8196391,0.40944982,0.27803805,-0.28654298,-0.1966931,0.67915064,0.44778097,-0.06620566,-1.24859,665.58325
2024-02-21,-0.4131535,-0.44397855,0.19311613,0.866907,0.436396,0.33967865,-0.35906208,-0.1341933,0.6685463,0.4226963,-0.035327755,-1.2653277,193.66515
2024-02-22,-0.45578882,-0.5602394,0.0253346,1.1393028,0.6999001,0.45653808,-0.40358704,-0.16002724,0.7537155,0.46665716,-0.080686934,-1.6437172,462.68414
2024-02-23,-0.48736948,-0.633318,-0.08076279,1.3719555,0.93443406,0.5588693,-0.42339864,-0.18074808,0.84313214,0.546397,-0.115137435,-1.9938961,625.911
2024-02-26,-0.534431,-0.43525124,0.2662418,0.36826727,0.020200003,0.012293227,-0.20168903,0.029464595,0.4419073,0.049749643,0.037178293,-0.37570444,1259.9816
2024-02-27,-0.5450349,-0.6135676,0.081443176,0.834587,0.46289623,0.3020794,-0.37617382,-0.015082635,0.60091674,0.20685226,-0.0013187602,-1.0784911,5667.9116
2024-02-28,-0.5964122,-0.6553247,0.03965031,0.84760296,0.5081149,0.27638006,-0.35260764,-0.012500793,0.606792,0.16680735,-0.03002385,-1.0889306,2308.7432
2024-02-29,-0.69763744,-0.8956253,-0.33384192,1.4555836,1.1584045,0.56329066,-0.47596365,-0.08473283,0.81632185,0.33601546,-0.14117238,-1.9750637,2499.478
2024-03-01,-0.69998586,-1.0133708,-0.50818235,1.6190696,1.3513812,0.666133,-0.5664504,-0.038160127,0.79284936,0.34028852,-0.09797434,-2.125998,228.21774
2024-03-04,-0.64049226,-1.0357051,-0.57033247,1.687468,1.4112669,0.7271945,-0.62227327,-0.019177083,0.7806299,0.3783514,-0.045259394,-2.1725988,169.07976
2024-03-05,-0.6462285,-1.0556375,-0.57933205,1.6373055,1.3802762,0.70664257,-0.6137077,-0.0104840025,0.7698419,0.357785,-0.02644176,-2.1021893,110.73577
2024-03-06,-0.6397113,-0.9934458,-0.4815746,1.4646991,1.2100244,0.5920297,-0.55740124,-0.017191343,0.7424255,0.28774118,-0.026329555,-1.8524008,171.46686
2024-03-07,-0.70314366,-1.1124343,-0.67552006,1.6114651,1.4682914,0.6756245,-0.5328989,-0.009132262,0.78323674,0.32507306,-0.038256563,-2.0785096,234.90138
2024-03-08,-0.68587357,-1.233265,-0.8885294,1.854646,1.8068835,0.85458106,-0.54330605,0.0026632473,0.8410387,0.44363803,-0.004261799,-2.4499426,391.18845
2024-03-11,-0.69680816,-1.2580743,-0.9769598,1.8877795,1.9280457,0.8673115,-0.44261318,-0.015791308,0.89662963,0.4848029,-0.029326923,-2.585798,1344.5767
2024-03-12,-0.66912705,-1.1979927,-0.84081435,1.6242977,1.5927331,0.75047916,-0.5184363,0.050111793,0.77036905,0.34285402,0.03281819,-2.093122,776.2908
2024-03-13,-0.6517491,-1.4791242,-1.4025717,2.310437,2.6002629,1.2357833,-0.3897174,0.015789844,1.0191479,0.72243,0.019011341,-3.305652,599.36426
2024-03-14,-0.6477153,-1.3804423,-1.2332287,1.9949243,2.1542854,1.0002971,-0.4310444,0.049402155,0.88380456,0.53088874,0.04135769,-2.738725,467.19037
2024-03-15,-0.62158465,-1.4620639,-1.4359349,2.2018287,2.52831,1.1559482,-0.3454846,0.014831521,0.99624294,0.6926501,0.061552636,-3.1349142,265.9935
2024-03-18,-0.5380504,-1.2920934,-1.1786267,1.9936972,2.0974681,1.0289881,-0.50718594,0.039270796,0.8621112,0.60084,0.12349903,-2.6498878,434.8737
2024-03-19,-0.52562207,-1.3941678,-1.3717858,2.1476243,2.429623,1.183413,-0.39485997,0.015044637,0.979253,0.74905217,0.13683471,-3.008593,211.58943
2024-03-20,-0.44095773,-1.3948282,-1.4073707,2.2298324,2.510888,1.2684705,-0.42257145,0.015420847,0.98315287,0.83198106,0.19609636,-3.088885,100.07477
2024-03-21,-0.49163774,-1.4778022,-1.5393502,2.2850852,2.7516334,1.2942703,-0.28087658,-0.029818468,1.0607218,0.876722,0.17528838,-3.250354,396.92163
2024-03-22,-0.36728016,-1.4448112,-1.4897871,2.229307,2.4890258,1.2940869,-0.5553587,0.075525746,0.87531143,0.78159404,0.3123502,-2.8865936,611.4678
2024-03-25,-0.32687148,-1.46711,-1.5185475,2.266146,2.554068,1.3280649,-0.58043265,0.08007195,0.86254895,0.8060616,0.36758754,-2.8703701,54.736595
2024-03-26,-0.29818565,-1.4684936,-1.4926022,2.2184935,2.5235803,1.3479068,-0.59741044,0.10317283,0.8559799,0.8148193,0.40864906,-2.7855353,63.118614
2024-03-27,-0.25720882,-1.4786023,-1.514852,2.1726692,2.5038686,1.3454309,-0.628759,0.133178,0.80553657,0.7854035,0.46674344,-2.636002,82.36886
2024-03-28,-0.20209892,-1.4682035,-1.5091028,2.1131825,2.4966557,1.3266792,-0.60485464,0.12052702,0.7931877,0.79638463,0.5156382,-2.494374,59.009533
2024-04-01,-0.16028953,-1.4025537,-1.453366,2.052983,2.3913713,1.3018308,-0.6170663,0.12372505,0.7809527,0.8008749,0.5255546,-2.4131222,49.750347
2024-04-02,-0.23063433,-1.485197,-1.5415574,2.271912,2.595562,1.446446,-0.6786233,0.15075552,0.8210056,0.83992946,0.4822906,-2.7802966,151.4337
2024-04-03,-0.2049371,-1.4820685,-1.5512606,2.2092454,2.5172868,1.3983297,-0.7260297,0.1794621,0.76219106,0.77687955,0.51899517,-2.6077142,75.59818
2024-04-04,-0.13489847,-1.4783214,-1.5222858,2.014516,2.3620152,1.3215938,-0.82298255,0.24514127,0.6036521,0.63645077,0.6501813,-2.085017,190.91577
2024-04-05,-0.07280496,-1.4118661,-1.3877484,1.8391548,2.1228235,1.2202971,-0.8869579,0.28490672,0.5229436,0.55003524,0.75175273,-1.7198015,169.94022
2024-04-08,-0.060039315,-1.4266287,-1.4445773,1.869846,2.197178,1.2785733,-0.9354738,0.31689444,0.46374148,0.5148177,0.7773614,-1.6589501,73.98753
2024-04-09,-0.14097397,-1.5074741,-1.5614269,2.1671865,2.4634206,1.4411936,-0.9321654,0.28182665,0.5870008,0.655962,0.64209986,-2.2608654,308.39514
2024-04-10,-0.1448251,-1.4997355,-1.5239853,2.2822266,2.479652,1.526268,-1.0547652,0.31127113,0.5538554,0.6628331,0.6412878,-2.3732412,52.90416
2024-04-11,-0.085866496,-1.4552646,-1.4440522,2.198457,2.3135319,1.501893,-1.1738944,0.37628078,0.46443534,0.5769357,0.7032859,-2.1142473,142.75189
2024-04-12,-0.16447319,-1.4971889,-1.514872,2.3583176,2.5313551,1.5662229,-1.092095,0.30168954,0.54882586,0.6717898,0.6260096,-2.4648094,209.27219
2024-04-15,-0.11145942,-1.4277636,-1.3851447,2.2539487,2.3049753,1.4897382,-1.1860375,0.34349832,0.48756796,0.60575753,0.66582835,-2.2319999,122.94233
2024-04-16,-0.05629849,-1.3837657,-1.2728654,2.198731,2.1931822,1.50895,-1.2364784,0.37715667,0.46560693,0.6081697,0.6959491,-2.13748,96.97932
2024-04-17,-0.043907154,-1.361036,-1.2430302,2.2943358,2.268818,1.5878916,-1.2752985,0.360018,0.47131133,0.6610272,0.69925773,-2.2450862,62.134846
2024-04-18,-0.0010372289,-1.343657,-1.2533457,2.2690127,2.2794764,1.5818942,-1.2374262,0.35044464,0.47958773,0.6885593,0.72762644,-2.2119806,118.77711
2024-04-19,0.1566679,-1.2276405,-1.123336,1.9425741,2.0466402,1.4549732,-1.1903013,0.3893635,0.38018632,0.59799504,0.91836995,-1.5799196,15359.684
2024-04-22,-0.57248974,-0.7611171,0.064802945,-0.38260972,1.1608019,-0.35758144,0.9344231,-0.5447808,1.323426,0.67062676,0.30452368,0.114116706,1749.4694
2024-04-23,0.0923253,-1.2660815,-1.2249364,1.8609339,2.359362,1.372783,-0.61230254,0.1114525,0.74910945,0.9003009,0.75456786,-1.964796,5679.418
2024-04-24,-0.0017236173,-1.2530212,-1.2523098,1.9133948,2.503607,1.3143806,-0.38189483,-0.051480822,0.9378991,1.0381567,0.63566536,-2.272427,374.0697
2024-04-25,-0.32561067,-1.1653609,-0.97531545,1.1519715,2.512868,0.69184834,0.50903785,-0.4627438,1.3712044,1.0834812,0.340745,-1.8709075,20054.553
2024-04-26,-0.75900567,-1.0129945,-0.52996576,0.5849998,2.6176546,0.16099007,1.2777697,-0.84852296,1.8150557,1.118234,-0.12622795,-1.7380711,736.063
2024-04-29,-0.6584934,-1.0289848,-0.5807568,0.6149992,2.5261562,0.2069437,1.1136458,-0.7887624,1.7111979,1.0850488,-0.000643231,-1.5939825,197.93057
2024-04-30,0.014722925,-1.2472931,-1.2065936,1.6903278,2.4903364,1.2238312,-0.1949385,-0.079658665,1.0216082,1.0475391,0.63981533,-2.0527775,100747.8
2024-05-01,-1.0175416,-0.8515079,0.06938714,0.047911778,2.3744023,-0.30436364,1.7197058,-1.0396042,2.065066,1.1506729,-0.5022057,-1.3268043,9888.539
2024-05-02,-0.51245606,-0.7022191,0.2206474,-0.21704754,1.9115745,-0.26275143,1.4072895,-0.9212677,1.8687408,1.208501,-0.17291364,-0.7693251,1023.01227
2024-05-03,-0.21660882,-0.63360465,0.3815207,-0.48648557,1.4880058,-0.2936862,1.2267798,-0.7842619,1.6781652,1.1516069,0.102053836,-0.24754626,567.9284
2024-05-06,0.42622545,-0.7795466,0.102900416,-0.35243008,0.9006527,0.06336291,0.34574133,-0.120661505,0.9402931,0.74469,0.9938731,0.78747594,2109.1572
2024-05-07,0.19442362,-1.0396242,-0.63250655,2.1055934,1.7888643,1.5746381,-1.424166,0.33929467,0.4139766,0.7545936,0.7140277,-1.9387327,5308.373
2024-05-08,0.24325618,-0.98212177,-0.5634023,2.0265982,1.763333,1.5341418,-1.3224181,0.28699255,0.46758556,0.8024419,0.72473013,-1.872425,96.092896
2024-05-09,0.3176217,-0.9277166,-0.48035496,1.9060637,1.630467,1.4849441,-1.3390291,0.31403682,0.42432123,0.7562757,0.7624609,-1.6391697,110.8891
2024-05-10,0.31548396,-0.9213617,-0.44021732,1.8670112,1.5926512,1.4595776,-1.3324594,0.30760184,0.4145946,0.73907524,0.7608423,-1.5639243,27.699448
2024-05-13,0.30460435,-0.883981,-0.33338994,1.7785509,1.4287473,1.4123712,-1.4024774,0.3508433,0.35631523,0.657399,0.76635945,-1.3785399,107.03564
2024-05-14,0.16803786,-0.994325,-0.4947346,2.052979,1.6652323,1.5662582,-1.4506521,0.33349594,0.42452478,0.75096875,0.6628473,-1.9103326,242.42863
2024-05-15,0.19075677,-0.96628094,-0.4122916,1.9515954,1.5378219,1.5204403,-1.5272596,0.35883895,0.33603215,0.65667444,0.70301986,-1.639903,115.01781
2024-05-16,0.18941265,-0.9514158,-0.3960708,1.9514385,1.5458744,1.5213714,-1.5427539,0.3347583,0.32169843,0.6538532,0.7213543,-1.5845562,25.17361
2024-05-17,0.20367286,-0.935167,-0.3656108,1.9256955,1.5305885,1.509073,-1.5191686,0.3269389,0.33460033,0.66609097,0.72658324,-1.5559843,32.31826
2024-05-20,0.20197168,-0.94922876,-0.35900915,1.8682977,1.4904778,1.493654,-1.5282451,0.36071488,0.30230075,0.6171404,0.75007606,-1.423438,50.44992
2024-05-21,0.18041864,-0.9929731,-0.43914652,1.9957508,1.6162928,1.5677214,-1.5194831,0.33763757,0.3483209,0.7000791,0.7182773,-1.6917738,116.54763
2024-05-22,0.2875717,-0.8788593,-0.28183493,1.77259,1.3744544,1.467694,-1.4610462,0.37224895,0.32998955,0.6629002,0.7647047,-1.33121,191.67717
2024-05-23,0.33347544,-0.791667,-0.1622293,1.6124629,1.1899142,1.3681774,-1.4390385,0.37626225,0.30829954,0.624562,0.7915311,-1.0685686,135.74057
2024-05-24,0.3339383,-0.717414,-0.050109383,1.4594734,1.0305536,1.2709305,-1.4205477,0.3787998,0.28265396,0.58733606,0.81120217,-0.84576845,148.19206
2024-05-28,0.34634727,-0.72602564,-0.08480391,1.3927075,1.0318428,1.2537119,-1.4281366,0.41637498,0.23637757,0.5254825,0.87449443,-0.62097603,151.9463
2024-05-29,0.31792364,-0.7032194,0.024182085,1.209257,0.83854026,1.1377685,-1.387112,0.44833893,0.23916316,0.4808855,0.8984293,-0.42424488,235.64978
2024-05-30,0.29145518,-0.59846306,0.16926174,0.816131,0.52028275,0.9629219,-1.3055005,0.53806144,0.18519269,0.39483953,0.9570854,0.09994974,905.4435
2024-05-31,0.35743186,-0.44567576,0.30826446,0.48570016,0.34969094,0.85625476,-1.1263971,0.5510737,0.19364733,0.4010849,1.0102882,0.497788,640.52484
2024-06-03,0.6407901,-0.2431173,0.62043214,-1.2092491,-0.34094504,0.28680414,-0.17041977,0.73567927,0.22855902,0.4578696,1.2281054,2.300347,1373.1958
2024-06-04,0.6293997,-0.27948412,0.46735257,0.122705266,0.27635536,0.7233207,-0.6968573,0.40120724,0.38880813,0.661561,0.9966237,0.5708197,1047.8169
2024-06-05,0.6104391,-0.2251233,0.5362706,0.14578259,0.25969005,0.7153695,-0.7033432,0.33525342,0.4116491,0.6958786,0.93844223,0.47272587,114.6003
2024-06-06,0.5670766,-0.28730363,0.47641245,0.41437483,0.41253316,0.7770759,-0.81594425,0.28081557,0.41548848,0.69839966,0.9126191,0.202036,391.1648
2024-06-07,0.5826463,-0.2181633,0.5712248,0.08833042,0.21782207,0.6715747,-0.6892908,0.31050408,0.4046073,0.6932519,0.92779374,0.5379607,383.55423
2024-06-10,0.676434,-0.121032625,0.71300536,-0.7356398,-0.13146114,0.36268306,-0.2288245,0.3394288,0.43191922,0.7164427,0.970065,1.3699676,1470.0436
2024-06-11,0.6537345,-0.17044526,0.5837841,0.009855062,0.19868128,0.63951874,-0.55319387,0.27299106,0.4841022,0.77006817,0.90263796,0.48137805,743.8153
2024-06-12,0.60540974,-0.16214134,0.6145154,-0.053821564,0.1128467,0.6543827,-0.6082976,0.36416203,0.4296534,0.708048,0.913072,0.58339965,794.19464
2024-06-13,0.5416498,-0.26728895,0.5061141,0.23908363,0.29184055,0.72058916,-0.775647,0.3421268,0.37609696,0.6566056,0.94285154,0.4070555,892.7516
2024-06-14,0.45604536,-0.25360823,0.57596725,-0.28257352,-0.038592648,0.6093677,-0.7125221,0.5596841,0.27235717,0.49110353,1.0338322,1.1436944,696.7077
2024-06-17,0.34775254,-0.27460736,0.6028271,-0.49799755,-0.1839858,0.56211346,-0.708955,0.6846282,0.20593785,0.36414504,1.0786521,1.4722295,603.54297
2024-06-18,0.27544373,-0.450324,0.4273724,-0.07363933,0.08530508,0.70647645,-0.911639,0.69162893,0.19823658,0.3046403,1.0873177,1.1020381,446.78745
2024-06-20,0.25797504,-0.4722383,0.40094757,0.02723965,0.14206842,0.72975355,-0.9649646,0.6770181,0.18456651,0.2916556,1.0763365,1.0148966,252.25577
2024-06-21,0.321964,-0.39955014,0.4566245,-0.2552995,-0.014955346,0.6471924,-0.83617824,0.723341,0.17745692,0.29724428,1.1101067,1.3283702,1273.1398
2024-06-24,0.34916845,-0.41709673,0.4086431,-0.09765819,0.096716344,0.6918411,-0.9049086,0.7000845,0.16066314,0.304762,1.1077807,1.1920234,872.5974
2024-06-25,0.4768618,-0.4373249,0.374812,-0.11536448,0.13346525,0.72031575,-0.79768354,0.7336803,0.22707887,0.3772884,1.1399674,1.1214858,200.54984
2024-06-26,0.5114069,-0.38614887,0.41363254,-0.21472973,0.07527599,0.68302155,-0.7573337,0.7284762,0.21677822,0.3976276,1.1363811,1.2205944,189.0581
2024-06-27,0.45878765,-0.30538785,0.52056384,-0.66373444,-0.21689661,0.52963126,-0.6396074,0.84652454,0.1368602,0.3117667,1.1876094,1.7756904,816.9452
2024-06-28,0.44346252,-0.22603391,0.61302614,-1.054061,-0.4206819,0.36871785,-0.48577434,0.8778961,0.07844488,0.2675029,1.2321678,2.2636466,346.10086
2024-07-01,0.48598775,-0.10319629,0.7686831,-1.4152268,-0.5751471,0.2464098,-0.25639707,0.8305257,0.11957756,0.34554166,1.1630259,2.465504,342.23062
2024-07-02,0.5343893,-0.2053668,0.68908525,-1.3339423,-0.448353,0.25784436,-0.2349742,0.82622015,0.16137628,0.36879194,1.213666,2.4087596,208.96344
2024-07-03,0.44215646,-0.19211946,0.7227418,-1.4564291,-0.55218565,0.20882025,-0.2586344,0.875565,0.0976478,0.27964777,1.2027476,2.5960553,168.32777
2024-07-05,0.4006966,-0.2342496,0.6924957,-1.4297243,-0.53227156,0.1988043,-0.2830624,0.87258047,0.07810752,0.24289306,1.2213316,2.6360896,91.75453
2024-07-08,0.37656108,-0.23087968,0.72109044,-1.408652,-0.5079698,0.14320779,-0.2397048,0.76028687,0.106741205,0.28138304,1.1400056,2.5266693,137.09813
2024-07-09,0.39826605,-0.27649266,0.7011798,-1.2878119,-0.41854137,0.21885246,-0.2559537,0.7535408,0.18000758,0.3198691,1.1491139,2.3283734,205.91626
2024-07-10,0.3734314,-0.25880456,0.69361013,-1.255136,-0.44185036,0.229978,-0.31232712,0.76420003,0.15248264,0.28280145,1.134155,2.326713,78.5944
2024-07-11,0.31197032,-0.25497764,0.7438361,-1.373269,-0.47414225,0.12905675,-0.22743678,0.68066067,0.14335394,0.28600746,1.0925479,2.4487016,139.92514
2024-07-12,0.33283678,-0.182478,0.8550736,-1.634916,-0.5762878,0.043886915,-0.07420832,0.67968804,0.16991895,0.33950818,1.0288981,2.5887694,272.96494
2024-07-15,0.30548444,-0.12927291,0.98315495,-1.8314648,-0.649135,-0.05727361,0.0662439,0.6456452,0.21080475,0.3935526,0.92437685,2.6328824,553.63837
2024-07-16,0.33179662,-0.123932764,0.97829425,-1.8497413,-0.7113979,0.0162265,0.034155827,0.7610477,0.21058749,0.38274807,0.9786304,2.6527631,227.94574
2024-07-17,0.2724021,-0.10525185,1.0723107,-2.0274684,-0.73007995,-0.06379518,0.15114918,0.74807227,0.21462752,0.38820684,0.9159914,2.8490252,909.3501
2024-07-18,0.23198947,-0.11219855,1.1807803,-2.1533287,-0.7101486,-0.12024084,0.3392271,0.656256,0.32652956,0.48822516,0.7868209,2.7803648,360.08786
2024-07-19,0.175696,-0.15005533,1.1986841,-2.2036512,-0.6827128,-0.16159022,0.39732283,0.6494635,0.3359961,0.48503846,0.8033455,2.8811967,127.55139
2024-07-22,0.010511946,-0.12412126,1.205357,-2.3263433,-0.8601954,-0.2722091,0.31807187,0.79183716,0.15877138,0.26319802,0.8194598,3.2502518,367.04312
2024-07-23,0.13423671,-0.16062535,1.2027098,-2.2942297,-0.7022653,-0.20901385,0.40680358,0.70294803,0.294295,0.4269637,0.838367,3.0814865,1443.7788
2024-07-24,0.12649733,-0.1345092,1.195715,-2.3118966,-0.7615549,-0.22303641,0.36982316,0.7329805,0.23987721,0.39158732,0.8271884,3.12233,81.325836
2024-07-25,-0.08389281,-0.1746211,1.0412129,-2.2562346,-1.0455338,-0.2794193,0.13502571,0.99642295,-0.023117349,0.022384532,0.96340406,3.4956806,605.81464
2024-07-26,-0.080037236,-0.18436724,1.1211935,-2.326978,-0.93522304,-0.33130604,0.26625052,0.8840507,0.06830047,0.12251697,0.9079104,3.4713166,1007.81384
2024-07-29,-0.0908905,-0.21153484,1.0720441,-2.3163924,-0.9266615,-0.32787132,0.21223342,0.9262624,0.0107331425,0.061156236,0.9638449,3.6098945,204.67119
2024-07-30,-0.07070063,-0.24622132,0.96234554,-2.2386253,-0.97869164,-0.24609047,0.099536166,1.0513252,-0.04680951,-0.0077528805,1.0751108,3.6388457,810.5053
2024-07-31,-0.06253111,-0.25586295,1.0497588,-2.3094354,-0.9051304,-0.28647012,0.23231539,0.9583326,0.06213306,0.100063235,1.0032105,3.5636604,1826.0342
2024-08-01,-0.08173481,-0.29887798,1.2216963,-2.3671794,-0.5584999,-0.32811785,0.5561371,0.6867686,0.3581157,0.3627581,0.8198157,3.2205982,1053.7672
2024-08-02,0.0036699213,-0.2755197,1.1852125,-2.2942512,-0.6416967,-0.27755922,0.491908,0.71494675,0.34929857,0.36698288,0.8240025,3.0609057,173.42567
2024-08-05,-0.42784926,-0.4387539,1.3539745,-1.721751,0.69630504,-0.3900597,1.4299375,-0.268958,1.3577175,0.97424406,-0.0015405193,1.2265463,13048.351
2024-08-06,-0.3948912,-0.41123474,1.2936081,-1.7709517,0.40364346,-0.33094072,1.2615795,-0.09617258,1.2302563,0.8947183,0.15459193,1.3863676,10320.129
2024-08-07,-0.9911128,-0.73853046,0.91279095,-0.70979846,2.0661504,-0.53332704,1.866685,-1.0550463,2.0244837,1.2844604,-0.61370975,-0.46080822,2576.303
2024-08-08,-1.2131108,-0.81037295,0.76225114,-0.54025006,2.3139365,-0.5515359,1.9941165,-1.1296799,2.0988426,1.2389218,-0.73989964,-0.8002322,203.2517
2024-08-09,-1.2749606,-0.849468,0.6331944,-0.3967221,2.4707341,-0.5347834,2.0619845,-1.1697925,2.160471,1.2443849,-0.80190295,-1.0338923,111.144844
2024-08-12,-1.2558773,-0.84321135,0.5755422,-0.33293572,2.4953723,-0.5141254,2.0719833,-1.1678392,2.1822355,1.2523872,-0.81840205,-1.1382009,46.725494
2024-08-13,-1.0537379,-0.82446074,0.5101878,-0.337428,2.4894433,-0.384272,2.0175354,-1.1215597,2.200401,1.3850893,-0.66438615,-1.1268984,94.34961
2024-08-14,-1.0631405,-0.8188739,0.5241683,-0.3315287,2.4971755,-0.3950611,2.04094,-1.1263969,2.2075696,1.3809618,-0.70415556,-1.1678303,21.010096
2024-08-15,-0.29894152,-0.6191212,0.7321669,-0.64859676,1.8379616,-0.21647036,1.6360211,-0.9082916,1.9677954,1.5344812,-0.24793184,-0.52091515,484.56497
2024-08-16,-0.34852216,-0.6154282,0.6642519,-0.5107764,1.8582318,-0.13480923,1.5979233,-0.877399,1.9742366,1.4947175,-0.27097732,-0.7137855,141.50249
2024-08-19,-0.8233277,-0.78087,0.31859392,-0.11249378,2.4944272,-0.121616274,1.9215047,-0.98684156,2.180688,1.4416505,-0.59346944,-1.4747689,609.5067
2024-08-20,-0.8105728,-0.8933718,0.026884276,0.1887642,2.696616,0.109095946,1.8958783,-0.9059178,2.1915143,1.4954301,-0.57819617,-1.93913,620.94977
2024-08-21,-0.93009067,-0.9628181,-0.1396872,0.48120353,2.883035,0.1744622,1.9380839,-0.87532157,2.2027543,1.4721485,-0.70360506,-2.446571,919.3892
2024-08-22,-1.0261707,-0.9767875,-0.110670045,0.47093248,2.8847127,0.08529787,2.0129147,-0.8745912,2.2118282,1.4145566,-0.79826254,-2.4826584,109.05155
2024-08-23,-0.96575993,-0.91078913,-0.04771013,0.45016408,2.75571,0.0927814,1.9521344,-0.849757,2.1796172,1.4109238,-0.7927327,-2.4484043,96.83347
2024-08-26,-0.9916494,-0.8702316,0.08133656,0.23781228,2.6888883,-0.07331395,2.0211394,-0.90043,2.19224,1.367389,-0.83098316,-2.1337802,537.0674
2024-08-27,-1.3429587,-0.9465611,0.15545972,0.13888939,2.7268283,-0.27474913,2.139672,-0.9629224,2.212462,1.1516515,-1.0013647,-2.0069,509.04895
2024-08-28,-1.1974133,-0.9808127,-0.053240117,0.42007256,2.806647,0.009689689,2.0162745,-0.8873903,2.1825716,1.2571839,-0.89713395,-2.4109583,512.27625
2024-08-29,-1.4810452,-1.0010787,0.078264385,0.28458178,2.814519,-0.2758836,2.145927,-0.95806104,2.1933424,1.0867579,-1.0687897,-2.200349,3308.7913
2024-08-30,-1.4751844,-1.0327528,-0.014727887,0.36643496,2.9170372,-0.2062546,2.131478,-0.97438765,2.2047637,1.1158069,-1.0273982,-2.2889974,193.49422
2024-09-03,-1.5066363,-1.0498118,-0.045248996,0.39665553,2.929054,-0.2138989,2.1202793,-0.9802779,2.1964097,1.0937235,-1.0312731,-2.2993362,227.69946
2024-09-04,-1.3466804,-1.0950729,-0.3042729,0.73863065,3.0301633,0.11345251,1.9555323,-0.85005575,2.1500912,1.1788648,-0.9363487,-2.8021135,892.0946
2024-09-05,-0.4584973,-0.95237213,-0.754954,1.8902911,2.8019855,1.24563,0.53109735,-0.35935345,1.6563146,1.3946286,-0.28928232,-3.6838214,1660.888
2024-09-06,-0.3856182,-0.9500053,-0.7935414,2.0345922,2.7619565,1.34076,0.31433046,-0.29568353,1.5521004,1.3768619,-0.21726522,-3.7257962,130.08768
2024-09-09,-0.49125516,-0.9229021,-0.6526287,1.8439022,2.667279,1.2018399,0.47386056,-0.33825734,1.612252,1.3478469,-0.31558555,-3.6100457,190.66013
2024-09-10,-0.4628437,-0.9825269,-0.7656218,2.0264468,2.7492948,1.3317392,0.2968972,-0.292769,1.5538487,1.3360306,-0.24817884,-3.7223027,133.10152
2024-09-11,-0.49177995,-1.0195359,-0.83057255,2.219238,2.7137332,1.4043846,0.046480287,-0.23792115,1.4434134,1.2583131,-0.21532473,-3.8151581,166.49988
2024-09-12,-0.5141456,-1.0879537,-0.93331134,2.3603299,2.8372638,1.4425938,-0.0012617894,-0.24551645,1.4359729,1.2448405,-0.20161054,-3.9503996,154.66579
2024-09-13,-0.7350129,-1.1432598,-0.86886567,2.1949854,2.923491,1.259157,0.29471517,-0.35016584,1.5839968,1.1994528,-0.36173072,-3.9329674,23671.07
2024-09-16,-0.57387483,-1.0592706,-0.83627766,2.3699913,2.6690106,1.4096968,-0.18664601,-0.23926827,1.3411489,1.1402228,-0.19713768,-3.820262,325.29117
2024-09-17,-0.6083905,-1.0826021,-0.85894275,2.3669531,2.640695,1.4046285,-0.22510836,-0.21737137,1.3226563,1.0948977,-0.20440885,-3.8017504,51.761566
2024-09-18,-0.95107585,-1.1515126,-0.81572664,2.0440772,2.7356246,1.1006634,0.263744,-0.35115018,1.521832,0.96746945,-0.4694333,-3.6949542,544.4666
2024-09-19,-0.787064,-1.042727,-0.72207886,2.080583,2.4346466,1.1683283,-0.097216755,-0.26141214,1.3186555,0.91657525,-0.33658147,-3.4965088,271.8064
2024-09-20,-1.3793291,-1.0589395,-0.3357677,1.2123123,2.4610345,0.4395831,0.957203,-0.64114076,1.6735557,0.73106253,-0.7786295,-2.8740122,1661.6547
2024-09-23,-0.3557451,-0.79887044,-0.5009401,2.0848775,1.7275198,1.2945621,-0.84180063,-0.07024593,0.86281306,0.8096381,-0.028541751,-2.9209816,878.3873
2024-09-24,-0.2014647,-0.8075554,-0.4548216,2.1022184,1.5994339,1.3831007,-1.0888302,0.038314387,0.7401144,0.7986865,0.13472736,-2.7053444,847.62775
2024-09-25,-0.20466429,-0.6569669,-0.18253314,1.6462661,1.0959672,1.0909549,-1.0358481,0.0049440004,0.5971625,0.5571023,0.119837336,-2.038008,331.63614
2024-09-26,-0.20459177,-0.70052755,-0.2470246,1.8539838,1.2606705,1.1977813,-1.1056074,0.022086926,0.62880254,0.6420335,0.14380941,-2.2940416,486.02185
2024-09-27,-0.23951212,-0.7483866,-0.1973609,1.8494469,1.2338026,1.1664078,-1.1960821,0.05006125,0.582798,0.5777299,0.18641943,-2.169252,236.24008
2024-09-30,-0.29473767,-0.75112593,-0.0737111,1.5701061,0.96907395,0.9603917,-1.1643927,0.067599356,0.4955144,0.36265188,0.18075052,-1.7099108,254.40149
2024-10-01,-0.41962788,-0.891007,-0.38533616,1.8591717,1.3842335,1.1183093,-1.0798994,0.056795634,0.62695867,0.45904762,0.11332589,-2.2373645,705.9516
2024-10-02,-0.43394798,-0.8439684,-0.30545187,1.7062689,1.294983,1.0267038,-0.9918056,0.031704806,0.6450952,0.41892415,0.08727332,-2.0728636,146.59607
2024-10-03,-0.48243734,-0.76164466,-0.18346477,1.4132816,1.1238508,0.8628039,-0.8097688,-0.012347467,0.6550365,0.33234692,0.05160656,-1.7430985,343.4983
2024-10-04,-0.5955157,-0.70652765,0.010918755,0.9625087,0.83835816,0.5891501,-0.54202497,-0.0036315098,0.64149016,0.14520513,0.037602507,-1.2136855,445.18094
2024-10-07,-0.7596493,-0.7511655,-0.015337538,0.8513795,1.0236999,0.49541125,-0.26654357,-0.093542606,0.7909544,0.13806799,-0.076082654,-1.2417939,3183.4626
2024-10-08,-1.0097085,-0.76218736,0.14837067,0.2684995,0.8246161,0.13987784,0.26779652,-0.11859491,0.8907604,0.026740193,-0.1986804,-0.70463383,1786.3275
2024-10-09,-1.1117561,-0.8717106,-0.045027476,0.76755774,1.4499112,0.34159958,0.27173403,-0.30735445,1.1217959,0.25229388,-0.36644992,-1.5646414,1797.2982
2024-10-10,-1.3079022,-0.9233688,0.011276025,0.6815604,1.5986654,0.20527309,0.5120456,-0.4171228,1.2462128,0.23038752,-0.5193599,-1.5992366,397.84583
2024-10-11,-1.544071,-0.894901,0.272909,0.1704147,1.383091,-0.22834438,0.9562647,-0.49116763,1.2644541,0.03753504,-0.6708566,-1.0251204,2895.865
2024-10-14,-1.7248648,-0.8725066,0.3243127,0.07879853,1.892184,-0.43353385,1.5301745,-0.82253265,1.6143862,0.28961086,-0.94772315,-1.2850531,1106.8323
2024-10-15,-1.7700472,-1.0325388,-0.013721164,0.37179607,2.4389243,-0.23852596,1.679815,-0.86374927,1.7972183,0.49595302,-0.978801,-1.8370053,714.4933
2024-10-16,-1.8166465,-1.1200248,-0.16839781,0.52204674,2.7099936,-0.21928817,1.792815,-0.8947074,1.8856554,0.5758515,-1.0418873,-2.145931,1252.5864
2024-10-17,-1.844794,-1.098682,-0.081805825,0.4181148,2.6444745,-0.3131798,1.8434947,-0.91547734,1.8827173,0.53862786,-1.080464,-2.018003,141.45102
2024-10-18,-1.7880877,-1.1203119,-0.20778304,0.5779662,2.8170547,-0.19986674,1.8608516,-0.9188846,1.9447683,0.66009915,-1.0671117,-2.2860568,281.6574
2024-10-21,-1.8055544,-1.1386427,-0.23486778,0.5941812,2.7417343,-0.22442374,1.7849296,-0.8912729,1.8691963,0.56473255,-1.0599303,-2.2302785,61.945118
2024-10-22,-1.8085935,-1.1928215,-0.33777186,0.6990087,2.8745532,-0.14969751,1.790339,-0.8768367,1.910502,0.6250478,-1.0577698,-2.4079044,127.5048
2024-10-23,-1.8373761,-1.1768799,-0.24800402,0.6039647,2.8634145,-0.2380904,1.8865654,-0.9209456,1.9503369,0.63858855,-1.0913782,-2.3086255,124.493454
2024-10-24,-1.7239778,-1.0990361,-0.18221202,0.4333465,2.4146316,-0.2993778,1.601512,-0.856713,1.7489489,0.44260037,-0.912978,-1.7895886,210.90846
2024-10-25,-0.57201815,-0.7509806,0.23270617,-0.88050103,-0.06874484,-0.37572518,0.41241512,0.25755233,0.5633372,-0.08783229,0.6960912,1.3716141,1502.5702
2024-10-28,-0.19751847,-1.1937166,-0.548902,1.0371053,1.2157171,0.7279195,-0.7846994,0.28936678,0.48630732,0.17785123,0.7354405,-0.6837668,3614.563
2024-10-29,-0.40509316,-1.4956115,-1.2850869,2.2190368,2.5426319,1.347296,-0.78501797,0.08128353,0.8058672,0.6968211,0.44723272,-2.6580374,1330.0858
2024-10-30,-0.41614372,-1.5378655,-1.3646958,2.1805775,2.66061,1.3110647,-0.6397402,0.038870804,0.86797374,0.7233747,0.44797713,-2.667459,103.53368
2024-10-31,-0.7214954,-1.7437178,-1.6391569,2.3153622,3.1199992,1.3135214,-0.38898343,-0.019107677,0.99106526,0.6564621,0.24938488,-3.1329076,404.07358
2024-11-01,-0.9680862,-1.7082738,-1.4547291,1.913741,3.1051996,0.97959435,0.058140125,-0.2086077,1.1862305,0.5641266,0.0633639,-2.8602884,1314.451
2024-11-04,-1.0869073,-1.7137336,-1.4778258,2.0333648,3.335355,0.99523795,0.17425644,-0.27965584,1.2665014,0.5820675,-0.07863153,-3.1666481,507.97025
2024-11-05,-0.92193705,-1.7797952,-1.5426637,2.155779,3.1831172,1.2003198,-0.26088583,-0.0915673,1.0389166,0.54686207,0.16025239,-2.9981651,704.7222
2024-11-06,-0.80976856,-1.7662485,-1.5094197,2.2152736,2.9940786,1.3010535,-0.6084022,0.031033657,0.82135236,0.4873675,0.31202692,-2.7725613,433.32657
2024-11-07,-0.5828406,-1.7019995,-1.4128996,2.0414584,2.5474749,1.3422425,-1.1090121,0.22607508,0.46201998,0.27975914,0.574548,-1.9207577,975.95386
2024-11-08,-0.3846519,-1.542303,-1.0726634,1.742581,1.9433206,1.2753127,-1.468474,0.45300326,0.22260942,0.06934106,0.8391974,-1.0008857,464.5858
2024-11-11,-0.5408666,-1.6134485,-1.1910245,2.0129757,2.2952836,1.3270249,-1.286481,0.26606032,0.3732742,0.22353067,0.615438,-1.7088205,535.0429
2024-11-12,-0.80565614,-1.7299608,-1.3195606,2.1849275,2.7357733,1.3284855,-0.85042495,0.10626703,0.6862646,0.39434046,0.31494743,-2.546963,446.90552
2024-11-13,-0.83451277,-1.7471821,-1.433242,2.4106293,2.936118,1.4351277,-0.7918643,0.08481241,0.7675771,0.5204433,0.2520449,-3.0389175,149.06264
2024-11-14,-0.8711714,-1.7942573,-1.4461154,2.1926708,2.930731,1.3285041,-0.6883119,0.07083652,0.74400437,0.42075807,0.2801768,-2.6989837,98.76803
2024-11-15,-0.9627934,-1.814432,-1.4506581,2.0686307,2.953875,1.2352567,-0.5288563,0.03513729,0.7978788,0.3761325,0.21102229,-2.6510334,143.29037
2024-11-18,-1.3221838,-1.7607707,-1.3060236,1.7963512,3.2005315,0.8832192,0.23784024,-0.26876178,1.2260618,0.4137813,-0.20013231,-2.9004261,1378.0518
2024-11-19,-1.4384532,-1.7594023,-1.2435541,1.6582408,3.296151,0.7700847,0.5265092,-0.368773,1.3878305,0.46338767,-0.33623683,-2.9056592,289.0932
2024-11-20,-1.3802938,-1.7467979,-1.249046,1.6178633,3.225485,0.7512817,0.44586176,-0.3635482,1.324853,0.43162388,-0.2488321,-2.733407,72.27163
2024-11-21,-1.5486653,-1.6709605,-0.9979516,1.3519839,3.1852431,0.5187947,0.7765862,-0.51318157,1.5042567,0.46132278,-0.42699006,-2.5351586,299.87784
2024-11-22,-1.4223828,-1.686695,-1.1322515,1.9070436,3.3585322,0.8511318,0.51406616,-0.43352398,1.4945891,0.6301771,-0.42489904,-3.311967,250.81114
2024-11-25,-1.4571717,-1.7107404,-1.135645,1.8011364,3.3509622,0.80875474,0.55756015,-0.4327622,1.4784918,0.5826461,-0.42595398,-3.1738431,36.60365
2024-11-26,-1.3404567,-1.7184058,-1.2252276,2.0642092,3.3966508,1.0180442,0.35666975,-0.36065605,1.4498879,0.67808926,-0.359796,-3.4930604,154.79063
2024-11-27,-1.3649006,-1.7052602,-1.196253,2.0364964,3.4008305,0.978545,0.42663816,-0.39494187,1.483349,0.69563144,-0.39845794,-3.49763,55.19373
2024-11-29,-1.517909,-1.6660522,-1.0666555,1.8217796,3.3783512,0.7844926,0.71161705,-0.48694012,1.5965644,0.67817605,-0.5586426,-3.3607175,199.72606
2024-12-02,-1.6136914,-1.588776,-0.89452815,1.607161,3.3261526,0.58361703,0.97099406,-0.6067907,1.7040148,0.6980826,-0.6694151,-3.1780841,162.00775
2024-12-03,-1.0787528,-1.6393751,-1.3345615,2.322342,3.4273474,1.2437093,0.20737764,-0.30977726,1.4592273,0.86522794,-0.25097674,-3.822677,494.86246
2024-12-04,-0.96592176,-1.6381305,-1.3655869,2.477347,3.3333156,1.3720131,-0.07511516,-0.20014313,1.3242309,0.8587615,-0.15903592,-3.8470674,251.47691
2024-12-05,-0.95865124,-1.6195183,-1.306378,2.47316,3.2835908,1.3577554,-0.10919204,-0.21028355,1.3135077,0.8672396,-0.1445562,-3.7955549,71.5981
2024-12-06,-0.97213376,-1.6430441,-1.3651376,2.4619787,3.2922742,1.3304543,-0.07850465,-0.20236054,1.3116125,0.84793645,-0.1553646,-3.7984087,51.878338
2024-12-09,-0.9939803,-1.6900676,-1.4377155,2.461189,3.2565706,1.3149078,-0.12986517,-0.15207547,1.2523522,0.7866895,-0.14448416,-3.7437992,123.16566
2024-12-10,-1.0828712,-1.6768597,-1.3722745,2.347109,3.2409117,1.2121346,0.0049662106,-0.21310371,1.3189543,0.76229703,-0.2100051,-3.6871102,226.44373
2024-12-11,-1.1533118,-1.6544651,-1.3152008,2.2392771,3.2499459,1.1219761,0.16860549,-0.27740502,1.397299,0.7559454,-0.2866844,-3.6580775,3393.611
2024-12-12,-1.1707572,-1.6583627,-1.3424875,2.2009153,3.2282395,1.0711429,0.19379002,-0.28362235,1.3849988,0.718601,-0.2948497,-3.6051776,38.02752
2024-12-13,-1.1469979,-1.6735398,-1.3789036,2.2345922,3.1717079,1.0950214,0.061022457,-0.23080781,1.296915,0.6786275,-0.23633188,-3.5465467,131.69565
2024-12-16,-1.122209,-1.6926662,-1.3845038,2.28499,3.1443312,1.1451485,-0.08237561,-0.18985724,1.221517,0.6529927,-0.17209029,-3.4678962,303.13254
2024-12-17,-0.9316165,-1.72571,-1.436847,2.3295186,2.8438027,1.3186996,-0.7085877,0.061223768,0.808544,0.48626918,0.15029603,-2.9886327,1202.3129
2024-12-18,-0.89941263,-1.7091044,-1.4133171,2.2952044,2.7396832,1.3116975,-0.7990353,0.09826415,0.73273623,0.4427966,0.1952799,-2.85601,137.67001
2024-12-19,-0.86363643,-1.6282474,-1.2372301,2.1307752,2.4314966,1.1836369,-0.8739618,0.11626383,0.6652062,0.35109425,0.21942177,-2.5187752,131.13513
2024-12-20,-0.90589875,-1.6997422,-1.3913697,2.292907,2.7369218,1.2997713,-0.7781919,0.0906749,0.7436757,0.43814522,0.17804697,-2.8688765,154.0387
2024-12-23,-0.82328135,-1.6600286,-1.3233793,2.2339902,2.5498269,1.2931836,-0.95985264,0.14478329,0.61153734,0.3670404,0.26684952,-2.5877738,202.94333
2024-12-24,-0.96774167,-1.7415045,-1.4664932,2.39585,2.9574778,1.3235018,-0.5622999,0.022469305,0.92034864,0.5498575,0.058801733,-3.238534,388.16324
2024-12-26,-0.9259177,-1.715511,-1.4106557,2.3194878,2.776655,1.3046255,-0.7287939,0.07907944,0.78732115,0.45874697,0.13918844,-2.9699936,477.92734
2024-12-27,-0.9411866,-1.7301713,-1.4622293,2.424908,2.942765,1.3442719,-0.6189979,0.03194178,0.8943697,0.55169487,0.08368065,-3.2295692,176.87665
2024-12-30,-0.9591508,-1.7017878,-1.3649834,2.2920883,2.766845,1.2558734,-0.6727815,0.048460864,0.82619923,0.45451248,0.100012116,-2.9714613,141.38193
2024-12-31,-0.8294406,-1.6709315,-1.326109,2.2348082,2.5525482,1.2780716,-0.9030985,0.14524502,0.6700463,0.38054168,0.23505127,-2.6605322,444.8076
2025-01-02,-0.8715345,-1.717579,-1.4267296,2.3205805,2.7523654,1.3243248,-0.7930086,0.114968084,0.7500331,0.44087,0.18916386,-2.8950427,119.902626
2025-01-03,-1.1687852,-1.6491481,-1.1880702,1.7491261,2.5013728,0.84534436,-0.18973197,-0.06333883,0.909816,0.26340002,-0.07922692,-2.41616,575.8801
2025-01-06,-1.0399886,-1.6275703,-1.1739966,1.7516817,2.343866,0.8996517,-0.46295,0.042944208,0.7353658,0.18112999,0.060073458,-2.1266444,576.3979
2025-01-07,-0.8594284,-1.6441818,-1.2342311,1.7572125,2.1785407,1.0021688,-0.795681,0.2220678,0.5477875,0.11211319,0.30368575,-1.7725815,1017.04156
2025-01-08,-0.893225,-1.6435803,-1.2204152,1.7423887,2.218363,0.9667195,-0.7024852,0.18232495,0.6048794,0.12835896,0.25121817,-1.8422827,87.02854
2025-01-10,-0.9407281,-1.6882643,-1.304586,1.8912567,2.4503276,1.0389457,-0.62253445,0.10896542,0.67688143,0.21645613,0.17041096,-2.1965113,224.95303
2025-01-13,-1.0621119,-1.6840683,-1.2650708,1.9040066,2.602906,0.96535033,-0.35284585,-0.02427148,0.8589191,0.30417746,0.03169053,-2.4890525,357.90253
2025-01-14,-0.868249,-1.6842431,-1.2735082,1.640453,2.264508,0.9511965,-0.6201394,0.21292767,0.6426829,0.11030997,0.30881518,-1.6851705,2095.9465
2025-01-15,-1.0445123,-1.7078991,-1.2851474,1.6550188,2.5222242,0.90716213,-0.30727473,0.046988472,0.8375699,0.19193467,0.08835762,-2.0766106,366.8368
2025-01-16,-0.9689179,-1.7277527,-1.35873,1.6649002,2.49616,0.9673744,-0.45722133,0.123792656,0.7353994,0.15519707,0.20185685,-1.9149226,402.225
2025-01-17,-0.8518582,-1.6655461,-1.283218,1.4502916,2.1537583,0.8655844,-0.5919822,0.24483743,0.6265027,0.037661217,0.37597823,-1.3591757,391.44608
2025-01-21,-0.6488653,-1.5853429,-1.1189803,1.1833026,1.6891662,0.79904866,-0.8968604,0.4246166,0.40109056,-0.15293388,0.666158,-0.4913954,897.1237
2025-01-22,-0.575424,-1.5788417,-1.0942197,1.1098585,1.5934306,0.8100999,-0.96355754,0.478133,0.3516891,-0.17934899,0.7616931,-0.30768514,128.55452
2025-01-23,-0.48269042,-1.5418718,-1.044745,1.0350381,1.4591866,0.8060458,-1.0871074,0.5439243,0.2229653,-0.23861735,0.8915552,-0.0048026964,250.36397
2025-01-24,-0.52430594,-1.5670179,-1.1091098,1.2171443,1.5906764,0.87598854,-1.094836,0.4980373,0.2528546,-0.17784606,0.7972749,-0.34855637,7267.8057
2025-01-27,-0.4234341,-1.5118378,-1.0354514,1.145882,1.4790593,0.8922132,-1.2001579,0.54594475,0.17175438,-0.21942766,0.903726,-0.08886581,206.6758
2025-01-28,-0.7145377,-1.6736621,-1.4096495,1.4596406,2.040422,0.95295817,-0.75514704,0.33623934,0.5044561,0.022799455,0.5359102,-1.2098408,1869.4479
2025-01-29,-0.5806151,-1.7035655,-1.519736,1.5708137,2.1171463,1.1285257,-0.9932998,0.44066605,0.3603418,0.020545289,0.6810996,-1.1122923,194.3436
2025-01-30,-0.7621414,-1.7284333,-1.5590352,1.6252851,2.337095,1.0462477,-0.6566966,0.2599421,0.5615328,0.114327095,0.41892064,-1.610815,726.96655
2025-01-31,-1.3280118,-1.6695215,-1.3950685,1.6724678,2.9420218,0.73350376,0.47526175,-0.2832137,1.2766552,0.39180475,-0.40007317,-2.9280977,1175.5112
2025-02-03,-1.2682924,-1.6668094,-1.3840187,1.7089604,2.787626,0.8019762,0.3164348,-0.1788829,1.1922666,0.35463226,-0.37444437,-2.910898,115.564384
2025-02-04,-1.3878022,-1.6666366,-1.339094,1.7724483,3.0426228,0.8195904,0.59764844,-0.2672468,1.4429591,0.5275959,-0.5601502,-3.289087,298.39148
2025-02-05,-1.3955605,-1.6523162,-1.3096014,1.7382233,3.1021023,0.7930664,0.7315973,-0.30346477,1.5211682,0.5720033,-0.62240326,-3.3174465,72.52052
2025-02-06,-1.3930345,-1.61995,-1.2571727,1.7480437,3.0220692,0.79623985,0.70679104,-0.28595486,1.5207846,0.58054286,-0.6538167,-3.3405325,26.110184
2025-02-07,-1.3728698,-1.5913206,-1.2294122,1.7739167,3.1225832,0.78765535,0.83997506,-0.35068154,1.6270179,0.70302355,-0.6950161,-3.4882777,91.593216
2025-02-10,-1.4529402,-1.5153946,-1.0284748,1.533182,2.9717996,0.60234994,1.0392811,-0.41429982,1.6944209,0.6862966,-0.80956703,-3.2884772,139.47409
2025-02-11,-1.3523455,-1.5765703,-1.1798766,1.7219279,3.0801775,0.7852393,0.88519317,-0.34062618,1.6632975,0.73987347,-0.709312,-3.4771526,132.37558
2025-02-12,-1.3841788,-1.5505282,-1.1017812,1.6121304,3.0610754,0.7000132,1.0164752,-0.38257816,1.7169219,0.7558991,-0.76096076,-3.4069607,70.31198
2025-02-13,-1.4481956,-1.5115281,-0.9892334,1.4679977,3.0987701,0.56339324,1.2461247,-0.4743342,1.8158879,0.79537725,-0.84320635,-3.3353107,117.5183
2025-02-14,-1.4695845,-1.4687895,-0.8837696,1.3806179,3.0275533,0.49621347,1.3091098,-0.5007223,1.838878,0.7921211,-0.8880695,-3.2578642,55.07595
2025-02-18,-1.4874303,-1.4640461,-0.84688705,1.3496212,3.023831,0.45891935,1.3385844,-0.51570153,1.8488833,0.7915529,-0.9001173,-3.2310343,23.633463
2025-02-19,-1.4131086,-1.478504,-0.92871857,1.4168043,3.0800123,0.5338957,1.3161635,-0.48588228,1.8675075,0.84864676,-0.86212975,-3.3450167,62.245758
2025-02-20,-1.3719864,-1.4505897,-0.9035901,1.425544,3.1035626,0.53624946,1.3533088,-0.50068927,1.9030159,0.91440666,-0.8587843,-3.3887055,26.5401
2025-02-21,-1.3946946,-1.3853539,-0.7757534,1.2711346,3.0487187,0.3954547,1.5152884,-0.5509966,1.9545352,0.93670475,-0.9152639,-3.2668912,96.48812
2025-02-24,-1.4927709,-1.2458752,-0.46673906,0.9316702,2.8477752,0.10497366,1.7406555,-0.6788415,2.0059857,0.92204255,-1.0119867,-2.9051838,227.59865
2025-02-25,-1.4285971,-1.2456746,-0.49350798,0.9607917,2.833402,0.18489783,1.6996629,-0.63159174,2.0119212,0.95066226,-0.9835994,-2.9567866,107.11473
2025-02-26,-1.4062097,-1.1592416,-0.34978524,0.86013997,2.7551277,0.11774833,1.7699523,-0.69460917,2.038536,0.9938058,-0.9901843,-2.856355,111.22427
2025-02-27,-1.3656358,-1.0882629,-0.22789651,0.7181213,2.643704,0.009817757,1.8376322,-0.71476495,2.0667725,1.0182503,-1.0047674,-2.7013004,173.54393
2025-02-28,-1.462224,-1.0065217,0.02309816,0.43102708,2.4743917,-0.24045926,1.92823,-0.7942037,2.0646684,0.9189984,-1.0759704,-2.3124774,2767.704
2025-03-03,-1.4448369,-1.0110085,-0.011557791,0.46841326,2.5647895,-0.2160505,1.963501,-0.81340814,2.0935717,0.9706157,-1.0723618,-2.3853903,188.9028
2025-03-04,-1.4630355,-0.9630222,0.11523062,0.33046332,2.3933694,-0.30575478,1.9409852,-0.8020003,2.0550926,0.8882704,-1.103133,-2.1991296,1204.2041
2025-03-05,-1.5812972,-0.8695605,0.52838093,-0.11757614,1.9885212,-0.71333694,1.9607179,-0.84983426,1.9120998,0.6415388,-1.1882327,-1.4244877,746.7835
2025-03-06,-1.4935013,-0.8410449,0.507098,-0.08307797,1.979723,-0.6619207,1.9369956,-0.8357782,1.9307715,0.70250124,-1.1638507,-1.5064293,70.99804
2025-03-07,-1.5810912,-0.7853056,0.73668545,-0.35744485,1.6687766,-0.8669982,1.896716,-0.7965415,1.738303,0.5354354,-1.1823425,-0.96399426,512.8289
2025-03-10,-1.5033584,-0.6825626,0.8390453,-0.54002655,1.3539093,-0.9351396,1.8034252,-0.67978346,1.5523505,0.41618598,-1.1592739,-0.5553473,206.58916
2025-03-11,-1.5305327,-0.70615137,0.8244362,-0.5508933,1.3775581,-0.9184012,1.7994612,-0.69022083,1.5656525,0.40950638,-1.1277877,-0.5318365,23.720163
2025-03-12,-1.5406107,-0.6401888,0.92944765,-0.7298285,1.2014134,-0.9862053,1.7950144,-0.6072828,1.4480207,0.33206218,-1.0974696,-0.169794,184.83792
2025-03-13,-1.5201683,-0.8038169,0.69184506,-0.37410516,1.8708433,-0.81933606,1.9334711,-0.89199805,1.8460631,0.669782,-1.1211151,-1.0077312,853.27747
2025-03-14,-1.545298,-0.8300587,0.6114887,-0.23856485,2.05619,-0.74653834,1.9679673,-0.940539,1.9284365,0.72535217,-1.1380515,-1.2464889,116.74326
2025-03-17,-1.5139823,-0.84265083,0.5792105,-0.22116876,2.179968,-0.73353434,2.0167892,-1.0053228,1.9983889,0.81481373,-1.112896,-1.2742192,53.64064
2025-03-18,-1.5303143,-0.84389925,0.62121964,-0.27001333,2.1428134,-0.7504287,2.0223005,-1.013426,1.9932276,0.8041242,-1.102936,-1.2004963,43.902145
2025-03-19,-1.4726483,-0.78031385,0.7280413,-0.41388074,1.9455135,-0.8074899,1.9633119,-0.97272277,1.9048293,0.7765506,-1.0751562,-0.96354556,135.64507
2025-03-20,-1.4265367,-0.76829565,0.7676127,-0.50755775,1.8740329,-0.83899623,1.9370147,-0.9938626,1.8850027,0.80784786,-1.0037913,-0.74861443,77.84417
2025-03-21,-1.4554908,-0.7932234,0.7352711,-0.46281466,1.9446702,-0.83733124,1.9473577,-1.0291308,1.9115231,0.82424784,-0.9974468,-0.7888278,35.793922
2025-03-24,-1.4695692,-0.7919726,0.7524472,-0.48418185,1.9222814,-0.8555177,1.9416373,-1.0262305,1.8929209,0.8067888,-0.998369,-0.7388001,21.50243
2025-03-25,-1.260623,-0.63811386,0.92391497,-0.8530899,1.4082075,-0.93021387,1.8387271,-0.7943555,1.6541061,0.70466876,-0.8484223,-0.10486738,322.0932
2025-03-26,-1.3336728,-0.70073104,0.8684528,-0.6994672,1.6318381,-0.90007895,1.8800192,-0.9116978,1.7708471,0.77934396,-0.92392474,-0.3898915,374.10498
2025-03-27,-1.3230803,-0.65322566,0.9324269,-0.95374835,1.3015518,-0.9908518,1.836654,-0.7216164,1.5700059,0.6038536,-0.8114021,0.12934113,283.98618
2025-03-28,-1.4782381,-0.7706752,0.8085145,-0.59258187,1.8090078,-0.9127982,1.941983,-0.9713555,1.8189164,0.7223792,-1.008035,-0.5612232,761.6987
2025-03-31,-1.4541489,-0.80862325,0.72166026,-0.4483702,2.0272157,-0.79507923,1.9700968,-1.0590419,1.963903,0.8729764,-0.9727776,-0.8454856,160.03247
2025-04-01,-1.309348,-0.7117803,0.8738018,-0.79211223,1.6006655,-0.8655862,1.8792949,-0.87212247,1.7743744,0.79272294,-0.8150115,-0.24555627,277.86758
2025-04-02,-1.5033683,-0.88525134,0.5122312,-0.21313468,2.4239788,-0.6342012,2.061451,-1.1461928,2.135144,0.9848344,-0.9591327,-1.2477307,743.3212
2025-04-03,-1.4769027,-0.87704575,0.5096737,-0.21224254,2.4212816,-0.6216858,2.053591,-1.1506286,2.140733,1.008951,-0.9435636,-1.2462541,10.91032
2025-04-04,-1.6291974,-0.8695332,0.70267355,-0.36022064,2.1204908,-0.8119019,2.0081913,-1.0657604,1.9547768,0.76945186,-1.0597298,-0.96847534,238.38759
2025-04-07,-1.5867071,-0.79685843,0.8237571,-0.54723847,1.8116623,-0.88957876,1.8998058,-0.9516116,1.7833848,0.6669057,-1.0309938,-0.588796,184.36484
2025-04-08,-1.5675637,-0.8316338,0.807817,-0.5103086,1.954446,-0.83654433,1.9409845,-1.0208122,1.8825343,0.7710866,-1.0007606,-0.69592834,79.84531
2025-04-09,-1.457455,-0.68870354,1.0025547,-0.815436,1.5315737,-0.92224044,1.840725,-0.8326017,1.6480753,0.6728407,-0.92823917,-0.10346631,281.16833
2025-04-10,-1.4540446,-0.8320912,0.79647446,-0.4500014,2.1486511,-0.7143463,1.9793522,-1.1319983,2.0218792,0.9795015,-0.90465236,-0.81375855,950.04254
2025-04-11,-1.5221723,-0.788915,0.913922,-0.5616983,1.9336985,-0.8033742,1.9296901,-1.040069,1.8693477,0.82786226,-0.9647405,-0.58298314,140.5652
2025-04-14,-1.5189965,-0.7609573,0.9784324,-0.6406708,1.8743557,-0.85522264,1.9388707,-1.0132987,1.816525,0.7989014,-0.9813137,-0.41645473,74.0498
2025-04-15,-1.5061852,-0.7799511,0.9627861,-0.60754216,1.9559952,-0.8079421,1.9674907,-1.053655,1.8857274,0.8598236,-0.96841645,-0.516031,62.11245
2025-04-16,-1.5118542,-0.7815863,0.95069623,-0.60015523,1.9529226,-0.81606936,1.9629929,-1.0564477,1.8842915,0.85448045,-0.97369266,-0.52673763,8.031469
2025-04-17,-1.5453362,-0.78036296,0.95174694,-0.6004827,1.9256686,-0.8278693,1.9439204,-1.037336,1.8522283,0.8054273,-0.9862261,-0.5005114,21.866894
2025-04-21,-1.420487,-0.776548,0.83600706,-0.5096016,1.9739075,-0.78180873,1.9182425,-1.0952392,1.9408678,0.9184802,-0.93888044,-0.6928323,112.88257
2025-04-22,-1.4271575,-0.79526794,0.7738739,-0.44736847,2.0319042,-0.7650394,1.9374018,-1.0929871,1.9786539,0.9291588,-0.95729643,-0.830872,53.806995
2025-04-23,-1.4039754,-0.78881454,0.79951847,-0.5243379,1.9567652,-0.8173817,1.9248803,-1.0791929,1.9416044,0.9164413,-0.9409481,-0.6862404,57.758797
2025-04-24,-1.4277976,-0.81148195,0.7302009,-0.43161142,2.03953,-0.8017083,1.9411113,-1.0932212,1.9725146,0.9138768,-0.961978,-0.8359146,65.132645
2025-04-25,-1.4018291,-0.8217988,0.6462385,-0.32444677,2.136133,-0.749337,1.9503255,-1.1182002,2.0271487,0.96062255,-0.95524937,-1.009551,82.80256
2025-04-28,-1.3277198,-0.7897208,0.65067756,-0.34575173,2.0680814,-0.74616975,1.9153544,-1.0982984,2.012772,0.99134845,-0.92932844,-0.9757875,33.590446
2025-04-29,-1.415176,-0.858243,0.41038066,-0.07186341,2.3744717,-0.60254484,1.9809146,-1.129051,2.1269476,1.0062729,-0.9538797,-1.4009782,225.08961
2025-04-30,-1.4064113,-0.86372024,0.35587054,-0.005801365,2.415381,-0.5670827,1.973114,-1.1246397,2.129258,1.0218618,-0.94178677,-1.4943591,124.451324
2025-05-01,-1.4745445,-0.8756337,0.3828746,-0.014538288,2.3819087,-0.62167585,1.9840267,-1.1028309,2.098907,0.94415015,-1.0041862,-1.5027627,194.13654
2025-05-02,-1.5018008,-0.9241532,0.20182502,0.16926263,2.5319185,-0.50828415,1.9550006,-1.099489,2.1025734,0.954816,-0.9459783,-1.700797,1365.5131
2025-05-05,-1.4504281,-0.9460832,0.05593923,0.32867905,2.6330867,-0.37727094,1.9220874,-1.076574,2.1114657,1.0151612,-0.8987056,-1.9275066,230.86877
2025-05-06,-1.1313301,-1.1458133,-0.66266316,1.3010703,3.024265,0.4378275,1.3635014,-0.8172613,1.9753397,1.1727041,-0.60377574,-3.1223133,2024.3984
2025-05-07,-0.8597111,-1.3188184,-1.1570319,1.8864324,3.182489,0.901953,0.74613553,-0.5864313,1.7030199,1.138999,-0.26713938,-3.56655,430.10553
2025-05-08,-0.5912912,-1.4985656,-1.5240797,2.5229342,3.1996002,1.4345028,-0.09438379,-0.20758489,1.3070905,1.0938259,0.030207299,-3.8701258,494.18335
2025-05-09,-0.5157709,-1.606351,-1.6318387,2.6820323,3.107662,1.5715833,-0.5275633,-0.0051664338,1.0489557,0.94850314,0.18266931,-3.7117417,1144.0833
2025-05-12,-0.51131606,-1.6586162,-1.6739479,2.701955,3.0281796,1.6114004,-0.74881834,0.09697049,0.8855707,0.8403664,0.2736478,-3.5321,2113.0256
2025-05-13,-0.45563498,-1.6439394,-1.5543692,2.674376,2.7483385,1.6854115,-1.1484175,0.2775707,0.6288463,0.69660175,0.40420294,-3.1600945,377.71786
2025-05-14,-0.45946816,-1.6142277,-1.4576141,2.5442567,2.5441365,1.6328094,-1.2918953,0.33872905,0.5065659,0.57950544,0.4596511,-2.844775,118.76769
2025-05-15,-0.5077035,-1.63709,-1.4701108,2.5032723,2.5511124,1.6008554,-1.2754934,0.33280373,0.4903829,0.5348774,0.46017632,-2.7884648,32.622044
2025-05-16,-0.55123955,-1.6641232,-1.5229458,2.528116,2.6301765,1.5881798,-1.1912944,0.30243102,0.5398009,0.5481914,0.4146905,-2.9036794,61.01425
2025-05-19,-0.5598629,-1.6684718,-1.5237037,2.5483158,2.6564357,1.5832784,-1.1652347,0.2851427,0.5603764,0.5637636,0.39892542,-2.9552255,24.114614
2025-05-20,-0.63625526,-1.7132839,-1.589616,2.6260822,2.8317852,1.5756531,-0.97997284,0.2072419,0.70706296,0.63855296,0.3006231,-3.2496455,148.05669
2025-05-21,-0.6715888,-1.7281829,-1.6044133,2.6375537,2.905205,1.5705602,-0.91226095,0.17788342,0.7488666,0.65364265,0.27073386,-3.3210688,52.198154
2025-05-22,-0.69458824,-1.7287484,-1.5843031,2.596412,2.8634434,1.5416937,-0.9271083,0.18465489,0.7267587,0.6162151,0.2722991,-3.2491848,26.401127
2025-05-23,-0.7114876,-1.7309041,-1.5771595,2.5930536,2.8785455,1.5423067,-0.92530996,0.18059963,0.72348464,0.6061172,0.26693374,-3.2433069,10.33572
2025-05-27,-0.7058674,-1.7180241,-1.5505546,2.5826457,2.8413937,1.5331283,-0.96312916,0.18405682,0.70137167,0.5904444,0.28220308,-3.1905706,24.49804
2025-05-28,-0.733134,-1.7357961,-1.5685089,2.620213,2.934375,1.5525908,-0.88928795,0.15716547,0.76507866,0.63211936,0.24238735,-3.3186567,68.59367
2025-05-29,-0.7123923,-1.7032102,-1.5155196,2.615791,2.8497555,1.5486579,-0.97218364,0.17297894,0.7255077,0.6121906,0.26464722,-3.2509935,50.321136
2025-05-30,-0.7239317,-1.7031875,-1.5141214,2.6244862,2.8756845,1.5456336,-0.9474529,0.15795374,0.7445266,0.6219663,0.25057554,-3.2845016,24.947119
2025-06-02,-0.76463777,-1.7083873,-1.515776,2.6343105,2.9313066,1.5324683,-0.8635618,0.12719077,0.8040743,0.64628947,0.19801825,-3.3825614,73.39703
2025-06-03,-0.7664507,-1.7033695,-1.4962084,2.6500347,2.9496026,1.5352471,-0.8367494,0.11224442,0.8430668,0.6730964,0.18079099,-3.437696,37.40712
2025-06-04,-0.6924029,-1.6793839,-1.4791068,2.6509054,2.84595,1.5703757,-0.995032,0.16557005,0.7411498,0.6408851,0.26296747,-3.294553,150.96439
2025-06-05,-0.67874056,-1.6631771,-1.456608,2.651547,2.8056638,1.570926,-1.026133,0.17570087,0.7279221,0.63728034,0.26648805,-3.2779667,19.367939
2025-06-06,-0.68947476,-1.6528386,-1.4300836,2.633457,2.772051,1.549588,-1.0258591,0.17812794,0.7294532,0.62358195,0.2516211,-3.2572498,17.2414
2025-06-09,-0.64828384,-1.6444613,-1.4319328,2.6250975,2.7211554,1.5662055,-1.10266,0.2098175,0.66848445,0.6012975,0.29813278,-3.1698372,68.21326
2025-06-10,-0.69682497,-1.6637124,-1.4322503,2.598726,2.7395117,1.5311882,-1.0234135,0.19441986,0.7205354,0.6008206,0.25090986,-3.2131271,52.19183
2025-06-11,-0.66530883,-1.6575081,-1.4448093,2.618938,2.7378361,1.5432067,-1.0377697,0.20063755,0.7140633,0.6124887,0.26503396,-3.2221875,20.748693
2025-06-12,-0.6300775,-1.6603907,-1.4807957,2.6430779,2.7665122,1.5696251,-1.0577767,0.20574358,0.6971922,0.62300956,0.2990147,-3.2151887,33.23287
2025-06-13,-0.6548988,-1.667681,-1.4828041,2.6262858,2.7785494,1.5446758,-1.0170897,0.19370466,0.7138877,0.6148488,0.2807433,-3.2184708,26.789099
2025-06-16,-0.54079837,-1.6115797,-1.3900641,2.5217903,2.5478158,1.5489902,-1.2445091,0.28976884,0.53898793,0.5306625,0.41956604,-2.8283746,211.31682
2025-06-17,-0.51032776,-1.6261529,-1.4218496,2.4859638,2.5606134,1.5768127,-1.2803322,0.31145737,0.49561143,0.50752264,0.4920704,-2.6901958,57.482273
2025-06-18,-0.5417499,-1.6408643,-1.4370264,2.4099782,2.5272906,1.512872,-1.2439065,0.31431112,0.48888844,0.45406836,0.4844954,-2.5904276,37.440502
2025-06-20,-0.2612674,-1.4638883,-1.0744799,1.9167775,1.8885065,1.3773072,-1.5941961,0.51936483,0.17749001,0.16323821,0.8222124,-1.2607492,484.669
2025-06-23,-0.10087873,-1.3322641,-0.9076679,1.0742532,1.3340417,1.0576761,-1.4752789,0.785715,-0.0045285374,-0.19455992,1.2384381,0.31660217,738.64453
2025-06-24,-0.3002386,-1.5308855,-1.1164037,1.7739191,1.8700528,1.3101742,-1.4659219,0.5363092,0.21815388,0.1239665,0.8364155,-1.139422,5970.472
2025-06-25,-0.27126262,-1.4566933,-1.0417968,1.84039,1.8157936,1.352061,-1.6199672,0.54232895,0.16004443,0.11304167,0.8484696,-1.0988381,83.10923
2025-06-26,-0.4077517,-1.5808921,-1.3124774,2.1005206,2.2114527,1.4189374,-1.4182622,0.43082583,0.29970062,0.23986967,0.67131,-1.749875,438.2906
2025-06-27,-0.2027069,-1.3801153,-0.9260287,1.4804438,1.4941698,1.1668725,-1.5842414,0.64767087,0.08586131,-0.05516997,0.9932792,-0.43947554,551.38354
