Date,ADBE,AMZN,AVGO,CAT,COST,JPM,LLY,MA,MSFT,NVDA,UNH,XOM,total
2021-01-04,0.7273842,0.3261041,0.13251936,-0.35115188,0.5875202,-0.026887078,0.20293258,0.31071085,0.21007141,0.1629192,0.08795739,-0.4895385,0.0
2021-01-05,0.71856236,0.34076142,0.11563217,-0.35098532,0.5953076,-0.008396372,0.17761342,0.3136568,0.20646188,0.14570126,0.09820616,-0.5062011,129.36241
2021-01-06,0.6955811,0.34494156,0.10883496,-0.32369524,0.57989347,-0.006300859,0.17565088,0.28673553,0.1948807,0.14857563,0.10157193,-0.48970497,69.58133
2021-01-07,0.73302233,0.36490542,0.12594122,-0.26877195,0.55189097,-0.0003816858,0.17565738,0.25849018,0.20869541,0.085949905,0.044042833,-0.4426183,267.9748
2021-01-08,0.7413411,0.37271458,0.11425159,-0.2773853,0.55786514,0.0027510822,0.18552467,0.2764466,0.21684718,0.10300683,0.042432025,-0.45029092,879.3214
2021-01-11,0.7154399,0.37580603,0.1160065,-0.28750923,0.551165,0.015667334,0.18417104,0.30200186,0.22581232,0.12350323,0.05175046,-0.45818818,537.9281
2021-01-12,0.7585976,0.3750735,0.14578077,-0.27928302,0.5544195,-0.013005234,0.16659,0.26556987,0.21458578,0.059875287,0.037893936,-0.44288933,326.5686
2021-01-13,0.7484001,0.36325365,0.1489433,-0.28060907,0.53996646,-0.01089038,0.17361028,0.27768356,0.21484375,0.07336474,0.042886958,-0.4370774,71.9218
2021-01-14,0.76907754,0.3665836,0.16169113,-0.28405806,0.5416953,-0.012528598,0.16654897,0.2814126,0.2212117,0.05624301,0.03857529,-0.42380047,73.633804
2021-01-15,0.75228333,0.35228598,0.17939186,-0.28107843,0.5243684,-0.038088113,0.15048204,0.26901108,0.21407822,0.035308965,0.04678662,-0.42417836,301.16306
2021-01-19,0.7553257,0.33574182,0.1861481,-0.3029685,0.5391814,-0.045310784,0.14626275,0.25226486,0.19991753,0.024402134,0.059722893,-0.45421112,119.70582
2021-01-20,0.75750387,0.32226527,0.18488553,-0.30803275,0.5524705,-0.06575715,0.15825458,0.24937257,0.1984961,0.008076452,0.05878365,-0.44818068,134.10092
2021-01-21,0.75380147,0.29571408,0.17007509,-0.33390364,0.5652612,-0.05950003,0.18562025,0.26602924,0.20682707,0.060436405,0.07664967,-0.4523189,744.75653
2021-01-22,0.76223826,0.28345925,0.1477671,-0.3249652,0.56111294,-0.07501963,0.2021376,0.27629352,0.21970221,0.08883319,0.072769456,-0.45264673,118.97693
2021-01-25,0.75967073,0.2763911,0.110692166,-0.37856367,0.5532836,-0.06519964,0.21548937,0.28102404,0.22339761,0.11475945,0.07585623,-0.46827322,105.77817
2021-01-26,0.76403475,0.26804546,0.07859556,-0.40525645,0.5647472,-0.077905744,0.2102408,0.27599427,0.22607899,0.11397005,0.07785324,-0.49782783,76.25884
2021-01-27,0.7462653,0.27048558,0.06088475,-0.4209528,0.5564376,-0.079158165,0.19457968,0.27798903,0.23093456,0.13908759,0.08134363,-0.5097245,71.95372
2021-01-28,0.70401466,0.2585363,0.024351284,-0.43810287,0.562838,-0.07054365,0.15362819,0.21491143,0.22676188,0.08619254,0.108156696,-0.57786125,216.09442
2021-01-29,0.69500554,0.2656915,-0.0044613183,-0.44187006,0.565839,-0.0788496,0.173086,0.20965368,0.24476403,0.12654275,0.100625455,-0.5735801,213.10417
2021-02-01,0.6351774,0.24430653,-0.06908387,-0.4900985,0.5408813,-0.082839504,0.1682416,0.16061571,0.22810096,0.13686883,0.12801358,-0.6172569,1561.5399
2021-02-02,0.60758686,0.24398883,-0.118684456,-0.48941436,0.5347885,-0.086172216,0.16944002,0.16266042,0.24133587,0.15449992,0.12084158,-0.6291527,109.75961
2021-02-03,0.610867,0.2627709,-0.12530562,-0.48386943,0.53843176,-0.08659167,0.20690368,0.19569847,0.23357695,0.20519918,0.11415203,-0.605788,103.81844
2021-02-04,0.556926,0.27284873,-0.16733545,-0.497571,0.49219656,-0.05622864,0.19530281,0.21826988,0.226681,0.2182216,0.14750105,-0.657858,156.93983
2021-02-05,0.5415726,0.27550262,-0.16534844,-0.50999457,0.4768275,-0.04106734,0.20883815,0.23698607,0.21849209,0.2417199,0.15637802,-0.6511337,74.42621
2021-02-08,0.5490878,0.28071254,-0.1621086,-0.5018141,0.4779989,-0.033254344,0.21154238,0.22736084,0.21619487,0.2283318,0.15097724,-0.63573915,43.877094
2021-02-09,0.5548942,0.2796535,-0.14364488,-0.48003852,0.47040212,-0.033115536,0.23762573,0.23548007,0.21139434,0.24987328,0.14911483,-0.6104378,51.939827
2021-02-10,0.5605117,0.28000546,-0.14438361,-0.47347486,0.46299255,-0.03190837,0.23524031,0.22723767,0.21663558,0.24831274,0.14577405,-0.6195722,19.585068
2021-02-11,0.5424551,0.26951876,-0.13852963,-0.468609,0.44930452,-0.012173988,0.23600759,0.24119854,0.22302094,0.25370502,0.15597333,-0.62189746,95.81314
2021-02-12,0.5371763,0.25219736,-0.13662846,-0.4643724,0.44821596,-0.011169225,0.25268427,0.23092514,0.20761734,0.26357526,0.1588926,-0.6197584,42.51033
2021-02-16,0.5586356,0.23486695,-0.10775179,-0.4553039,0.447097,-0.016080484,0.2559859,0.2464596,0.2149908,0.2560341,0.15214106,-0.5939785,101.03065
2021-02-17,0.5655409,0.22887006,-0.0850251,-0.44571686,0.42776096,-0.010041349,0.2581658,0.25619859,0.22014663,0.25053817,0.14917798,-0.5744428,83.451645
2021-02-18,0.5856397,0.23624483,-0.08182345,-0.43473107,0.4292333,0.002939567,0.26788488,0.26927033,0.22574371,0.25599322,0.1508836,-0.56093806,159.70618
2021-02-19,0.6244556,0.22563261,-0.07263982,-0.42827052,0.44288772,0.0032470003,0.25117493,0.2921722,0.22229719,0.22553158,0.14358936,-0.5483216,72.72192
2021-02-22,0.6372725,0.22862187,-0.054613736,-0.4145633,0.42640644,-0.009242445,0.23024201,0.29743636,0.21821094,0.20111614,0.1450661,-0.5337804,446.24066
2021-02-23,0.6634387,0.26725793,-0.023568064,-0.3755094,0.41195136,0.018471815,0.24485673,0.27328575,0.21687466,0.18688786,0.11655496,-0.48425722,441.60632
2021-02-24,0.6585207,0.28488666,-0.015391648,-0.36628312,0.41495842,0.026769757,0.25651065,0.25048387,0.19810542,0.18155628,0.10449031,-0.47719187,126.55971
2021-02-25,0.65727615,0.2772237,-0.026149668,-0.37193838,0.41072345,0.04192157,0.27552342,0.25642556,0.19740516,0.178031,0.08851421,-0.45323795,164.32767
2021-02-26,0.63687444,0.31345147,-0.02907934,-0.37398154,0.42965645,0.052341312,0.2521372,0.21342003,0.18345308,0.15865546,0.10577223,-0.49098247,128.42508
2021-03-01,0.6454272,0.29820365,-0.05434679,-0.38735193,0.4416542,0.027981162,0.2333161,0.22026709,0.19138074,0.14173776,0.09942217,-0.4996971,179.44322
2021-03-02,0.65067446,0.293026,-0.061288558,-0.38802332,0.45065743,0.019476414,0.2688202,0.23980859,0.19313455,0.16281623,0.08491639,-0.4633062,109.6782
2021-03-03,0.6403303,0.29904062,-0.047043283,-0.42145973,0.45284832,0.035906285,0.2507898,0.23415858,0.17189851,0.1414516,0.094081454,-0.4970737,171.60847
2021-03-04,0.6415225,0.33263516,-0.041529648,-0.40832496,0.45906228,0.055650935,0.27258548,0.21062043,0.1635724,0.13214192,0.07776697,-0.49276894,130.99373
2021-03-05,0.6269349,0.33298212,-0.028611906,-0.39418504,0.46379495,0.0541797,0.27299628,0.17517179,0.15435755,0.11043113,0.074622266,-0.50938255,87.08055
2021-03-08,0.62483716,0.30765194,-0.00045588613,-0.38872594,0.4816398,0.05064997,0.3149623,0.17183119,0.12611309,0.119352974,0.05439438,-0.4658941,197.39679
2021-03-09,0.61301005,0.32616746,-0.007943004,-0.36464834,0.4817801,0.05697979,0.34341016,0.16060877,0.118771546,0.11272416,0.026541678,-0.462946,1747.7299
2021-03-10,0.63873816,0.2920472,-0.02053123,-0.3941242,0.52230275,0.042953804,0.36690387,0.1880849,0.11644884,0.14349467,0.043126598,-0.47377372,332.27676
2021-03-11,0.6435578,0.28694654,-0.003898412,-0.38350877,0.5252745,0.03545957,0.37668577,0.19458705,0.11982774,0.14645791,0.047320455,-0.4649222,126.90553
2021-03-12,0.63464,0.26628464,-0.025005281,-0.4125514,0.52666175,0.033995405,0.37884763,0.1884188,0.110764004,0.18309972,0.07177623,-0.48970193,655.31213
2021-03-15,0.64566875,0.27435416,0.008806661,-0.39540207,0.52400506,0.034036674,0.39069113,0.189387,0.095387004,0.1836504,0.07199254,-0.46423095,168.09628
2021-03-16,0.6671008,0.2494884,0.018988118,-0.39519307,0.5248288,0.013692632,0.38525888,0.19762939,0.121105604,0.16462761,0.06392388,-0.44478405,246.4344
2021-03-17,0.6623769,0.23655678,0.0045971647,-0.4024502,0.5380638,0.005173892,0.37599167,0.19300976,0.115825094,0.16888142,0.06910214,-0.46900314,173.48572
2021-03-18,0.66170144,0.24074528,0.019803256,-0.3839555,0.5237057,-0.0062525272,0.38107976,0.21352696,0.12182946,0.17666173,0.06501809,-0.4472313,593.0819
2021-03-19,0.6761036,0.2516443,0.02734571,-0.3509002,0.52439284,-0.0021671057,0.3612423,0.20540339,0.13708755,0.15705696,0.05781725,-0.46358377,166.23442
2021-03-22,0.6834974,0.22319897,0.009968318,-0.35658616,0.5324907,-0.025732767,0.33725008,0.20826411,0.15433413,0.1522848,0.06570692,-0.47899598,1207.1586
2021-03-23,0.6811601,0.20233199,0.0008243993,-0.35650307,0.53563195,-0.029133487,0.32243732,0.21300116,0.17173934,0.16150177,0.070674784,-0.49216992,149.55736
2021-03-24,0.6623833,0.20678273,-0.0030256286,-0.36357036,0.52833915,-0.025705058,0.295346,0.22483104,0.18917799,0.16670847,0.076646276,-0.5317383,530.90125
2021-03-25,0.67632496,0.2046682,0.00986249,-0.3394833,0.53866804,-0.036990516,0.30511945,0.23117691,0.20087841,0.1666176,0.07676719,-0.5098999,498.21185
2021-03-26,0.6882038,0.2181417,0.040838547,-0.310444,0.525125,-0.035384983,0.29546988,0.26196054,0.20456532,0.1558406,0.062142327,-0.49033552,385.49744
2021-03-29,0.6991935,0.20812236,0.057903863,-0.2913087,0.5193024,-0.04160861,0.32753605,0.2733836,0.20634958,0.18405625,0.057806224,-0.45806664,120.58771
2021-03-30,0.6922467,0.20808193,0.056217708,-0.28981552,0.53048193,-0.035053875,0.32767528,0.27114236,0.19931126,0.19530293,0.06649314,-0.47117364,50.616295
2021-03-31,0.67395604,0.23325858,0.051041387,-0.2681425,0.51573694,-0.025997791,0.33116934,0.27172494,0.20367616,0.21026069,0.06688504,-0.4845041,74.59026
2021-04-01,0.62597287,0.22153893,0.022282183,-0.27086425,0.48601675,-0.016850926,0.30313608,0.27876574,0.19843417,0.23890933,0.09374916,-0.52874917,187.00148
2021-04-05,0.6379709,0.24076712,0.023459144,-0.25866663,0.47383356,-0.030343428,0.3161777,0.2811085,0.21023235,0.24589187,0.089615546,-0.49809307,127.17592
2021-04-06,0.6373935,0.23538178,0.010876723,-0.25272042,0.46184498,-0.06162376,0.32630044,0.2718557,0.22880161,0.26366547,0.07106887,-0.49948865,207.40941
2021-04-07,0.6136453,0.25085437,-0.015073396,-0.29928625,0.4611798,-0.053494498,0.31667843,0.26848915,0.22966984,0.28287533,0.08998224,-0.5276572,324.74942
2021-04-08,0.61595154,0.27086347,-0.03205629,-0.2867312,0.45676506,-0.054218315,0.33187708,0.2846986,0.23563606,0.29458573,0.08280743,-0.52799875,153.13805
2021-04-09,0.57505023,0.26314062,-0.04080764,-0.304599,0.45561326,-0.060452916,0.33020154,0.28582126,0.25010738,0.31887278,0.09082681,-0.53181773,80.466995
2021-04-12,0.59317446,0.26356626,-0.05196842,-0.30898684,0.44457245,-0.06647372,0.3460206,0.30444235,0.2710932,0.32872343,0.062441066,-0.51972246,100.79913
2021-04-13,0.5762478,0.25865299,-0.054865308,-0.32137093,0.43745387,-0.07165237,0.3476711,0.3002386,0.2751934,0.3401771,0.067049816,-0.52241623,38.445568
2021-04-14,0.5333227,0.2652536,-0.07963601,-0.33397698,0.43171,-0.07798521,0.32555827,0.3113541,0.28633907,0.3504766,0.07777166,-0.52749115,103.3257
2021-04-15,0.5654125,0.29381,-0.07381293,-0.3235379,0.4510783,-0.0681065,0.3116296,0.28491807,0.2560622,0.33236185,0.08582216,-0.5183649,84.9673
2021-04-16,0.5662364,0.26107013,-0.04812252,-0.31506625,0.46807504,-0.091351725,0.31439656,0.28305456,0.2562378,0.33097583,0.08791768,-0.5020744,94.22276
2021-04-19,0.56387174,0.2657514,-0.04363755,-0.31380707,0.46181744,-0.10057372,0.31498864,0.29549667,0.28279415,0.3286599,0.08175571,-0.5016514,46.102882
2021-04-20,0.5539194,0.30025426,-0.055853583,-0.3221059,0.4679417,-0.0764853,0.29309,0.2972532,0.2667703,0.33058977,0.1116121,-0.5269007,126.01647
2021-04-21,0.56010973,0.30894315,-0.07083082,-0.3315841,0.47955537,-0.06486408,0.258222,0.29867297,0.25624776,0.30975607,0.119853124,-0.547386,85.33728
2021-04-22,0.57634866,0.33372438,-0.07115008,-0.31808078,0.46468037,-0.06265206,0.27517965,0.3290635,0.239573,0.32747534,0.11582892,-0.50637066,61.776173
2021-04-23,0.56291825,0.32215664,-0.086380586,-0.33211955,0.47916722,-0.048212927,0.24160816,0.3056181,0.24277711,0.28177088,0.12321477,-0.54283124,105.97606
2021-04-26,0.56724834,0.32674974,-0.09997978,-0.31436828,0.47374928,-0.048834097,0.25528875,0.33365875,0.2831058,0.29549655,0.11608127,-0.5237426,71.3282
2021-04-27,0.5540767,0.32924205,-0.10528198,-0.3175604,0.4768842,-0.05225666,0.24057762,0.3384772,0.29630542,0.2884435,0.11718601,-0.52614826,32.74071
2021-04-28,0.53990924,0.3521136,-0.1267539,-0.3159239,0.46603483,-0.047048256,0.22304519,0.33701622,0.3029101,0.2815318,0.12570953,-0.5415414,65.1993
2021-04-29,0.54067445,0.35181722,-0.1300005,-0.32027814,0.4606371,-0.03825336,0.22831248,0.3435631,0.29328096,0.27964446,0.12272295,-0.5367951,35.422688
2021-04-30,0.5532042,0.38563466,-0.14515938,-0.30153674,0.43114793,-0.04624866,0.22104149,0.35257906,0.3215178,0.2775783,0.10166085,-0.5338968,90.62251
2021-05-03,0.53516,0.38344997,-0.13912588,-0.30046216,0.44164395,-0.047693834,0.19893114,0.33976266,0.3116708,0.27823707,0.11951731,-0.5602867,53.345795
2021-05-04,0.53615165,0.3928628,-0.12131049,-0.28758737,0.43603694,-0.040967047,0.18839979,0.34550577,0.3074182,0.258402,0.12267338,-0.55595154,53.995983
2021-05-05,0.5390941,0.41767663,-0.08969896,-0.24753034,0.41693783,-0.04751143,0.21398707,0.36041975,0.3097562,0.2616884,0.09684092,-0.5369946,111.60488
2021-05-06,0.5715766,0.40797132,-0.054688506,-0.23385388,0.41822767,-0.051914774,0.22018892,0.35769904,0.3046766,0.24540016,0.093441024,-0.5293794,78.92877
2021-05-07,0.5899137,0.41430867,-0.04257813,-0.20838949,0.4086448,-0.057977304,0.2242258,0.37888864,0.32612422,0.24008814,0.07722367,-0.50368816,90.934166
2021-05-10,0.58552176,0.3917929,-0.030405924,-0.208056,0.41682065,-0.06237869,0.2343633,0.3716992,0.31128407,0.25665888,0.08145122,-0.5003738,68.52277
2021-05-11,0.5729921,0.41667157,-0.009334542,-0.19933245,0.38265505,-0.040331617,0.2186568,0.39324224,0.30743667,0.2477046,0.07692085,-0.5061088,149.45422
2021-05-12,0.55843306,0.38476437,-0.011108078,-0.23615563,0.41695714,-0.045633063,0.20956662,0.35127962,0.27499902,0.23056802,0.080470085,-0.55164266,115.68869
2021-05-13,0.55379546,0.38086706,-0.003001012,-0.27092057,0.4408719,-0.04913573,0.20382862,0.3165178,0.24570006,0.20808947,0.0884691,-0.59603935,153.98502
2021-05-14,0.55522513,0.38917375,-0.011935361,-0.26264754,0.4355126,-0.04985237,0.23102193,0.34922397,0.26804227,0.2242766,0.069108754,-0.59783703,368.6101
2021-05-17,0.5447111,0.36903274,0.00013454258,-0.25422,0.42876035,-0.060792737,0.23690222,0.35720634,0.2877628,0.24061695,0.086188234,-0.5937032,179.78036
2021-05-18,0.54407907,0.36221772,0.038245387,-0.2579045,0.4373725,-0.06533715,0.22665523,0.36551142,0.27778167,0.24415535,0.11101824,-0.5695793,28383.59
2021-05-19,0.5554484,0.35144132,0.03485904,-0.2796029,0.4437971,-0.06546509,0.19810767,0.35621673,0.27024782,0.21222791,0.11574559,-0.5929647,63.287907
2021-05-20,0.5572529,0.3223409,0.01815144,-0.30833605,0.44732404,-0.070175655,0.20515028,0.35529736,0.26084167,0.21625587,0.1192705,-0.6070991,89.42152
2021-05-21,0.5539657,0.28994107,0.012853794,-0.3255507,0.45832402,-0.07382059,0.21278243,0.36357656,0.2625874,0.2333991,0.1273867,-0.5915356,77.0788
2021-05-24,0.5493063,0.31252924,0.02725207,-0.3006826,0.43211126,-0.072860144,0.20959257,0.38550013,0.28050277,0.22998965,0.1274804,-0.5812699,152.92807
2021-05-25,0.53837633,0.30186516,0.054208525,-0.28509298,0.43260068,-0.06788152,0.21958517,0.3893448,0.2710672,0.2521919,0.15007386,-0.5485494,158.5829
2021-05-26,0.5201624,0.27745873,0.0581019,-0.295065,0.42719996,-0.051302575,0.21070702,0.38980645,0.26480645,0.25947306,0.16115159,-0.5649466,67.54938
2021-05-27,0.52076995,0.25847894,0.060901858,-0.2897882,0.4253747,-0.059428386,0.22691692,0.38782328,0.26842433,0.27115387,0.1625277,-0.5446477,48.347862
2021-05-28,0.50597465,0.2692852,0.044768862,-0.28090692,0.40409172,-0.06357932,0.23568548,0.40447867,0.28193566,0.28550708,0.15496315,-0.5329387,73.854675
2021-06-01,0.47657713,0.2445679,0.05715572,-0.28245997,0.39989364,-0.0606694,0.23207755,0.3765105,0.26990166,0.29693514,0.1612974,-0.55100906,73.02079
2021-06-02,0.49015254,0.25011706,0.088153146,-0.28850615,0.4122349,-0.053864785,0.22417039,0.36163425,0.25409698,0.27749816,0.18149151,-0.53632027,110.738754
2021-06-03,0.4885531,0.24932308,0.10369516,-0.2936697,0.40738738,-0.048708938,0.22063427,0.36690617,0.24093622,0.26826736,0.18743308,-0.522483,48.206818
2021-06-04,0.511444,0.24185877,0.122844525,-0.29349372,0.41019225,-0.03333784,0.20733647,0.35275578,0.22685549,0.24231839,0.19787295,-0.52349377,89.61583
2021-06-07,0.4893616,0.23442513,0.12756032,-0.2943248,0.40008056,-0.016019572,0.20744334,0.3570888,0.23490185,0.25060463,0.20630476,-0.51743495,79.59102
2021-06-08,0.5604603,0.23929468,0.13986677,-0.31947064,0.43080187,-0.012424782,0.17544532,0.34545463,0.23178133,0.20701334,0.21422315,-0.53666085,109.8757
2021-06-09,0.5878608,0.21822818,0.1449314,-0.33106065,0.43815178,-0.015895784,0.17716342,0.3445079,0.22080511,0.1993976,0.21561302,-0.51459503,65.01193
2021-06-10,0.6165906,0.20253564,0.11913095,-0.36307153,0.44316322,-0.02999892,0.17321043,0.3335473,0.21505117,0.18619186,0.20500235,-0.53148794,152.26077
2021-06-11,0.63698626,0.17816505,0.06463132,-0.40130275,0.43362284,-0.048481606,0.18173736,0.3294782,0.20969284,0.1782833,0.17364779,-0.5527828,167.5655
2021-06-14,0.6315484,0.1768738,0.055162556,-0.41462973,0.4387179,-0.046009533,0.18322574,0.3270073,0.21125737,0.17195383,0.15950596,-0.5532581,39.919006
2021-06-15,0.61230195,0.1777406,0.031650715,-0.40763623,0.4179734,-0.059624363,0.16993205,0.33316183,0.22427279,0.15832394,0.1450042,-0.5558939,114.95976
2021-06-16,0.6208736,0.17233136,0.022513367,-0.4177034,0.4181046,-0.054187305,0.16753796,0.3137231,0.21145836,0.14183983,0.15227045,-0.5586748,73.812675
2021-06-17,0.6160128,0.18564586,0.021508582,-0.41046894,0.4171642,-0.045361683,0.16009553,0.31405446,0.21483809,0.1367436,0.15648223,-0.5750578,46.65376
2021-06-18,0.61098397,0.17342523,0.0018528923,-0.41445157,0.41202104,-0.05042831,0.14398916,0.28903577,0.21591976,0.11356457,0.1466915,-0.61132896,160.20221
2021-06-21,0.57457495,0.18272921,-0.025122173,-0.42594352,0.4214577,-0.030857638,0.13153742,0.25178292,0.20961827,0.097797774,0.15695275,-0.66192466,1564.6414
2021-06-22,0.60857666,0.17679968,-0.016163804,-0.41320407,0.43228877,-0.04915305,0.15149811,0.25253177,0.21546453,0.08650216,0.14749788,-0.6527577,146.89264
2021-06-23,0.5984347,0.17968157,-0.020210244,-0.41924158,0.42915553,-0.046000965,0.150786,0.25274318,0.2163251,0.08987709,0.14569469,-0.64839983,43.674107
2021-06-24,0.5737406,0.19548947,-0.03487712,-0.4038357,0.42203486,-0.050996795,0.1524567,0.26520497,0.23728496,0.10933641,0.1380881,-0.63106483,146.96298
2021-06-25,0.6035973,0.20153148,-0.018654339,-0.40164316,0.41731685,-0.06915499,0.15393594,0.27722505,0.25364438,0.08772995,0.11998232,-0.61221653,140.3331
2021-06-28,0.6055474,0.21118939,-0.01846502,-0.3977749,0.4138404,-0.054862514,0.1690034,0.27941045,0.24618173,0.094125904,0.117564395,-0.61101925,51.61361
2021-06-29,0.5795413,0.19794978,-0.023796193,-0.38393974,0.39801687,-0.07277532,0.15794697,0.28306586,0.25262323,0.104376905,0.11601812,-0.6138404,102.52219
2021-06-30,0.575206,0.20351472,-0.022965126,-0.38425565,0.38901412,-0.08133571,0.15740015,0.28653675,0.26320437,0.10931041,0.11580975,-0.60832876,32.723732
2021-07-01,0.56537473,0.20021984,-0.019605912,-0.36556327,0.37636378,-0.0890312,0.16578935,0.28503257,0.258575,0.12386259,0.11548978,-0.59608936,58.748108
2021-07-02,0.56523347,0.20719817,-0.020054601,-0.3618987,0.36709923,-0.08033876,0.18454775,0.283071,0.25473619,0.13599342,0.11200166,-0.60347646,46.566986
2021-07-06,0.5643046,0.20781738,-0.015189581,-0.3587575,0.36633044,-0.07906683,0.18760312,0.28108913,0.26983985,0.14898494,0.11142722,-0.60002774,46.30494
2021-07-07,0.5619856,0.19914472,-0.03405912,-0.37236524,0.37354904,-0.091101475,0.17212653,0.28135717,0.26812166,0.14816576,0.10109408,-0.590201,170.23813
2021-07-08,0.54221165,0.21530068,-0.046868622,-0.3756568,0.36504728,-0.09734824,0.16962652,0.2726509,0.28141013,0.17302123,0.10085167,-0.59562063,86.69416
2021-07-09,0.5345855,0.22668026,-0.075529024,-0.39464757,0.36905512,-0.100867726,0.15068151,0.28437734,0.29127812,0.1648772,0.09696503,-0.60578144,106.85393
2021-07-12,0.5576849,0.24614976,-0.08972509,-0.3772066,0.35917813,-0.12279412,0.16443706,0.31731093,0.31871244,0.15774491,0.07937461,-0.5731537,118.52023
2021-07-13,0.56346476,0.2424325,-0.0880446,-0.361534,0.36006427,-0.11741209,0.16840981,0.33880404,0.33198893,0.15062654,0.063762754,-0.574401,50.95804
2021-07-14,0.5351055,0.25238544,-0.109207846,-0.39188385,0.37449735,-0.10190441,0.18049444,0.33616817,0.33016562,0.15726936,0.059152782,-0.6002369,83.427376
2021-07-15,0.5003156,0.25015336,-0.11717479,-0.3914285,0.387722,-0.09484882,0.17403875,0.32163358,0.3420433,0.16968423,0.0697452,-0.6056357,63.450455
2021-07-16,0.51026654,0.27369493,-0.11704834,-0.3966217,0.39390355,-0.086893186,0.18166988,0.34009352,0.32829502,0.17203179,0.055160686,-0.6084013,59.71135
2021-07-19,0.5009196,0.27887124,-0.14299555,-0.40208283,0.40440816,-0.08485955,0.1744489,0.30124545,0.31116292,0.151402,0.048148014,-0.6540367,85.09703
2021-07-20,0.50889385,0.26296055,-0.13349144,-0.3679467,0.4076922,-0.1054622,0.13560493,0.26291674,0.33691105,0.11880965,0.053970695,-0.67529017,127.658966
2021-07-21,0.51531744,0.25658727,-0.1322253,-0.34152296,0.41037393,-0.11282388,0.15323009,0.2678662,0.34721884,0.12015086,0.0474011,-0.6648782,52.236687
2021-07-22,0.53374195,0.25422943,-0.12467849,-0.32478058,0.4095568,-0.12800084,0.17018536,0.27841678,0.36348367,0.112518825,0.040424123,-0.62980247,74.79
2021-07-23,0.5128269,0.2569434,-0.14115176,-0.31846723,0.39462805,-0.123459,0.1768636,0.2730658,0.36651742,0.11944229,0.038609587,-0.6454349,47.14065
2021-07-26,0.51839095,0.24478406,-0.14254963,-0.32413578,0.38422468,-0.13392954,0.19063362,0.2811414,0.3736114,0.1124566,0.026175978,-0.62956345,72.89441
2021-07-27,0.5010525,0.24442744,-0.14334254,-0.31901923,0.38414773,-0.13744467,0.18815397,0.25812617,0.36700928,0.11667644,0.04366438,-0.63017064,90.18372
2021-07-28,0.4811928,0.24500087,-0.13109335,-0.31768742,0.3879053,-0.12033975,0.18624042,0.26194853,0.33867756,0.13399225,0.059582457,-0.65433586,91.93272
2021-07-29,0.4732502,0.24530123,-0.11198004,-0.323399,0.39315224,-0.14004488,0.18127842,0.26442415,0.3313553,0.1317774,0.07275562,-0.65416425,65.43792
2021-07-30,0.47757605,0.24444121,-0.110465765,-0.30786228,0.39394116,-0.14140907,0.19307898,0.26874685,0.34079432,0.13685414,0.06574859,-0.62643886,37.310646
2021-08-02,0.48044953,0.24741715,-0.11256108,-0.29941416,0.3884906,-0.14697164,0.18810137,0.28094122,0.34513837,0.118284024,0.049645856,-0.6246417,58.51506
2021-08-03,0.4876568,0.24130815,-0.10651451,-0.29112735,0.3840175,-0.14930005,0.19087079,0.29305774,0.35336548,0.12029251,0.044429973,-0.63400203,36.71591
2021-08-04,0.5361729,0.22539961,-0.059822664,-0.2670605,0.3920654,-0.16736358,0.20572644,0.30153564,0.3639038,0.10310847,0.02338096,-0.59399295,164.46864
2021-08-05,0.55017626,0.21881887,-0.050318155,-0.28423294,0.3951671,-0.16909596,0.20207925,0.29498184,0.3548665,0.10309187,0.021899896,-0.5896023,43.194996
2021-08-06,0.5307512,0.24068831,-0.031333435,-0.28453302,0.40931022,-0.16617209,0.20288245,0.2911567,0.35260472,0.11080653,0.04479274,-0.5859589,171.63489
2021-08-09,0.56897056,0.2497669,-0.024477094,-0.26879916,0.4227808,-0.14986409,0.197069,0.31389946,0.35100025,0.07797114,0.0329265,-0.56843966,121.735466
2021-08-10,0.5563984,0.24715663,-0.0073395446,-0.2692927,0.42498994,-0.1489284,0.19069721,0.31139043,0.3621552,0.07516896,0.03836523,-0.5741548,102.92757
2021-08-11,0.5714326,0.2612151,0.0016310588,-0.25679854,0.4272129,-0.14583561,0.19739105,0.33809215,0.36068374,0.07648296,0.042736307,-0.55103993,167.51117
2021-08-12,0.558337,0.27672768,0.00080593675,-0.27910775,0.44439173,-0.14629358,0.1889717,0.33957586,0.3844679,0.0845196,0.051849544,-0.52875674,119.01538
2021-08-13,0.5318322,0.27139926,0.0075597093,-0.2789454,0.45070022,-0.145462,0.188477,0.3262787,0.3910381,0.0897801,0.05631703,-0.5421199,869.97546
2021-08-16,0.51994616,0.27732342,0.0013235137,-0.28238446,0.456631,-0.1483389,0.1964839,0.3264919,0.3972686,0.09752055,0.048157148,-0.559034,123.57446
2021-08-17,0.5312197,0.27931583,0.024306796,-0.27384397,0.4563982,-0.15031949,0.19284357,0.3280049,0.3852277,0.07663152,0.037549406,-0.5592836,1792.6718
2021-08-18,0.5502185,0.29564637,0.016052552,-0.2897727,0.45925885,-0.12822452,0.19536646,0.32195976,0.36364585,0.06849801,0.04214371,-0.58262235,100.299576
2021-08-19,0.535143,0.29081446,0.020137496,-0.28190464,0.47959548,-0.12142336,0.17883468,0.27758744,0.35664266,0.041293286,0.0483867,-0.6112356,125.87954
2021-08-20,0.53760314,0.27736467,0.020098008,-0.2707067,0.4675563,-0.1190746,0.18711518,0.26214498,0.35650203,0.061853148,0.04923138,-0.6342255,79.22709
2021-08-23,0.51213765,0.2712754,0.016765676,-0.27293324,0.44473994,-0.119299404,0.19442056,0.2480672,0.3630908,0.086509086,0.0565283,-0.65367824,98.277405
2021-08-24,0.5016614,0.24456283,0.03130655,-0.27369353,0.44550377,-0.13708323,0.21472478,0.22348666,0.34674355,0.08786816,0.078983635,-0.63267434,183.3426
2021-08-25,0.5086758,0.24468906,0.041897304,-0.2636721,0.4553702,-0.13507351,0.2092248,0.22118568,0.34943807,0.08049231,0.08052378,-0.6219818,59.023636
2021-08-26,0.5093914,0.2540506,0.036210455,-0.2573099,0.4479769,-0.13740857,0.2245712,0.21367055,0.36316034,0.09694156,0.08779113,-0.6107843,69.22579
2021-08-27,0.5115484,0.24269909,0.043990217,-0.25274584,0.45653617,-0.14443475,0.22233482,0.21266699,0.3601539,0.097613715,0.08709131,-0.6125112,39.24089
2021-08-30,0.5177213,0.22710437,0.009210162,-0.28064096,0.4552303,-0.14806516,0.25487632,0.2107679,0.34707555,0.14781463,0.0982364,-0.59929657,186.07497
2021-08-31,0.5299275,0.20838296,0.001611568,-0.28233367,0.4656368,-0.13536882,0.2561191,0.21488118,0.34775713,0.15962613,0.103680536,-0.61121416,122.724236
2021-09-01,0.5270153,0.1873614,0.008936986,-0.3033754,0.4857356,-0.13057134,0.25558084,0.19950694,0.32543164,0.16774735,0.115996405,-0.6287164,514.11755
2021-09-02,0.5119199,0.17188498,-0.02421137,-0.33788142,0.48588282,-0.108018816,0.2718346,0.18019676,0.30312943,0.20342124,0.13911682,-0.65485483,478.9605
2021-09-03,0.5159104,0.15490018,-0.009360872,-0.30553257,0.48814023,-0.11410529,0.2822508,0.16811296,0.30311012,0.22493869,0.14684747,-0.6511754,114.91182
2021-09-07,0.51580095,0.15064773,-0.01748722,-0.31796283,0.4884615,-0.11991243,0.27892855,0.17229319,0.31020492,0.22358692,0.1375344,-0.64975876,111.96664
2021-09-08,0.5458946,0.13322882,-0.029489875,-0.33984187,0.5152686,-0.12339301,0.26887336,0.2086829,0.31487036,0.2102049,0.14541118,-0.6340418,141.66634
2021-09-09,0.5448283,0.14698733,-0.03487614,-0.3537077,0.52784187,-0.10749175,0.26487923,0.21929288,0.32308006,0.22883376,0.15970923,-0.627834,77.04529
2021-09-10,0.5826969,0.141472,-0.03557088,-0.3943966,0.53358763,-0.09729505,0.2644662,0.23613477,0.31553894,0.20339766,0.15301251,-0.612866,62.635773
2021-09-13,0.57012594,0.13628556,-0.057786647,-0.41880196,0.5330703,-0.100615874,0.24757783,0.22533762,0.32362166,0.18906102,0.1610203,-0.63383675,107.200066
2021-09-14,0.57582426,0.13264489,-0.0645371,-0.3928535,0.5241378,-0.124800526,0.25302646,0.20572177,0.31648612,0.1775316,0.15242864,-0.6320074,72.09409
2021-09-15,0.5726161,0.15171483,-0.08593112,-0.39274612,0.5207126,-0.122238144,0.233149,0.21629143,0.33812505,0.15817758,0.1383046,-0.63834715,91.81961
2021-09-16,0.58722603,0.13135207,-0.049909495,-0.37092775,0.50681365,-0.1371436,0.23643,0.21338981,0.316739,0.15902624,0.14620145,-0.615823,97.15916
2021-09-17,0.56264687,0.15306507,-0.073426336,-0.3842402,0.49996233,-0.13019168,0.24356367,0.2149573,0.30872378,0.18279591,0.1488086,-0.64080524,104.914246
2021-09-20,0.5607146,0.14309654,-0.07592468,-0.37158197,0.4964323,-0.13703129,0.23715617,0.20970583,0.30401748,0.16574717,0.13759007,-0.650885,44.54918
2021-09-21,0.5280785,0.16125238,-0.026336335,-0.3624795,0.5095298,-0.10624042,0.21455082,0.14427769,0.28824648,0.08592018,0.13076736,-0.7243826,221.71063
2021-09-22,0.53069055,0.167368,-0.013132848,-0.36296105,0.505731,-0.10335785,0.22061095,0.15088344,0.2893961,0.09245362,0.12749065,-0.7278223,76.39956
2021-09-23,0.54587376,0.16628006,-0.028302439,-0.32787707,0.49085617,-0.14356592,0.22245292,0.14370805,0.2958385,0.07600062,0.11709966,-0.6921009,209.19995
2021-09-24,0.5876279,0.15506072,0.007857956,-0.28772724,0.48883396,-0.15959078,0.2298088,0.1356206,0.29596865,0.06888073,0.11806376,-0.6226477,195.18497
2021-09-27,0.58518976,0.16219592,0.023567535,-0.2398433,0.4694562,-0.15379657,0.23930289,0.14164853,0.3146531,0.08045835,0.11603637,-0.6074693,265.0249
2021-09-28,0.5696596,0.18218914,0.03581772,-0.21282259,0.44685048,-0.15019171,0.22609249,0.14503512,0.32550314,0.07219796,0.095403604,-0.5918916,127.35651
2021-09-29,0.51071775,0.21569893,0.056455784,-0.18368539,0.44427156,-0.12604877,0.20975973,0.08609087,0.29630294,0.0416897,0.08977244,-0.62615615,227.48607
2021-09-30,0.5592493,0.21353403,0.081444286,-0.19286646,0.45283997,-0.112175025,0.22122978,0.092189945,0.2921613,0.037717067,0.081719786,-0.6101794,107.70302
2021-10-01,0.54660285,0.21588737,0.07295797,-0.20763071,0.45269543,-0.102004305,0.18448241,0.06297531,0.27830303,0.007965319,0.09181878,-0.6437152,180.3161
2021-10-04,0.56560075,0.22907564,0.10984292,-0.17670548,0.4476691,-0.090745375,0.2061385,0.05678124,0.2565296,0.007158093,0.07663128,-0.6132309,147.99216
2021-10-05,0.5303663,0.24139524,0.1427558,-0.15851459,0.43255675,-0.08235183,0.18006967,0.023044907,0.2332347,-0.035963498,0.08198556,-0.6287522,757.568
2021-10-06,0.58800304,0.22902688,0.15032959,-0.15865952,0.4423896,-0.092342004,0.19123685,0.051311053,0.26240805,-0.04023113,0.081768334,-0.6101407,192.25027
2021-10-07,0.5920806,0.22265434,0.14937896,-0.14317791,0.43876064,-0.09130827,0.19610868,0.06837147,0.26895583,-0.0113445,0.08555389,-0.5899686,133.83502
2021-10-08,0.6314485,0.21536183,0.17887941,-0.147302,0.46316963,-0.10640192,0.21218833,0.09488205,0.2729864,0.0068743452,0.09062293,-0.55527216,275.52167
2021-10-11,0.639225,0.23674011,0.15863344,-0.18110219,0.46461284,-0.083474286,0.2347738,0.11886359,0.23516798,0.021861456,0.07987508,-0.5509759,347.70392
2021-10-12,0.6246723,0.22508293,0.12863481,-0.20801169,0.4728124,-0.070715524,0.215005,0.10938915,0.21903482,0.0064351335,0.10598338,-0.5990001,193.23766
2021-10-13,0.60412467,0.23166218,0.124888666,-0.22710729,0.47555315,-0.055322587,0.20316853,0.12293177,0.21234995,-0.014319792,0.12947048,-0.6282244,411.15433
2021-10-14,0.6073898,0.23413542,0.10894791,-0.2411805,0.5032163,-0.05645881,0.19342344,0.120790966,0.2270881,-0.0138480365,0.13987018,-0.6545341,57.433014
2021-10-15,0.65298426,0.20454437,0.12090645,-0.2186583,0.51992655,-0.10793999,0.21384339,0.10326732,0.24030179,-0.012941793,0.1173393,-0.6257102,192.90372
2021-10-18,0.6646968,0.18601078,0.12802577,-0.21282685,0.516416,-0.12598962,0.23697324,0.1310376,0.2607522,0.01744578,0.117618605,-0.5758688,326.03058
2021-10-19,0.649248,0.18970871,0.13636655,-0.2075009,0.5116178,-0.12713875,0.2312375,0.15072605,0.27915892,0.05894602,0.123217836,-0.5584142,285.3481
2021-10-20,0.6596731,0.17893976,0.15563127,-0.21889049,0.5102473,-0.112090915,0.24143194,0.17904693,0.2823814,0.082016416,0.11634809,-0.5339312,112.45251
2021-10-21,0.67557275,0.17825341,0.16739869,-0.19596282,0.506464,-0.1327371,0.23832668,0.18824548,0.30845758,0.072402425,0.10537796,-0.5245735,78.551414
2021-10-22,0.69476855,0.16309205,0.14922178,-0.20280288,0.5016811,-0.11910019,0.24729212,0.19124514,0.29256117,0.10607887,0.1041881,-0.5099891,97.84495
2021-10-25,0.7191026,0.17474414,0.1489523,-0.2123832,0.5120378,-0.10386113,0.26104596,0.21201214,0.30064183,0.104521,0.097607136,-0.4969359,59.938263
2021-10-26,0.69268274,0.1831668,0.13427997,-0.21299171,0.5109565,-0.07833256,0.27420262,0.21574584,0.2837525,0.12949133,0.10327192,-0.49521846,85.87991
2021-10-27,0.67812645,0.15909043,0.11953486,-0.24210429,0.5202629,-0.082452476,0.28951594,0.1941162,0.26151612,0.12648898,0.11533177,-0.5214217,89.71042
2021-10-28,0.6437328,0.1317899,0.096145995,-0.23202007,0.5039075,-0.09830898,0.2394449,0.11971644,0.2750088,0.10848329,0.14283904,-0.6095166,184.1011
2021-10-29,0.6573609,0.113811426,0.12747741,-0.20884179,0.4928304,-0.11617102,0.25487694,0.13986036,0.2779889,0.10568101,0.13983181,-0.57280743,113.76953
2021-11-01,0.6427659,0.10951133,0.119809784,-0.2269322,0.48867,-0.1123223,0.25877935,0.14874816,0.28913018,0.10053714,0.14440899,-0.5813237,46.353935
2021-11-02,0.64385545,0.10374419,0.15223193,-0.24096203,0.5022731,-0.10745107,0.25449684,0.14787054,0.26428178,0.06772978,0.15570617,-0.5686432,99.27556
2021-11-03,0.62155366,0.081152454,0.15000781,-0.2511177,0.50658935,-0.11266425,0.26595905,0.14773834,0.25262833,0.07244069,0.16250019,-0.58985525,60.678696
2021-11-04,0.64639163,0.0639405,0.16531199,-0.26139462,0.5280453,-0.11267165,0.2737998,0.16488016,0.2483497,0.07579892,0.15874486,-0.5816618,68.3226
2021-11-05,0.6213951,0.042843215,0.15972018,-0.26711705,0.5286586,-0.11127018,0.27970994,0.14961201,0.23823833,0.08943526,0.17531925,-0.58467585,88.2334
2021-11-08,0.6086352,0.011136308,0.15316495,-0.27998316,0.5469099,-0.12705043,0.29513836,0.15271318,0.23597407,0.107968695,0.18585838,-0.55416065,143.10782
2021-11-09,0.6137748,0.008735895,0.16050008,-0.26424783,0.52051157,-0.12122935,0.2883395,0.15872079,0.23098713,0.10262773,0.18707232,-0.5211807,62.119083
2021-11-10,0.62219155,0.006757602,0.13041395,-0.28298575,0.52217185,-0.119128026,0.2788546,0.16789168,0.24119434,0.10882934,0.18919845,-0.52610433,73.51597
2021-11-11,0.6155251,-0.0025054812,0.10333372,-0.32925493,0.5355519,-0.10700591,0.2895388,0.16994071,0.21925634,0.09514586,0.19985847,-0.5418226,223.344
2021-11-12,0.63334787,0.008608341,0.09585901,-0.32103854,0.53955853,-0.09727184,0.27393287,0.18458724,0.22985879,0.08854947,0.19985777,-0.5262546,494.70053
2021-11-15,0.63606215,0.0065057054,0.08321092,-0.33554366,0.52688843,-0.068331346,0.27017984,0.22647935,0.24584126,0.10141059,0.19060041,-0.5144014,127.093994
2021-11-16,0.617646,0.021219723,0.063897766,-0.3589868,0.5421057,-0.053720605,0.25122067,0.23648375,0.25302136,0.103583865,0.19843103,-0.54709655,310.49576
2021-11-17,0.6043935,0.020571724,0.046758972,-0.36843926,0.5345071,-0.03665643,0.2417707,0.24456799,0.26227725,0.106034435,0.20035411,-0.5546556,83.375946
2021-11-18,0.5993736,0.03607954,0.01949206,-0.37934256,0.526664,-0.044954933,0.22566335,0.2578916,0.29065496,0.112208985,0.18741076,-0.58649033,202.54645
2021-11-19,0.57734656,0.048383743,-0.0066949055,-0.36699513,0.5132921,-0.05539633,0.20740311,0.2678901,0.3062941,0.11585765,0.18577279,-0.60986227,226.60536
2021-11-22,0.54825705,0.07512434,-0.016771056,-0.3503707,0.49492162,-0.043877333,0.1691652,0.22744155,0.28124464,0.12454868,0.20342255,-0.6434304,303.93365
2021-11-23,0.53879046,0.11251334,-0.010189973,-0.32702845,0.4954946,-0.046102248,0.16454919,0.21447706,0.29049832,0.13343653,0.21555114,-0.66906434,131.38693
2021-11-24,0.58624613,0.12482818,0.028381415,-0.29056108,0.49448556,-0.06330732,0.18574165,0.23185727,0.29434255,0.13635996,0.19607826,-0.6190861,487.9509
2021-11-26,0.59760094,0.120068066,0.01533711,-0.3105403,0.49305427,-0.07008964,0.20653503,0.25570408,0.30060387,0.1483458,0.18112205,-0.6108636,110.94258
2021-11-29,0.5669825,0.12124781,0.019318394,-0.2832231,0.5090287,-0.08295176,0.1545702,0.20794296,0.30009764,0.1108933,0.19288217,-0.6647483,147.01987
2021-11-30,0.5854788,0.116611466,0.012197293,-0.26507828,0.49438292,-0.098012164,0.14658263,0.23398125,0.33949435,0.11451513,0.17570664,-0.6571569,115.517334
2021-12-01,0.56072205,0.11270109,0.019088216,-0.25231105,0.5065423,-0.0931153,0.11363228,0.19302848,0.30894232,0.065942846,0.17160241,-0.6981194,176.31506
2021-12-02,0.55974567,0.11083046,0.016252212,-0.24916454,0.5050629,-0.09597126,0.10277,0.17563114,0.29953045,0.042888083,0.16436867,-0.72469896,85.90048
2021-12-03,0.5796428,0.116442114,0.04275403,-0.21699381,0.5100608,-0.100337744,0.12959322,0.1645205,0.29279393,0.058137737,0.15391776,-0.6866871,271.97028
2021-12-06,0.5738182,0.112927176,0.02874536,-0.21959554,0.50987905,-0.11978037,0.14179073,0.15469286,0.29003674,0.063508295,0.122326344,-0.67880446,104.63876
2021-12-07,0.5970715,0.11795285,0.020393632,-0.20905048,0.5046354,-0.11055385,0.17562027,0.17427254,0.3040078,0.09655107,0.1065916,-0.6421787,162.71078
2021-12-08,0.59618163,0.10293922,-0.0005104244,-0.20089425,0.49891108,-0.12168445,0.2022805,0.20716953,0.32561287,0.13551185,0.11911878,-0.62324375,226.70203
2021-12-09,0.60033107,0.10488806,0.001555793,-0.21878526,0.50188684,-0.10806293,0.20107035,0.20839792,0.32379153,0.1287412,0.12200762,-0.62829936,438.0727
2021-12-10,0.61010325,0.10607163,-0.0073714554,-0.23491347,0.51654774,-0.089695126,0.2169048,0.22667873,0.31514627,0.13150367,0.11970401,-0.6191886,628.6544
2021-12-13,0.58251095,0.09324688,-0.07014873,-0.28144717,0.49332535,-0.05150347,0.24553587,0.26722625,0.32128468,0.21324366,0.15235057,-0.62929916,1059.2227
2021-12-14,0.58295095,0.08837621,-0.07579788,-0.2998669,0.5260552,-0.044392318,0.24682386,0.22411889,0.29650486,0.1899643,0.15415539,-0.66277736,82.12842
2021-12-15,0.56273854,0.08490153,-0.077785626,-0.2979971,0.49607348,-0.036151882,0.23113072,0.21884233,0.29392785,0.16966218,0.16621664,-0.66949195,64.013084
2021-12-16,0.5882499,0.093272656,-0.068722434,-0.30470663,0.48309302,-0.045146696,0.21170497,0.28964508,0.3397034,0.14654148,0.14695503,-0.62477416,144.02039
2021-12-17,0.607134,0.10593696,-0.053716607,-0.280016,0.4781499,-0.07061722,0.21491851,0.2859794,0.33955637,0.118254654,0.11162101,-0.5936139,155.32819
2021-12-20,0.60879374,0.1106668,-0.060889065,-0.29005116,0.48725486,-0.09276096,0.20211707,0.293767,0.34728342,0.09599777,0.08501631,-0.59866256,109.39763
2021-12-21,0.6300813,0.13393508,-0.03403731,-0.29227233,0.49005693,-0.12245019,0.18673591,0.31479517,0.36082056,0.06809526,0.05517441,-0.6056649,185.9717
2021-12-22,0.63301754,0.15190664,-0.017756447,-0.26524773,0.5020082,-0.09649567,0.21411777,0.31922698,0.3553238,0.1028359,0.05598533,-0.5684863,170.8182
2021-12-23,0.64224005,0.13416696,-0.0045254454,-0.27642405,0.49845207,-0.08005206,0.25256222,0.3406939,0.33727032,0.124807425,0.055048957,-0.54791087,166.02922
2021-12-27,0.65831566,0.13566436,0.03353942,-0.28289583,0.4952591,-0.08251574,0.25565705,0.37627882,0.3424024,0.10143875,0.05133857,-0.5210249,894.37115
2021-12-28,0.67253447,0.13761973,0.044039078,-0.2699124,0.49352163,-0.0836678,0.2892984,0.39513096,0.35495993,0.1265524,0.044895038,-0.49640936,105.11246
2021-12-29,0.67104316,0.1550079,0.03832502,-0.26342437,0.5151428,-0.08420689,0.29708847,0.37697753,0.34668604,0.12911612,0.04033857,-0.49906802,55.58926
2021-12-30,0.6658032,0.16487446,0.076311775,-0.25400692,0.5191846,-0.09101637,0.29598492,0.38671038,0.3305866,0.12470821,0.043221585,-0.4808008,140.52798
2021-12-31,0.6518179,0.1819886,0.08137689,-0.26057896,0.5213254,-0.06989379,0.28703383,0.37750828,0.32386374,0.12454698,0.058526352,-0.49934667,92.159096
2022-01-03,0.052819014,-0.22539832,0.1393322,0.19613163,0.22835179,0.20289883,-0.03376046,0.183433,0.45801082,0.023838181,0.13126144,-0.2941845,1459.5454
2022-01-04,0.09974955,-0.2446798,0.17458594,0.17485906,0.21863176,0.17826006,0.021987684,0.17513284,0.48777488,-0.025084123,0.13680679,-0.21656263,561.94275
2022-01-05,0.063078985,-0.17842825,0.22083351,0.19906579,0.22513248,0.26785678,0.1329681,0.12678432,0.47308823,-0.07702097,0.13030203,-0.18480045,919.23676
2022-01-06,0.04122909,-0.15090756,0.16673127,0.19747914,0.2275153,0.25861874,0.10547493,0.109517,0.48415747,-0.011797838,0.09365493,-0.24139881,259.93588
2022-01-07,0.033465575,-0.12834752,0.14611605,0.15126121,0.18284501,0.30609846,0.15097153,0.047322348,0.5153921,0.04347522,0.10304655,-0.21486159,703.4398
2022-01-10,0.027330436,-0.10015608,0.13712862,0.14073762,0.1701831,0.32800028,0.16928875,0.04143755,0.51473755,0.04764331,0.093649,-0.22191831,114.17257
2022-01-11,0.03893608,-0.09841729,0.16426507,0.15299219,0.16765939,0.3224591,0.16110227,0.05337306,0.48508218,0.04771565,0.07590481,-0.23620549,140.8071
2022-01-12,0.058726296,-0.10370663,0.18747282,0.1627385,0.15758835,0.32783604,0.1585015,0.07344235,0.47225317,0.037515156,0.07099875,-0.24894518,159.47041
2022-01-13,0.077762894,-0.117765814,0.19070989,0.17694278,0.14181753,0.3054975,0.14408708,0.08322026,0.45701626,0.04239851,0.06587266,-0.2507795,119.85718
2022-01-14,0.07533228,-0.11986457,0.16066074,0.1818366,0.14089233,0.30224586,0.12451389,0.083975814,0.45611706,0.07036066,0.0666102,-0.26337066,111.926994
2022-01-18,0.06377198,-0.10214651,0.16587463,0.1965127,0.18121244,0.31278968,0.10164002,0.092255525,0.4050792,0.004679933,0.115202054,-0.2959495,291.63794
2022-01-19,0.04340192,-0.09368684,0.15252122,0.20537621,0.19481476,0.3050263,0.07283995,0.07539706,0.36540434,0.013343856,0.10914813,-0.33757895,323.62692
2022-01-20,0.04915354,-0.10474563,0.15182745,0.21144176,0.18685563,0.29626706,0.05336619,0.080416866,0.31998938,0.009311579,0.094188794,-0.35225186,129.51314
2022-01-21,0.04953041,-0.108160615,0.14537108,0.21715431,0.17567109,0.2693136,0.037316836,0.09297863,0.2857254,0.00474339,0.06887304,-0.35520998,159.2438
2022-01-24,0.028840054,-0.09619145,0.16183963,0.22697386,0.15966126,0.25171095,0.028129928,0.083359934,0.26024282,-0.0053505823,0.037199184,-0.37904516,393.72137
2022-01-25,0.02772105,-0.07511704,0.19707206,0.20259844,0.13054991,0.23634045,0.0184244,0.047912724,0.24015284,-0.017922163,0.026139542,-0.378027,432.33975
2022-01-26,0.013159288,-0.0603868,0.20365828,0.19480555,0.1299025,0.25166336,0.045014568,0.02727095,0.26227173,-0.017079107,0.016913064,-0.36772993,325.64484
2022-01-27,0.008334598,-0.0711349,0.22542945,0.21843442,0.11902377,0.254512,0.0415209,0.034884185,0.25939316,-0.018158749,0.011846878,-0.3899074,165.87085
2022-01-28,0.0017239419,-0.06541005,0.24030283,0.22524744,0.11013259,0.24546005,0.036453612,0.024426702,0.24682695,-0.02849523,0.011794005,-0.40716454,216.92873
2022-01-31,0.019381069,-0.083979025,0.23784056,0.2534766,0.13827214,0.24865167,0.005026959,0.09496832,0.21742673,-0.058105074,0.017160855,-0.41415396,1631.0697
2022-02-01,0.033342753,-0.096325405,0.24464256,0.24907513,0.14532416,0.26323807,0.0074922517,0.11461481,0.23971024,-0.075520344,0.03195905,-0.426178,301.3873
2022-02-02,0.03972413,-0.1014643,0.24101338,0.2562759,0.122153714,0.26462606,0.05145607,0.117043994,0.249116,-0.058157872,0.03256228,-0.4226403,663.8612
2022-02-03,0.04844503,-0.119555116,0.23906642,0.2593052,0.110467285,0.23064473,0.034875475,0.12565625,0.24686375,-0.06307575,0.028883658,-0.417617,125.60838
2022-02-04,0.050320618,-0.13556604,0.22448719,0.24802126,0.07967447,0.26046175,0.042576917,0.120134644,0.27994075,-0.045667645,0.020856924,-0.4121786,165.08305
2022-02-07,0.051372156,-0.14222349,0.21246791,0.21867853,0.058141362,0.27747113,0.07473192,0.10758754,0.302466,-0.0718638,0.041319422,-0.35977998,319.93912
2022-02-08,0.050278317,-0.14744808,0.20912129,0.22251843,0.06615962,0.2818991,0.0878888,0.10248425,0.31669137,-0.06459561,0.040877894,-0.35425147,64.29162
2022-02-09,0.060472682,-0.16912696,0.17724371,0.21855174,0.060505185,0.30454272,0.090961106,0.1228578,0.3543111,-0.06997785,0.0623113,-0.33877382,168.97241
2022-02-10,0.07392514,-0.18293163,0.18513373,0.2306291,0.07573043,0.30303308,0.09682303,0.13992175,0.35954097,-0.074498326,0.060865283,-0.3373096,97.06705
2022-02-11,0.0682286,-0.18879904,0.17944586,0.23157267,0.06533183,0.31936467,0.10345221,0.13689199,0.36169383,-0.034974158,0.032741774,-0.3395149,143.03963
2022-02-14,0.0682287,-0.20025344,0.16443944,0.22409235,0.068001255,0.29665226,0.08767272,0.13205746,0.3602621,-0.02256757,0.020388916,-0.3416965,121.88237
2022-02-15,0.06670198,-0.22914962,0.14687067,0.22235234,0.08351654,0.28965634,0.08044199,0.14484662,0.3745077,-0.014063746,0.024859168,-0.3329777,137.34674
2022-02-16,0.08401614,-0.249247,0.10560889,0.25303304,0.09615497,0.27059948,0.08583393,0.16776595,0.3670471,0.00012985058,0.041160442,-0.3293781,290.42908
2022-02-17,0.080296874,-0.263106,0.08498528,0.2352968,0.09511413,0.2806093,0.09248986,0.16634408,0.3985792,0.004696632,0.059160262,-0.31283024,3624.205
2022-02-18,0.088502355,-0.23967242,0.05688744,0.22104433,0.07038121,0.2696755,0.08451105,0.17772973,0.41065213,-0.008670844,0.021569364,-0.25503722,473.2783
2022-02-22,0.084862836,-0.24297877,0.026311181,0.18699966,0.066844374,0.28824902,0.10828661,0.16661808,0.4434401,0.014095735,0.03138169,-0.22724232,447.87936
2022-02-23,0.073359795,-0.24824043,0.044887014,0.18971072,0.0683206,0.2852059,0.12752482,0.14510849,0.44325832,0.0267489,0.030979298,-0.23169702,214.75983
2022-02-24,0.0738644,-0.25674036,0.04937727,0.18353339,0.09193906,0.26624238,0.12264893,0.14468393,0.46530923,0.024444774,0.03174098,-0.23253559,79.115974
2022-02-25,0.06288306,-0.22179507,0.055331357,0.16980837,0.10037239,0.25807825,0.10476939,0.13719785,0.43538693,0.02536828,0.017587774,-0.23933437,137.7277
2022-02-28,0.055838782,-0.16911183,0.05226197,0.14279763,0.10085167,0.26822013,0.071542956,0.10392814,0.44734722,0.016188558,0.04056088,-0.28330642,304.705
2022-03-01,0.056386635,-0.15780483,0.075700335,0.14249918,0.10795234,0.2596308,0.07214015,0.09684514,0.44410217,-0.008933844,0.044547603,-0.31013668,245.82811
2022-03-02,0.03383539,-0.13662142,0.11520722,0.14800695,0.10858603,0.2418799,0.09028768,0.07007634,0.40941086,-0.028589994,0.039085954,-0.3546987,424.15143
2022-03-03,0.037201937,-0.12960227,0.16151053,0.19836035,0.10726434,0.22116685,0.13455436,0.06931319,0.4010047,-0.08222897,0.018178195,-0.33472875,397.98743
2022-03-04,0.022179509,-0.12416673,0.17217916,0.20165978,0.10347624,0.21972091,0.1471057,0.05136864,0.4110177,-0.088115126,0.010029823,-0.3373218,147.50102
2022-03-07,0.0475925,-0.09307857,0.22276649,0.23009604,0.10660307,0.15465926,0.14540038,0.048163466,0.35709044,-0.094343536,-0.04069704,-0.36716443,757.9256
2022-03-08,0.026675517,-0.10012433,0.25250667,0.21422747,0.07091008,0.16142826,0.17866793,0.014072664,0.3805894,-0.098262794,-0.044478334,-0.38358626,227.7859
2022-03-09,0.031884696,-0.051598188,0.28093576,0.25206095,0.08797975,0.18115306,0.23294017,-0.003567975,0.34692666,-0.0893018,-0.07300943,-0.35213402,379.24408
2022-03-10,0.05161843,-0.060560863,0.26672274,0.26122087,0.084281266,0.20221592,0.23101187,0.016073447,0.35028684,-0.07030445,-0.05703079,-0.38021478,707.20703
2022-03-11,0.042096596,-0.025083493,0.30715215,0.26619995,0.09886415,0.20882855,0.25853637,0.0034607202,0.34056708,-0.099514246,-0.062039524,-0.3943121,261.86127
2022-03-14,0.027544541,-0.018795412,0.31346732,0.25843635,0.09546918,0.22291367,0.25801304,-0.018353894,0.34435323,-0.07773833,-0.06306221,-0.39807567,730.93634
2022-03-15,0.021618979,-0.017227255,0.29331636,0.26109833,0.099628136,0.25233483,0.2598863,-0.010970265,0.36417055,-0.061440744,-0.05166913,-0.4136349,144.51909
2022-03-16,0.04623849,-0.019504081,0.2880487,0.29561222,0.11547163,0.24404189,0.2384263,0.022514906,0.34342262,-0.0466304,-0.05619195,-0.43629992,518.8278
2022-03-17,0.048485167,-0.022804655,0.26848406,0.2856264,0.124663904,0.2739783,0.24616835,0.026786927,0.3667542,-0.05172287,-0.01648254,-0.42578757,165.192
2022-03-18,0.042510554,-0.008036133,0.2617441,0.2711025,0.13513741,0.29101714,0.25646707,0.017818913,0.38036922,-0.07190116,0.006297439,-0.4011905,323.67014
2022-03-21,0.046700448,-0.004863169,0.26993042,0.26636928,0.14011984,0.29834768,0.2419447,0.03655038,0.391458,-0.08848823,0.01778841,-0.39667568,380.78345
2022-03-22,0.044620402,0.00047985092,0.27926493,0.2487522,0.15236638,0.30122063,0.26815432,0.019876786,0.39559633,-0.11554624,0.031239763,-0.36763585,305.12167
2022-03-23,0.04679946,-0.0037160628,0.26082653,0.23330517,0.14236449,0.3223737,0.2503861,0.0425267,0.4172002,-0.11437472,0.047097832,-0.360239,1085.53
2022-03-24,0.035590377,0.00033971295,0.28198284,0.23856433,0.16111565,0.30706477,0.25308147,0.042170987,0.41987836,-0.12547615,0.032712422,-0.3609006,204.36694
2022-03-25,0.049726814,-0.021031775,0.28816757,0.27419984,0.19010672,0.28169447,0.23401365,0.06873571,0.4113308,-0.12896492,0.021474525,-0.37768212,6488.4966
2022-03-28,0.05773786,-0.042245943,0.2726846,0.27185115,0.18995674,0.2616978,0.21318462,0.08076125,0.4211792,-0.14421079,0.034871534,-0.36738417,236.1087
2022-03-29,0.05544147,-0.0396138,0.25189692,0.27669907,0.18610664,0.28116447,0.18695047,0.09122317,0.43904337,-0.14038914,0.043965816,-0.3679911,87.47597
2022-03-30,0.034714114,-0.040141053,0.23335248,0.25335336,0.17147602,0.28004125,0.14375293,0.08503996,0.4477739,-0.101025745,0.048561044,-0.3653867,133.84842
2022-03-31,0.031928465,-0.0541092,0.21277583,0.26647937,0.16360752,0.2577047,0.1310429,0.08564123,0.45647955,-0.10001396,0.040742904,-0.35046518,102.063515
2022-04-01,0.034235083,-0.09810073,0.16238946,0.28159547,0.17171247,0.24381559,0.12664136,0.087493815,0.47174555,-0.08640801,0.063004166,-0.32392594,212.9035
2022-04-04,0.05072483,-0.11576055,0.12861109,0.27992278,0.16998027,0.22381203,0.117653124,0.099274,0.4517043,-0.081589825,0.0806098,-0.3069619,160.34238
2022-04-05,0.0823306,-0.13192883,0.12431566,0.30624372,0.1488416,0.1800669,0.12118905,0.0986428,0.46053955,-0.10876329,0.09496533,-0.26239628,192.2286
2022-04-06,0.09138135,-0.1475432,0.08465629,0.31664526,0.15401964,0.17646508,0.1192747,0.1185594,0.4633715,-0.09106852,0.09458992,-0.27852958,108.80447
2022-04-07,0.046602473,-0.13539593,0.08935366,0.29744107,0.16420856,0.20318504,0.09529262,0.1205577,0.44870135,-0.07161984,0.07652328,-0.31664214,169.7036
2022-04-08,0.042737946,-0.11029601,0.093817,0.27074295,0.17055644,0.1990449,0.08902333,0.1079474,0.430652,-0.09692414,0.103998676,-0.29407012,146.13127
2022-04-11,0.023913102,-0.10926552,0.099974774,0.26382178,0.17541535,0.19539614,0.10571594,0.09484816,0.4375547,-0.084922485,0.096737,-0.29951775,112.48939
2022-04-12,0.014087858,-0.09846194,0.096520565,0.24475862,0.17653333,0.23033203,0.11788105,0.08971183,0.4719269,-0.054528803,0.10897235,-0.28426784,158.4801
2022-04-13,0.015436692,-0.079794616,0.13622177,0.22233568,0.18507527,0.22363336,0.14124852,0.06775021,0.47435254,-0.06134538,0.10510099,-0.2875873,148.61227
2022-04-14,0.034715593,-0.067023955,0.13894644,0.21118154,0.18441217,0.20881288,0.12990159,0.0673516,0.46508032,-0.063184015,0.106851876,-0.28302753,171.72194
2022-04-18,0.03693393,-0.055409472,0.14790714,0.22784084,0.20080228,0.21491571,0.14755628,0.061058432,0.45951736,-0.057384614,0.09028575,-0.2855169,99.55958
2022-04-19,0.05034793,-0.05531964,0.14119211,0.24684022,0.20038952,0.21888314,0.17072654,0.06473021,0.451799,-0.03442932,0.070520185,-0.2769136,139.71544
2022-04-20,0.06783023,-0.06444809,0.11193117,0.25712308,0.1853871,0.20916872,0.16831991,0.08808593,0.45617405,-0.049078662,0.09071426,-0.27016205,200.12173
2022-04-21,0.07440237,-0.071618415,0.12643167,0.25373393,0.19231327,0.20019309,0.18243217,0.079834625,0.46122736,-0.059512112,0.084625944,-0.26542535,91.69767
2022-04-22,0.06783255,-0.06462211,0.13959953,0.23258276,0.19912238,0.20596357,0.20114166,0.05395092,0.45969912,-0.035788,0.0743946,-0.27077955,140.75325
2022-04-25,0.048705876,-0.054498043,0.09583893,0.19797204,0.1818921,0.2663412,0.24034345,0.020961445,0.48629537,0.020200133,0.056775972,-0.25179783,401.6186
2022-04-26,0.079027764,-0.075445585,0.10002584,0.23513971,0.18305197,0.2503765,0.25354546,0.01871045,0.48017964,0.02119013,0.07143309,-0.24875617,179.88094
2022-04-27,0.06291046,-0.07347464,0.07149271,0.23461577,0.17620091,0.24254675,0.24952269,0.01344873,0.4761806,0.07031326,0.016327195,-0.24469417,399.76373
2022-04-28,0.060711015,-0.0903783,0.11871212,0.24294956,0.20537396,0.24856038,0.25081804,0.003951639,0.43147975,0.015131339,0.049301803,-0.27104157,486.87067
2022-04-29,0.0574671,-0.07974295,0.1390326,0.21922912,0.22827198,0.2732835,0.2401422,0.02237501,0.41462624,-0.03110024,0.083734795,-0.30232638,926.38995
2022-05-02,0.010338198,-0.068778545,0.11752982,0.20694605,0.25472847,0.29432443,0.22002429,0.005791433,0.39519122,0.013559207,0.048345633,-0.3266843,417.21793
2022-05-03,0.045671657,-0.08434291,0.13297915,0.21733406,0.23536702,0.28487766,0.23027495,0.016905766,0.38215992,-0.0050634667,0.06089875,-0.30452827,763.3377
2022-05-04,0.038683712,-0.08389747,0.16042656,0.20604332,0.24813403,0.28108448,0.22568479,0.015462749,0.3742799,-0.034439154,0.074591525,-0.30411586,663.7804
2022-05-05,0.05266912,-0.05775971,0.17259479,0.2186964,0.27192038,0.28881532,0.21862468,0.037662454,0.36601076,-0.08138147,0.11964718,-0.31937662,444.00293
2022-05-06,0.040432435,-0.053076528,0.14225727,0.21739617,0.27368683,0.29747552,0.21806124,0.046555184,0.35428292,-0.07837515,0.11196699,-0.3239312,91.77397
2022-05-09,0.045015343,-0.056179494,0.13437122,0.21242438,0.28464293,0.28534612,0.21314469,0.05166062,0.34800306,-0.09289202,0.12205143,-0.32005557,76.811005
2022-05-10,0.03834799,-0.07686774,0.07788312,0.18681683,0.22439443,0.31653208,0.24229297,0.03294666,0.3631448,-0.03975883,0.09668666,-0.27360085,284.57248
2022-05-11,0.062022585,-0.08393502,0.114547215,0.21208401,0.21169536,0.29943043,0.25440523,0.023682732,0.34166732,-0.039938327,0.0890674,-0.26772422,192.10426
2022-05-12,0.041220315,-0.055099458,0.12356498,0.2144262,0.22142364,0.29508734,0.24711418,0.013512246,0.34841996,-0.0368633,0.07802959,-0.28767425,158.24805
2022-05-13,0.05362365,-0.018441778,0.15421319,0.18085976,0.18627304,0.30442208,0.25634015,-0.02340293,0.35134718,-0.028411977,0.08375113,-0.2686926,470.74448
2022-05-16,0.088573605,-0.013233323,0.17639974,0.1858395,0.19294389,0.2745514,0.24567941,0.0071732365,0.36037263,-0.062575445,0.094468705,-0.28887486,401.88293
2022-05-17,0.09838196,-0.018538214,0.17565137,0.18902242,0.19907774,0.24955602,0.23404187,0.015596956,0.3800982,-0.10172923,0.11459259,-0.30996153,284.3966
2022-05-18,0.12140324,-0.039406087,0.19678369,0.20183381,0.19910075,0.25426653,0.23729482,0.027516283,0.36717728,-0.13671088,0.14793672,-0.30562952,302.76706
2022-05-19,0.067178115,-0.0014761463,0.13192391,0.1580652,0.2055624,0.29569843,0.20276451,0.0029750466,0.37772554,-0.06348396,0.11226014,-0.34111843,411.0085
2022-05-20,0.057720408,-0.009447839,0.10429307,0.14514065,0.17868038,0.32249352,0.18774512,0.011940651,0.43271932,-0.050757818,0.111175194,-0.3211174,955.57544
2022-05-23,0.060594216,-0.026634231,0.06961823,0.14699277,0.15302354,0.3185,0.16130796,0.044626072,0.4711986,-0.0724943,0.119543314,-0.29199547,593.134
2022-05-24,0.041158248,-0.018310227,0.029838063,0.13030219,0.13887371,0.34372842,0.16546735,0.032625787,0.47292444,-0.12408442,0.18733391,-0.29706043,308.43414
2022-05-25,0.030673232,-0.03271837,0.027737118,0.13256884,0.118109986,0.34156656,0.17457703,0.029970407,0.4777268,-0.12687556,0.18802513,-0.2947698,146.57433
2022-05-26,0.0436989,-0.019311126,0.033495344,0.1470545,0.11387305,0.30540025,0.17539224,0.035847463,0.48382393,-0.142346,0.18826605,-0.2996211,164.62627
2022-05-27,0.058641564,-0.01878352,0.03145299,0.14771703,0.12735243,0.30317754,0.17791948,0.057678826,0.47896805,-0.16545002,0.2090733,-0.2882296,150.4699
2022-05-31,0.08225905,-0.029884133,0.03555686,0.16808508,0.13819492,0.27448124,0.1564655,0.08224746,0.46540052,-0.14782198,0.20506461,-0.2922018,215.62364
2022-06-01,0.064978875,-0.05990514,0.022954814,0.15023077,0.12043758,0.31234524,0.17041567,0.08379964,0.49493173,-0.10443574,0.20674011,-0.28339076,244.50452
2022-06-02,0.05199857,-0.048662864,0.031923838,0.14716715,0.1433058,0.31753826,0.16078672,0.075247906,0.49663755,-0.09803867,0.19986258,-0.29736063,131.08644
2022-06-03,0.09676052,-0.018459309,0.03184875,0.14596103,0.13712956,0.28819776,0.13890424,0.10312595,0.44389507,-0.11144455,0.19187354,-0.29828763,242.01546
2022-06-06,0.09356986,-0.026093714,0.03251753,0.14418761,0.13797821,0.27748582,0.14703158,0.08869047,0.46302044,-0.11928666,0.1875044,-0.2795687,92.0529
2022-06-07,0.085126095,-0.028238494,0.052226894,0.16148275,0.124978766,0.28463936,0.16336223,0.07893296,0.43688828,-0.12815906,0.18766844,-0.27906543,137.30717
2022-06-08,0.07977789,-0.037628956,0.092089556,0.18186799,0.15034853,0.28807795,0.17734909,0.077195525,0.4126474,-0.14194052,0.19459592,-0.2922135,185.46158
2022-06-09,0.0746784,-0.059765536,0.08876037,0.20028786,0.15661643,0.26748943,0.19499865,0.04978712,0.4114544,-0.13117537,0.17392676,-0.28125453,157.98213
2022-06-10,0.077715,-0.07825669,0.091924496,0.19008453,0.11449163,0.28736973,0.20683673,0.05929298,0.43672025,-0.10498305,0.16229603,-0.24406537,149.17548
2022-06-13,0.057874292,-0.099971816,0.08883577,0.20374195,0.107968494,0.2858788,0.2067084,0.057934172,0.45427695,-0.07362576,0.11112806,-0.21312688,150.48657
2022-06-14,0.046160456,-0.079488635,0.06433485,0.1825267,0.07670051,0.28776968,0.19376254,0.051540934,0.46319428,-0.015009096,0.02937822,-0.19737482,288.17374
2022-06-15,0.06319872,-0.07944298,0.08772772,0.18941654,0.10169087,0.25476003,0.1958637,0.038678646,0.4428873,-0.010188609,0.010326371,-0.1958613,249.31502
2022-06-16,0.09358546,-0.08813812,0.07862394,0.16739808,0.10514331,0.23722012,0.16577074,0.04487942,0.42812207,-0.0409775,0.044198453,-0.18604383,761.25476
2022-06-17,0.08414175,-0.079725765,0.053725965,0.14106987,0.0790575,0.23785315,0.1645264,0.023050122,0.40326557,-0.01619979,-0.012489587,-0.14338881,358.95566
2022-06-21,0.08784477,-0.065136775,0.05800376,0.1553703,0.10579772,0.23212014,0.15528685,0.036680423,0.36720568,0.008376647,-0.029615521,-0.17957363,464.78998
2022-06-22,0.09238321,-0.054795865,0.092274405,0.12888537,0.11952652,0.24005355,0.15675506,0.02502139,0.3970558,-0.029022228,-0.01289206,-0.20616323,672.1677
2022-06-23,0.06265175,-0.048718974,0.07091463,0.13934527,0.11018528,0.25972566,0.14379728,0.025322132,0.38538256,-0.0261347,-0.033188403,-0.21901807,276.57233
2022-06-24,0.071724825,-0.041604586,0.053895436,0.13872567,0.11858025,0.2591112,0.13266253,0.043474488,0.3658991,-0.017121203,-0.042876706,-0.2033571,216.7001
2022-06-27,0.05944202,-0.038110305,0.045905434,0.13006042,0.13426529,0.30173513,0.13920292,0.045502953,0.3828484,-0.064086914,-0.016115345,-0.18618006,435.6752
2022-06-28,0.05812911,-0.036408223,0.060281627,0.12072096,0.1303507,0.31392133,0.13797441,0.039894603,0.3962334,-0.074205644,-0.022645913,-0.18978018,127.07764
2022-06-29,0.046251163,-0.059972525,0.06124177,0.12685117,0.11372627,0.30831754,0.16423872,0.018768296,0.4153082,-0.070200086,-0.03781171,-0.16921744,266.37283
2022-06-30,0.04258299,-0.06895976,0.04484474,0.15112409,0.10189262,0.31428507,0.1750966,0.017557766,0.40586948,-0.074057005,-0.020065784,-0.16153365,153.4676
2022-07-01,0.042884387,-0.056054167,0.053162538,0.14839827,0.09057902,0.30330116,0.18495455,0.0030080825,0.38797557,-0.073403634,-0.02416756,-0.15905488,170.13724
2022-07-05,0.033809874,-0.056491196,0.04650008,0.13092846,0.08348857,0.29836148,0.17965582,-0.011713147,0.39910796,-0.08245915,-0.001986072,-0.16180497,656.6722
2022-07-06,0.038026962,-0.03665422,0.038409747,0.121670045,0.08973409,0.2879034,0.182641,-0.0054619163,0.38946027,-0.094785675,0.012148298,-0.16301367,867.8624
2022-07-07,0.058332875,-0.03259795,0.065263785,0.14548531,0.08016871,0.27894664,0.1790261,0.01238412,0.37437698,-0.12883566,0.035167396,-0.18790737,740.9902
2022-07-08,0.07764888,-0.0514109,0.061012797,0.14784577,0.06795199,0.31149673,0.2126235,0.025231317,0.38548398,-0.16859122,0.052363813,-0.15707196,347.5082
2022-07-11,0.09740784,-0.05919993,0.072172664,0.17552184,0.07816841,0.26936406,0.2027314,0.044551983,0.37835312,-0.17079076,0.035444,-0.1787773,236.68018
2022-07-12,0.0875155,-0.06084188,0.053972267,0.15461308,0.067382485,0.26632246,0.20260039,0.0389043,0.3966478,-0.15396246,0.016441531,-0.18140617,147.49971
2022-07-13,0.07759656,-0.08022852,0.05632966,0.13656327,0.059031244,0.26889187,0.20361981,0.029579606,0.4107634,-0.11812554,-0.017384067,-0.16916436,336.38596
2022-07-14,0.104205705,-0.077046104,0.08736306,0.12333688,0.057045717,0.24684063,0.19848448,0.030905385,0.4186028,-0.11722818,-0.028607942,-0.16303217,192.46167
2022-07-15,0.10090309,-0.054567263,0.097239904,0.11693719,0.06638922,0.2480325,0.17690653,0.026237492,0.36825052,-0.10961167,-0.03845053,-0.19311662,163.06046
2022-07-18,0.12169404,-0.048168663,0.06673672,0.13455774,0.057813372,0.24043289,0.15806133,0.055863373,0.35838762,-0.17331362,0.008834884,-0.19525766,403.19705
2022-07-19,0.14106968,-0.05216486,0.09578099,0.094612874,0.05764776,0.24325989,0.16683301,0.057745375,0.39461982,-0.15845871,0.008771054,-0.20147139,130.391
2022-07-20,0.1659415,-0.042342074,0.097389124,0.0841354,0.05588175,0.24791017,0.16823271,0.064732485,0.38112566,-0.17676474,0.01736188,-0.17859109,191.40198
2022-07-21,0.18710296,-0.044131916,0.12224705,0.051808406,0.037391294,0.23705906,0.17879868,0.059681587,0.40306774,-0.16594294,0.032800943,-0.16800909,239.20491
2022-07-22,0.18015374,-0.04494399,0.1005827,0.041670192,0.0358431,0.26009998,0.19071612,0.048354663,0.41115466,-0.15586437,0.046441026,-0.17664099,137.15091
2022-07-25,0.16958618,-0.052926205,0.09569568,0.02461654,0.045925234,0.27224752,0.19165242,0.040913887,0.42841735,-0.15458128,0.055202898,-0.19880351,154.52304
2022-07-26,0.17692393,-0.0838119,0.1156136,0.042254344,0.08174728,0.1858888,0.14311367,0.08679883,0.4352144,-0.1694512,0.083280064,-0.26530546,497.86386
2022-07-27,0.16527371,-0.10936114,0.1490103,0.06401762,0.104218766,0.17592706,0.12551728,0.09004331,0.41402712,-0.15362783,0.060747,-0.29118803,217.36107
2022-07-28,0.16778985,-0.10119898,0.16016465,0.034150425,0.08134964,0.2125926,0.11596074,0.08456888,0.42414424,-0.16899014,0.08309917,-0.2750731,174.37738
2022-07-29,0.17614816,-0.076766804,0.20126855,0.056124926,0.10811946,0.16486645,0.10221655,0.078463756,0.3946648,-0.15349749,0.07015209,-0.31185612,238.63261
2022-08-01,0.18623827,-0.058755357,0.21367612,0.060534753,0.10261178,0.15893102,0.119922124,0.0704114,0.394684,-0.15288532,0.083151504,-0.2924527,104.64689
2022-08-02,0.1968163,-0.105957374,0.18034819,0.067612834,0.069428235,0.18394499,0.13455364,0.074147865,0.4281489,-0.12269633,0.09678258,-0.23374635,243.5836
2022-08-03,0.22832304,-0.12787753,0.13093734,0.085747436,0.068442434,0.15140612,0.1306215,0.10331618,0.43480125,-0.11241306,0.118094146,-0.21085906,194.03073
2022-08-04,0.2250133,-0.15227792,0.12767804,0.09762062,0.061012667,0.16265541,0.12695587,0.10534512,0.42192185,-0.0982988,0.11067648,-0.20517376,84.417274
2022-08-05,0.23401353,-0.1644675,0.10567955,0.097997814,0.047869634,0.16833355,0.13988402,0.108435564,0.415242,-0.080352575,0.11684816,-0.18206802,104.447815
2022-08-08,0.21584618,-0.15834497,0.07913203,0.09869146,0.065457344,0.18655148,0.15250033,0.1124947,0.40131935,-0.0966357,0.13544965,-0.1933449,143.37112
2022-08-09,0.20805115,-0.1660994,0.088759445,0.12433737,0.07003665,0.19694573,0.14569375,0.10377773,0.39926597,-0.088642575,0.12402591,-0.20267183,93.48151
2022-08-10,0.20853746,-0.1853366,0.09411947,0.14052169,0.06737812,0.18448395,0.1360645,0.114512764,0.38896257,-0.09186466,0.123661,-0.20825449,67.21197
2022-08-11,0.19971614,-0.18872647,0.09545051,0.15410694,0.07798217,0.17394222,0.13277093,0.11015581,0.37670717,-0.08244409,0.1180932,-0.20350148,65.00913
2022-08-12,0.18412906,-0.23774347,0.08759906,0.1611153,0.07421817,0.15861246,0.15111572,0.08878181,0.3767145,-0.07705496,0.1401402,-0.16336414,138.34187
2022-08-15,0.15709075,-0.2455703,0.06279578,0.15813531,0.07912111,0.16369222,0.12855452,0.12962955,0.3551986,-0.10911681,0.16526553,-0.1723977,189.6673
2022-08-16,0.16250777,-0.24973871,0.06872221,0.16270144,0.08098875,0.15657684,0.13626564,0.13210776,0.35067403,-0.11179471,0.15393384,-0.1676141,45.447636
2022-08-17,0.15551655,-0.24756075,0.08144616,0.15280695,0.08577165,0.1196832,0.10789061,0.13084057,0.363883,-0.07875402,0.109608814,-0.20515826,165.53696
2022-08-18,0.14625019,-0.25310472,0.06517901,0.1658671,0.0873705,0.11101891,0.09801092,0.12679446,0.37288433,-0.073717564,0.11948841,-0.2083227,77.49535
2022-08-19,0.17217278,-0.2672146,0.07768183,0.1895502,0.086575076,0.093601845,0.11396886,0.13353351,0.36550382,-0.058075704,0.11510062,-0.18486972,133.0838
2022-08-22,0.14569713,-0.24918367,0.07986776,0.20058654,0.106138036,0.090094805,0.115386404,0.12850702,0.3810281,-0.05523597,0.111422256,-0.20862707,87.296455
2022-08-23,0.11079071,-0.2211336,0.07447124,0.19980946,0.115194276,0.0838856,0.12103029,0.10657015,0.39807147,-0.031138571,0.07801412,-0.22159967,164.04614
2022-08-24,0.12177842,-0.22099851,0.0763615,0.18689923,0.107250705,0.0693705,0.12781256,0.10009352,0.42559007,-0.015522221,0.09623362,-0.20610687,142.26808
2022-08-25,0.13210116,-0.21827662,0.07854948,0.19775227,0.11395304,0.047139388,0.12758818,0.11021993,0.4148014,-0.0022645108,0.07847582,-0.20095189,175.86922
2022-08-26,0.14725637,-0.2214802,0.08176153,0.20601413,0.14029665,0.022926109,0.12344504,0.11486428,0.41307968,0.002553653,0.07414648,-0.20839319,325.55472
2022-08-29,0.10329308,-0.18979092,0.06399005,0.17482261,0.13358544,0.06266121,0.12733012,0.08919463,0.4284695,0.04293958,0.040189378,-0.21466875,1918.6665
2022-08-30,0.12116157,-0.164844,0.09683422,0.17104729,0.12393093,0.04511784,0.12611479,0.076509796,0.4123016,0.036098752,0.016096711,-0.19245622,224.3301
2022-08-31,0.1105148,-0.1545547,0.11224737,0.1657294,0.10974939,0.08719191,0.16235608,0.052853614,0.4269087,0.060225658,-0.027577005,-0.14782904,563.2955
2022-09-01,0.10656556,-0.14855033,0.12537086,0.16833581,0.09274228,0.10690523,0.17899653,0.030104022,0.43555996,0.07345623,-0.05882772,-0.12311466,266.1548
2022-09-02,0.06534263,-0.11761795,0.12567735,0.14772128,0.08449684,0.1554427,0.18952262,-0.0014874544,0.4370532,0.08512799,-0.0697649,-0.1040081,287.4547
2022-09-06,0.0921477,-0.12060003,0.16095495,0.13646202,0.07450724,0.13542606,0.18676344,-0.004470054,0.44978634,0.10458298,-0.086344436,-0.10242954,356.97205
2022-09-07,0.0964702,-0.123249516,0.1509924,0.14288898,0.08246015,0.14599404,0.17544428,0.008636683,0.46124813,0.095821805,-0.056049526,-0.09798515,385.888
2022-09-08,0.10308815,-0.14979517,0.14705214,0.14577267,0.07229771,0.16806687,0.1798358,0.011378467,0.47743514,0.068297,-0.018215291,-0.089502856,203.11043
2022-09-09,0.08826142,-0.1487171,0.16502193,0.13916455,0.07127009,0.19581404,0.18615982,0.0019365512,0.48509327,0.04211331,0.0053037624,-0.09667829,313.3596
2022-09-12,0.115838565,-0.14441927,0.176831,0.14950925,0.07584742,0.16637181,0.16990384,0.030489866,0.51335454,0.0028315894,0.03656835,-0.08536261,2253.6426
2022-09-13,0.1267692,-0.14486979,0.16560927,0.14877483,0.07453035,0.17963617,0.1774748,0.027245618,0.53290755,-0.025813885,0.061005656,-0.07444388,1136.4565
2022-09-14,0.056044973,-0.13109107,0.123374976,0.1348894,0.0795729,0.2964424,0.20175058,-0.0057973396,0.5890293,0.027127624,0.021911055,-0.05402743,614.01184
2022-09-15,0.07730604,-0.15220433,0.15991604,0.15702157,0.06800094,0.2827302,0.22093013,0.002464272,0.5783199,-0.0045486726,0.03529138,-0.036544275,483.26093
2022-09-16,0.08117904,-0.1454466,0.18053854,0.1454115,0.10661785,0.25711572,0.18874979,0.0036435649,0.5683882,0.05210036,-0.033208445,-0.09185517,1750.5748
2022-09-19,0.0722978,-0.12006736,0.1946868,0.14590621,0.10975416,0.25110507,0.18270737,-0.011038445,0.55431616,0.08208224,-0.071807176,-0.10676682,640.49207
2022-09-20,0.073978744,-0.10771264,0.195638,0.15459168,0.10735385,0.24861692,0.19717965,-0.015048359,0.5465467,0.08210683,-0.080030486,-0.1134719,85.645546
2022-09-21,0.07407373,-0.10134566,0.1845921,0.14561643,0.09742576,0.24808611,0.1766007,-0.0040403884,0.5384006,0.0876188,-0.099599406,-0.13012327,157.87006
2022-09-22,0.07040123,-0.07345688,0.1981085,0.14802979,0.09136914,0.27550188,0.19709578,-0.006487252,0.52204597,0.09260525,-0.13790026,-0.1309458,178.70474
2022-09-23,0.019882662,-0.06463681,0.1948128,0.12591831,0.10186669,0.29518288,0.1677114,0.0046528094,0.5093319,0.08129729,-0.1333542,-0.15354161,340.82864
2022-09-26,0.018375887,-0.030529283,0.22078004,0.13169482,0.11466001,0.29064158,0.1756792,-0.0015654527,0.47239295,0.099784225,-0.17414097,-0.17092168,302.65378
2022-09-27,0.020217938,-0.006287668,0.23210445,0.10965418,0.11705987,0.30109093,0.15851313,-0.002190452,0.4535624,0.09691327,-0.18164831,-0.19043913,189.27162
2022-09-28,0.026440432,0.003459204,0.26416376,0.10073295,0.13959602,0.2917446,0.14522141,0.0047097057,0.42282185,0.07869567,-0.18246111,-0.20978986,589.6769
2022-09-29,-0.0053990684,0.010469779,0.2519959,0.11821342,0.1756788,0.29541045,0.1453588,-0.0015429556,0.4100827,0.029857926,-0.12874737,-0.22769156,608.04736
2022-09-30,-0.012457786,-0.0013416372,0.23918211,0.10281023,0.14725862,0.32225886,0.15720814,-0.031655047,0.4097007,0.0276182,-0.123484746,-0.20945057,2266.3647
2022-10-03,-0.016077122,-0.005939994,0.23734099,0.088876754,0.1222374,0.35489145,0.15490174,-0.03397381,0.4273924,0.021425001,-0.12332423,-0.19179301,457.33008
2022-10-04,-0.014850607,-0.012085415,0.26669574,0.09349296,0.12865365,0.35665187,0.165198,-0.021463823,0.43792686,-0.039121337,-0.08367113,-0.2139158,506.61353
2022-10-05,-0.025197694,-0.0020673573,0.24971384,0.08354454,0.15983637,0.36712497,0.17921412,-0.011503752,0.46412927,-0.09180823,-0.023945644,-0.23817334,475.01917
2022-10-06,-0.001008661,-0.013222348,0.27186343,0.08731817,0.17800443,0.3399583,0.15329835,0.018273387,0.47677583,-0.10453947,-0.0056462665,-0.2617835,1043.9612
2022-10-07,0.009803338,-0.0019707344,0.29116827,0.104863554,0.19115768,0.33318645,0.17725912,0.0017127544,0.46605763,-0.07214305,-0.006834172,-0.2607146,1354.5294
2022-10-10,-0.010905711,0.010194059,0.26540148,0.10548533,0.17087175,0.35694128,0.18784502,-0.029062953,0.4932633,-0.015026949,-0.031245627,-0.24972516,3104.9478
2022-10-11,-0.0043489835,0.013491455,0.2679953,0.08669015,0.11825253,0.40180153,0.20650062,-0.06151439,0.503266,0.012636527,-0.04174395,-0.2304618,503.6498
2022-10-12,-0.024450274,0.031637598,0.2762322,0.0948593,0.11226232,0.38337994,0.19880036,-0.075069696,0.4711928,0.024460904,-0.035529397,-0.25622904,770.6338
2022-10-13,-0.019862762,0.028161924,0.2729574,0.11191755,0.10505919,0.38037574,0.21622843,-0.07940783,0.4760582,0.026479729,-0.025358617,-0.24447563,113.1614
2022-10-14,-0.027811216,0.041210216,0.2615595,0.09164482,0.107518926,0.4004716,0.22120252,-0.070848055,0.49857825,-0.030470543,0.044420227,-0.24972498,626.4611
2022-10-17,-0.009226767,0.031612176,0.25727415,0.091559954,0.086721346,0.4156017,0.22605643,-0.059991755,0.5092227,-0.014454529,0.017866403,-0.22615185,256.39948
2022-10-18,-0.0099100005,0.028617803,0.25316125,0.074672714,0.085316986,0.4278635,0.23935851,-0.07165833,0.4974843,-0.03377226,0.061703473,-0.22742932,448.69604
2022-10-19,-0.022400917,0.036085267,0.2629001,0.07453216,0.09040345,0.41480982,0.24314728,-0.08728233,0.46970162,-0.016998746,0.057911076,-0.24508673,257.7328
2022-10-20,-0.0042208782,0.032027747,0.26813003,0.089470364,0.08371802,0.39661142,0.22911128,-0.069321506,0.4749443,-0.02329994,0.042900845,-0.24641846,217.21411
2022-10-21,0.009857463,0.021490712,0.26401842,0.07455347,0.067738906,0.37553418,0.20570084,-0.051044367,0.4891805,-0.024162605,0.040152535,-0.2334347,464.00613
2022-10-24,-0.017875036,0.03506987,0.23426339,0.08762148,0.09529151,0.39653248,0.21451446,-0.062401935,0.48202762,-0.027869157,0.05804176,-0.25754395,517.8045
2022-10-25,-0.003098437,0.04655372,0.22001505,0.07788807,0.1165947,0.38738704,0.21437556,-0.05579923,0.48699474,-0.03699611,0.06824657,-0.2751663,226.11432
2022-10-26,-0.017204845,0.050511587,0.23125783,0.08467374,0.13363251,0.38358182,0.22674361,-0.067768656,0.47823355,-0.031227857,0.06510062,-0.26613444,545.6967
2022-10-27,-0.032297924,0.04766402,0.24845341,0.1020929,0.1517361,0.36259872,0.21107292,-0.08673789,0.46172962,-0.013752844,0.048857152,-0.25623423,263.37296
2022-10-28,-0.059093975,0.0450192,0.23567048,0.12623635,0.16082051,0.3623825,0.22471136,-0.104789734,0.46411777,0.022994384,0.038701154,-0.2426474,444.4319
2022-10-31,-0.038542297,0.05015934,0.23418099,0.14597975,0.17830543,0.32758516,0.24266168,-0.103715114,0.443574,0.008610755,0.041775033,-0.23703016,169.19281
2022-11-01,-0.02131438,0.03250469,0.2315385,0.1726536,0.17760526,0.2966109,0.24056718,-0.08049199,0.4297848,-0.006953284,0.016686715,-0.21590224,385.22815
2022-11-02,-0.042465325,0.0427049,0.22268364,0.15853685,0.16573238,0.32163227,0.23647839,-0.079448834,0.41364667,0.0016086847,0.025807023,-0.2238736,345.9698
2022-11-03,-0.053187527,0.049994435,0.20811746,0.17170264,0.17195253,0.31850314,0.23432153,-0.08127934,0.4122733,0.021655403,0.018593296,-0.2309714,1342.7175
2022-11-04,-0.055997808,0.058819856,0.2044025,0.169463,0.15872188,0.3072872,0.2276431,-0.08887146,0.42458197,0.014537014,0.02104485,-0.21546884,105.18646
2022-11-07,-0.041733794,0.063446015,0.18404385,0.1861161,0.16840613,0.28935042,0.2564918,-0.09003039,0.42686406,0.015749753,0.018900618,-0.19884078,105.82578
2022-11-08,-0.032045268,0.035343375,0.1840539,0.20453821,0.17413872,0.29889572,0.2394402,-0.06987314,0.41257536,-0.0047728345,0.046715826,-0.22600256,407.63
2022-11-09,0.023750871,0.02808265,0.21655214,0.2288093,0.18087219,0.25263208,0.22299764,-0.037016265,0.391302,-0.048084483,0.054220796,-0.2288368,1227.3561
2022-11-10,0.032178346,-0.0003616996,0.1807909,0.2393531,0.14950897,0.30742538,0.27423033,-0.063549675,0.43683627,-0.023209687,0.049274236,-0.18266137,384.24612
2022-11-11,0.038102504,-0.026425857,0.17814255,0.25330946,0.19465448,0.28410846,0.26131916,-0.022745341,0.4167845,-0.06548196,0.07619137,-0.24064727,7611.522
2022-11-14,0.04070348,-0.020989966,0.15859339,0.21354009,0.18007156,0.3136781,0.28291312,-0.030484118,0.44478372,-0.053968295,0.08574566,-0.18907392,172.5288
2022-11-15,0.02338926,-0.012717612,0.15121108,0.21368241,0.19973211,0.31886008,0.2683544,-0.021776088,0.44893235,-0.052118458,0.090780295,-0.20522667,151.72699
2022-11-16,0.054406986,-0.032569293,0.16455671,0.2003826,0.18649977,0.3006785,0.25087425,0.003047794,0.4535648,-0.06892076,0.0919098,-0.19179238,477.659
2022-11-17,0.03563415,-0.042795446,0.1680452,0.20355262,0.1871314,0.31892872,0.23492369,0.0018727779,0.45321566,-0.063515455,0.0864465,-0.22584596,152.54326
2022-11-18,0.05474337,-0.050682735,0.16937923,0.2062567,0.21157522,0.2772351,0.22553736,0.01988145,0.45049182,-0.0756023,0.09026794,-0.24626791,1099.0056
2022-11-21,0.0616121,-0.06021542,0.16641596,0.20664115,0.20571385,0.26193234,0.20944858,0.034475457,0.45846388,-0.08493732,0.08563424,-0.26502186,148.98608
2022-11-22,0.065211795,-0.082886085,0.16828251,0.1911149,0.2049088,0.2645173,0.20795417,0.030538462,0.47594693,-0.078633204,0.099159986,-0.26356336,93.219055
2022-11-23,0.08194423,-0.091953315,0.17822045,0.18330176,0.22102858,0.23839502,0.19113484,0.051091537,0.474836,-0.1209983,0.113527365,-0.27004147,210.78148
2022-11-25,0.09698469,-0.10111295,0.18556255,0.18443424,0.22283731,0.22596349,0.18494514,0.07342247,0.47508404,-0.13466352,0.11498074,-0.2907949,106.34372
2022-11-28,0.09607876,-0.11168491,0.17580241,0.18437941,0.22704165,0.2163707,0.1655091,0.0857419,0.4699255,-0.12797579,0.10498846,-0.30653772,70.255264
2022-11-29,0.094388805,-0.13614447,0.14869434,0.20573626,0.21129228,0.22792788,0.17735973,0.09005422,0.46926913,-0.11225395,0.09419426,-0.2998503,100.017426
2022-11-30,0.12884818,-0.13417506,0.1639198,0.19961084,0.1959015,0.21873312,0.17446879,0.109592505,0.4628015,-0.1483162,0.107721835,-0.26333216,145.85956
2022-12-01,0.15500417,-0.14026907,0.17774153,0.20062715,0.18915202,0.16768374,0.117581345,0.1505748,0.46056834,-0.1696944,0.098484874,-0.2954567,166.23863
2022-12-02,0.13517438,-0.13232924,0.17719573,0.1843968,0.20159967,0.18737772,0.11987292,0.14268818,0.45550975,-0.1368896,0.0774987,-0.2946448,94.376335
2022-12-05,0.12880637,-0.13600631,0.14520779,0.18747759,0.20427392,0.18511496,0.10395496,0.14653671,0.45466915,-0.1268421,0.078249045,-0.3076884,58.642536
2022-12-06,0.1268047,-0.14482448,0.15225548,0.19106252,0.21841727,0.19405112,0.08742633,0.16002014,0.4434311,-0.113229096,0.088931575,-0.3398846,88.97546
2022-12-07,0.10909081,-0.15259849,0.14619613,0.19344133,0.2074901,0.22813602,0.08657531,0.15806413,0.43774238,-0.10107733,0.07226005,-0.34347776,81.14417
2022-12-08,0.12211629,-0.16598304,0.12257872,0.16901167,0.20098244,0.21509768,0.069669314,0.16041487,0.4393922,-0.10718329,0.1181211,-0.3311186,152.84361
2022-12-09,0.1366543,-0.17716797,0.12377594,0.16832513,0.19678417,0.20433651,0.06433482,0.16866022,0.4352458,-0.10035294,0.11503557,-0.3275465,50.92248
2022-12-12,0.13828743,-0.18616088,0.11064946,0.1642528,0.18682526,0.20968707,0.066516735,0.17298824,0.45114955,-0.0777206,0.10781209,-0.29667953,74.84204
2022-12-13,0.1443714,-0.18983975,0.12146003,0.15537985,0.18644862,0.2006953,0.06815416,0.17051896,0.44177684,-0.09208159,0.11061834,-0.29781473,53.467476
2022-12-14,0.13989379,-0.18775432,0.15907949,0.12863626,0.16013192,0.23136605,0.09083504,0.13915205,0.45122042,-0.066800475,0.09803541,-0.28101346,180.06451
2022-12-15,0.13454878,-0.18444099,0.18332767,0.13820527,0.16218348,0.239614,0.08914844,0.14811668,0.4398509,-0.069189064,0.08643734,-0.28479037,60.682194
2022-12-16,0.114418544,-0.19071671,0.14710236,0.10974045,0.15843536,0.2694909,0.08032853,0.13974747,0.461545,-0.054115888,0.085114405,-0.2847982,117.294395
2022-12-19,0.14266498,-0.1932603,0.14470318,0.12295788,0.16005288,0.24808027,0.082985856,0.1459046,0.46860522,-0.050910234,0.100043625,-0.24631655,94.88106
2022-12-20,0.1379618,-0.20306686,0.16113433,0.117240086,0.13989803,0.25461066,0.09444185,0.13543555,0.4646127,-0.050713394,0.09920016,-0.23798281,66.04632
2022-12-21,0.13433504,-0.19667293,0.19074288,0.10496992,0.13239516,0.25731802,0.10725964,0.12775278,0.45591247,-0.07184397,0.10636697,-0.2547511,118.099464
2022-12-22,0.14847843,-0.20588656,0.20493692,0.119458735,0.13814406,0.22618817,0.09829242,0.14198697,0.44001833,-0.07804,0.112650834,-0.2519799,91.50583
2022-12-23,0.14066169,-0.1987919,0.19259864,0.101275265,0.1365725,0.24069096,0.09547118,0.1357148,0.44817638,-0.07600129,0.12150473,-0.24725313,58.991528
2022-12-27,0.12621881,-0.20089854,0.20935604,0.06939775,0.14221351,0.22543426,0.087061234,0.13357082,0.42504779,-0.08884367,0.13246234,-0.29517442,122.82002
2022-12-28,0.105481535,-0.19195761,0.22429112,0.0491387,0.1602544,0.2252121,0.09727297,0.1247968,0.4144566,-0.08212763,0.1330871,-0.3240252,108.58605
2022-12-29,0.13337964,-0.18013169,0.2033386,0.060194813,0.16281371,0.21733265,0.13086686,0.11240495,0.41885093,-0.062836595,0.1295382,-0.2928903,150.83626
