Date,ADBE,AMZN,AVGO,CAT,COST,JPM,LLY,MA,MSFT,NVDA,UNH,XOM,total
2023-01-03,-0.14900129,-0.10555586,0.071754575,0.018603407,0.41435176,0.008226447,0.14841004,-0.02165761,0.63722634,0.5677461,0.5590655,0.09359677,0.0
2023-01-04,-0.12910761,-0.11769675,0.067756616,-0.0035920516,0.41892135,-0.010960825,0.14231214,-0.011587533,0.6371813,0.59951866,0.57104737,0.0773533,459.78198
2023-01-05,-0.12851898,-0.11893763,0.059638593,0.0033863261,0.35129893,-0.0029152557,0.15922862,-0.008539434,0.5885647,0.49078786,0.5621029,0.13435757,436.52698
2023-01-06,-0.1323044,-0.11058171,0.07673357,-0.028278925,0.32315573,-0.011993162,0.17836559,0.02161893,0.560069,0.44475836,0.52883846,0.15299146,1692.3225
2023-01-09,-0.19983433,-0.09683211,0.09126096,0.1136626,0.35700098,0.061996892,0.16551496,-0.0798341,0.5820809,0.48300093,0.5140929,0.15945783,1707.7773
2023-01-10,-0.19407855,-0.09362148,0.060187962,0.07164777,0.3897594,0.025173798,0.13881402,-0.093367934,0.59203357,0.51201934,0.5241653,0.11675754,215.31996
2023-01-11,-0.18412071,-0.08267735,0.060723986,0.060450263,0.38871673,0.012721866,0.13423207,-0.09252067,0.5889846,0.5126082,0.50860345,0.11762603,91.62205
2023-01-12,-0.18818645,-0.06404908,0.050728556,0.026822954,0.36690497,-0.023723088,0.13404733,-0.09493648,0.5634821,0.48672152,0.49708858,0.14357777,425.3697
2023-01-13,-0.19586842,-0.07004072,0.050967537,0.025132068,0.35319734,-0.022669323,0.15421419,-0.09095883,0.5525965,0.45761698,0.49096546,0.14066711,58.794785
2023-01-17,-0.17836526,-0.057302788,0.050454892,0.017090864,0.35366842,-0.03292384,0.14756858,-0.084280305,0.54369897,0.4727164,0.46962824,0.11594178,143.97743
2023-01-18,-0.15954994,-0.07015541,0.034515582,-0.003909573,0.36738774,-0.037730634,0.1391965,-0.077432975,0.54993045,0.4960663,0.47374478,0.06768803,268.30237
2023-01-19,-0.16529651,-0.09021796,0.03766489,-0.0035003275,0.42532858,-0.025515623,0.1311219,-0.07698636,0.58687025,0.5733936,0.47472093,-0.028371383,270.74026
2023-01-20,-0.15087645,-0.099205084,0.05692701,0.0039783865,0.45968926,-0.015547298,0.13900548,-0.058099855,0.634747,0.625377,0.50150067,-0.05202556,467.41296
2023-01-23,-0.17191492,-0.075162165,0.050114106,0.049583837,0.47006455,0.00079310685,0.12126946,-0.0929149,0.6393288,0.6436605,0.5147947,-0.017157916,1449.8346
2023-01-24,-0.1628997,-0.09258583,0.021973144,0.024996772,0.45630634,-0.003715828,0.099774085,-0.1098299,0.6027525,0.60631573,0.48467842,-0.069391176,1063.3383
2023-01-25,-0.15889022,-0.096489556,0.029856395,0.016695477,0.42119223,-0.012316741,0.12580231,-0.09646006,0.5821107,0.55881554,0.4758087,-0.040651802,407.69177
2023-01-26,-0.13705844,-0.114745945,0.024411302,-0.014790997,0.41601583,-0.01857122,0.10896705,-0.076378964,0.57012945,0.5532068,0.47301432,-0.0686786,398.29364
2023-01-27,-0.15658331,-0.1022439,0.025573418,-0.015128106,0.4231139,-0.024799883,0.11609663,-0.09470971,0.5752657,0.5570661,0.47022256,-0.06710835,102.44403
2023-01-30,-0.15770327,-0.12262421,0.013043427,-0.04003121,0.45664504,-0.03232625,0.08312273,-0.11674937,0.580223,0.5998469,0.45757803,-0.1496171,458.38443
2023-01-31,-0.16365956,-0.16003585,0.019299954,-0.051187836,0.47468713,-0.01825238,0.08740858,-0.11227367,0.5907715,0.60792947,0.4436835,-0.21565443,216.93993
2023-02-01,-0.1764025,-0.13070592,0.021424476,0.002005659,0.50151837,0.006348558,0.082657166,-0.11438407,0.6218816,0.65892,0.48037395,-0.16535524,334.03662
2023-02-02,-0.17304578,-0.13834022,-0.0088244425,-0.02821213,0.5147404,-0.0046876892,0.05553442,-0.12048009,0.6048707,0.67527443,0.47286955,-0.22494513,1912.9937
2023-02-03,-0.18096904,-0.14520743,-0.04147089,-0.07524501,0.5314088,-0.013450094,0.021083232,-0.13232046,0.58103985,0.69951254,0.45800722,-0.27518868,841.2425
2023-02-06,-0.18675254,-0.16811477,-0.017187,-0.08777764,0.5352621,-0.016906068,0.042661864,-0.12555222,0.5940643,0.700189,0.42248407,-0.30667835,249.60556
2023-02-07,-0.1730219,-0.19366586,-0.021945946,-0.09131518,0.52350104,-0.009021886,0.03823807,-0.13500972,0.5880229,0.67790896,0.41892022,-0.3175574,129.59479
2023-02-08,-0.14896281,-0.19170815,-0.017219473,-0.072074465,0.50953794,0.002674602,0.044524714,-0.10956785,0.58994687,0.68921,0.44270745,-0.27606162,245.86153
2023-02-09,-0.1310606,-0.20627165,0.0034946715,-0.07653291,0.5267736,0.01019346,0.052398227,-0.0815348,0.60564446,0.71784365,0.4377553,-0.31496447,495.89328
2023-02-10,-0.11303839,-0.21769595,-0.001908117,-0.08081154,0.52351844,0.022014502,0.047189005,-0.061673317,0.597779,0.7130415,0.4395748,-0.3273412,336.6797
2023-02-13,-0.11623557,-0.21053043,0.041056477,-0.05479879,0.5128342,0.036978472,0.08074608,-0.043992925,0.614355,0.6937224,0.4356189,-0.2853098,2479.0007
2023-02-14,-0.1001443,-0.21450098,0.05734057,-0.023224443,0.5257304,0.05437039,0.08741253,-0.045372922,0.6489743,0.7395871,0.46824166,-0.2618081,201.9237
2023-02-15,-0.06867222,-0.21795237,0.05606681,-0.02335392,0.5068949,0.05382336,0.09558896,-0.018301921,0.6350418,0.72829604,0.46658462,-0.25331187,116.693306
2023-02-16,-0.08477689,-0.2294763,0.042740036,-0.030285306,0.505975,0.056168962,0.08652717,-0.0488741,0.6292518,0.718067,0.45245954,-0.26627576,273.7124
2023-02-17,-0.09744178,-0.25420472,0.077290006,-0.039649107,0.534459,0.05165256,0.098662846,-0.055100832,0.6489044,0.74784994,0.42830396,-0.32458293,212.41397
2023-02-21,-0.11520493,-0.2732829,0.090781234,-0.015167534,0.549343,0.07594322,0.09174928,-0.08333725,0.662095,0.75475055,0.4243147,-0.3568998,226.84291
2023-02-22,-0.12751673,-0.27627468,0.11121582,-0.0034947246,0.5618795,0.081311226,0.10565959,-0.07366334,0.6786503,0.7765551,0.4297725,-0.35533836,154.48361
2023-02-23,-0.11298591,-0.2765928,0.11095648,-0.008724377,0.5802758,0.068287894,0.098840505,-0.07756665,0.7011854,0.81020343,0.44792026,-0.36364627,206.64539
2023-02-24,-0.105740316,-0.24930601,0.109463304,0.0060436055,0.56053936,0.065810084,0.10851301,-0.06023522,0.68539506,0.78015417,0.45213363,-0.31987637,244.99394
2023-02-27,-0.120284274,-0.27075315,0.11604777,-0.004750669,0.5562159,0.067496255,0.109644085,-0.06503332,0.6703537,0.7642806,0.42950043,-0.34004247,234.85976
2023-02-28,-0.118218705,-0.27656877,0.12739073,0.036926858,0.53729,0.100004114,0.13013063,-0.0665828,0.6799652,0.7470073,0.4501419,-0.2863922,987.8472
2023-03-01,-0.12094252,-0.27861062,0.13548842,0.048437595,0.52869046,0.09993253,0.14831117,-0.06644206,0.6841567,0.73757297,0.45750558,-0.25589955,70.58751
2023-03-02,-0.14371586,-0.28477064,0.1437241,0.06941193,0.51308864,0.111328706,0.16974252,-0.07055463,0.67968494,0.704259,0.4456771,-0.23585583,121.00442
2023-03-03,-0.14764349,-0.2624539,0.1354544,0.093481496,0.5390253,0.121029645,0.15548515,-0.10502243,0.7031626,0.7493715,0.46381024,-0.24068236,137.99573
2023-03-06,-0.14476188,-0.21566634,0.16615586,0.14138547,0.50985265,0.11865236,0.18756935,-0.1007046,0.7084965,0.73826045,0.47461194,-0.12650262,177.82132
2023-03-07,-0.17036502,-0.22870794,0.16773005,0.13842109,0.51844263,0.117371805,0.19553107,-0.12165189,0.7125514,0.735401,0.4677665,-0.1266257,57.08631
2023-03-08,-0.16990604,-0.24008581,0.15849651,0.12841152,0.54475224,0.11322969,0.18969925,-0.11610056,0.72549146,0.78016686,0.4796849,-0.18363097,89.60008
2023-03-09,-0.1250548,-0.23576483,0.15010564,0.13897842,0.55142164,0.12298173,0.18135816,-0.113711424,0.7379511,0.81009626,0.48402464,-0.18992919,67.90036
2023-03-10,-0.14298372,-0.21257088,0.16773717,0.111380324,0.56757605,0.07774892,0.20021059,-0.11599828,0.73972315,0.8360919,0.44155484,-0.2423433,147.71452
2023-03-13,-0.18481268,-0.21788493,0.1827064,0.13177145,0.55369127,0.09438261,0.2307136,-0.1191096,0.73900324,0.7868549,0.43819246,-0.21205515,119.990036
2023-03-14,-0.20301585,-0.20771778,0.18569289,0.14958096,0.5814507,0.09965042,0.2190018,-0.14575057,0.7612821,0.8243672,0.45214188,-0.21558188,80.33244
2023-03-15,-0.18802086,-0.18355912,0.18967749,0.19519499,0.5716138,0.1207613,0.22414304,-0.15464893,0.7701471,0.82597816,0.47358018,-0.1444445,122.08574
2023-03-16,-0.21025464,-0.20109996,0.16357191,0.16829753,0.5958073,0.11222726,0.20685162,-0.18040673,0.7535161,0.82997936,0.4379046,-0.24817704,166.5854
2023-03-17,-0.21419612,-0.18082112,0.1533334,0.19728073,0.58368015,0.118073694,0.19816968,-0.17885071,0.74384123,0.822167,0.46667337,-0.20379606,74.42156
2023-03-20,-0.21384425,-0.20105569,0.11777241,0.15209414,0.5725503,0.11183842,0.16632628,-0.18885338,0.69338554,0.77148896,0.41849026,-0.28203207,147.96173
2023-03-21,-0.2332701,-0.19203544,0.14541572,0.2084837,0.5655401,0.1414834,0.20276257,-0.18205844,0.7214772,0.76557374,0.44758007,-0.21167369,164.06984
2023-03-22,-0.22672176,-0.18464169,0.14963718,0.23208424,0.5459728,0.15710866,0.19208273,-0.18021391,0.71231335,0.7436524,0.45825702,-0.1564368,74.278946
2023-03-23,-0.22466503,-0.20474315,0.14568879,0.20294036,0.5684763,0.1318262,0.19294783,-0.18133812,0.7191774,0.77499074,0.4461424,-0.23584446,106.85984
2023-03-24,-0.19929715,-0.20812128,0.13184708,0.19669849,0.54925644,0.13031048,0.18883154,-0.16861774,0.7036752,0.7611065,0.4537908,-0.21477515,53.79179
2023-03-27,-0.20115064,-0.21290416,0.12434679,0.17868401,0.56121755,0.12953337,0.17517431,-0.17700665,0.7000215,0.76805216,0.43424672,-0.2568519,58.38656
2023-03-28,-0.18464033,-0.2186916,0.12889113,0.18258503,0.5121912,0.13418302,0.17170557,-0.14944227,0.6723258,0.70484334,0.43211994,-0.18403465,87.667786
2023-03-29,-0.15593539,-0.22130746,0.12781148,0.1371002,0.49782676,0.10540194,0.17792077,-0.1253433,0.66439885,0.69884473,0.42418313,-0.18050173,92.27754
2023-03-30,-0.14967608,-0.20381972,0.13011654,0.14837459,0.4862191,0.11462948,0.17153142,-0.12895131,0.65946764,0.6947214,0.4334725,-0.13354479,69.03576
2023-03-31,-0.13193135,-0.20962329,0.11278816,0.13452649,0.46690202,0.11561267,0.17103708,-0.10200898,0.63891226,0.6597354,0.43473914,-0.13838303,75.43394
2023-04-03,-0.1396284,-0.20507914,0.113123305,0.12733945,0.4474301,0.106925726,0.17265408,-0.11438256,0.6192631,0.6267993,0.4048854,-0.13194352,57.989265
2023-04-04,-0.14691688,-0.1786543,0.13102783,0.16249813,0.40728268,0.12964824,0.18819377,-0.089438885,0.5999915,0.5619409,0.40429547,-0.045190785,201.9293
2023-04-05,-0.14983527,-0.15757568,0.1257656,0.14811979,0.4294709,0.12221353,0.18729389,-0.060994904,0.6158692,0.59576416,0.42535844,-0.04480988,84.83066
2023-04-06,-0.14843333,-0.15802662,0.13508278,0.13782015,0.43934867,0.12204607,0.18560752,-0.04831932,0.6292862,0.6024219,0.4237856,-0.053826544,63.490414
2023-04-10,-0.13282216,-0.15437275,0.12853353,0.1094798,0.47821137,0.106665395,0.16197419,-0.052418206,0.6554155,0.6526463,0.4291424,-0.11024935,199.48154
2023-04-11,-0.12762257,-0.15495959,0.12359268,0.1209306,0.4498978,0.11790855,0.16757375,-0.04405636,0.6392383,0.6098586,0.42332733,-0.0800469,92.24267
2023-04-12,-0.13470514,-0.18864505,0.13081151,0.107747436,0.42380944,0.12573068,0.165812,-0.044025976,0.6155054,0.56350267,0.38967338,-0.0864757,84.878105
2023-04-13,-0.12552644,-0.18922403,0.13827595,0.08007362,0.4133846,0.10092584,0.17006606,-0.0224856,0.6125713,0.56072813,0.38647726,-0.06626613,137.35104
2023-04-14,-0.13712262,-0.16772358,0.11790279,0.08525403,0.4447718,0.095672086,0.14592797,-0.06722041,0.6293707,0.6088676,0.4178984,-0.058299217,299.22443
2023-04-17,-0.11344819,-0.19518064,0.12199407,0.07267883,0.36716092,0.09174567,0.17012672,-0.024710076,0.574365,0.51327896,0.3889147,0.007492733,297.45935
2023-04-18,-0.097571015,-0.22913201,0.12657617,0.058140486,0.37749973,0.08097544,0.1889162,-0.034711692,0.5996373,0.5275821,0.38820803,-0.043528426,809.5351
2023-04-19,-0.0896064,-0.22964895,0.13335197,0.054176383,0.36320934,0.078630246,0.21210137,-0.021576079,0.59824485,0.50997686,0.38981435,-0.02886409,115.028336
2023-04-20,-0.065129966,-0.22759245,0.110477544,0.01052019,0.37009782,0.050103813,0.19108114,-0.018214213,0.58665943,0.5462741,0.39298406,-0.04913572,269.71216
2023-04-21,-0.07019183,-0.24436405,0.1291558,0.02943717,0.44600675,0.06147436,0.17631531,-0.06574471,0.6469782,0.6508686,0.3735743,-0.15022956,763.86053
2023-04-24,-0.05138449,-0.22095883,0.11600905,-0.01819656,0.4442332,0.021214873,0.15692776,-0.05839481,0.6369396,0.66600657,0.36349297,-0.13885137,310.57898
2023-04-25,-0.06869046,-0.23249383,0.11048288,-0.026625432,0.40957254,0.02275147,0.16766343,-0.06132618,0.60230637,0.59085035,0.34025064,-0.13227564,144.74306
2023-04-26,-0.0662325,-0.24131897,0.14968641,-0.037856348,0.44458684,0.026173204,0.184172,-0.0038022276,0.6391481,0.63706046,0.34500965,-0.18943785,270.8249
2023-04-27,-0.060562905,-0.21017656,0.10869313,-0.0649891,0.48423192,-0.0022313818,0.1331248,-0.018723326,0.64695626,0.6961637,0.3839018,-0.21116412,691.3553
2023-04-28,-0.11257955,-0.1765944,0.093457036,-0.033363037,0.5105773,-0.007230036,0.12643936,-0.07996,0.6751903,0.7374839,0.41860282,-0.15476857,772.13293
2023-05-01,-0.113048956,-0.1757967,0.0874018,-0.034175195,0.45562723,-0.009647183,0.16457467,-0.05430824,0.63638747,0.6522575,0.4120619,-0.10047616,170.16382
2023-05-02,-0.08457776,-0.18569155,0.096692264,-0.054557443,0.41732103,-0.010991,0.19051893,-0.007472041,0.6071099,0.5978342,0.39103216,-0.087684385,256.20544
2023-05-03,-0.07230996,-0.1845555,0.09654533,-0.032794677,0.50184226,-0.0026227608,0.1346939,-0.012704673,0.66042733,0.7275382,0.41404477,-0.19129845,405.4096
2023-05-04,-0.0882608,-0.19043665,0.09801886,-0.04927738,0.51258373,-0.006838657,0.12669107,-0.032715995,0.65250885,0.72691303,0.37696075,-0.23250847,435.152
2023-05-05,-0.10366366,-0.19819936,0.08945992,-0.031909518,0.53294647,0.012779273,0.11462405,-0.0511141,0.6688063,0.7429574,0.40013704,-0.24847601,439.8267
2023-05-08,-0.12532958,-0.1881605,0.09879174,0.05887398,0.5261872,0.061419383,0.14402418,-0.09910484,0.6979402,0.73756355,0.4299352,-0.17640357,863.8584
2023-05-09,-0.10555361,-0.20313355,0.06676248,0.004799545,0.48869342,0.03568036,0.12477869,-0.081222035,0.6404418,0.6714307,0.38405862,-0.20396078,271.94208
2023-05-10,-0.095388114,-0.22431618,0.071843244,-0.008934081,0.50808823,0.032775164,0.10962266,-0.08173894,0.65705365,0.7052774,0.3919585,-0.24250786,367.29785
2023-05-11,-0.096626185,-0.21340957,0.049744006,-0.02704595,0.5118265,0.014855295,0.088911876,-0.08917915,0.6469806,0.7135734,0.40064752,-0.24405356,328.61795
2023-05-12,-0.08641963,-0.24768856,0.031115655,-0.034092665,0.4983253,0.023684304,0.070476465,-0.11120008,0.6240101,0.6926958,0.38288483,-0.27267668,220.26506
2023-05-15,-0.09958734,-0.28275692,0.045623973,-0.006554194,0.47352418,0.045401916,0.09965084,-0.1056827,0.61892337,0.65463233,0.372631,-0.27435976,309.4337
2023-05-16,-0.067390524,-0.27823746,0.034699168,0.0057483017,0.4412904,0.051788338,0.1031928,-0.077292696,0.5984867,0.63346815,0.38944238,-0.22674143,325.27213
2023-05-17,-0.051376086,-0.27805442,0.024313904,-0.028019555,0.45721376,0.030329656,0.09498434,-0.061190415,0.5975086,0.665273,0.39504603,-0.24793288,730.99963
2023-05-18,-0.050072756,-0.26859927,0.03410164,0.034414984,0.4134192,0.07128548,0.09676931,-0.053854417,0.5868361,0.61690897,0.42296565,-0.15295812,481.93018
2023-05-19,-0.05436803,-0.25896925,0.021708306,0.020469014,0.3926448,0.05560486,0.10042338,-0.057336528,0.56318563,0.5983841,0.4073019,-0.12995775,152.0658
2023-05-22,-0.034647506,-0.26688367,0.03399857,-0.010922976,0.3771858,0.027507417,0.123523995,-0.020043017,0.5516096,0.58660096,0.39406237,-0.15676384,419.72342
2023-05-23,-0.023423877,-0.2695833,0.029737223,-0.02674269,0.3721098,0.024393462,0.11135769,-0.005773994,0.54685366,0.58128184,0.40610793,-0.15458575,290.69156
2023-05-24,-0.024124209,-0.2724391,0.04436859,-0.040418416,0.41034147,0.020024158,0.1063986,0.0051106336,0.5725643,0.6313233,0.39483285,-0.22054002,384.2921
2023-05-25,-0.0271026,-0.25191626,0.04707798,-0.011196412,0.4388917,0.041924793,0.09305878,0.014306408,0.6027534,0.6741054,0.42677256,-0.19455172,439.00732
2023-05-26,-0.025551502,-0.19047067,0.023707192,0.0026022196,0.42111674,0.029930491,0.07523805,0.012256113,0.5623247,0.65085167,0.419127,-0.18269283,287.1828
2023-05-30,-0.091886096,-0.17013745,0.00853856,0.013141185,0.44278488,0.03423766,0.039614294,-0.07381925,0.5463541,0.6521955,0.38422093,-0.21581271,1537.9622
2023-05-31,-0.06808755,-0.18710093,-0.024811003,-0.083360836,0.45958486,-0.009522207,-0.0046460773,-0.06456618,0.5227941,0.6560077,0.34113482,-0.32355022,1482.6962
2023-06-01,-0.10001457,-0.22398058,0.0022632936,-0.046523534,0.5073693,0.02353109,0.010329005,-0.10225621,0.579063,0.7105567,0.3589498,-0.37080437,997.02637
2023-06-02,-0.10416028,-0.20992714,0.0111392075,-0.02845686,0.5231545,0.03400916,0.0016591742,-0.120611146,0.59681576,0.734577,0.36611894,-0.35869297,602.6572
2023-06-05,-0.13780212,-0.21762061,0.025813028,0.010984346,0.46876973,0.056888144,0.03975931,-0.1256307,0.57100755,0.63899237,0.33717683,-0.29625803,2727.104
2023-06-06,-0.12429871,-0.2431917,0.0088748755,-0.03726574,0.51630795,0.045708004,0.0044858423,-0.1504486,0.5817898,0.7014995,0.3162904,-0.4089374,720.5955
2023-06-07,-0.13552897,-0.27188575,0.020474803,-0.039182834,0.5191691,0.05064019,0.011107651,-0.16891642,0.5901745,0.70778567,0.31367633,-0.41237146,331.92264
2023-06-08,-0.15949969,-0.31010035,0.04375517,-0.065799676,0.4726304,0.040254056,0.044192765,-0.13696897,0.5618349,0.63832104,0.27534112,-0.41125697,586.72797
2023-06-09,-0.1304004,-0.29570994,0.030459069,-0.075438865,0.50875866,0.037001528,0.020237688,-0.16065226,0.58461314,0.7011629,0.29570064,-0.4228112,179.24533
2023-06-12,-0.13140716,-0.2982466,0.03951888,-0.07235585,0.5086211,0.029942665,0.033151086,-0.15480103,0.59593844,0.70129544,0.30110905,-0.4111728,128.55374
2023-06-13,-0.13269854,-0.29170254,0.040036995,-0.058531135,0.5109563,0.027176522,0.036606427,-0.17675528,0.60154384,0.71393114,0.31351015,-0.38571802,70.94864
2023-06-14,-0.112466775,-0.31941214,0.03428871,-0.08429429,0.49648148,0.02275978,0.032107357,-0.16468452,0.5817644,0.697078,0.28885606,-0.4248692,144.98648
2023-06-15,-0.106717974,-0.31961906,0.022742927,-0.08519976,0.4952264,0.03429832,0.020467859,-0.16381727,0.5734705,0.6937427,0.30692652,-0.4270787,136.33105
2023-06-16,-0.11964424,-0.31796318,0.025366876,-0.08308765,0.4864317,0.034117363,0.015017663,-0.16992019,0.56499267,0.6869717,0.29733482,-0.4042727,70.223495
2023-06-20,-0.099200435,-0.31701264,0.02038914,-0.11071567,0.45337155,0.017219685,0.019379087,-0.12992384,0.5394,0.6422927,0.29576063,-0.3887439,194.56969
2023-06-21,-0.06831762,-0.32535776,0.026091408,-0.084333755,0.49134347,0.04183529,0.018707003,-0.12318348,0.58382857,0.709505,0.32222357,-0.41043785,278.77078
2023-06-22,-0.06468849,-0.3364477,0.04174375,-0.08063129,0.4946159,0.045913212,0.021326061,-0.11374718,0.5927292,0.7139148,0.32652593,-0.42018858,111.03266
2023-06-23,-0.08589803,-0.32161593,0.034242533,-0.072077654,0.5537865,0.062048003,-0.002765882,-0.14338371,0.63370043,0.79834265,0.36667275,-0.4296092,285.17813
2023-06-26,-0.085621215,-0.34439456,0.044052616,-0.071839474,0.5632895,0.06631255,0.0040071574,-0.1477596,0.6432541,0.8037077,0.35468665,-0.47191787,308.19974
2023-06-27,-0.1003151,-0.35758188,0.05371635,-0.06683615,0.54026234,0.06756249,0.011426252,-0.15173496,0.63022715,0.76234,0.34565958,-0.45987558,255.97055
2023-06-28,-0.09569121,-0.34692445,0.0579681,-0.030864947,0.54444003,0.09774907,0.00880525,-0.16371073,0.6435814,0.77730453,0.36482826,-0.4208682,163.71832
2023-06-29,-0.10542688,-0.36122397,0.046647567,-0.06263328,0.5402945,0.08081895,0.006830689,-0.16943021,0.62381023,0.7587064,0.3431928,-0.4589311,201.19044
2023-06-30,-0.11329597,-0.37881854,0.07300974,-0.01500465,0.48295406,0.11833551,0.043205302,-0.1632169,0.60108465,0.6771337,0.32428494,-0.38376713,774.39197
2023-07-03,-0.11091046,-0.3697357,0.07972763,0.013344146,0.51718724,0.13246241,0.038435336,-0.19884878,0.63593155,0.7395484,0.3373965,-0.38414124,273.69107
2023-07-05,-0.10199568,-0.37764207,0.07182279,-0.0065624267,0.4915749,0.12751128,0.04743438,-0.18877263,0.60914135,0.6939358,0.31308734,-0.3885294,225.16766
2023-07-06,-0.08858363,-0.38024732,0.07965468,-0.0107804835,0.51293933,0.11690429,0.05008444,-0.1851934,0.62970334,0.74649495,0.32687676,-0.40546048,128.87895
2023-07-07,-0.08502332,-0.38961235,0.06835664,-0.024653658,0.5122863,0.11424151,0.044355083,-0.17386205,0.62495774,0.74432176,0.33191216,-0.42294627,176.21457
2023-07-10,-0.06439752,-0.37960908,0.073849805,-0.033060975,0.4985986,0.09976576,0.054350242,-0.14845715,0.6263712,0.743275,0.34424904,-0.38919505,133.51755
2023-07-11,-0.071670204,-0.39290574,0.0803155,-0.016772091,0.46479395,0.11893908,0.081853434,-0.13559501,0.6133589,0.6894482,0.33146623,-0.37060788,175.89462
2023-07-12,-0.074112765,-0.3748912,0.0830949,-0.00599204,0.45052478,0.1176035,0.07355203,-0.15002565,0.60266626,0.6692478,0.3262768,-0.33036795,117.80116
2023-07-13,-0.063372284,-0.3510415,0.05952118,-0.029357828,0.46641716,0.095042795,0.050165568,-0.1602084,0.59927696,0.70004064,0.32551098,-0.34518158,510.34714
2023-07-14,-0.053474855,-0.36647716,0.0219807,-0.06624687,0.43388095,0.08259921,0.027203243,-0.1611587,0.5488063,0.63883716,0.3206219,-0.36313626,299.04184
2023-07-17,-0.10046539,-0.37551638,0.05604534,0.009918049,0.47755614,0.11385341,0.051437985,-0.19417639,0.6049005,0.68644375,0.34266517,-0.36937618,544.0337
2023-07-18,-0.09820385,-0.3917268,0.049714882,-0.00394015,0.46851495,0.11010075,0.04708982,-0.20852341,0.59142417,0.6643248,0.3072626,-0.40331122,203.5901
2023-07-19,-0.0887443,-0.37243864,0.038038813,-0.016716987,0.49181294,0.09027167,0.03566197,-0.2097622,0.5954694,0.70161444,0.2992455,-0.44303244,428.91547
2023-07-20,-0.0872847,-0.38379666,0.03798531,-0.023203842,0.5184388,0.09507738,0.023803461,-0.22036715,0.61327153,0.738182,0.30910692,-0.47149143,110.605255
2023-07-21,-0.092640094,-0.39072818,0.06800128,-0.019031197,0.52497447,0.09737566,0.05747327,-0.20205748,0.62877256,0.7536512,0.2922371,-0.4844646,271.21222
2023-07-24,-0.09064481,-0.3994818,0.073393896,-0.024709396,0.5484022,0.094944514,0.057874095,-0.21430409,0.6524797,0.7855248,0.3033826,-0.5041663,71.758415
2023-07-25,-0.10407317,-0.409776,0.08211831,-0.009961352,0.51403123,0.10225265,0.06358816,-0.23744775,0.6285176,0.73006696,0.28115267,-0.46743256,148.94754
2023-07-26,-0.08323282,-0.41221222,0.069290936,-0.021925703,0.4965737,0.09676942,0.061585333,-0.22184733,0.6152896,0.71440405,0.28744498,-0.45528603,183.91254
2023-07-27,-0.08420328,-0.41287813,0.065265946,-0.047024496,0.49080154,0.0914651,0.045859557,-0.20636714,0.59245,0.7055285,0.274537,-0.46047544,171.34973
2023-07-28,-0.068315886,-0.38857457,0.06803831,-0.081182025,0.52939737,0.05598117,0.053474233,-0.17325146,0.6247206,0.7666343,0.29815367,-0.4895536,209.97514
2023-07-31,-0.054483365,-0.3937023,0.057463504,-0.0883695,0.56739736,0.051038507,0.034781422,-0.18651846,0.6590881,0.8366871,0.3415464,-0.492378,134.35463
2023-08-01,-0.05777506,-0.38312638,0.06752122,-0.07305734,0.53818333,0.057372063,0.0495977,-0.17586677,0.64917237,0.7889553,0.3408933,-0.43329293,128.82584
2023-08-02,-0.06856487,-0.38743204,0.089860044,-0.046045393,0.50377655,0.07221237,0.09858686,-0.1643116,0.64704126,0.7453589,0.32361946,-0.38845643,248.72974
2023-08-03,-0.08192819,-0.3942004,0.10596611,-0.065558165,0.5535419,0.05393502,0.09730432,-0.15448447,0.6719462,0.8103443,0.32157993,-0.46893793,157.92473
2023-08-04,-0.088758305,-0.3904455,0.09875643,-0.060220078,0.5615977,0.06685727,0.073687755,-0.1722266,0.679365,0.82273555,0.33938277,-0.45509064,96.52749
2023-08-07,-0.099466994,-0.35610068,0.10070148,-0.074341625,0.5861118,0.04293579,0.06617463,-0.16522774,0.6975426,0.8650625,0.36896864,-0.41857684,125.24669
2023-08-08,-0.11358133,-0.37366435,0.106879465,-0.021720573,0.6026803,0.07031876,0.079391696,-0.20808186,0.7313395,0.871093,0.39036816,-0.40142986,223.9913
2023-08-09,-0.09724077,-0.31108955,0.10682451,-0.10184614,0.60636115,0.0032330528,0.072429135,-0.15088606,0.7133909,0.88016665,0.34133685,-0.41546947,551.9005
2023-08-10,-0.11206297,-0.29746947,0.10983718,-0.108227804,0.60744417,-0.0005136728,0.061865952,-0.1551079,0.7015838,0.8733776,0.3314652,-0.42782092,170.44746
2023-08-11,-0.1085328,-0.29681993,0.105235726,-0.091318265,0.60350764,0.012605891,0.05412438,-0.16041067,0.7039792,0.86619514,0.34727395,-0.41577885,2602.58
2023-08-14,-0.10986729,-0.28326192,0.11114678,-0.08805525,0.57919717,0.0071059167,0.0596867,-0.15372361,0.68258333,0.82342774,0.3315196,-0.3876396,96.37262
2023-08-15,-0.08353793,-0.24149519,0.1096748,-0.05929791,0.5746447,0.002062209,0.06562516,-0.13180093,0.7090333,0.84522974,0.38304928,-0.29680055,214.16779
2023-08-16,-0.055617344,-0.2551343,0.10906915,-0.067255735,0.5845704,0.007273741,0.08332589,-0.08351126,0.70805675,0.8698842,0.38047376,-0.34657583,391.59445
2023-08-17,-0.04454122,-0.26912093,0.108010985,-0.07161331,0.5860691,0.0092875585,0.08442436,-0.08215901,0.7059856,0.8754377,0.3768748,-0.380204,75.306076
2023-08-18,-0.036040056,-0.2403361,0.120637976,-0.113958314,0.54921067,-0.029071614,0.09830203,-0.028581427,0.6733704,0.8264877,0.3673712,-0.32973486,627.56555
2023-08-21,-0.03690761,-0.2156615,0.114134036,-0.105135,0.5183282,-0.022610761,0.11179632,-0.013266328,0.6612924,0.7839619,0.38538918,-0.25216383,156.33511
2023-08-22,-0.012852785,-0.16841877,0.10849645,-0.07771779,0.52593327,-0.029710107,0.11999265,0.004183111,0.6879072,0.8139302,0.4287106,-0.216653,322.99863
2023-08-23,-0.031865727,-0.1751616,0.119679734,-0.070615545,0.5190624,-0.024532773,0.1328466,-0.003792825,0.6818585,0.7937913,0.418163,-0.20918131,400.75565
2023-08-24,-0.027627666,-0.16259682,0.10157805,-0.052719146,0.5151092,-0.018100135,0.13263659,0.000885037,0.68408686,0.79525167,0.44934744,-0.17929995,233.66946
2023-08-25,-0.039880734,-0.17170337,0.104521945,-0.08894756,0.4868348,-0.03730657,0.14451617,0.029750256,0.64102924,0.7417818,0.42114344,-0.19068512,3529.242
2023-08-28,-0.0572544,-0.1409615,0.10655954,-0.063283935,0.51397157,-0.03209853,0.13227351,-0.0012379165,0.68395036,0.77915525,0.4536646,-0.1491015,265.70047
2023-08-29,-0.061008286,-0.13149892,0.1052712,-0.029635914,0.49808493,-0.011867531,0.14240013,-0.014137032,0.6829024,0.7552455,0.46098953,-0.10456818,1218.1292
2023-08-30,-0.074709535,-0.111206725,0.092926994,-0.00060528517,0.47949913,-0.00857491,0.14802854,-0.02894822,0.6714502,0.73223704,0.47078732,-0.055879463,341.18118
2023-08-31,-0.07747427,-0.12562877,0.08250129,-0.012391143,0.45182624,-0.008900605,0.15710783,-0.020670535,0.64325947,0.67487776,0.4656926,-0.050832678,2041.4897
2023-09-01,-0.09038895,-0.0927318,0.081540115,-0.038696334,0.47544417,-0.053259306,0.14885253,-0.038666535,0.6559859,0.71894985,0.46655354,-0.06349066,885.82715
2023-09-05,-0.09640969,-0.075040594,0.09785388,-0.051903248,0.4441834,-0.065983154,0.15104614,-0.02526942,0.6266562,0.6605233,0.43060386,-0.030714188,218.38959
2023-09-06,-0.10364765,-0.06383228,0.09190769,-0.037073396,0.4553396,-0.060207896,0.16630769,-0.008911821,0.64146435,0.6660572,0.4670394,-0.028247658,162.8864
2023-09-07,-0.11113798,-0.07948003,0.08129827,-0.054134622,0.42301628,-0.060654946,0.16627373,-0.01270217,0.6051638,0.6043806,0.44451112,-0.029851858,165.11928
2023-09-08,-0.11633311,-0.07405832,0.09470313,-0.035707153,0.45384923,-0.050127245,0.1510143,-0.009727317,0.6345046,0.6422189,0.4550426,-0.048100952,193.87791
2023-09-11,-0.1038679,-0.057156757,0.08982158,-0.061567165,0.43064442,-0.07263192,0.14400665,-0.009445044,0.60949695,0.60169834,0.43662038,-0.043066416,193.43019
2023-09-12,-0.13878621,-0.07038103,0.07582949,-0.06682583,0.4712521,-0.069668196,0.117556036,-0.052386846,0.62862444,0.6504156,0.44240066,-0.08575222,679.07544
2023-09-13,-0.15946375,-0.08600482,0.09913879,-0.07044942,0.38947645,-0.07073594,0.15904677,-0.019559043,0.56466955,0.50773644,0.4200432,-0.014651301,310.1818
2023-09-14,-0.1445229,-0.07985886,0.07274566,-0.0714505,0.4052149,-0.06570574,0.15108766,-0.0012296464,0.57994545,0.5440413,0.4633013,-0.0008136062,269.02942
2023-09-15,-0.17154671,-0.089196034,0.08092175,-0.055704705,0.38580146,-0.058165453,0.17890981,-0.010115179,0.5703489,0.49565974,0.45031112,0.008905006,2028.8197
2023-09-18,-0.19398917,-0.14226365,0.107195206,-0.07873039,0.37651858,-0.04940071,0.18879111,-0.0065423427,0.54947084,0.45899826,0.40408424,-0.0413798,790.7031
2023-09-19,-0.20567976,-0.14016664,0.10005266,-0.04699537,0.4004524,-0.026264034,0.17688607,-0.04749811,0.5781472,0.48747647,0.42411748,-0.038959447,762.21014
2023-09-20,-0.18348286,-0.1465737,0.088600405,-0.09926413,0.3878552,-0.06492367,0.18692681,-0.028119968,0.5578435,0.48494345,0.4135491,-0.06674658,412.69278
2023-09-21,-0.19999863,-0.15717508,0.09361759,-0.0900245,0.4171775,-0.0613491,0.17661782,-0.041064788,0.5719483,0.5163143,0.40128222,-0.114360645,179.11931
2023-09-22,-0.22088033,-0.18144701,0.09811952,-0.081584275,0.42398325,-0.040934168,0.17301404,-0.0429401,0.5610667,0.50695795,0.3759077,-0.1548377,127.01533
2023-09-25,-0.22949289,-0.17332673,0.085745394,-0.072404824,0.47325596,-0.0440168,0.15834802,-0.08160065,0.6022857,0.57114923,0.3977793,-0.18235269,193.49698
2023-09-26,-0.22839026,-0.16010846,0.09255936,-0.07418877,0.4716269,-0.049361415,0.16701555,-0.091640174,0.60938984,0.5765104,0.39593405,-0.14409101,72.345
2023-09-27,-0.23207878,-0.16294558,0.09356377,-0.107566796,0.4954137,-0.07375292,0.17197764,-0.07978374,0.60843563,0.60665876,0.3753855,-0.20147671,170.23149
2023-09-28,-0.2672112,-0.12813392,0.09616565,-0.060114384,0.51580346,-0.051546104,0.15616766,-0.13978969,0.62901616,0.6344026,0.36761966,-0.17588633,224.75252
2023-09-29,-0.29388344,-0.13164894,0.086241946,-0.055175565,0.4924198,-0.047348596,0.17118563,-0.15425599,0.61324644,0.5762132,0.380595,-0.13441873,102.68714
2023-10-02,-0.2951548,-0.12539956,0.08906675,-0.06352953,0.52077043,-0.058063157,0.17488444,-0.14525643,0.62983125,0.62311184,0.382329,-0.15577507,87.164185
2023-10-03,-0.2886272,-0.101425715,0.07585334,-0.023965925,0.5620887,-0.044437848,0.15087186,-0.17294993,0.66731554,0.7006938,0.41646874,-0.15541068,190.20267
2023-10-04,-0.28913516,-0.11487892,0.091998,-0.057314537,0.5499412,-0.0647681,0.1647029,-0.15494119,0.64230365,0.67709714,0.35340145,-0.18173553,280.56335
2023-10-05,-0.3030934,-0.1079701,0.090367846,-0.012713797,0.5853126,-0.042386286,0.1569723,-0.21069254,0.68409127,0.7364309,0.39197665,-0.17242491,203.40309
2023-10-06,-0.2935609,-0.110619575,0.09707939,-0.003873065,0.5697421,-0.038319014,0.16815607,-0.20887282,0.67459565,0.71574044,0.37610272,-0.15828766,119.25309
2023-10-09,-0.28813726,-0.07736975,0.11087098,0.031485997,0.5264913,-0.040086254,0.1857049,-0.19710584,0.6563344,0.6849443,0.3722968,-0.046698485,1065.8518
2023-10-10,-0.28305462,-0.07163182,0.0960749,-0.0039065666,0.50857484,-0.07044273,0.18615562,-0.18850274,0.64493865,0.6560017,0.36522156,-0.017599542,288.84576
2023-10-11,-0.2824533,-0.08862825,0.0930461,-0.0046630874,0.5020917,-0.055329584,0.17649284,-0.20212679,0.63643557,0.639334,0.35992455,-0.009792584,131.27377
2023-10-12,-0.26765305,-0.08415489,0.08367722,-0.012410313,0.5110073,-0.07003329,0.165224,-0.20143218,0.6363091,0.66462547,0.35981914,-0.03734309,506.9202
2023-10-13,-0.2627835,-0.08952978,0.06718613,-0.04709538,0.48696232,-0.09520996,0.15861051,-0.19182177,0.60716647,0.6343652,0.34917572,-0.030498985,387.24738
2023-10-16,-0.27605346,-0.09091684,0.10407052,0.0014465824,0.50385284,-0.06884784,0.17958766,-0.19377509,0.6339229,0.66498584,0.34534928,-0.028520543,226.78677
2023-10-17,-0.2805974,-0.10803026,0.079372756,-0.008884013,0.5062669,-0.052601673,0.15451431,-0.21318151,0.6325359,0.65700674,0.3580182,-0.017775614,849.15326
2023-10-18,-0.29358605,-0.11843102,0.09663414,-0.0149258785,0.51322854,-0.063237004,0.15784024,-0.223948,0.6418255,0.66929597,0.3441903,-0.03773961,252.32132
2023-10-19,-0.27948058,-0.13226703,0.10328244,-0.025500216,0.5244231,-0.04792907,0.17627832,-0.19275545,0.6464453,0.6857317,0.33358696,-0.09402265,301.60254
2023-10-20,-0.27271172,-0.14007938,0.10423837,-0.0787242,0.49959788,-0.08429255,0.17957671,-0.17277195,0.6244306,0.65269905,0.33706278,-0.068118975,347.6303
2023-10-23,-0.29196993,-0.15021038,0.12700954,-0.09812381,0.51129544,-0.08947193,0.19698901,-0.15681988,0.62771755,0.65108573,0.31722158,-0.10298678,146.04381
2023-10-24,-0.30842626,-0.1337988,0.10487835,-0.08957031,0.5350714,-0.0808237,0.17554674,-0.17739259,0.6456296,0.6759123,0.33901185,-0.10787733,99.30804
2023-10-25,-0.3000029,-0.12891099,0.09877001,-0.090068914,0.5046786,-0.06967092,0.18321107,-0.14918603,0.63089615,0.62607855,0.3576332,-0.05321305,118.331
2023-10-26,-0.3401728,-0.13447604,0.095271625,-0.09340643,0.5031122,-0.07803842,0.18297248,-0.15391393,0.6000161,0.59786373,0.33326492,-0.0972773,139.59625
2023-10-27,-0.36800128,-0.1361171,0.11068704,-0.07886197,0.5082995,-0.06984008,0.17768182,-0.16252442,0.59099424,0.5835547,0.30988052,-0.13668016,112.59454
2023-10-30,-0.40960452,-0.11420961,0.10482592,-0.03782951,0.53290796,-0.03609202,0.15844616,-0.20096108,0.6134495,0.605645,0.3349896,-0.090600535,221.76599
2023-10-31,-0.4467168,-0.12177771,0.10116791,0.005041618,0.5422746,-0.0172735,0.15928286,-0.26959467,0.6241791,0.60661906,0.343826,-0.07763846,239.93712
2023-11-01,-0.45583227,-0.12668644,0.093680955,0.016692631,0.51957774,-0.0055817366,0.17794022,-0.2640147,0.6078275,0.5617116,0.34017116,-0.04086976,388.6679
2023-11-02,-0.44468442,-0.120803,0.07983558,0.031885445,0.53115475,-0.0035214797,0.16818944,-0.27665097,0.61043745,0.5957931,0.3485134,-0.059281487,216.28787
2023-11-03,-0.44657674,-0.10226181,0.090187386,0.061021067,0.4928916,0.0022164062,0.1973897,-0.2655016,0.5922865,0.5514834,0.34416103,0.0247433,465.04922
2023-11-06,-0.4343855,-0.12187374,0.079150565,0.060946517,0.4805251,0.007003717,0.19039819,-0.27398846,0.5770086,0.5440236,0.33531815,0.014108163,308.99313
2023-11-07,-0.4102461,-0.12960549,0.06488713,0.043636166,0.46407387,0.0013159066,0.17866275,-0.27262267,0.5478319,0.5234286,0.3031209,-0.0061035333,311.32803
2023-11-08,-0.3725418,-0.13026632,0.051765215,0.03627918,0.46499744,-0.007664375,0.15522574,-0.27181998,0.54571676,0.5491109,0.29985785,-0.03622288,1242.6782
2023-11-09,-0.3417693,-0.14677666,0.04572631,0.009380385,0.45413852,-0.01115492,0.14941198,-0.25528333,0.5351613,0.53149533,0.27034652,-0.07446259,285.0029
2023-11-10,-0.32168645,-0.17559461,0.03417595,-0.013145726,0.4636295,0.0015002042,0.123139724,-0.23582107,0.54143643,0.5421917,0.27778143,-0.12819986,509.75867
2023-11-13,-0.32923147,-0.1857486,0.03621601,0.0020233877,0.4623073,0.011291213,0.10705904,-0.27857032,0.5287079,0.55460304,0.25912926,-0.14252712,836.13684
2023-11-14,-0.2976469,-0.19319816,0.028472815,-0.03363382,0.42076945,0.0054733157,0.092472844,-0.25206593,0.48825955,0.49669883,0.22287127,-0.13330498,1919.4408
2023-11-15,-0.28614706,-0.20705307,0.013155048,-0.053783607,0.42744303,0.003797628,0.05885752,-0.27247325,0.4811893,0.5125953,0.21872063,-0.18117897,243.81528
2023-11-16,-0.29606864,-0.25840425,0.0021568062,-0.09797663,0.43897393,0.008820891,0.044654023,-0.28046915,0.47817546,0.5143841,0.19085057,-0.25510922,410.6018
2023-11-17,-0.25808495,-0.25881848,0.0052303644,-0.13659498,0.41842517,-0.016945906,0.04359592,-0.2388312,0.4630831,0.50193125,0.18499358,-0.26449335,521.24255
2023-11-20,-0.24815096,-0.27093434,0.021947656,-0.13612017,0.4115984,-0.0015423372,0.0573279,-0.23422968,0.4781,0.50047034,0.19279775,-0.24556787,469.36087
2023-11-21,-0.22254758,-0.28147066,0.0052553834,-0.14099243,0.42101875,0.0037030354,0.04173888,-0.22386892,0.47889888,0.52519625,0.20928916,-0.26785067,490.5734
2023-11-22,-0.22890729,-0.31113142,0.0120763155,-0.120468825,0.41804317,0.03149391,0.04221819,-0.22472186,0.47788525,0.5100961,0.19926718,-0.29218787,927.42804
2023-11-24,-0.21560451,-0.32597202,0.012207066,-0.12210162,0.4517689,0.032078154,0.025533792,-0.23337735,0.5063245,0.57123643,0.22212744,-0.32347202,106.429245
2023-11-27,-0.20284618,-0.3540743,0.011837711,-0.13790986,0.41892764,0.03881031,0.026210036,-0.23295876,0.47714043,0.5099602,0.19344687,-0.3425293,96.88917
2023-11-28,-0.18546568,-0.3755227,0.01643755,-0.13724275,0.44623455,0.040002238,0.015104991,-0.23542602,0.49974877,0.567367,0.20689821,-0.39311337,144.70187
2023-11-29,-0.17138253,-0.3838975,0.015214321,-0.13838539,0.44426277,0.03697337,0.0148751335,-0.234898,0.504187,0.5751135,0.21738322,-0.3921675,35.419212
2023-11-30,-0.14626054,-0.39878663,-0.0029151393,-0.20072748,0.41430154,0.0147937015,0.009434846,-0.20879398,0.45643055,0.5257322,0.1943574,-0.43268657,336.1478
2023-12-01,-0.17474136,-0.43010917,0.034216013,-0.113772266,0.39799196,0.06677565,0.043637726,-0.21993764,0.47922233,0.4952374,0.21089473,-0.38831508,2097.109
2023-12-04,-0.15802132,-0.44306403,0.022239964,-0.14863878,0.37464616,0.059346437,0.034988713,-0.22114104,0.4448087,0.45979708,0.18508972,-0.419726,150.24873
2023-12-05,-0.15260218,-0.46221665,0.0508389,-0.13603356,0.4009153,0.06434776,0.07056382,-0.20573764,0.48032036,0.5142239,0.18345335,-0.44304132,295.16528
2023-12-06,-0.14819495,-0.44766977,0.046005365,-0.13254058,0.4537235,0.059796654,0.043487284,-0.23855439,0.51851946,0.5998145,0.19618088,-0.47529227,131.49222
2023-12-07,-0.15534629,-0.47476947,0.063481815,-0.10925299,0.4740686,0.07887694,0.06209716,-0.24789014,0.54198945,0.6297689,0.19638416,-0.512587,167.00772
2023-12-08,-0.1478055,-0.47928947,0.060651463,-0.09352651,0.49512652,0.09245376,0.055477407,-0.26804549,0.5640066,0.6633683,0.2214381,-0.51975083,88.65767
2023-12-11,-0.13488336,-0.46909824,0.077895954,-0.073700204,0.4934097,0.09342876,0.0830042,-0.25483492,0.5844667,0.6787,0.2274253,-0.48052973,132.63623
2023-12-12,-0.16399892,-0.45889524,0.091055505,-0.054959197,0.49439967,0.088716716,0.08925417,-0.2844023,0.5848281,0.67459637,0.20527361,-0.4904916,102.939354
2023-12-13,-0.1758867,-0.46102235,0.08165649,-0.06984183,0.5253924,0.077471815,0.07558465,-0.31567204,0.60110945,0.7048784,0.20657119,-0.51647544,103.570435
2023-12-14,-0.20573905,-0.45487154,0.08012655,-0.07615872,0.5328889,0.07048856,0.06672579,-0.33574533,0.5988208,0.7019879,0.18871717,-0.5217364,68.197426
2023-12-15,-0.22346516,-0.4678141,0.098210625,-0.071421914,0.4809419,0.07662466,0.105194844,-0.30531082,0.56748086,0.63109285,0.15383686,-0.46744245,169.64273
2023-12-18,-0.23943095,-0.45975396,0.0888607,-0.08058038,0.53563476,0.07638967,0.06755507,-0.357898,0.59665334,0.69234914,0.16462891,-0.5176476,128.4975
2023-12-19,-0.23812632,-0.4442142,0.0670311,-0.111233965,0.5447222,0.055590674,0.04246814,-0.3681263,0.58600456,0.7020474,0.16300844,-0.52855825,141.72705
2023-12-20,-0.22656076,-0.4463515,0.082080014,-0.10375652,0.53665805,0.052921608,0.062305305,-0.3507678,0.5945571,0.70103955,0.1623492,-0.5124209,97.27927
2023-12-21,-0.23029332,-0.460923,0.09847612,-0.09760964,0.542017,0.05226847,0.07595595,-0.3321711,0.6093741,0.71779054,0.17407641,-0.51673037,73.2019
2023-12-22,-0.21183953,-0.46049598,0.09167767,-0.083689295,0.5430715,0.06723803,0.0657089,-0.33864966,0.61841166,0.7224697,0.19907808,-0.49799848,93.66868
2023-12-26,-0.19801521,-0.45902222,0.08267156,-0.090082735,0.5214052,0.06738202,0.058832746,-0.3263614,0.5974546,0.6956991,0.19771314,-0.48113397,53.77232
2023-12-27,-0.17569554,-0.45709926,0.0801355,-0.08431918,0.51365376,0.07420157,0.058391746,-0.30814278,0.5977048,0.6999265,0.2109957,-0.4666493,49.473763
2023-12-28,-0.14572354,-0.4451412,0.07833903,-0.07896808,0.51358885,0.06935643,0.056297872,-0.29098764,0.5994376,0.715836,0.22600746,-0.45705923,55.691425
2023-12-29,-0.12129164,-0.45192635,0.06581194,-0.094548956,0.49970943,0.07058258,0.04908223,-0.26713878,0.5841148,0.7054438,0.23510444,-0.45010403,89.049515
2024-01-02,-0.10101961,-0.44514373,0.06782196,-0.094301835,0.4813173,0.07493671,0.05549596,-0.22760223,0.5756006,0.69592595,0.24346241,-0.43110967,69.82838
2024-01-03,-0.11046495,-0.42123315,0.1219038,-0.056574784,0.48602512,0.07308937,0.096288644,-0.18982668,0.6117223,0.71489584,0.25671747,-0.37785915,254.81288
2024-01-04,-0.073927954,-0.37601152,0.11166846,-0.08374239,0.49282494,0.04723715,0.076058134,-0.15175487,0.61528534,0.73613894,0.28270385,-0.34342337,200.85416
2024-01-05,-0.06926154,-0.39072144,0.10370875,-0.07279913,0.4843636,0.06914708,0.06993294,-0.14214085,0.6111625,0.7261439,0.30242363,-0.33494073,104.381516
2024-01-08,-0.05360922,-0.36857045,0.08717326,-0.09570009,0.47992036,0.057756964,0.058782212,-0.12718664,0.6021737,0.7244515,0.31093872,-0.32991952,125.54381
2024-01-09,-0.03544372,-0.33799887,0.08764016,-0.059545226,0.5219184,0.05794876,0.05179868,-0.12005788,0.6504355,0.81088454,0.3680154,-0.32263082,147.57394
2024-01-10,-0.021084253,-0.3479068,0.059743747,-0.085868195,0.5088664,0.043749657,0.025719907,-0.12414518,0.6278989,0.79040205,0.36460376,-0.33017713,209.4934
2024-01-11,-0.012448807,-0.33803394,0.050114773,-0.07961903,0.5172999,0.05050232,0.008292203,-0.127757,0.63001555,0.8056061,0.37465295,-0.33746648,162.175
2024-01-12,-0.0062878625,-0.33383018,0.035025936,-0.090507105,0.5143261,0.0390887,0.007741038,-0.10728581,0.62080663,0.8046151,0.37862316,-0.34386906,144.90465
2024-01-16,-0.0062051686,-0.31081027,0.026124105,-0.099199556,0.5198157,0.02873829,0.0054724296,-0.111607775,0.6142024,0.8085986,0.37179026,-0.36154485,112.61514
2024-01-17,0.018945213,-0.32357138,0.010490752,-0.091979206,0.5174216,0.049479514,-0.005357157,-0.090592906,0.6078548,0.8135354,0.37891498,-0.38498947,775.94147
2024-01-18,0.016167473,-0.32678938,0.012447205,-0.074298576,0.5212542,0.070996776,0.0038672432,-0.08647544,0.61240906,0.8140097,0.38252774,-0.38875896,277.2296
2024-01-19,0.0038215471,-0.32583922,0.017016858,-0.04251101,0.51810795,0.09785938,0.0023197278,-0.10182289,0.6190273,0.8083909,0.3978967,-0.36401927,264.5055
2024-01-22,-0.00494687,-0.3125361,0.00744065,-0.022064015,0.48654518,0.09842708,-0.00220422,-0.10292925,0.591182,0.7844308,0.40751532,-0.3106853,565.21265
2024-01-23,0.010630797,-0.34044418,0.0023282887,-0.05130835,0.45430747,0.08692528,0.00012801279,-0.08718228,0.5582635,0.7217756,0.3649809,-0.34076503,698.17346
2024-01-24,0.01173802,-0.33354786,0.008253374,-0.046697363,0.4492596,0.094984464,0.004328136,-0.08030073,0.56234425,0.7138837,0.3747432,-0.30921164,3588.963
2024-01-25,0.018313888,-0.31177148,0.014386875,-0.035395548,0.4428001,0.09331919,0.010246602,-0.06246491,0.56820494,0.72384745,0.39176178,-0.2734965,341.74396
2024-01-26,0.006852786,-0.2882162,0.02525153,-0.03692671,0.4020122,0.08300916,0.037702393,-0.03663816,0.54633105,0.6704492,0.40228918,-0.20749497,517.5826
2024-01-29,0.014836195,-0.27019855,0.031795543,-0.029392503,0.42172188,0.08756018,0.02347625,-0.03310279,0.56520945,0.6985306,0.40734148,-0.20359102,237.61736
2024-01-30,0.012045908,-0.25127536,0.027004559,-0.018875755,0.4422114,0.07780341,0.016346496,-0.04887053,0.58020055,0.7308003,0.41659045,-0.20786768,182.30655
2024-01-31,0.0017211838,-0.2505616,0.03796913,-0.010406479,0.4132812,0.08757672,0.039933536,-0.0320477,0.5637157,0.6852306,0.40742645,-0.18223548,392.89545
2024-02-01,-0.02888612,-0.27716434,0.06445165,-0.008988261,0.43319985,0.0926329,0.058387056,-0.01939218,0.58472574,0.68632215,0.39078853,-0.24507467,2011.0093
2024-02-02,-0.03859951,-0.24844708,0.061539087,0.028040856,0.47256812,0.10728297,0.050254975,-0.06475674,0.62527376,0.7403076,0.43297315,-0.2170488,770.2725
2024-02-05,-0.052366313,-0.21700528,0.040538345,0.0009755567,0.4860402,0.066122234,0.037421342,-0.07659818,0.6184338,0.76760715,0.4316437,-0.21361801,270.6775
2024-02-06,-0.026225444,-0.21977821,0.023265999,-0.042048037,0.4796403,0.045521427,0.03183001,-0.051843394,0.601592,0.7428116,0.39614975,-0.27471837,4626.4736
2024-02-07,-0.020049643,-0.2459018,0.0027222643,-0.085267305,0.4536172,0.043726116,-0.009339335,-0.04745749,0.5524791,0.6790816,0.35576203,-0.32563427,419.163
2024-02-08,-0.026356872,-0.2279085,-0.013872906,-0.07051025,0.45937988,0.046263136,-0.014263171,-0.052553628,0.5608693,0.6833654,0.38873258,-0.29015255,758.53674
2024-02-09,-0.023430418,-0.21217492,-0.0063659465,-0.09367357,0.449065,0.026885655,0.0036129698,-0.029620865,0.5542589,0.6716628,0.37705562,-0.27701998,328.48944
2024-02-12,-0.00453901,-0.2128241,-0.027131129,-0.09638764,0.4918688,0.023717493,-0.02148794,-0.032513123,0.58215624,0.7493709,0.41275588,-0.31594762,1175.9702
2024-02-13,0.009917761,-0.22243863,-0.015089829,-0.10273405,0.46940592,0.02084262,-0.015562006,-0.015875893,0.56850475,0.72412366,0.39276382,-0.31296578,480.9227
2024-02-14,0.01592942,-0.23510699,0.012542064,-0.0992266,0.46672258,0.024291746,0.020937342,0.016972406,0.58269405,0.7319919,0.39770827,-0.2971295,721.3101
2024-02-15,0.030610766,-0.23672941,0.0075432295,-0.0689949,0.47525415,0.053867463,0.0039838147,-0.0018789198,0.6008581,0.7537525,0.42143002,-0.28368282,495.38242
2024-02-16,-0.005339575,-0.2453925,0.046772998,-0.022286363,0.43253288,0.07218975,0.05134603,0.0012111489,0.5901372,0.680554,0.40728673,-0.22124957,2142.0557
2024-02-20,0.004093456,-0.24305221,0.053968348,-0.035100244,0.42395267,0.045239918,0.056760017,0.014081684,0.5777257,0.66464096,0.3956971,-0.22540104,1372.1909
2024-02-21,-0.0034125494,-0.2528901,0.059862923,-0.048041806,0.4372231,0.042075995,0.06435125,0.027401207,0.5874091,0.6722746,0.40229964,-0.25095642,369.1228
2024-02-22,-0.013384615,-0.2584913,0.0812006,-0.015976883,0.42007184,0.06391854,0.07321964,0.03233389,0.6009156,0.64757735,0.43576577,-0.17483051,529.06433
2024-02-23,-0.021414157,-0.20140876,0.09072317,0.07459126,0.430981,0.096515596,0.08527645,0.0063473107,0.6368374,0.6781787,0.4884579,-0.075693265,890.60175
2024-02-26,-0.0005259039,-0.23779821,0.07737733,0.041785777,0.44489625,0.07722348,0.068612695,-0.004592645,0.638434,0.6930242,0.46835598,-0.14249626,484.2264
2024-02-27,-0.0042393776,-0.24255048,0.07693776,0.037085168,0.44413143,0.06883757,0.07130769,-0.009301844,0.6385084,0.69062513,0.46651658,-0.1485478,842.4226
2024-02-28,-0.0044399025,-0.25646082,0.07134473,-0.0046649575,0.42151645,0.03958802,0.074907646,0.0038256322,0.6082293,0.65781087,0.45704684,-0.15453991,339.6297
2024-02-29,-0.01715533,-0.255724,0.06468962,-0.010340005,0.4105942,0.04740741,0.05829567,-0.0038353081,0.59331554,0.6228152,0.45141783,-0.15468325,671.527
2024-03-01,-0.007626009,-0.24177314,0.055398993,-0.014012255,0.41259807,0.03155746,0.062921144,-0.006401512,0.5961419,0.6419087,0.46507967,-0.13592336,238.34203
2024-03-04,-0.0056954967,-0.18610132,0.05788133,-0.0017861575,0.38330337,0.011131398,0.079573624,0.0075117694,0.57989043,0.61181915,0.47170207,-0.049602207,528.0557
2024-03-05,0.018369619,-0.20270124,0.049151104,-0.029999614,0.3965536,-0.0034841076,0.07716854,0.02707803,0.5745041,0.6388891,0.45352295,-0.12462206,2584.797
2024-03-06,0.020844292,-0.21004894,0.05408723,-0.066730134,0.3580387,-0.013107017,0.07019254,0.08430882,0.5281833,0.5736896,0.43181965,-0.13198471,684.839
2024-03-07,0.0050469665,-0.19650567,0.049268227,-0.072628036,0.32820457,-0.011594541,0.07447359,0.072045535,0.5106689,0.51886123,0.44059786,-0.0636919,207.14879
2024-03-08,-0.0020045908,-0.16031101,0.042128656,-0.049676873,0.3679772,-0.02567508,0.0674758,0.04819272,0.5428946,0.5930417,0.4700209,-0.053631257,423.37476
2024-03-11,0.010824072,-0.1391604,0.11594262,-0.064177275,0.3058725,-0.03751003,0.11602783,0.13309895,0.51272875,0.5044983,0.45087832,0.04315977,1373.7002
2024-03-12,-0.0017154338,-0.1447698,0.09786826,-0.053763576,0.32896727,-0.020724915,0.10281965,0.1350781,0.53705645,0.5228411,0.49808618,0.036161136,251.93057
2024-03-13,-0.01599646,-0.09746312,0.0769551,-0.025315687,0.38804713,-0.022153191,0.07249235,0.09170446,0.5823563,0.62039566,0.5404975,0.049583774,1098.6448
2024-03-14,-0.027130466,-0.09734902,0.09372142,-0.024118565,0.35944796,-0.021502659,0.08978927,0.09905991,0.56727076,0.5648567,0.533787,0.08492341,222.48035
2024-03-15,-0.06672409,-0.08380115,0.096276976,0.007906411,0.3904572,-0.009539105,0.086942315,0.079022095,0.5912593,0.59605974,0.54885334,0.08488925,395.6416
2024-03-18,-0.08744805,-0.11947307,0.117218696,0.0115068555,0.3577468,-0.009831592,0.11820176,0.08259651,0.5606979,0.52406925,0.500245,0.055240255,253.8672
2024-03-19,-0.08799034,-0.109060034,0.115606785,0.019143168,0.34769508,-0.011666812,0.12337994,0.08261345,0.566929,0.51350725,0.5315101,0.107956156,207.75871
2024-03-20,-0.09302491,-0.10683496,0.11257734,0.023231506,0.32973793,-0.009765223,0.12657274,0.082109466,0.558256,0.4807451,0.5472673,0.15374008,109.68492
2024-03-21,-0.10942055,-0.103037745,0.10952393,0.06376439,0.3190882,0.009255506,0.13260512,0.06507993,0.5584485,0.46728757,0.55689865,0.19117804,450.82654
2024-03-22,-0.1237178,-0.11533684,0.10743848,0.043704994,0.29284054,-0.012120314,0.16497241,0.06079122,0.53968704,0.4151125,0.54451364,0.20081894,350.3344
2024-03-25,-0.102357954,-0.12631965,0.10665287,0.008594342,0.29854527,-0.024693832,0.18455532,0.107546166,0.53747725,0.42804652,0.54817015,0.1667282,323.49518
2024-03-26,-0.07447757,-0.14014128,0.10695845,-0.026160277,0.2957937,-0.039718322,0.18801498,0.13776681,0.5329335,0.42905334,0.5457948,0.13420343,555.61707
2024-03-27,-0.073154435,-0.14720793,0.10648329,-0.02706388,0.2949809,-0.039326414,0.18756558,0.13845256,0.53518206,0.4205681,0.549753,0.13692369,17.867481
2024-03-28,-0.06467558,-0.14635628,0.1282246,0.021165814,0.29177377,-0.01521492,0.1920676,0.12479468,0.5576169,0.44055012,0.56138074,0.18191329,329.3724
2024-04-01,-0.06071117,-0.161519,0.13964285,0.027578022,0.27870646,0.0046531484,0.20169604,0.13772115,0.56272703,0.41723278,0.5696302,0.1983581,222.84106
2024-04-02,-0.057701718,-0.16358474,0.13818908,-0.009247135,0.28333524,-0.015312679,0.2142749,0.1526138,0.56183857,0.43105078,0.5716243,0.18266667,600.3313
2024-04-03,-0.045292225,-0.15095726,0.13723207,-0.045399383,0.26556766,-0.03645177,0.2111907,0.17388947,0.5417363,0.41119206,0.561253,0.18845886,593.7452
2024-04-04,-0.042474445,-0.14571747,0.123655505,-0.050954185,0.26567188,-0.03928013,0.19692528,0.15980424,0.5363481,0.40694046,0.5559496,0.18961334,58.0603
2024-04-05,-0.054250423,-0.15590908,0.1409512,-0.046205275,0.32345223,-0.033646517,0.19710594,0.16929536,0.57273203,0.49171656,0.54357916,0.08581288,184.7323
2024-04-08,-0.081717744,-0.13055167,0.13193841,0.023896854,0.35507873,0.0059735477,0.17896038,0.10006569,0.61120677,0.5386843,0.5767992,0.14757068,496.98734
2024-04-09,-0.06004965,-0.15650603,0.12515187,0.02444169,0.34630683,0.018731132,0.1767762,0.113009214,0.60776013,0.5295227,0.58714366,0.1458482,289.23914
2024-04-10,-0.07289415,-0.1659005,0.099942796,0.0050618425,0.38162106,0.0046681613,0.14875431,0.08592059,0.6073221,0.5656572,0.5815281,0.06564109,314.76868
2024-04-11,-0.059163142,-0.15987083,0.104588635,0.007704675,0.3814731,0.010262147,0.15148225,0.10856354,0.6141582,0.5707036,0.5849885,0.064751826,231.35703
2024-04-12,-0.062159743,-0.14979954,0.08786707,0.027887315,0.3813141,0.016674452,0.15308675,0.086811885,0.610514,0.57649964,0.59226286,0.07210155,387.13058
2024-04-15,-0.09589706,-0.17740032,0.08957708,0.047731332,0.42532378,0.050182417,0.1518322,0.074615225,0.60906494,0.6032275,0.5320264,-0.06111932,572.9814
2024-04-16,-0.10048483,-0.19268548,0.12566102,0.05546786,0.44469157,0.039913557,0.17371008,0.09152801,0.6472555,0.62925,0.54227555,-0.09550852,200.76027
2024-04-17,-0.108160205,-0.18262222,0.12463405,0.1155633,0.46949103,0.074230485,0.17901191,0.046750825,0.6851017,0.6660003,0.5759062,-0.064627424,315.77252
2024-04-18,-0.120037675,-0.1925198,0.13756952,0.117185086,0.46516398,0.07338512,0.17518249,0.050066736,0.6798752,0.65702426,0.56178504,-0.07077792,53.555084
2024-04-19,-0.12474322,-0.19238782,0.13815887,0.118654236,0.46845755,0.06970666,0.17405017,0.040543478,0.68118113,0.6554932,0.5552748,-0.08371687,50.923805
2024-04-22,-0.16891369,-0.1944631,0.14661281,0.12079556,0.43695003,0.07161186,0.17309797,0.035595488,0.64156467,0.58936375,0.52880275,-0.04951941,128.14236
2024-04-23,-0.17575888,-0.17418106,0.14272569,0.13880849,0.4432024,0.0763897,0.17624235,0.0243095,0.66212875,0.6057045,0.5628696,0.015389946,217.16977
2024-04-24,-0.17972212,-0.1640046,0.14275755,0.16385706,0.44720733,0.089755096,0.18017432,0.0057325335,0.6778018,0.61258465,0.5860222,0.053252857,376.85458
2024-04-25,-0.1830665,-0.15719903,0.13965379,0.14951326,0.4361991,0.07233764,0.18453583,0.002281544,0.6628002,0.60107726,0.56519616,0.05968755,121.155205
2024-04-26,-0.20632255,-0.14436723,0.12324954,0.15786763,0.42404497,0.090977274,0.19382358,-0.001939791,0.63970286,0.5795763,0.5447848,0.07481836,292.8316
2024-04-29,-0.21196245,-0.13130127,0.11610156,0.17244342,0.4735889,0.08208502,0.18845208,-0.050029863,0.6872255,0.6492967,0.5800373,0.06717029,2566.334
2024-04-30,-0.20768148,-0.1479929,0.12754585,0.15335792,0.46251315,0.06491316,0.20576206,-0.03407942,0.683886,0.6304926,0.5609951,0.067860946,107.67561
2024-05-01,-0.19428463,-0.12202787,0.13334194,0.09425938,0.45994782,0.019212432,0.20932513,-0.00027810293,0.6588283,0.6352958,0.49656358,0.038182404,298.5946
2024-05-02,-0.19136213,-0.10805731,0.13873689,0.10542692,0.5052184,0.010868892,0.1887367,-0.036423612,0.6942871,0.7186734,0.518027,0.013258767,13177.227
2024-05-03,-0.20851913,-0.097602196,0.1122128,0.10232845,0.51192987,0.020656437,0.15197855,-0.07750916,0.69047946,0.70757586,0.5270933,0.020811241,325.15787
2024-05-06,-0.22359958,-0.10375408,0.090574704,0.08401384,0.51849157,0.0058263093,0.13807638,-0.11630307,0.6825753,0.69926375,0.51611906,-0.010273832,336.75858
2024-05-07,-0.22475533,-0.09682807,0.087634444,0.08857864,0.49990767,0.0045501813,0.13661382,-0.13163906,0.66384286,0.67125875,0.49187115,0.02313007,392.18765
2024-05-08,-0.2324555,-0.11427747,0.0819548,0.06380343,0.50914675,-0.009682678,0.12234682,-0.16033953,0.65691143,0.67073417,0.46005112,-0.019743253,595.7383
2024-05-09,-0.2240988,-0.13482158,0.09150365,0.064948425,0.48130316,-0.00788191,0.14395651,-0.13159718,0.648125,0.64269966,0.47106066,0.028334837,346.10028
2024-05-10,-0.2454273,-0.14056307,0.0979713,0.071244106,0.49097857,0.006543204,0.13099286,-0.1630763,0.6525772,0.6529273,0.45564663,0.012534258,309.80365
2024-05-13,-0.24669616,-0.15984361,0.08182777,0.066752285,0.4692474,0.013888672,0.1316072,-0.18003371,0.62765986,0.6142196,0.43454948,0.01812246,223.53108
2024-05-14,-0.22471398,-0.16721563,0.0877985,0.027401607,0.4578594,-0.018960662,0.12916169,-0.16330768,0.61677796,0.61112946,0.41094938,0.015221533,353.53925
2024-05-15,-0.22550459,-0.18581808,0.100514546,0.033155963,0.42963454,-0.009266116,0.149424,-0.1433808,0.603532,0.5697385,0.41288233,0.047032114,350.51874
2024-05-16,-0.20613913,-0.16500202,0.10011222,0.04068011,0.422567,-0.009505011,0.14769636,-0.1399529,0.60166293,0.5816328,0.41666707,0.08047743,125.07928
2024-05-17,-0.19705819,-0.1899042,0.07602214,-0.032717846,0.38130495,-0.040663518,0.1329383,-0.12097124,0.5425959,0.5173645,0.3922482,0.07222727,622.0976
2024-05-20,-0.19138548,-0.19943936,0.08207524,-0.057649143,0.32887462,-0.044017725,0.1386618,-0.10656344,0.50462663,0.4492047,0.37804788,0.1285815,232.09319
2024-05-21,-0.19191825,-0.20167632,0.083521985,-0.01754785,0.3685377,-0.013469525,0.14911221,-0.09664527,0.5364684,0.51026076,0.39869365,0.07781306,235.8742
2024-05-22,-0.16324966,-0.2225377,0.07987457,-0.031757332,0.36687657,-0.005985439,0.14042044,-0.06722315,0.5374794,0.51786304,0.41445452,0.08609179,219.18153
2024-05-23,-0.1357975,-0.24984577,0.067242265,-0.044945993,0.3794057,0.00568714,0.123492,-0.042152088,0.5406137,0.543672,0.43130517,0.03656626,401.3732
2024-05-24,-0.10208761,-0.2479246,0.05673859,-0.097052336,0.36222693,-0.016703553,0.1321251,0.015127015,0.50894094,0.5264922,0.41699427,0.00069524813,808.6924
2024-05-28,-0.07781677,-0.2643411,0.04428165,-0.10432537,0.36517906,-0.0029108673,0.09781581,0.005952847,0.50137585,0.54688126,0.4099288,-0.019152682,3091.6997
2024-05-29,-0.057447504,-0.2521248,0.040241037,-0.10776974,0.3842392,0.00017505139,0.08522811,0.018257437,0.51290345,0.5877736,0.4216234,-0.03083973,447.67636
2024-05-30,-0.054383453,-0.24058294,0.04803006,-0.10804121,0.40311125,-0.0021791682,0.08251052,0.037372064,0.5285088,0.62023455,0.43166736,-0.03748853,1519.6945
2024-05-31,-0.0677569,-0.27289,0.07808691,-0.104972735,0.39382693,0.010334425,0.08097697,0.048522856,0.5182326,0.5884666,0.39163545,-0.08201434,846.78705
2024-06-03,-0.102326736,-0.2447211,0.0944013,-0.068144195,0.38616914,0.023903757,0.09057362,0.043656882,0.53582525,0.57520545,0.44063258,0.021346811,416.6327
2024-06-04,-0.079197854,-0.22990772,0.06797264,-0.068897255,0.4083869,0.03231085,0.053458285,0.04192088,0.5390785,0.6097402,0.44916943,-0.012763257,311.97427
2024-06-05,-0.090259686,-0.23153874,0.053805273,-0.056062564,0.42186508,0.042631365,0.040400382,0.024512162,0.5448951,0.609224,0.46355662,-0.019272905,210.71358
2024-06-06,-0.08552708,-0.21800385,0.050463054,-0.021993384,0.42466995,0.053186238,0.050342567,0.022643236,0.5578634,0.6301946,0.4828348,0.0035503479,264.12988
2024-06-07,-0.068535924,-0.21103202,0.048683446,-0.054176018,0.44148383,0.029020905,0.025982331,0.020724757,0.5649443,0.6689007,0.47449043,-0.010490092,683.7819
2024-06-10,-0.042795096,-0.22059277,0.059334863,-0.039700232,0.41898862,0.035014533,0.053814217,0.04727195,0.5662194,0.6644785,0.49040297,0.019952293,646.09
2024-06-11,-0.028675552,-0.20671257,0.05721164,-0.034431785,0.4254841,0.037114516,0.03836305,0.043947097,0.57374984,0.68687534,0.4878485,0.020638984,108.09089
2024-06-12,-0.028762322,-0.20282435,0.047736492,-0.010620132,0.42593092,0.048842832,0.042375196,0.046554107,0.5736868,0.69104743,0.49897066,0.025557164,162.72482
2024-06-13,-0.015156192,-0.20294543,0.03304485,-0.02089975,0.43043497,0.044976383,0.03415989,0.06010009,0.5633138,0.69138855,0.4957619,-0.033904742,467.55618
2024-06-14,-0.029898394,-0.17877567,0.039020803,-0.0058814697,0.38751766,0.053625144,0.044356238,0.08130399,0.52897525,0.63030386,0.4808766,0.03387749,511.30414
2024-06-17,-0.0333772,-0.17103913,0.028479815,-0.025460899,0.4131834,0.023284234,0.035141293,0.05534162,0.5387519,0.66352266,0.47798076,-0.0055615185,615.9243
2024-06-18,-0.045338314,-0.18351561,0.017031178,-0.033618525,0.39697215,0.028852157,0.024978338,0.03875174,0.51660085,0.6333157,0.46625164,-0.0017987294,280.87906
2024-06-20,-0.029144574,-0.1944239,0.01565504,-0.046198502,0.37440297,0.029236265,0.033215698,0.056587633,0.49767983,0.60636604,0.45651224,-0.0037336005,290.75775
2024-06-21,-0.053291004,-0.19256501,0.048576426,-0.016200677,0.39881593,0.04221072,0.038645957,0.04148062,0.54431367,0.6436667,0.48105207,0.025238957,1249.8677
2024-06-24,-0.057667088,-0.20710272,0.058771268,-0.008208394,0.41285625,0.049787357,0.040139038,0.0385531,0.5615411,0.65858287,0.4874113,0.00774162,194.60355
2024-06-25,-0.0866503,-0.2272932,0.09089612,0.01259388,0.37685403,0.06563464,0.07525117,0.051361594,0.55394536,0.5950257,0.47901312,0.03978714,956.01013
2024-06-26,-0.064254895,-0.20385131,0.07421211,0.02007588,0.4019874,0.06877391,0.058096956,0.042514976,0.5744657,0.6440437,0.49846646,0.03868452,184.17117
2024-06-27,-0.06909178,-0.20222992,0.056500297,-0.0019872673,0.42976314,0.05962675,0.044282075,0.035398576,0.58485407,0.6822918,0.5050213,0.0013308944,308.43753
2024-06-28,-0.06847186,-0.21236345,0.06599565,-0.018944282,0.44468153,0.037533753,0.058362126,0.03422005,0.59279394,0.69236404,0.48893243,-0.055482592,5226.4854
2024-07-01,-0.08606751,-0.24041039,0.08433886,0.012700945,0.40091905,0.06627156,0.08787119,0.054803442,0.58538955,0.615075,0.4885895,-0.013589795,518.85004
2024-07-02,-0.06726174,-0.2180672,0.087096706,0.004325412,0.4175167,0.05219098,0.09421827,0.062207017,0.60390174,0.66617787,0.5006819,0.0021393122,276.16486
2024-07-03,-0.07432116,-0.25832558,0.08069652,0.030173242,0.42845926,0.08842476,0.07777579,0.008957353,0.6105566,0.66696614,0.48791876,-0.04078665,2819.285
2024-07-05,-0.057018768,-0.27997273,0.06900437,0.005119603,0.3860068,0.08470502,0.08732619,0.023360206,0.57277745,0.59849566,0.4620578,-0.05303405,368.15173
2024-07-08,-0.071963504,-0.28536254,0.054868653,-0.00415311,0.43144926,0.08228161,0.059174392,-0.017952742,0.5793802,0.6532298,0.43975163,-0.1382486,629.2697
2024-07-09,-0.051943105,-0.30892882,0.054861765,-0.034277327,0.42598972,0.070549615,0.07313727,0.0076027634,0.5741573,0.64085096,0.42009646,-0.18105896,981.1333
2024-07-10,-0.029099558,-0.31231853,0.061989937,-0.032516874,0.43578836,0.0722712,0.07134609,0.008299378,0.5846957,0.6724175,0.40845367,-0.20244235,100.89914
2024-07-11,-0.01738302,-0.29467767,0.069501154,-0.048109576,0.42311653,0.057222575,0.08415981,0.021223499,0.5759948,0.66032535,0.38415113,-0.20168713,313.005
2024-07-12,-0.045999017,-0.31989548,0.12527262,-0.06384221,0.4060818,0.03898423,0.122664414,0.021141244,0.5759506,0.6261538,0.34422922,-0.19630264,386.40775
2024-07-15,-0.03706729,-0.318998,0.12550507,-0.039068148,0.42872736,0.06424033,0.115265004,0.010983151,0.6125665,0.6559225,0.3691345,-0.19337177,202.97122
2024-07-16,-0.053535532,-0.32091054,0.13881433,-0.01194896,0.39488345,0.08301047,0.14277945,0.01590733,0.60593003,0.61498326,0.37398085,-0.13115838,271.67502
2024-07-17,-0.085173935,-0.31342164,0.15275845,0.011005744,0.38863137,0.08834306,0.15232426,-0.0020491655,0.6075253,0.59283835,0.36756527,-0.10230939,418.73236
2024-07-18,-0.1140001,-0.32352963,0.1765327,0.026356637,0.37542728,0.10361419,0.14625633,-0.025155114,0.58864754,0.5536609,0.33824387,-0.09178503,1372.3386
2024-07-19,-0.15284182,-0.30439028,0.15964068,-0.007638693,0.40273157,0.08316067,0.13252379,-0.049016673,0.5855127,0.56154484,0.3208742,-0.13925537,368.60907
2024-07-22,-0.14714912,-0.3124096,0.15016855,-0.011064392,0.4492518,0.08763334,0.10862171,-0.06888248,0.6130616,0.62680346,0.3265468,-0.1979911,192.90611
2024-07-23,-0.13906686,-0.30279016,0.13802524,0.010857493,0.47816393,0.10878544,0.0961636,-0.10555544,0.64505035,0.6785615,0.35347822,-0.19390902,333.8544
2024-07-24,-0.122561514,-0.29799852,0.13272657,-0.00509366,0.5026536,0.091143794,0.092281215,-0.10021068,0.65990525,0.7288074,0.36018127,-0.22367421,221.59715
2024-07-25,-0.15833987,-0.2863289,0.16227172,-0.012615763,0.48790357,0.066121556,0.115599975,-0.080857426,0.6384829,0.69112146,0.32717875,-0.21607998,298.9891
2024-07-26,-0.17428486,-0.24920526,0.13713318,-0.055183645,0.50209296,0.034268573,0.08574393,-0.09161423,0.6305937,0.69679844,0.33144924,-0.20552596,474.40396
2024-07-29,-0.18957184,-0.2462618,0.1454355,-0.010630924,0.513052,0.06449312,0.08876235,-0.13697784,0.6587853,0.7140375,0.36396453,-0.14917503,284.33243
2024-07-30,-0.18794379,-0.26206392,0.13809595,-0.022443857,0.5145498,0.06257116,0.09374738,-0.13179289,0.658842,0.7044515,0.3724619,-0.14301987,143.92616
2024-07-31,-0.2114298,-0.24725243,0.15867187,0.012606576,0.47769198,0.073410556,0.1083269,-0.13525495,0.6370086,0.6520753,0.3648171,-0.06715431,297.72943
2024-08-01,-0.23437102,-0.19776933,0.15841421,0.0780844,0.4945447,0.08953083,0.13258652,-0.18321559,0.669395,0.68049586,0.40254068,-0.016010199,729.70374
2024-08-02,-0.24955322,-0.2035027,0.15354696,0.030413188,0.52904344,0.046343245,0.12653033,-0.17967959,0.6657037,0.7214963,0.3663304,-0.10430917,702.3004
2024-08-05,-0.30878612,-0.20662268,0.122868754,0.028265595,0.50443184,0.060359024,0.1301215,-0.20940745,0.6045915,0.6329534,0.31488773,-0.16420439,199.50417
2024-08-06,-0.33608353,-0.19195002,0.114039995,0.0025939941,0.53716147,0.017348632,0.13094667,-0.23003961,0.6165495,0.66438764,0.3123081,-0.21924704,243.46674
2024-08-07,-0.36849752,-0.17357716,0.12033377,0.040874094,0.56702936,0.037965428,0.13336381,-0.28648803,0.6559119,0.7019804,0.33493268,-0.17649776,1690.0238
2024-08-08,-0.3788998,-0.1686239,0.1250614,0.016258404,0.57876027,0.018342666,0.122957505,-0.29784974,0.66014874,0.71344906,0.32166955,-0.18661462,147.32365
2024-08-09,-0.39844835,-0.1309618,0.14090167,0.06112948,0.56737185,0.026100092,0.14962858,-0.32220492,0.66816854,0.708264,0.33171776,-0.097848624,442.9068
2024-08-12,-0.41169295,-0.111235395,0.13319583,0.01758648,0.56047297,-0.02183672,0.15423274,-0.33249387,0.65665,0.6863311,0.30794427,-0.08382252,312.55997
2024-08-13,-0.41391918,-0.10800098,0.12500378,0.012283869,0.54623055,-0.028510824,0.16210772,-0.3270879,0.64676213,0.657487,0.31320184,-0.059751976,115.71895
2024-08-14,-0.40842336,-0.08435844,0.12496436,0.026456095,0.5489174,-0.033236496,0.16062486,-0.3301445,0.6584527,0.6631499,0.33444983,-0.024902526,225.31561
2024-08-15,-0.3998005,-0.062034145,0.12043268,0.011883803,0.51359224,-0.057295732,0.17598814,-0.30416888,0.63696826,0.60916084,0.32562578,0.041354474,463.64627
2024-08-16,-0.3831767,-0.05074756,0.11021469,0.017256487,0.50423235,-0.06323994,0.16367975,-0.31446865,0.62641054,0.61006457,0.32645252,0.0575813,139.92197
2024-08-19,-0.36500946,-0.07335678,0.091628216,-0.03211853,0.50505054,-0.0869241,0.15716285,-0.29906175,0.6183471,0.58944076,0.3074695,0.0007945569,507.87906
2024-08-20,-0.32831085,-0.06400834,0.08060489,-0.069325686,0.46242735,-0.11555385,0.16411044,-0.26614526,0.5858286,0.54712695,0.30176064,0.025918316,3383.7524
2024-08-21,-0.29986235,-0.10251875,0.062321447,-0.10397208,0.4632925,-0.12538773,0.14406049,-0.26316604,0.57785136,0.55031157,0.30374047,-0.03081398,385.01157
2024-08-22,-0.25061625,-0.11876552,0.047807056,-0.12825571,0.396006,-0.13185516,0.1365864,-0.23344603,0.52570045,0.4875223,0.30652538,0.013502833,280.25098
2024-08-23,-0.24533619,-0.1377202,0.07633612,-0.14782043,0.40333942,-0.1399942,0.16721556,-0.1979242,0.54845107,0.51121545,0.32100102,0.013243196,154.495
2024-08-26,-0.22155444,-0.13642843,0.07031136,-0.1392016,0.38169104,-0.12900671,0.1734972,-0.189061,0.5444478,0.49371788,0.34053394,0.043568354,285.02942
2024-08-27,-0.20786361,-0.13867757,0.08256703,-0.14361835,0.37544087,-0.122901775,0.16761228,-0.16917796,0.5415169,0.48510993,0.34262016,0.047795083,61.305744
2024-08-28,-0.20877196,-0.16887376,0.058506466,-0.16060923,0.370396,-0.11906543,0.15681899,-0.18888806,0.5223485,0.46786118,0.33436552,-0.0015669344,198.52086
2024-08-29,-0.20595454,-0.18482694,0.07910757,-0.1992902,0.3784058,-0.14859587,0.18559015,-0.15949911,0.52921915,0.4776693,0.33237422,-0.02687234,1749.9319
2024-08-30,-0.22471218,-0.18517587,0.09640319,-0.15784563,0.4055177,-0.12091256,0.17845449,-0.19391769,0.56694144,0.51849955,0.34479716,-0.03358153,147.55492
2024-09-03,-0.21117942,-0.18019745,0.09023055,-0.15612623,0.408063,-0.124388434,0.18025927,-0.19624516,0.57835054,0.53738743,0.35901415,-0.024368215,59.131058
2024-09-04,-0.22365789,-0.20810123,0.10206007,-0.12390122,0.46157923,-0.085121416,0.16695695,-0.18174727,0.5982131,0.59935147,0.34738475,-0.11594273,508.59384
2024-09-05,-0.24219148,-0.23093557,0.084764354,-0.10169407,0.52259517,-0.061336108,0.14483367,-0.23961727,0.64728147,0.6627355,0.35518232,-0.20121399,234.95135
2024-09-06,-0.25313288,-0.24836728,0.07920482,-0.14074203,0.55080736,-0.080276765,0.13175178,-0.25018248,0.6575612,0.6975924,0.35335523,-0.25724345,141.9502
2024-09-09,-0.27423653,-0.24176508,0.08803149,-0.16346204,0.5439956,-0.09370204,0.13312192,-0.237514,0.62347513,0.65627044,0.29940918,-0.30677032,107.97336
2024-09-10,-0.29722852,-0.24415751,0.08937547,-0.107432865,0.53374517,-0.057856508,0.13690127,-0.29114226,0.63770235,0.64217764,0.31783503,-0.23491403,144.74081
2024-09-11,-0.31323627,-0.25597087,0.08215092,-0.06607337,0.57951534,-0.03641665,0.14192489,-0.3173593,0.6635745,0.6994128,0.31740683,-0.3122388,161.13278
2024-09-12,-0.30928624,-0.2671091,0.07464846,-0.065095216,0.5864682,-0.04915493,0.15535519,-0.327188,0.6697623,0.7231298,0.3201686,-0.32688504,74.84868
2024-09-13,-0.31632054,-0.2894339,0.064974725,-0.06755014,0.5835055,-0.03380122,0.15307954,-0.35229307,0.6550061,0.699979,0.2903386,-0.36299926,94.010574
2024-09-16,-0.3401254,-0.32579336,0.057818446,-0.057172216,0.5594324,-0.0017623603,0.14718881,-0.36567855,0.615471,0.634452,0.24770465,-0.38643795,189.56273
2024-09-17,-0.3491987,-0.33630493,0.077122234,-0.038620293,0.5257933,0.005601898,0.16774991,-0.3555235,0.6108114,0.5937593,0.25216722,-0.31803083,539.0273
2024-09-18,-0.35354427,-0.33526316,0.07465243,-0.04838898,0.511426,0.000642471,0.16995218,-0.350622,0.60199803,0.5787336,0.2548257,-0.2938307,136.64316
2024-09-19,-0.34610662,-0.33692598,0.07291079,-0.05887875,0.51404107,-0.0071412846,0.17364573,-0.333793,0.602814,0.57683253,0.2550574,-0.3220411,1255.7852
2024-09-20,-0.32581818,-0.3009562,0.06492121,-0.05843798,0.47703835,-0.024771094,0.17835516,-0.3179836,0.58583,0.54724145,0.27627507,-0.2451976,329.89044
2024-09-23,-0.32734308,-0.30745295,0.06761233,-0.07212482,0.47016817,-0.032583423,0.18493779,-0.3167049,0.5789627,0.53905064,0.26494133,-0.23857898,76.734795
2024-09-24,-0.32746008,-0.30424207,0.07492415,-0.06152156,0.44325164,-0.027525239,0.18900155,-0.31338146,0.56775844,0.5075054,0.277646,-0.18548717,85.92693
2024-09-25,-0.28620028,-0.2877779,0.076684214,-0.122174,0.3843937,-0.07467499,0.22058359,-0.2509987,0.52870905,0.43572313,0.26981527,-0.14938441,383.44537
2024-09-26,-0.28252375,-0.3005017,0.0726229,-0.08447722,0.41646084,-0.044080265,0.21152975,-0.24895267,0.56062657,0.48639697,0.30294332,-0.16479972,136.35355
2024-09-27,-0.2601034,-0.3238061,0.06585419,-0.11303957,0.37001535,-0.05145382,0.20291728,-0.22009653,0.52238953,0.42127812,0.29454532,-0.15967804,128.45284
2024-09-30,-0.2711081,-0.30847493,0.09868457,-0.08938368,0.33358085,-0.029302664,0.22324798,-0.17685583,0.51361984,0.36209035,0.31637755,-0.06598289,244.1266
2024-10-01,-0.25293806,-0.28080553,0.105077334,-0.08048147,0.32125092,-0.03189818,0.23332626,-0.1444386,0.514355,0.36202627,0.33989027,-0.011395442,157.82976
2024-10-02,-0.26927677,-0.27420726,0.13293979,-0.08888209,0.32484588,-0.041463472,0.24171047,-0.12062722,0.52055967,0.35749012,0.34354824,-0.0037118671,167.91049
2024-10-03,-0.258511,-0.2502771,0.1293315,-0.07119896,0.31857136,-0.04328879,0.2557777,-0.10463853,0.5309185,0.3459313,0.37763667,0.030816343,1006.09973
2024-10-04,-0.24388449,-0.23361385,0.120965354,-0.09212466,0.30613717,-0.05346801,0.2632856,-0.06015836,0.5146242,0.32204562,0.39038858,0.044815,179.81332
2024-10-07,-0.24247764,-0.20070943,0.13326506,-0.049986996,0.2604779,-0.039076947,0.27131638,-0.058802467,0.49619716,0.2818986,0.40886417,0.1657295,408.29126
2024-10-08,-0.22160345,-0.19688365,0.13477744,-0.1476677,0.22617501,-0.115497686,0.29264483,0.009409097,0.44866732,0.22015372,0.39065325,0.14063011,590.73914
2024-10-09,-0.23175801,-0.17182301,0.12817205,-0.08484949,0.29461303,-0.08123901,0.26562914,-0.04557893,0.50907815,0.3278913,0.43110192,0.1381551,792.83386
2024-10-10,-0.25933018,-0.17419133,0.12838401,-0.043718576,0.29893216,-0.059788473,0.25712916,-0.08172286,0.5133821,0.31557935,0.4264334,0.15561247,190.605
2024-10-11,-0.226493,-0.17798102,0.12593564,-0.078345716,0.2579857,-0.08645285,0.25919476,-0.04022843,0.4763676,0.26975733,0.42842543,0.19120851,250.89474
2024-10-14,-0.19920118,-0.15659162,0.15179725,-0.054189708,0.21843454,-0.077887885,0.2783442,-0.00052075344,0.4672327,0.23917396,0.43975657,0.28046778,269.34857
2024-10-15,-0.17031798,-0.14426273,0.14923976,-0.033913787,0.23261392,-0.06997868,0.2707794,0.012080741,0.4877232,0.28460014,0.47219148,0.29724658,2537.4329
2024-10-16,-0.15300666,-0.17739946,0.14469658,-0.034750134,0.28814986,-0.06345501,0.24968812,-0.017508747,0.5239927,0.39422178,0.48262423,0.20390293,404.12787
2024-10-17,-0.14214337,-0.19946127,0.16289833,-0.028641716,0.24717505,-0.0464134,0.26868165,0.00930993,0.51190686,0.32779372,0.47934222,0.24203527,290.08774
2024-10-18,-0.11629729,-0.20471959,0.14635082,-0.04637437,0.21325883,-0.054433905,0.26805073,0.03014761,0.48078865,0.29250365,0.47047016,0.2551191,372.05
2024-10-21,-0.09803188,-0.20591469,0.13481644,-0.05402705,0.21882299,-0.04939259,0.24384487,0.035460632,0.4757793,0.30626613,0.47928038,0.24464267,90.9231
2024-10-22,-0.07176004,-0.21451806,0.13010855,-0.053527348,0.22366326,-0.044183142,0.23656291,0.05712336,0.47872782,0.32058895,0.49240842,0.22506553,128.26695
2024-10-23,-0.0682781,-0.21238822,0.11249996,-0.05433639,0.23764534,-0.039716654,0.21108615,0.05467118,0.47045222,0.34121594,0.48794705,0.18462017,79.35231
2024-10-24,-0.07720782,-0.24073517,0.1151679,-0.04219859,0.24922411,-0.01831884,0.19937891,0.04081813,0.4776773,0.35783082,0.47547433,0.1404067,173.67809
2024-10-25,-0.058970403,-0.24777144,0.1046016,-0.07337006,0.24891302,-0.02896107,0.18022189,0.051721845,0.47290924,0.35971555,0.4888085,0.13052443,215.49539
2024-10-28,-0.039034594,-0.23358692,0.093343265,-0.06147723,0.27022943,-0.015965931,0.16823769,0.06948152,0.4845505,0.39866734,0.5068113,0.11657152,188.5882
2024-10-29,-0.042686116,-0.26115566,0.10126732,-0.042372063,0.24116923,0.005627468,0.17263964,0.06706194,0.4710161,0.3532236,0.49762514,0.1296624,240.05695
2024-10-30,-0.02853712,-0.23947468,0.09162942,-0.03364481,0.3077417,-0.0031064227,0.16910176,0.05767471,0.5242176,0.46796393,0.5317851,0.08022722,359.18423
2024-10-31,-0.06876286,-0.2337871,0.1024445,-0.022827916,0.31970158,0.010827087,0.16867328,0.035270717,0.530651,0.47344768,0.5248579,0.10273942,710.57385
2024-11-01,-0.08220492,-0.26172087,0.13109984,-0.053423308,0.36633977,-0.0009969845,0.18735455,0.056556817,0.55375177,0.5172635,0.46348584,-0.043752518,556.6039
2024-11-04,-0.11792286,-0.25328332,0.10311732,0.0037608743,0.43085453,0.032432392,0.13420618,-0.029721411,0.6016465,0.6036981,0.50546205,-0.03813829,3773.8838
2024-11-05,-0.1404181,-0.2555562,0.090173,-0.03726892,0.4166235,0.008832313,0.15043855,-0.040330533,0.57480943,0.557383,0.4820296,-0.049702693,1294.4419
2024-11-06,-0.16199648,-0.23420045,0.096125074,0.03728597,0.41704115,0.048327647,0.16260335,-0.058578704,0.59324104,0.55162364,0.4964508,-0.007961038,822.18616
2024-11-07,-0.23235379,-0.21964395,0.1301107,0.14015785,0.3161607,0.092413686,0.21832803,-0.10519102,0.53489053,0.39870948,0.4526926,0.15030864,2624.5815
2024-11-08,-0.24172793,-0.24470247,0.13743007,0.117012605,0.4000484,0.061028183,0.21673061,-0.15073314,0.5887697,0.48853663,0.41727638,-0.009040612,288.5444
2024-11-11,-0.2692475,-0.25909987,0.12916134,0.08361191,0.40575084,0.05373171,0.2005618,-0.19888651,0.5689321,0.4696846,0.35936317,-0.053934533,622.30475
2024-11-12,-0.25196692,-0.2792815,0.1456386,0.07153206,0.42472175,0.043998517,0.20228344,-0.19914652,0.5950626,0.512839,0.35622293,-0.07694061,122.501205
2024-11-13,-0.22452113,-0.26309672,0.12792057,0.07116574,0.42788753,0.039113835,0.1834418,-0.19928074,0.59151757,0.54092586,0.372315,-0.074351214,64.550156
2024-11-14,-0.21321839,-0.26276475,0.1224016,0.03096971,0.4522472,0.01522316,0.17249253,-0.19208054,0.5963319,0.5844038,0.3637275,-0.12778817,225.34082
2024-11-15,-0.20442967,-0.2753138,0.11434921,-0.010900877,0.43010253,0.0039705783,0.16719346,-0.17263854,0.5688298,0.5431868,0.35358247,-0.13277419,261.03854
2024-11-18,-0.21537106,-0.30927095,0.15605856,-0.025064029,0.4372069,-0.0076721236,0.19338979,-0.16438614,0.5777586,0.5488478,0.31879982,-0.181093,548.25366
2024-11-19,-0.20129837,-0.31210473,0.12838234,-0.08648324,0.42334664,-0.034134172,0.15588105,-0.19196875,0.5477085,0.5282967,0.29838756,-0.19234495,676.05237
2024-11-20,-0.18479578,-0.30640748,0.11788955,-0.08634116,0.4431431,-0.029401876,0.1505149,-0.18174367,0.560098,0.56952566,0.31795394,-0.21239194,72.71574
2024-11-21,-0.19421428,-0.28991032,0.13383324,-0.082468614,0.45245263,-0.04052431,0.1696828,-0.1600066,0.5737532,0.5809842,0.32421437,-0.19813217,106.24797
2024-11-22,-0.2212125,-0.2966467,0.13315056,-0.06908055,0.44632378,-0.02604381,0.16077122,-0.19775066,0.5620663,0.5731297,0.2976747,-0.1987832,110.80079
2024-11-25,-0.23253848,-0.30769798,0.12556334,-0.084660314,0.48607638,-0.026978783,0.13767162,-0.22987705,0.58324176,0.62090796,0.29777744,-0.2569549,121.609436
2024-11-26,-0.2560847,-0.3246108,0.15278386,-0.027136102,0.48888645,0.0047989488,0.14912434,-0.25948063,0.60752517,0.6197856,0.30738655,-0.22461574,264.96768
2024-11-27,-0.24707113,-0.32803518,0.13671288,-0.02773638,0.5140735,0.0040317923,0.13180354,-0.28522184,0.6236058,0.667203,0.31711182,-0.25898618,88.74196
2024-11-29,-0.24821202,-0.34341452,0.14262536,-0.024064615,0.51641524,0.005967416,0.14243698,-0.2926694,0.6222789,0.66239923,0.29990253,-0.2749675,94.386604
2024-12-02,-0.24860196,-0.34343967,0.13746743,-0.016619854,0.52486014,0.015431814,0.14093247,-0.31116498,0.633641,0.6733363,0.30298725,-0.27978033,208.58578
2024-12-03,-0.25573778,-0.34718296,0.13738693,-0.007931933,0.5342654,0.019832216,0.14917496,-0.3103176,0.64180756,0.6967978,0.30822936,-0.28651667,101.63224
2024-12-04,-0.23698074,-0.35424235,0.1238445,-0.03699459,0.5575615,0.0025242344,0.13856071,-0.30963805,0.6501505,0.73539585,0.2990087,-0.3458751,515.1405
2024-12-05,-0.20160113,-0.3435932,0.08848472,-0.07567725,0.5895376,-0.03120491,0.10088268,-0.30381283,0.65363246,0.78732544,0.31243968,-0.4265585,1557.488
2024-12-06,-0.19108415,-0.36300194,0.06311233,-0.11959175,0.55172527,-0.038665198,0.095323056,-0.27173492,0.6063108,0.74202985,0.29995763,-0.40352595,166.34676
2024-12-09,-0.19092382,-0.3689503,0.06352371,-0.09131684,0.5574089,-0.011920221,0.084311,-0.28977212,0.61402977,0.7693097,0.30970246,-0.4205466,126.8244
2024-12-10,-0.19911693,-0.4198698,0.062326033,-0.09672151,0.55734277,-0.002067022,0.09413917,-0.29804155,0.60971963,0.75869375,0.28524742,-0.47434157,145.84854
2024-12-11,-0.1892926,-0.42565042,0.066721015,-0.04955253,0.5785531,0.053988647,0.07341396,-0.30398107,0.6287821,0.7979986,0.31057206,-0.48268119,2820.792
2024-12-12,-0.17419787,-0.40772513,0.06053644,-0.025550433,0.56626356,0.08686216,0.07252337,-0.285757,0.62179077,0.7955628,0.32159513,-0.4546231,150.89403
2024-12-13,-0.1994838,-0.42268726,0.06751612,-0.02233155,0.53997386,0.09195189,0.078235425,-0.2677642,0.59477645,0.7418693,0.29937816,-0.45555794,85.19579
2024-12-16,-0.19504459,-0.39416113,0.0784797,0.029156312,0.4822062,0.12964387,0.094662674,-0.21386091,0.56928265,0.6593683,0.3111528,-0.37613752,385.3646
2024-12-17,-0.21296965,-0.39149392,0.06311754,0.011393342,0.4861292,0.1181065,0.07772778,-0.23700716,0.5603334,0.6613521,0.3119138,-0.36168396,134.75055
2024-12-18,-0.20136082,-0.393356,0.074201174,0.023900792,0.4864232,0.12415121,0.081896074,-0.22260457,0.571803,0.6682294,0.3183817,-0.358985,155.79013
2024-12-19,-0.22615708,-0.3929196,0.1059559,0.03889911,0.48097703,0.124929965,0.12772536,-0.18350637,0.5865029,0.6489008,0.30990502,-0.37438363,205.65952
2024-12-20,-0.21929474,-0.40579534,0.109645136,0.06277899,0.4991124,0.14696422,0.11309412,-0.21469061,0.6142493,0.67404425,0.33059043,-0.36101913,139.8891
2024-12-23,-0.22748712,-0.40314615,0.10536497,0.0852749,0.46061966,0.15904763,0.11467216,-0.19738895,0.5899358,0.6229752,0.3396944,-0.30064768,100.52537
2024-12-24,-0.20413604,-0.37845924,0.11469462,0.106657326,0.4548542,0.17022872,0.12925178,-0.17511548,0.6011512,0.61995643,0.35319808,-0.25393817,104.49481
2024-12-26,-0.20668821,-0.38174832,0.119357064,0.14670436,0.44266427,0.19723335,0.124288894,-0.19196004,0.6007475,0.6127804,0.3654619,-0.20361784,100.247154
2024-12-27,-0.20302662,-0.39228562,0.114200965,0.14566118,0.39546737,0.19686237,0.12925416,-0.16658151,0.56719613,0.5451259,0.3567885,-0.16277285,76.68699
2024-12-30,-0.1954725,-0.38928142,0.118646614,0.12155315,0.40114507,0.17753953,0.14098394,-0.14651588,0.5727256,0.5542543,0.34238544,-0.19147062,81.61862
2024-12-31,-0.17904095,-0.37235948,0.11642281,0.105581805,0.4401603,0.16380924,0.13764507,-0.14626656,0.602666,0.61266977,0.350551,-0.23742005,89.915016
2025-01-02,-0.16341728,-0.34268188,0.11914817,0.105069205,0.44065294,0.15576103,0.136057,-0.14603554,0.6127277,0.6269513,0.3565504,-0.1965917,48.768288
2025-01-03,-0.15525939,-0.31461817,0.10693152,0.09127259,0.4471455,0.14190874,0.12092839,-0.13102557,0.6104871,0.6413711,0.3655977,-0.1980967,74.29876
2025-01-06,-0.14731172,-0.29682872,0.104395434,0.10929105,0.43158257,0.15420315,0.11067103,-0.12645534,0.59940445,0.6121828,0.37591177,-0.16067627,85.07809
2025-01-07,-0.15188141,-0.2898887,0.096538514,0.10569003,0.44275805,0.14428973,0.1076917,-0.13013338,0.60290426,0.62897664,0.38688928,-0.17142448,43.816685
2025-01-08,-0.15450703,-0.28909513,0.119431175,0.087559715,0.43026176,0.11149649,0.11593537,-0.12684102,0.6059588,0.6249821,0.37068707,-0.15030502,96.25433
2025-01-10,-0.16353549,-0.2889049,0.13381203,0.13450117,0.45464602,0.14077649,0.12584968,-0.14687078,0.6433069,0.65602773,0.40791908,-0.12655817,164.8062
2025-01-13,-0.18740067,-0.29460177,0.14906482,0.12726451,0.50155365,0.13260938,0.1430099,-0.16531713,0.67442876,0.7244914,0.39242378,-0.19834137,151.45016
2025-01-14,-0.2054926,-0.28409663,0.17039375,0.1786018,0.47543293,0.15979245,0.16102263,-0.1646051,0.6798188,0.68062276,0.41079277,-0.10802802,163.66977
2025-01-15,-0.21435352,-0.29719344,0.16878732,0.18981653,0.45764852,0.17586759,0.14722052,-0.17615817,0.66689235,0.64487153,0.41008714,-0.09201379,67.68496
2025-01-16,-0.22996786,-0.26299587,0.18381962,0.24257109,0.4571008,0.18872955,0.15987375,-0.20330396,0.67912054,0.6507502,0.44339147,-0.006306204,190.94041
2025-01-17,-0.2198443,-0.28266874,0.18166393,0.2074494,0.4354957,0.14733022,0.18519138,-0.18710016,0.67006546,0.63854986,0.4352893,-0.0026908992,140.36754
2025-01-21,-0.24138911,-0.26406437,0.1783713,0.22498527,0.44203043,0.15362501,0.17202066,-0.24997248,0.6608693,0.6438857,0.41853806,0.009395537,528.352
2025-01-22,-0.2426291,-0.26171613,0.16895488,0.22323665,0.42586657,0.14447597,0.18338318,-0.25070402,0.64875764,0.60632867,0.41334242,0.035330396,308.9102
2025-01-23,-0.22420724,-0.255061,0.14633168,0.20558932,0.41227788,0.13907656,0.1659542,-0.22829153,0.6281021,0.5892423,0.41806176,0.03960828,76.054634
2025-01-24,-0.19341491,-0.25300837,0.15182035,0.20838116,0.3934107,0.13891575,0.1647447,-0.21623789,0.6182378,0.57357484,0.40319893,0.04782993,58.890133
2025-01-27,-0.17537577,-0.2746855,0.16471758,0.20666204,0.4005319,0.13452585,0.17406555,-0.20680794,0.6325341,0.5960076,0.40273282,0.018981118,108.857796
2025-01-28,-0.22774506,-0.26202542,0.1964034,0.22209075,0.4018014,0.13648614,0.14912395,-0.25243682,0.6068643,0.5775923,0.35875142,-0.015699353,300.11777
2025-01-29,-0.21662043,-0.27538788,0.16087267,0.17562021,0.43282232,0.10222723,0.13754301,-0.25862703,0.6303563,0.6218959,0.386801,-0.03929233,261.6785
2025-01-30,-0.20939751,-0.28811163,0.15727885,0.15725522,0.4156213,0.096346684,0.13007584,-0.2670816,0.61086476,0.5918859,0.35904258,-0.052068014,86.67898
2025-01-31,-0.22821836,-0.2923585,0.16334085,0.17325209,0.43042895,0.11150029,0.15166001,-0.2762003,0.6222253,0.5981341,0.35341272,-0.075007364,112.327614
2025-02-03,-0.23546799,-0.3240719,0.1690136,0.14902644,0.47847357,0.09439812,0.15389368,-0.2988874,0.65891194,0.6612218,0.35124385,-0.15704027,194.09062
2025-02-04,-0.2736027,-0.32594633,0.15685101,0.13608581,0.49942037,0.09217265,0.1338899,-0.34361884,0.6504175,0.6673766,0.3225257,-0.20237145,106.61521
2025-02-05,-0.2809572,-0.30651346,0.13974054,0.09771596,0.49989447,0.06401299,0.13236721,-0.3552295,0.64031583,0.6532044,0.31015444,-0.19547816,93.8349
2025-02-06,-0.28911808,-0.32447296,0.12072366,0.07309553,0.47933367,0.06385955,0.1428864,-0.3566642,0.6128564,0.6063033,0.27554664,-0.21030359,90.4832
2025-02-07,-0.27292702,-0.32489768,0.10596411,0.04376693,0.47230324,0.045929067,0.13229549,-0.35776898,0.5934783,0.60321486,0.2506512,-0.22299753,114.08943
2025-02-10,-0.26944456,-0.33147457,0.10912701,0.014270455,0.4603401,0.034361042,0.1514702,-0.3168075,0.5812424,0.5903731,0.22424059,-0.25468743,156.2805
2025-02-11,-0.2800286,-0.29919398,0.11013134,0.03877902,0.51331997,0.027646229,0.14822684,-0.35447395,0.62874097,0.66572136,0.27639902,-0.24870485,277.95547
2025-02-12,-0.27345785,-0.29596177,0.11184206,0.029405102,0.49359706,0.015097044,0.15916303,-0.347239,0.6191621,0.6393389,0.26707375,-0.22293821,107.02672
2025-02-13,-0.26318726,-0.29880992,0.06411517,-0.031140618,0.46329746,-0.013531633,0.14986357,-0.32621518,0.5643426,0.5890407,0.22912309,-0.24966836,503.88135
2025-02-14,-0.259102,-0.2942174,0.065004334,-0.025727108,0.4685633,-0.0047206506,0.14144889,-0.32617265,0.5709065,0.5975044,0.23894145,-0.24586377,102.14758
2025-02-18,-0.22264051,-0.3015417,0.05407506,-0.060976133,0.42231816,-0.021106325,0.14446172,-0.28137922,0.5326484,0.54183453,0.235868,-0.22284319,569.8926
2025-02-19,-0.21649565,-0.27199006,0.05801627,-0.08828094,0.41993463,-0.049863167,0.14736693,-0.26205128,0.53448987,0.55333716,0.2569475,-0.1923101,235.42723
2025-02-20,-0.19811682,-0.25867522,0.05378156,-0.08514397,0.41734743,-0.04624822,0.13853337,-0.2486948,0.53584677,0.5593275,0.27189848,-0.1741109,59.812748
2025-02-21,-0.17951457,-0.22817749,0.06121131,-0.10773876,0.44908652,-0.070504464,0.15250748,-0.20668262,0.55839163,0.6190868,0.2842215,-0.2145794,191.23112
2025-02-24,-0.20560466,-0.2423331,0.07623694,-0.09458119,0.4784917,-0.057802506,0.16608343,-0.19746979,0.58734006,0.65216273,0.29440877,-0.25206092,126.99864
2025-02-25,-0.20623864,-0.23798603,0.07997937,-0.07746518,0.5165176,-0.043323465,0.14307186,-0.20728604,0.6206064,0.70035374,0.307058,-0.28409037,106.987236
2025-02-26,-0.23219603,-0.22420287,0.09381734,-0.03264369,0.5486716,-0.017309316,0.1359872,-0.24055669,0.6469826,0.7388155,0.32147405,-0.29534996,199.21376
2025-02-27,-0.21497425,-0.20728903,0.096884675,-0.032388717,0.5424626,-0.02824115,0.1538819,-0.21846332,0.65952355,0.7419983,0.33552074,-0.25387794,126.42257
2025-02-28,-0.24791344,-0.20585978,0.110418014,-0.023484163,0.54102373,-0.02186016,0.15585734,-0.22802033,0.6538631,0.7272171,0.31791198,-0.2578819,95.66711
2025-03-03,-0.27607653,-0.18178591,0.111398704,0.020004045,0.5309695,0.001822032,0.1581921,-0.26130527,0.65148455,0.7006552,0.3324109,-0.1854892,372.06122
2025-03-04,-0.29002005,-0.19758148,0.085996486,-0.022902615,0.5217118,-0.018516392,0.1473527,-0.24791776,0.61777204,0.6699106,0.3038369,-0.24133362,1429.2661
2025-03-05,-0.2931499,-0.17275397,0.08777156,-0.014729522,0.5650357,-0.029333271,0.1525089,-0.2560138,0.6536502,0.72666764,0.32613248,-0.28267628,163.63109
2025-03-06,-0.29678613,-0.16671753,0.09093008,0.016927809,0.57166445,-0.013196886,0.15213476,-0.28100136,0.6721703,0.744435,0.33801034,-0.24566793,311.45935
2025-03-07,-0.32023188,-0.16597185,0.09677864,-0.006341815,0.55975807,-0.03357888,0.16760358,-0.26871067,0.6569776,0.70864415,0.31220037,-0.2536322,341.25867
2025-03-10,-0.34020916,-0.14736633,0.08566504,-0.016139738,0.52290225,-0.03617791,0.1638881,-0.26356706,0.62187105,0.6360723,0.29490146,-0.20793495,241.02711
2025-03-11,-0.37520146,-0.122599624,0.07436684,-0.052214146,0.5304487,-0.053692423,0.15441594,-0.26379034,0.6065672,0.6176062,0.26992813,-0.2188712,338.60513
2025-03-12,-0.37721497,-0.104250595,0.07519568,-0.028111137,0.5448705,-0.046923988,0.15874651,-0.2723533,0.62844014,0.63651925,0.2972591,-0.19811748,110.43074
2025-03-13,-0.37674376,-0.07471433,0.06292197,-0.034531333,0.55326974,-0.06258575,0.15374492,-0.2679532,0.63671124,0.64920884,0.31880414,-0.17581159,129.11908
2025-03-14,-0.38743684,-0.07462034,0.06490163,-0.029811524,0.53821325,-0.060270526,0.15807189,-0.258599,0.6105633,0.6227449,0.29628855,-0.17019752,50.94329
2025-03-17,-0.40912914,-0.036277846,0.07573318,0.024300653,0.5165231,-0.042514257,0.17356323,-0.25936094,0.6120736,0.598543,0.34295124,-0.051695947,388.2803
2025-03-18,-0.42109337,-0.026286766,0.08560937,0.037803344,0.50405526,-0.045707442,0.193097,-0.26341155,0.6108027,0.5730115,0.34338218,-0.008675563,209.62863
2025-03-19,-0.41850796,-0.020820051,0.088478364,0.041658796,0.5113809,-0.050098576,0.19568317,-0.24963772,0.6283558,0.58302426,0.36438674,0.006784332,241.52773
2025-03-20,-0.4193739,0.0037233382,0.08894899,0.058594033,0.4759591,-0.05620212,0.20182824,-0.247942,0.60793334,0.53893083,0.38383105,0.09263484,1463.7762
2025-03-21,-0.4074492,0.024186745,0.08609311,0.050354525,0.45821688,-0.08073541,0.20127602,-0.2255359,0.6019606,0.5237172,0.3926786,0.13679403,680.18524
2025-03-24,-0.40836158,0.021154255,0.09274886,0.0726451,0.4588002,-0.065796904,0.20096263,-0.2296185,0.61192495,0.5364467,0.40663347,0.15721418,107.92345
2025-03-25,-0.39094913,0.025847495,0.08611848,0.07247612,0.4235256,-0.062445037,0.19452333,-0.22098772,0.584219,0.508242,0.40136078,0.21533754,101.62966
2025-03-26,-0.38241848,0.03313309,0.07497413,0.06610586,0.41281822,-0.08059157,0.19056511,-0.21744725,0.5770425,0.49516675,0.41036543,0.23422205,102.13846
2025-03-27,-0.4045025,0.018433884,0.0865457,0.041172452,0.38230905,-0.101175986,0.20598976,-0.21688914,0.5577914,0.43046364,0.4049447,0.2586406,172.72281
2025-03-28,-0.3906438,0.000108227134,0.08225127,0.035544597,0.36812845,-0.09381788,0.1860499,-0.22254434,0.53867096,0.41300678,0.39101696,0.24525148,160.83861
2025-03-31,-0.39964816,0.0016667992,0.095019914,0.030070484,0.38349423,-0.09622187,0.2255916,-0.19138509,0.5572067,0.4161752,0.40086147,0.20977919,1536.5038
2025-04-01,-0.42801943,0.009001106,0.09411495,0.032540224,0.37995428,-0.10667195,0.21335809,-0.21650769,0.5459455,0.40574747,0.40234217,0.23585251,503.946
2025-04-02,-0.43149328,0.008337706,0.078572065,0.02165959,0.40337357,-0.111476324,0.19755527,-0.22889201,0.56016415,0.42762122,0.4136571,0.21010503,103.65286
2025-04-03,-0.43041447,0.008901358,0.07415138,0.0019087531,0.39093342,-0.12427745,0.20971927,-0.21956241,0.5512598,0.41140085,0.41659066,0.22809562,143.27917
2025-04-04,-0.44001153,-0.04601772,0.090046145,0.058916874,0.43456995,-0.045403652,0.22317377,-0.2142636,0.5637761,0.46115404,0.3899632,0.08910859,3792.454
2025-04-07,-0.46574554,-0.0660813,0.09389389,0.014370244,0.48411304,-0.06994312,0.22385594,-0.23640308,0.57044333,0.5114005,0.3333764,-0.03286055,368.88303
2025-04-08,-0.49068353,-0.030041799,0.09112121,0.023761496,0.49078918,-0.07264333,0.2188589,-0.25886413,0.56080806,0.5230378,0.32714927,-0.009835216,221.07307
2025-04-09,-0.49529704,-0.047296956,0.111009054,0.066276446,0.5032029,-0.043253116,0.23554398,-0.27331775,0.58805585,0.5379365,0.33910748,-0.0041440753,384.54892
2025-04-10,-0.48757726,-0.012324542,0.11791814,0.12207191,0.44591933,-0.0153386295,0.24306224,-0.2791065,0.5406924,0.49537504,0.34031588,0.12540227,3389.526
2025-04-11,-0.5104331,-0.060414582,0.1063991,0.087581694,0.48576835,-0.028201826,0.2399826,-0.3194622,0.55047566,0.5049315,0.29893336,0.022064652,639.73486
2025-04-14,-0.5078442,-0.05551374,0.10674159,0.091824174,0.45532414,-0.029190652,0.24843949,-0.31814176,0.5336965,0.46456468,0.30653682,0.093092635,362.9905
2025-04-15,-0.5107748,-0.067560524,0.10272484,0.07664414,0.46112907,-0.03521344,0.24194577,-0.33379814,0.5327643,0.47306466,0.29033214,0.078758895,94.702774
2025-04-16,-0.5023048,-0.07244982,0.10320896,0.07810858,0.45081598,-0.03799144,0.2443036,-0.3438421,0.5302123,0.4676145,0.28451356,0.10334252,60.235172
2025-04-17,-0.50530213,-0.101087525,0.09864058,0.06554411,0.44136477,-0.03273675,0.24196652,-0.34594792,0.5139123,0.44278884,0.26524115,0.07500099,120.71529
2025-04-21,-0.48639452,-0.06634922,0.10672348,0.05453086,0.45407555,-0.050016515,0.23878536,-0.34578037,0.5299693,0.5002304,0.25751987,0.07311353,141.6553
2025-04-22,-0.49817345,-0.07062435,0.10816448,0.030500427,0.46117932,-0.061093695,0.23854977,-0.3336789,0.53521425,0.5013615,0.24552846,0.063067466,101.20542
2025-04-23,-0.48468548,-0.056283563,0.09119354,0.012289222,0.42238235,-0.08118396,0.21690956,-0.33158854,0.51223874,0.4618159,0.27457783,0.13647379,289.81122
2025-04-24,-0.45525023,-0.027316183,0.08574173,0.014968723,0.3600334,-0.0956242,0.22625302,-0.30085012,0.47259694,0.39859775,0.28043976,0.22414498,219.25096
2025-04-25,-0.42833784,-0.013102815,0.07540844,0.008796867,0.32542312,-0.10113483,0.22658871,-0.27780834,0.44855368,0.36738756,0.291975,0.2624299,168.52196
2025-04-28,-0.40083236,0.0052680373,0.06255057,-0.010506175,0.303412,-0.11812001,0.22271664,-0.25166082,0.4309383,0.3490763,0.29688743,0.28045648,435.25095
2025-04-29,-0.38858926,-0.010541305,0.06409351,-0.005554825,0.32380965,-0.11486877,0.21712369,-0.24187107,0.45898813,0.37426808,0.31462705,0.2490803,399.51343
2025-04-30,-0.3634768,-0.0064041764,0.055310134,-0.005654257,0.28775957,-0.110710554,0.21643221,-0.22993352,0.4321462,0.3453382,0.31350002,0.28348613,108.95951
2025-05-01,-0.34489927,-0.020100653,0.04457233,0.008077547,0.2935002,-0.0968538,0.2116619,-0.20911339,0.43850493,0.35241807,0.3348087,0.25995848,525.63855
2025-05-02,-0.32573068,-0.016971722,0.0054442743,-0.013151914,0.26450306,-0.083372094,0.1698856,-0.20036991,0.38084882,0.31249937,0.32011175,0.24392891,454.47946
2025-05-05,-0.30954543,-0.037440464,-0.0019387743,-0.01865891,0.23171902,-0.072407715,0.17307809,-0.19072084,0.35416856,0.26108685,0.32140592,0.25287068,362.8254
2025-05-06,-0.29802942,-0.07024592,-0.016234756,-0.04373074,0.21989283,-0.077254735,0.16701968,-0.18377446,0.33858994,0.24070087,0.3139239,0.207701,1014.41974
2025-05-07,-0.28918496,-0.09032482,-0.02242181,-0.053195477,0.25335437,-0.077271126,0.1543194,-0.19187981,0.37096727,0.29440978,0.33074877,0.16512755,176.29044
2025-05-08,-0.2614669,-0.08508338,-0.02993872,-0.054520123,0.23263268,-0.07024758,0.1406375,-0.17948268,0.35647607,0.2781895,0.33297935,0.18521838,106.25517
2025-05-09,-0.25050864,-0.10592565,-0.04465563,-0.10131898,0.19972867,-0.07443444,0.13219638,-0.16463505,0.31819144,0.22874103,0.30974972,0.17783315,237.5392
2025-05-12,-0.24158357,-0.13749024,-0.05243739,-0.12524748,0.16718088,-0.06754025,0.12542702,-0.15429042,0.28690583,0.17307024,0.2993723,0.16798514,154.42519
2025-05-13,-0.236839,-0.12610607,-0.030478109,-0.07150015,0.18960135,-0.038718633,0.1369094,-0.15186934,0.3258167,0.22307466,0.32912418,0.20235166,234.6929
2025-05-14,-0.23148654,-0.15723386,-0.019776173,-0.098885655,0.16387512,-0.057042606,0.15892798,-0.13590941,0.31150556,0.18006028,0.32315192,0.17771316,225.51036
2025-05-15,-0.2137744,-0.17806423,-0.02193084,-0.10455527,0.1876393,-0.042507045,0.154736,-0.12416558,0.33629242,0.21164349,0.32188138,0.124434635,144.66087
2025-05-16,-0.22419088,-0.18031706,-0.008574831,-0.08856621,0.19450533,-0.03561581,0.16029565,-0.13793395,0.34235945,0.22628336,0.3136996,0.110796124,139.1073
2025-05-19,-0.21828236,-0.18840337,-0.003991994,-0.06813338,0.2268979,-0.02743157,0.15124132,-0.15282549,0.37355447,0.27617678,0.32167283,0.073540315,207.04169
2025-05-20,-0.21667305,-0.22425783,0.001035166,-0.02660425,0.26203078,0.011940964,0.14330015,-0.16094543,0.41003835,0.3212412,0.34642288,0.026949178,473.3622
2025-05-21,-0.20413001,-0.25396872,-0.0026525212,-0.04017905,0.280953,0.0148802325,0.14194974,-0.15067674,0.4247846,0.34392357,0.35382816,-0.03450988,706.31274
2025-05-22,-0.20137174,-0.2865581,0.0040381597,-0.05940806,0.28952596,0.021887425,0.15128334,-0.13090287,0.42987874,0.3520134,0.34813973,-0.08713305,541.7672
2025-05-23,-0.17198236,-0.307327,-0.009215667,-0.072804295,0.30022284,0.024597503,0.12173022,-0.13980499,0.43429703,0.37394148,0.35082063,-0.1317478,474.24857
2025-05-27,-0.15254156,-0.3344452,-0.0010149209,-0.09111906,0.28754613,0.028257709,0.12622458,-0.10814379,0.42446738,0.357728,0.33879405,-0.162928,213.4065
2025-05-28,-0.15638667,-0.3196561,0.00773145,-0.018519461,0.32534644,0.07513875,0.111779235,-0.14103152,0.4669457,0.42322668,0.3667089,-0.14038976,1219.6929
2025-05-29,-0.14277974,-0.35308102,0.02256158,-0.007281944,0.34449077,0.08725613,0.12129833,-0.13322659,0.49586347,0.46150517,0.36806944,-0.175282,348.1759
2025-05-30,-0.12122299,-0.35933828,0.014983681,-0.016721904,0.35653716,0.088623405,0.098732114,-0.13469712,0.49937516,0.48233604,0.36720535,-0.2083418,229.182
2025-06-02,-0.15928654,-0.36377528,0.037831306,0.032223567,0.41739935,0.116823435,0.091652125,-0.18954378,0.54722124,0.5652726,0.36979988,-0.24166812,618.0789
2025-06-03,-0.16701864,-0.35780355,0.04663099,0.04478077,0.4233429,0.1253436,0.09231089,-0.19442047,0.5546599,0.57292724,0.37027484,-0.2353058,86.2085
2025-06-04,-0.14342524,-0.34671253,0.04389624,0.040847495,0.4108475,0.11455804,0.09335846,-0.18442146,0.5479408,0.57034683,0.36736685,-0.21325018,61.528553
2025-06-05,-0.11753799,-0.35992667,0.048532482,0.032397866,0.4354079,0.117876105,0.083216205,-0.18697411,0.5662436,0.62457144,0.3638804,-0.2558624,108.00941
2025-06-06,-0.10076381,-0.35702142,0.07322682,0.034143463,0.46854377,0.104785115,0.10016889,-0.1791453,0.61033374,0.69868773,0.37841004,-0.2611645,140.34192
2025-06-09,-0.10763003,-0.3225519,0.08462098,0.07058791,0.45265812,0.12591293,0.094316654,-0.16893697,0.6102206,0.68032163,0.40748832,-0.18221974,214.42181
2025-06-10,-0.09209901,-0.30852252,0.074147336,0.03617786,0.43073168,0.090153456,0.09154163,-0.15018848,0.5902203,0.6521421,0.39420563,-0.16797185,145.68703
2025-06-11,-0.07736698,-0.29366973,0.087451555,0.04806371,0.42213485,0.095497,0.1052206,-0.12397379,0.59727126,0.6494228,0.4031327,-0.13365266,136.23508
2025-06-12,-0.075783834,-0.279097,0.09818632,0.053966418,0.39663813,0.093444675,0.13068146,-0.09117935,0.5943813,0.6169657,0.41756982,-0.08231943,137.8749
2025-06-13,-0.055037882,-0.26605418,0.09447885,0.066735126,0.4127876,0.09971465,0.12523374,-0.07352835,0.61050415,0.64479405,0.43953842,-0.08939256,114.86988
2025-06-16,-0.060794342,-0.26060027,0.12454841,0.03897126,0.4365395,0.08098301,0.15373059,-0.039621253,0.62626594,0.6724078,0.42103747,-0.13905856,245.98032
2025-06-17,-0.037801426,-0.25037438,0.120135784,0.06371105,0.43592268,0.0936794,0.13705534,-0.037710194,0.6488464,0.69519085,0.45829794,-0.09489037,187.86516
2025-06-18,-0.036579397,-0.2557633,0.11805942,0.05408354,0.42807665,0.090738855,0.14412364,-0.019837232,0.639944,0.6724652,0.46030214,-0.09442295,85.28723
2025-06-20,-0.020888548,-0.25577873,0.13155791,0.052162245,0.41931558,0.076587796,0.16910055,0.010130328,0.6445258,0.67139477,0.47369984,-0.094621025,247.92238
2025-06-23,-0.033185955,-0.26896393,0.13228741,0.024927337,0.41542497,0.06575832,0.16443229,0.014296022,0.6393891,0.654508,0.47384238,-0.09783704,182.4834
2025-06-24,-0.059925985,-0.28599074,0.12706995,0.068239465,0.42694265,0.09358441,0.15905923,-0.033749882,0.6505764,0.66691065,0.47493672,-0.11205441,667.4464
2025-06-25,-0.040892366,-0.27094507,0.13362984,0.11059275,0.41811654,0.115834355,0.16665354,-0.019599559,0.6631177,0.6648142,0.5058108,-0.05753504,234.19211
2025-06-26,-0.007369158,-0.26156598,0.13805407,0.051846936,0.41434082,0.06467747,0.18294482,0.01737365,0.6549057,0.6781967,0.49986938,-0.06286495,399.04584
2025-06-27,-0.0023388388,-0.23749435,0.14102729,0.046850666,0.40058863,0.049025156,0.18795331,0.03509296,0.64794844,0.66484517,0.5058157,-0.020029593,293.8611
