Date,ADBE,AMZN,AVGO,CAT,COST,JPM,LLY,MA,MSFT,NVDA,UNH,XOM,total
2023-01-03,-0.2547679,-0.31988317,0.016660085,-0.020020254,0.045778178,-0.10170999,0.25543633,-0.20646958,0.16891259,0.45415935,0.042697117,0.20723668,0.0
2023-01-04,-0.19035992,-0.23111148,-0.025838362,-0.0059687644,0.009512456,-0.05632,0.15611541,-0.11786286,0.14227927,0.2297255,0.032345008,0.18878436,682.29
2023-01-05,-0.21646874,-0.26675296,-0.036857918,-0.015082441,0.04651937,-0.06528476,0.19815639,-0.14338697,0.16053987,0.3029233,0.037313983,0.15178746,757.67126
2023-01-06,-0.2115797,-0.25498584,-0.021662468,-0.014781915,0.022036696,-0.05806994,0.1819451,-0.12873545,0.15296385,0.2693222,0.045572203,0.18025512,188.66699
2023-01-09,-0.23654954,-0.28413296,-0.0316588,-0.0112404525,0.052081622,-0.06192429,0.20657052,-0.14912882,0.16181901,0.3083488,0.047524597,0.15882398,302.14337
2023-01-10,-0.20183156,-0.2609063,-0.050997734,0.00059906393,0.10209844,-0.051073115,0.19272597,-0.15740927,0.17505196,0.33636597,0.039030716,0.04211754,423.69785
2023-01-11,-0.2194483,-0.28414875,-0.057817116,0.0017495081,0.12658629,-0.05407637,0.2108541,-0.17372227,0.18336284,0.38320985,0.042844202,0.011866607,372.95312
2023-01-12,-0.19815575,-0.26146585,-0.053431988,0.011639424,0.13873123,-0.04847264,0.19665422,-0.17886668,0.18630701,0.394219,0.03602149,-0.031012423,1001.9645
2023-01-13,-0.21934202,-0.28789556,-0.061969608,0.014284499,0.16652438,-0.052281175,0.21700937,-0.19832185,0.19350919,0.44521308,0.038415816,-0.06086669,228.33583
2023-01-17,-0.1993901,-0.26576233,-0.05330175,0.017801046,0.16293325,-0.04529659,0.19957708,-0.1929808,0.19331458,0.44180092,0.037034735,-0.07922705,116.2586
2023-01-18,-0.17595409,-0.24935684,-0.058933638,0.025359094,0.18701167,-0.042456817,0.18758805,-0.19571808,0.19809023,0.46606845,0.03370736,-0.15587395,213.11543
2023-01-19,-0.17893524,-0.2447658,-0.056064755,0.028794423,0.1879297,-0.03354753,0.18259053,-0.19052911,0.19727957,0.46269387,0.038210314,-0.16236573,67.39776
2023-01-20,-0.18723843,-0.25120056,-0.054786496,0.024803057,0.19480984,-0.03415593,0.19345358,-0.1978968,0.20227459,0.47649682,0.038001973,-0.16334814,45.367165
2023-01-23,-0.19107632,-0.258532,-0.058813296,0.03456105,0.23710993,-0.036105778,0.20189016,-0.22215544,0.21075544,0.54350626,0.03495977,-0.23692381,167.00494
2023-01-24,-0.17337468,-0.26187485,-0.06911261,0.039764877,0.29086968,-0.048323993,0.20594172,-0.24207762,0.22264457,0.62419903,0.02688304,-0.361918,206.9614
2023-01-25,-0.18459527,-0.27302915,-0.06573947,0.035955634,0.2933281,-0.052276704,0.2176873,-0.24891193,0.22548553,0.6408931,0.028210491,-0.3541208,53.78543
2023-01-26,-0.18472856,-0.26981664,-0.06049846,0.035885382,0.29047868,-0.051563,0.21840562,-0.24960816,0.22620854,0.64281416,0.027904574,-0.3519777,14.672947
2023-01-27,-0.19446638,-0.27932972,-0.05605352,0.039132528,0.28755656,-0.052937333,0.218782,-0.24987556,0.22130913,0.64429533,0.030567698,-0.33286446,46.514034
2023-01-30,-0.1943677,-0.27779198,-0.053481318,0.045539513,0.29676524,-0.048176784,0.21349512,-0.25181153,0.22010732,0.65664876,0.031690784,-0.35695893,50.32208
2023-01-31,-0.17609103,-0.2742449,-0.056981757,0.042716093,0.30850598,-0.05523837,0.20923431,-0.24641833,0.22363022,0.662037,0.026928142,-0.4009031,75.9368
2023-02-01,-0.20154226,-0.31546056,-0.058498353,0.034044098,0.35495862,-0.075633705,0.25007936,-0.2825938,0.24058554,0.76334965,0.024578098,-0.45067036,182.65254
2023-02-02,-0.20972525,-0.32782954,-0.056821115,0.040699158,0.3920708,-0.08058509,0.2628942,-0.30757308,0.24844027,0.83865047,0.021209355,-0.519851,103.548386
2023-02-03,-0.1823366,-0.29331106,-0.054795086,0.07255039,0.40879783,-0.06102736,0.22224711,-0.29893345,0.23908567,0.83486426,0.015210873,-0.60354435,200.81937
2023-02-06,-0.20096946,-0.3154261,-0.048802756,0.0570387,0.4041741,-0.069745764,0.24646066,-0.30690807,0.24608094,0.86029637,0.019351073,-0.5769326,116.65491
2023-02-07,-0.1836358,-0.30849132,-0.05207877,0.058507998,0.40912434,-0.07449758,0.23663677,-0.30107266,0.24483901,0.85781395,0.014354528,-0.60835266,66.09726
2023-02-08,-0.1997256,-0.33034182,-0.051423818,0.05558753,0.41949952,-0.08173533,0.25282604,-0.31540895,0.247121,0.89390993,0.0155350575,-0.60455745,59.93638
2023-02-09,-0.18909088,-0.30979413,-0.040469907,0.059166454,0.4024869,-0.075195596,0.2386684,-0.30798718,0.24171865,0.8744054,0.0137510365,-0.5924347,77.1509
2023-02-10,-0.19683608,-0.31083947,-0.033970512,0.05701323,0.3944492,-0.07412179,0.24315564,-0.30850035,0.24077752,0.87027335,0.015572718,-0.5694459,47.5942
2023-02-13,-0.22229585,-0.33811563,-0.02570063,0.041188776,0.36655274,-0.08413382,0.26254,-0.30446163,0.23708096,0.84197116,0.021769773,-0.4691227,165.86986
2023-02-14,-0.20916893,-0.34905112,-0.034030043,0.03445346,0.39711612,-0.10268775,0.2737561,-0.31946737,0.2472465,0.9040103,0.014277366,-0.5389008,158.4396
2023-02-15,-0.2176112,-0.35718423,-0.03364543,0.03227181,0.40490428,-0.10379735,0.28251058,-0.32822788,0.25028598,0.9256798,0.015395173,-0.54464585,35.332085
2023-02-16,-0.22818977,-0.35764617,-0.031240387,0.041425966,0.38828477,-0.09201096,0.27070355,-0.31448448,0.23842135,0.8630357,0.020614587,-0.48907143,119.94524
2023-02-17,-0.2232421,-0.330813,-0.019690456,0.05071272,0.33978173,-0.07208924,0.23880519,-0.28203875,0.2184686,0.74257946,0.024817307,-0.39322078,187.61507
2023-02-21,-0.24983141,-0.36279035,-0.021180397,0.042704616,0.3608636,-0.07896978,0.26880595,-0.30149084,0.22917315,0.7933184,0.028002702,-0.40150207,106.817566
2023-02-22,-0.22678801,-0.34141734,-0.017321588,0.043220326,0.34305736,-0.07782115,0.24762176,-0.28142506,0.22244078,0.743803,0.024051588,-0.39078605,81.42445
2023-02-23,-0.2581644,-0.38317567,-0.026751766,0.035890404,0.38750508,-0.08959161,0.28961018,-0.31246862,0.24008274,0.8329911,0.027177785,-0.4384185,198.64474
2023-02-24,-0.26244736,-0.37749916,-0.022683868,0.04043491,0.3706544,-0.08412287,0.2814797,-0.3081509,0.23234248,0.8053862,0.029736634,-0.39967015,70.44189
2023-02-27,-0.2666711,-0.36026067,-0.008468086,0.040807817,0.30085605,-0.067284346,0.25397962,-0.27086654,0.20982309,0.6717833,0.039418608,-0.25435334,225.68338
2023-02-28,-0.26586553,-0.3745594,-0.023613961,0.037287794,0.31899983,-0.07493581,0.2606722,-0.2772419,0.21303022,0.6847409,0.039582502,-0.2799697,228.0908
2023-03-01,-0.26518703,-0.36361217,-0.019710286,0.042381197,0.30026463,-0.06439179,0.2467659,-0.26783848,0.20466754,0.637627,0.041799538,-0.23979923,92.79455
2023-03-02,-0.2741788,-0.35723346,-0.009685511,0.036660954,0.2500843,-0.05662432,0.23822396,-0.24946135,0.19250968,0.56863,0.050959844,-0.13577467,190.65634
2023-03-03,-0.2834145,-0.36103487,-0.0100398585,0.03887603,0.2453216,-0.054556068,0.24062563,-0.25100452,0.19029236,0.5693858,0.054090466,-0.119902395,40.435196
2023-03-06,-0.27795267,-0.34340242,-0.010469945,0.04194247,0.21647604,-0.044153,0.22502552,-0.23790799,0.18024749,0.51412195,0.05509257,-0.06665509,122.75623
2023-03-07,-0.26725876,-0.3439275,-0.019055085,0.04110731,0.23614502,-0.051060256,0.22573769,-0.24280883,0.18387678,0.5282619,0.052188877,-0.10945579,189.34236
2023-03-08,-0.26806724,-0.33069986,-0.019914335,0.05411614,0.24067864,-0.036696356,0.21332958,-0.23388067,0.1806626,0.5160969,0.05422472,-0.12860852,104.97862
2023-03-09,-0.281262,-0.33695376,-0.024836259,0.060147237,0.24443491,-0.030864786,0.2173462,-0.23349474,0.1808844,0.5307398,0.05924728,-0.13605091,80.18282
2023-03-10,-0.25437295,-0.2757232,-0.011124717,0.08228572,0.19827293,-0.0027327873,0.1653287,-0.19243489,0.16130033,0.4447799,0.057999823,-0.11109143,318.7702
2023-03-13,-0.2678935,-0.29483512,-0.009914398,0.0790807,0.21857059,-0.010300372,0.18497236,-0.20427272,0.17104164,0.49465388,0.056536112,-0.13572276,374.15808
2023-03-14,-0.26242667,-0.30232137,-0.021515878,0.08535775,0.26103854,-0.020101,0.19256301,-0.21597873,0.18124786,0.5796675,0.053352658,-0.24370527,362.29172
2023-03-15,-0.2806943,-0.3336237,-0.029284595,0.08794456,0.30862418,-0.03392491,0.2224931,-0.2507456,0.19621086,0.67967236,0.049157772,-0.31567913,237.99782
2023-03-16,-0.22478038,-0.25967175,-0.016026324,0.11936808,0.32635918,-0.01140954,0.16791624,-0.2500714,0.19460204,0.71615076,0.0325475,-0.451842,303.1144
2023-03-17,-0.22638865,-0.27816534,-0.026478438,0.12703061,0.39225674,-0.020760566,0.18714218,-0.28818542,0.21114129,0.84351814,0.02186497,-0.5855313,297.00867
2023-03-20,-0.18253337,-0.22466876,-0.013860522,0.14591107,0.3899186,-0.010218006,0.14729652,-0.28231627,0.20757452,0.84409785,0.006975877,-0.6531766,257.2325
2023-03-21,-0.20023629,-0.25860572,-0.027940901,0.1423477,0.4433155,-0.02861349,0.18322548,-0.30816483,0.22449818,0.946574,0.005156042,-0.7457831,416.6635
2023-03-22,-0.20961033,-0.27300578,-0.028399853,0.1415159,0.45528692,-0.034711253,0.19444191,-0.31566238,0.22748372,0.9600353,0.002589236,-0.7463977,97.65951
2023-03-23,-0.19463438,-0.24474074,-0.014880387,0.14832503,0.43814513,-0.025687542,0.1734265,-0.3059911,0.22379026,0.94196594,0.0015008589,-0.74788266,159.28632
2023-03-24,-0.1915753,-0.24232748,-0.015040087,0.15065843,0.45108533,-0.0258498,0.17518237,-0.31595463,0.22886014,0.97003424,-0.0016188128,-0.78297085,230.85379
2023-03-27,-0.19491628,-0.24696651,-0.0097110085,0.14810896,0.4612114,-0.029738214,0.182508,-0.3262766,0.23422846,1.0048254,-0.0040856516,-0.8052891,226.68721
2023-03-28,-0.1932043,-0.26736075,-0.018856281,0.14292586,0.503502,-0.049320098,0.20423093,-0.34243757,0.24784815,1.0711929,-0.012003197,-0.884595,414.73938
2023-03-29,-0.19698915,-0.2680391,-0.011791397,0.13785568,0.49645922,-0.052069914,0.209386,-0.34180468,0.24967468,1.0771838,-0.010648434,-0.8717769,66.94225
2023-03-30,-0.20130679,-0.2730564,-0.01304516,0.13798997,0.5015023,-0.053374212,0.21435875,-0.34483635,0.25069582,1.078745,-0.010931588,-0.8692127,25.08369
2023-03-31,-0.1984502,-0.26399368,-0.0063907485,0.13771355,0.48752823,-0.050477948,0.20701148,-0.339621,0.2476362,1.0606445,-0.01050054,-0.84707326,78.49024
2023-04-03,-0.20217645,-0.26632565,-0.0051367413,0.13636193,0.48556608,-0.050503474,0.2105229,-0.34126854,0.2479854,1.058446,-0.010539659,-0.83630896,27.990711
2023-04-04,-0.21264188,-0.28786427,-0.00750372,0.122096024,0.48035136,-0.06934063,0.23013861,-0.3366859,0.24835056,1.05013,-0.010102219,-0.799604,128.31032
2023-04-05,-0.20860493,-0.28822467,0.00040481426,0.11729346,0.50159127,-0.078023165,0.23915826,-0.35059565,0.25966102,1.0966184,-0.016333394,-0.84723246,212.96477
2023-04-06,-0.22095414,-0.30303848,0.014601333,0.1006584,0.49406824,-0.094186574,0.2620767,-0.36064684,0.2665446,1.1148512,-0.01886155,-0.8084166,3591.2026
2023-04-10,-0.2159635,-0.30283976,0.020732826,0.0905926,0.49327496,-0.10078351,0.26730618,-0.36875427,0.2726195,1.1394839,-0.021795958,-0.8126174,86.290886
2023-04-11,-0.20936036,-0.3041317,0.023480026,0.08480618,0.4908133,-0.11131285,0.26765266,-0.36556613,0.27345347,1.1470168,-0.022934087,-0.81839037,41.961758
2023-04-12,-0.23276807,-0.32691878,0.03217785,0.07390364,0.48528397,-0.123633936,0.2945657,-0.3743853,0.27775508,1.1635704,-0.020669345,-0.77463675,111.47308
2023-04-13,-0.23875153,-0.33273625,0.04362408,0.058902837,0.46332932,-0.13285851,0.30648094,-0.37526256,0.27953857,1.1683164,-0.018979423,-0.7273192,91.81855
2023-04-14,-0.24481319,-0.34641707,0.039050117,0.054989178,0.48181197,-0.14193463,0.32338503,-0.39315027,0.2867501,1.2001343,-0.024016235,-0.7418811,78.7261
2023-04-17,-0.23392889,-0.36192328,0.04583749,0.035280414,0.4948298,-0.16702229,0.34735194,-0.41323215,0.30278724,1.2523723,-0.03376541,-0.758512,147.82227
2023-04-18,-0.21495283,-0.37481117,0.031195609,0.025168031,0.5394901,-0.1872499,0.36241344,-0.4308048,0.3195785,1.3238554,-0.041629005,-0.8579337,149.65318
2023-04-19,-0.2260072,-0.3925202,0.039623067,0.012592681,0.53360885,-0.19947892,0.37942553,-0.43842542,0.32386023,1.3293407,-0.040699895,-0.8185836,109.50464
2023-04-20,-0.22687009,-0.39690953,0.03654827,0.00749366,0.5397927,-0.19938874,0.38453266,-0.44095647,0.32903138,1.3404933,-0.0370229,-0.83006907,65.7527
2023-04-21,-0.21851203,-0.39354312,0.048836887,0.0035902709,0.55966383,-0.20877601,0.39478284,-0.45983458,0.34225094,1.3938196,-0.0451209,-0.88127285,141.61789
2023-04-24,-0.2212217,-0.39620042,0.047044575,-0.004093617,0.5441838,-0.20569071,0.39387348,-0.45319742,0.3408589,1.3740776,-0.040778797,-0.8497055,240.5509
2023-04-25,-0.21435596,-0.40956223,0.0385819,-0.015140608,0.5443979,-0.22093078,0.3986772,-0.4476812,0.3420198,1.3641355,-0.04180212,-0.8485396,307.9197
2023-04-26,-0.20199041,-0.3855492,0.062383823,-0.02377864,0.5155054,-0.2201187,0.38954875,-0.43824142,0.34170467,1.3562164,-0.042026702,-0.8231437,144.6517
2023-04-27,-0.22142646,-0.39832342,0.04964275,-0.01461453,0.5182609,-0.20584276,0.38733652,-0.4311235,0.33432916,1.3465654,-0.028702121,-0.81130457,117.12401
2023-04-28,-0.22014435,-0.4000724,0.041952178,-0.010795869,0.52185494,-0.20453951,0.38512918,-0.43873823,0.3317403,1.3409333,-0.033527452,-0.80897135,64.593834
2023-05-01,-0.22466795,-0.40385717,0.04700049,-0.014776789,0.5199599,-0.21370268,0.3987516,-0.4547823,0.3374992,1.3628314,-0.03741663,-0.8041936,79.50541
2023-05-02,-0.1799833,-0.3797515,0.046676748,-0.01879742,0.5453406,-0.22492725,0.3918702,-0.4684527,0.35035244,1.429857,-0.04950535,-0.9103643,122.85836
2023-05-03,-0.14760546,-0.35008883,0.057859235,-0.011149444,0.5707572,-0.22142321,0.37621626,-0.48519903,0.36099982,1.5017208,-0.059970055,-1.0242698,145.9477
2023-05-04,-0.15418532,-0.33466238,0.063622594,-0.013240553,0.50763613,-0.20020327,0.35621396,-0.4535966,0.3423774,1.4243088,-0.045383364,-0.9194937,114.91916
2023-05-05,-0.14132094,-0.30285168,0.06680383,0.0045575127,0.4797584,-0.17762063,0.32175067,-0.43221933,0.32803628,1.3612549,-0.044151027,-0.8978353,202.11559
2023-05-08,-0.18230732,-0.34647423,0.043397874,0.010449104,0.4994575,-0.18160295,0.35134444,-0.44975066,0.32788086,1.3669739,-0.040698875,-0.87171614,238.51271
2023-05-09,-0.15153876,-0.33136827,0.03678193,0.014831103,0.5184494,-0.1887279,0.34044155,-0.4480164,0.3328773,1.3900874,-0.049605083,-0.94831735,123.51865
2023-05-10,-0.14343674,-0.32121646,0.04290907,0.020327017,0.5162118,-0.1845451,0.330403,-0.444844,0.332254,1.3896067,-0.051036216,-0.960406,72.81112
2023-05-11,-0.15001386,-0.31892085,0.034313217,0.02982714,0.5096573,-0.16938533,0.31792328,-0.43332636,0.3236939,1.3532546,-0.045726348,-0.940052,105.63568
2023-05-12,-0.14058597,-0.29771286,0.035363644,0.044470415,0.5025268,-0.15146025,0.29371777,-0.4202898,0.31646192,1.315839,-0.046364874,-0.9438469,94.49246
2023-05-15,-0.15403067,-0.29339403,0.040871702,0.05198466,0.46969384,-0.13892725,0.28176978,-0.4033361,0.30350074,1.2557222,-0.039776992,-0.87654585,96.40031
2023-05-16,-0.14110006,-0.29550815,0.021465952,0.057735294,0.49937493,-0.14232048,0.2791293,-0.40392995,0.30705404,1.2766387,-0.042457845,-0.94637686,95.04607
2023-05-17,-0.12600988,-0.2625057,0.022466926,0.07495259,0.48083845,-0.117333174,0.24365912,-0.380158,0.29457417,1.2194567,-0.03934561,-0.93982524,112.77441
2023-05-18,-0.13840704,-0.27177864,0.0101266,0.07941495,0.48693258,-0.11174771,0.2478895,-0.3841874,0.2939169,1.2041631,-0.038081963,-0.923443,89.5068
2023-05-19,-0.14252734,-0.25807893,0.0038191546,0.0944162,0.4695011,-0.09206775,0.22721781,-0.36566228,0.28132913,1.1333699,-0.032660786,-0.88430035,152.18134
2023-05-22,-0.1319457,-0.234431,0.011931509,0.10427532,0.45610958,-0.08030158,0.2063445,-0.35302198,0.2761328,1.1095824,-0.033215728,-0.8858184,273.534
2023-05-23,-0.12288886,-0.23583776,-0.0064450502,0.10986962,0.4865051,-0.08047022,0.20527543,-0.35643655,0.27941418,1.1267433,-0.035845973,-0.95089024,193.20512
2023-05-24,-0.12669739,-0.21148793,0.0017756633,0.12006688,0.43149945,-0.0562368,0.17346095,-0.3173256,0.25658268,1.0148774,-0.024873082,-0.8467073,277.8153
2023-05-25,-0.13244851,-0.19938485,0.009697948,0.12294605,0.39404818,-0.042313095,0.15591694,-0.29339176,0.24226946,0.9454714,-0.016848195,-0.76795685,563.8954
2023-05-26,-0.1464678,-0.19569997,0.00057213195,0.13036484,0.3930817,-0.029609483,0.15158686,-0.29993758,0.23569947,0.9373691,-0.008225984,-0.7548408,204.29652
2023-05-30,-0.1553815,-0.19370618,-0.0038487893,0.14558703,0.38817567,-0.014658276,0.13608518,-0.28829426,0.22441229,0.88592565,-0.0058479225,-0.7239477,900.6209
2023-05-31,-0.1425027,-0.19674554,-0.007350169,0.14802963,0.419081,-0.022224318,0.13432156,-0.29284286,0.23048127,0.92523456,-0.010449669,-0.8014897,261.50317
2023-06-01,-0.13977903,-0.19389424,0.0022039134,0.15079618,0.43362537,-0.02195901,0.13386475,-0.29963887,0.23633736,0.9551245,-0.015215748,-0.8398573,198.70729
2023-06-02,-0.15469007,-0.22325173,0.0035026334,0.13978232,0.47679272,-0.037345488,0.16820277,-0.332321,0.25409052,1.0566972,-0.019556656,-0.90733737,263.33286
2023-06-05,-0.15623653,-0.22377528,0.011936832,0.13883378,0.4772183,-0.039689492,0.1720763,-0.33639383,0.2569172,1.0720986,-0.0225049,-0.91107917,270.66077
2023-06-06,-0.14800781,-0.23911136,0.009932799,0.13073137,0.51542073,-0.06015281,0.18851216,-0.34947622,0.26889688,1.1402006,-0.029532313,-0.99924797,159.66776
2023-06-07,-0.16164812,-0.2628255,0.0014649071,0.12311563,0.5473159,-0.06920618,0.2173491,-0.36805618,0.28344244,1.2006342,-0.031724513,-1.0458609,174.86075
2023-06-08,-0.17602289,-0.26871657,0.01404438,0.1101047,0.50085884,-0.068157256,0.22000901,-0.34500843,0.27520466,1.1583986,-0.0202895,-0.9491965,949.62463
2023-06-09,-0.1798608,-0.27783173,0.023943877,0.09959395,0.50743884,-0.07694341,0.23210888,-0.35800362,0.28143838,1.200156,-0.02157801,-0.9567149,122.08953
2023-06-12,-0.1756083,-0.27784193,0.03148967,0.09354484,0.51937157,-0.08315565,0.2418379,-0.3725816,0.2893523,1.2396622,-0.025863625,-0.9847464,87.53991
2023-06-13,-0.15787731,-0.27557707,0.015941005,0.09523539,0.53727496,-0.08979961,0.23821159,-0.3741579,0.29020733,1.2364511,-0.032684363,-1.0299588,106.97352
2023-06-14,-0.17319179,-0.2921957,0.01440884,0.082760654,0.5205551,-0.0899691,0.2503203,-0.3689155,0.28760293,1.2278748,-0.024038564,-0.975362,81.57038
2023-06-15,-0.18087164,-0.292492,0.00462931,0.082384504,0.49330658,-0.079401314,0.2440509,-0.34781063,0.27724543,1.1691517,-0.011156508,-0.91846997,165.87367
2023-06-16,-0.16937912,-0.2784453,0.009552691,0.08836416,0.49228194,-0.075446784,0.23510309,-0.34966654,0.27679288,1.1714674,-0.014349359,-0.9360091,165.04472
2023-06-20,-0.17605966,-0.28648633,0.003044147,0.07955163,0.4776164,-0.071453705,0.23864965,-0.34370512,0.2742006,1.1429758,-0.00703054,-0.8912825,155.57472
2023-06-21,-0.1533468,-0.26939303,8.105673e-05,0.084295765,0.49285313,-0.07263987,0.22918852,-0.3463605,0.2771298,1.1647593,-0.014887369,-0.9533617,253.44739
2023-06-22,-0.16625813,-0.28417742,0.0012458898,0.0753061,0.49128342,-0.07567471,0.24418543,-0.35358375,0.2812781,1.1778867,-0.011630538,-0.93332106,1501.3591
2023-06-23,-0.16511233,-0.28039873,0.0036017336,0.08115961,0.5079993,-0.074263275,0.24615408,-0.36325818,0.2859461,1.2114174,-0.014520043,-0.9757847,241.59113
2023-06-26,-0.15531737,-0.27087152,0.00867206,0.084459595,0.5224975,-0.07593472,0.24757881,-0.37387335,0.29251528,1.2437978,-0.020840954,-1.021887,216.00366
2023-06-27,-0.14987183,-0.2836703,0.0005802717,0.0743752,0.52474827,-0.08947791,0.25486133,-0.3701045,0.2945948,1.2430911,-0.02207597,-1.0218594,142.39168
2023-06-28,-0.16840392,-0.30411467,-0.00259302,0.06779781,0.5322654,-0.09409684,0.27502233,-0.383672,0.30036148,1.2697587,-0.018073417,-1.013257,616.52545
2023-06-29,-0.1789194,-0.30940282,3.663823e-06,0.06497611,0.5124207,-0.090494916,0.27537176,-0.3728727,0.29576722,1.2434692,-0.009726915,-0.96727127,177.10384
2023-06-30,-0.17822278,-0.3162891,0.0029616132,0.057089314,0.50891143,-0.09851001,0.2870148,-0.3812101,0.3010817,1.2464609,-0.011952863,-0.94954365,80791.46
2023-07-03,-0.17979875,-0.32529485,0.0032909513,0.052336883,0.51647216,-0.10539231,0.29823706,-0.39491427,0.3064979,1.2603037,-0.014625366,-0.9483605,64.54609
2023-07-05,-0.173837,-0.3428024,-0.0069527477,0.041865744,0.5206471,-0.12013495,0.30484307,-0.3968746,0.30745372,1.2568792,-0.013872036,-0.94264287,363.8191
2023-07-06,-0.17160666,-0.33784372,-0.0022785384,0.040683113,0.5230826,-0.118626356,0.30751273,-0.40202522,0.31224757,1.2716768,-0.013237978,-0.9564368,85.45028
2023-07-07,-0.15694666,-0.3169996,-0.0012219716,0.048275046,0.52720016,-0.10930103,0.29472753,-0.40304893,0.31254986,1.2748578,-0.016909331,-0.99029595,124.42515
2023-07-10,-0.16783541,-0.31949067,-0.008946974,0.044200063,0.48756662,-0.09588668,0.28432757,-0.37946552,0.29787686,1.1922703,-0.0045745587,-0.88889176,771.86975
2023-07-11,-0.15280172,-0.31376404,-0.01987438,0.042369917,0.48232934,-0.099932075,0.27632222,-0.36953366,0.29413012,1.1587901,-0.0070097735,-0.8846601,205.52747
2023-07-12,-0.15878263,-0.31696373,-0.02488389,0.04196367,0.4690826,-0.09359485,0.27438495,-0.36401027,0.28912085,1.1152824,-0.0026276438,-0.8373922,115.697624
2023-07-13,-0.1681471,-0.32141775,-0.029920017,0.0409567,0.45212147,-0.08709288,0.27023354,-0.35356683,0.28204253,1.0700395,0.0045027295,-0.7843875,329.0803
2023-07-14,-0.15089,-0.29332334,-0.02805932,0.05459967,0.4418405,-0.073050424,0.24410813,-0.3428414,0.27371466,1.0342981,0.0030016573,-0.78999215,129.97656
2023-07-17,-0.14479679,-0.29185915,-0.02382194,0.055453494,0.47313428,-0.076161,0.2541938,-0.3713835,0.2860368,1.1014638,-0.008391566,-0.85877967,444.2676
2023-07-18,-0.1281025,-0.29930776,-0.030604342,0.049514018,0.49372202,-0.09320128,0.25880316,-0.37892628,0.2916365,1.1287475,-0.018158786,-0.9035347,209.87274
2023-07-19,-0.12714429,-0.30358732,-0.023899885,0.04497915,0.5016707,-0.098171055,0.26630017,-0.3942743,0.29595637,1.1693078,-0.022071812,-0.91923344,75.49398
2023-07-20,-0.12236209,-0.30471635,-0.014529871,0.040464416,0.5089677,-0.10528201,0.2742238,-0.4051507,0.30184937,1.2001407,-0.02806798,-0.9372596,101.56345
2023-07-21,-0.13549891,-0.3311818,-0.0029876363,0.020235382,0.5113677,-0.12565018,0.30557057,-0.4222436,0.31252593,1.2416551,-0.030441038,-0.91467965,202.17924
2023-07-24,-0.15360379,-0.3547879,0.0016073156,0.010409296,0.522037,-0.13693212,0.3308029,-0.436859,0.31961322,1.2738991,-0.030997496,-0.9025283,253.65253
2023-07-25,-0.13895506,-0.37064934,-0.0067716595,0.0016032681,0.55177015,-0.16319019,0.34694526,-0.45171487,0.32977048,1.3100724,-0.043580644,-0.952076,705.16095
2023-07-26,-0.15549657,-0.39014775,-0.0016960669,-0.00492049,0.5577098,-0.17143053,0.36625203,-0.46365422,0.33404842,1.3411152,-0.041479442,-0.9394552,523.1697
2023-07-27,-0.1716143,-0.40961307,0.000755148,-0.014405109,0.5589965,-0.17897673,0.38556245,-0.4706534,0.3385779,1.347844,-0.040389173,-0.9132125,371.32977
2023-07-28,-0.15609618,-0.39055496,0.025881251,-0.020070024,0.5431654,-0.18455333,0.38159454,-0.46956354,0.34075537,1.3637701,-0.04508534,-0.91310066,3401.0017
2023-07-31,-0.18523343,-0.41178972,0.014327446,-0.020179473,0.53218013,-0.17695169,0.38633817,-0.46153438,0.33268085,1.3366442,-0.03310672,-0.8550537,115.66919
2023-08-01,-0.16134825,-0.41236514,0.009953132,-0.027981944,0.5499243,-0.19667646,0.3896272,-0.4646278,0.33884418,1.3587494,-0.04254855,-0.9006999,135.59778
2023-08-02,-0.17968607,-0.40774488,0.019054683,-0.025980018,0.4941164,-0.18040016,0.37828413,-0.44542688,0.32040668,1.2805256,-0.025700945,-0.7804052,200.70221
2023-08-03,-0.16308346,-0.369399,0.042758264,-0.028549902,0.42572555,-0.16486639,0.34506425,-0.40905076,0.30213237,1.1845443,-0.022244997,-0.68043506,231.7894
2023-08-04,-0.21949773,-0.43566257,0.030478908,-0.04194715,0.44332996,-0.18255615,0.3986452,-0.43033403,0.31098047,1.222091,-0.013235773,-0.6378502,216.62683
2023-08-07,-0.20304467,-0.41584826,0.041492842,-0.039457254,0.4439381,-0.17778154,0.38633645,-0.42520905,0.31161985,1.2199543,-0.01575857,-0.64951354,82.4165
2023-08-08,-0.2158744,-0.4399951,0.0076133367,-0.03567995,0.45601732,-0.18292403,0.38958356,-0.4189111,0.3060029,1.1854452,-0.01565767,-0.64618856,117.06848
2023-08-09,-0.19683324,-0.42603153,0.039858975,-0.07056119,0.42320248,-0.20933953,0.40822327,-0.4266348,0.3203786,1.2552315,-0.02246141,-0.64082104,616.4304
2023-08-10,-0.21874207,-0.44256288,0.048007905,-0.08502204,0.38874835,-0.21695763,0.42419973,-0.41899204,0.31668907,1.230725,-0.015697174,-0.56117296,119.08283
2023-08-11,-0.23279351,-0.45491976,0.05182667,-0.091100775,0.3833758,-0.22374848,0.44028178,-0.42575365,0.3189368,1.2347884,-0.014630846,-0.53430575,46.857635
2023-08-14,-0.25280082,-0.46436542,0.058117412,-0.099324636,0.32777405,-0.22319502,0.4372857,-0.40311944,0.30241284,1.1450133,-0.0082120495,-0.39799136,134.4189
2023-08-15,-0.22308102,-0.45601064,0.048013516,-0.1052789,0.3553312,-0.24110231,0.43856445,-0.41227096,0.31196,1.1888824,-0.019124046,-0.47849292,216.02173
2023-08-16,-0.2006599,-0.42229748,0.06911036,-0.11088968,0.3453537,-0.23976433,0.429597,-0.4109555,0.31737986,1.222516,-0.022626087,-0.5122979,102.38275
2023-08-17,-0.2234946,-0.4422084,0.06364539,-0.1112004,0.35983297,-0.24091482,0.44845042,-0.4230529,0.32382333,1.2609414,-0.018186472,-0.5287692,64.297485
2023-08-18,-0.22948128,-0.43198133,0.07268669,-0.113840945,0.31433177,-0.23266041,0.43856293,-0.3974108,0.31195083,1.1952616,-0.008777487,-0.44337982,122.66913
2023-08-21,-0.2572893,-0.44650513,0.070077494,-0.11475762,0.27875412,-0.22808093,0.43989605,-0.38312483,0.2986965,1.1269269,-0.00057277735,-0.3372154,164.44514
2023-08-22,-0.22970727,-0.4333096,0.051679797,-0.10908466,0.31728,-0.2325581,0.43039218,-0.38852715,0.30635706,1.1749837,-0.0051363325,-0.44532102,899.8556
2023-08-23,-0.23574471,-0.42921698,0.047216415,-0.103578456,0.32796815,-0.22705483,0.43511465,-0.39327455,0.31078643,1.1900164,-0.0030176127,-0.47046852,74.93325
2023-08-24,-0.24211708,-0.42723656,0.036635064,-0.09067818,0.346917,-0.2173135,0.43284717,-0.40024567,0.3127034,1.2040901,-0.00015817117,-0.50318414,153.90277
2023-08-25,-0.21775657,-0.38495487,0.057772964,-0.09033442,0.30917242,-0.2049119,0.40896925,-0.37999868,0.30781168,1.1649711,-0.00024109986,-0.47741205,167.56224
2023-08-28,-0.25273478,-0.4155057,0.036020987,-0.08155938,0.3122746,-0.19973229,0.4171188,-0.3805098,0.2993871,1.1176217,0.005857353,-0.42004246,2625.2708
2023-08-29,-0.23513469,-0.41797036,0.018329727,-0.081194915,0.33997202,-0.21305716,0.4193869,-0.3857488,0.30558884,1.1333747,-0.0010106908,-0.4796797,209.51318
2023-08-30,-0.25060034,-0.42815894,0.015139861,-0.07717962,0.3393328,-0.21467796,0.42768267,-0.3908574,0.30414438,1.1225471,0.0017558085,-0.45154077,316.63193
2023-08-31,-0.26652658,-0.4336238,0.012529502,-0.0740151,0.31926095,-0.20961818,0.42654386,-0.37983304,0.29553705,1.0651634,0.008154177,-0.38363492,427.72446
2023-09-01,-0.27212977,-0.42087168,0.009919742,-0.062936656,0.29728228,-0.19113234,0.40556505,-0.35432303,0.28379065,1.00215,0.01894822,-0.34350932,220.90154
2023-09-05,-0.27218068,-0.41302007,0.01571416,-0.05706463,0.2662321,-0.17921565,0.38409165,-0.33841282,0.26834452,0.9272393,0.024295397,-0.26787987,159.2462
2023-09-06,-0.24760804,-0.39585555,0.013594432,-0.0569615,0.272889,-0.18239549,0.3703337,-0.33062088,0.26931685,0.9301914,0.021428887,-0.30756795,64.30799
2023-09-07,-0.2682521,-0.40790564,0.011965057,-0.0581489,0.25357473,-0.1781837,0.37336415,-0.3211387,0.2620224,0.8859801,0.028580323,-0.24217147,100.62154
2023-09-08,-0.27555078,-0.40989673,0.012795001,-0.05878801,0.2564255,-0.17633519,0.3779954,-0.32575208,0.2635977,0.8881149,0.027454548,-0.2372086,22.913568
2023-09-11,-0.28407627,-0.4140467,0.013682717,-0.0577429,0.24029261,-0.17329466,0.37337884,-0.31722677,0.2560494,0.8559147,0.03003303,-0.19151849,59.819
2023-09-12,-0.2550341,-0.4085878,-0.00088379346,-0.05335281,0.29169932,-0.1810329,0.36839044,-0.32757145,0.2675838,0.9209626,0.02112294,-0.32078177,265.32565
2023-09-13,-0.2645926,-0.41028905,0.011322627,-0.061988465,0.24195755,-0.18123794,0.36420527,-0.30734453,0.25574172,0.84221315,0.024749473,-0.20783514,1491.321
2023-09-14,-0.27331197,-0.42291194,0.0051425193,-0.05812987,0.27763543,-0.18167454,0.3752589,-0.3252149,0.2645732,0.89770794,0.024564099,-0.26429754,128.97282
2023-09-15,-0.28691798,-0.43269658,0.013553267,-0.06119784,0.2533832,-0.18270281,0.37584564,-0.3173174,0.25669834,0.8625257,0.029140722,-0.19408005,240.10324
2023-09-18,-0.2804579,-0.41599274,0.030270206,-0.06677415,0.22446929,-0.17884763,0.37021175,-0.30784315,0.2547291,0.820189,0.02758111,-0.14782298,191.43393
2023-09-19,-0.27953765,-0.4423836,0.011061981,-0.07196715,0.26719305,-0.19612288,0.38868287,-0.32529527,0.265832,0.87443197,0.022232093,-0.22029018,196.6449
2023-09-20,-0.2863881,-0.45181412,0.016953433,-0.078159936,0.27329448,-0.202037,0.4020649,-0.33499527,0.27224708,0.90720856,0.022912592,-0.2290897,91.38677
2023-09-21,-0.282715,-0.44069433,0.036338158,-0.085166715,0.24524155,-0.20145808,0.39948672,-0.32936722,0.26855054,0.87085366,0.018365141,-0.17541397,188.564
2023-09-22,-0.2721498,-0.4207487,0.056709766,-0.08750533,0.20688795,-0.1942053,0.3827444,-0.31469995,0.25775984,0.8106091,0.014612426,-0.10584951,165.98071
2023-09-25,-0.32542294,-0.47566575,0.05437296,-0.0999125,0.21213324,-0.21138757,0.43076074,-0.3367731,0.2628992,0.8495003,0.020376753,-0.05630184,174.91792
2023-09-26,-0.31558505,-0.48860687,0.045294464,-0.105447374,0.22766013,-0.22800094,0.4375965,-0.34052664,0.26542243,0.8662324,0.013390296,-0.08263842,129.85352
2023-09-27,-0.2933697,-0.44942594,0.06802414,-0.10479457,0.16960578,-0.21427104,0.40347278,-0.3089852,0.24831605,0.7739438,0.012747609,0.0008966848,237.426
2023-09-28,-0.33661288,-0.4968995,0.06663819,-0.11486275,0.15929629,-0.22877175,0.43434268,-0.31768614,0.24554136,0.77677345,0.020986985,0.074136585,8294.232
2023-09-29,-0.34981745,-0.5060728,0.07222868,-0.11474868,0.14576153,-0.231749,0.4403673,-0.3208587,0.24048236,0.7597859,0.021715432,0.12143939,97.964386
2023-10-02,-0.34561574,-0.4960907,0.07998675,-0.11191847,0.14139912,-0.22885829,0.43494543,-0.31880116,0.23922795,0.7673118,0.023215879,0.1163774,35.08374
2023-10-03,-0.32730144,-0.50319225,0.07474163,-0.10531267,0.21044306,-0.24614072,0.4450536,-0.3544047,0.2549781,0.89926636,0.014262614,-0.03766785,283.776
2023-10-04,-0.30875733,-0.46781147,0.08965871,-0.10156622,0.15267846,-0.22779155,0.40805197,-0.31839424,0.23654515,0.79354537,0.015364348,0.046225354,339.01984
2023-10-05,-0.33642995,-0.5160625,0.0793988,-0.10666328,0.23094444,-0.25215223,0.46066958,-0.37365776,0.26402077,0.9646119,0.01116385,-0.080397405,462.38336
2023-10-06,-0.32003802,-0.50158244,0.0921956,-0.10519796,0.24489309,-0.25740144,0.46069148,-0.38961267,0.2715917,1.0165766,0.0018604631,-0.13249326,193.95288
2023-10-09,-0.31262892,-0.4972949,0.091166735,-0.100833766,0.27257484,-0.26174793,0.46768707,-0.41364157,0.2805354,1.0892788,-0.0053052483,-0.19692063,473.34152
2023-10-10,-0.29926106,-0.50136524,0.09114517,-0.106829606,0.27010825,-0.27814597,0.46734607,-0.40720284,0.27815413,1.0991865,-0.009088657,-0.20533845,97.21118
2023-10-11,-0.30903828,-0.5129635,0.08679811,-0.10638506,0.2918745,-0.2830755,0.4833537,-0.4260574,0.28698084,1.1503718,-0.011056977,-0.24352449,76.735565
2023-10-12,-0.29033634,-0.4915058,0.086100616,-0.09381803,0.33709398,-0.27750236,0.477129,-0.44817144,0.29963148,1.2481059,-0.01776316,-0.3729098,173.47636
2023-10-13,-0.28245932,-0.45711088,0.09819463,-0.07544952,0.3202346,-0.26024622,0.45346168,-0.43438596,0.29064167,1.219765,-0.018601265,-0.3683058,73.81609
2023-10-16,-0.2608712,-0.4239561,0.1209681,-0.07401321,0.25210467,-0.24831355,0.41443834,-0.39592367,0.26801744,1.0855434,-0.024236176,-0.24265364,166.50963
2023-10-17,-0.30115685,-0.48879522,0.07155207,-0.07161685,0.321008,-0.25867927,0.4505107,-0.41420728,0.27894533,1.1579955,-0.016774379,-0.33160084,197.8478
2023-10-18,-0.2899876,-0.48805338,0.09158559,-0.078423195,0.3261831,-0.2760059,0.4626623,-0.42798162,0.28787246,1.1992779,-0.02890234,-0.35094622,140.59569
2023-10-19,-0.2922992,-0.47492868,0.104933485,-0.07677669,0.27956834,-0.26209953,0.44047028,-0.3942442,0.27076265,1.1032374,-0.025793668,-0.25527602,104.13716
2023-10-20,-0.27280867,-0.45352638,0.114924975,-0.07550507,0.27437094,-0.25388214,0.42170283,-0.38340753,0.26757967,1.0893501,-0.026841264,-0.2578237,41.850002
2023-10-23,-0.28866494,-0.45703697,0.11159851,-0.08161049,0.24860376,-0.24144566,0.4215576,-0.36948544,0.26170215,1.0454674,-0.017358541,-0.19768158,100.40298
2023-10-24,-0.28916138,-0.47194433,0.09198302,-0.07761865,0.30448923,-0.24918273,0.43550548,-0.38560277,0.27334565,1.1337624,-0.016106881,-0.31219205,137.28888
2023-10-25,-0.30091164,-0.46392792,0.09672052,-0.06592884,0.29454574,-0.23928642,0.43043196,-0.38074487,0.26681373,1.1223649,-0.012812489,-0.29248455,65.79589
2023-10-26,-0.27397183,-0.42958248,0.114306584,-0.060059212,0.25154603,-0.22900152,0.39568368,-0.3606013,0.2515211,1.0543611,-0.017825063,-0.23709276,145.55298
2023-10-27,-0.2664052,-0.40550262,0.12782794,-0.06991223,0.16672818,-0.20477821,0.3512633,-0.30611616,0.2236492,0.91120505,-0.004380272,-0.08074098,273.26456
2023-10-30,-0.27167705,-0.38616538,0.13133019,-0.05187189,0.15302245,-0.18234996,0.32788548,-0.28652734,0.20919082,0.86758804,0.0032668905,-0.06090807,277.91608
2023-10-31,-0.27194262,-0.42641902,0.115452915,-0.05129599,0.2550828,-0.21642458,0.36972454,-0.34237015,0.23827118,1.0516362,-0.010999448,-0.25079367,924.92163
2023-11-01,-0.25938863,-0.4240008,0.113120094,-0.042806163,0.30591515,-0.22121644,0.3750439,-0.36825877,0.25297892,1.1131886,-0.025711354,-0.3450317,238.24992
2023-11-02,-0.24488254,-0.40550768,0.114593275,-0.021544397,0.34526268,-0.21085456,0.3590943,-0.38595825,0.2581571,1.1719338,-0.028168164,-0.4421264,132.55168
2023-11-03,-0.2395436,-0.39536262,0.11424518,-0.013571255,0.35592926,-0.20797977,0.3532441,-0.3931076,0.26076236,1.1844475,-0.03208741,-0.46770507,71.70417
2023-11-06,-0.23265256,-0.3828938,0.11053002,0.0025871843,0.38805622,-0.19712418,0.3420145,-0.403368,0.26679498,1.220501,-0.033609774,-0.5442242,174.84329
2023-11-07,-0.20264588,-0.37610817,0.10021802,0.0067422763,0.45046708,-0.20565128,0.3368536,-0.42365456,0.28556368,1.3160193,-0.043959722,-0.70807916,287.31268
2023-11-08,-0.19032729,-0.35665005,0.08887396,0.027903087,0.48618004,-0.18927926,0.31845212,-0.4318782,0.2900856,1.3333111,-0.050423566,-0.80224234,390.61725
2023-11-09,-0.18914363,-0.34392703,0.0840427,0.0389233,0.4918437,-0.17467687,0.30598876,-0.42761296,0.2897746,1.3272545,-0.04988936,-0.8309844,68.10458
2023-11-10,-0.18804896,-0.3227414,0.08816214,0.05376492,0.47246093,-0.15462437,0.28033015,-0.40770787,0.2792482,1.2721968,-0.04713985,-0.8087123,94.20399
2023-11-13,-0.20771678,-0.32548967,0.06882696,0.07580331,0.4741062,-0.13188052,0.26901197,-0.39417285,0.26718068,1.2169253,-0.039986946,-0.7885501,122.97959
2023-11-14,-0.19514196,-0.31632024,0.06460394,0.08145094,0.4820303,-0.1309236,0.25606802,-0.3831665,0.26749876,1.2158386,-0.041681644,-0.83511263,42.809242
2023-11-15,-0.2090097,-0.32189852,0.054358207,0.09278811,0.48075783,-0.11747268,0.25000384,-0.37207097,0.26009986,1.1828219,-0.035739664,-0.8190275,76.11332
2023-11-16,-0.22041261,-0.3242392,0.057017706,0.10014983,0.46403214,-0.106692314,0.24213849,-0.3552394,0.2513156,1.1425518,-0.030771855,-0.7816626,64.578995
2023-11-17,-0.20431851,-0.31163096,0.05421286,0.10282056,0.48026806,-0.1033169,0.23577048,-0.36460292,0.25781056,1.1701157,-0.03502969,-0.83702254,56.62066
2023-11-20,-0.21567103,-0.3175404,0.050668776,0.10290055,0.47171715,-0.09774682,0.23954205,-0.35696876,0.25515157,1.1423013,-0.031325508,-0.8022986,43.06429
2023-11-21,-0.1972993,-0.3148973,0.03188297,0.10501246,0.50645155,-0.10233578,0.23864065,-0.365672,0.26353148,1.1713761,-0.03705516,-0.88493186,97.771225
2023-11-22,-0.19773223,-0.3207699,0.03305231,0.10529991,0.53718513,-0.108388126,0.2534538,-0.38535666,0.27600533,1.2225969,-0.04312404,-0.9443051,61.79211
2023-11-24,-0.19330965,-0.33181894,0.029477453,0.10147993,0.5747612,-0.11883238,0.27070275,-0.40792733,0.29095906,1.2826942,-0.05099154,-1.0122944,85.19556
2023-11-27,-0.19621134,-0.338442,0.034828626,0.09851204,0.5887143,-0.12449536,0.28451216,-0.42225015,0.2995735,1.3101193,-0.056860123,-1.0287064,58.609688
2023-11-28,-0.17363514,-0.34470177,0.02546415,0.08857697,0.6286207,-0.14290217,0.29433766,-0.43746686,0.31502908,1.3770883,-0.063670665,-1.1286272,110.91075
2023-11-29,-0.17218792,-0.35596567,0.026702022,0.08061923,0.6534979,-0.15442882,0.31291413,-0.45771587,0.32789952,1.4344169,-0.06871906,-1.1724602,60.971115
2023-11-30,-0.16392398,-0.3550889,0.029512437,0.074398145,0.67015237,-0.16034727,0.32244778,-0.472332,0.33926842,1.4782083,-0.07285716,-1.2157613,52.143436
2023-12-01,-0.16356322,-0.3726824,0.033016264,0.06179347,0.6892888,-0.17656726,0.34596124,-0.49475873,0.35201067,1.520314,-0.08203542,-1.2306981,79.4311
2023-12-04,-0.16941324,-0.3866399,0.038904086,0.054169904,0.69393045,-0.18549544,0.36327842,-0.51030964,0.35709736,1.5489496,-0.08282079,-1.221098,56.436592
2023-12-05,-0.14870521,-0.39176863,0.037864335,0.036105067,0.6935896,-0.20397383,0.3679702,-0.5088601,0.3624396,1.5559378,-0.08905545,-1.2300719,71.36724
2023-12-06,-0.14852238,-0.39888078,0.03916698,0.028655842,0.7057326,-0.20997062,0.37955758,-0.5248502,0.3698441,1.5952222,-0.090743974,-1.2515618,45.203613
2023-12-07,-0.1464814,-0.40205592,0.04618971,0.020880967,0.71038413,-0.2161082,0.39023253,-0.53584135,0.37703967,1.621342,-0.09467712,-1.2625362,64.51527
2023-12-08,-0.14437023,-0.40002805,0.04456597,0.022652406,0.7197611,-0.21560073,0.3926582,-0.54373443,0.38024783,1.6375451,-0.095961034,-1.2831084,22.42971
2023-12-11,-0.14991547,-0.40036166,0.04694333,0.019273985,0.6985906,-0.21287063,0.39184082,-0.54026306,0.3748365,1.6124539,-0.092738256,-1.2321149,39.51522
2023-12-12,-0.15077382,-0.3932122,0.030941011,0.034108207,0.6778782,-0.19854411,0.36922076,-0.5096253,0.35764784,1.5121331,-0.08775566,-1.1822191,154.78024
2023-12-13,-0.16118453,-0.38557374,0.020321408,0.04797266,0.65981793,-0.17788199,0.35407785,-0.4943471,0.345008,1.4423511,-0.08100623,-1.1325938,124.02604
2023-12-14,-0.16194366,-0.37538457,0.024269896,0.05446244,0.6399072,-0.16861477,0.34238678,-0.48246545,0.3387112,1.4029073,-0.079989,-1.10067,58.63873
2023-12-15,-0.1889906,-0.37291574,0.027027117,0.061213955,0.538981,-0.13508105,0.3072748,-0.41990203,0.3002671,1.1937172,-0.05388594,-0.86662036,180.15761
2023-12-18,-0.20738341,-0.37511915,0.023410415,0.066154115,0.4973168,-0.11747229,0.29113296,-0.3921119,0.2819604,1.1040416,-0.03839965,-0.7671576,118.23762
2023-12-19,-0.19137421,-0.36936808,0.007163653,0.068680555,0.50820273,-0.11967498,0.2814094,-0.38460416,0.2813861,1.098621,-0.038545087,-0.80872095,98.2813
2023-12-20,-0.20143405,-0.37691563,0.0040630605,0.06487775,0.49038732,-0.11470735,0.28261057,-0.37511736,0.277183,1.0651842,-0.02996274,-0.7610315,99.369064
2023-12-21,-0.19540504,-0.36116147,0.0076299924,0.069688044,0.4696275,-0.10019317,0.26504007,-0.3558072,0.26954588,1.0165989,-0.024927862,-0.7327502,158.4645
2023-12-22,-0.21349198,-0.37645894,-0.00015846454,0.06817401,0.47585613,-0.09861763,0.27882472,-0.36314636,0.2717686,1.0250208,-0.01854634,-0.72123533,156.72813
2023-12-26,-0.22540197,-0.38351512,-0.002478594,0.066632174,0.46700883,-0.09472552,0.2828004,-0.36032808,0.269211,1.0080098,-0.012557429,-0.6891298,1521.1978
2023-12-27,-0.21454994,-0.38002044,-0.011053795,0.0650699,0.46599877,-0.09645769,0.27671447,-0.35264087,0.26746374,0.9974308,-0.011008211,-0.6989783,375.83582
2023-12-28,-0.22176807,-0.38568997,-0.008274611,0.05688425,0.45608178,-0.09875515,0.28565565,-0.3553248,0.26936963,1.006628,-0.0072272224,-0.67851174,89.990295
2023-12-29,-0.21438712,-0.3747512,-0.0054799765,0.060043894,0.4573151,-0.09419772,0.28131375,-0.35794812,0.27051,1.0118891,-0.008238562,-0.6931683,69.73562
2024-01-02,-0.21551937,-0.37335795,-0.003051551,0.05762496,0.45607314,-0.09397976,0.28569153,-0.362683,0.27276292,1.0243406,-0.0073103933,-0.6936588,66.02528
2024-01-03,-0.1566855,-0.28581965,-0.04468219,0.047259964,0.29882953,-0.05280708,0.18285361,-0.21491063,0.21598345,0.597648,-0.016627472,-0.42357373,1816.863
2024-01-04,-0.15973908,-0.30571097,-0.024663964,0.021283448,0.31133667,-0.082501665,0.223234,-0.24659432,0.23799405,0.7161931,-0.021526862,-0.46317232,274.75897
2024-01-05,-0.18236287,-0.3343158,-0.015006902,0.0059368983,0.3133199,-0.100135565,0.2574918,-0.27145684,0.24792418,0.78132665,-0.018581282,-0.45213008,211.55354
2024-01-08,-0.19974713,-0.3515644,-0.0070606973,-0.0056413785,0.2992465,-0.11120924,0.2763172,-0.28172034,0.24989086,0.8163904,-0.011392673,-0.42164123,340.01895
2024-01-09,-0.16368094,-0.33034122,-0.016207362,-0.0026943013,0.3418249,-0.120331496,0.2694369,-0.29958048,0.2615484,0.91210735,-0.016946156,-0.5620945,335.58408
2024-01-10,-0.16177945,-0.32049608,-0.012121255,0.0025038347,0.34852722,-0.11575629,0.26652083,-0.30564082,0.263265,0.945034,-0.014765768,-0.5951456,254.16518
2024-01-11,-0.14862445,-0.30265075,-0.009512283,0.01066827,0.36453077,-0.11198893,0.25950578,-0.31580663,0.26748306,0.98711133,-0.01705524,-0.6542447,406.59534
2024-01-12,-0.14687419,-0.2924134,-0.0050201938,0.01487796,0.36310348,-0.107436955,0.25430197,-0.31654346,0.26692617,1.0026097,-0.01587088,-0.6671786,108.63844
2024-01-16,-0.14463423,-0.28306216,-0.000803886,0.019284703,0.35454616,-0.10431975,0.24865471,-0.30937463,0.26501715,1.0042515,-0.012280594,-0.67075735,152.10999
2024-01-17,-0.11582883,-0.25720155,-0.009775003,0.03516528,0.3785884,-0.0966059,0.22491919,-0.30488735,0.2641416,1.0161148,-0.01570483,-0.7532898,1294.24
2024-01-18,-0.11987014,-0.2598679,-0.009056056,0.040290818,0.40222123,-0.09562893,0.23177557,-0.31814334,0.27145028,1.0601702,-0.017559405,-0.80138665,66.40257
2024-01-19,-0.15037888,-0.28088108,-0.02100421,0.046439152,0.39727005,-0.08665037,0.23762886,-0.3139705,0.2644121,1.0300252,-0.0058022095,-0.75540143,273.32104
2024-01-22,-0.14961442,-0.26734233,-0.024985904,0.058890488,0.38760102,-0.07290551,0.2207266,-0.30355954,0.25554004,0.9903232,-0.00097338203,-0.73675585,172.72446
2024-01-23,-0.13082704,-0.25587815,-0.036942817,0.06653106,0.40095907,-0.07173252,0.20836645,-0.2979768,0.25515234,0.98466706,-0.005493055,-0.7821886,561.3846
2024-01-24,-0.14457574,-0.2596872,-0.039761588,0.0707154,0.38813445,-0.06302965,0.20611389,-0.289571,0.2493132,0.95603824,0.0012620529,-0.74537545,178.02777
2024-01-25,-0.13000433,-0.23130968,-0.032257862,0.08233817,0.36863807,-0.0508766,0.18322779,-0.27501887,0.24109969,0.92267895,0.0023398912,-0.7352815,190.28925
2024-01-26,-0.13845965,-0.23476182,-0.035093307,0.080349565,0.34047905,-0.042982023,0.1742375,-0.2556029,0.23008946,0.86103356,0.013604076,-0.6625287,556.86383
2024-01-29,-0.14712563,-0.23946394,-0.032517172,0.07449942,0.33372685,-0.04270863,0.18116416,-0.2575664,0.23187801,0.8627628,0.01648821,-0.6415519,55.591114
2024-01-30,-0.12536912,-0.2338928,-0.04224906,0.0752969,0.35741177,-0.05225763,0.17765526,-0.2633325,0.2360161,0.8893306,0.0092890235,-0.70603913,140.32262
2024-01-31,-0.13962892,-0.24965797,-0.04226368,0.06494717,0.35133255,-0.056346823,0.19106928,-0.26648802,0.23855326,0.88688457,0.014296944,-0.67038953,110.4808
2024-02-01,-0.12488196,-0.22759156,-0.032612033,0.06745959,0.34878936,-0.05223072,0.1852196,-0.26860452,0.24240884,0.8930608,0.009365554,-0.69491935,98.45419
2024-02-02,-0.14045435,-0.24830973,-0.03853199,0.060304485,0.3695264,-0.059395205,0.20797898,-0.28993228,0.2516929,0.93980896,0.010814256,-0.71008676,116.93804
2024-02-05,-0.12614803,-0.22413006,-0.03585653,0.07226525,0.35990527,-0.047487985,0.18502708,-0.28034472,0.24396166,0.9149194,0.008614258,-0.7127788,110.13713
2024-02-06,-0.11271872,-0.21986932,-0.03565926,0.058903173,0.34082523,-0.057777528,0.18101469,-0.26849365,0.24119237,0.9013705,0.007709802,-0.69286793,80.86107
2024-02-07,-0.12591979,-0.22512613,-0.033914387,0.05357034,0.31250897,-0.052297805,0.18084896,-0.25607258,0.2347936,0.85968816,0.014996163,-0.6253175,162.09369
2024-02-08,-0.11911881,-0.21129143,-0.0255253,0.054609757,0.3027307,-0.05077311,0.1754687,-0.25701183,0.23391631,0.8669162,0.013130025,-0.62552166,61.300026
2024-02-09,-0.127718,-0.2123668,-0.017617052,0.04959788,0.2741172,-0.05051091,0.17523257,-0.24546221,0.22821379,0.8391323,0.017786,-0.5690734,112.611626
2024-02-12,-0.117295176,-0.19893485,-0.015305953,0.05814533,0.292393,-0.044567075,0.16787435,-0.25222886,0.2312321,0.8676431,0.014791387,-0.62003726,100.74084
2024-02-13,-0.10840914,-0.20056564,-0.019889252,0.05425974,0.27839684,-0.05055405,0.16091828,-0.23573439,0.22511578,0.8274523,0.014975489,-0.59620064,86.292465
2024-02-14,-0.10585471,-0.18880358,-0.010404391,0.05421167,0.26151177,-0.045803767,0.15518157,-0.22859268,0.22270831,0.80615056,0.015487705,-0.574217,88.80524
2024-02-15,-0.15133171,-0.24462686,-0.02490977,0.03998411,0.28658774,-0.06044801,0.19813406,-0.254371,0.23371756,0.8585855,0.021879036,-0.55936235,374.00708
2024-02-16,-0.16282898,-0.24779451,-0.01544355,0.03297942,0.23786813,-0.060479496,0.19692555,-0.23502491,0.22335184,0.7898792,0.028449286,-0.45503092,150.79953
2024-02-20,-0.1794796,-0.24462874,-1.4530495e-05,0.025140055,0.1470619,-0.051381763,0.17881529,-0.19275442,0.19853622,0.65003693,0.03993922,-0.2662882,326.2609
2024-02-21,-0.17150348,-0.2458138,0.0012531877,0.021729626,0.1260801,-0.05495381,0.16695987,-0.17360108,0.19007134,0.6086823,0.042303693,-0.23043254,8810.827
2024-02-22,-0.21940869,-0.29307234,-0.00244507,0.0077998564,0.0907124,-0.06511696,0.19270946,-0.16789126,0.18260616,0.5552961,0.054268774,-0.09805762,570.0567
2024-02-23,-0.23639344,-0.29764885,-0.0031666346,0.01210355,0.07058535,-0.061032053,0.18885578,-0.16534385,0.1734431,0.5184487,0.05913176,-0.036033608,209.83539
2024-02-26,-0.24154063,-0.30059654,-0.0014409702,0.012015097,0.07085874,-0.061025944,0.19165808,-0.16977116,0.174348,0.524366,0.060869355,-0.032441773,77.522125
2024-02-27,-0.22826394,-0.30384445,-0.0110526625,0.0101678,0.083803624,-0.07208319,0.19061975,-0.16713542,0.17601272,0.5291058,0.057479355,-0.064863764,834.83
2024-02-28,-0.24466264,-0.31438494,-0.012073489,0.009452723,0.06424735,-0.06658828,0.19067411,-0.15545441,0.16891985,0.4877479,0.06642853,-0.0077927187,180.29993
2024-02-29,-0.24015461,-0.30063933,-0.008166485,0.015671663,0.03919203,-0.05409039,0.17208885,-0.13600306,0.15758172,0.42504445,0.07204144,0.038525112,806.78235
2024-03-01,-0.24830222,-0.30607268,-0.012689283,0.01872715,0.041262157,-0.047574688,0.17001167,-0.13550554,0.15441842,0.41356188,0.076977365,0.05232025,146.34865
2024-03-04,-0.2523961,-0.29557848,-0.007564841,0.02331163,0.016870426,-0.037941854,0.1578945,-0.12324074,0.14461562,0.3688805,0.08224044,0.10189934,284.23233
2024-03-05,-0.2258685,-0.27696237,-0.013087789,0.028918356,0.028301105,-0.03477088,0.13797878,-0.11377614,0.14209452,0.3642039,0.07916152,0.053891655,264.14185
2024-03-06,-0.23159096,-0.26768512,-0.0024597812,0.027056962,-0.032016687,-0.023004357,0.11754919,-0.08187747,0.12328145,0.2519213,0.086670935,0.17907351,669.177
2024-03-07,-0.25463477,-0.2865129,-0.0037667174,0.021657426,-0.049049594,-0.025158364,0.12746891,-0.08070836,0.11938718,0.22676942,0.09322869,0.24135625,217.9921
2024-03-08,-0.2631047,-0.28610063,-0.0006980989,0.024131745,-0.06578405,-0.020945687,0.12109723,-0.07222739,0.11158125,0.20088506,0.09887252,0.281692,203.44911
2024-03-11,-0.26147968,-0.28296566,0.0063117333,0.017978363,-0.09064522,-0.02201353,0.11570082,-0.06252669,0.10417063,0.16190721,0.10297919,0.32927063,1139.21
2024-03-12,-0.26150638,-0.29326886,-0.0021132398,0.010035075,-0.07422012,-0.03194881,0.12773632,-0.07209617,0.10976107,0.17119199,0.101175554,0.31656468,286.9862
2024-03-13,-0.2751944,-0.32422596,-0.013972832,0.006305307,-0.01633737,-0.046329286,0.16296007,-0.11085658,0.13004325,0.27953792,0.09534908,0.23476776,931.8635
2024-03-14,-0.270171,-0.3140291,-0.002583297,0.0010191053,-0.0423548,-0.04576454,0.15569752,-0.10084003,0.124595754,0.2452141,0.097728446,0.28055555,382.7486
2024-03-15,-0.2701199,-0.30846345,0.0067355856,0.0015997663,-0.056067333,-0.045472976,0.15055324,-0.09731245,0.118452534,0.21867993,0.09924544,0.31011045,487.1575
2024-03-18,-0.2942891,-0.32257968,0.014344178,0.002834469,-0.11283255,-0.04566064,0.14474289,-0.07221945,0.0986124,0.13740736,0.10864544,0.42836636,436.48743
2024-03-19,-0.28975844,-0.33328465,0.0075898217,-0.004432395,-0.09239127,-0.057687256,0.15427546,-0.08734317,0.10574861,0.16802037,0.10484272,0.39963895,420.02554
2024-03-20,-0.29752773,-0.34367412,0.0073432326,-0.007006727,-0.087754294,-0.064213425,0.16469795,-0.097158164,0.10846619,0.18307002,0.10393423,0.4049687,115.17944
2024-03-21,-0.30409366,-0.34959403,0.006564852,-0.0058778673,-0.08658374,-0.065675855,0.16911514,-0.10137403,0.10856468,0.18708381,0.10395104,0.41232747,45.389534
2024-03-22,-0.30281445,-0.339822,0.011303552,0.0010736138,-0.10877936,-0.058652226,0.15636785,-0.08953565,0.09973875,0.1529775,0.106869474,0.4424957,285.6932
2024-03-25,-0.30124882,-0.33094525,0.014659287,0.0058052912,-0.12280983,-0.052044358,0.14669876,-0.07927297,0.09393239,0.13126655,0.10927618,0.45864385,541.2661
2024-03-26,-0.29577726,-0.33384824,0.008866379,0.0010850057,-0.10849029,-0.055525202,0.14862761,-0.0825327,0.09802209,0.1445182,0.10804643,0.43332884,168.38954
2024-03-27,-0.30187768,-0.3390866,0.010429689,-0.00036666542,-0.111623004,-0.05747099,0.15397732,-0.08453037,0.09878251,0.14901787,0.10903988,0.44330594,174.58032
2024-03-28,-0.30996242,-0.34979367,0.01087985,-0.004358813,-0.11020229,-0.06217539,0.16393161,-0.0899718,0.10092252,0.15928689,0.10914308,0.4529758,1132.6172
2024-04-01,-0.30614546,-0.34202105,0.017807046,-0.0023499802,-0.12235899,-0.06024224,0.15861462,-0.08565712,0.097538896,0.14279275,0.10933707,0.4669518,152.36041
2024-04-02,-0.2956596,-0.3373909,0.015421066,-0.0024880767,-0.110637546,-0.059300136,0.15367183,-0.08648741,0.09871061,0.14823157,0.107884705,0.4417954,51.009293
2024-04-03,-0.28801793,-0.32648265,0.015951172,-0.0022286177,-0.112142235,-0.053607147,0.1487352,-0.082043156,0.09883048,0.14505535,0.108653374,0.4299093,44.661816
2024-04-04,-0.30403793,-0.33943465,0.010315244,-0.0042277947,-0.11033895,-0.05390879,0.15889744,-0.08377075,0.100059986,0.1524845,0.112974115,0.44257736,158.96431
2024-04-05,-0.27239466,-0.2994967,0.02548178,0.0048893765,-0.13247512,-0.038040947,0.12494344,-0.06298843,0.09034433,0.10694158,0.11010176,0.4403754,523.1432
2024-04-08,-0.30048585,-0.3312173,0.014608228,-0.0016337857,-0.11567058,-0.04856534,0.15248571,-0.0793426,0.09744308,0.14414266,0.113513455,0.44597483,332.3634
2024-04-09,-0.2975368,-0.3382221,0.0033933725,-0.0047649518,-0.08892329,-0.0525185,0.15901904,-0.09004681,0.1049398,0.17007294,0.110344574,0.40670544,357.83698
2024-04-10,-0.29693523,-0.3333999,0.008550931,-0.0026125237,-0.09613072,-0.04832836,0.15407586,-0.08592415,0.102235645,0.15993468,0.112574115,0.4154134,235.25932
2024-04-11,-0.28637385,-0.31858432,0.016727742,-0.00031294674,-0.108498454,-0.042759005,0.14235131,-0.07691166,0.09857524,0.14449662,0.11285231,0.41787446,248.20734
2024-04-12,-0.3067099,-0.33648315,0.007832323,0.00027400255,-0.09239145,-0.04349472,0.157705,-0.08428654,0.10205935,0.16658567,0.11516557,0.41542792,311.84988
2024-04-15,-0.27503335,-0.28893328,0.027165338,0.014348835,-0.12250161,-0.02333178,0.1160307,-0.056179397,0.08838179,0.10611673,0.113402575,0.41536444,5598.014
2024-04-16,-0.28329393,-0.3058206,0.01686306,0.0071092546,-0.11075342,-0.030608173,0.12918444,-0.061860967,0.09403731,0.12679926,0.11562973,0.40578794,189.61208
2024-04-17,-0.32422,-0.3445558,0.0075757904,0.002090685,-0.09584557,-0.040795397,0.16357884,-0.07691495,0.10047858,0.16038266,0.12143639,0.42845446,294.4245
2024-04-18,-0.3300455,-0.34878123,0.015616258,-0.0006987676,-0.10451026,-0.04520036,0.17089266,-0.07824524,0.10097294,0.16390571,0.12174432,0.4458099,275.61127
2024-04-19,-0.3399291,-0.35762036,0.023305655,-0.005066879,-0.11317688,-0.051433403,0.18279825,-0.080598466,0.101784654,0.17007348,0.12243752,0.47054815,722.6271
2024-04-22,-0.33911064,-0.3637092,0.03807726,-0.012193099,-0.120002925,-0.062264826,0.1940261,-0.08844828,0.10386683,0.17707364,0.117887184,0.4883576,262.6036
2024-04-23,-0.3526725,-0.40837044,0.020303233,-0.033230193,-0.065264605,-0.0899526,0.23587297,-0.12495172,0.12546375,0.27010208,0.11132669,0.43488985,478.25385
2024-04-24,-0.3551727,-0.41582656,0.024502814,-0.037779592,-0.061844364,-0.09828475,0.24737014,-0.13484003,0.12955095,0.29397845,0.10993498,0.43497962,77.56918
2024-04-25,-0.35155627,-0.41200924,0.038045757,-0.03918869,-0.07572378,-0.10059121,0.24711381,-0.13366859,0.12721595,0.287622,0.110712096,0.45291808,95.49403
2024-04-26,-0.37188545,-0.43578672,0.040044796,-0.046191,-0.056866363,-0.11275989,0.27628604,-0.1515038,0.13645409,0.32317245,0.107094504,0.45313978,119.76273
2024-04-29,-0.37350938,-0.43050492,0.042166684,-0.03733453,-0.055122666,-0.107649386,0.2718978,-0.15289006,0.1356374,0.33199802,0.106893085,0.44718462,41.054554
2024-04-30,-0.3640485,-0.4355678,0.034561023,-0.046081997,-0.042994335,-0.113990605,0.2734029,-0.15320966,0.13956061,0.34327185,0.105338745,0.42361027,86.845764
2024-05-01,-0.34375125,-0.41503364,0.055121444,-0.051755823,-0.06548303,-0.116989255,0.267944,-0.14523017,0.14079052,0.34631455,0.09998581,0.42372954,151.11154
2024-05-02,-0.34386846,-0.4286855,0.0651938,-0.059841268,-0.022579862,-0.12312485,0.28803533,-0.18157907,0.1588226,0.4466757,0.09447182,0.35930857,203.0137
2024-05-03,-0.34769854,-0.43271613,0.06913302,-0.05780726,-0.008396512,-0.1225528,0.29170412,-0.19147205,0.16183466,0.47050974,0.09238249,0.3428258,95.52751
2024-05-06,-0.36067238,-0.44250447,0.07008556,-0.050049625,0.011192234,-0.12188661,0.29705617,-0.20269248,0.16324729,0.50233954,0.09295553,0.3181945,277.7687
2024-05-07,-0.34098628,-0.44390798,0.07385517,-0.05366095,0.03823997,-0.14133058,0.2977453,-0.21253179,0.16965175,0.5665102,0.08697393,0.24025437,328.7004
2024-05-08,-0.3554609,-0.4587975,0.081406705,-0.057845138,0.043776132,-0.14928105,0.31325063,-0.22512703,0.1749763,0.59830046,0.08445182,0.2360886,70.241974
2024-05-09,-0.36427274,-0.46703315,0.08710185,-0.05978035,0.033938535,-0.15195686,0.3195128,-0.22529908,0.17359549,0.5904924,0.08494651,0.26648715,56.511803
2024-05-10,-0.369151,-0.47560924,0.09171873,-0.0598348,0.029401885,-0.15472472,0.32089987,-0.22636618,0.17114824,0.5811081,0.08215337,0.2865478,38.478493
2024-05-13,-0.38048273,-0.48173583,0.09618192,-0.056044422,0.020263875,-0.15363312,0.32303175,-0.22602592,0.16720888,0.56437665,0.0821108,0.31771827,64.26928
2024-05-14,-0.3555482,-0.47260332,0.094354965,-0.05940067,0.022441769,-0.16211978,0.31115833,-0.2166868,0.16528153,0.5596403,0.0783059,0.28960186,55.89155
2024-05-15,-0.38727078,-0.49794483,0.08826631,-0.058269255,0.0102727655,-0.16066682,0.3238331,-0.21162869,0.15986714,0.5364668,0.084723204,0.3515193,121.16265
2024-05-16,-0.4019533,-0.4997853,0.08278443,-0.047771297,0.00523361,-0.15482797,0.32109427,-0.2101986,0.15420553,0.52271366,0.08488706,0.3717271,94.644196
2024-05-17,-0.408358,-0.50214404,0.09412831,-0.045759298,-0.010019591,-0.15462354,0.32163158,-0.2056085,0.15092863,0.50697935,0.08379254,0.4047852,329.22772
2024-05-20,-0.4140235,-0.50964606,0.091285475,-0.045815922,-0.014850309,-0.15453473,0.32483515,-0.20425509,0.14948003,0.49081996,0.08092908,0.42860907,69.39982
2024-05-21,-0.40700167,-0.5019622,0.08487706,-0.038953096,-0.012944398,-0.1538201,0.3092571,-0.191187,0.14219815,0.49637738,0.0869735,0.39348826,71.35989
2024-05-22,-0.40678984,-0.5061969,0.090396285,-0.04171232,-0.0061478447,-0.16142285,0.31484622,-0.20182513,0.14588593,0.53453255,0.08304366,0.3763242,98.46226
2024-05-23,-0.39876655,-0.49166834,0.10469795,-0.038013577,-0.01959723,-0.1565329,0.30350414,-0.19475135,0.14185524,0.5403938,0.08373586,0.37511158,263.4485
2024-05-24,-0.3881195,-0.46535194,0.114197284,-0.035671063,-0.030124022,-0.14619091,0.28930196,-0.18918246,0.14055462,0.5534198,0.08683319,0.3559008,103.26695
2024-05-28,-0.38651237,-0.4648794,0.10439061,-0.030182905,-0.013003273,-0.14035535,0.285916,-0.1937027,0.1424635,0.5704178,0.08577069,0.32003877,104.603836
2024-05-29,-0.3402761,-0.414254,0.11265868,-0.02161526,-0.029891742,-0.12846202,0.23850082,-0.16304302,0.13052091,0.5382254,0.08481921,0.28572747,255.77956
2024-05-30,-0.3198798,-0.38778067,0.118566155,-0.020532407,-0.028106457,-0.11809498,0.22199197,-0.15591374,0.1314464,0.5540427,0.08620593,0.2398606,69.31063
2024-05-31,-0.34348252,-0.40789157,0.11844488,-0.034930073,-0.049112394,-0.1217615,0.2428153,-0.15296228,0.13456562,0.53387123,0.09006296,0.29766676,206.49161
2024-06-03,-0.3494999,-0.42794335,0.116237864,-0.049318947,-0.03112307,-0.13881107,0.27065924,-0.17930704,0.14733945,0.58024645,0.08277385,0.2839374,159.93092
2024-06-04,-0.30279544,-0.39799118,0.12812191,-0.05444502,-0.005841775,-0.1485725,0.25476804,-0.18832394,0.1551072,0.6465281,0.07293643,0.17825082,205.94376
2024-06-05,-0.30070093,-0.39406407,0.13633779,-0.053426556,0.007513186,-0.15224329,0.2581932,-0.20163663,0.16004056,0.6902896,0.06855709,0.13991165,286.91934
2024-06-06,-0.3157602,-0.38973618,0.13092922,-0.034924403,-0.00051398017,-0.13763013,0.24665476,-0.19079801,0.14927736,0.6574087,0.074258685,0.1629749,207.27754
2024-06-07,-0.3067643,-0.37432015,0.1349804,-0.026098378,-0.0039505865,-0.12990099,0.23164906,-0.18225197,0.14520347,0.6455687,0.07213108,0.1520986,734.0442
2024-06-10,-0.30021894,-0.36682087,0.13320507,-0.024576336,0.0020176899,-0.12702787,0.22881968,-0.18369111,0.1486579,0.6573105,0.06963915,0.12734984,190.50441
2024-06-11,-0.27313912,-0.34142846,0.12475082,-0.013814785,0.0040686745,-0.11894235,0.19929354,-0.16366237,0.14164111,0.6270727,0.065144815,0.09600038,238.29074
2024-06-12,-0.2827724,-0.33403134,0.12133099,0.00056190044,0.0023221727,-0.104222775,0.18812148,-0.15555722,0.13554889,0.6102334,0.06885906,0.09682447,191.90775
2024-06-13,-0.28923407,-0.3213129,0.111324966,0.018206917,-0.006461287,-0.08206904,0.16804545,-0.13938503,0.12477004,0.56514394,0.07501505,0.11489107,3618.0862
2024-06-14,-0.29290348,-0.2844537,0.10508312,0.046925757,-0.060874462,-0.0471817,0.12744649,-0.09786846,0.09876322,0.41590065,0.07893673,0.21860373,1257.4291
2024-06-17,-0.2691387,-0.24827786,0.10504942,0.06806239,-0.040126488,-0.029563468,0.09983632,-0.097544216,0.097374454,0.42641196,0.0729368,0.14866474,202.8538
2024-06-18,-0.26499942,-0.2587297,0.08304678,0.076179296,-0.0029315893,-0.030717697,0.10044388,-0.10093537,0.102468334,0.44386622,0.06878561,0.0860841,196.41302
2024-06-20,-0.26738495,-0.2651456,0.080969095,0.07556702,0.016985172,-0.033068206,0.109565385,-0.11210154,0.111105435,0.48537913,0.06759213,0.04419787,782.03986
2024-06-21,-0.24974446,-0.24288522,0.09501825,0.08045611,0.0116636995,-0.027373116,0.09493063,-0.107843086,0.10946343,0.48722994,0.06515499,0.03244978,136.56781
2024-06-24,-0.24835166,-0.25929475,0.08741559,0.0790332,0.08211608,-0.03564926,0.119853206,-0.14440618,0.13312237,0.60675335,0.059069734,-0.10337191,1185.5509
2024-06-25,-0.24252135,-0.285756,0.084008425,0.05999545,0.123266615,-0.06633325,0.15271093,-0.17140514,0.15403906,0.69701767,0.04823434,-0.18088078,346.74765
2024-06-26,-0.24059322,-0.2977708,0.08331461,0.050719135,0.16741051,-0.08077966,0.17805912,-0.20365514,0.17405993,0.79496586,0.04277363,-0.26505333,199.1971
2024-06-27,-0.22698179,-0.28635737,0.08391573,0.056642406,0.19226563,-0.075267956,0.16969185,-0.20783408,0.17895666,0.818614,0.0389322,-0.31803265,85.06854
2024-06-28,-0.20992121,-0.2755242,0.08904863,0.05238477,0.20410462,-0.07550572,0.16319768,-0.21213171,0.18382207,0.83471954,0.033298656,-0.3460823,65.27721
2024-07-01,-0.21093616,-0.27518922,0.1103159,0.03986289,0.19240086,-0.08513568,0.17056328,-0.22371851,0.18841252,0.85217273,0.02749684,-0.31965435,106.50304
2024-07-02,-0.19030628,-0.29050934,0.09191579,0.03175397,0.24800736,-0.10306457,0.18558638,-0.24596736,0.2035063,0.91964626,0.019011967,-0.41847777,198.7845
2024-07-03,-0.18284354,-0.29513162,0.09051517,0.030765295,0.2856462,-0.11108479,0.19672005,-0.27064174,0.21698579,0.96925676,0.007960222,-0.48288763,134.67897
2024-07-05,-0.18778569,-0.29810488,0.09190154,0.029791027,0.29839045,-0.11231825,0.20529132,-0.2821303,0.22360215,0.99114954,0.0069479095,-0.50215,44.5968
2024-07-08,-0.17776692,-0.2875065,0.09377281,0.035593584,0.32784262,-0.110225976,0.20507236,-0.29993278,0.23409164,1.0382586,-0.0009210473,-0.5763189,186.02484
2024-07-09,-0.16906264,-0.29560244,0.07692779,0.031079382,0.35879448,-0.11734435,0.21386354,-0.3083688,0.243399,1.069823,-0.0056588287,-0.6386291,593.57574
2024-07-10,-0.1610888,-0.29033744,0.08458705,0.027451023,0.36623862,-0.12086177,0.21570094,-0.31876302,0.25057837,1.0935936,-0.012054252,-0.6637614,159.55432
2024-07-11,-0.15755841,-0.28023243,0.097858086,0.0245055,0.33816448,-0.116929084,0.20222022,-0.30781054,0.24201459,1.0611514,-0.0106231375,-0.61439604,78.39005
2024-07-12,-0.16760097,-0.29090786,0.1059958,0.009487964,0.32729378,-0.123857945,0.21941604,-0.3132718,0.24732023,1.0703375,-0.01042433,-0.57993764,109.73746
2024-07-15,-0.17655756,-0.2979209,0.10847503,0.003859423,0.33452317,-0.12728146,0.23520522,-0.3270235,0.2540676,1.1010945,-0.011168486,-0.58417135,99.44572
2024-07-16,-0.15649408,-0.302355,0.10951887,-0.009589106,0.33980358,-0.14943443,0.24235626,-0.3339973,0.2599438,1.1216009,-0.020574138,-0.6019891,477.87122
2024-07-17,-0.16752848,-0.31607762,0.12045029,-0.02668807,0.3072618,-0.1565797,0.2546799,-0.33456331,0.2548076,1.085733,-0.021591336,-0.4975353,246.96931
2024-07-18,-0.16136688,-0.32885206,0.1396839,-0.04853397,0.29998317,-0.18203852,0.2779069,-0.3539484,0.2606993,1.086018,-0.037403345,-0.44495457,225.22629
2024-07-19,-0.20175463,-0.3622706,0.14629914,-0.05927352,0.2859529,-0.18957981,0.3095392,-0.35509807,0.2580676,1.0715057,-0.027079035,-0.35772145,132.13467
2024-07-22,-0.21329254,-0.38167346,0.14284599,-0.06743824,0.30424502,-0.1979816,0.33343336,-0.3707164,0.26796228,1.1123419,-0.028470915,-0.3718458,66.88969
2024-07-23,-0.22194526,-0.4166293,0.10558803,-0.06849977,0.3579904,-0.21185663,0.3620466,-0.3928582,0.28197587,1.1738014,-0.028091151,-0.45897847,115.62078
2024-07-24,-0.20954981,-0.40242708,0.120596245,-0.06721013,0.3551253,-0.21199566,0.35385427,-0.3918363,0.2822757,1.1981406,-0.032458473,-0.47711962,50.158585
2024-07-25,-0.1771613,-0.34309727,0.14785808,-0.064139985,0.25820196,-0.1893253,0.29517016,-0.33525926,0.24953762,1.0186921,-0.033489954,-0.3187607,189.3264
2024-07-26,-0.23687445,-0.40608442,0.14680795,-0.086268,0.2327545,-0.20503306,0.34104386,-0.3375709,0.24731278,0.9981607,-0.016050678,-0.1885427,217.48856
2024-07-29,-0.25951004,-0.4333157,0.12900417,-0.08312342,0.24775903,-0.20607144,0.36049214,-0.35143298,0.24863988,0.9923701,-0.012444458,-0.17021972,82.09875
2024-07-30,-0.23426712,-0.4354673,0.12500846,-0.09033727,0.29584923,-0.22689891,0.37354004,-0.37314683,0.26573625,1.0746579,-0.025153007,-0.28007996,243.14503
2024-07-31,-0.23098911,-0.4439146,0.12983613,-0.09763693,0.29387715,-0.23953912,0.38506332,-0.3825299,0.26790166,1.0507114,-0.03409286,-0.24132174,79.54161
2024-08-01,-0.2740608,-0.48679084,0.10356068,-0.0885522,0.35161242,-0.24757034,0.43385202,-0.42223692,0.2852761,1.1119184,-0.03270353,-0.29597685,142.93054
2024-08-02,-0.22940446,-0.44933861,0.12571295,-0.08583737,0.39886758,-0.2582562,0.43191501,-0.45470166,0.3075099,1.2127111,-0.054057304,-0.43393612,203.10054
2024-08-05,-0.22746794,-0.40954667,0.12402734,-0.06309139,0.33841953,-0.228571,0.39340964,-0.41906446,0.2813902,1.069793,-0.050009202,-0.33774215,130.87675
2024-08-06,-0.18304938,-0.3387248,0.11072533,-0.038937517,0.25871557,-0.18156785,0.30297473,-0.3362599,0.24109778,0.87726855,-0.037995357,-0.2519297,254.43816
2024-08-07,-0.28207105,-0.491032,0.09028469,-0.07833197,0.36565748,-0.25410736,0.45447662,-0.44206554,0.29344597,1.163736,-0.035743907,-0.35290635,481.82617
2024-08-08,-0.2674728,-0.48170125,0.10662934,-0.07947027,0.35827592,-0.2647968,0.45543364,-0.4474193,0.29326656,1.1598811,-0.04486357,-0.33319992,65.76957
2024-08-09,-0.28541297,-0.5039528,0.10264924,-0.086654775,0.35025394,-0.2791656,0.47877052,-0.45979017,0.2956563,1.172456,-0.043199163,-0.2977993,55.887646
2024-08-12,-0.28599685,-0.5055265,0.104119755,-0.09277285,0.33460087,-0.2851342,0.48311624,-0.45857042,0.295015,1.1632532,-0.042333435,-0.26840866,29.664886
2024-08-13,-0.26830488,-0.5079499,0.09840831,-0.099687345,0.34915295,-0.3015471,0.48731014,-0.46292204,0.30072856,1.186872,-0.04833869,-0.3066459,63.925026
2024-08-14,-0.27743888,-0.5172244,0.08952546,-0.09703993,0.36669168,-0.30320978,0.49958852,-0.47823447,0.30704314,1.2202344,-0.048030782,-0.33496767,43.098133
2024-08-15,-0.2738547,-0.51309466,0.09130992,-0.09958797,0.35525367,-0.3059186,0.4980934,-0.47652537,0.30582273,1.2051423,-0.049695406,-0.31186897,23.37442
2024-08-16,-0.2763939,-0.5119747,0.07991751,-0.08818137,0.3692149,-0.30214685,0.4989982,-0.48356104,0.30689907,1.1946241,-0.05133823,-0.32492495,40.613758
2024-08-19,-0.27025717,-0.50787556,0.07488337,-0.0864914,0.37955245,-0.3000152,0.49881557,-0.48716593,0.3118666,1.1942956,-0.053648468,-0.34317356,27.286446
2024-08-20,-0.24964246,-0.5090405,0.055805184,-0.08852034,0.41235277,-0.30767643,0.49650803,-0.49055892,0.32055014,1.2273011,-0.056990292,-0.42323485,83.1415
2024-08-21,-0.22088462,-0.48837024,0.054990873,-0.08380393,0.4713523,-0.30970886,0.5015072,-0.5236571,0.34443888,1.3386028,-0.07103546,-0.58105606,123.545334
2024-08-22,-0.21669519,-0.4886425,0.05049718,-0.08142965,0.5043157,-0.30939326,0.5088287,-0.54034394,0.35701406,1.3998765,-0.07424493,-0.657985,50.684994
2024-08-23,-0.21127489,-0.47973692,0.05615425,-0.08483549,0.48033085,-0.30538464,0.5014728,-0.5295992,0.35261205,1.3551183,-0.07538532,-0.6150525,41.68598
2024-08-26,-0.23552088,-0.48949987,0.051902287,-0.087191604,0.43235263,-0.29276544,0.4937499,-0.50429434,0.33505395,1.2705678,-0.059652302,-0.49749357,95.50182
2024-08-27,-0.2225394,-0.49313295,0.04284367,-0.097110234,0.41505563,-0.3016342,0.48646858,-0.4863075,0.3283431,1.2182679,-0.05914772,-0.46515912,60.618816
2024-08-28,-0.22778259,-0.4943906,0.0346094,-0.09306949,0.4304433,-0.29626364,0.49141613,-0.4961462,0.3325218,1.2302525,-0.058185842,-0.49157912,44.08189
2024-08-29,-0.20904885,-0.47470206,0.044960886,-0.09718146,0.4148453,-0.29324162,0.48110405,-0.48999023,0.33170944,1.2128831,-0.061145503,-0.47926587,63.764935
2024-08-30,-0.22852078,-0.48972893,0.028262543,-0.092486836,0.41206953,-0.2840689,0.4831958,-0.48397106,0.325142,1.1632204,-0.055883024,-0.4377669,83.250755
2024-09-03,-0.22425807,-0.48388517,0.027004352,-0.091747336,0.40833628,-0.28069586,0.47990683,-0.4825465,0.32465968,1.1500819,-0.055934165,-0.42891565,14.769644
2024-09-04,-0.16198109,-0.43183786,0.034370862,-0.07622794,0.44983453,-0.27294368,0.44585398,-0.48591578,0.33435476,1.1950787,-0.07427954,-0.57877773,178.0758
2024-09-05,-0.18832645,-0.4710557,0.024692075,-0.0821731,0.509453,-0.28830755,0.4887955,-0.52622396,0.35699087,1.3087281,-0.07824975,-0.66826457,135.20029
2024-09-06,-0.192642,-0.4794858,0.023500634,-0.078233935,0.54185313,-0.28829056,0.49709585,-0.53868407,0.36621547,1.3570919,-0.08005956,-0.7242229,41.09773
2024-09-09,-0.16732416,-0.45029306,0.037873887,-0.072493516,0.545977,-0.28255087,0.48032883,-0.53899527,0.36833477,1.3691279,-0.08840768,-0.7670314,111.716125
2024-09-10,-0.18129548,-0.49157286,0.014801389,-0.078479506,0.59120893,-0.30444083,0.50921375,-0.5600476,0.38035867,1.4280436,-0.0910029,-0.82677895,130.93752
2024-09-11,-0.16786665,-0.4714033,0.011296442,-0.057012998,0.65840626,-0.29504883,0.51057106,-0.5902281,0.39858603,1.5346117,-0.1001195,-0.99301535,125.02873
2024-09-12,-0.16460228,-0.46724463,0.0075729284,-0.044434436,0.7018605,-0.2925885,0.5147279,-0.61036086,0.41095734,1.6171143,-0.104533315,-1.098358,93.00705
2024-09-13,-0.17260936,-0.466442,0.008254455,-0.03407722,0.70644164,-0.2884222,0.5142621,-0.6115556,0.4105199,1.6248469,-0.104165,-1.1113392,41.826523
2024-09-16,-0.20242608,-0.46810555,0.008343032,-0.021365501,0.6479807,-0.26646715,0.4986622,-0.57695574,0.38679263,1.5141151,-0.088700704,-0.98665124,119.24548
2024-09-17,-0.20211819,-0.48424226,-0.0061218273,-0.026566856,0.63040656,-0.27516538,0.4981933,-0.5588935,0.37973258,1.4710786,-0.08554964,-0.95201606,222.25203
2024-09-18,-0.22819397,-0.5005947,-0.010977363,-0.025947735,0.5831637,-0.26666933,0.49611,-0.5342548,0.3623833,1.3792825,-0.071159706,-0.82952374,153.8281
2024-09-19,-0.25689507,-0.51033056,-0.00552647,-0.030655243,0.5157061,-0.25546053,0.49106106,-0.5014996,0.34154338,1.2741636,-0.05442984,-0.6763421,160.58846
2024-09-20,-0.2934388,-0.50756425,-0.006936731,-0.029904388,0.38943455,-0.22132787,0.4524418,-0.4326706,0.29327044,1.0629243,-0.019169219,-0.40824604,237.30371
2024-09-23,-0.312433,-0.5043063,-0.0028293747,-0.029270068,0.32770082,-0.20322067,0.437352,-0.3963784,0.2723909,0.9523821,-0.004396702,-0.2791543,230.40834
2024-09-24,-0.3195248,-0.50914675,-0.021031143,-0.030707754,0.28094944,-0.19441852,0.41453257,-0.35116005,0.24899444,0.8275497,0.009240882,-0.17690873,1055.1803
2024-09-25,-0.3397942,-0.48192185,-0.015596682,-0.030257829,0.14826529,-0.1541024,0.36419278,-0.2737437,0.20359841,0.60284257,0.040099632,0.07904115,665.15094
2024-09-26,-0.35397238,-0.47625208,-0.016531559,-0.02237495,0.13222936,-0.13770595,0.35626534,-0.26154357,0.19677341,0.5764746,0.050091006,0.10387912,129.55124
2024-09-27,-0.35086593,-0.4371022,-0.017906668,-0.0017684773,0.07167453,-0.09775591,0.30134887,-0.21000636,0.16680887,0.44636372,0.0648932,0.19400498,373.54718
2024-09-30,-0.36311498,-0.4312365,-0.0060806368,0.0004292652,0.009832123,-0.09034099,0.27924857,-0.1743474,0.14074981,0.32821798,0.0777787,0.32889944,444.80844
2024-10-01,-0.36801067,-0.45169854,-0.019553376,-0.011773281,0.030543039,-0.10428986,0.2944657,-0.18381464,0.14899707,0.35027856,0.07704352,0.30933723,3326.7593
2024-10-02,-0.37817705,-0.4401703,0.01460682,-0.012223832,-0.03249032,-0.103778735,0.27613786,-0.16357398,0.12573728,0.26739419,0.088879175,0.42674834,500.53644
2024-10-03,-0.40845972,-0.46256733,0.017790228,-0.018969148,-0.049557507,-0.111980185,0.29197645,-0.16135862,0.12179133,0.24885143,0.09609376,0.49134165,190.92079
2024-10-04,-0.41704735,-0.45642102,0.026672995,-0.015098505,-0.07556768,-0.1085628,0.28573695,-0.14676335,0.11164963,0.20519872,0.10249508,0.5411941,183.16206
2024-10-07,-0.42792958,-0.46589643,0.025610607,-0.017485864,-0.08212796,-0.1116887,0.28949907,-0.14558676,0.109160654,0.19190052,0.10544437,0.5724669,55.52522
2024-10-08,-0.4009543,-0.43805718,0.030630924,-0.016931958,-0.113923125,-0.105279684,0.25895044,-0.11868645,0.09878487,0.14019835,0.1074816,0.5888979,149.78067
2024-10-09,-0.43132973,-0.46379763,0.01650211,-0.016880773,-0.0957955,-0.110504836,0.2827516,-0.12967396,0.10545241,0.1789914,0.111827195,0.5864164,138.08853
2024-10-10,-0.43892446,-0.46183288,0.020438181,-0.007701434,-0.12066889,-0.10396138,0.2690502,-0.112299815,0.0934335,0.13592115,0.11571033,0.63041,176.97916
2024-10-11,-0.43619204,-0.44878042,0.023062127,-0.0002970472,-0.13759995,-0.09332615,0.25155297,-0.0950204,0.08360432,0.09600136,0.1205605,0.65291005,206.23193
2024-10-14,-0.41710618,-0.43694592,0.025515197,-0.0028738678,-0.14831896,-0.09444365,0.24159993,-0.0913027,0.08321372,0.09242308,0.11705139,0.65466875,909.359
2024-10-15,-0.40361586,-0.4340495,0.013451105,-0.0044764206,-0.1148451,-0.09744154,0.24270032,-0.10467336,0.0926173,0.124306284,0.1115216,0.5957722,207.30312
2024-10-16,-0.39598113,-0.43345928,0.010880094,-0.00844305,-0.10096632,-0.09663257,0.24697058,-0.1120694,0.1006004,0.15657546,0.11186297,0.55904126,172.54347
2024-10-17,-0.39128026,-0.4301334,0.008843191,-0.007801242,-0.0964335,-0.09682317,0.24626048,-0.11849179,0.10398719,0.1673066,0.108756125,0.5485922,53.849052
2024-10-18,-0.38276562,-0.4179237,0.011919888,-0.003330849,-0.105751246,-0.08991061,0.23291682,-0.11073123,0.100021265,0.15114295,0.10954493,0.55228287,140.75272
2024-10-21,-0.37373883,-0.4103666,0.011845192,-0.000896208,-0.09837676,-0.086897194,0.22709142,-0.11494799,0.102408364,0.15960428,0.10641044,0.53244865,108.9586
2024-10-22,-0.3516266,-0.39346325,0.0019638482,0.003414169,-0.076448515,-0.0808485,0.2118568,-0.116160035,0.1056361,0.1673623,0.10393751,0.47655892,632.2606
2024-10-23,-0.3540237,-0.397816,0.0037363702,0.0026670024,-0.07448141,-0.082255796,0.21433939,-0.1194425,0.10665454,0.17786969,0.105018556,0.47775984,130.77568
2024-10-24,-0.35226718,-0.40108454,0.011082323,-0.0015463307,-0.0773402,-0.087135956,0.21903746,-0.12526089,0.109659165,0.19132897,0.102794826,0.47749853,385.29514
2024-10-25,-0.3461823,-0.40077102,0.0118372,-0.0038357005,-0.06534737,-0.087316036,0.22036386,-0.13356322,0.113958105,0.21285596,0.1013096,0.45594314,200.74628
2024-10-28,-0.34143034,-0.39087045,0.016513288,0.0012048706,-0.06981343,-0.08175254,0.2128591,-0.1305682,0.11131713,0.20923355,0.10201606,0.45498183,198.53987
2024-10-29,-0.32907677,-0.40070802,0.007732434,-0.009908922,-0.03590668,-0.09301312,0.22089833,-0.14796637,0.12357691,0.25510022,0.09557037,0.39817405,1112.897
2024-10-30,-0.33230934,-0.39552325,0.0055119293,-0.0031071156,-0.033269227,-0.08461012,0.21680406,-0.1449098,0.1224598,0.25725967,0.0988778,0.39029384,127.12525
2024-10-31,-0.32176408,-0.38062495,0.0023536272,0.011567466,-0.004423568,-0.06943306,0.20322622,-0.15141986,0.12291244,0.2505045,0.095643476,0.34371322,670.12683
2024-11-01,-0.31940374,-0.37299424,0.017660197,0.009919815,-0.02039758,-0.06626938,0.20135415,-0.14381936,0.120789655,0.22739606,0.0938361,0.36300927,1057.3859
2024-11-04,-0.3141585,-0.37671638,0.0076449784,0.020034414,0.048243023,-0.06153432,0.21008034,-0.1759066,0.13862759,0.30136266,0.084311366,0.25753668,618.1184
2024-11-05,-0.3167889,-0.39273995,-0.00245337,0.013940118,0.078440234,-0.07071331,0.22457188,-0.1850747,0.14772156,0.31940734,0.08210084,0.2201339,286.91483
2024-11-06,-0.3235439,-0.39260072,-0.0031553712,0.020235997,0.084674,-0.06579557,0.22323851,-0.18682116,0.14686012,0.31591192,0.081839025,0.22116482,94.849
2024-11-07,-0.2867129,-0.36827254,0.0048566572,0.019791488,0.08760456,-0.066577986,0.19794455,-0.19716418,0.14335488,0.30028054,0.06442435,0.21434113,326.9103
2024-11-08,-0.29600388,-0.36594743,0.009887157,0.028442904,0.0863071,-0.05861969,0.19353968,-0.19220144,0.1393491,0.28519186,0.06665697,0.22411788,185.18689
2024-11-11,-0.30467376,-0.38121617,0.019955125,0.023418523,0.09563619,-0.07131265,0.21139885,-0.20539075,0.14606771,0.31063294,0.058459595,0.22175479,202.24138
2024-11-12,-0.28872344,-0.38959575,0.013033839,0.014942154,0.13490282,-0.08511473,0.22280346,-0.22552024,0.16119629,0.35391802,0.04594305,0.15294394,230.65326
2024-11-13,-0.28707328,-0.40606856,0.006822913,0.013230272,0.18979193,-0.094248205,0.24541406,-0.2550007,0.17945647,0.43655792,0.039190188,0.06269006,246.93523
2024-11-14,-0.2865898,-0.41771102,0.008671362,0.00846111,0.22144191,-0.10230696,0.25967655,-0.27157813,0.19123106,0.491455,0.03465591,0.010844413,217.1216
2024-11-15,-0.2833749,-0.4179653,0.010576827,0.007440768,0.23851539,-0.10306877,0.26339242,-0.27820346,0.19736263,0.51626194,0.033819392,-0.02137024,355.2714
2024-11-18,-0.2772131,-0.4032889,0.01898821,0.003054075,0.21072917,-0.096377745,0.25471976,-0.26501888,0.19231543,0.4614725,0.031981725,0.030703746,432.61957
2024-11-19,-0.2851136,-0.43153524,0.006958374,-0.0031391978,0.24597572,-0.11184786,0.27718076,-0.2837631,0.20210552,0.5174836,0.030825943,-0.02322989,521.1638
2024-11-20,-0.2781748,-0.4269327,0.007542121,0.0019342676,0.26737574,-0.111882955,0.2760935,-0.2899521,0.20786017,0.55820477,0.029927388,-0.08042044,444.63586
2024-11-21,-0.2855175,-0.43299764,0.021320486,-0.005774811,0.24895038,-0.12101701,0.28573227,-0.29382586,0.20622988,0.55012715,0.025733046,-0.028245457,686.30493
2024-11-22,-0.30280498,-0.45347822,0.028865825,-0.015748955,0.23795098,-0.13437921,0.3062143,-0.30157572,0.20744142,0.56388664,0.026697475,0.008728042,381.8958
2024-11-25,-0.31076568,-0.47094405,0.028824976,-0.020949908,0.24980323,-0.14435811,0.32327533,-0.3147995,0.21352175,0.60314476,0.026311733,-0.006493926,247.75055
2024-11-26,-0.29142523,-0.47711414,0.021273356,-0.022868074,0.28973475,-0.15831971,0.32873246,-0.33226365,0.22389019,0.65820277,0.0156481,-0.091568045,1440.3495
2024-11-27,-0.28210837,-0.4874105,0.021422775,-0.02020327,0.33735952,-0.17186409,0.34120336,-0.35798907,0.23933035,0.75959504,0.006350956,-0.19634813,250.3822
2024-11-29,-0.28016454,-0.49342984,0.026330628,-0.025292858,0.34432438,-0.17984909,0.35210508,-0.3665443,0.24582314,0.78474903,0.0009776996,-0.21127272,160.5519
2024-12-02,-0.28728545,-0.49798346,0.033209972,-0.025430225,0.34681013,-0.18252422,0.36076394,-0.37618023,0.24835801,0.8113539,-0.00043928344,-0.21496725,188.53223
2024-12-03,-0.27525252,-0.50549054,0.024759473,-0.021227814,0.39572933,-0.1952537,0.36992905,-0.3973468,0.2604994,0.9118196,-0.0054477705,-0.33406025,1289.7346
2024-12-04,-0.2800823,-0.51049286,0.03038167,-0.020297326,0.40801838,-0.19843337,0.37775114,-0.40623152,0.26532525,0.95586705,-0.005813285,-0.36517227,61.625237
2024-12-05,-0.25757664,-0.48755175,0.033426918,-0.006277807,0.4624214,-0.1929069,0.3714605,-0.4330576,0.27924976,1.071959,-0.015575574,-0.51798296,343.181
2024-12-06,-0.24869469,-0.47966367,0.024574665,0.0029617473,0.49311474,-0.18518405,0.36784747,-0.4357881,0.2871907,1.1313937,-0.013130412,-0.6118313,233.17566
2024-12-09,-0.24071877,-0.45185995,0.009414194,0.02327434,0.49730814,-0.15747762,0.3422724,-0.41710937,0.28232083,1.1195962,-0.0069128675,-0.6651432,842.3815
2024-12-10,-0.20955426,-0.41903812,0.00072019733,0.040510666,0.5064871,-0.14258233,0.30862817,-0.4028818,0.2762284,1.1034915,-0.012687118,-0.7315636,308.27365
2024-12-11,-0.21087624,-0.42585117,-0.004734082,0.041979834,0.5453643,-0.14473224,0.32372725,-0.42449296,0.2901725,1.1684918,-0.01872877,-0.80972207,851.89734
2024-12-12,-0.20809343,-0.39538652,-0.016466891,0.06124471,0.518409,-0.11424813,0.2911701,-0.3930924,0.2751556,1.0979699,-0.008349384,-0.78716725,415.07593
2024-12-13,-0.21173692,-0.36367416,-0.01291389,0.07261241,0.42521363,-0.07767667,0.24131136,-0.3283505,0.24199787,0.91451657,0.009998596,-0.6216753,403.02563
2024-12-16,-0.24327777,-0.3294956,-0.013472922,0.10235231,0.30892497,-0.023557816,0.18444909,-0.24935113,0.19266231,0.6641164,0.034684952,-0.38060474,547.66705
2024-12-17,-0.22261252,-0.28829694,-0.030043056,0.12431725,0.25693068,0.008682141,0.1267326,-0.19637279,0.16566297,0.51819277,0.041224066,-0.30767497,445.6706
2024-12-18,-0.21167682,-0.26715818,-0.032991454,0.13318378,0.23450845,0.024821665,0.10151913,-0.17922527,0.15706065,0.46637866,0.044163827,-0.28079945,283.49615
2024-12-19,-0.16956472,-0.2079386,-0.012909224,0.13777155,0.17429706,0.042125795,0.049564794,-0.14385612,0.13885123,0.35660097,0.038174663,-0.20993245,346.60852
2024-12-20,-0.22147122,-0.26973623,-0.032325484,0.13380548,0.23404752,0.03058303,0.10673276,-0.18220636,0.16126569,0.47078988,0.047013525,-0.27648497,520.3157
2024-12-23,-0.22517076,-0.27158993,-0.030929046,0.13508962,0.23901962,0.0294541,0.11193863,-0.19018595,0.16371298,0.4840283,0.045375586,-0.28183097,32.457024
2024-12-24,-0.21373682,-0.2637345,-0.035728402,0.13809203,0.24451223,0.026307242,0.10604673,-0.18771857,0.1650376,0.48794222,0.0415695,-0.30777526,64.46422
2024-12-26,-0.21870469,-0.26687914,-0.03662266,0.14149569,0.24578933,0.026642123,0.107548706,-0.18999866,0.16481033,0.48557186,0.04076419,-0.30104062,17.659533
2024-12-27,-0.21401837,-0.2516787,-0.02880516,0.14778632,0.22629692,0.034464262,0.09359972,-0.18144476,0.1582943,0.44813004,0.039949726,-0.26697493,113.37134
2024-12-30,-0.21480449,-0.24787985,-0.024161326,0.14664099,0.21349384,0.037262503,0.09054361,-0.17529166,0.15600157,0.42385587,0.040876813,-0.2383197,59.1255
2024-12-31,-0.2074131,-0.25191003,-0.032824174,0.14281286,0.23434283,0.029546201,0.09722711,-0.17988415,0.16351366,0.4533734,0.03857113,-0.28679335,121.766365
2025-01-02,-0.22276144,-0.26659912,-0.03110891,0.1379581,0.23419653,0.025195066,0.11231745,-0.18411902,0.1665076,0.45567593,0.040956486,-0.2647233,70.73851
2025-01-03,-0.19127585,-0.2145151,-0.05520106,0.117686965,0.15126419,0.047139604,0.058223143,-0.11219819,0.14384606,0.21721253,0.031192426,-0.1020635,486.76996
2025-01-06,-0.21146727,-0.23231132,-0.05022017,0.1189051,0.1535185,0.042463794,0.07248904,-0.12309081,0.14518136,0.24426877,0.036501005,-0.08948646,117.256256
2025-01-07,-0.2023733,-0.22957301,-0.052662715,0.12274814,0.16804723,0.039747506,0.06729344,-0.12465136,0.14682241,0.27217564,0.03859573,-0.13244471,104.16974
2025-01-08,-0.20884973,-0.23048195,-0.037054293,0.116509646,0.14105286,0.03850486,0.06888766,-0.11710242,0.14281692,0.24160224,0.041216426,-0.07367166,131.05875
2025-01-10,-0.22624736,-0.24939434,-0.03670816,0.11800637,0.15905732,0.030412916,0.0896225,-0.13372031,0.14987269,0.28847006,0.039765324,-0.09501081,153.64977
2025-01-13,-0.22725734,-0.24235526,-0.012612613,0.11169204,0.12358986,0.029302321,0.08507463,-0.121920116,0.14378935,0.2648001,0.04045706,-0.034900494,191.38052
2025-01-14,-0.24942902,-0.27671844,-0.018735176,0.09791367,0.12717803,0.011018455,0.11169786,-0.12894967,0.14756835,0.27834308,0.04254525,-0.012964264,262.9322
2025-01-15,-0.2678487,-0.28711227,-0.014588224,0.095557846,0.109968066,0.013091184,0.118826605,-0.12812956,0.14110936,0.23811555,0.04803743,0.055885546,637.85547
2025-01-16,-0.28216562,-0.3093509,-0.020029133,0.09630594,0.14286989,0.0024051033,0.14175372,-0.15510386,0.14899078,0.28993458,0.045067795,0.020589061,299.75256
2025-01-17,-0.26876622,-0.2949394,-0.0116580445,0.092117086,0.13095404,0.003773488,0.13610472,-0.15063713,0.14891791,0.27866462,0.045964107,0.028685011,172.89818
2025-01-21,-0.27485403,-0.30202073,-0.013762204,0.09226237,0.13602848,0.0032173097,0.13892236,-0.1576772,0.14792857,0.2837903,0.04811276,0.035186525,78.07413
2025-01-22,-0.26774243,-0.30896074,-0.023850517,0.08781237,0.14909714,-0.0030552596,0.14172146,-0.1649935,0.15149301,0.30093193,0.04821253,0.00806364,379.9787
2025-01-23,-0.24380451,-0.28820208,-0.024321834,0.098194525,0.16770194,0.0049944445,0.12378769,-0.17007434,0.15239896,0.34089655,0.047188967,-0.060050197,1181.8457
2025-01-24,-0.24173036,-0.28427732,-0.024389775,0.09731611,0.1548736,0.008138362,0.12016944,-0.16834708,0.14874598,0.3268751,0.04873358,-0.038249522,124.01023
2025-01-27,-0.24326736,-0.28304952,-0.023001341,0.09466733,0.13934468,0.011890508,0.11871011,-0.16079378,0.14591819,0.3128833,0.051135723,-0.013307564,147.63388
2025-01-28,-0.20704795,-0.3070463,-0.0297535,0.06955629,0.2175236,-0.030935552,0.16025417,-0.20595197,0.18081394,0.42499366,0.018142732,-0.16558412,1827.1553
2025-01-29,-0.21498609,-0.34408146,-0.046188787,0.069346935,0.3014843,-0.05435082,0.20249388,-0.25601947,0.20902087,0.5916505,0.010366972,-0.3155578,424.63727
2025-01-30,-0.21037427,-0.3460105,-0.03949631,0.06332458,0.30105343,-0.060365807,0.21048483,-0.26229364,0.21329501,0.59544027,0.004094855,-0.31287217,107.52382
2025-01-31,-0.21773079,-0.36737078,-0.03846436,0.050484,0.35075882,-0.087343454,0.2579333,-0.3043803,0.24078995,0.6762452,-0.015296175,-0.38724628,656.12805
2025-02-03,-0.2090667,-0.36016035,-0.02997422,0.05098002,0.3506646,-0.086903185,0.25325647,-0.30224043,0.2425338,0.66781914,-0.0216951,-0.38938266,76.3998
2025-02-04,-0.18921734,-0.37180412,-0.03451199,0.044083323,0.4106837,-0.11427221,0.27468863,-0.33240867,0.2638904,0.75960803,-0.041490745,-0.5105334,253.3565
2025-02-05,-0.21025886,-0.40328962,-0.031043293,0.03392633,0.426477,-0.13415235,0.30569366,-0.3532225,0.274375,0.8121288,-0.04423488,-0.5126359,109.38432
2025-02-06,-0.214233,-0.40906215,-0.023925545,0.031129122,0.4403629,-0.14602195,0.32039493,-0.37174284,0.2833417,0.8583286,-0.04946864,-0.54001814,82.78109
2025-02-07,-0.2015572,-0.39711905,-0.0138793085,0.027457029,0.4333162,-0.14954701,0.31533942,-0.3741116,0.28562155,0.8750818,-0.05193034,-0.55073434,78.56889
2025-02-10,-0.19614893,-0.38943255,-0.0002474934,0.019072667,0.41591007,-0.15460487,0.31582427,-0.37315524,0.28687048,0.87332916,-0.053184066,-0.532103,147.61519
2025-02-11,-0.1999951,-0.413036,-0.014627403,0.016124114,0.4643599,-0.17347479,0.339106,-0.395321,0.3014958,0.95802593,-0.05684298,-0.6212778,5909.3027
2025-02-12,-0.1960159,-0.41058445,-0.0068539623,0.012943499,0.4637494,-0.17785132,0.34123608,-0.39806688,0.30403885,0.96515024,-0.05923981,-0.62183595,85.32263
2025-02-13,-0.18931454,-0.40482265,-0.0010881815,0.010878265,0.48106351,-0.18082844,0.34614664,-0.40898597,0.31213468,1.0094742,-0.0633741,-0.6691204,136.32883
2025-02-14,-0.19190745,-0.40495825,0.0038111918,0.010780387,0.4832582,-0.1832072,0.34908903,-0.41482902,0.3140516,1.0274557,-0.063382745,-0.6750148,459.87817
2025-02-18,-0.19060493,-0.39891696,0.008526228,0.013292246,0.48422912,-0.18035315,0.34531543,-0.41483825,0.31423742,1.031308,-0.061691824,-0.6817567,156.129
2025-02-19,-0.17465562,-0.4004504,0.0025889277,0.0060364828,0.50662,-0.19364104,0.35171947,-0.42211533,0.3243093,1.078632,-0.065057606,-0.74378455,170.92271
2025-02-20,-0.17803645,-0.4033807,0.0073255654,0.0032824352,0.50873333,-0.19741213,0.35744953,-0.42786252,0.3270763,1.1002035,-0.064645626,-0.7471277,240.53946
2025-02-21,-0.18086064,-0.39822298,0.014279382,0.0014094338,0.5029606,-0.19768158,0.35969302,-0.42691284,0.32850876,1.1143006,-0.061147112,-0.74648094,164.19008
2025-02-24,-0.17203227,-0.37570053,0.025796415,-0.00010442734,0.46167347,-0.18669313,0.3386417,-0.40086025,0.31771186,1.0582023,-0.055998895,-0.6908349,248.5187
2025-02-25,-0.17342007,-0.39728206,0.014575804,-0.013600789,0.48473933,-0.20523669,0.3610031,-0.41198647,0.3281991,1.1092718,-0.05764984,-0.7333725,13015.752
2025-02-26,-0.17541151,-0.39213723,0.020843914,-0.018455029,0.46594626,-0.20460722,0.36220637,-0.41043794,0.32592952,1.0980309,-0.057880875,-0.7034516,92.216095
2025-02-27,-0.17508528,-0.38249642,0.025356939,-0.020549953,0.4472482,-0.20081583,0.3580263,-0.40369308,0.32173425,1.088762,-0.05328061,-0.6774685,58.083664
2025-02-28,-0.16998415,-0.37041605,0.032679565,-0.023969121,0.4053068,-0.19432451,0.3441621,-0.38395095,0.30931854,1.0093104,-0.054858703,-0.5929329,99.55768
2025-03-03,-0.1809397,-0.38350242,0.03018001,-0.028575264,0.40709522,-0.20120612,0.3578897,-0.39550394,0.31093195,1.0292611,-0.053596932,-0.58079404,54.669403
2025-03-04,-0.14872178,-0.36560488,0.029146658,-0.0325061,0.41657043,-0.20577899,0.34705493,-0.39388824,0.31469482,1.0425652,-0.06366648,-0.63468593,78.25828
2025-03-05,-0.15957025,-0.37663883,0.034093134,-0.03830207,0.4245425,-0.2121911,0.3624741,-0.40401673,0.32023102,1.0830029,-0.062097553,-0.6434573,66.64211
2025-03-06,-0.16087438,-0.37972373,0.034253232,-0.03884264,0.43607175,-0.2153936,0.36981022,-0.41646695,0.3246544,1.12935,-0.062297065,-0.67299193,23.419798
2025-03-07,-0.157158,-0.36554664,0.047938667,-0.04212027,0.38807335,-0.20929675,0.3551359,-0.39586067,0.31123352,1.0610557,-0.060885113,-0.58541244,102.65014
2025-03-10,-0.18825427,-0.3862931,0.0430732,-0.046501152,0.36998567,-0.20799279,0.37308088,-0.39417297,0.30687663,1.0353392,-0.05076437,-0.5136533,89.47968
2025-03-11,-0.18408404,-0.38000226,0.040919676,-0.048982166,0.33545247,-0.20440903,0.3600801,-0.36390948,0.29340684,0.9509256,-0.04613869,-0.44284046,71.83862
2025-03-12,-0.21399166,-0.40779316,0.040455833,-0.056095622,0.34749323,-0.21309882,0.39053133,-0.37818217,0.30078372,0.99716985,-0.04003705,-0.43613833,81.55088
2025-03-13,-0.23035012,-0.41655266,0.042431846,-0.055102475,0.35275656,-0.21531424,0.40391567,-0.38615966,0.3032352,1.0254582,-0.034753986,-0.43294913,42.1168
2025-03-14,-0.25034007,-0.40418625,0.055041924,-0.05097308,0.2627146,-0.19379437,0.37876,-0.336304,0.2721256,0.8676878,-0.018810567,-0.24250484,219.02509
2025-03-17,-0.27501857,-0.4260301,0.05546067,-0.052430592,0.25400075,-0.20298976,0.39564794,-0.34483832,0.26886886,0.87418187,-0.012995142,-0.19050431,88.24476
2025-03-18,-0.27927187,-0.45196182,0.049144715,-0.06599974,0.26342258,-0.22981256,0.4202935,-0.35455865,0.27507925,0.9065498,-0.015271819,-0.19515616,96.84675
2025-03-19,-0.2764118,-0.43569124,0.05980914,-0.06669175,0.21709691,-0.2208516,0.40253055,-0.33267945,0.26042002,0.82537055,-0.01303224,-0.10018072,136.87012
2025-03-20,-0.2996567,-0.45357138,0.059257314,-0.0707595,0.19354843,-0.22387737,0.41109434,-0.32910705,0.25174892,0.79188395,-0.0055288905,-0.020398758,179.55385
2025-03-21,-0.29261103,-0.4338354,0.066498764,-0.06824189,0.16417949,-0.21396795,0.3917829,-0.3151616,0.24068344,0.73498666,-0.0037889136,0.03684702,374.70074
2025-03-24,-0.29976803,-0.4363169,0.070825435,-0.067963056,0.14888693,-0.21187177,0.38799852,-0.31116167,0.23369065,0.70896304,-0.0006783968,0.08274522,235.56769
2025-03-25,-0.2892573,-0.46309096,0.055337265,-0.08388006,0.19872548,-0.24379373,0.4179734,-0.34017193,0.25337684,0.8133197,-0.0083752135,-0.015015088,1396.3699
2025-03-26,-0.28386956,-0.45941728,0.060091943,-0.08507886,0.1954189,-0.24383044,0.4129379,-0.34069383,0.25213003,0.7995299,-0.0091735115,0.0002926737,129.38281
2025-03-27,-0.28507888,-0.45557457,0.06481348,-0.084623985,0.17077564,-0.23524621,0.3994579,-0.32767284,0.24137801,0.7175145,-0.008462937,0.07253039,24737.137
2025-03-28,-0.28937328,-0.4647662,0.060457185,-0.08449345,0.19227734,-0.2382344,0.4094232,-0.34415185,0.24804106,0.7422414,-0.011299894,0.044175044,110.60736
2025-03-31,-0.2809345,-0.43985164,0.07380554,-0.084539555,0.14822064,-0.2227417,0.3829538,-0.31726462,0.23381284,0.66620934,-0.007118282,0.11693555,291.79944
2025-04-01,-0.29029137,-0.4810844,0.06262614,-0.09996333,0.18795215,-0.25428408,0.42036015,-0.3451221,0.24891606,0.7397821,-0.012643377,0.06585946,244.41164
2025-04-02,-0.30336446,-0.4956324,0.064447284,-0.099088244,0.19544248,-0.25837624,0.4302912,-0.3552727,0.24906299,0.75317407,-0.009678797,0.07319939,58.67085
2025-04-03,-0.30493927,-0.49602634,0.06877757,-0.10043203,0.18908428,-0.25930703,0.4303852,-0.35636133,0.24786413,0.75349915,-0.009281396,0.08806851,37.559162
2025-04-04,-0.26347774,-0.43145984,0.08545117,-0.07854406,0.17986792,-0.22729737,0.3766856,-0.33603054,0.23735061,0.7165568,-0.016882874,0.0435832,249.60747
2025-04-07,-0.2474013,-0.39144766,0.09432155,-0.061320193,0.1614043,-0.19467898,0.33531561,-0.30783206,0.2245155,0.6991185,-0.0099227065,0.025710344,181.75084
2025-04-08,-0.29942206,-0.49562943,0.092417896,-0.095163114,0.2507935,-0.26603192,0.4442123,-0.38526905,0.26646888,0.94624805,-0.0155712245,-0.083295666,789.45276
2025-04-09,-0.28226936,-0.46465182,0.11222044,-0.08265101,0.23751311,-0.25453508,0.4181471,-0.38419485,0.2578441,0.93505335,-0.02431649,-0.08043625,126.333084
2025-04-10,-0.3225724,-0.51746887,0.09950418,-0.07421503,0.28449494,-0.27651197,0.45881206,-0.4310311,0.2654425,1.0207849,-0.028567802,-0.10635313,159.33328
2025-04-11,-0.26661575,-0.43596417,0.12448117,-0.04673659,0.2476687,-0.23711318,0.3813034,-0.39318466,0.24354196,0.92867064,-0.036865797,-0.112517245,200.20824
2025-04-14,-0.2939841,-0.47300625,0.12108805,-0.049929373,0.2563189,-0.25126433,0.40727916,-0.40901357,0.24554914,0.95393276,-0.037510637,-0.08894076,74.865105
2025-04-15,-0.302212,-0.5177478,0.11291652,-0.06602373,0.30421504,-0.2876266,0.4502814,-0.4417205,0.26602238,1.075269,-0.04470908,-0.17857525,243.98096
2025-04-16,-0.2931035,-0.50205004,0.12053627,-0.0586093,0.2959563,-0.2818944,0.43802276,-0.4379756,0.26183724,1.0629538,-0.047387052,-0.18058485,42.135567
2025-04-17,-0.29403836,-0.48870546,0.12612353,-0.052420236,0.25509498,-0.2663945,0.41598213,-0.41015857,0.24491277,0.96851563,-0.04327142,-0.09939631,117.852356
2025-04-21,-0.32367858,-0.5484226,0.12302938,-0.090832494,0.28424254,-0.31001914,0.4878377,-0.44154263,0.27900523,1.1410096,-0.031592228,-0.17573088,286.27728
2025-04-22,-0.30195034,-0.54146177,0.11926833,-0.098605685,0.3027319,-0.31609178,0.4899412,-0.442338,0.29124308,1.1933925,-0.02853677,-0.2531146,91.35591
2025-04-23,-0.32347313,-0.5690817,0.11038077,-0.1042017,0.32230407,-0.32747677,0.5183373,-0.4661979,0.3021575,1.2420657,-0.023938637,-0.270204,77.30338
2025-04-24,-0.31012276,-0.546154,0.10792187,-0.09594648,0.32275748,-0.311715,0.49997285,-0.46338224,0.3019875,1.2388031,-0.019007191,-0.29548982,57.684105
2025-04-25,-0.29220286,-0.5077876,0.100732476,-0.0831446,0.2984835,-0.28327784,0.46186218,-0.43957567,0.29024032,1.1769518,-0.01164716,-0.28110027,114.686165
2025-04-28,-0.27158257,-0.46564913,0.097506486,-0.07168015,0.28067854,-0.25456026,0.42382735,-0.4168427,0.28144774,1.1345822,-0.00508676,-0.29083133,128.27309
2025-04-29,-0.2536068,-0.46806836,0.084304295,-0.07685367,0.31393376,-0.26502496,0.42896432,-0.42428976,0.29318076,1.1909447,-0.00679521,-0.38203236,120.93482
2025-04-30,-0.24673253,-0.45157188,0.07807467,-0.06931812,0.31493625,-0.24912453,0.41347826,-0.4185028,0.29168886,1.1792285,-0.003855384,-0.40326387,85.03579
2025-05-01,-0.22106655,-0.41463774,0.074598104,-0.055678748,0.32816362,-0.22943217,0.38960004,-0.42059743,0.29482523,1.1900442,-0.0087371385,-0.4736287,207.15384
2025-05-02,-0.22594978,-0.41140848,0.06395747,-0.022908665,0.35082918,-0.20247826,0.36191928,-0.41630298,0.28270525,1.1608665,0.0016340492,-0.4976669,233.22855
2025-05-05,-0.21910504,-0.40030086,0.05522868,-0.012213357,0.36052737,-0.19129637,0.35058004,-0.41952562,0.28203136,1.1568696,-0.00048204046,-0.52296996,213.42459
2025-05-06,-0.1845513,-0.3908434,0.042472266,-0.0038727298,0.4281604,-0.19761078,0.34904298,-0.4451872,0.3006946,1.2606729,-0.012509151,-0.6983107,2682.2969
2025-05-07,-0.19244829,-0.393273,0.03621106,0.009499863,0.44057962,-0.18580431,0.34429073,-0.44333422,0.29784942,1.2445769,-0.009209941,-0.7059105,405.28265
2025-05-08,-0.19892412,-0.39564806,0.02567027,0.020022139,0.4638428,-0.17769763,0.34709898,-0.45100093,0.30123365,1.2568676,-0.00974951,-0.7399747,168.83665
2025-05-09,-0.20339951,-0.39207774,0.020137032,0.032167375,0.45522165,-0.16322437,0.33224878,-0.43694854,0.29099277,1.1972027,-0.006711728,-0.7025557,147.12584
2025-05-12,-0.20967999,-0.38887757,0.016842613,0.04119722,0.4452026,-0.15073694,0.3213137,-0.42438817,0.28207988,1.1407396,-0.0037651686,-0.66304475,121.65731
2025-05-13,-0.20855734,-0.40419376,-0.009531664,0.042068712,0.475022,-0.15728728,0.32733592,-0.4269814,0.28552687,1.1523813,-0.0053806594,-0.7072893,228.53238
2025-05-14,-0.19916713,-0.36838406,-0.010769332,0.05539149,0.427942,-0.12638204,0.28496066,-0.38457406,0.26439863,1.0324919,0.0058884164,-0.63166,348.38623
2025-05-15,-0.19757451,-0.35112327,-0.0148620885,0.06873469,0.41459957,-0.10597964,0.26163247,-0.36796284,0.2526385,0.97250473,0.009922051,-0.60684615,182.03233
2025-05-16,-0.20373961,-0.35165876,-0.017701937,0.06826122,0.40943053,-0.10077241,0.26154348,-0.36320364,0.25090998,0.95011044,0.012313606,-0.5866299,60.97905
2025-05-19,-0.1999064,-0.3458699,-0.015402636,0.06906603,0.4167314,-0.09972772,0.26183745,-0.369955,0.25421134,0.96778,0.009421171,-0.6090027,52.965694
2025-05-20,-0.18517879,-0.34605032,-0.029496567,0.07440166,0.46043757,-0.1064364,0.26547816,-0.38344467,0.26435778,1.0222261,0.0010631001,-0.7122025,244.17856
2025-05-21,-0.1917546,-0.35036924,-0.029973174,0.07750228,0.4707401,-0.1026506,0.2695739,-0.38810837,0.26633132,1.0367157,0.0013849912,-0.72666806,53.60942
2025-05-22,-0.18751882,-0.3337174,-0.024844011,0.0856643,0.45558694,-0.088835165,0.2509902,-0.37201053,0.2581038,0.9993868,0.0028383052,-0.71007615,176.23091
2025-05-23,-0.20015205,-0.34073585,-0.028756442,0.090302885,0.4633634,-0.08222474,0.25614578,-0.37551802,0.25729978,1.0043904,0.005805916,-0.7113587,147.69661
2025-05-27,-0.19705851,-0.32597655,-0.020917429,0.09387198,0.4366426,-0.07179959,0.23951192,-0.3582837,0.24761379,0.9568709,0.0075097857,-0.66703355,110.692345
2025-05-28,-0.20323516,-0.346676,-0.037396863,0.09115039,0.46777698,-0.081442446,0.2574619,-0.37210673,0.25544626,1.0015188,0.0065915873,-0.71425,150.2146
2025-05-29,-0.1961528,-0.32646567,-0.03363222,0.102047876,0.4568557,-0.06832056,0.23997535,-0.36220425,0.24882334,0.9698367,0.0054838127,-0.7087075,82.57443
2025-05-30,-0.19834489,-0.31904197,-0.03259,0.10598729,0.44393748,-0.060212683,0.23239397,-0.35488403,0.24312678,0.9444827,0.00785152,-0.6840731,81.78194
2025-06-02,-0.20220637,-0.3237533,-0.031227821,0.1064116,0.4546834,-0.061748687,0.23962362,-0.3625248,0.24767867,0.9646224,0.005108266,-0.7011131,59.67389
2025-06-03,-0.20011821,-0.33502227,-0.03333181,0.10283625,0.46592268,-0.073667064,0.24624799,-0.3665064,0.25085264,0.99539626,0.0046760915,-0.7284447,57.077347
2025-06-04,-0.20703933,-0.3331324,-0.030695865,0.10427159,0.45106837,-0.06832464,0.24301384,-0.35959685,0.24573296,0.97383666,0.009027834,-0.6962928,128.64975
2025-06-05,-0.20537585,-0.32184702,-0.028943455,0.109655865,0.44499466,-0.05998748,0.23514996,-0.35439652,0.24326319,0.96519685,0.009988119,-0.6980327,46.073753
2025-06-06,-0.19915468,-0.304551,-0.029856356,0.11705609,0.43241706,-0.0474285,0.22059181,-0.3428232,0.2375023,0.93386114,0.0107903415,-0.6873909,66.695984
2025-06-09,-0.2061229,-0.31572366,-0.03204579,0.111422986,0.43461975,-0.05079473,0.22999685,-0.34695125,0.2402161,0.94022214,0.012075284,-0.67551345,47.847515
2025-06-10,-0.18853752,-0.3110693,-0.040978827,0.10822238,0.44119915,-0.05708472,0.2236523,-0.34036237,0.24164757,0.94481504,0.009572388,-0.7087054,86.034035
2025-06-11,-0.19547823,-0.3174373,-0.036851905,0.098428465,0.4320564,-0.0623313,0.23451589,-0.34236878,0.24475253,0.95010936,0.012418599,-0.6826427,76.81542
2025-06-12,-0.20781367,-0.31692004,-0.032022722,0.09370336,0.39426133,-0.05596256,0.23132502,-0.3251552,0.23513666,0.88934195,0.021919534,-0.5919603,149.84622
2025-06-13,-0.21411094,-0.31430674,-0.027447166,0.09178666,0.3750165,-0.05192848,0.22849993,-0.31705105,0.23029009,0.8634684,0.027140193,-0.54802257,72.202484
2025-06-16,-0.22524759,-0.30471575,-0.0074501242,0.07970681,0.28780162,-0.041510563,0.20692681,-0.2702745,0.20675395,0.74330544,0.04408884,-0.3714915,280.5807
2025-06-17,-0.2322844,-0.3351776,-0.027983217,0.06524178,0.30930027,-0.057893794,0.22729407,-0.27575326,0.2135452,0.7675321,0.046366338,-0.38790497,381.81143
2025-06-18,-0.23936333,-0.32248902,-0.015617983,0.064720266,0.24746883,-0.04540545,0.20598736,-0.24118666,0.19360131,0.65229,0.057224575,-0.254035,197.57526
2025-06-20,-0.2620389,-0.33491814,-0.003873691,0.04831832,0.1876372,-0.041346494,0.2017736,-0.21406461,0.1777499,0.5825114,0.07339665,-0.11181717,263.40457
2025-06-23,-0.27466443,-0.32464153,0.013989491,0.03993674,0.118190125,-0.029644039,0.18625186,-0.1843893,0.15790698,0.4743447,0.08347197,0.040635947,753.04553
2025-06-24,-0.2716375,-0.3455273,0.004008008,0.032556213,0.15187064,-0.045954626,0.2001626,-0.19935906,0.16698936,0.53082734,0.082077295,-0.023176767,372.83688
2025-06-25,-0.27231836,-0.34297752,-0.0006002281,0.038955234,0.15907852,-0.039562818,0.19842234,-0.20307328,0.16768527,0.5373495,0.08169223,-0.041068964,236.32054
2025-06-26,-0.26106352,-0.3233082,0.007850064,0.038047243,0.1357818,-0.032915976,0.18251874,-0.19240081,0.16172603,0.5161929,0.08267654,-0.018812202,1527.6512
2025-06-27,-0.2577726,-0.30744803,0.012723368,0.037539333,0.08765435,-0.020651545,0.16096559,-0.16447428,0.14603494,0.4344119,0.0869035,0.069424324,668.3057
