Date,ADBE,AMZN,AVGO,CAT,COST,JPM,LLY,MA,MSFT,NVDA,UNH,XOM,total
2023-01-03,-0.045377545,0.0743016,-0.07678153,0.17853092,0.19638166,-0.030403927,0.2838144,0.07133465,0.06252495,0.23709899,0.4002631,0.39390865,0.0
2023-01-04,-0.051210932,0.05214916,-0.14771175,0.12153268,0.16917396,-0.11040729,0.31032565,0.017509725,-0.036995556,0.063284785,0.29274994,0.32715955,805.0435
2023-01-05,-0.066939704,0.045046505,-0.17761365,0.13374805,0.18668896,-0.12252345,0.31016648,0.021959495,-0.010130962,0.0532846,0.3348383,0.31088835,229.18782
2023-01-06,-0.08853163,0.058400877,-0.16408087,0.1493127,0.17423297,-0.116163306,0.28531173,0.054563038,-0.006430395,0.019551232,0.3602527,0.32780308,362.37173
2023-01-09,-0.10436575,0.042535126,-0.19612695,0.12791876,0.18284446,-0.1432104,0.24783051,0.044064343,0.0017785765,0.00025355816,0.3521788,0.27102786,385.4388
2023-01-10,-0.10896522,0.04509309,-0.17685607,0.14402495,0.18541828,-0.1078069,0.23405749,0.02129788,-0.014067298,0.015802868,0.37527636,0.21129103,7168.1616
2023-01-11,-0.11519605,0.035926796,-0.2008107,0.114755094,0.20356841,-0.12547371,0.21374682,0.01875091,0.008562058,0.010915324,0.36802664,0.17445257,317.88574
2023-01-12,-0.109400555,0.047842547,-0.19191366,0.11601212,0.20439565,-0.110546075,0.1776703,0.02200928,0.010486536,0.01705394,0.36586395,0.1648283,175.10216
2023-01-13,-0.10968112,0.036679205,-0.22076778,0.080933526,0.23195732,-0.12911615,0.16564459,0.009452868,0.040574454,0.0316526,0.35007003,0.12446738,564.28986
2023-01-17,-0.111692935,0.050984744,-0.20074244,0.09385498,0.21737403,-0.109383956,0.1340967,0.03693889,0.035526536,0.023247108,0.35899094,0.13870832,450.2429
2023-01-18,-0.12403558,0.05214705,-0.16918889,0.10722679,0.21874774,-0.087772965,0.13350238,0.03747076,0.025723077,0.03638988,0.3731349,0.1154136,170.4318
2023-01-19,-0.13038073,0.0554704,-0.16608101,0.11501244,0.22414367,-0.07369685,0.115871534,0.05559262,0.041284874,0.03268321,0.37962702,0.11119184,176.74045
2023-01-20,-0.12735812,0.05790152,-0.18324406,0.092978925,0.24987818,-0.09434652,0.12322298,0.04336833,0.06573512,0.036463328,0.3705215,0.094229564,192.4699
2023-01-23,-0.12410691,0.054544922,-0.19466001,0.07673233,0.26314345,-0.10132937,0.09554888,0.037012707,0.074736856,0.05788994,0.3588846,0.059165683,194.68456
2023-01-24,-0.13118598,0.04844798,-0.17146008,0.0799348,0.27427375,-0.08622824,0.09571093,0.016083155,0.06492312,0.08802359,0.3648801,0.0073875785,263.19162
2023-01-25,-0.13541663,0.04697546,-0.18531492,0.06640811,0.28441703,-0.09900893,0.091506496,0.012269665,0.07756712,0.09103729,0.3539232,0.0051747784,133.746
2023-01-26,-0.13965166,0.04980301,-0.18392101,0.06919447,0.28628135,-0.097861476,0.08071792,0.017859247,0.07915484,0.09087602,0.34885523,0.009567589,161.79994
2023-01-27,-0.14686953,0.04680356,-0.18397376,0.053435393,0.28866917,-0.101640105,0.064385265,0.023859592,0.085940905,0.09466081,0.3412606,0.010347754,115.59155
2023-01-30,-0.15313429,0.037371423,-0.16817737,0.06998156,0.30709785,-0.09196009,0.05102137,0.01674245,0.08169665,0.12262256,0.3401549,-0.015801355,417.96707
2023-01-31,-0.16226748,0.039217565,-0.1292952,0.07770777,0.30097884,-0.0738713,0.056433428,0.016936362,0.06888587,0.12165362,0.34199032,-0.02763161,170.37196
2023-02-01,-0.15298474,0.028678175,-0.16474688,0.027927075,0.35861546,-0.110723644,0.046794463,-3.7480146e-05,0.103877746,0.16186899,0.3177088,-0.08137655,595.87335
2023-02-02,-0.15445185,0.014672355,-0.16067792,0.03355306,0.39732048,-0.10410932,0.01809343,-0.0030994155,0.117775835,0.21816486,0.30299726,-0.12836798,8430.532
2023-02-03,-0.17437539,-0.012221967,-0.10623115,0.10555576,0.4004755,-0.044654153,-0.020104628,0.0004458204,0.09736698,0.2614376,0.306825,-0.16198704,892.6966
2023-02-06,-0.18628253,-0.03639509,-0.11868832,0.09875862,0.45429724,-0.094001904,0.01593981,-0.024872776,0.12466074,0.2967193,0.30441314,-0.16620484,6250.033
2023-02-07,-0.186296,-0.0244436,-0.09614879,0.08799036,0.41919786,-0.05306404,-0.0065285163,-0.010251537,0.11194677,0.28119147,0.29946998,-0.16192025,333.39084
2023-02-08,-0.19045621,-0.058595657,-0.10149301,0.096279874,0.46439183,-0.093954,0.014751178,-0.028566983,0.12810144,0.3232666,0.29691234,-0.1725285,786.1788
2023-02-09,-0.200429,-0.07184283,-0.07674154,0.12174666,0.4855379,-0.0883328,0.03945156,-0.048098754,0.124071814,0.35169005,0.29506448,-0.15704563,346.572
2023-02-10,-0.2109999,-0.08357182,-0.070550606,0.12988384,0.51944125,-0.11339872,0.07334156,-0.066157386,0.1320307,0.37121636,0.29534438,-0.14780977,213.10081
2023-02-13,-0.2273583,-0.10230348,-0.08113851,0.1150713,0.55952907,-0.18882886,0.1398226,-0.09048279,0.15270802,0.37069452,0.303221,-0.11281401,300.37323
2023-02-14,-0.20798244,-0.091278665,-0.07461123,0.099379525,0.50103647,-0.13854018,0.09517097,-0.05570102,0.13440847,0.34807944,0.29803675,-0.11518642,170.33716
2023-02-15,-0.20353979,-0.098248444,-0.07454828,0.10836902,0.5205203,-0.14354077,0.10643694,-0.056584973,0.13742778,0.3673234,0.29701903,-0.11477058,48.302025
2023-02-16,-0.21418673,-0.114744864,-0.059748374,0.12310555,0.52535844,-0.14267033,0.11009398,-0.08235766,0.11883532,0.36543423,0.30366552,-0.12602916,132.08185
2023-02-17,-0.22510037,-0.12243987,-0.0332663,0.13507693,0.51010597,-0.14390916,0.12732613,-0.10755873,0.0891022,0.34595734,0.29434884,-0.1030222,167.54562
2023-02-21,-0.2127933,-0.12594344,-0.025411032,0.13326076,0.5524032,-0.14153486,0.13253386,-0.10738692,0.09519782,0.3756114,0.28144535,-0.11065474,74.68329
2023-02-22,-0.20850027,-0.10338524,0.0060445517,0.11778158,0.4865604,-0.10916096,0.12687284,-0.08983062,0.06906765,0.3372104,0.27058962,-0.07221967,287.00772
2023-02-23,-0.20469272,-0.11085729,-0.01268661,0.1166944,0.5535455,-0.13181017,0.12928697,-0.092950255,0.09565643,0.36870998,0.27551648,-0.10583417,455.95633
2023-02-24,-0.21262717,-0.11547869,-0.009813182,0.12706482,0.55333656,-0.14110908,0.1370626,-0.09510526,0.093348034,0.37637174,0.28234413,-0.08556412,81.12835
2023-02-27,-0.22007228,-0.118821986,0.019156665,0.14846389,0.512786,-0.145883,0.16715339,-0.098476306,0.064582855,0.35298315,0.2845631,-0.018004715,471.4342
2023-02-28,-0.208952,-0.09917507,0.007503405,0.13270307,0.4576341,-0.10951877,0.13122585,-0.07345389,0.047601,0.3083867,0.29434592,-0.008909732,268.50186
2023-03-01,-0.20615634,-0.09911785,0.0075919777,0.14383063,0.44279623,-0.10115405,0.1251181,-0.07312803,0.03838428,0.29931396,0.29759273,0.00020837784,152.68565
2023-03-02,-0.21040499,-0.096521996,0.020460516,0.15296823,0.42978066,-0.11089661,0.1531478,-0.06894344,0.039311476,0.29122394,0.31097558,0.05140295,24798.992
2023-03-03,-0.21092105,-0.100174315,0.01407142,0.1534714,0.43542367,-0.11305413,0.1511895,-0.068588555,0.042402066,0.29452458,0.3153885,0.052916132,53.994568
2023-03-06,-0.21021315,-0.09504529,-0.011139508,0.15810719,0.40959975,-0.11134274,0.13908444,-0.060131792,0.04644078,0.27074617,0.3251334,0.065500185,259.89047
2023-03-07,-0.20147488,-0.07829974,-0.013479371,0.13931328,0.36247003,-0.08305457,0.10667047,-0.0434235,0.028987594,0.23376122,0.3214987,0.0628368,199.09741
2023-03-08,-0.20226546,-0.07731218,-0.0041638464,0.14932176,0.37534553,-0.06272617,0.100905165,-0.043650497,0.027201295,0.24789405,0.31735864,0.055650845,136.83472
2023-03-09,-0.20628159,-0.07696501,-0.01771298,0.16686788,0.39160204,-0.05372954,0.092296764,-0.036023747,0.03352744,0.26093686,0.32517552,0.051309004,423.0451
2023-03-10,-0.22590035,-0.06246098,0.020071387,0.18296467,0.38357303,-0.024430193,0.1009969,-0.019585397,0.035272785,0.27248317,0.30579975,0.08334104,440.97525
2023-03-13,-0.22484425,-0.06819948,0.01538723,0.2010196,0.43206498,-0.047046714,0.13377647,-0.018013936,0.06336774,0.31227863,0.3210436,0.088333696,293.78906
2023-03-14,-0.21404396,-0.04353729,0.00850682,0.19745795,0.40349695,0.009853333,0.094304316,0.021762604,0.06480908,0.30013713,0.33294845,0.083144695,481.06885
2023-03-15,-0.20813127,-0.05691859,-0.022791456,0.21671794,0.4562234,-0.01261346,0.08640994,0.01031322,0.09533837,0.3368663,0.343461,0.030692622,838.8191
2023-03-16,-0.19172774,-0.030970939,-0.0023612902,0.22098617,0.45884383,0.03812714,0.04874723,0.027655162,0.089994125,0.39481992,0.3053504,0.0041452423,880.06384
2023-03-17,-0.17791454,-0.044028897,-0.028249696,0.22577599,0.5328369,0.0151481405,0.032017108,0.009749655,0.13160136,0.46180052,0.29192618,-0.0840752,3519.1902
2023-03-20,-0.18817382,-0.040474337,-0.016328555,0.23293693,0.54780364,0.010248363,0.023291584,0.009627294,0.13467568,0.4968093,0.2667898,-0.10487154,166.13583
2023-03-21,-0.19426876,-0.037480973,-0.025584236,0.22942056,0.59665495,0.0003456883,0.032198187,0.006518919,0.17720342,0.5042851,0.2868401,-0.15444589,332.76907
2023-03-22,-0.21135947,-0.05485914,-0.040449526,0.2280175,0.64413106,-0.054201268,0.043237057,-0.018417235,0.20080316,0.5204328,0.280208,-0.20163783,16367.259
2023-03-23,-0.22238088,-0.047665145,-0.014898915,0.2468303,0.6413601,-0.042319488,0.050648,-0.009116694,0.19055307,0.5320541,0.2751284,-0.17913303,200.04788
2023-03-24,-0.2228879,-0.04928943,-0.022586111,0.25503758,0.6529576,-0.050877083,0.044351522,-0.012495395,0.19556352,0.545579,0.26866952,-0.19875017,148.54875
2023-03-27,-0.22141209,-0.05518978,-0.021866284,0.24263307,0.6861001,-0.075376414,0.054109875,-0.017970454,0.20973179,0.56733483,0.24898958,-0.2229456,170.46364
2023-03-28,-0.22687382,-0.048804034,-0.022293605,0.22468624,0.7016035,-0.07643628,0.05258982,-0.025181886,0.22779712,0.5587728,0.25817847,-0.26225916,101.439415
2023-03-29,-0.24004233,-0.051812455,-0.018773936,0.23789863,0.71418893,-0.09519008,0.07226977,-0.026207965,0.23764226,0.5670253,0.26964253,-0.25057667,116.15578
2023-03-30,-0.2487091,-0.0610058,-0.029242136,0.23199195,0.7210128,-0.11393055,0.06443722,-0.03454623,0.24107987,0.5638556,0.26463878,-0.27525917,156.60422
2023-03-31,-0.25191253,-0.059923925,-0.027137682,0.23051843,0.7172206,-0.1178278,0.06504688,-0.030571792,0.24101636,0.5594927,0.2585776,-0.26745218,33.217422
2023-04-03,-0.25410867,-0.06415345,-0.034118433,0.22876702,0.71773785,-0.12769404,0.05822769,-0.03369176,0.23999336,0.5576608,0.2505242,-0.27685255,70.92875
2023-04-04,-0.26200485,-0.062887214,-0.032050274,0.1846031,0.7150334,-0.14647824,0.08308455,-0.03176805,0.25796452,0.5246717,0.2593821,-0.2681211,114.027405
2023-04-05,-0.2572142,-0.058820233,-0.025146212,0.164837,0.7419382,-0.15645719,0.09598653,-0.031223785,0.27093747,0.5399117,0.24157539,-0.28573322,89.72895
2023-04-06,-0.2571761,-0.066821866,-0.024390727,0.14291413,0.77878815,-0.20458418,0.14157301,-0.041610252,0.28856885,0.5575639,0.22349143,-0.2753228,167.3131
2023-04-10,-0.23925187,-0.055999897,-0.022677787,0.14828438,0.77752477,-0.19832498,0.1541799,-0.037799027,0.287256,0.56780237,0.21653727,-0.25477073,68.09894
2023-04-11,-0.23700084,-0.03510725,-0.005711071,0.13620964,0.72570175,-0.15501258,0.1356759,-0.016646128,0.26599073,0.5255125,0.22078809,-0.23377708,242.73009
2023-04-12,-0.2510289,-0.047892295,0.001106754,0.13173069,0.75699615,-0.19648054,0.16840576,-0.028823223,0.27337942,0.54419255,0.21072808,-0.2322694,304.87714
2023-04-13,-0.25031185,-0.043881793,0.013317853,0.14426948,0.7586722,-0.21261334,0.20927458,-0.022723075,0.2769349,0.5578318,0.21583489,-0.17854002,1204.7307
2023-04-14,-0.22847323,-0.04617663,-0.015660971,0.12672895,0.7589716,-0.22207674,0.183008,-0.033433136,0.27786067,0.5617988,0.1976896,-0.2121884,336.17975
2023-04-17,-0.22922152,-0.045826405,-0.026265904,0.15033652,0.7634944,-0.2517084,0.20583653,-0.050213825,0.28461155,0.5797634,0.21943459,-0.19243976,189.96875
2023-04-18,-0.20469826,-0.008958139,-0.026674673,0.11222004,0.69722414,-0.19194907,0.16783331,-0.024869595,0.26548982,0.5177672,0.22938529,-0.20613754,248.48222
2023-04-19,-0.20912576,-0.016220655,-0.029040247,0.10132507,0.7004019,-0.21584201,0.17969798,-0.024602685,0.27777687,0.5208662,0.23066607,-0.18906859,136.92264
2023-04-20,-0.2052118,-0.012055584,-0.04362192,0.10945888,0.6870255,-0.19855869,0.16673724,-0.013502743,0.28493825,0.51174766,0.254999,-0.18641695,164.31526
2023-04-21,-0.19652775,-0.014798782,-0.044486046,0.09021768,0.7006445,-0.20145464,0.14990465,-0.018628936,0.2909703,0.530207,0.23228991,-0.21510679,128.06572
2023-04-24,-0.1753346,-0.015377787,-0.06102548,0.07505393,0.6960113,-0.20620203,0.14250796,-0.00987193,0.30111942,0.523291,0.2262021,-0.20964354,133.59586
2023-04-25,-0.17403966,0.006674571,-0.046711273,0.007658858,0.6454207,-0.19258186,0.13373029,0.0139207505,0.29338652,0.4486034,0.21162584,-0.20622495,543.3563
2023-04-26,-0.17550236,0.013395949,-0.006915219,0.011179157,0.64605093,-0.19175836,0.16989085,0.026981084,0.29184806,0.46830744,0.19945425,-0.1525028,390.80408
2023-04-27,-0.16839805,0.005291152,-0.020255521,0.048564304,0.64971364,-0.17185888,0.1522424,0.035668217,0.28678226,0.48104882,0.22682926,-0.15969887,668.31
2023-04-28,-0.1424883,-0.012243436,-0.05804188,0.035799533,0.6690032,-0.19926894,0.12624024,0.013749089,0.29529616,0.5024185,0.195268,-0.20331094,705.69775
2023-05-01,-0.14898801,-0.029472522,-0.07052878,0.04823734,0.68228775,-0.2275787,0.13822407,0.001362063,0.30443,0.52519184,0.19602188,-0.20472232,326.02405
2023-05-02,-0.12496534,0.01358718,-0.050679497,0.05091585,0.6195157,-0.15605974,0.13115081,0.022735156,0.28051218,0.49360716,0.21688175,-0.1722616,1851.2037
2023-05-03,-0.096115425,0.030730661,-0.029378388,0.07435206,0.6203434,-0.107026815,0.09606828,0.028676081,0.26341292,0.546924,0.21711817,-0.18504119,346.17926
2023-05-04,-0.08636334,0.028469939,-0.025599197,0.12090245,0.5866604,-0.08001755,0.10025962,0.05118437,0.24956053,0.5453876,0.2425335,-0.10988432,264.35657
2023-05-05,-0.08096082,0.025166042,-0.027831338,0.15571794,0.55450636,-0.05456528,0.077486046,0.056446884,0.22305498,0.5450929,0.24714899,-0.086021245,159.95618
2023-05-08,-0.07411138,-0.004868443,-0.08401889,0.14217007,0.58816206,-0.10265823,0.06000157,0.026890395,0.24311468,0.5556967,0.22534439,-0.14813751,599.4971
2023-05-09,-0.06850163,0.016921673,-0.08091573,0.13111237,0.5435226,-0.07088353,0.05000577,0.034874164,0.22653607,0.51615846,0.23247886,-0.14656696,569.67065
2023-05-10,-0.07268015,0.012099828,-0.06749459,0.14503452,0.5455766,-0.07125509,0.033652116,0.03905054,0.21893659,0.5286702,0.22740269,-0.14457992,116.6991
2023-05-11,-0.066238776,0.006065854,-0.07988622,0.15260898,0.5476711,-0.06928684,0.015878275,0.038342364,0.21913823,0.5274091,0.2218388,-0.15759161,151.86592
2023-05-12,-0.06824888,0.001675724,-0.08031587,0.16643511,0.54360735,-0.063813224,-0.0040684855,0.03974632,0.20936486,0.52376014,0.21508092,-0.16830504,237.92963
2023-05-15,-0.07736026,-0.011727116,-0.07556611,0.1751874,0.54791343,-0.07975688,0.004593582,0.037656337,0.20122871,0.52704763,0.20314649,-0.15343672,1087.185
2023-05-16,-0.075601734,0.006506334,-0.08145228,0.16514963,0.5249669,-0.050095476,-0.015022273,0.05044788,0.20615542,0.49192047,0.21749032,-0.17285177,702.4753
2023-05-17,-0.07531682,0.013104242,-0.073352,0.19703963,0.51243234,-0.024778433,-0.028393444,0.065850794,0.20017916,0.48932773,0.23464918,-0.15576029,324.70886
2023-05-18,-0.07389782,0.0033473102,-0.10783276,0.19905855,0.53604084,-0.049358778,-0.032882966,0.048768457,0.22201109,0.5008354,0.23791021,-0.18806383,305.31964
2023-05-19,-0.084622264,0.004222299,-0.12326269,0.21869089,0.51393354,-0.042849112,-0.047706593,0.05440773,0.21483928,0.47378123,0.25591543,-0.18216842,158.11533
2023-05-22,-0.08633912,0.011003635,-0.114180714,0.23615426,0.517918,-0.033075012,-0.041864887,0.06607518,0.22392938,0.48218566,0.26951262,-0.16690204,254.9638
2023-05-23,-0.0726213,0.027600743,-0.11655215,0.20943284,0.50930834,0.008970201,-0.047327805,0.06655986,0.23578995,0.47077048,0.27643508,-0.19347093,348.8303
2023-05-24,-0.082439795,0.04072112,-0.09450333,0.24396177,0.4950033,0.030478477,-0.032438956,0.089073054,0.23605731,0.45410186,0.3053908,-0.13361368,449.3947
2023-05-25,-0.08580949,0.042432964,-0.08007019,0.2570508,0.5031684,0.029311128,-0.0076037375,0.094221674,0.24081463,0.4549603,0.31566545,-0.10450721,144.10162
2023-05-26,-0.09655906,0.05193854,-0.09492953,0.27378273,0.48822504,0.046944782,-0.016868774,0.10620036,0.2375055,0.44269222,0.32667035,-0.09622316,273.1713
2023-05-30,-0.11254506,0.05096827,-0.105924666,0.26304007,0.48893723,0.05441378,-0.03933164,0.09693177,0.23295829,0.42828512,0.31499207,-0.13107294,236.83752
2023-05-31,-0.11079377,0.06001565,-0.09004459,0.24367408,0.50669926,0.06803559,-0.031286508,0.09558587,0.24423888,0.43597275,0.31568524,-0.1634256,123.71127
2023-06-01,-0.11776545,0.055383176,-0.0697388,0.23123257,0.54988414,0.056675546,-0.025789436,0.0862222,0.25340924,0.46878332,0.29310662,-0.194868,131.92638
2023-06-02,-0.119885854,0.036317933,-0.07379042,0.20757474,0.61980015,0.0029689148,-0.009553901,0.053332478,0.27813414,0.5297159,0.27171546,-0.25588983,322.2089
2023-06-05,-0.124242574,0.03604941,-0.06656713,0.21466313,0.6317208,-0.005713772,-0.01791314,0.049644712,0.2798317,0.5425748,0.2669757,-0.26363525,414.17307
2023-06-06,-0.1095525,0.047047224,-0.06015276,0.17387225,0.61668134,0.014602944,-0.022331178,0.055865772,0.27910718,0.52842885,0.25525808,-0.2867297,482.13474
2023-06-07,-0.124264635,0.03082493,-0.06728274,0.17774345,0.64789176,-0.013077922,-0.02317416,0.040174015,0.28926134,0.5417944,0.25673717,-0.324124,308.25922
2023-06-08,-0.14683554,0.032691624,-0.0385087,0.20933878,0.63119364,-0.015204608,-0.009844291,0.064791724,0.28400937,0.5292651,0.28094274,-0.26013297,255.69725
2023-06-09,-0.13988477,0.032398116,-0.033032246,0.17767765,0.64405054,-0.028670833,-0.019364078,0.06802956,0.28643075,0.5425781,0.2499209,-0.2772834,248.28473
2023-06-12,-0.13551997,0.034435213,-0.028016862,0.17269482,0.66185564,-0.03842613,-0.015796077,0.0637716,0.2920294,0.5687523,0.24041578,-0.2877517,103.22752
2023-06-13,-0.1184677,0.05207073,-0.048382536,0.14195307,0.60592663,-0.0044754,-0.034807418,0.06823574,0.27477673,0.5130262,0.24114981,-0.30021247,398.78854
2023-06-14,-0.12056576,0.04337998,-0.045346364,0.13898095,0.6062257,-0.018416457,-0.029992174,0.06763819,0.26955488,0.5183367,0.2357375,-0.28988764,361.7126
2023-06-15,-0.14829159,0.036877427,-0.04487048,0.17258556,0.5608572,-0.008849144,-0.040942013,0.09494369,0.25273606,0.47271532,0.27387157,-0.24317095,246.86038
2023-06-16,-0.15103036,0.033342972,-0.04432606,0.17736153,0.5694286,-0.011515416,-0.061248776,0.091452256,0.2547804,0.4868188,0.26794696,-0.26123974,113.73274
2023-06-20,-0.15380916,0.021001931,-0.04734171,0.17412612,0.5717737,-0.03456939,-0.045378473,0.08908588,0.2629366,0.4859373,0.26892012,-0.25106862,284.23032
2023-06-21,-0.1281676,0.046017595,-0.050673936,0.15207334,0.5566815,0.0031245835,-0.057087157,0.09503521,0.25753066,0.47899097,0.26304707,-0.2610115,309.274
2023-06-22,-0.12672567,0.031152193,-0.052835353,0.14511628,0.5807731,-0.022060128,-0.04845233,0.08285111,0.27276933,0.50476116,0.25548774,-0.27012828,898.2251
2023-06-23,-0.12630467,0.029233024,-0.04789441,0.14354701,0.59894997,-0.025675291,-0.060663138,0.08341318,0.2776442,0.5237273,0.2474752,-0.28900662,77.992905
2023-06-26,-0.12713218,0.02663419,-0.043731917,0.14882378,0.6165362,-0.038582906,-0.06099656,0.07933561,0.28114232,0.5462572,0.24193549,-0.30111432,92.5486
2023-06-27,-0.11848724,0.037120465,-0.05618354,0.11848217,0.58486533,-0.020339506,-0.059133742,0.081735626,0.27260983,0.5059447,0.24225256,-0.29960796,164.57735
2023-06-28,-0.117151484,0.022621002,-0.06907846,0.11594752,0.59990335,-0.043499812,-0.060001947,0.0722616,0.28056493,0.51931494,0.23382255,-0.31678945,209.55286
2023-06-29,-0.13571504,0.015884858,-0.055696312,0.13679823,0.5890913,-0.052199297,-0.06099111,0.0878368,0.27816653,0.50938034,0.24818984,-0.28994426,145.3695
2023-06-30,-0.13818388,0.006580136,-0.06785555,0.15159363,0.5928289,-0.07531105,-0.05556416,0.07257341,0.28090325,0.51866245,0.25726262,-0.28745657,171.54701
2023-07-03,-0.13220741,-0.005667816,-0.08190489,0.14005911,0.59343535,-0.09462322,-0.060978968,0.053446375,0.2731612,0.52343947,0.24645567,-0.30250105,293.7315
2023-07-05,-0.12240546,0.0071943,-0.094861,0.09978863,0.54281205,-0.06657651,-0.0627677,0.054031927,0.2470347,0.47902298,0.2515003,-0.2918009,344.75153
2023-07-06,-0.1314806,-0.0016060257,-0.078938946,0.12808038,0.54759365,-0.0664751,-0.06864353,0.058673996,0.25222817,0.48928833,0.27058172,-0.28385955,208.41351
2023-07-07,-0.114996925,-0.0011842931,-0.07090935,0.14215586,0.5408535,-0.038612254,-0.07508665,0.060495213,0.2414284,0.50469553,0.2691595,-0.276222,126.2406
2023-07-10,-0.11106525,-0.011550327,-0.077458076,0.15472838,0.5266591,-0.06472556,-0.04815855,0.06943372,0.24833906,0.48959416,0.28812072,-0.23550478,1045.3236
2023-07-11,-0.10083616,0.007249444,-0.103769735,0.11014038,0.4701958,-0.023169735,-0.07051612,0.07448322,0.22318086,0.42525744,0.28280413,-0.23693979,389.10733
2023-07-12,-0.10690931,-0.006919437,-0.11691278,0.11502603,0.46013182,-0.03487815,-0.07691696,0.061735183,0.21421775,0.40968984,0.28804812,-0.24134827,308.82977
2023-07-13,-0.11543172,-0.019316923,-0.12174773,0.12051514,0.44569212,-0.053353485,-0.07131873,0.06381912,0.2047084,0.3857041,0.29609248,-0.22632656,282.12186
2023-07-14,-0.11701359,-0.014951437,-0.10953082,0.1409387,0.43185002,-0.02609989,-0.08806858,0.06670286,0.18748903,0.37463707,0.3034668,-0.21828163,150.46873
2023-07-17,-0.084374145,-0.015177601,-0.11338768,0.099570975,0.4869485,-0.042684328,-0.094423905,0.042948186,0.20714793,0.45191485,0.24550274,-0.26616475,253.55882
2023-07-18,-0.059335526,0.0006461432,-0.13113058,0.053532124,0.45661262,-0.015857302,-0.09680471,0.033565894,0.18642619,0.43896174,0.22848386,-0.26759896,309.60547
2023-07-19,-0.033817515,-0.0076725306,-0.12028016,0.040142544,0.47162086,-0.020865267,-0.09800906,0.025653016,0.19084787,0.48795068,0.20311978,-0.27428326,1450.5455
2023-07-20,-0.029006958,-0.011521035,-0.10707182,0.04653164,0.48246825,-0.023568671,-0.09916693,0.021682039,0.19734156,0.51537263,0.19495717,-0.2758438,136.80931
2023-07-21,-0.020370841,-0.02233889,-0.09597856,0.04513631,0.50610566,-0.06548031,-0.06114189,0.015157532,0.21601897,0.5483127,0.19367428,-0.25132385,413.59473
2023-07-24,-0.009360731,-0.030519515,-0.09598535,0.038618095,0.5302183,-0.09773865,-0.034153555,0.007856533,0.22996628,0.574982,0.1853444,-0.24413386,269.93594
2023-07-25,0.0021493882,-0.019411732,-0.12712598,-0.0082439035,0.4877746,-0.07716952,-0.04030897,-0.012478363,0.18945605,0.537329,0.16686705,-0.26064202,659.9438
2023-07-26,0.012201071,-0.025688216,-0.11742544,-0.00059520453,0.49470913,-0.08167799,-0.025414426,-0.012897696,0.19188666,0.5595399,0.16751765,-0.2411184,661.2697
2023-07-27,0.013181083,-0.034967333,-0.11468009,0.0035471097,0.51912147,-0.11240257,0.0058458773,-0.022741865,0.20105058,0.57797813,0.16408151,-0.23208877,998.18585
2023-07-28,0.0069781095,-0.020275053,-0.06187811,0.02755984,0.49676716,-0.08107019,0.00687161,-0.0017391443,0.19979775,0.5848529,0.17116469,-0.1803458,982.5899
2023-07-31,0.017946161,-0.029065382,-0.081258506,0.027543271,0.5139868,-0.114968516,0.021930661,0.0044645183,0.21182325,0.59106654,0.17226997,-0.17903313,861.505
2023-08-01,0.01861903,-0.0056028897,-0.08984865,-0.022549838,0.47119343,-0.091665134,0.013151824,0.0032959916,0.1868338,0.53950626,0.15741643,-0.18931577,406.59943
2023-08-02,-0.00025419146,-0.008620565,-0.067211136,0.028559547,0.44148496,-0.075826585,0.017038323,0.015549969,0.17658651,0.5341892,0.18968046,-0.14028189,884.85614
2023-08-03,-0.010664254,0.0027638664,-0.011174083,0.056213528,0.39329803,-0.04031034,0.029855456,0.042937707,0.15745583,0.51690173,0.18970919,-0.05420266,4792.1816
2023-08-04,-0.005004123,-0.01864785,-0.03628578,0.03958066,0.44907606,-0.117847204,0.07223576,0.032515157,0.19715253,0.54288495,0.19414964,-0.0790782,1533.3271
2023-08-07,-0.010937542,-0.0052051554,-0.018814422,0.053098917,0.4333966,-0.10473856,0.04863866,0.049913406,0.19467351,0.53030556,0.19898441,-0.07137409,389.5577
2023-08-08,0.0047094673,0.00010320824,-0.07998187,-0.018409263,0.4371075,-0.112206504,0.05788206,0.017708417,0.17536741,0.48211235,0.16265213,-0.12754877,912.3005
2023-08-09,0.017259784,0.027151417,-0.027848635,-0.022951033,0.40844554,-0.13610545,0.0998028,0.08219481,0.20904201,0.4855984,0.16311276,-0.029576272,27125.217
2023-08-10,0.0041924044,0.019777738,-0.014676839,-0.028498687,0.39909506,-0.1887823,0.13327087,0.10961521,0.21792361,0.4616248,0.16354942,0.013163209,436.18317
2023-08-11,-0.00076788664,0.013626832,-0.020551533,-0.03115122,0.3998702,-0.22323003,0.13897972,0.11733748,0.22085908,0.4532947,0.15696916,0.01373259,240.02138
2023-08-14,-0.0126395,0.0015354352,-0.0052732453,-0.04532078,0.3985411,-0.28134194,0.18644357,0.12786525,0.22833446,0.43076867,0.13767509,0.06649488,2228.918
2023-08-15,-0.0053670183,0.023863763,-0.019019913,-0.08941861,0.3510361,-0.24728385,0.1921528,0.10631837,0.18584523,0.3870861,0.12493813,0.04072173,1990.427
2023-08-16,-0.0037781596,0.045734044,0.023388684,-0.055553734,0.31619322,-0.21251696,0.18939774,0.15260935,0.1671553,0.38763595,0.14416319,0.09632084,613.17194
2023-08-17,0.0063401386,0.033804104,0.0043173432,-0.047422886,0.344698,-0.229276,0.20167723,0.1585261,0.18706962,0.4100319,0.15073845,0.07825397,458.34326
2023-08-18,-0.023080334,0.04125624,0.024524078,-0.023851309,0.31589845,-0.24767753,0.21345831,0.2069101,0.19973722,0.36091375,0.1839183,0.14641471,1184.4293
2023-08-21,-0.039745726,0.03080441,0.003667213,-0.04241345,0.34452608,-0.30998027,0.26271227,0.20675594,0.238049,0.3470527,0.17702523,0.17755753,365.8165
2023-08-22,-0.0322007,0.042639706,-0.0006711185,-0.040614158,0.30297697,-0.2307716,0.23353414,0.1847917,0.18758976,0.32615155,0.20549238,0.118143335,316.05142
2023-08-23,-0.03796409,0.044977292,-0.022286046,-0.016710848,0.31546038,-0.2294696,0.22558613,0.19128619,0.19675565,0.3168472,0.22505304,0.10429084,3343.5527
2023-08-24,-0.032598235,0.04464578,-0.05976828,0.0072472095,0.3211965,-0.21512479,0.1896944,0.19246902,0.2004576,0.31484973,0.24335435,0.068992026,395.51526
2023-08-25,-0.044946928,0.07297275,-0.028966624,0.050054822,0.28700453,-0.19059768,0.18258151,0.22161216,0.18351784,0.29703662,0.26320353,0.13321164,899.8274
2023-08-28,-0.058992893,0.043661453,-0.090395,0.011997117,0.34597448,-0.25996017,0.20042834,0.1888141,0.22760525,0.28626233,0.24204451,0.088222,510.49176
2023-08-29,-0.073857486,0.038793795,-0.110271916,-0.02656037,0.32233658,-0.23800331,0.20424004,0.1333426,0.18153349,0.2447899,0.24561587,0.028450862,530.2395
2023-08-30,-0.08738009,0.036072053,-0.14173305,-0.035036206,0.31653678,-0.26348546,0.19567558,0.12527409,0.17487776,0.21270905,0.24371648,0.025464974,136.55734
2023-08-31,-0.115528345,0.032420952,-0.16012059,-0.04717979,0.31532794,-0.29877666,0.2129629,0.11832267,0.17266315,0.1733748,0.24192786,0.049839966,234.34024
2023-09-01,-0.14724585,0.03240138,-0.15297844,-0.026472166,0.2812999,-0.28198943,0.19505197,0.1573825,0.16104317,0.11191043,0.28660616,0.086416624,267.73505
2023-09-05,-0.18204267,0.009892577,-0.13225965,-0.016234629,0.3236539,-0.3216851,0.21748614,0.13059862,0.17949662,0.12398051,0.28525382,0.08980596,229.60854
2023-09-06,-0.19516674,0.022096086,-0.09915077,-0.035398506,0.2868243,-0.26206744,0.19496682,0.13148846,0.12764117,0.092050776,0.27783898,0.0778867,385.10883
2023-09-07,-0.21724227,0.007841705,-0.10519788,-0.033774003,0.30243075,-0.296548,0.22901328,0.1269778,0.13124815,0.0711697,0.2874177,0.11167055,198.33488
2023-09-08,-0.21016352,0.0055267336,-0.11090125,-0.032604426,0.33373314,-0.3222457,0.23961282,0.12038165,0.14608708,0.08956983,0.26101586,0.10404056,123.68158
2023-09-11,-0.21500912,-0.002723719,-0.111386046,-0.03738243,0.3365529,-0.341553,0.2530175,0.1229907,0.15113738,0.0835267,0.25503257,0.13313462,221.73822
2023-09-12,-0.19617069,0.0057800645,-0.089923605,-0.0426801,0.30282816,-0.26463687,0.18368652,0.11987825,0.10777303,0.08505538,0.2615532,0.049103983,513.0824
2023-09-13,-0.23141971,-0.005077471,-0.073342875,-0.05567193,0.31648982,-0.3374372,0.25191572,0.10946646,0.11016672,0.05816266,0.2465963,0.12523738,527.145
2023-09-14,-0.21077438,-0.004172954,-0.09648763,-0.052679352,0.3373988,-0.31944653,0.20172742,0.12410547,0.12771302,0.08026633,0.24553591,0.076266974,202.36392
2023-09-15,-0.22446422,-0.009657842,-0.08819127,-0.056212552,0.33745882,-0.3517292,0.22323099,0.12555061,0.13433838,0.064710915,0.24360165,0.11130515,246.48383
2023-09-18,-0.2378027,-0.012257283,-0.049765248,-0.030150801,0.34916085,-0.3809085,0.28454635,0.09593855,0.11757565,0.059418626,0.23127115,0.15039466,246.44576
2023-09-19,-0.23387368,-0.01154516,-0.041946717,-0.065912336,0.33854568,-0.3706454,0.26246172,0.08692764,0.09981928,0.063612945,0.2185671,0.101936,224.5452
2023-09-20,-0.23682012,-0.014458704,-0.03701485,-0.0707223,0.34538105,-0.3820462,0.27956218,0.09605871,0.110748954,0.06787616,0.22569984,0.11590673,102.28555
2023-09-21,-0.23492332,-0.013478673,-0.007937744,-0.070456095,0.37025177,-0.42436656,0.33479133,0.06319724,0.11381658,0.09697164,0.17339388,0.14093053,249.15437
2023-09-22,-0.22566128,-0.0078122756,0.041759007,-0.06374253,0.37327033,-0.42147413,0.37390134,0.043262564,0.09876726,0.13513774,0.12457975,0.18716712,839.8556
2023-09-25,-0.21797942,-0.013274358,0.030445889,-0.07965457,0.40638587,-0.48952264,0.42007515,0.07023548,0.14117268,0.14839849,0.111366466,0.22224452,307.18356
2023-09-26,-0.21611007,-0.0061892746,0.044990435,-0.105844885,0.3635766,-0.4661687,0.40712193,0.054684058,0.09071969,0.12779596,0.09275611,0.2048981,249.55151
2023-09-27,-0.23132502,0.0021878788,0.10192259,-0.09352887,0.33369708,-0.45474827,0.45093775,0.060559087,0.07601082,0.1259052,0.078666136,0.28256872,383.5329
2023-09-28,-0.23642348,-0.0113956565,0.092853785,-0.111626744,0.34341913,-0.52613086,0.4902017,0.07949571,0.09511999,0.10664666,0.07567844,0.32748705,770.02386
2023-09-29,-0.22750132,-0.0058378438,0.09458391,-0.10833554,0.3293432,-0.53303736,0.484517,0.07487142,0.076953694,0.103772625,0.05971637,0.33833236,115.941826
2023-10-02,-0.22580867,0.0047552614,0.1186835,-0.102651775,0.3113383,-0.5095033,0.4747612,0.09129873,0.0675778,0.1081847,0.056422137,0.3461839,271.0346
2023-10-03,-0.21157598,0.017658044,0.12808302,-0.11615223,0.32181513,-0.43224385,0.39182886,0.08697262,0.05049999,0.17763701,0.052933596,0.2472063,463.69012
2023-10-04,-0.22773428,0.020531166,0.15748468,-0.09926982,0.32103458,-0.43279293,0.43030015,0.08287962,0.053356193,0.18147439,0.052849196,0.3020692,106.46062
2023-10-05,-0.187666,0.014440169,0.13523614,-0.11070208,0.36034867,-0.43617502,0.39228138,0.10049686,0.07177541,0.24038038,0.038996167,0.24094772,229.45204
2023-10-06,-0.17000839,0.024782225,0.14173162,-0.10823946,0.38021964,-0.4193817,0.37991667,0.09443531,0.0797646,0.29389137,0.021064874,0.22637928,192.02512
2023-10-09,-0.13048293,0.03211733,0.11600351,-0.0984862,0.38347262,-0.38838914,0.33628806,0.10187061,0.08948054,0.33598906,0.015513167,0.20425743,170.24597
2023-10-10,-0.14413436,0.042515263,0.12450427,-0.12239188,0.33804625,-0.35917547,0.34367123,0.09485322,0.06327596,0.31295294,0.028425943,0.21591549,227.97653
2023-10-11,-0.12918937,0.037313383,0.10056883,-0.11547963,0.35408685,-0.36762235,0.3332238,0.09724066,0.06956016,0.3315979,0.02978015,0.19615316,89.93605
2023-10-12,-0.09277783,0.051306996,0.07583381,-0.08284243,0.35856107,-0.29829708,0.2611272,0.12024115,0.0862022,0.3880698,0.05696203,0.14388902,342.83017
2023-10-13,-0.101793356,0.077232055,0.06988552,-0.036813483,0.3440489,-0.23913237,0.22133791,0.14426577,0.10122632,0.39484936,0.10139995,0.15954015,290.81827
2023-10-16,-0.113304794,0.07903731,0.09200436,-0.048306495,0.3558496,-0.26617494,0.2665616,0.12107977,0.101319514,0.39905393,0.077100575,0.21138197,185.37335
2023-10-17,-0.0881208,0.046857737,0.033820003,-0.053154714,0.38164976,-0.24065942,0.25461456,0.08376387,0.10492564,0.39965194,0.10898063,0.10505331,283.7152
2023-10-18,-0.10226027,0.052582994,0.06461722,-0.05745071,0.39192086,-0.25461072,0.26823464,0.08646521,0.11231784,0.41759545,0.09712852,0.11910306,180.255
2023-10-19,-0.11832367,0.04057815,0.096211225,-0.0547805,0.40129352,-0.25951025,0.3041797,0.0943363,0.12899646,0.4261005,0.09549592,0.17609525,185.31833
2023-10-20,-0.117134675,0.039729513,0.12267944,-0.04577042,0.41730407,-0.2456756,0.3090293,0.09774442,0.14071229,0.45890766,0.09871795,0.19425489,92.050285
2023-10-23,-0.11252512,0.02422714,0.13068089,-0.028610982,0.44154263,-0.2612539,0.35997772,0.10247122,0.16543582,0.47539455,0.110569954,0.2329965,173.5519
2023-10-24,-0.102881856,0.025461026,0.11714527,-0.02516004,0.4399709,-0.21063066,0.3525804,0.08491057,0.15853968,0.4857719,0.14658722,0.17985055,136.74261
2023-10-25,-0.106811404,0.035213195,0.10556671,0.015474673,0.44209445,-0.17913383,0.33107466,0.09455556,0.16808662,0.49143732,0.17280814,0.18594356,274.86893
2023-10-26,-0.10548526,0.020067997,0.13673425,0.03693157,0.43046167,-0.17712569,0.3395782,0.08602242,0.1387406,0.5261953,0.15083003,0.24767424,298.22742
2023-10-27,-0.11423749,0.016665418,0.17717028,0.033438087,0.4118722,-0.18152466,0.38372496,0.11827694,0.15648252,0.5146487,0.1583417,0.33586985,177.15433
2023-10-30,-0.12067468,0.024301281,0.17303386,0.069118336,0.41634268,-0.14156067,0.34884372,0.13192694,0.16411376,0.5091558,0.18102568,0.32292265,228.35052
2023-10-31,-0.110213906,0.015987046,0.15629178,0.0555695,0.45513666,-0.13450497,0.3095888,0.100721814,0.16393813,0.5337319,0.17629784,0.20170107,166.45238
2023-11-01,-0.103729226,0.005743121,0.12516338,0.055741727,0.51940167,-0.16088288,0.2944082,0.07410523,0.19739398,0.576041,0.15695333,0.13293892,228.64566
2023-11-02,-0.10647566,0.006071942,0.104462594,0.07401291,0.54455197,-0.12823626,0.22324273,0.084330454,0.2132996,0.5962334,0.16492414,0.07413435,181.67136
2023-11-03,-0.11723933,-0.0037585357,0.08139858,0.086251795,0.5762616,-0.14944303,0.21625964,0.069594175,0.2384724,0.6124417,0.16902673,0.04105915,315.20963
2023-11-06,-0.12552533,-0.008778327,0.06730467,0.11436412,0.59725714,-0.13931128,0.18828923,0.058780223,0.23787585,0.63232934,0.18006538,0.0023325458,333.77527
2023-11-07,-0.11929317,0.0070133186,0.06663546,0.08561027,0.60189044,-0.11954106,0.15864548,0.063412145,0.23462114,0.61673987,0.16938329,-0.053847373,2667.8757
2023-11-08,-0.11982529,0.0028756973,0.040735185,0.08688404,0.6375818,-0.110321015,0.11671643,0.044918083,0.24595046,0.62413234,0.15977325,-0.12916583,320.61108
2023-11-09,-0.12396184,-0.002174953,0.029354267,0.114282936,0.6610448,-0.10386111,0.11480983,0.03570359,0.25516388,0.6417303,0.17470405,-0.1427747,296.6878
2023-11-10,-0.13717815,-0.0035270136,0.038773216,0.14081664,0.6756466,-0.09828267,0.12310997,0.026248,0.25427124,0.65796936,0.18316755,-0.13572195,182.08894
2023-11-13,-0.14299366,-0.011455252,0.002092436,0.15385038,0.67028433,-0.09117928,0.08541313,0.017605554,0.24559003,0.6282122,0.18658012,-0.17017093,439.63437
2023-11-14,-0.15082592,0.0010787202,0.017140865,0.14297298,0.6659853,-0.07385669,0.0913758,0.020098811,0.24367782,0.60774165,0.19001167,-0.17847613,892.6859
2023-11-15,-0.16039908,-0.006460556,0.0030264705,0.15093972,0.6682084,-0.07585765,0.06788386,0.0153288655,0.23553362,0.59196365,0.19008444,-0.2035386,865.676
2023-11-16,-0.17654963,-0.017911509,0.020334005,0.16608389,0.6734336,-0.07593266,0.06754181,0.011342842,0.22349313,0.59645516,0.18963555,-0.19595203,806.44055
2023-11-17,-0.16755973,-0.019791935,0.021839261,0.18755288,0.6978838,-0.07282557,0.074165106,-0.003999386,0.22840127,0.6337774,0.19850987,-0.20474994,206.33052
2023-11-20,-0.17275998,-0.022940222,0.008598179,0.19719385,0.7081223,-0.0846959,0.080550455,-0.01048338,0.24049246,0.62735325,0.20870653,-0.20672026,285.68802
2023-11-21,-0.15058139,-0.0055338675,-0.014686376,0.16777343,0.67668194,-0.060193963,0.06401254,-0.008956987,0.23653147,0.59069717,0.20843303,-0.23531038,464.35422
2023-11-22,-0.14848597,-0.014786371,-0.018344522,0.15893827,0.70750254,-0.07277049,0.060260486,-0.0280607,0.24455917,0.6182641,0.19415542,-0.2729607,474.26715
2023-11-24,-0.13295427,-0.023526791,-0.03208079,0.13540961,0.73274094,-0.08835538,0.045958158,-0.045249794,0.25330612,0.6372291,0.16885734,-0.32220253,306.94293
2023-11-27,-0.1306695,-0.03468516,-0.038253475,0.12980598,0.75310665,-0.10848218,0.040850963,-0.056594636,0.25904235,0.6556294,0.15360674,-0.33869085,153.57034
2023-11-28,-0.1130087,-0.025028542,-0.03776786,0.08478404,0.732759,-0.09720561,0.030629035,-0.05868913,0.24967834,0.63704324,0.13601959,-0.37209135,146.89078
2023-11-29,-0.10540407,-0.03513118,-0.041310545,0.0793241,0.7502305,-0.10984669,0.027134974,-0.06633423,0.25731635,0.65966856,0.12847742,-0.39004263,119.71669
2023-11-30,-0.09871842,-0.03734525,-0.041856334,0.08720362,0.75529015,-0.10686984,0.022053506,-0.070821136,0.2584736,0.68158734,0.13184923,-0.39294145,59.914894
2023-12-01,-0.07796316,-0.05366303,-0.05686795,0.058063235,0.77743953,-0.13368627,0.022560533,-0.095662385,0.26311514,0.70875955,0.10233254,-0.4230676,235.23636
2023-12-04,-0.07655366,-0.061592884,-0.05413811,0.06659634,0.7789454,-0.13944355,0.01644754,-0.09763163,0.26387143,0.7232729,0.11012623,-0.4190761,80.63097
2023-12-05,-0.052450325,-0.045654677,-0.046220563,0.02013037,0.7279802,-0.12065366,0.029397786,-0.086111814,0.25280324,0.68498945,0.09825209,-0.3921667,279.00424
2023-12-06,-0.03420657,-0.0519319,-0.05031728,0.008321054,0.7310306,-0.12124016,0.017888106,-0.089215636,0.24718937,0.7011108,0.08597983,-0.40222928,179.35153
2023-12-07,-0.02879709,-0.060601898,-0.04584745,0.0049954727,0.7337244,-0.12323389,0.014875804,-0.09143649,0.24473771,0.71735007,0.07548429,-0.39812198,119.236336
2023-12-08,-0.022939004,-0.062236108,-0.059191465,0.012246089,0.726824,-0.11783763,-0.008383187,-0.091264576,0.2414864,0.7230964,0.076635644,-0.40711,365.06262
2023-12-11,-0.016534932,-0.06398473,-0.058796793,0.024925957,0.71947426,-0.1353609,0.0038733454,-0.07821676,0.25470278,0.7233297,0.08872053,-0.3727493,341.03342
2023-12-12,-0.01983627,-0.040624753,-0.08885192,0.017222386,0.6353991,-0.07934663,-0.017312426,-0.06870209,0.22382775,0.63829845,0.106208235,-0.35140535,800.0066
2023-12-13,-0.018281229,-0.04237788,-0.110763535,0.031548463,0.6252042,-0.06968693,-0.0237808,-0.07405509,0.21797132,0.62709516,0.11979103,-0.34948337,196.63873
2023-12-14,-0.025014117,-0.041706204,-0.108553186,0.042776983,0.6128404,-0.061628565,-0.034658067,-0.07118425,0.20880213,0.6214512,0.1235311,-0.33321053,152.04399
2023-12-15,-0.05256954,-0.050132636,-0.091200754,0.088523895,0.5474334,-0.044061504,-0.030321341,-0.05612753,0.16773784,0.5705174,0.15697548,-0.24241507,408.31876
2023-12-18,-0.061881732,-0.055714704,-0.08769021,0.09136386,0.52434355,-0.040614225,-0.040598158,-0.046496343,0.1491426,0.54267037,0.15599501,-0.22336793,123.4489
2023-12-19,-0.0662681,-0.043526743,-0.093884915,0.061828192,0.4950391,-0.030747961,-0.050135724,-0.039473932,0.14024153,0.49264705,0.15237278,-0.24029669,161.92001
2023-12-20,-0.07235139,-0.04946136,-0.09324814,0.067281134,0.49654734,-0.043100744,-0.049562085,-0.03894564,0.13883772,0.4910534,0.15889493,-0.2332212,83.82283
2023-12-21,-0.08159174,-0.05190664,-0.06982874,0.083462976,0.48371407,-0.020903585,-0.05425575,-0.02751134,0.13124585,0.48592508,0.16492574,-0.21066588,179.77577
2023-12-22,-0.07696314,-0.05980224,-0.08549856,0.08423433,0.5061917,-0.048873603,-0.049055997,-0.033607278,0.14444795,0.49852884,0.16968736,-0.22704503,237.75693
2023-12-26,-0.07979006,-0.06987223,-0.08369991,0.089628644,0.5188153,-0.06982125,-0.039057344,-0.03685763,0.14925137,0.50264674,0.17223933,-0.22585729,110.606384
2023-12-27,-0.07921446,-0.056222834,-0.091092326,0.0743003,0.48122218,-0.042962857,-0.049520016,-0.032050204,0.12669197,0.46802425,0.17545322,-0.21974394,158.31056
2023-12-28,-0.075127035,-0.058332317,-0.08600861,0.077948995,0.4889713,-0.059494995,-0.03783974,-0.025152545,0.13863519,0.48064297,0.17793939,-0.20602682,124.38476
2023-12-29,-0.07529765,-0.06023889,-0.07827638,0.09106298,0.48831075,-0.051462136,-0.04321322,-0.023585144,0.13827541,0.48961455,0.18104815,-0.20685774,67.65496
2024-01-02,-0.0729381,-0.06404743,-0.073176995,0.09919172,0.4973846,-0.061076436,-0.034792997,-0.020746019,0.14806345,0.5046076,0.18514082,-0.20010963,92.62428
2024-01-03,-0.038304895,-0.03435518,-0.13507798,-0.040627763,0.3453364,-0.08317001,-0.016897166,-0.008020241,0.04558876,0.27730626,0.048274398,-0.10882796,732.7081
2024-01-04,-0.012242928,-0.0289426,-0.12804997,-0.04479622,0.3586908,-0.08847783,-0.009917926,0.008408818,0.06771373,0.31249702,0.049916834,-0.08039579,446.40408
2024-01-05,0.005632259,-0.032168657,-0.12620385,-0.030228868,0.36585304,-0.09957126,0.012565811,0.012974236,0.0814314,0.34736943,0.07277269,-0.059314698,590.06464
2024-01-08,0.0065966398,-0.035115823,-0.115354575,-0.0029703155,0.35905412,-0.11595727,0.03467736,0.030896153,0.09239895,0.3573136,0.10696487,-0.020305187,586.5533
2024-01-09,0.0112491995,-0.011881276,-0.11695104,0.0007681027,0.33486664,-0.08053836,0.02897989,0.041202575,0.07550608,0.35064912,0.1145207,-0.035776824,454.41443
2024-01-10,0.017407954,-0.0008811625,-0.115550324,0.017924195,0.3416174,-0.07178653,0.019072112,0.059266213,0.089103736,0.36843944,0.12667021,-0.035967767,2507.234
2024-01-11,0.014540866,0.0030456083,-0.11374228,0.040468484,0.34949017,-0.066671416,0.002690901,0.06844686,0.09528109,0.38761902,0.13798317,-0.047778755,754.1643
2024-01-12,0.016818076,0.010440177,-0.11126039,0.055405185,0.3592462,-0.06720951,-0.0006775828,0.08236179,0.11485044,0.40648484,0.15231147,-0.0427202,493.0325
2024-01-16,-0.0071431175,0.0076844925,-0.098534256,0.10522862,0.3460738,-0.06514843,-0.0034925034,0.10926896,0.11969436,0.3905247,0.19113272,-0.014210865,825.4371
2024-01-17,-0.01373522,0.021047914,-0.0944079,0.110225774,0.33229655,-0.019918254,-0.016187474,0.11263378,0.09735466,0.36928952,0.19035369,-0.03106013,858.17786
2024-01-18,-0.009512395,0.018357992,-0.10252062,0.10197182,0.36769795,-0.026562702,-0.025596395,0.09944299,0.11654831,0.40688473,0.18554279,-0.06634471,319.47787
2024-01-19,-0.02610518,0.003575313,-0.11632485,0.124718204,0.38498393,-0.04738372,-0.02184423,0.092165574,0.12532416,0.40644205,0.21111295,-0.079880714,437.61426
2024-01-22,-0.052531943,0.00014067162,-0.11768794,0.16661601,0.37422168,-0.04311029,-0.034069702,0.10180125,0.12402404,0.38253587,0.24322063,-0.07113114,343.38
2024-01-23,-0.050678603,0.011552618,-0.12953538,0.13594027,0.36816,-0.017200505,-0.03386695,0.0909055,0.11709116,0.35963193,0.23306143,-0.10066624,8274.774
2024-01-24,-0.05643005,0.007514707,-0.1335392,0.1421462,0.37783313,-0.022965245,-0.03713308,0.08817294,0.1249337,0.36543536,0.24359974,-0.102133065,117.03994
2024-01-25,-0.07087374,0.014715343,-0.119907305,0.18282856,0.35723346,-0.0024821758,-0.05995769,0.11197265,0.118938394,0.3503441,0.26575062,-0.07020715,392.6281
2024-01-26,-0.09377682,0.0019566352,-0.11498998,0.21665691,0.34205344,-0.014446251,-0.04408841,0.11881998,0.116934665,0.31384647,0.3051092,-0.050180584,715.89154
2024-01-29,-0.08886641,-0.003458717,-0.1253462,0.19375812,0.35873076,-0.033829752,-0.043944154,0.11613336,0.13843879,0.3244959,0.29412612,-0.063236654,494.62177
2024-01-30,-0.08215028,0.019505437,-0.12698528,0.1539741,0.3438243,-0.00930066,-0.05667837,0.12909791,0.13349438,0.29032183,0.2824994,-0.08746642,866.52454
2024-01-31,-0.09245406,0.008049308,-0.13583918,0.14673524,0.34712085,-0.029828139,-0.05592243,0.124895334,0.13985875,0.28740796,0.2897412,-0.08941561,319.77023
2024-02-01,-0.08731104,0.00966975,-0.13123654,0.15824375,0.35143977,-0.014328357,-0.06290738,0.116482764,0.13577238,0.29920745,0.28417575,-0.09520395,124.781166
2024-02-02,-0.08449441,0.0013317494,-0.14825681,0.14888301,0.36679643,-0.03868136,-0.060263213,0.11655773,0.15510046,0.31236768,0.28734532,-0.111976594,324.3061
2024-02-05,-0.07815021,0.01392928,-0.14389864,0.1608193,0.36021185,-0.027993135,-0.079835206,0.12548356,0.15296668,0.3089379,0.2835232,-0.11598118,1041.3461
2024-02-06,-0.0659465,0.03772381,-0.12760115,0.1316328,0.32246518,-0.009806208,-0.05066153,0.16875055,0.15283877,0.26285583,0.28793177,-0.06351426,424.17697
2024-02-07,-0.0678855,0.033462886,-0.12965153,0.13105693,0.3176105,-0.024481032,-0.0465462,0.17495799,0.15951297,0.25771093,0.29213428,-0.048445806,210.74333
2024-02-08,-0.055154815,0.039690766,-0.12901533,0.13541007,0.31405774,-0.019996358,-0.051011402,0.18658648,0.16894424,0.27102518,0.2886698,-0.037588403,111.53009
2024-02-09,-0.05791968,0.039890658,-0.12907124,0.14235432,0.30470005,-0.033942677,-0.03425367,0.20089355,0.18369073,0.26457146,0.3036579,-0.0032828525,231.4991
2024-02-12,-0.050192334,0.04386507,-0.12147693,0.16411749,0.31511995,-0.013779841,-0.04833744,0.20649557,0.1824817,0.28369623,0.30344203,-0.018776074,631.1053
2024-02-13,-0.061389472,0.050806254,-0.107602805,0.14582357,0.29282358,0.003789898,-0.041506086,0.20579669,0.15332013,0.24071613,0.30020875,-0.011362299,281.43164
2024-02-14,-0.06431176,0.050253488,-0.100311145,0.16484708,0.28624028,0.006942816,-0.03470136,0.20817935,0.14792112,0.2377655,0.30139977,0.011511087,335.11682
2024-02-15,-0.061090276,0.032667935,-0.123942256,0.13415593,0.32409394,-0.037137248,-0.019278653,0.19701141,0.18483561,0.26864672,0.3004588,-0.017422736,1069.7255
2024-02-16,-0.07570488,0.02733529,-0.1339876,0.1423101,0.30791116,-0.07143106,-0.00082833227,0.1883601,0.18224034,0.24395128,0.31235498,0.021656811,490.71902
2024-02-20,-0.089715734,0.015779395,-0.10938298,0.15937494,0.2747317,-0.08655641,0.037119366,0.18764092,0.14547506,0.21340728,0.31186283,0.11290837,5158.8906
2024-02-21,-0.09150413,0.019087352,-0.07417891,0.15192221,0.2422436,-0.048671667,0.03324336,0.2036016,0.09740653,0.17839955,0.30004808,0.13790005,209.72939
2024-02-22,-0.10885174,-0.005939549,-0.093250684,0.13255753,0.25248656,-0.114910536,0.06999673,0.1868946,0.10981675,0.1655362,0.30349347,0.16239727,486.48267
2024-02-23,-0.1140617,-0.013943461,-0.09727685,0.13978767,0.24603593,-0.13089007,0.07098011,0.17621066,0.09490625,0.16674751,0.29370794,0.18104729,201.91467
2024-02-26,-0.108742714,-0.019353218,-0.096447706,0.15201285,0.2484624,-0.13240325,0.07234654,0.17266542,0.093334235,0.17466797,0.2936323,0.18078126,65.7173
2024-02-27,-0.12064612,-0.0077726366,-0.08747055,0.113977164,0.23445164,-0.109353825,0.06488927,0.17471716,0.058780164,0.138251,0.27512828,0.1647198,212.71443
2024-02-28,-0.13851443,-0.024431586,-0.07871039,0.13905486,0.22631274,-0.12116922,0.086334005,0.17618525,0.048189893,0.12066971,0.29744714,0.19521058,366.67725
2024-02-29,-0.16100329,-0.035013814,-0.066615954,0.17451833,0.2103324,-0.11720913,0.09557934,0.16934028,0.029760055,0.09543885,0.3247635,0.21813267,205.4208
2024-03-01,-0.16026762,-0.04132194,-0.07375265,0.17115434,0.21579915,-0.12211121,0.08690201,0.17023331,0.049023263,0.09868547,0.3318123,0.20412952,124.221466
2024-03-04,-0.17439616,-0.038534302,-0.07811648,0.17436077,0.21558584,-0.12589404,0.093230635,0.1728694,0.06821086,0.08897454,0.34897736,0.2200826,97.34805
2024-03-05,-0.1691541,-0.02033773,-0.05907087,0.1650783,0.19001853,-0.06756719,0.07144253,0.19707257,0.03421057,0.07113118,0.34125298,0.21852663,248.3136
2024-03-06,-0.18992367,-0.02602622,-0.04596301,0.17903815,0.18582977,-0.090392835,0.100521035,0.18314824,0.021626625,0.053778693,0.3481377,0.25861222,236.18915
2024-03-07,-0.19766258,-0.036796734,-0.054100867,0.1618964,0.19717467,-0.1317077,0.11809206,0.1719627,0.033217244,0.0477214,0.34678996,0.26654002,216.44609
2024-03-08,-0.19795713,-0.03782189,-0.053571854,0.15951535,0.19790582,-0.13910627,0.11931108,0.17193028,0.04104282,0.04501514,0.3459028,0.2731204,44.37724
2024-03-11,-0.20210059,-0.042321846,-0.051067483,0.16463056,0.20688131,-0.1640485,0.1482272,0.15680301,0.038054742,0.037888445,0.3463699,0.29411373,108.306
2024-03-12,-0.19525628,-0.030054897,-0.0536269,0.12373158,0.20466006,-0.15448669,0.13858718,0.1553714,0.016256228,0.022117361,0.32682857,0.27610344,187.21747
2024-03-13,-0.18312123,-0.03993067,-0.06401881,0.09881112,0.22394861,-0.16529982,0.13207042,0.15497294,0.04258617,0.051640287,0.33188537,0.2438843,408.64352
2024-03-14,-0.19377895,-0.043421634,-0.05726054,0.11196692,0.22307314,-0.1804845,0.1476307,0.13909115,0.026339732,0.03782522,0.33123967,0.2616534,142.42285
2024-03-15,-0.20413774,-0.048371777,-0.052478004,0.121797875,0.22830789,-0.19125283,0.15595767,0.120064974,0.016046777,0.034718126,0.32406732,0.26418772,111.93655
2024-03-18,-0.20807618,-0.06194418,-0.020560376,0.13561013,0.22039866,-0.22162661,0.20187679,0.11441539,-0.016883813,0.026763096,0.31568995,0.337265,414.0192
2024-03-19,-0.19333066,-0.05457916,-0.025071524,0.089820094,0.2062558,-0.20785946,0.1890932,0.12044807,-0.03664263,0.017613873,0.29702225,0.32711816,259.0531
2024-03-20,-0.19084682,-0.05961398,-0.023901477,0.08816929,0.21453063,-0.22299281,0.19779551,0.112882346,-0.031190155,0.025592871,0.29960242,0.32604977,100.56515
2024-03-21,-0.19063742,-0.06549431,-0.024025053,0.09853778,0.21490055,-0.22515413,0.19658825,0.10871656,-0.03263446,0.02920711,0.304089,0.32658732,48.10797
2024-03-22,-0.19484441,-0.06768117,-0.016631052,0.1255655,0.20293361,-0.21725479,0.2000107,0.10475928,-0.046770237,0.023583204,0.30931753,0.348265,149.13654
2024-03-25,-0.19442326,-0.06901546,-0.005834967,0.14087418,0.20091575,-0.20982802,0.20486271,0.10937895,-0.046230108,0.027819492,0.31252286,0.36720437,116.13555
2024-03-26,-0.18734293,-0.057752393,-0.008837782,0.1001746,0.19706145,-0.19323343,0.19699362,0.12392481,-0.05103658,0.017977536,0.29688495,0.36148518,179.61728
2024-03-27,-0.18365914,-0.059917174,-0.0053070784,0.10734712,0.200365,-0.19771343,0.20322192,0.12346543,-0.04757703,0.021822542,0.3001344,0.3696289,91.86583
2024-03-28,-0.18406735,-0.06457367,-0.0036156774,0.108134404,0.2087737,-0.21570367,0.21685058,0.11920975,-0.036335163,0.02869077,0.3072216,0.37118614,121.93137
2024-04-01,-0.18732098,-0.064523526,0.0025856122,0.12223364,0.20746773,-0.22238308,0.22699225,0.10873024,-0.042277746,0.024447426,0.30626735,0.38093513,237.66667
2024-04-02,-0.18035398,-0.0556255,0.0032279044,0.10395264,0.19437215,-0.1912806,0.204088,0.11834398,-0.05759631,0.018796101,0.29156318,0.3721474,162.99403
2024-04-03,-0.19164106,-0.059457563,8.935481e-05,0.124620184,0.19224232,-0.18903705,0.21060884,0.123222366,-0.050373226,0.013685025,0.31470746,0.3747752,188.224
2024-04-04,-0.19093132,-0.06108404,-0.008824557,0.12934318,0.19912596,-0.19448513,0.21225633,0.13727744,-0.025805697,0.013788097,0.33299786,0.3785123,10057.741
2024-04-05,-0.18480282,-0.050612886,0.012747802,0.15279634,0.18062276,-0.16146961,0.2032329,0.13306485,-0.043861985,0.010237917,0.32570538,0.38839242,417.04916
2024-04-08,-0.19032267,-0.062135704,-0.008208066,0.1477308,0.19839321,-0.18846938,0.20166889,0.13853535,-0.015445679,0.017659709,0.34246355,0.37051782,371.92346
2024-04-09,-0.17780292,-0.05367116,-0.020855602,0.10974558,0.19457462,-0.16728532,0.1761618,0.14864846,-0.024398148,0.011936635,0.32419744,0.34560353,335.53925
2024-04-10,-0.17610158,-0.05417116,-0.014891967,0.12100808,0.19333479,-0.15892759,0.17180073,0.15019672,-0.020399064,0.012059912,0.33141324,0.34697682,69.94299
2024-04-11,-0.18267353,-0.054145552,-0.0023228899,0.13851595,0.18948662,-0.15097828,0.17631318,0.14970088,-0.021197937,0.012885973,0.33869556,0.35726234,128.52576
2024-04-12,-0.18852517,-0.062321745,-0.013708446,0.14325635,0.20030579,-0.15567096,0.16640452,0.16224192,0.006318718,0.024978459,0.35415068,0.3450902,766.30804
2024-04-15,-0.19606374,-0.05382461,0.015021384,0.17376734,0.18917096,-0.11531811,0.16011158,0.15410052,-0.015288642,0.026380718,0.3472812,0.35970122,642.5349
2024-04-16,-0.19571452,-0.04678709,0.013426498,0.1396318,0.1927976,-0.11072819,0.16407743,0.16695221,-0.013925048,0.021843418,0.34079927,0.3577378,88.759575
2024-04-17,-0.19185454,-0.054374687,-0.0035766661,0.119123995,0.21679735,-0.14241777,0.17090794,0.17752697,0.021807954,0.029994026,0.34466353,0.36035535,506.8688
2024-04-18,-0.20292497,-0.061222367,0.0155991465,0.1331082,0.23768619,-0.16996059,0.20399153,0.16710922,0.027937345,0.045461208,0.3419386,0.37480363,704.91364
2024-04-19,-0.2089766,-0.065444894,0.040487118,0.13704577,0.26466417,-0.21864352,0.2560185,0.15951991,0.043075584,0.06472146,0.33268157,0.39926657,348.21115
2024-04-22,-0.21279538,-0.0726389,0.07195598,0.14053589,0.28988713,-0.2773274,0.3160286,0.12705427,0.037595473,0.07898052,0.30855933,0.41162428,218.3536
2024-04-23,-0.19048947,-0.06398117,0.047235414,0.05914922,0.26716626,-0.26169708,0.27970877,0.1491832,0.03130929,0.06608622,0.29502884,0.38788477,200.25017
2024-04-24,-0.19314724,-0.06858917,0.049562886,0.07019571,0.25857136,-0.2716188,0.2808576,0.14469115,0.024527244,0.06348861,0.30108312,0.39366013,71.76369
2024-04-25,-0.1987797,-0.07293329,0.07318215,0.09493263,0.2515614,-0.27652255,0.3028396,0.13120928,0.01055612,0.06232421,0.30336285,0.417905,179.51729
2024-04-26,-0.205417,-0.08034054,0.073423386,0.090785995,0.29957417,-0.3327256,0.35069773,0.12595947,0.058419444,0.08232995,0.3050202,0.41743502,563.5839
2024-04-29,-0.19687057,-0.07780619,0.070088774,0.11162589,0.27494532,-0.29171655,0.3040806,0.13173188,0.048911892,0.088784575,0.30793536,0.40433365,101.44238
2024-04-30,-0.1979376,-0.05853392,0.0816842,0.06563123,0.25169498,-0.25276583,0.28192553,0.14867985,0.02713649,0.074329436,0.3023986,0.39751172,189.30585
2024-05-01,-0.20619267,-0.049165897,0.12579119,0.07532214,0.26500857,-0.27503252,0.34510815,0.16142374,0.05263587,0.090152904,0.29566926,0.44755885,264.08978
2024-05-02,-0.18138836,-0.053444296,0.15239665,0.07994314,0.28874266,-0.2638759,0.3174888,0.19813992,0.110213704,0.15522744,0.31143078,0.4155105,285.8408
2024-05-03,-0.16798843,-0.053671762,0.15449998,0.082383454,0.30460274,-0.27368015,0.30059448,0.19855805,0.124838926,0.17814018,0.29893634,0.38260764,66.94754
2024-05-06,-0.17153625,-0.058736965,0.14500955,0.09682902,0.3160221,-0.26622242,0.27299115,0.19709286,0.1340422,0.19464019,0.3022062,0.34782112,78.44153
2024-05-07,-0.18615872,-0.03381688,0.15798588,0.056869425,0.28813767,-0.21534923,0.2288086,0.1963889,0.09427909,0.18137008,0.2866125,0.32092908,195.01633
2024-05-08,-0.18344651,-0.035080243,0.16226557,0.05153637,0.32292485,-0.25546572,0.24578482,0.19699523,0.12029796,0.20471117,0.26508242,0.31218868,106.41168
2024-05-09,-0.1844277,-0.0403165,0.17092149,0.064567,0.33894944,-0.27992004,0.2691119,0.19345237,0.1338954,0.22254737,0.2674197,0.32442322,96.72087
2024-05-10,-0.18240389,-0.05258908,0.17943671,0.060586352,0.362744,-0.31345412,0.2811518,0.16643362,0.13152704,0.25122643,0.24397492,0.30942458,108.17129
2024-05-13,-0.18273336,-0.06197212,0.18957976,0.070967466,0.3731242,-0.32285115,0.2910649,0.1468648,0.12303179,0.27504256,0.23353079,0.31079763,82.61648
2024-05-14,-0.1912389,-0.030633964,0.20410421,0.040762924,0.3225364,-0.26568544,0.2760406,0.14997725,0.08157579,0.23301855,0.22253451,0.32955462,203.70908
2024-05-15,-0.17905033,-0.03917461,0.19905719,0.0454445,0.32865363,-0.2868622,0.29111174,0.16554958,0.098892935,0.2378506,0.22926128,0.3520465,107.07058
2024-05-16,-0.17580947,-0.04515695,0.171017,0.06410545,0.3274141,-0.27270466,0.2759578,0.17091289,0.104973994,0.24989758,0.23184606,0.35218513,98.36926
2024-05-17,-0.1833185,-0.055975392,0.19916424,0.08092163,0.35923642,-0.28093758,0.308668,0.14270166,0.09946401,0.29515806,0.22998452,0.35920948,138.1751
2024-05-20,-0.17863297,-0.06960734,0.19804022,0.08418431,0.38670078,-0.31048045,0.33033124,0.12182987,0.105624296,0.32003444,0.21934438,0.35320932,92.22966
2024-05-21,-0.19166024,-0.041675426,0.19849059,0.06625964,0.32396656,-0.2187984,0.2871574,0.15094359,0.061739296,0.2740307,0.22776216,0.37748292,218.29195
2024-05-22,-0.17891032,-0.049607,0.20006534,0.07090251,0.35151774,-0.23362932,0.30139095,0.14660183,0.07387339,0.32242453,0.21728113,0.3785439,98.79698
2024-05-23,-0.17990132,-0.054686815,0.22410446,0.09856111,0.36138967,-0.21081841,0.31081882,0.14312571,0.06969088,0.356573,0.22706935,0.3976222,105.687965
2024-05-24,-0.17800787,-0.05164879,0.24235228,0.12845315,0.37326407,-0.20115295,0.33491236,0.16317981,0.091834374,0.39049023,0.25085205,0.43516403,135.91368
2024-05-28,-0.17237484,-0.060795307,0.20914584,0.14500841,0.38092315,-0.20413738,0.3143957,0.17000882,0.1073276,0.39672524,0.26370445,0.41094086,90.46746
2024-05-29,-0.17943533,-0.031208858,0.22701088,0.14482829,0.33620647,-0.14186905,0.30157763,0.18641587,0.08499918,0.37365,0.27913588,0.4395059,156.82108
2024-05-30,-0.18665881,-0.029894024,0.23484752,0.17417903,0.35155123,-0.13158533,0.30898952,0.20148602,0.11045895,0.3925401,0.30548587,0.44749558,100.57761
2024-05-31,-0.19523825,-0.039714973,0.25024244,0.16216977,0.37545627,-0.19369397,0.35601947,0.2184013,0.1480684,0.37767226,0.30627656,0.46704754,170.9789
2024-06-03,-0.17465967,-0.04971902,0.23440936,0.12687004,0.4209424,-0.2629158,0.3835013,0.20668307,0.18739781,0.40819442,0.277434,0.43980664,174.65442
2024-06-04,-0.16553372,-0.009949547,0.2527049,0.0949429,0.38474146,-0.20469353,0.34853166,0.22337836,0.16819489,0.39935756,0.27104062,0.43810546,181.22794
2024-06-05,-0.15418676,-0.0053766714,0.24420244,0.08865075,0.40335456,-0.20411903,0.33018064,0.2245508,0.18102136,0.42331672,0.25937185,0.41240555,97.51259
2024-06-06,-0.15931447,-0.0031411266,0.21421501,0.12349233,0.38662916,-0.17065585,0.29231578,0.23879588,0.1805,0.41011637,0.28250733,0.4095483,147.85728
2024-06-07,-0.16534762,-0.005162147,0.20663646,0.1357919,0.4053947,-0.17023444,0.28104886,0.23125876,0.18696588,0.42289132,0.28473106,0.38725692,106.663605
2024-06-10,-0.16420937,-0.00803467,0.19160935,0.1548036,0.406885,-0.17334053,0.27827236,0.23649055,0.19606787,0.42284638,0.2974527,0.38208863,93.730995
2024-06-11,-0.15387547,0.020819899,0.1736176,0.13388357,0.36895815,-0.10974778,0.2360023,0.24299362,0.17335713,0.37566042,0.2947322,0.3693101,479.2717
2024-06-12,-0.15446386,0.015353147,0.16201335,0.15766874,0.3847456,-0.0903687,0.22478598,0.24340738,0.18272766,0.38948435,0.3047737,0.35548693,94.18393
2024-06-13,-0.15429899,0.007959629,0.14795412,0.19142438,0.38123822,-0.06571057,0.2135003,0.24660078,0.18006158,0.38952124,0.32018802,0.35714757,119.87379
2024-06-14,-0.16881298,0.01292595,0.12522171,0.24494381,0.3482458,-0.022569977,0.20912941,0.24549896,0.16498137,0.36040634,0.3439671,0.39335498,225.33794
2024-06-17,-0.16930126,0.015927877,0.108281165,0.26665017,0.37769255,0.015718497,0.1875622,0.22026736,0.17216733,0.39834148,0.34773085,0.34389973,273.14133
2024-06-18,-0.16924268,0.019086171,0.08210784,0.25921053,0.37695393,0.053578176,0.15943576,0.1996736,0.15319589,0.37585807,0.35844225,0.29215342,347.01718
2024-06-20,-0.16894573,0.012699035,0.073838174,0.26340133,0.40650278,0.045347802,0.16320257,0.19218147,0.17059779,0.3994034,0.36268106,0.2730234,99.99788
2024-06-21,-0.1742207,0.007543497,0.08099283,0.28083223,0.43447906,0.039374,0.16463831,0.17071861,0.17686117,0.43468463,0.36040282,0.2566287,111.2686
2024-06-24,-0.1649014,-0.0036512017,0.067493945,0.27531165,0.48859656,0.021666206,0.1546346,0.1535505,0.20287308,0.4755355,0.35375482,0.18887667,298.296
2024-06-25,-0.16049553,-0.0037382944,0.069370896,0.22729416,0.5073916,0.0041999593,0.16694617,0.14364293,0.21087974,0.47533846,0.33750066,0.16221265,146.85513
2024-06-26,-0.15453318,-0.011245984,0.06580943,0.22023855,0.5304375,-0.017989513,0.16843817,0.14229514,0.22976366,0.5001791,0.33325493,0.14132419,775.8009
2024-06-27,-0.15255558,-0.008379023,0.059557438,0.21657106,0.5456942,-0.022270508,0.14816701,0.13630053,0.23855087,0.50220287,0.32279557,0.10209632,115.98426
2024-06-28,-0.14690948,-0.0053824997,0.06444776,0.20017476,0.5598285,-0.04469472,0.15023272,0.14361721,0.26099804,0.5047142,0.3072658,0.085007936,196.74615
2024-07-01,-0.1397593,-0.0064207884,0.08603452,0.18693425,0.59161913,-0.0747111,0.18601272,0.13953494,0.28664917,0.5462913,0.28395483,0.09454633,200.63577
2024-07-02,-0.13018417,0.012467213,0.08308624,0.15348637,0.558628,-0.045107394,0.15681118,0.14727923,0.27116132,0.5041304,0.2902056,0.0664772,433.80002
2024-07-03,-0.11989365,0.010575682,0.06948662,0.13971353,0.5828366,-0.053351715,0.13980211,0.12537214,0.27869317,0.52335924,0.2683928,0.0130163655,191.2781
2024-07-05,-0.123780206,0.006353521,0.0644601,0.14717954,0.58700424,-0.052706834,0.13974355,0.12490988,0.2896947,0.5305933,0.27519155,0.009004623,96.76063
2024-07-08,-0.11600346,0.0007950021,0.056016624,0.1454608,0.6106735,-0.055628654,0.12177013,0.11063905,0.29546687,0.55978346,0.2598276,-0.034198046,634.759
2024-07-09,-0.10748465,0.013244586,0.052138284,0.11858086,0.59194595,-0.029916178,0.10510547,0.11010063,0.27879378,0.5301798,0.25589544,-0.057127386,1741.6813
2024-07-10,-0.09824961,0.01627241,0.056767315,0.11408431,0.60284597,-0.035340488,0.10706338,0.1071302,0.2860181,0.5498801,0.24620041,-0.06219314,87.62017
2024-07-11,-0.08821733,0.01829052,0.073599845,0.109142706,0.59136987,-0.0392377,0.1196301,0.12030095,0.29032108,0.5567554,0.23986408,-0.025277048,158.24504
2024-07-12,-0.08791106,0.009809997,0.08558455,0.111771524,0.62502086,-0.07155655,0.16718154,0.11689539,0.32461187,0.5881229,0.246351,-0.006403774,290.8572
2024-07-15,-0.07980348,0.0072547244,0.08494955,0.10980682,0.6444739,-0.085980035,0.18124354,0.11178,0.33657375,0.61244464,0.2410385,-0.0105322,148.27185
2024-07-16,-0.079371914,0.021765579,0.09648013,0.08418763,0.5998441,-0.058966838,0.17117256,0.10337116,0.3023617,0.5854229,0.24069303,-0.0008955896,395.10394
2024-07-17,-0.051420107,0.019134942,0.10583553,0.05204625,0.5965909,-0.08665485,0.19904941,0.09206402,0.30084804,0.60083705,0.204662,0.027310625,3337.46
2024-07-18,-0.037191235,0.006257537,0.12403071,0.008084573,0.6030278,-0.13516897,0.24614286,0.052537784,0.284723,0.6357066,0.15271285,0.050813086,442.88754
2024-07-19,-0.048758037,-0.003542886,0.15253028,0.014045455,0.5931702,-0.15197942,0.29881492,0.049916692,0.2823067,0.65144724,0.15840447,0.11364054,455.58337
2024-07-22,-0.03392519,-0.0047304267,0.16311458,0.013437677,0.5961703,-0.15126708,0.3154939,0.047406275,0.27307746,0.66907597,0.14799872,0.12736455,111.413216
2024-07-23,-0.015633732,-0.0042651156,0.10732907,-0.010955375,0.56721735,-0.13489439,0.3082722,0.021906147,0.24155992,0.62758625,0.15267155,0.08100088,408.5432
2024-07-24,-0.0105759725,0.011272787,0.13232034,0.012893423,0.5443171,-0.09416315,0.29210424,0.036405742,0.22564676,0.6479458,0.16535392,0.11367076,801.7668
2024-07-25,-0.047356874,0.020312514,0.18349367,0.02074214,0.5007418,-0.105902955,0.31427366,0.059514225,0.21413133,0.6239276,0.14966074,0.20781074,720.17267
2024-07-26,-0.0503857,0.0005160654,0.21144849,0.018332027,0.53147334,-0.16856205,0.39116195,0.06430881,0.2522799,0.6331941,0.15532807,0.2523796,273.06894
2024-07-29,-0.04326012,-0.013807521,0.17665973,0.01973899,0.5399863,-0.18713415,0.37499097,0.039112385,0.24388936,0.6219661,0.14406526,0.21436758,2897.1523
2024-07-30,-0.03128417,0.004878166,0.17317455,-0.010121103,0.51322097,-0.14804101,0.37462166,0.009770092,0.20505354,0.6166701,0.13810498,0.18607974,451.33508
2024-07-31,-0.038438044,-0.004910496,0.17191754,-0.023378178,0.5231348,-0.19153419,0.39476082,-0.013700079,0.20607835,0.6169481,0.1076927,0.19467431,659.33655
2024-08-01,-0.038806044,-0.0204692,0.10049184,-0.031434014,0.5744203,-0.22842193,0.3623044,-0.053321946,0.22253856,0.5939403,0.10813726,0.09804859,782.0659
2024-08-02,-0.049453996,-0.0059226835,0.1279976,-0.035642534,0.591889,-0.21330777,0.34196737,-0.050313275,0.22036234,0.63864493,0.093639985,0.08368467,196.73831
2024-08-05,-0.0743579,-0.022594675,0.12997392,-0.03673318,0.56015635,-0.24432889,0.3459667,-0.04834811,0.17209703,0.60207236,0.061065026,0.123881534,471.88553
2024-08-06,-0.08387119,0.010688906,0.13736941,-0.024551164,0.42510688,-0.15548491,0.3098958,0.000741709,0.121400274,0.5112287,0.08625687,0.20126772,519.65533
2024-08-07,-0.038828164,-0.031938985,0.091222584,-0.038710877,0.5455472,-0.22697365,0.3910263,-0.06375575,0.16425505,0.6020565,0.096710265,0.13612744,9437.607
2024-08-08,-0.052548375,-0.029877223,0.11932379,-0.033132993,0.53870064,-0.23577636,0.39320594,-0.071694314,0.15349525,0.6148272,0.09253193,0.16038513,135.95963
2024-08-09,-0.065500736,-0.03489828,0.09093359,-0.044726953,0.5315803,-0.27411008,0.39273688,-0.075959384,0.15386254,0.58285356,0.08691716,0.16919142,140.88568
2024-08-12,-0.07554193,-0.029178448,0.08353636,-0.057554066,0.5063616,-0.29637295,0.3925261,-0.06318262,0.15026537,0.54905564,0.08481639,0.19807294,125.89747
2024-08-13,-0.06603715,-0.0037734834,0.08620876,-0.100330144,0.45654294,-0.28149274,0.40020445,-0.060707103,0.12450934,0.50378615,0.07623913,0.20889398,238.8668
2024-08-14,-0.050904803,-0.0032269536,0.04998152,-0.097463086,0.4578034,-0.27899027,0.37181026,-0.0670097,0.11712278,0.4989003,0.07739217,0.17843051,123.918625
2024-08-15,-0.055538706,0.0003227843,0.040167585,-0.10284263,0.45153576,-0.29944766,0.37579426,-0.063905954,0.11729368,0.48348057,0.07446661,0.19879639,177.09625
2024-08-16,-0.068233915,-0.0027082302,-0.0061036646,-0.09720245,0.43415323,-0.30919126,0.3292843,-0.076876625,0.099151604,0.43527418,0.08257934,0.15689796,1179.7446
2024-08-19,-0.064492345,-0.0035374444,-0.022424407,-0.098788336,0.430112,-0.31694874,0.31915185,-0.07963869,0.09073637,0.42309612,0.08476181,0.14822486,334.69135
2024-08-20,-0.05266605,0.016060114,-0.033560682,-0.13518,0.4068597,-0.3014079,0.32082006,-0.07604711,0.08909049,0.3858512,0.08187532,0.1213332,706.34686
2024-08-21,-0.018184036,0.025497135,-0.048895538,-0.12112333,0.40870467,-0.25317794,0.27360258,-0.06190676,0.08809679,0.43275088,0.08180303,0.06648472,288.65533
2024-08-22,-0.0016752481,0.026026495,-0.07061292,-0.11426763,0.42087346,-0.2363399,0.24094868,-0.054337475,0.10224334,0.4610508,0.08998684,0.03155455,261.86963
2024-08-23,-0.0071062297,0.022557706,-0.074561164,-0.11563361,0.4134663,-0.25846803,0.24725673,-0.05434301,0.10377992,0.44647306,0.08979881,0.055032387,437.33298
2024-08-26,-0.014415294,0.015585997,-0.08439167,-0.1159267,0.3982372,-0.27728388,0.25404808,-0.05094975,0.097740985,0.4175374,0.09896658,0.09122603,255.42929
2024-08-27,-0.033058137,0.021402907,-0.07199939,-0.15873167,0.37007195,-0.31864274,0.30221525,-0.05701239,0.08504731,0.34467912,0.08042355,0.108016096,338.68207
2024-08-28,-0.029241472,0.008405665,-0.09483805,-0.14994624,0.37427753,-0.32878977,0.29011592,-0.06705557,0.07277652,0.34531143,0.081124105,0.08125938,175.72122
2024-08-29,-0.019503087,0.0145656075,-0.07322764,-0.14551976,0.34884945,-0.3165547,0.29463062,-0.05603012,0.060422234,0.34361443,0.078358024,0.1131137,220.91641
2024-08-30,-0.030108705,-0.009422739,-0.10911056,-0.1417321,0.37607208,-0.35114145,0.29541558,-0.085335106,0.06795709,0.3286118,0.08799529,0.0853668,395.63934
2024-09-03,-0.030442797,-0.008181927,-0.117876425,-0.13421382,0.34895003,-0.35027334,0.2773893,-0.07713495,0.055319123,0.2984898,0.091179624,0.08678208,83.82695
2024-09-04,-0.009418353,0.010162086,-0.07620573,-0.13353457,0.35602847,-0.28207248,0.24266255,-0.062479716,0.07148118,0.34075254,0.07517289,0.027552202,511.32022
2024-09-05,0.021086194,-0.0025888272,-0.1135358,-0.14703718,0.40992457,-0.28965864,0.23601988,-0.07641709,0.1013541,0.39504147,0.0707815,-0.031671137,829.8437
2024-09-06,0.034526005,-0.0041211816,-0.11737496,-0.1428075,0.43235314,-0.27096316,0.2046926,-0.07044153,0.11702324,0.4240135,0.07204375,-0.06909889,304.95837
2024-09-09,0.036795363,-0.003555254,-0.09771722,-0.15294452,0.44682395,-0.2578705,0.17967127,-0.0656254,0.12388603,0.4586274,0.04367473,-0.08184075,143.23643
2024-09-10,0.029512018,-0.006881955,-0.13209622,-0.17537935,0.4728001,-0.30337772,0.19693801,-0.08997013,0.14049107,0.43763262,0.042977255,-0.13201445,314.26852
2024-09-11,0.049520984,-0.005177348,-0.1376808,-0.15855251,0.49160928,-0.23440257,0.12462121,-0.0786739,0.14100721,0.48420513,0.034685332,-0.21456635,275.21643
2024-09-12,0.049828574,-0.0019778544,-0.15896925,-0.13712303,0.5044713,-0.20473972,0.07067659,-0.06987657,0.15463662,0.5085708,0.04992556,-0.26458338,243.08392
2024-09-13,0.03063117,-0.0052195573,-0.17156142,-0.12132567,0.50449896,-0.20262763,0.029016446,-0.059701066,0.16179535,0.5049834,0.05618882,-0.2861714,322.45172
2024-09-16,0.0038388073,-0.019529711,-0.16398636,-0.074270025,0.47193378,-0.1988106,0.016934603,-0.048774023,0.1290296,0.47682065,0.068646155,-0.24769667,534.55475
2024-09-17,-0.011339724,-0.01931851,-0.15964289,-0.075685054,0.44615546,-0.22395521,0.051672556,-0.045716632,0.11465082,0.43182302,0.07730094,-0.22330806,673.5755
2024-09-18,-0.036695503,-0.03990697,-0.15865655,-0.04305216,0.42521265,-0.24679345,0.056688745,-0.049537633,0.091199346,0.39303625,0.100102976,-0.1917406,479.9378
2024-09-19,-0.052776083,-0.05002531,-0.14086187,-0.02654254,0.40129644,-0.2573784,0.07903984,-0.040625077,0.06874517,0.3617924,0.105629265,-0.12910688,256.82983
2024-09-20,-0.08517415,-0.06211263,-0.13381463,0.014666349,0.3244419,-0.25894332,0.07922943,-0.0150049515,0.019075159,0.2799814,0.13261063,-0.03683433,520.7517
2024-09-23,-0.1015799,-0.06600221,-0.11554063,0.04063168,0.2872637,-0.2534532,0.08848645,0.008861959,-0.003809467,0.23716772,0.14651331,0.015159816,687.4464
2024-09-24,-0.12483049,-0.05786009,-0.11279549,0.014914082,0.25069597,-0.28387466,0.1310144,0.02051993,-0.019952511,0.14935721,0.14710093,0.047873862,982.2216
2024-09-25,-0.1478987,-0.054773025,-0.07956605,0.044163093,0.18616769,-0.26808205,0.15742548,0.051653393,-0.06947486,0.0920406,0.16263017,0.16247758,989.0968
2024-09-26,-0.14293066,-0.05295968,-0.066341385,0.079738006,0.17582665,-0.23249644,0.14645562,0.081279054,-0.07581304,0.098272264,0.1848048,0.1768553,225.37366
2024-09-27,-0.14228651,-0.05131705,-0.05900889,0.12590766,0.15311119,-0.17758614,0.114666924,0.101341754,-0.08405706,0.09974971,0.20894021,0.19942412,193.6314
2024-09-30,-0.1652309,-0.060711898,-0.044733025,0.12083228,0.16330245,-0.21967787,0.15251946,0.073580354,-0.08095106,0.08330881,0.21350408,0.23920894,195.7311
2024-10-01,-0.17160434,-0.062049054,-0.06203016,0.06545302,0.1714077,-0.24104792,0.19125667,0.058869734,-0.09107878,0.06310299,0.1948475,0.23431915,198.18823
2024-10-02,-0.20861673,-0.069030456,-0.018410739,0.061716907,0.17712802,-0.27686876,0.23692778,0.047054525,-0.09112897,0.041693144,0.1981397,0.29961085,234.53252
2024-10-03,-0.21832392,-0.0699521,-0.023197256,0.028086,0.18473604,-0.33417952,0.28790373,0.044055887,-0.08049739,0.017705806,0.19180381,0.3429621,226.22833
2024-10-04,-0.23222885,-0.061408654,-0.0046191663,0.01826192,0.18371737,-0.3541676,0.32769305,0.03850083,-0.09365831,-0.003087327,0.1883465,0.3860825,314.77213
2024-10-07,-0.23449813,-0.056830175,-0.011767797,0.0051785596,0.18929796,-0.39034563,0.34053114,0.036443666,-0.08949336,-0.02925478,0.19271651,0.3891599,1112.49
2024-10-08,-0.24957295,-0.040742107,0.041570082,0.00901309,0.16453826,-0.36828938,0.3771635,0.04424421,-0.13685974,-0.047769412,0.1886912,0.43405095,742.76764
2024-10-09,-0.25155216,-0.051975816,0.022688858,0.030389436,0.16540551,-0.36042508,0.36394885,0.06057977,-0.1399718,-0.048237428,0.2075431,0.43148962,367.87805
2024-10-10,-0.2538947,-0.046971302,0.02935458,0.04891772,0.15313733,-0.34785396,0.34238526,0.07236154,-0.14940265,-0.060144886,0.21077836,0.4421539,172.63936
2024-10-11,-0.25224578,-0.03690588,0.029215872,0.055521697,0.16038299,-0.33756763,0.34111586,0.078187466,-0.13849801,-0.06046267,0.21839255,0.4499611,65.366806
2024-10-14,-0.23304237,-0.03208179,0.02847036,0.055634543,0.15310127,-0.35334298,0.34136167,0.07945006,-0.14245576,-0.069144174,0.21288413,0.45580962,55.377777
2024-10-15,-0.23528475,-0.03288368,0.03502088,0.053285416,0.16227375,-0.34055856,0.33712825,0.068640955,-0.15033033,-0.054340422,0.21884868,0.4163033,93.553474
2024-10-16,-0.22931299,-0.040086146,0.04833275,0.093837045,0.14413634,-0.3122101,0.31176114,0.0864218,-0.16578633,-0.059640855,0.2519854,0.4077976,228.70465
2024-10-17,-0.21254107,-0.03627206,0.024581015,0.08182101,0.15215951,-0.3122702,0.29334134,0.07887195,-0.15303934,-0.05149114,0.23906648,0.4010558,127.13954
2024-10-18,-0.20192271,-0.032656785,0.019612126,0.09464408,0.14472267,-0.29417223,0.2775657,0.08894803,-0.14410356,-0.04928814,0.24860272,0.40864423,95.68408
2024-10-21,-0.18494351,-0.03284349,0.009697124,0.093608566,0.14872734,-0.2860239,0.25865766,0.08843928,-0.13030043,-0.031919196,0.24473369,0.3953334,123.182976
2024-10-22,-0.19316307,-0.030447416,0.021863818,0.09680873,0.15434396,-0.25364387,0.24028593,0.079098836,-0.14272973,-0.015094772,0.24945426,0.358486,246.88466
2024-10-23,-0.18579614,-0.032164194,0.02280122,0.09438607,0.15703073,-0.24642602,0.22563635,0.08396907,-0.13816601,-0.0056390166,0.2500123,0.36165875,100.031425
2024-10-24,-0.17660595,-0.036587335,0.02980674,0.09392075,0.16366026,-0.25100502,0.23817174,0.07805169,-0.1334595,0.009483494,0.24588689,0.37469986,345.4369
2024-10-25,-0.15932637,-0.03882651,0.029526293,0.09649103,0.16966815,-0.24285686,0.22774428,0.081276,-0.117775105,0.027630195,0.24951026,0.37078622,240.62877
2024-10-28,-0.15162535,-0.040895596,0.03335677,0.104538925,0.1729115,-0.22914585,0.21867481,0.081814125,-0.10619108,0.045305803,0.24971524,0.37323156,118.22735
2024-10-29,-0.15490669,-0.041306086,0.041151665,0.09535281,0.1754967,-0.2125257,0.20132436,0.07759578,-0.119729586,0.057779938,0.24599242,0.34025657,107.77016
2024-10-30,-0.14499831,-0.04152998,0.03240867,0.11371185,0.1682892,-0.17975494,0.16950189,0.094990954,-0.106994905,0.0703859,0.26001176,0.33461553,144.99918
2024-10-31,-0.13498877,-0.045539375,0.015371203,0.12582123,0.18732452,-0.1485646,0.12342024,0.071907654,-0.0965102,0.08443127,0.26542327,0.2722841,210.39012
2024-11-01,-0.13338889,-0.046968527,0.03469781,0.11842019,0.20909789,-0.1772359,0.17136288,0.05447045,-0.07273132,0.09930636,0.25499701,0.29658508,285.06464
2024-11-04,-0.13398,-0.060733855,0.02083534,0.12568223,0.2558303,-0.15791789,0.11956048,0.038103282,-0.042512167,0.15149501,0.26402116,0.20113792,299.1849
2024-11-05,-0.16133645,-0.05643931,0.027476735,0.095840886,0.25813007,-0.17303759,0.123650864,0.03356051,-0.047811788,0.11349208,0.25725794,0.18538412,156.87065
2024-11-06,-0.16756143,-0.061552607,0.025539145,0.09564982,0.27734005,-0.18393025,0.11748862,0.027897857,-0.03132429,0.12313807,0.25622982,0.1621882,111.65822
2024-11-07,-0.15041056,-0.06135267,0.013184719,0.061659783,0.28361452,-0.19019681,0.10635848,-0.0034562685,-0.018297758,0.13466935,0.23584726,0.116765946,308.9138
2024-11-08,-0.14976631,-0.061228417,0.03150481,0.057105422,0.30116016,-0.18694428,0.106876746,-0.0011468232,-0.008967586,0.15279979,0.21577343,0.1263441,303.33737
2024-11-11,-0.15315923,-0.06595192,0.052448586,0.04610651,0.3529101,-0.23017547,0.145653,-0.013098035,0.01399754,0.19629818,0.18309087,0.12896399,1516.2015
2024-11-12,-0.145064,-0.04417333,0.055977404,0.0033235364,0.36235353,-0.21891648,0.14066713,-0.018753473,0.009344965,0.20364137,0.14388195,0.1099142,265.1612
2024-11-13,-0.14676362,-0.050964516,0.057568878,-0.0005290769,0.39552402,-0.22305709,0.13417362,-0.030267905,0.024871223,0.2328221,0.14633611,0.07119229,429.77856
2024-11-14,-0.1539461,-0.06079915,0.06438905,-0.0037403852,0.43007433,-0.24591649,0.1463253,-0.039487895,0.048313387,0.25161377,0.14610165,0.0483298,836.10315
2024-11-15,-0.16411123,-0.074412666,0.07712568,0.006316852,0.44740242,-0.2565804,0.15950441,-0.054977994,0.050369084,0.26503247,0.15465209,0.038484134,410.069
2024-11-18,-0.16450144,-0.08694915,0.09722853,0.014012709,0.4558314,-0.27527276,0.19903818,-0.070877686,0.047550395,0.27574807,0.15003496,0.05725891,289.26572
2024-11-19,-0.16881135,-0.07829503,0.08667658,-0.016433634,0.44049436,-0.26668558,0.19050796,-0.070519835,0.031137705,0.24463081,0.1459489,0.051761888,310.10193
2024-11-20,-0.17193262,-0.08045744,0.0922571,-0.00048583746,0.43810135,-0.24949366,0.16900212,-0.07169564,0.023641117,0.25365582,0.15465042,0.035729468,192.73886
2024-11-21,-0.1724401,-0.09266394,0.12129316,-0.010032207,0.48542267,-0.29925594,0.22337395,-0.08079055,0.05486889,0.29328752,0.12452806,0.05588469,2311.0781
2024-11-22,-0.18821642,-0.10529381,0.1379562,-0.010408003,0.49944174,-0.33923995,0.26585832,-0.08659971,0.06329218,0.3015182,0.1291193,0.07961093,147.02194
2024-11-25,-0.19187553,-0.114271075,0.13820879,-0.007115606,0.50686806,-0.35188797,0.27320072,-0.09356871,0.064935006,0.3108648,0.13705848,0.07592273,74.787796
2024-11-26,-0.17224893,-0.089547224,0.12504435,-0.043604158,0.48092794,-0.31096405,0.22655025,-0.091253996,0.033191904,0.29139063,0.09961067,0.043463536,715.7074
2024-11-27,-0.155423,-0.09538554,0.12106454,-0.04187735,0.4996733,-0.29251677,0.19435531,-0.09841865,0.032333188,0.33223134,0.0853167,0.00084444135,184.33331
2024-11-29,-0.15412097,-0.11105399,0.1318438,-0.035256267,0.53697455,-0.32156184,0.22401989,-0.11250283,0.047780015,0.37110978,0.07635312,-0.0043020546,768.38464
2024-12-02,-0.15523164,-0.12844406,0.13406944,-0.019806907,0.5631051,-0.33976987,0.23622476,-0.11808032,0.067681484,0.4072382,0.078360245,-0.007633969,214.28809
2024-12-03,-0.1509925,-0.11634699,0.12545443,-0.017447837,0.54402715,-0.2913424,0.19136733,-0.10934113,0.051767923,0.40534288,0.088027,-0.036162987,484.54208
2024-12-04,-0.15639177,-0.13363798,0.13463604,0.001820989,0.57271594,-0.29703155,0.1995154,-0.11656317,0.066020995,0.44179946,0.094861336,-0.045694202,224.92871
2024-12-05,-0.13566709,-0.13881163,0.12379989,0.01925918,0.6004628,-0.2527539,0.1472387,-0.117301226,0.072409414,0.5087047,0.083470315,-0.1094417,1205.7173
2024-12-06,-0.1570224,-0.17142284,0.10172476,0.07870396,0.62380576,-0.24674296,0.12741889,-0.12481138,0.085487075,0.53309494,0.1362567,-0.14872184,513.8378
2024-12-09,-0.17091283,-0.17767166,0.041687876,0.12535396,0.60811013,-0.20894483,0.068184644,-0.10176937,0.106059186,0.51505727,0.186023,-0.18823114,304.1053
2024-12-10,-0.16341235,-0.1611235,0.025275484,0.11262785,0.5894215,-0.15541895,0.02692433,-0.09999642,0.083622545,0.50194514,0.16557896,-0.22167405,206.62703
2024-12-11,-0.1678649,-0.1820402,0.02208741,0.10774085,0.66878724,-0.18826917,0.03330244,-0.12302336,0.12469224,0.5510557,0.157785,-0.28732166,207.19604
2024-12-12,-0.18311295,-0.17623755,-0.012494639,0.15005106,0.6177231,-0.16252801,0.0064149937,-0.098146155,0.12890464,0.51164526,0.19709992,-0.26892295,372.22742
2024-12-13,-0.20064381,-0.17811339,-0.004830219,0.18898216,0.5761581,-0.15579438,0.026417684,-0.0877499,0.11033016,0.47108245,0.2199842,-0.19589558,492.3044
2024-12-16,-0.20652916,-0.14806917,-0.032300062,0.2242953,0.4945984,-0.106626414,0.017248463,-0.03121749,0.1112395,0.39183825,0.2567464,-0.09326112,838.7934
2024-12-17,-0.20264839,-0.11458016,-0.054826684,0.23285842,0.41661435,-0.016552376,-0.020801567,0.010660265,0.08550357,0.32068458,0.27679777,-0.057534248,640.4598
2024-12-18,-0.20658237,-0.11795344,-0.051104493,0.24138908,0.4323613,-0.019909063,-0.012272949,0.007034164,0.09073741,0.32780337,0.2822643,-0.061274648,131.22887
2024-12-19,-0.20799197,-0.10620783,-0.022937763,0.23232952,0.41896915,-0.01459185,0.002478511,0.0030836202,0.07686725,0.32149804,0.25785285,-0.036385953,342.14755
2024-12-20,-0.20419359,-0.123045154,-0.047356196,0.2379364,0.48593158,-0.05752048,0.007586845,-0.0064174943,0.11279044,0.36770338,0.2756148,-0.08350389,1148.4362
2024-12-23,-0.2003468,-0.12520102,-0.05517419,0.23486158,0.49759406,-0.07497907,0.0056120185,-0.01309691,0.12117318,0.3823419,0.26918465,-0.094662994,211.40994
2024-12-24,-0.1918246,-0.103142984,-0.070928834,0.2208652,0.4630279,-0.03878662,-0.018116388,0.0034711137,0.11397136,0.35607183,0.2722507,-0.089190334,680.6543
2024-12-26,-0.18991935,-0.1048867,-0.07991363,0.22168879,0.46152157,-0.042779792,-0.024958432,-0.0013045929,0.11186067,0.35896415,0.27060464,-0.09425971,210.64864
2024-12-27,-0.19366565,-0.10869805,-0.07620998,0.23235767,0.46082,-0.047263436,-0.01991206,-0.008606594,0.107456185,0.36616504,0.26747128,-0.08547169,622.0448
2024-12-30,-0.1927506,-0.10933102,-0.07369838,0.23505834,0.4649334,-0.060081813,-0.0059641236,-0.011708923,0.10982034,0.36910146,0.26735705,-0.07648736,153.17636
2024-12-31,-0.1828643,-0.089428574,-0.07698531,0.21330859,0.44355252,-0.03028113,-0.023074426,0.0029200278,0.108679526,0.34825203,0.268147,-0.080197975,514.9045
2025-01-02,-0.18185803,-0.09463802,-0.08522961,0.20905027,0.45722193,-0.056695677,-0.010041899,-0.004169464,0.11705465,0.3520422,0.27202618,-0.082449615,421.71146
2025-01-03,-0.13105124,-0.064856544,-0.14051914,0.11198917,0.34850824,-0.05850605,-0.014651996,0.0059182867,0.05061554,0.22728841,0.17468655,-0.03793463,667.4995
2025-01-06,-0.13568789,-0.069975235,-0.13550153,0.12657863,0.35735005,-0.06203225,-0.013211888,0.0033270977,0.052512497,0.24462473,0.19139639,-0.033754706,122.163895
2025-01-07,-0.13208105,-0.05258646,-0.12254456,0.12379804,0.33234414,-0.028084725,-0.032772675,0.027694874,0.05198233,0.22738455,0.19381475,-0.021597445,1026.7852
2025-01-08,-0.1303751,-0.05499667,-0.116257265,0.12541094,0.33253306,-0.040475372,-0.019697921,0.024580201,0.05245059,0.22623667,0.19382536,-0.005549766,183.34042
2025-01-10,-0.12505008,-0.06155648,-0.12113339,0.12236136,0.35405153,-0.0493673,-0.01972672,0.017439067,0.059299305,0.25091466,0.1902067,-0.019686759,360.84012
2025-01-13,-0.12419703,-0.059036866,-0.0951662,0.13482922,0.35870448,-0.069175534,0.009002701,0.027215438,0.066297494,0.26101246,0.18491364,0.013896555,468.73422
2025-01-14,-0.11221005,-0.047047704,-0.10410307,0.101422295,0.34314096,-0.05019888,0.0029481212,0.031103663,0.0716444,0.23797031,0.19066903,0.019465134,237.51588
2025-01-15,-0.11449012,-0.057182558,-0.103764735,0.11060407,0.33594453,-0.065381184,0.009824405,0.020679198,0.057761468,0.22959922,0.19792423,0.026119009,392.93527
2025-01-16,-0.119094744,-0.074539356,-0.11449798,0.114386916,0.353127,-0.08525844,0.0053030616,-0.0020726584,0.05543486,0.24668175,0.2066445,-0.0009558648,359.234
2025-01-17,-0.12228435,-0.07460931,-0.11186878,0.1393894,0.32598594,-0.08725231,0.005872404,0.008314751,0.040754274,0.22459497,0.21687093,0.024319917,3233.5198
2025-01-21,-0.13123307,-0.08479043,-0.10851603,0.14486164,0.32693207,-0.0947671,0.0032982398,-0.004405629,0.031604983,0.22400577,0.22675729,0.013130747,306.88947
2025-01-22,-0.12833504,-0.070932925,-0.10724354,0.12541182,0.30819002,-0.08010048,-0.010261893,0.004662372,0.024070725,0.20650575,0.22007102,0.01621598,729.416
2025-01-23,-0.12605122,-0.077219084,-0.08934808,0.15106311,0.30573195,-0.052610993,-0.024949323,0.006476119,0.012667939,0.23073536,0.21938202,0.015022747,331.7028
2025-01-24,-0.13199212,-0.08930247,-0.088285424,0.16491336,0.3141223,-0.05513098,-0.01786613,-0.009055022,0.01149201,0.2500716,0.22508413,0.01138626,350.934
2025-01-27,-0.12975046,-0.09244927,-0.08694291,0.17797898,0.31613088,-0.04998746,-0.008708817,-0.007507257,0.012049135,0.25905406,0.22707108,0.02466321,218.91022
2025-01-28,-0.10539232,-0.09537804,-0.10586992,0.08313881,0.35076022,-0.092241734,-0.025010254,-0.026641663,0.03404998,0.25108656,0.15988547,-0.05861433,1187.4587
2025-01-29,-0.09675996,-0.11487824,-0.12267099,0.08499134,0.40018415,-0.10479939,-0.019956194,-0.05233932,0.046610266,0.31370878,0.17109963,-0.10732457,343.04773
2025-01-30,-0.09928216,-0.12616454,-0.11885571,0.09182611,0.402972,-0.110463716,-0.023762789,-0.058970403,0.046302803,0.31669715,0.1663776,-0.1135627,71.613304
2025-01-31,-0.099120975,-0.123470895,-0.1545035,0.048836596,0.4700759,-0.1829685,0.004871891,-0.087761074,0.08517548,0.33512372,0.15320116,-0.17388907,481.5323
2025-02-03,-0.08449157,-0.11240609,-0.15232128,0.035004955,0.44512266,-0.16752815,-0.016305342,-0.076349646,0.0739278,0.3172512,0.1347104,-0.17170268,546.7526
2025-02-04,-0.062597334,-0.09667951,-0.17576832,-0.025898766,0.45154437,-0.1818966,-0.01922828,-0.08594155,0.08873189,0.30782056,0.09906315,-0.2184071,346.45227
2025-02-05,-0.063597605,-0.09730241,-0.17819434,-0.03829822,0.4692468,-0.2006549,-0.017505527,-0.083636194,0.105559416,0.3169022,0.10414325,-0.22868368,109.12223
2025-02-06,-0.06898357,-0.09772258,-0.1752114,-0.0374026,0.4749475,-0.21162358,-0.018965565,-0.08504176,0.107045196,0.3249985,0.10161164,-0.23434004,38.482178
2025-02-07,-0.06989342,-0.090534635,-0.16401902,-0.026824594,0.45708257,-0.20590332,-0.032258596,-0.074066535,0.09654357,0.32064417,0.09989185,-0.22270098,150.61386
2025-02-10,-0.06906924,-0.084555484,-0.14750989,-0.026650816,0.4516077,-0.21509159,-0.018901706,-0.06156979,0.10688891,0.32108492,0.09676579,-0.19938049,106.889175
2025-02-11,-0.06371645,-0.06903867,-0.17336653,-0.07258956,0.46272326,-0.22276291,-0.014919873,-0.063868076,0.119180165,0.31420207,0.084475376,-0.22739771,287.22516
2025-02-12,-0.06649026,-0.064897016,-0.16729291,-0.07403078,0.4666401,-0.23042393,-0.014230375,-0.06031392,0.12581694,0.31507528,0.08096766,-0.22596824,40.940506
2025-02-13,-0.05499348,-0.05856269,-0.16861856,-0.0814944,0.47620708,-0.22997692,-0.017109763,-0.054130364,0.13691652,0.32960543,0.07015502,-0.23995808,103.63524
2025-02-14,-0.05808229,-0.055998884,-0.16435212,-0.079309516,0.4828274,-0.23487693,-0.019429877,-0.05302806,0.14430386,0.34003603,0.07221021,-0.24399737,47.49617
2025-02-18,-0.062022336,-0.05309774,-0.15916795,-0.07296476,0.48742104,-0.23701546,-0.01751225,-0.054772045,0.14709511,0.34530014,0.07896003,-0.24359813,51.132225
2025-02-19,-0.06054073,-0.039166614,-0.17361936,-0.096281305,0.47714642,-0.24290767,-0.013422032,-0.050536703,0.14519408,0.32288545,0.07642597,-0.24375242,116.400185
2025-02-20,-0.055931684,-0.03615966,-0.17221461,-0.09841211,0.4823687,-0.24367672,-0.0169614,-0.047511082,0.15478247,0.33571392,0.07609532,-0.24666455,64.284836
2025-02-21,-0.05826223,-0.033309203,-0.17199726,-0.092815146,0.48551315,-0.24987113,-0.008638552,-0.040519785,0.17300943,0.34031337,0.08315487,-0.24097192,109.57258
2025-02-24,-0.06054926,-0.03253927,-0.16197883,-0.07483347,0.46012998,-0.24418569,0.0038349628,-0.02688549,0.16369438,0.317087,0.0882654,-0.20707712,249.40161
2025-02-25,-0.05219477,-0.020263977,-0.17337868,-0.11572081,0.45699552,-0.24767867,0.009532229,-0.012284141,0.17202699,0.30092895,0.07809287,-0.21126166,341.9121
2025-02-26,-0.04646122,-0.018702403,-0.17737654,-0.11906771,0.44998878,-0.24869737,0.009937917,-0.008554343,0.17083839,0.29928172,0.06770501,-0.20535675,77.78766
2025-02-27,-0.043375228,-0.009505962,-0.1790555,-0.10181032,0.42953598,-0.25014347,0.018476315,0.0111380555,0.17697737,0.29311043,0.085517734,-0.1750963,439.2028
2025-02-28,-0.04741577,-0.01357095,-0.17246631,-0.097435355,0.41819757,-0.25852245,0.03856809,0.005076539,0.1672301,0.27428925,0.079061314,-0.14869463,263.76642
2025-03-03,-0.04847865,-0.017482221,-0.18352333,-0.09393284,0.41691145,-0.28143448,0.04166959,0.00072997436,0.16505435,0.2773892,0.08061525,-0.14655352,149.73749
2025-03-04,-0.038678847,-0.016802367,-0.16070184,-0.10539721,0.3977145,-0.26105368,0.059860867,0.0036258586,0.14574784,0.27719092,0.07009064,-0.13872853,531.1195
2025-03-05,-0.031381503,-0.012500205,-0.16321573,-0.11801976,0.40108153,-0.25653827,0.05490571,0.017559394,0.16183585,0.29551595,0.061674625,-0.14274049,485.6964
2025-03-06,-0.01781939,-0.010908577,-0.1699735,-0.109568655,0.39295188,-0.2404289,0.03146035,0.028964788,0.16038048,0.31238186,0.06188529,-0.15636325,199.70352
2025-03-07,-0.026107773,-0.008705142,-0.1482669,-0.105333105,0.3736136,-0.23932388,0.049043354,0.03596802,0.15756994,0.3023913,0.058263987,-0.10978721,209.38669
2025-03-10,-0.03124164,-0.011326668,-0.16291149,-0.0950733,0.37799558,-0.2726524,0.077294484,0.02984799,0.17211947,0.29724997,0.07014848,-0.09261973,206.08354
2025-03-11,-0.049670883,-0.012927686,-0.13538235,-0.097690865,0.3461536,-0.2732022,0.12588888,0.021900073,0.14926371,0.25508767,0.0767678,-0.0395492,285.0971
2025-03-12,-0.040662337,-0.013552633,-0.14266305,-0.09976055,0.35742658,-0.27736214,0.13898501,0.024464503,0.15963435,0.27506006,0.07812,-0.04804729,95.38531
2025-03-13,-0.044418983,-0.008851857,-0.1469149,-0.09288031,0.36330086,-0.27488166,0.13552687,0.032219954,0.16613361,0.2800681,0.08974307,-0.048932135,113.14
2025-03-14,-0.06919493,-0.0038419077,-0.10953332,-0.05917964,0.32571176,-0.2807498,0.17406408,0.04156091,0.12416757,0.23776515,0.10400343,0.051411256,505.3332
2025-03-17,-0.08130513,-0.0068996036,-0.12416658,-0.04763495,0.33161882,-0.30624285,0.18075404,0.038382217,0.1303842,0.23164219,0.12002307,0.060911752,193.80692
2025-03-18,-0.09178486,-0.0123054655,-0.110957295,-0.06827158,0.31801057,-0.32459745,0.2389537,0.020266194,0.12662059,0.20722108,0.12732837,0.08057993,286.50018
2025-03-19,-0.099493,-0.0034158854,-0.08632392,-0.051111005,0.29635358,-0.3251374,0.26415554,0.020055499,0.10487019,0.19375594,0.13088751,0.14676523,255.14539
2025-03-20,-0.115719035,-0.006665037,-0.09636314,-0.038225986,0.291499,-0.3468875,0.28236118,0.02259428,0.09944489,0.16414434,0.14138633,0.18024069,227.43196
2025-03-21,-0.122236,0.0038394672,-0.08601588,-0.027729355,0.28864044,-0.3527811,0.30197224,0.022379255,0.08937474,0.16029224,0.13865638,0.2172535,246.95091
2025-03-24,-0.12347929,0.004854573,-0.07989688,-0.018896695,0.28401753,-0.35359398,0.30427793,0.021609034,0.07562699,0.15772374,0.13561097,0.23454791,99.60138
2025-03-25,-0.12051925,-0.0023470623,-0.078838915,-0.053511165,0.28464544,-0.36909112,0.33098835,0.001499597,0.07013475,0.14565524,0.13654238,0.20301506,470.7335
2025-03-26,-0.123316295,0.0041479054,-0.07389308,-0.052860454,0.27928722,-0.3765941,0.31704056,0.0034547634,0.061066635,0.1309117,0.13187525,0.21009968,455.00592
2025-03-27,-0.1325897,-0.0011825776,-0.07136527,-0.06464195,0.29079637,-0.40288588,0.32707193,-0.018526305,0.052289486,0.110938035,0.11006608,0.21167912,859.1794
2025-03-28,-0.14234328,-0.018351201,-0.079292,-0.06538659,0.32224733,-0.42871633,0.32591966,-0.038832944,0.046630226,0.119725004,0.092422076,0.18545273,1645.7648
2025-03-31,-0.15109691,-0.010331181,-0.038468406,-0.06855146,0.31829768,-0.42920178,0.36282638,-0.027954344,0.041098885,0.13063288,0.07834992,0.24242881,213.77618
2025-04-01,-0.15509154,-0.014396387,-0.033120915,-0.10670893,0.32677495,-0.46376836,0.395582,-0.044406082,0.038271494,0.11531708,0.06124901,0.234945,233.67035
2025-04-02,-0.15873969,-0.018931028,-0.032178707,-0.10787156,0.33846268,-0.4750835,0.3878811,-0.04908831,0.029009856,0.11931404,0.054696023,0.23107918,96.30257
2025-04-03,-0.1662012,-0.021329377,-0.019874811,-0.10407205,0.33971128,-0.4827815,0.39495796,-0.052897114,0.019947037,0.12146017,0.048911605,0.24301124,119.47899
2025-04-04,-0.14225021,-0.01572153,0.03602784,-0.08191474,0.35440415,-0.38843665,0.36508983,-0.04350641,0.015769355,0.21413009,0.028034732,0.24578814,533.5149
2025-04-07,-0.120169826,-0.008956374,0.074636236,-0.0544872,0.34666964,-0.29048583,0.3346423,-0.008048538,0.023211591,0.28467625,0.041118745,0.26415098,450.7197
2025-04-08,-0.103910044,-0.019080434,0.11042243,-0.08811695,0.3868824,-0.31749877,0.38927594,-0.015090559,0.036877632,0.34242496,0.038901106,0.26733705,446.71655
2025-04-09,-0.08656593,-0.003369582,0.12134868,-0.07344088,0.41814923,-0.27498266,0.35256007,-0.008287575,0.06682148,0.41471678,0.018130522,0.25073993,363.47858
2025-04-10,-0.09808329,-0.02906258,0.074719846,-0.05118531,0.47098976,-0.31942943,0.31523553,-0.045921247,0.0750463,0.4402212,0.017801806,0.17554003,1388.2798
2025-04-11,-0.0764744,-0.015679829,0.10595034,-0.027182199,0.4354219,-0.2415567,0.26674744,-0.016058218,0.056719087,0.4858076,0.0070542023,0.18731049,370.96896
2025-04-14,-0.08933079,-0.03696964,0.10028425,-4.61936e-06,0.47369826,-0.2856328,0.2900063,-0.038290676,0.062528126,0.51191694,0.011080582,0.18182608,507.74835
2025-04-15,-0.07662197,-0.035599835,0.110862,-0.033686116,0.46778345,-0.28956366,0.30136618,-0.030737575,0.05081419,0.5025979,-0.001901567,0.18403372,729331.4
2025-04-16,-0.08314348,-0.040257487,0.11185622,-0.013777897,0.46475697,-0.28895682,0.29661438,-0.032339115,0.044843055,0.519536,0.0037108883,0.1884501,401.90405
2025-04-17,-0.10149829,-0.049563643,0.12019718,-0.004964024,0.46772337,-0.30371436,0.3124031,-0.037192743,0.043941505,0.5128382,0.0009706393,0.20267709,227.39017
2025-04-21,-0.14514618,-0.068440065,0.12931307,0.02065197,0.43732634,-0.38231814,0.3766909,0.001339253,0.0701792,0.48032874,0.07536704,0.26439196,8522.445
2025-04-22,-0.1391977,-0.04812339,0.12999505,0.013635382,0.383914,-0.33500412,0.3512859,0.031676523,0.05768787,0.44468504,0.10957073,0.2727442,2438.6196
2025-04-23,-0.15686676,-0.07087299,0.08177763,0.0041114613,0.42266628,-0.3991308,0.33575243,0.017554302,0.09894272,0.4290902,0.12695828,0.20303716,361.5937
2025-04-24,-0.1517664,-0.06739207,0.052835673,0.028226366,0.4098183,-0.3732088,0.27670407,0.025286807,0.107707955,0.41872448,0.15717244,0.16165525,756.7076
2025-04-25,-0.15557352,-0.060368948,0.017837524,0.051897552,0.38594425,-0.3490573,0.22657296,0.040293485,0.12267766,0.38787377,0.19190949,0.13844837,310.51456
2025-04-28,-0.15321204,-0.05118717,0.00031278282,0.07354524,0.38071454,-0.31460842,0.19024824,0.06515674,0.14713728,0.38135898,0.22297022,0.1235729,294.19528
2025-04-29,-0.14299369,-0.028374828,-0.025835186,0.013455473,0.3501125,-0.2574846,0.13961248,0.08923878,0.14315128,0.3344813,0.22764543,0.09280597,8624.492
2025-04-30,-0.14514682,-0.037038937,-0.048197575,0.029959071,0.36673656,-0.24772042,0.11272023,0.0893329,0.16001555,0.34117174,0.24664953,0.05484949,332.18732
2025-05-01,-0.12553976,-0.03332672,-0.0667005,0.06144825,0.37510008,-0.206175,0.07632937,0.08163561,0.15957978,0.3696857,0.24884117,0.016373992,306.64618
2025-05-02,-0.14194351,-0.068991534,-0.079140574,0.12127148,0.39499143,-0.1447367,0.016266696,0.037226755,0.13863468,0.40770173,0.28922695,-0.056313112,887.83417
2025-05-05,-0.14709327,-0.08476894,-0.09206257,0.14947495,0.4259252,-0.1505219,0.0089439815,0.0121935755,0.14515123,0.43976843,0.2902268,-0.08928853,261.64
2025-05-06,-0.13385057,-0.066494465,-0.08950521,0.12025592,0.42795265,-0.09055002,-0.027863342,0.011219297,0.13988814,0.45841885,0.28247738,-0.12998465,568.8421
2025-05-07,-0.15070276,-0.09572966,-0.09363819,0.1441408,0.46843794,-0.10529727,-0.019676331,-0.024173122,0.1491904,0.4882629,0.29635617,-0.16072068,493.34454
2025-05-08,-0.15596493,-0.11254552,-0.10809657,0.15692142,0.50910026,-0.12481781,-0.01991487,-0.049320813,0.16125491,0.517449,0.29546845,-0.19692302,214.7168
2025-05-09,-0.17361364,-0.13113944,-0.10656399,0.17795067,0.525146,-0.14542112,-0.011971536,-0.07656461,0.15173998,0.51835704,0.2994738,-0.20737934,170.18033
2025-05-12,-0.18801455,-0.14789733,-0.10060339,0.19020548,0.5465807,-0.17126113,0.0040304745,-0.100685254,0.14568621,0.5221988,0.29908523,-0.21458092,228.90825
2025-05-13,-0.18263051,-0.13196056,-0.12636057,0.15591192,0.5140909,-0.1520126,-0.035683934,-0.090212494,0.1424813,0.47206217,0.29583508,-0.2307207,1090.6189
2025-05-14,-0.20613053,-0.13721932,-0.11587529,0.1907704,0.469975,-0.13332313,-0.029765494,-0.08221215,0.11763432,0.4233647,0.3230088,-0.1848081,150.67815
2025-05-15,-0.20821747,-0.14203864,-0.10666442,0.198741,0.4788369,-0.13094215,-0.025030345,-0.091651425,0.109754525,0.42773527,0.32236257,-0.18283623,56.710846
2025-05-16,-0.21703313,-0.14861779,-0.10795733,0.20126009,0.49711764,-0.15663067,-0.0074284794,-0.10095675,0.11296921,0.42502904,0.32406035,-0.18426314,120.12524
2025-05-19,-0.21476978,-0.14876455,-0.103845514,0.19716233,0.52265686,-0.16569388,-0.0010506129,-0.11118123,0.11959063,0.4508022,0.31386518,-0.19799212,136.4167
2025-05-20,-0.19704005,-0.128826,-0.10805525,0.16288798,0.50449353,-0.11796375,-0.036721535,-0.10083127,0.11924151,0.44005287,0.29805997,-0.22094315,3499.239
2025-05-21,-0.1923043,-0.13628562,-0.10357793,0.16999093,0.5282671,-0.117997594,-0.028416086,-0.10981086,0.12160703,0.46820456,0.29618648,-0.22778058,65.06641
2025-05-22,-0.19635603,-0.13831045,-0.0822963,0.18628046,0.53280145,-0.10232454,-0.016895615,-0.11084238,0.11742539,0.48104465,0.2960727,-0.21601298,100.72973
2025-05-23,-0.19418475,-0.14630444,-0.086339906,0.19520812,0.5590572,-0.113386825,-0.0093441075,-0.1180225,0.12277915,0.5031232,0.29674852,-0.22594872,97.48017
2025-05-27,-0.19859986,-0.14931354,-0.07018602,0.20842154,0.56013846,-0.11142412,0.006564916,-0.11995779,0.119992055,0.51053125,0.29501036,-0.2046063,217.4042
2025-05-28,-0.18943837,-0.13747633,-0.08964838,0.19616489,0.5430438,-0.098418616,-0.016187113,-0.10554212,0.12047789,0.4882326,0.30050412,-0.21554527,431.4436
2025-05-29,-0.19146077,-0.13730517,-0.079709336,0.2100559,0.54263693,-0.08335149,-0.0156073775,-0.106517464,0.11711656,0.49538225,0.29753202,-0.2127136,45.806946
2025-05-30,-0.19288838,-0.13955174,-0.07997048,0.21858545,0.54682016,-0.08950108,-0.0072107036,-0.10899088,0.11667561,0.5016166,0.29881126,-0.20344523,77.462494
2025-06-02,-0.18999118,-0.14385645,-0.08349261,0.21301661,0.56553537,-0.10092266,-0.006151422,-0.11523427,0.1226744,0.51627094,0.2869639,-0.21952876,68.07459
2025-06-03,-0.19004467,-0.12253987,-0.07339489,0.20819183,0.5328156,-0.06786275,-0.02031478,-0.08920351,0.12305651,0.49341506,0.30354202,-0.20109689,339.49493
2025-06-04,-0.19520445,-0.12534109,-0.0730188,0.21908154,0.5349668,-0.07293579,-0.011341558,-0.089497685,0.123145945,0.4979235,0.30997303,-0.187504,72.98836
2025-06-05,-0.19366658,-0.12101088,-0.07132088,0.22733156,0.5366909,-0.061761443,-0.012294198,-0.083711684,0.12494507,0.50514823,0.30889928,-0.18471268,45.588238
2025-06-06,-0.19026229,-0.11725054,-0.07338163,0.24391322,0.537619,-0.055885527,-0.006139311,-0.07909137,0.12941384,0.5135258,0.31523624,-0.1736494,93.594124
2025-06-09,-0.19002692,-0.12715681,-0.08325329,0.23605081,0.5624413,-0.08919372,0.0035091387,-0.092608124,0.1370419,0.52241087,0.31131363,-0.18933314,281.61557
2025-06-10,-0.18380316,-0.10237053,-0.08076048,0.22204325,0.5109678,-0.045277994,-0.021781482,-0.06434949,0.12860692,0.47316867,0.3178814,-0.1785675,864.6827
2025-06-11,-0.18849298,-0.10534519,-0.087165,0.2261018,0.52162,-0.06799317,-0.006098089,-0.06492478,0.13994646,0.47594732,0.32777783,-0.16520724,160.36533
2025-06-12,-0.19578317,-0.109524876,-0.08820951,0.23848693,0.5088152,-0.07709165,0.013739877,-0.061660033,0.13732052,0.4581952,0.34343424,-0.12620823,394.67935
2025-06-13,-0.19635719,-0.108693264,-0.08514114,0.24570529,0.5019971,-0.0753353,0.021733686,-0.055851255,0.13419133,0.45279014,0.35115406,-0.10358144,102.41063
2025-06-16,-0.2088131,-0.10806496,-0.047700383,0.2661674,0.47193325,-0.076104775,0.07120079,-0.035181854,0.12608689,0.42889935,0.3722888,-0.0031344295,445.15668
2025-06-17,-0.20046768,-0.08809334,-0.06573944,0.23015703,0.4283889,-0.043980464,0.0439207,-0.0072917715,0.115436025,0.3610562,0.37720388,-0.0132226795,590.2884
2025-06-18,-0.21748117,-0.09603452,-0.042264134,0.2501076,0.40370026,-0.045192998,0.06946508,-0.00609152,0.096998595,0.33326924,0.39158264,0.04463458,610.06067
2025-06-20,-0.20891133,-0.08425354,-0.015572876,0.2565093,0.37520602,-0.03905976,0.11362611,0.032989323,0.09900928,0.30949563,0.4062776,0.13467064,1022.3621
2025-06-23,-0.21504153,-0.09410516,0.016170643,0.26233226,0.36655608,-0.065646775,0.16059293,0.03710436,0.10013714,0.29473978,0.41512302,0.18968794,393.85437
2025-06-24,-0.2009987,-0.073464654,0.008562379,0.22952399,0.32231835,0.0033140182,0.108211696,0.059801485,0.06452901,0.263822,0.3981452,0.17830622,355.06445
2025-06-25,-0.18785061,-0.069917955,0.00010165572,0.24721871,0.32402766,0.013810422,0.08971203,0.05961939,0.060660437,0.26853043,0.38957837,0.1648058,470.05225
2025-06-26,-0.18064883,-0.060424626,0.015837371,0.26150456,0.31741852,0.023308448,0.10397998,0.07609217,0.07639486,0.28402466,0.3966916,0.20011786,15671.918
2025-06-27,-0.17797244,-0.05684316,0.024169348,0.26125175,0.30184048,0.01643616,0.112938665,0.086245105,0.07806743,0.2712865,0.39553693,0.2320962,139.41063
