Date,ADBE,AMZN,AVGO,CAT,COST,JPM,LLY,MA,MSFT,NVDA,UNH,XOM,total
2019-01-02,0.24492049,0.03927395,-0.030262813,0.3715924,0.023945116,0.12434627,-0.13999994,0.17572117,-0.020342574,0.22077869,0.2681989,-0.12583163,0.0
2019-01-03,0.21834677,0.06358686,-0.010343492,0.35082024,0.022499975,0.115746036,-0.13835952,0.19469771,-0.06096729,0.18802163,0.272637,-0.15839529,411.1631
2019-01-04,0.22731006,0.059740026,0.001401078,0.34868166,0.018869422,0.11403696,-0.13350022,0.19541341,-0.044680387,0.19139206,0.2624575,-0.14191386,188.44766
2019-01-07,0.21952729,0.05229606,-0.0019130446,0.34174597,0.022280097,0.109816685,-0.1471404,0.19591871,-0.07535104,0.18789205,0.26105225,-0.14789146,361.88712
2019-01-08,0.21618494,0.06007785,0.012780201,0.34457096,0.024793833,0.11103897,-0.1370831,0.20149449,-0.08902256,0.19127983,0.26905662,-0.14994767,831.7648
2019-01-09,0.22303608,0.08157602,0.03721753,0.33555466,0.040506475,0.10790974,-0.13138114,0.22147821,-0.09359263,0.19170249,0.28749174,-0.17379038,341.15762
2019-01-10,0.22527568,0.09844941,0.04531045,0.33252782,0.0550498,0.0973351,-0.11813927,0.22849531,-0.10800807,0.19161071,0.29944724,-0.18904644,131.67305
2019-01-11,0.23240769,0.14338668,0.059602518,0.32207227,0.05373364,0.09380275,-0.10386966,0.23370697,-0.11379054,0.20003921,0.33350456,-0.21554418,139.01956
2019-01-14,0.23367962,0.18377775,0.0858316,0.30219093,0.058525037,0.08122918,-0.083698004,0.25641018,-0.12638873,0.18851066,0.3540542,-0.23670892,163.16745
2019-01-15,0.24713033,0.23052023,0.07985772,0.2749619,0.04858908,0.062624946,-0.07118982,0.23590368,-0.107338816,0.18124159,0.37656468,-0.26433256,146.93977
2019-01-16,0.26661378,0.24262819,0.07754207,0.24215692,0.06431571,0.057102066,-0.06206916,0.24159952,-0.12559313,0.17439047,0.37401468,-0.29626656,117.92308
2019-01-17,0.2756036,0.26637265,0.071759224,0.234448,0.06082523,0.0592099,-0.051783364,0.2358931,-0.12320344,0.18320975,0.38219202,-0.30572128,64.1888
2019-01-18,0.2844593,0.28362003,0.06341717,0.20635673,0.061220106,0.052155416,-0.03080381,0.227063,-0.12987356,0.16765101,0.37622148,-0.32138583,110.70817
2019-01-22,0.2611127,0.3332993,0.067516625,0.19113365,0.0677779,0.028502423,0.002209518,0.2237744,-0.13947006,0.17009142,0.39273232,-0.32966688,220.05887
2019-01-23,0.27219456,0.33533093,0.09786749,0.19562215,0.07393594,0.034410316,-0.013248954,0.2515822,-0.14988428,0.20119278,0.41272277,-0.3393205,827.79645
2019-01-24,0.28727266,0.3600193,0.078972384,0.1718005,0.07222676,0.0238357,-0.0052213706,0.24403174,-0.14413784,0.18971145,0.4153129,-0.35499012,155.80626
2019-01-25,0.28278437,0.3849159,0.07945956,0.17002921,0.07134738,0.00933655,0.010740031,0.2323008,-0.13425596,0.20313954,0.42802382,-0.36241412,401.7595
2019-01-28,0.28295267,0.373796,0.07419273,0.17220736,0.07420993,0.014614414,-0.012579825,0.23768619,-0.14892304,0.2118465,0.4251786,-0.37236017,309.46753
2019-01-29,0.28246146,0.3875604,0.06681287,0.18330503,0.06259912,0.02137734,-0.006645944,0.23759708,-0.11443113,0.21770301,0.44351012,-0.36320713,162.0711
2019-01-30,0.2748695,0.41230062,0.060352992,0.17157139,0.049889687,0.020791993,0.010319728,0.23560138,-0.101024106,0.20281291,0.44464833,-0.36316633,323.12445
2019-01-31,0.2797587,0.40511996,0.046050433,0.16777825,0.0531739,0.021312643,0.0010368936,0.22625409,-0.11485629,0.22096682,0.43593222,-0.36675406,158.02725
2019-02-01,0.27593392,0.40148795,0.04703713,0.14619645,0.060745962,0.018345896,0.013604019,0.2263809,-0.13011415,0.20635134,0.42281574,-0.3752945,1282.7197
2019-02-04,0.27714828,0.38327053,0.03674141,0.14298642,0.05782525,0.022503313,-0.014652263,0.22245605,-0.13201682,0.20154469,0.41179615,-0.37620515,272.61084
2019-02-05,0.27046025,0.38997027,0.032605167,0.13659249,0.069300674,0.015004039,-0.007108081,0.23211347,-0.14922588,0.19616768,0.4174354,-0.38559204,148.45825
2019-02-06,0.27094564,0.41118637,0.020060536,0.1059514,0.06875465,0.0036772676,0.013145033,0.21854661,-0.14630555,0.17668909,0.40847677,-0.39617455,450.359
2019-02-07,0.26684263,0.41212308,0.018670034,0.106654786,0.06669238,-0.0047623944,0.016588133,0.2092814,-0.16089477,0.17597967,0.41585732,-0.3945344,284.87277
2019-02-08,0.2543355,0.428294,0.021255892,0.096489355,0.068669744,-0.026165912,0.035762597,0.19947627,-0.15064023,0.16834915,0.41110957,-0.3854949,618.8039
2019-02-11,0.26331183,0.41635206,0.021257516,0.098726,0.067427285,-0.024644583,0.02355877,0.20121175,-0.16033264,0.16633087,0.404144,-0.38583437,60.676712
2019-02-12,0.2580416,0.41669747,0.018805321,0.10313293,0.05993766,-0.029242942,0.020710822,0.19319771,-0.16658819,0.15989555,0.4097603,-0.3829672,73.825325
2019-02-13,0.27057967,0.41105783,0.005049102,0.09777332,0.055718087,-0.014509065,0.022260193,0.18939848,-0.17577031,0.15576442,0.40200078,-0.390062,163.27338
2019-02-14,0.2706814,0.42730367,0.017244,0.08543287,0.058213726,-0.032105595,0.025082726,0.19578221,-0.17980933,0.14196652,0.41323763,-0.404603,417.62537
2019-02-15,0.26869845,0.45534405,0.0074796416,0.037005387,0.056837358,-0.046120826,0.056731302,0.17423385,-0.1791961,0.11880818,0.38043642,-0.42155135,332.5853
2019-02-19,0.27142668,0.49400496,-0.014389619,0.03013207,0.02922998,-0.040219646,0.076072186,0.15978527,-0.16959976,0.12258042,0.37130994,-0.40913787,438.08975
2019-02-20,0.2738093,0.52496827,-0.019929986,0.031562414,0.023211174,-0.04909097,0.094057396,0.1686144,-0.14834914,0.12593909,0.39151812,-0.40870517,143.0294
2019-02-21,0.28073624,0.5321285,-0.012477603,0.03580886,0.015561324,-0.046504334,0.08749707,0.17410795,-0.14317326,0.14618032,0.3981781,-0.40598956,125.12701
2019-02-22,0.29362786,0.54756325,-0.032520536,0.042804487,0.0050058365,-0.034466565,0.07935245,0.17577404,-0.12921922,0.16041234,0.40047592,-0.40236816,312.59338
2019-02-25,0.30390027,0.57142985,-0.038658895,0.024364214,0.007239148,-0.034998164,0.099178776,0.17717835,-0.117619246,0.16518737,0.38729244,-0.41029137,158.9681
2019-02-26,0.32367852,0.58024997,-0.0421356,0.03827173,-0.0041047037,-0.019283587,0.087082475,0.17471884,-0.11919774,0.20544776,0.40529048,-0.41837966,321.64697
2019-02-27,0.3332459,0.58466524,-0.04137125,0.030940302,-0.0021993965,-0.02193156,0.09299564,0.17727348,-0.11786099,0.21639456,0.38991678,-0.42087913,103.92927
2019-02-28,0.35785764,0.5924781,-0.048899066,0.03878922,-0.004894465,-0.01341383,0.0903828,0.17988318,-0.10075244,0.23602617,0.3961063,-0.4191437,243.52951
2019-03-01,0.3525487,0.6043321,-0.052786082,0.037281983,-0.012775339,-0.011405187,0.10662638,0.17818989,-0.08875008,0.23552057,0.39521986,-0.41279507,224.08824
2019-03-04,0.35314935,0.6045141,-0.072926156,0.016754672,-0.012376398,-0.018157719,0.1168683,0.15816504,-0.075475745,0.22008218,0.36435765,-0.4012299,208.70866
2019-03-05,0.36114353,0.6249462,-0.0781279,0.020306721,-0.017034426,-0.014394991,0.13525052,0.1595199,-0.06322295,0.24471146,0.36953777,-0.3998504,138.11188
2019-03-06,0.35533726,0.62921846,-0.080664605,0.007992245,-0.013851896,-0.022271499,0.15088023,0.15196581,-0.060298055,0.23313789,0.3544702,-0.39605948,170.25345
2019-03-07,0.37094137,0.6180259,-0.08967599,0.011308879,-0.014466301,-0.012051668,0.14437017,0.14821552,-0.05247575,0.24369553,0.35414374,-0.39572906,133.62207
2019-03-08,0.359093,0.61491984,-0.07610567,0.017943785,-0.01304777,-0.01241502,0.14302114,0.14368704,-0.047096364,0.24485609,0.35731763,-0.39480597,106.16658
2019-03-11,0.36074755,0.59583366,-0.083492234,0.029557675,-0.011639833,-0.011067113,0.14299609,0.13742965,-0.047656253,0.23982574,0.35992908,-0.3946611,108.02489
2019-03-12,0.36078683,0.5743853,-0.071167134,0.0480866,-0.0032260194,-0.01692917,0.13094352,0.1411263,-0.04745417,0.25941762,0.37389028,-0.38586202,232.13298
2019-03-13,0.34331757,0.57483476,-0.077071175,0.033636857,-0.0020688027,-0.03858927,0.15958299,0.119938634,-0.0368831,0.2326537,0.3440854,-0.3747524,287.41138
2019-03-14,0.34525934,0.5565726,-0.07964876,0.04683178,-0.004910901,-0.040769458,0.15615109,0.110278964,-0.04521727,0.24047324,0.33454114,-0.365059,230.86517
2019-03-15,0.35183308,0.5601363,-0.073423296,0.058592368,-0.008178338,-0.04275,0.14278355,0.112734854,-0.04144466,0.2600011,0.3490064,-0.36410102,138.70299
2019-03-18,0.35808057,0.56943107,-0.07569562,0.076509714,-0.01529257,-0.043736607,0.15992363,0.12273671,-0.026410468,0.29000854,0.36307436,-0.3511197,202.69516
2019-03-19,0.35830876,0.5745382,-0.07490648,0.0695529,-0.017512232,-0.050652064,0.16361476,0.12336957,-0.024426296,0.28593293,0.35716295,-0.34969062,55.199104
2019-03-20,0.35871783,0.55899614,-0.07541726,0.056384884,-0.010890678,-0.05421172,0.15347144,0.12651405,-0.018762216,0.28078035,0.33477497,-0.34786534,107.801315
2019-03-21,0.3514206,0.5719453,-0.08484191,0.031584185,-0.01692845,-0.06009469,0.17568845,0.11454684,-0.004640758,0.25671875,0.30267107,-0.33792144,247.34244
2019-03-22,0.36684477,0.5638929,-0.08495765,0.020129278,0.0016751438,-0.06192829,0.15268654,0.12065324,-0.0011131354,0.25892863,0.30619025,-0.35524496,256.73517
2019-03-25,0.3682737,0.561014,-0.08725903,0.012939356,0.0077853464,-0.07406044,0.14264569,0.12003305,0.01597932,0.24813953,0.30319816,-0.340006,1975.7223
2019-03-26,0.36613277,0.55175924,-0.06992658,0.012193948,0.013583668,-0.079925865,0.12896733,0.1306736,0.007570807,0.23585811,0.30355406,-0.3428528,187.23117
2019-03-27,0.37088966,0.5478543,-0.059591025,0.014374886,0.016291358,-0.08066806,0.11707777,0.14005177,-0.0005101785,0.24194537,0.30930042,-0.34733975,184.45221
2019-03-28,0.36316743,0.5579067,-0.061454553,0.012596041,0.007565923,-0.08978219,0.12360163,0.13082755,0.0072638355,0.22840664,0.31022465,-0.33996767,1628.2346
2019-03-29,0.3439787,0.5481141,-0.06271739,0.00062707067,0.013444416,-0.10282047,0.11449243,0.12958257,-0.0034370795,0.21173239,0.2877031,-0.331423,369.04712
2019-04-01,0.34586498,0.56112784,-0.06333595,-0.0065099,0.018824212,-0.09877963,0.11107829,0.13826145,-0.0030612275,0.21423694,0.30269253,-0.34642637,1217.5333
2019-04-02,0.3505034,0.55904037,-0.056970008,0.005283341,0.01999741,-0.09050439,0.09743786,0.15155925,-0.021990657,0.23904036,0.320643,-0.35315895,867.24255
2019-04-03,0.36974272,0.5958116,-0.07765985,-0.0028662235,-0.007212855,-0.086382896,0.101184055,0.13185404,-0.0077550784,0.23220995,0.33026612,-0.3666238,434.5091
2019-04-04,0.37326866,0.59894454,-0.08349994,-0.009302437,-0.000908196,-0.09226042,0.09223047,0.13672103,-0.0066576526,0.21573977,0.3426044,-0.38430732,370.10907
2019-04-05,0.3829623,0.61089754,-0.09071636,-0.016993068,-0.009034038,-0.09288341,0.09061885,0.1363408,0.0089279935,0.21404597,0.34439814,-0.3919794,1230.7388
2019-04-08,0.39013728,0.6099675,-0.088261366,-0.021054178,-0.0063365996,-0.08921938,0.08560388,0.14356083,0.005202733,0.20877042,0.34598374,-0.40293786,120.7101
2019-04-09,0.38692364,0.61891246,-0.09419839,-0.035341516,-0.008790225,-0.08562186,0.082309365,0.14925934,0.012169961,0.18815202,0.3418361,-0.4101237,274.22137
2019-04-10,0.38682097,0.6105869,-0.08846757,-0.04253062,-0.009821795,-0.089951955,0.06613673,0.1558101,0.018948492,0.16996832,0.34122723,-0.41536504,135.44675
2019-04-11,0.39042348,0.60554886,-0.09040137,-0.04673983,-0.005855821,-0.08594221,0.058311258,0.15840879,0.021647483,0.17062464,0.33721972,-0.4195505,88.98837
2019-04-12,0.38735878,0.58248043,-0.10072358,-0.031505167,-0.007028289,-0.07737516,0.03597712,0.15047246,0.022402618,0.17648655,0.33472747,-0.4175161,130.05739
2019-04-15,0.37610975,0.57014257,-0.09257439,0.0067064986,-0.007398382,-0.0534681,0.017510902,0.1558502,0.015615165,0.22890632,0.34166247,-0.41705847,287.64563
2019-04-16,0.37289637,0.5707872,-0.096582994,-0.004223861,-0.0138976425,-0.051124934,0.021146346,0.13716492,0.011218462,0.21190557,0.3266551,-0.42271864,334.5921
2019-04-17,0.3625304,0.5684739,-0.099693686,0.01893178,-0.010180064,-0.035909023,0.009807948,0.14344567,0.017180672,0.24290803,0.32702,-0.41317672,739.47156
2019-04-18,0.34463587,0.56395316,-0.10556133,0.031450786,-0.018465623,-0.024684634,0.0090233125,0.13928436,0.027269246,0.25692075,0.31331736,-0.4063064,271.63495
2019-04-22,0.33786088,0.56551874,-0.11242758,0.039245546,-0.021310449,-0.022050496,0.0068432614,0.13558668,0.040059105,0.26906544,0.3053823,-0.398093,142.60736
2019-04-23,0.33262354,0.5570419,-0.10622845,0.025947899,-0.022948861,-0.013356637,-0.009609822,0.12736541,0.032393057,0.25980514,0.28874367,-0.39346668,365.2416
2019-04-24,0.32703874,0.5629831,-0.1105763,0.0049707144,-0.022749886,-0.016148869,0.0018275194,0.12446359,0.03234153,0.24644874,0.2762699,-0.40119654,242.33437
2019-04-25,0.32802632,0.56462806,-0.1330243,0.006710924,-0.025575384,-0.018040676,0.004867915,0.120886765,0.05105018,0.23903275,0.27469647,-0.40205595,310.92014
2019-04-26,0.31911352,0.56002,-0.15029985,0.019221377,-0.03472081,-0.02279653,0.0041901357,0.11355499,0.07576889,0.24185133,0.26397276,-0.38398504,343.0462
2019-04-29,0.31592265,0.55190307,-0.13937432,0.0059037656,-0.02930215,-0.019816738,-0.0065127164,0.11485717,0.05966168,0.2351045,0.25801396,-0.38939738,391.97284
2019-04-30,0.3105317,0.54400533,-0.1415953,0.016595993,-0.024759345,-0.014917593,-0.024043038,0.11140698,0.04768043,0.229403,0.27014577,-0.39430583,526.7093
2019-05-01,0.2996617,0.54461396,-0.14558704,0.019949399,-0.015837528,-0.026720177,-0.015150238,0.10462308,0.051466953,0.22844893,0.27813148,-0.38766146,197.86508
2019-05-02,0.3107548,0.5297955,-0.16205491,0.026220031,-0.034596093,-0.020114016,-0.021518052,0.0857804,0.060819253,0.22408056,0.28157592,-0.37673932,276.51477
2019-05-03,0.31568336,0.52036846,-0.17089276,0.040337782,-0.035858512,-0.018439915,-0.02940265,0.084548265,0.07949759,0.23501804,0.2861002,-0.36032918,154.26749
2019-05-06,0.30594367,0.51660323,-0.16705158,0.026912466,-0.034997344,-0.019491982,-0.027066443,0.08337219,0.061912473,0.22058761,0.27873123,-0.35870478,88.06925
2019-05-07,0.310764,0.51473945,-0.17697226,0.019748501,-0.03704019,-0.023007419,-0.022189911,0.081282526,0.07011886,0.20882739,0.27951843,-0.35384318,99.11417
2019-05-08,0.31473932,0.50578946,-0.18622366,0.048384603,-0.033292845,-0.028768014,-0.004748892,0.083105415,0.11490254,0.22554728,0.29510146,-0.3239691,355.13846
2019-05-09,0.31589478,0.49782664,-0.18322954,0.06344409,-0.028580979,-0.03147379,-0.009287085,0.09341331,0.12698475,0.22091356,0.30520433,-0.31358445,185.39726
2019-05-10,0.32450926,0.49334535,-0.18589792,0.06075143,-0.01929579,-0.039375443,-0.0024276413,0.098827854,0.143492,0.21582095,0.3043118,-0.3103479,163.20601
2019-05-13,0.32256898,0.5000887,-0.18633345,0.053765796,-0.008043662,-0.056392815,0.00669254,0.10615722,0.15160604,0.20024332,0.30817562,-0.31529647,514.06366
2019-05-14,0.3231724,0.46754506,-0.198159,0.08807072,-0.016032144,-0.06442548,-0.0009255819,0.10894747,0.21140733,0.20841663,0.31155348,-0.25053033,372.02634
2019-05-15,0.31693417,0.45311692,-0.20317607,0.095933646,-0.010540992,-0.073646486,-0.008470774,0.11817121,0.21300922,0.19797882,0.31318712,-0.24663009,896.5364
2019-05-16,0.31270954,0.4594332,-0.1992842,0.07651706,-0.0060314164,-0.08443704,0.0003879629,0.11146706,0.19564095,0.18113273,0.31298798,-0.24854249,210.07025
2019-05-17,0.29820806,0.43681952,-0.19796783,0.07533908,-0.005121112,-0.08014667,-0.014083471,0.09621856,0.16229916,0.16094874,0.29803848,-0.2518959,3810.032
2019-05-20,0.30310062,0.4340248,-0.20997529,0.07341224,-0.0118410215,-0.09105702,-0.017894428,0.094013825,0.19017851,0.15160279,0.29410356,-0.23080921,217.76326
2019-05-21,0.31059727,0.4089222,-0.19280174,0.08796933,-0.016562536,-0.08164626,-0.035317373,0.08537984,0.18959843,0.16222744,0.29168272,-0.21378116,208.53716
2019-05-22,0.30308908,0.4110573,-0.19557597,0.095416024,-0.02370067,-0.07596038,-0.027567822,0.08640704,0.19103657,0.16667947,0.28742754,-0.2039338,95.619225
2019-05-23,0.2936347,0.39110127,-0.18679692,0.09026562,-0.01698932,-0.07414183,-0.031263817,0.085821964,0.17531855,0.14576088,0.2664302,-0.20154136,91.912415
2019-05-24,0.30148786,0.35757756,-0.18481569,0.10715896,-0.01892154,-0.06486584,-0.02908178,0.08607264,0.19844577,0.14126979,0.23865463,-0.1613042,108.84012
2019-05-28,0.3037876,0.3432677,-0.17450218,0.116898485,-0.013778925,-0.07068118,-0.047503512,0.09666703,0.19291969,0.14280906,0.24313398,-0.16431259,138.84726
2019-05-29,0.29497015,0.33719617,-0.17426226,0.10677897,-0.0067820325,-0.07501902,-0.039484244,0.091167375,0.19249257,0.12701964,0.22248866,-0.16209938,114.06896
2019-05-30,0.29314205,0.3274077,-0.17924185,0.117975935,-0.01438573,-0.07235061,-0.038665924,0.081994474,0.20359038,0.124397345,0.2147948,-0.15334821,161.35927
2019-05-31,0.29524773,0.3349016,-0.15538086,0.10637537,-0.0033460557,-0.08990607,-0.04495598,0.09394827,0.18778695,0.11322772,0.22954734,-0.1654524,189.50656
2019-06-03,0.29370752,0.34735668,-0.14847751,0.109061465,0.0027262643,-0.07531153,-0.036007058,0.091867104,0.1799985,0.1100655,0.23633711,-0.15324844,248.3142
2019-06-04,0.31258455,0.2638759,-0.15313344,0.15538962,-0.0029756054,-0.05378126,-0.06736325,0.09558629,0.1832647,0.14128244,0.22765456,-0.09736279,475.25897
2019-06-05,0.28355426,0.2223632,-0.12524351,0.16220126,0.0221936,-0.052406996,-0.10206871,0.11371284,0.14372246,0.13302483,0.23756973,-0.10703851,1008.2203
2019-06-06,0.26262075,0.23313513,-0.11392477,0.14680064,0.031930335,-0.061498713,-0.10447407,0.11979979,0.12568623,0.117286325,0.2389869,-0.13432257,150.15567
2019-06-07,0.25370243,0.24914777,-0.10302788,0.13883062,0.052926637,-0.06475231,-0.08537896,0.14382213,0.10982166,0.10570783,0.25003058,-0.14781043,171.79175
2019-06-10,0.22278741,0.22718084,-0.10678585,0.13230026,0.068965875,-0.06480327,-0.081110805,0.14097899,0.086759105,0.07293572,0.23842885,-0.15577559,128.74446
2019-06-11,0.23069307,0.18877082,-0.10223171,0.1504306,0.09525493,-0.085119314,-0.11698875,0.16696268,0.08618967,0.09558171,0.261904,-0.15299496,213.89424
2019-06-12,0.24543616,0.19567555,-0.09699938,0.15996419,0.09429182,-0.07438703,-0.11823955,0.1842849,0.09519845,0.12542441,0.26920152,-0.15019977,92.85561
2019-06-13,0.24200606,0.19555797,-0.08777438,0.15821996,0.100033596,-0.06720564,-0.11977932,0.18654582,0.08619635,0.123409174,0.2701822,-0.15518257,45.07559
2019-06-14,0.25763074,0.19957139,-0.08067651,0.1559647,0.114152804,-0.068740875,-0.111950934,0.20706251,0.08567731,0.1396837,0.28112137,-0.16284809,74.731316
2019-06-17,0.2758816,0.20654345,-0.08277358,0.14603093,0.11363813,-0.07040042,-0.09846063,0.18902932,0.08068431,0.14588016,0.26962918,-0.17094451,62.49404
2019-06-18,0.2853396,0.21172205,-0.08240336,0.13912624,0.11905508,-0.06857229,-0.093786076,0.19322309,0.078150585,0.14318755,0.2669586,-0.17892733,36.087227
2019-06-19,0.294371,0.23864159,-0.055619318,0.14468475,0.11986213,-0.059155595,-0.08142319,0.21382272,0.080377825,0.16955985,0.28213155,-0.19296995,125.43187
2019-06-20,0.29185218,0.25321692,-0.031035375,0.10099872,0.1510548,-0.07769345,-0.0862076,0.23811342,0.061382238,0.121699,0.26808703,-0.231417,232.71628
2019-06-21,0.28022358,0.28735065,-0.013214614,0.06433515,0.14150238,-0.08265695,-0.078219295,0.2278589,0.055600025,0.0865873,0.26269037,-0.26909545,194.03749
2019-06-24,0.30508414,0.2963161,-0.011681851,0.064734295,0.14123374,-0.082669534,-0.08492909,0.23954582,0.046679366,0.0840726,0.2727002,-0.27827254,64.29284
2019-06-25,0.32116964,0.33267766,-0.031628523,0.023389652,0.14196937,-0.0849715,-0.05699603,0.22821361,0.05696219,0.06337795,0.26340562,-0.30415773,352.44147
2019-06-26,0.3509884,0.34220475,-0.035041012,0.05084884,0.117592745,-0.07638022,-0.055115398,0.24220233,0.07953903,0.09556657,0.28469008,-0.2771834,284.41885
2019-06-27,0.35644892,0.36164543,-0.04645657,0.07804614,0.097570814,-0.07739566,-0.05871586,0.23580696,0.07636963,0.12442931,0.30778039,-0.278826,163.7198
2019-06-28,0.36723453,0.389071,-0.05131765,0.045146454,0.10611096,-0.087191306,-0.03451919,0.23549496,0.07402536,0.10862719,0.30053347,-0.30618304,153.91408
2019-07-01,0.3596706,0.39803207,-0.040457517,0.048029996,0.11957678,-0.08110425,-0.04959752,0.25162935,0.06644437,0.11294537,0.30149174,-0.33378187,125.66539
2019-07-02,0.35076797,0.38806504,-0.028886486,0.061371647,0.12702747,-0.07090615,-0.053693425,0.24704702,0.048569936,0.12301826,0.29825795,-0.34077227,129.2284
2019-07-03,0.35447863,0.4025567,-0.01999927,0.035792492,0.13348012,-0.060684603,-0.045678493,0.25480685,0.03549901,0.11392572,0.2883631,-0.3631881,158.99915
2019-07-05,0.3597546,0.40991414,-0.023073113,0.020428158,0.14551415,-0.07183258,-0.038130116,0.2578365,0.03789269,0.07760883,0.29249448,-0.3837348,152.42259
2019-07-08,0.36369938,0.41227114,-0.04075841,0.04934007,0.1299683,-0.071819305,-0.059370544,0.2526521,0.04017956,0.08487957,0.32467335,-0.3788611,315.94305
2019-07-09,0.38112608,0.43616253,-0.05184018,0.03711689,0.120706216,-0.06790964,-0.044938963,0.25969768,0.06497429,0.10593646,0.32030034,-0.38012266,190.41293
2019-07-10,0.36978567,0.43237862,-0.045573883,0.038496718,0.118299544,-0.06237132,-0.047558572,0.25714195,0.06849943,0.09629871,0.32651287,-0.38133216,53.391792
2019-07-11,0.36479288,0.41987962,-0.052842844,0.037782833,0.112220265,-0.060551733,-0.052712005,0.25590312,0.05400958,0.08041063,0.32144445,-0.39072025,83.08535
2019-07-12,0.3522437,0.4069226,-0.075005695,0.08122801,0.10296841,-0.05630494,-0.06331749,0.25591174,0.071681656,0.115263134,0.33665437,-0.35504794,288.75958
2019-07-15,0.37370333,0.42813653,-0.077081874,0.07250617,0.10280608,-0.04031149,-0.05446257,0.27893555,0.08719845,0.12890753,0.33114868,-0.3509957,112.61666
2019-07-16,0.37206706,0.4379536,-0.07882216,0.08611085,0.081379406,-0.028007135,-0.043527637,0.2768796,0.09501663,0.1464236,0.3465718,-0.3310135,128.83649
2019-07-17,0.38470685,0.43020698,-0.08581022,0.11442259,0.05925087,-0.015720822,-0.06079476,0.277657,0.10880533,0.17266019,0.3616771,-0.3074251,201.83505
2019-07-18,0.390381,0.4502105,-0.0741745,0.10230332,0.057581455,-0.019961316,-0.029615957,0.26723883,0.11508942,0.17537022,0.36511165,-0.30691546,123.56548
2019-07-19,0.38953748,0.45163903,-0.07344708,0.10765576,0.047816295,-0.0069844984,-0.03160436,0.26157147,0.11730334,0.17286061,0.37440246,-0.30613977,103.70147
2019-07-22,0.3966889,0.47702602,-0.07918243,0.12361049,0.04073634,-0.006735049,-0.017924856,0.2638631,0.13807024,0.19536564,0.3847139,-0.29062504,131.1684
2019-07-23,0.39207837,0.49312454,-0.08142962,0.119432375,0.04289242,-0.008817233,-0.007236477,0.2721076,0.14319758,0.18899411,0.38706845,-0.29657793,119.35209
2019-07-24,0.38565186,0.4924609,-0.064137615,0.13649634,0.035333067,0.00068540126,-0.012609359,0.27791113,0.12740229,0.20076445,0.3988065,-0.29736823,259.63144
2019-07-25,0.36204982,0.50628906,-0.054719217,0.13418595,0.043070927,-0.010684054,0.004776355,0.28956807,0.14587449,0.20885879,0.39383328,-0.29114184,1869.9537
2019-07-26,0.37155575,0.4925689,-0.048599586,0.14341229,0.041023053,-0.0039362498,-0.016382705,0.28809392,0.13544193,0.21947566,0.3881021,-0.2834887,551.13135
2019-07-29,0.38670263,0.5163892,-0.04702624,0.12520903,0.047076978,-0.008297201,-0.0022594891,0.2952023,0.13862617,0.21924026,0.3920071,-0.30893093,251.50433
2019-07-30,0.3750161,0.50765574,-0.04153423,0.12500358,0.027291216,0.0021146685,-0.0061958544,0.29051363,0.13449964,0.21799998,0.38246405,-0.29167256,371.4376
2019-07-31,0.36500502,0.52114946,-0.048696954,0.114843644,0.014801301,-0.005180508,0.011068579,0.28055826,0.13826932,0.20229928,0.3819492,-0.28398684,716.29193
2019-08-01,0.37197313,0.47438917,-0.06271742,0.13817957,0.0061213225,0.004865553,-0.006032292,0.2729736,0.16408339,0.1983918,0.37653106,-0.24370964,505.96118
2019-08-02,0.3689544,0.43979168,-0.07537004,0.12960753,0.025924418,0.0062220357,-0.011456881,0.27775472,0.18603899,0.17298496,0.32661575,-0.23138574,522.0495
2019-08-05,0.37532046,0.40321678,-0.0830774,0.15327425,0.01606848,0.027600963,-0.0289112,0.27012938,0.19345894,0.17802145,0.2978139,-0.19774386,605.497
2019-08-06,0.3589958,0.34011474,-0.117444694,0.19467092,0.024012573,0.015295804,-0.013198797,0.23444325,0.22351368,0.15478939,0.26210952,-0.11845693,330.62466
2019-08-07,0.34577414,0.32758355,-0.13460511,0.17819214,0.020821959,0.011497758,-0.015899908,0.2282317,0.20966536,0.11359977,0.24802093,-0.13006505,139.65636
2019-08-08,0.33920768,0.34251133,-0.14405975,0.1576554,0.023290634,0.00502206,0.0021730028,0.22176227,0.22413771,0.08775876,0.23850442,-0.13015395,243.23924
2019-08-09,0.32587445,0.3191337,-0.135219,0.13619146,0.03888212,0.010705516,-0.009918254,0.21296646,0.1795751,0.060416386,0.23235504,-0.16316369,849.9959
2019-08-12,0.32076833,0.30125415,-0.1289241,0.12368439,0.048589125,-0.009084385,-0.01917794,0.21205443,0.17723309,0.031380974,0.23126231,-0.1623358,374.9595
2019-08-13,0.3097086,0.30147898,-0.14259988,0.11839318,0.03821866,-0.012497101,0.0076242127,0.20550755,0.20306958,0.01626108,0.20367084,-0.13568178,311.26996
2019-08-14,0.30637518,0.2649379,-0.13153891,0.10832144,0.055871833,-0.018354308,-0.012056988,0.21024413,0.17061536,0.0015647355,0.2048478,-0.15378997,503.24783
2019-08-15,0.27429512,0.1829268,-0.13727006,0.14001164,0.055666972,-0.010309342,-0.049180526,0.20499134,0.19025305,-0.010479374,0.15235786,-0.08532012,1281.0127
2019-08-16,0.27034327,0.18227312,-0.15093176,0.13262127,0.052644897,-0.01162206,-0.058249418,0.19603996,0.18461207,-0.0005135294,0.15127288,-0.09112282,163.57556
2019-08-19,0.26744637,0.17406347,-0.13739446,0.13467003,0.06761573,-0.009352963,-0.07920945,0.21260017,0.16014147,-0.0014947485,0.16284633,-0.1047079,335.3696
2019-08-20,0.27670854,0.17237352,-0.11183146,0.11915645,0.08774817,-0.0091273375,-0.09074713,0.22754982,0.13010786,-0.01849985,0.17366527,-0.13727735,1282.5038
2019-08-21,0.26487926,0.1903184,-0.11530709,0.106480256,0.08804637,-0.025534201,-0.07450268,0.22958225,0.14354175,-0.027243188,0.17754655,-0.13498649,288.81125
2019-08-22,0.25277618,0.18909588,-0.09707088,0.10285475,0.09718271,-0.033701245,-0.089518204,0.24421099,0.1129943,-0.040103763,0.18337835,-0.15659523,181.10008
2019-08-23,0.25219044,0.19436099,-0.11305864,0.09937564,0.10194646,-0.037732754,-0.07731901,0.22536585,0.10701819,-0.041165717,0.18447135,-0.16094731,72.38962
2019-08-26,0.24122605,0.17734095,-0.11241691,0.07274751,0.10232888,-0.05174051,-0.07082476,0.22250117,0.13624057,-0.06908355,0.14844759,-0.13586003,217.87627
2019-08-27,0.26164958,0.182408,-0.13059293,0.061661206,0.11409747,-0.046570446,-0.0820269,0.22895716,0.122339144,-0.04366889,0.1501434,-0.15756133,147.05045
2019-08-28,0.25761768,0.18378499,-0.15072134,0.0710836,0.11029744,-0.04289825,-0.0723996,0.21863878,0.12838566,-0.03172616,0.14928727,-0.1425345,102.8472
2019-08-29,0.26223227,0.20565987,-0.14352615,0.079294324,0.100285456,-0.042119574,-0.0618576,0.21795836,0.13319531,-0.0066606086,0.1711676,-0.14648852,155.9656
2019-08-30,0.2835325,0.20022249,-0.14376721,0.077809066,0.10100269,-0.02800547,-0.07473774,0.20951816,0.10661807,0.011834102,0.1810248,-0.17830671,396.83298
2019-09-03,0.2818967,0.22067882,-0.13027988,0.07952915,0.076342545,-0.026215691,-0.06834744,0.21377872,0.10040888,0.020050162,0.19554426,-0.18682298,151.82335
2019-09-04,0.29802933,0.21310008,-0.14213471,0.07122483,0.06883791,-0.022704583,-0.06914398,0.20764151,0.114867,0.025309453,0.16870116,-0.18544528,111.05287
2019-09-05,0.29599926,0.23429616,-0.14622836,0.08380337,0.06445797,-0.024928603,-0.05653369,0.20881842,0.105449006,0.034851693,0.18811204,-0.19438982,128.3615
2019-09-06,0.2954551,0.23076597,-0.12548196,0.10023991,0.06916666,-0.0032474436,-0.055719126,0.21557604,0.07509081,0.041619524,0.20796303,-0.2099705,201.22282
2019-09-09,0.29379174,0.25427896,-0.13550115,0.10119018,0.043835625,-0.011648055,-0.035081904,0.20566523,0.08415532,0.06691905,0.21466918,-0.20636794,434.4265
2019-09-10,0.2982382,0.29646346,-0.1251631,0.16044977,0.010838177,0.0021206178,-0.02889515,0.20914136,0.099055216,0.12142149,0.26691937,-0.18437667,431.24875
2019-09-11,0.31516773,0.3021607,-0.13000569,0.1752241,-0.009697221,0.02468934,-0.04066913,0.21544334,0.10865818,0.15564878,0.27372056,-0.1702202,1366.2703
2019-09-12,0.33216617,0.31658104,-0.11454366,0.18493703,-0.030920483,0.04596101,-0.052519206,0.22257991,0.095307425,0.1814199,0.28346878,-0.17850581,402.3423
2019-09-13,0.35441288,0.3463667,-0.12592836,0.19279133,-0.02584152,0.04801354,-0.062058087,0.2189484,0.08860829,0.22481073,0.30559552,-0.2215051,133.81859
2019-09-16,0.35283482,0.36608917,-0.10154404,0.18410277,-0.025194362,0.041986596,-0.06602627,0.23252697,0.08173269,0.23568635,0.3134516,-0.24282189,82.45424
2019-09-17,0.3509208,0.37331596,-0.087328464,0.17340097,-0.0149964765,0.04426298,-0.05510189,0.23211496,0.09421366,0.24653286,0.30567163,-0.24942753,110.025085
2019-09-18,0.3611861,0.40380466,-0.0992574,0.1350122,-0.009228468,0.037108574,-0.044429448,0.21965975,0.0872493,0.22956844,0.2994365,-0.29098314,159.22467
2019-09-19,0.374019,0.45679817,-0.096174404,0.12242697,-0.01615242,0.03901511,-0.007555466,0.22653897,0.10522824,0.23091108,0.31548297,-0.31503245,230.21129
2019-09-20,0.38937065,0.45242488,-0.09998888,0.13256419,-0.012210198,0.049003962,-0.031117536,0.23642696,0.086425826,0.23589356,0.31644893,-0.33611745,410.56177
2019-09-23,0.38060603,0.4383975,-0.103129014,0.13336001,-0.025445998,0.05322578,-0.03927736,0.23617801,0.10305778,0.22026026,0.32072043,-0.31784946,185.09126
2019-09-24,0.37763864,0.4641908,-0.11537139,0.12551457,-0.034784906,0.050298024,-0.037165362,0.23139182,0.10785766,0.22220221,0.34433,-0.33370647,91.91162
2019-09-25,0.36846945,0.42322418,-0.12516557,0.13891564,-0.028738394,0.05426759,-0.05654558,0.22917141,0.11115808,0.21613036,0.32731825,-0.31420594,125.376465
2019-09-26,0.34991604,0.4093223,-0.10850832,0.14269945,-0.029384091,0.055679824,-0.07380971,0.22956364,0.08487415,0.21153909,0.3302356,-0.32036793,88.52595
2019-09-27,0.33956924,0.40963757,-0.11233811,0.11754659,-0.024850182,0.058966007,-0.050698105,0.22135334,0.08668569,0.18311864,0.30614132,-0.3246344,104.607834
2019-09-30,0.3327484,0.37833974,-0.111066744,0.12612426,-0.037804253,0.06816667,-0.065301836,0.20565759,0.091840535,0.17373925,0.3009752,-0.30478454,140.5768
2019-10-01,0.34467235,0.37922212,-0.122702196,0.11976437,-0.03527598,0.06293391,-0.06811106,0.1941842,0.08093096,0.16161843,0.29162824,-0.32517654,72.23181
2019-10-02,0.33644295,0.3361848,-0.12180063,0.14140189,-0.014866792,0.06508696,-0.076378345,0.19486918,0.10075672,0.1611401,0.27468193,-0.30343467,143.59573
2019-10-03,0.3229617,0.32111108,-0.12028472,0.16862124,0.01074779,0.04848348,-0.08414146,0.20100914,0.13855733,0.18105808,0.26591825,-0.26976976,304.26593
2019-10-04,0.3224021,0.32878435,-0.11911704,0.17075455,0.02769167,0.035313312,-0.07508816,0.2076889,0.15059075,0.1755786,0.27467006,-0.27672988,221.278
2019-10-07,0.33093357,0.330611,-0.11171371,0.16445471,0.039955564,0.034352947,-0.07279216,0.21303236,0.14262712,0.16875361,0.27871138,-0.2898913,81.14659
2019-10-08,0.3391835,0.3284889,-0.1233917,0.157664,0.044676557,0.030387934,-0.07955931,0.21335101,0.15732716,0.16973025,0.27611727,-0.27327797,68.06822
2019-10-09,0.35647646,0.31749186,-0.12581623,0.15045187,0.047508925,0.038354788,-0.08674754,0.21795894,0.17891891,0.18071713,0.25906342,-0.24410532,95.7858
2019-10-10,0.3583249,0.32634285,-0.11945175,0.16099557,0.047131293,0.03978795,-0.0804417,0.20860063,0.16533846,0.18937322,0.281819,-0.24116534,53.835476
2019-10-11,0.3552908,0.33345485,-0.10108018,0.16658455,0.043627985,0.040869866,-0.08657575,0.21309592,0.15566897,0.20481116,0.29900396,-0.24380422,63.002674
2019-10-14,0.35212022,0.32503623,-0.07813543,0.17633864,0.037886694,0.06910163,-0.0899512,0.22189602,0.118626535,0.21479127,0.31484127,-0.2472941,157.63394
2019-10-15,0.36241236,0.35013163,-0.09079547,0.15509412,0.03509186,0.055302877,-0.08147173,0.23054625,0.124218166,0.21547304,0.31648433,-0.26258317,91.30011
2019-10-16,0.3745566,0.3260724,-0.051306322,0.17355834,0.041132674,0.093982056,-0.100954846,0.23286062,0.07114123,0.24470557,0.3311472,-0.2748286,243.28479
2019-10-17,0.36796448,0.3431371,-0.06244226,0.17536303,0.047139183,0.075105995,-0.094705194,0.23395856,0.08850109,0.240363,0.34005356,-0.27767086,100.987885
2019-10-18,0.3835629,0.3647215,-0.052776657,0.17919505,0.041642394,0.082053095,-0.090044156,0.24089094,0.07766015,0.2478027,0.36033678,-0.28614315,81.34967
2019-10-21,0.38167465,0.35922638,-0.048450198,0.1927615,0.03653207,0.085776284,-0.10026623,0.24728437,0.075575955,0.25659025,0.3687197,-0.27557737,60.832054
2019-10-22,0.3780823,0.36951894,-0.027566781,0.19777076,0.030903101,0.0903188,-0.11271855,0.24606179,0.05459577,0.26989287,0.379292,-0.29098737,124.52965
2019-10-23,0.38696304,0.39497617,-0.040092185,0.18004733,0.004281707,0.09741302,-0.08447559,0.24480362,0.054349042,0.24987504,0.365412,-0.29011416,195.03166
2019-10-24,0.393405,0.40797365,-0.034662634,0.17570828,0.011927374,0.094485864,-0.07888217,0.2596978,0.048537865,0.26511425,0.3539878,-0.27727664,239.5267
2019-10-25,0.38550183,0.44392186,-0.022284212,0.17332998,0.023960538,0.07445958,-0.07394293,0.27678666,0.034681544,0.2656257,0.36959636,-0.30393666,225.57344
2019-10-28,0.35496214,0.46906704,-0.0039812587,0.15142205,0.01709427,0.08363645,-0.054745954,0.2508204,0.024201792,0.25365463,0.35947782,-0.3107339,224.38235
2019-10-29,0.35946807,0.47583464,-0.022701617,0.14180264,0.010859318,0.08935267,-0.055194754,0.24887379,0.014825571,0.24192569,0.35701746,-0.3391652,577.3814
2019-10-30,0.36919492,0.48818147,-0.027549058,0.12642421,0.0024899393,0.08180806,-0.067469716,0.24024984,0.025781944,0.24406041,0.37100464,-0.35092893,230.88803
2019-10-31,0.36790082,0.49966118,-0.0352982,0.12211336,0.011172861,0.09273413,-0.05477738,0.25143558,0.021633392,0.24160144,0.36750168,-0.36184138,440.93634
2019-11-01,0.37226534,0.522393,-0.049022794,0.08774625,-0.00020907819,0.08473891,-0.036604222,0.24615355,0.037760604,0.21245375,0.36672562,-0.37694445,309.5286
2019-11-04,0.35306463,0.49463907,-0.035768703,0.106065825,0.006524656,0.08605051,-0.07171722,0.24554475,0.007797748,0.22514087,0.35857975,-0.37127,3465.8313
2019-11-05,0.34904784,0.48987725,-0.015871074,0.11508813,0.02194471,0.102159426,-0.06587456,0.2500197,-0.016952038,0.24405399,0.35917056,-0.38696608,661.4496
2019-11-06,0.3403311,0.49419123,-0.00078638643,0.10867639,0.049252227,0.08254923,-0.039778177,0.24813339,-0.042969584,0.2527954,0.34460598,-0.3919886,450.4096
2019-11-07,0.3424803,0.51251256,-0.0020045713,0.06773012,0.040081486,0.070210785,-0.022267696,0.2409645,-0.045944855,0.21903636,0.3458395,-0.41529393,303.98322
2019-11-08,0.34502375,0.5119208,-0.01793661,0.073817134,0.043526195,0.07031931,-0.041180447,0.24164067,-0.0728548,0.22393872,0.345407,-0.42927504,962.8935
2019-11-11,0.32262197,0.5248366,-0.010515042,0.06285951,0.033160597,0.063166514,-0.030147422,0.24013652,-0.084759235,0.19993672,0.34334338,-0.43549767,155.7427
2019-11-12,0.32730162,0.53139323,-0.013090126,0.054371994,0.028339803,0.056596447,-0.040490072,0.23238352,-0.09350802,0.1944974,0.3475178,-0.4457168,119.77086
2019-11-13,0.3298699,0.53932583,-0.029239547,0.043156043,0.0184327,0.06373569,-0.035106104,0.21925312,-0.08472228,0.17972334,0.35368496,-0.4552958,233.71204
2019-11-14,0.32723665,0.54183614,-0.034902137,0.030668888,0.031365003,0.055992175,-0.030754697,0.21526685,-0.07559807,0.15931737,0.34590852,-0.45880368,171.17976
2019-11-15,0.32190725,0.55264753,-0.056873694,0.00015315413,0.024650902,0.04184406,-0.000653591,0.19193332,-0.077320546,0.14697476,0.31380427,-0.4564605,341.2825
2019-11-18,0.3079037,0.54141515,-0.05783543,0.010246873,0.019437153,0.052661676,-0.0013997667,0.18489239,-0.07343205,0.13141191,0.31615603,-0.44528052,6782.2886
2019-11-19,0.30795142,0.54220307,-0.058883816,-0.0046821535,0.017443798,0.046835046,-0.0007193275,0.1910786,-0.061453603,0.11925473,0.3158211,-0.45057526,247.80211
2019-11-20,0.30603513,0.5213834,-0.08258208,-0.012534395,0.0086465925,0.037921827,0.0012588315,0.17666137,-0.0678588,0.09880538,0.31423503,-0.45246625,592.91516
2019-11-21,0.3168116,0.5197913,-0.09891386,-0.017945014,-0.0022681803,0.04220218,-0.0002465211,0.16833803,-0.060990244,0.10068547,0.32112378,-0.45691413,343.78333
2019-11-22,0.30568147,0.52538854,-0.09072192,-0.024159,-0.01035554,0.035124,-0.0017130785,0.16677497,-0.07421106,0.07767292,0.33439112,-0.46020377,1066.0433
2019-11-25,0.30874148,0.5249234,-0.10215199,-0.03833928,-0.010760531,0.023915384,0.0032206737,0.16049105,-0.06314558,0.06761194,0.32260776,-0.45275998,432.98474
2019-11-26,0.29745317,0.5075617,-0.09343479,-0.03730444,-0.0023478344,0.021447703,-0.0042983815,0.17252292,-0.0700326,0.064353414,0.3287753,-0.44659275,366.6549
2019-11-27,0.29792443,0.5238593,-0.107828245,-0.05237174,0.0035124011,0.00734362,-0.0010597557,0.17180131,-0.05440195,0.057698168,0.33008015,-0.449672,484.03717
2019-11-29,0.29687086,0.5178161,-0.11268775,-0.05845286,0.005617298,-0.0013421066,-0.01168162,0.16872212,-0.056894228,0.06078285,0.32009304,-0.4498796,1212.9141
2019-12-02,0.28608426,0.51214576,-0.11303368,-0.06226325,0.0073857456,-0.021762919,-0.012173612,0.15573567,-0.041255087,0.05284907,0.3195945,-0.43797654,1619.8368
2019-12-03,0.30496824,0.49419513,-0.11182715,-0.031150296,0.0033327602,-0.01864172,-0.03752126,0.16638869,-0.03431566,0.09844403,0.3323329,-0.41583526,457.5551
2019-12-04,0.29349023,0.49834564,-0.09789943,-0.034448616,0.0016488582,-0.030776162,-0.015375875,0.15327439,-0.019693315,0.08979665,0.32900572,-0.40915763,264.17026
2019-12-05,0.29808903,0.49307486,-0.09347662,-0.017679274,0.00089547783,-0.03311526,-0.028026804,0.16007318,-0.02049499,0.09792151,0.34945285,-0.4062131,215.87978
2019-12-06,0.2825766,0.49861023,-0.08857365,-0.01883182,-0.005998455,-0.04401134,-0.020946164,0.16019122,-0.007629283,0.09669441,0.34830046,-0.39414826,913.5206
2019-12-09,0.2830512,0.5104401,-0.08603184,-0.013532259,-0.008179247,-0.05077082,-0.008867718,0.15660028,-0.006893389,0.103220865,0.3562746,-0.3949178,164.05196
2019-12-10,0.2782232,0.517059,-0.07427965,-0.013804123,-0.006665051,-0.057061315,-0.005844813,0.1639081,-0.004917726,0.10521914,0.36289966,-0.39509124,120.82939
2019-12-11,0.27417433,0.513257,-0.07259947,-0.010877863,-0.0071227252,-0.059327707,-0.008470889,0.16288528,0.0001912862,0.10259541,0.36724478,-0.3908867,190.6885
2019-12-12,0.2913293,0.5120142,-0.06492154,-0.016538054,-0.000105798244,-0.06135451,-0.0146384835,0.17278731,-0.0059718005,0.11237778,0.37586802,-0.40281925,3486.7827
2019-12-13,0.29341337,0.508109,-0.05962899,-0.0061251223,0.003732361,-0.060148314,-0.014323927,0.16626626,-0.017242692,0.121686116,0.37758434,-0.40697664,3906.7998
2019-12-16,0.29452664,0.4992251,-0.06294502,-0.008617729,0.0064796135,-0.07154828,-0.0004966371,0.16230094,-0.0073055476,0.11111286,0.3594274,-0.40109655,312.43442
2019-12-17,0.29352167,0.4887686,-0.055096913,0.00207749,0.017581053,-0.07645811,0.0031538121,0.16565683,-0.02039317,0.11983255,0.36464357,-0.3973777,1243.6757
2019-12-18,0.294973,0.4966383,-0.047559474,0.008838117,0.01629243,-0.07841214,0.008831505,0.1712864,-0.012767114,0.13729662,0.37537783,-0.38905415,591.52484
2019-12-19,0.29204422,0.4853639,-0.03859776,0.024003893,0.011264235,-0.076988384,0.0016230196,0.17876866,-0.020659946,0.14733753,0.37970734,-0.37707534,385.7371
2019-12-20,0.29346204,0.48832256,-0.0396621,0.011667922,0.0110387765,-0.081607714,0.008197181,0.17267646,-0.02260001,0.14366235,0.36958128,-0.38076556,487.24127
2019-12-23,0.29438818,0.49601305,-0.03750891,0.019697215,0.009295773,-0.07634419,0.0159362,0.17048424,-0.018675864,0.15256973,0.37457228,-0.37478918,220.538
2019-12-24,0.31247827,0.50124985,-0.042094056,0.014112182,0.007493954,-0.06906062,0.011510838,0.16240156,-0.02521471,0.16900694,0.37736338,-0.37871146,156.79076
2019-12-26,0.3130056,0.50972384,-0.05340073,-0.0014210641,0.0042191446,-0.06394982,0.022002857,0.14695162,-0.024557494,0.16739593,0.37044203,-0.3833996,297.1836
2019-12-27,0.31088004,0.45325214,-0.037231255,-0.0053161383,0.035598144,-0.050311763,-0.016786948,0.14941025,-0.04839091,0.18141189,0.3706537,-0.3822638,1364.9335
2019-12-30,0.3178175,0.4521674,-0.042211864,-0.011526205,0.032880478,-0.03952132,-0.02535225,0.14578648,-0.05060573,0.18485355,0.37449998,-0.38953125,224.60709
