Date,ADBE,AMZN,AVGO,CAT,COST,JPM,LLY,MA,MSFT,NVDA,UNH,XOM,total
2021-01-04,0.35252893,0.083007164,0.09597106,0.09372413,0.4355625,0.18070568,0.27588597,0.24901682,0.50427455,0.020016916,-0.06371093,-0.64083546,0.0
2021-01-05,0.30446035,0.047266856,0.097587444,0.0732784,0.39264235,0.15291557,0.23908879,0.23314396,0.4448099,-0.008558571,-0.073703066,-0.64575654,296.1362
2021-01-06,0.35306814,0.086163305,0.13668577,0.13357571,0.41778767,0.18457167,0.27960682,0.22953707,0.5136104,0.03405609,-0.05740069,-0.5990894,808.9374
2021-01-07,0.32669702,0.09322986,0.09243114,0.13693228,0.3342465,0.18973461,0.26215315,0.13892314,0.45773634,0.027534686,-0.007483132,-0.42556527,265.02832
2021-01-08,0.37900206,0.11332908,0.109055206,0.16559356,0.4166684,0.21549882,0.32139415,0.1849468,0.55428314,0.038480245,-0.0072173066,-0.506947,253.96983
2021-01-11,0.37662977,0.08616218,0.12787057,0.13683262,0.37455803,0.19913432,0.28627786,0.20069316,0.5142716,0.044925377,-0.033139933,-0.51174414,480.44678
2021-01-12,0.3505098,0.08741367,0.08627557,0.12624738,0.38055152,0.18056178,0.2740916,0.18308572,0.47955072,-0.010052621,-0.015295319,-0.5082645,256.2634
2021-01-13,0.3829804,0.099029854,0.12330644,0.14028895,0.38371602,0.19074894,0.29437232,0.20134184,0.5247957,0.021255292,-0.024470888,-0.52284163,484.17316
2021-01-14,0.3968072,0.10660191,0.10498183,0.13628092,0.4376189,0.20373122,0.3137228,0.23307964,0.5639242,0.036880612,-0.02504972,-0.58001715,166.43419
2021-01-15,0.38050085,0.09562446,0.09442708,0.11680687,0.4113486,0.19271834,0.29622045,0.21147272,0.5262272,0.00501018,-0.017739397,-0.55760866,191.15482
2021-01-19,0.36864722,0.074912064,0.068096824,0.07284995,0.4345636,0.18362851,0.28830144,0.24301797,0.5288926,0.0095302835,-0.030228868,-0.6367411,293.5639
2021-01-20,0.3361511,0.07968833,0.056959875,0.096215405,0.4324023,0.17623425,0.2859676,0.2310077,0.51584977,-0.003962852,-0.020145394,-0.6129018,255.04332
2021-01-21,0.30988324,0.06628298,0.06068556,0.07572421,0.43527865,0.1709561,0.2668475,0.25344083,0.50087875,0.026994385,-0.045864612,-0.6597758,991.9357
2021-01-22,0.29374066,0.03168221,0.055843137,0.049534105,0.4208975,0.15960068,0.24773069,0.2430191,0.4583288,-0.0107559785,-0.06459803,-0.6841742,314.0821
2021-01-25,0.2808656,0.021608356,0.058934137,0.040038846,0.4181291,0.15602739,0.24231459,0.2270388,0.44112313,-0.012566961,-0.055102907,-0.67637753,108.97198
2021-01-26,0.2363272,0.0011398494,0.022192318,-0.0012374073,0.39446533,0.11851376,0.20422645,0.23899576,0.38646105,-0.041697793,-0.07531586,-0.71437734,613.2011
2021-01-27,0.2266658,-0.0007069856,0.02011817,-0.008190624,0.38998798,0.116772994,0.19078602,0.23554265,0.37168512,-0.025926888,-0.08252418,-0.71771175,799.68976
2021-01-28,0.15635476,-0.060770255,-0.0063862363,-0.057284094,0.31125587,0.07985051,0.11758733,0.1938051,0.25363323,-0.05351513,-0.09657444,-0.6953349,9524.041
2021-01-29,0.21074487,-0.0029843785,0.012502491,0.009632401,0.38904732,0.11929192,0.1938939,0.21860963,0.3729191,-0.01756838,-0.06604014,-0.6985133,840.8185
2021-02-01,0.18831041,-0.039410092,-0.003933088,-0.054854877,0.38291046,0.09162027,0.16403306,0.2310682,0.32484555,-0.064483225,-0.09206602,-0.7805249,2409.089
2021-02-02,0.21649198,0.004373554,0.018951014,0.026884653,0.39899462,0.123329125,0.21126367,0.21581629,0.3972857,-0.007361248,-0.062372927,-0.6832652,1086.7094
2021-02-03,0.27298462,0.043928854,0.07918359,0.081690826,0.4149013,0.15430535,0.24556755,0.22683245,0.45775536,0.022118472,-0.049113072,-0.64897054,1944.6204
2021-02-04,0.28003773,0.04181157,0.10216008,0.07499912,0.40847397,0.14377601,0.24240424,0.23016158,0.44681105,8.339062e-05,-0.058841363,-0.67361194,181.35918
2021-02-05,0.30115318,0.062091142,0.113048404,0.097827576,0.42383954,0.15746617,0.26062778,0.2205128,0.47620723,0.015848756,-0.04687561,-0.6442224,19058.85
2021-02-08,0.29966572,0.05465877,0.12772688,0.10220548,0.40645814,0.15868607,0.2530357,0.21805283,0.46135724,0.016643815,-0.055415623,-0.63861704,66.05106
2021-02-09,0.33123767,0.07637874,0.14468393,0.13830352,0.42144638,0.1744193,0.28486496,0.20797718,0.5002424,0.014277987,-0.03970715,-0.5823124,189.47632
2021-02-10,0.29924467,0.054000854,0.13430282,0.11665922,0.39874074,0.16032237,0.25365773,0.18614596,0.44109327,-0.016539704,-0.04490656,-0.5892408,338.6527
2021-02-11,0.3019971,0.049440786,0.12000421,0.10981091,0.4135466,0.15913582,0.25809467,0.18528883,0.43722805,-0.022231642,-0.04993666,-0.601906,81.18477
2021-02-12,0.28785697,0.054530643,0.12562686,0.12383772,0.41244185,0.16500095,0.26521015,0.1725753,0.44776538,-0.029273432,-0.041819364,-0.59762466,97.05831
2021-02-16,0.29335788,0.05451183,0.11692617,0.12700053,0.38870797,0.16934343,0.25610936,0.17021647,0.43618593,-0.026126906,-0.04484055,-0.57184553,49.482727
2021-02-17,0.29113716,0.04920499,0.12900716,0.12940705,0.36019784,0.17156991,0.25023878,0.15223157,0.42104962,-0.026394822,-0.04350172,-0.5255005,59.812534
2021-02-18,0.28659767,0.03072317,0.1375004,0.10594434,0.3519635,0.1532323,0.23068908,0.1737592,0.41294593,-0.006019272,-0.06390858,-0.5572547,230.83559
2021-02-19,0.28907335,0.03966163,0.13260034,0.10152037,0.37222758,0.15953472,0.24076878,0.17136982,0.42395398,-0.014054157,-0.06170521,-0.58438146,197.77907
2021-02-22,0.32233432,0.049028866,0.11369229,0.10304469,0.3913362,0.17862715,0.2647886,0.17634824,0.45750293,-0.0070560426,-0.044646863,-0.5757252,167.70082
2021-02-23,0.33008307,0.03588014,0.11709815,0.07508984,0.34906024,0.16513862,0.24111794,0.1720146,0.4296567,0.0019567162,-0.04741274,-0.5501049,233.56065
2021-02-24,0.34068182,0.05869639,0.13268663,0.10623293,0.36446702,0.16990173,0.25677404,0.19183561,0.46824902,0.02245655,-0.03953294,-0.54333514,1221.3994
2021-02-25,0.32774895,0.071837015,0.14146267,0.15466958,0.34740463,0.18105824,0.27117297,0.17388672,0.48397776,0.019828878,-0.029303517,-0.4886949,155.59676
2021-02-26,0.23172519,0.0071314275,0.10616396,0.071600884,0.25819767,0.11714736,0.17652315,0.13662621,0.32807496,-0.046622198,-0.04215663,-0.49164948,727.14124
2021-03-01,0.21828339,0.0026931018,0.10057664,0.08427782,0.30837733,0.11580001,0.19749881,0.17250124,0.3786706,-0.024101779,-0.050397493,-0.5543387,245.75505
2021-03-02,0.27694678,0.04794298,0.09835652,0.14156061,0.3400991,0.16589221,0.24918313,0.17863248,0.44954613,-0.0022312365,-0.02887342,-0.5098081,2020.7347
2021-03-03,0.22337711,0.0048245266,0.0989622,0.08625069,0.29474843,0.11843313,0.19515164,0.16988184,0.35357043,-0.068244904,-0.05605108,-0.5571451,3300.868
2021-03-04,0.23522025,0.0039205104,0.07347076,0.0346675,0.28733668,0.10898945,0.17460807,0.18617046,0.33220124,-0.06854652,-0.05717548,-0.58087885,152.96002
2021-03-05,0.16506311,-0.021702051,0.07060456,0.034276955,0.26093888,0.08062574,0.13919245,0.18256372,0.28069428,-0.08613725,-0.068984926,-0.60188067,811.27454
2021-03-08,0.15996933,-0.0111571215,0.0878935,0.07557577,0.24818815,0.08959052,0.14430787,0.16563654,0.29105765,-0.07776284,-0.053024717,-0.54030573,272.3811
2021-03-09,0.162816,-0.014327452,0.07753533,0.060875412,0.21335077,0.07611968,0.1291503,0.14679845,0.2563058,-0.09040778,-0.055950973,-0.4974037,154.04007
2021-03-10,0.16717088,0.005841881,0.08788269,0.10369613,0.27697647,0.09570657,0.17465909,0.1595962,0.3310702,-0.07004793,-0.05805383,-0.53353053,389.35596
2021-03-11,0.19839767,0.015431523,0.1057099,0.093291715,0.29563168,0.10273497,0.17852058,0.18543582,0.34232083,-0.07225091,-0.06173574,-0.573836,266.0721
2021-03-12,0.19383934,0.020635158,0.09127985,0.10395651,0.31532714,0.11606394,0.19201307,0.1923419,0.36160925,-0.055832498,-0.06702398,-0.5925945,132.2128
2021-03-15,0.20962295,0.025250494,0.08215554,0.10586961,0.3122496,0.1271842,0.19982491,0.18840487,0.36318094,-0.06742445,-0.056157652,-0.57093894,100.081276
2021-03-16,0.1887355,0.014679402,0.12189306,0.11970719,0.26686865,0.10725656,0.18861066,0.12655112,0.33288625,-0.071379244,-0.0442497,-0.49043918,231.42343
2021-03-17,0.1820541,0.0054902136,0.09817155,0.11288013,0.31228977,0.11899498,0.21342652,0.15048802,0.3555452,-0.097688764,-0.05277387,-0.557105,227.86212
2021-03-18,0.1987976,0.005264893,0.11253435,0.100800954,0.3164014,0.11615038,0.21030281,0.16775656,0.365926,-0.08967833,-0.05731845,-0.5731513,77.889336
2021-03-19,0.18566817,-0.0017491542,0.05184007,0.04191201,0.3137346,0.10063297,0.19039543,0.14908487,0.31677034,-0.13584867,-0.04006322,-0.58383346,383.86682
2021-03-22,0.19446436,-0.0027733594,0.08648088,0.07442265,0.33457488,0.100250825,0.20212816,0.1909375,0.37442487,-0.09615779,-0.05840402,-0.6129905,347.13226
2021-03-23,0.1687186,-0.015922934,0.079071224,0.080031104,0.32166225,0.10472955,0.19593336,0.17630172,0.35142264,-0.082059406,-0.063926354,-0.59622586,555.5344
2021-03-24,0.12814005,-0.04887846,0.04653953,0.029489204,0.28850186,0.075155795,0.14292358,0.18590386,0.2758676,-0.09684667,-0.09364024,-0.63663745,499.14307
2021-03-25,0.15922412,-0.03829074,0.055676587,0.030724317,0.32210496,0.08510859,0.16492444,0.20943063,0.3143993,-0.09837789,-0.086873814,-0.6793984,152.1708
2021-03-26,0.18019053,-0.004044704,0.054174863,0.050481252,0.34767592,0.0988307,0.18442172,0.23406851,0.36094025,-0.06618048,-0.081207715,-0.68247736,271.76062
2021-03-29,0.2223466,0.049360402,0.07519771,0.1313881,0.38837054,0.13784344,0.24565205,0.21634147,0.4409378,-0.021826994,-0.06006399,-0.621385,1758.9678
2021-03-30,0.18636933,0.010286868,0.06610513,0.0833705,0.35245055,0.11650346,0.19677208,0.2275328,0.3651542,-0.04515678,-0.08422063,-0.657856,363.939
2021-03-31,0.21026784,0.022212379,0.07939909,0.096837915,0.35556602,0.111374386,0.19552617,0.21926388,0.35632202,-0.07084818,-0.07293862,-0.63886446,250.16573
2021-04-01,0.2061302,0.018910393,0.10718667,0.103852205,0.35887384,0.11943494,0.20043953,0.22960639,0.3834808,-0.02083087,-0.086850315,-0.6440387,172.57437
2021-04-05,0.24154486,0.041387096,0.13250944,0.13574556,0.37543595,0.14253953,0.22827755,0.21465856,0.42255327,0.0142272785,-0.070943534,-0.59834373,438.63177
2021-04-06,0.23769829,0.040059313,0.129288,0.15727946,0.3554063,0.1385656,0.22133604,0.19062044,0.3978731,-0.017775483,-0.064419284,-0.5458419,294.20844
2021-04-07,0.22534999,0.0063785017,0.13100797,0.11636267,0.33680144,0.12339473,0.1910431,0.19645506,0.34069034,-0.042709522,-0.087847695,-0.5879927,348.28357
2021-04-08,0.23848635,0.008749213,0.13823295,0.103748225,0.32538694,0.1269365,0.18572018,0.19082853,0.34270135,-0.019478686,-0.092066646,-0.57120484,133.90231
2021-04-09,0.22646546,-0.0083406195,0.13504258,0.055754066,0.30898213,0.10884748,0.16205779,0.19642997,0.32092127,-0.005129136,-0.106493324,-0.5927126,383.3654
2021-04-12,0.22137395,-0.010206398,0.12220892,0.06809863,0.29757196,0.11306268,0.15593313,0.17553876,0.29428974,-0.03909592,-0.101009384,-0.56513745,758.57513
2021-04-13,0.19576435,-0.041184355,0.099360704,0.033451088,0.26393098,0.093345284,0.12772015,0.14979416,0.24001479,-0.07537228,-0.09996638,-0.53797114,563.23206
2021-04-14,0.21171775,-0.02329015,0.10977902,0.049264506,0.32111964,0.10981748,0.16466807,0.1804725,0.2986551,-0.060969155,-0.10127872,-0.60190076,254.8181
2021-04-15,0.213869,-0.030414492,0.09688184,0.040489145,0.329733,0.11783536,0.17282273,0.19367114,0.31340608,-0.0517117,-0.10555495,-0.63273466,112.88358
2021-04-16,0.19942437,-0.011827089,0.10103896,0.048215166,0.323076,0.11611566,0.16771221,0.19025657,0.3240558,-0.014490575,-0.09509532,-0.6027729,189.4594
2021-04-19,0.21322395,-0.016514972,0.09773351,0.056681715,0.33548918,0.12408292,0.174019,0.19723693,0.32070494,-0.039072692,-0.1067539,-0.62847877,272.72162
2021-04-20,0.2006498,-0.04144197,0.07524007,0.019255929,0.30712062,0.1109681,0.15357623,0.1880757,0.28489286,-0.046250068,-0.12032163,-0.63137347,323.99936
2021-04-21,0.19109195,-0.03765118,0.051502418,-0.012356035,0.35780054,0.10590858,0.15679304,0.23282468,0.3161579,-0.03451717,-0.12053509,-0.73469746,309.4611
2021-04-22,0.22842771,-0.006472096,0.092825845,0.051673897,0.37329757,0.13383272,0.20009933,0.22732994,0.38384867,0.0031736195,-0.107151166,-0.67947394,910.6946
2021-04-23,0.1908992,-0.05309794,0.07151374,-0.0060647726,0.32838684,0.100131124,0.1576692,0.21154428,0.31565228,-0.025784094,-0.12535007,-0.6905501,1885.7311
2021-04-26,0.2470932,-0.0028686225,0.08840974,0.043694325,0.38509053,0.13909113,0.21279933,0.23572668,0.40884787,0.01727432,-0.10203992,-0.68136966,1287.141
2021-04-27,0.23222764,-0.016102191,0.08868613,0.037423372,0.36409461,0.13130414,0.20744278,0.20622456,0.3813819,-0.011190809,-0.10167825,-0.65320003,684.0748
2021-04-28,0.26075554,-0.011213854,0.09691398,0.0228417,0.37481925,0.14130509,0.21639305,0.22996312,0.4068732,0.008716099,-0.10226685,-0.6833652,307.03915
2021-04-29,0.27757317,-0.011340488,0.08981573,0.011029661,0.36923486,0.14446515,0.21358328,0.22625381,0.4015228,0.015188508,-0.0953666,-0.6638451,158.4303
2021-04-30,0.2661236,0.0016377568,0.07287784,0.016612299,0.389584,0.13213368,0.21690787,0.2274029,0.41107097,-0.011517003,-0.09311868,-0.67915,387.0191
2021-05-03,0.250553,-0.018501952,0.074434474,-0.0010635108,0.37268862,0.11667441,0.2021928,0.2142542,0.37956128,-0.033251494,-0.09887482,-0.6836672,1575.9329
2021-05-04,0.25819042,-0.0011864379,0.07740982,0.022442497,0.37981504,0.11875612,0.20010714,0.24975002,0.39788136,-0.018809192,-0.09768143,-0.69920623,2383.8955
2021-05-05,0.2874715,0.024774551,0.08954032,0.057726175,0.40337577,0.13584,0.23621808,0.22652,0.43490618,-0.022359744,-0.07625164,-0.66079545,2475.9255
2021-05-06,0.32934844,0.06277274,0.11122556,0.09845688,0.41363248,0.16389465,0.26480436,0.23983595,0.4983699,0.027930923,-0.055750348,-0.6246206,575.7652
2021-05-07,0.32260156,0.08076964,0.11329201,0.124189764,0.4056587,0.16468614,0.26659468,0.23980439,0.5044727,0.039810658,-0.061107676,-0.6030302,118.63565
2021-05-10,0.34910887,0.09961259,0.1295735,0.15468374,0.43030486,0.190554,0.29909986,0.23220456,0.5410051,0.04240226,-0.049986035,-0.59386706,141.08755
2021-05-11,0.3314757,0.07841265,0.08606234,0.0982916,0.4111388,0.17376718,0.27226707,0.22242856,0.48034644,-0.006077498,-0.044736754,-0.61631024,262.64062
2021-05-12,0.25979608,0.034209877,0.12192851,0.09085151,0.38114065,0.14279592,0.22797357,0.20546556,0.42629167,-0.027980372,-0.05981591,-0.6412076,585.6473
2021-05-13,0.2579525,0.029663064,0.08185914,0.06300409,0.38802344,0.13454258,0.2253359,0.2118257,0.41465765,-0.05046829,-0.053556304,-0.6713958,187.62555
2021-05-14,0.30544618,0.08961876,0.10682048,0.14219952,0.41995806,0.16594699,0.2760075,0.22462577,0.51086,0.008228481,-0.023177546,-0.6004275,643.62555
2021-05-17,0.32336503,0.1131617,0.117676005,0.17180142,0.45056078,0.185111,0.30696583,0.21401387,0.5391482,0.011017434,-0.0180872,-0.59117025,160.82767
2021-05-18,0.3383193,0.095257044,0.11105929,0.14499506,0.4475722,0.1873978,0.30074957,0.22041965,0.5191701,-0.011248365,-0.026931416,-0.6199789,308.16193
2021-05-19,0.3019685,0.057903223,0.100269854,0.10173795,0.43569064,0.16118664,0.26286367,0.24326655,0.48131981,-0.024287805,-0.055197254,-0.69408214,369.23166
2021-05-20,0.29944208,0.06980638,0.07718049,0.10132765,0.47015572,0.16765566,0.2819545,0.24196038,0.50192666,-0.031512156,-0.041989177,-0.7094697,124.719444
2021-05-21,0.27387553,0.069544755,0.07937203,0.12053525,0.4412245,0.15922947,0.2698768,0.2239024,0.47934672,-0.034438364,-0.039442457,-0.65466976,81.208336
2021-05-24,0.29826844,0.0696144,0.06474689,0.10293176,0.4687998,0.16774791,0.28348663,0.23082983,0.48461246,-0.062129892,-0.040156007,-0.699589,151.9516
2021-05-25,0.31791067,0.094045594,0.1064568,0.14532146,0.45849448,0.17888334,0.2928865,0.21465188,0.5022075,-0.03176555,-0.024124287,-0.6221107,269.9451
2021-05-26,0.27253318,0.05112788,0.08561142,0.09915478,0.4322877,0.15316314,0.24894492,0.20411271,0.42758814,-0.06900503,-0.040959593,-0.6482487,357.34305
2021-05-27,0.3034959,0.057903394,0.0830638,0.08794894,0.45167077,0.16534236,0.2602596,0.24288267,0.46047175,-0.0461761,-0.050430153,-0.6898949,145.18501
2021-05-28,0.31387264,0.07087839,0.11321153,0.12169026,0.41605914,0.16148189,0.26633185,0.21890026,0.4732698,-0.040880434,-0.043266356,-0.6155,162.1495
2021-06-01,0.30050573,0.07883122,0.081102334,0.14230019,0.4235819,0.17488992,0.28316987,0.1718885,0.4540276,-0.07230786,-0.012338717,-0.56511813,259.2971
2021-06-02,0.31890413,0.090741605,0.11103299,0.15067765,0.4198241,0.18151338,0.29016867,0.17389858,0.47492903,-0.066263966,-0.017059937,-0.569655,124.366936
2021-06-03,0.3419931,0.10882448,0.12920216,0.17579475,0.4488603,0.19261654,0.31048453,0.19502509,0.52733684,-0.02366501,-0.01216105,-0.5696589,196.4226
2021-06-04,0.32934353,0.10104808,0.09449121,0.1474888,0.44678605,0.18405643,0.2898236,0.20934469,0.49159393,-0.05633813,-0.014392611,-0.61075026,243.1215
2021-06-07,0.3141528,0.10449602,0.13041429,0.18213788,0.4165803,0.18446945,0.2909362,0.1821158,0.49105838,-0.028799884,-0.017078042,-0.55110925,167.32318
2021-06-08,0.30283335,0.09876789,0.06311983,0.12443032,0.41920605,0.17358832,0.26042166,0.18641758,0.44229355,-0.04089863,-0.01478059,-0.57696724,181.83316
2021-06-09,0.3371427,0.08700071,0.09391363,0.12531094,0.45532024,0.18870951,0.28691354,0.22093862,0.4979022,-0.011148304,-0.035104323,-0.6347768,351.59088
2021-06-10,0.27321962,0.046762705,0.038517237,0.054618828,0.44053063,0.15590581,0.23642926,0.23603025,0.425679,-0.026155017,-0.062335644,-0.7036051,463.19885
2021-06-11,0.21350685,0.023822695,0.008482208,0.03798686,0.3905689,0.13153782,0.19115366,0.21885568,0.35202864,-0.03721904,-0.070370115,-0.6764889,309.08447
2021-06-14,0.18454218,-0.0014863238,-0.010156888,0.01012639,0.37103677,0.116523996,0.17220171,0.18713766,0.2987978,-0.08339987,-0.07711993,-0.68528473,603.8051
2021-06-15,0.1671088,-0.019687865,-0.007926199,0.0010553338,0.33903432,0.10828106,0.14906727,0.18953411,0.27401006,-0.06366286,-0.08691743,-0.6590231,1424.501
2021-06-16,0.17586884,-0.017592486,-0.014115495,-0.0033025146,0.36552006,0.11240131,0.16509454,0.20178935,0.2891317,-0.08427103,-0.08593511,-0.69987863,580.9612
2021-06-17,0.1923524,-0.026909761,0.0058209198,-0.020963289,0.3485427,0.10776632,0.15068042,0.20983753,0.29172334,-0.05002678,-0.093326434,-0.6942359,810.7667
2021-06-18,0.14650613,-0.032830425,0.0060100043,-0.009406451,0.31654322,0.09212853,0.13610934,0.1704107,0.2619102,-0.054260567,-0.08054243,-0.6242955,198.82024
2021-06-21,0.13735247,-0.055560943,0.015675023,-0.012495767,0.29268023,0.08614887,0.115025535,0.16651422,0.2227412,-0.087914325,-0.09453547,-0.6425611,398.22513
2021-06-22,0.16592811,-0.006791737,0.032073624,0.045425035,0.33944267,0.11595518,0.16236253,0.18101445,0.30363873,-0.048527967,-0.07308656,-0.6219533,884.17346
2021-06-23,0.17831978,-0.005228348,0.050220653,0.049312234,0.36321253,0.11839372,0.17519619,0.19551547,0.31988695,-0.0382665,-0.08321662,-0.65164316,165.77533
2021-06-24,0.1967625,-0.00273858,0.08056214,0.06479284,0.3656458,0.12492259,0.18471292,0.19343944,0.3360439,-0.036497988,-0.08277126,-0.6465086,173.4463
2021-06-25,0.25037527,0.04883583,0.09299609,0.12087383,0.40886688,0.15159638,0.22788563,0.21722934,0.41455266,-0.009032451,-0.05248065,-0.61341333,2221.6628
2021-06-28,0.23786162,0.035325542,0.09105213,0.10326802,0.38478857,0.14090586,0.20775072,0.21336535,0.37717822,-0.0302772,-0.07137763,-0.62607723,355.1661
2021-06-29,0.24128658,0.061089545,0.1280102,0.13895759,0.39610398,0.13744587,0.23082237,0.18815994,0.4072434,-0.027783737,-0.051914018,-0.57843894,228.92209
2021-06-30,0.26440185,0.06824729,0.14170611,0.16713631,0.40645814,0.15468527,0.2455973,0.19916889,0.43212447,-0.01884313,-0.05065584,-0.5729053,121.35222
2021-07-01,0.27677482,0.07506839,0.1511365,0.18033674,0.39842027,0.15816775,0.2580424,0.1834909,0.4400861,-0.0346036,-0.042154346,-0.5405451,154.3092
2021-07-02,0.2752316,0.06179431,0.11743215,0.15358287,0.38425237,0.16245133,0.24880174,0.18975763,0.4289243,-0.021327384,-0.052425202,-0.5436196,134.47343
2021-07-06,0.27622744,0.06417457,0.13221307,0.15341091,0.37611622,0.15753081,0.23823757,0.18814164,0.42189166,0.002904348,-0.053759184,-0.52712154,147.99333
2021-07-07,0.232351,0.017283052,0.11365336,0.110916674,0.33265767,0.13220872,0.19537449,0.16030058,0.3448519,-0.029762521,-0.063245125,-0.510793,1354.8698
2021-07-08,0.23217851,0.021778956,0.13133147,0.10065565,0.3314765,0.12289264,0.19267206,0.17664519,0.35240844,-0.020051371,-0.0758512,-0.540545,130.4509
2021-07-09,0.2100123,-0.004024945,0.1280025,0.07539763,0.336057,0.1130158,0.17509304,0.18444024,0.3289442,-0.039684568,-0.084262766,-0.582834,302.09738
2021-07-12,0.29803574,0.08129501,0.13359107,0.17069861,0.38368446,0.17513612,0.25086394,0.20209695,0.45253712,0.021447636,-0.05200375,-0.52087814,2654.9749
2021-07-13,0.2827016,0.06626549,0.12932704,0.15756437,0.37097025,0.1619471,0.25071988,0.18331943,0.43675572,-0.009743903,-0.056075186,-0.5147478,212.63664
2021-07-14,0.25531977,0.03935726,0.14048369,0.1224597,0.37028208,0.14416611,0.22356455,0.19611575,0.4055226,-0.01999696,-0.073411554,-0.5761061,265.38797
2021-07-15,0.25686854,0.034972347,0.1519808,0.11535961,0.3549379,0.13424715,0.21435781,0.2010622,0.39677683,-0.016199555,-0.07678144,-0.5656697,70.942764
2021-07-16,0.25508308,0.028380714,0.14071877,0.10763736,0.3340286,0.13668528,0.21339647,0.1781365,0.38602337,-0.014650013,-0.068541005,-0.53138536,82.27405
2021-07-19,0.22086565,0.0041456744,0.14221075,0.08299701,0.34349537,0.12407575,0.20236959,0.19461071,0.37744927,-0.024510108,-0.08525567,-0.6013928,256.32022
2021-07-20,0.14962277,-0.040459704,0.100869775,0.020948,0.288966,0.080287084,0.13205953,0.17066225,0.278857,-0.063962564,-0.08087687,-0.59770167,1503.0873
2021-07-21,0.23517734,0.029929534,0.13246396,0.12342173,0.37135255,0.14728522,0.22785302,0.20925146,0.4272695,-0.009819366,-0.06145859,-0.5940667,1121.2534
2021-07-22,0.26172364,0.054717995,0.13860789,0.15264142,0.38019454,0.16802564,0.25286022,0.19635808,0.45624632,0.0038718358,-0.048307303,-0.5526154,330.61166
2021-07-23,0.25054628,0.04003878,0.1600968,0.12975922,0.3729679,0.15308055,0.22905178,0.21590066,0.43016896,0.0147153735,-0.061733615,-0.5832192,410.86444
2021-07-26,0.26707497,0.05197049,0.1467764,0.15259379,0.37658888,0.1637232,0.2437365,0.21071082,0.4478062,0.01997172,-0.053457685,-0.5481827,138.28687
2021-07-27,0.27686283,0.05064398,0.18836299,0.17446744,0.35414633,0.16403669,0.24332674,0.19357753,0.4384615,0.014819801,-0.05863089,-0.51669127,106.640076
2021-07-28,0.27539504,0.051383257,0.1728828,0.15620047,0.36920983,0.15200114,0.24405617,0.20379028,0.43960115,-0.00613543,-0.05399074,-0.54399234,192.70262
2021-07-29,0.30845737,0.089032814,0.18761338,0.21940884,0.4031562,0.18741016,0.29176405,0.18991767,0.49993303,0.008283734,-0.030960742,-0.501713,492.27548
2021-07-30,0.3276972,0.11136806,0.18839544,0.26143292,0.38682842,0.20281507,0.31689864,0.16778344,0.5263682,0.019174434,-0.019618224,-0.42526856,272.06384
2021-08-02,0.30194056,0.095128655,0.16426718,0.20510265,0.40120643,0.17379442,0.29226837,0.19647527,0.50177413,-0.008742001,-0.029003527,-0.5088696,317.45673
2021-08-03,0.30640316,0.107602045,0.16042742,0.20933166,0.41160387,0.17875406,0.30572957,0.21293128,0.5303809,0.015016921,-0.03270454,-0.522293,330.29474
2021-08-04,0.33364284,0.14447333,0.1562709,0.24662572,0.42477036,0.19496699,0.32788667,0.21137914,0.5631715,0.020872526,-0.011647008,-0.48168898,201.14539
2021-08-05,0.30521262,0.105902284,0.15914199,0.20861039,0.4006198,0.1835421,0.3062127,0.1963481,0.5183666,0.007258028,-0.030031994,-0.4889802,310.28485
2021-08-06,0.27410275,0.11014481,0.17095162,0.22143641,0.36127,0.17168106,0.2810541,0.17117321,0.48181495,0.0011461005,-0.028625768,-0.4461251,169.79732
2021-08-09,0.30515426,0.12434855,0.15638155,0.23092663,0.36482346,0.18625425,0.302141,0.15541649,0.49689853,-0.017317638,-0.013998248,-0.4139902,1735.6509
2021-08-10,0.31927603,0.12807249,0.1626382,0.21835512,0.39469156,0.18706428,0.3155106,0.18106446,0.53157437,-0.007274255,-0.012885077,-0.46769306,132.51471
2021-08-11,0.36446288,0.15031902,0.1647104,0.22646323,0.41721866,0.21005717,0.34073317,0.20415989,0.58574224,0.04069618,-0.011126731,-0.48057202,761.30426
2021-08-12,0.3824248,0.16804494,0.18437795,0.25941324,0.4138975,0.22243485,0.36083326,0.19002289,0.61169267,0.06284082,0.0023024343,-0.44383115,249.90607
2021-08-13,0.38783956,0.17031294,0.17540485,0.2553466,0.43808466,0.23076174,0.37504876,0.19486135,0.6254517,0.057442278,-0.0031902771,-0.4665128,279.78464
2021-08-16,0.37282276,0.14707951,0.16598168,0.23024222,0.4329614,0.22139977,0.36009127,0.2020707,0.60612154,0.06628424,-0.014530484,-0.48553678,423.65436
2021-08-17,0.35749197,0.13715613,0.1509011,0.21407011,0.44324854,0.20991616,0.3510211,0.20866671,0.59183455,0.038751096,-0.015621748,-0.51104116,96.97268
2021-08-18,0.31735831,0.08803356,0.1260418,0.15535888,0.38386256,0.18276884,0.29869503,0.187884,0.5105141,0.028021373,-0.032131083,-0.50271326,290.87912
2021-08-19,0.27860075,0.05687978,0.1421878,0.12050476,0.37049845,0.15660666,0.26631552,0.20180926,0.47824898,0.016035758,-0.049278244,-0.568107,234.36118
2021-08-20,0.22830936,0.047353193,0.10078117,0.09348651,0.3845635,0.14327072,0.25157508,0.19887881,0.45629302,0.011548348,-0.04570318,-0.59559596,150.30913
2021-08-23,0.2501633,0.04714819,0.11713864,0.097960256,0.38536814,0.14458875,0.24925551,0.21271205,0.4535329,0.017686158,-0.059083343,-0.6003613,123.85796
2021-08-24,0.25540686,0.048252814,0.13901791,0.12251084,0.3909731,0.15276149,0.26427147,0.18890941,0.4607166,0.00010596216,-0.048546687,-0.5825676,194.28224
2021-08-25,0.27860942,0.06403052,0.14194089,0.14059713,0.40757257,0.17098533,0.2832139,0.19550067,0.48254952,-0.0038218014,-0.043105196,-0.58584416,3808.751
2021-08-26,0.31351662,0.0896537,0.16879253,0.1718595,0.41445684,0.18492314,0.3024274,0.19733801,0.5241949,0.014012277,-0.030573644,-0.55948937,620.1051
2021-08-27,0.28788254,0.07025044,0.15010294,0.13077635,0.41215023,0.16137694,0.2831483,0.18940718,0.4888198,-0.02045583,-0.03351451,-0.595314,357.23514
2021-08-30,0.28852454,0.086021386,0.14346497,0.16998869,0.40819985,0.16982716,0.2965062,0.17055415,0.49669948,-0.032785933,-0.015498385,-0.54044366,202.80728
2021-08-31,0.24844982,0.061908603,0.138326,0.15513474,0.40153855,0.15811652,0.28050604,0.15916304,0.45925587,-0.061440483,-0.021095896,-0.5449861,206.73819
2021-09-01,0.24719413,0.041206837,0.14108476,0.13432515,0.37991163,0.15476152,0.2771943,0.14258584,0.4430989,-0.07805134,-0.03122155,-0.5439354,147.20142
2021-09-02,0.25991976,0.040995546,0.138488,0.12616119,0.38940197,0.15761395,0.27907726,0.16686502,0.46319878,-0.051639758,-0.038961895,-0.5683206,103.277016
2021-09-03,0.28217214,0.04568079,0.13834594,0.11444591,0.38653594,0.15877253,0.27531448,0.19738361,0.4776999,-0.025530405,-0.050854236,-0.58120704,136.96892
2021-09-07,0.2566154,0.026043974,0.13523132,0.10646903,0.3713907,0.15137772,0.26072994,0.17987604,0.4448777,-0.046470486,-0.05564601,-0.5798032,182.56357
2021-09-08,0.25998914,0.01456058,0.1303715,0.08754407,0.35410818,0.14967522,0.25183594,0.16851619,0.43197653,-0.03721559,-0.060565423,-0.5700444,115.61979
2021-09-09,0.23966208,0.002794452,0.15246385,0.082060136,0.33981097,0.13536,0.2273127,0.18918484,0.41695142,-0.021149144,-0.07512596,-0.58855486,221.37871
2021-09-10,0.26440114,0.022032935,0.14773634,0.07623585,0.33986732,0.12547474,0.22364481,0.20328452,0.4207055,-0.016652312,-0.06955619,-0.59576285,756.161
2021-09-13,0.23348698,0.0015497766,0.121118024,0.067277946,0.35682762,0.1328196,0.2304504,0.18781388,0.4229688,-0.025794413,-0.06899284,-0.6147217,215.35335
2021-09-14,0.26526752,0.04052753,0.10221735,0.09664995,0.37214804,0.14387251,0.25991213,0.1927734,0.46826062,-0.010440782,-0.041451365,-0.57186097,2733.0933
2021-09-15,0.26057768,0.020601518,0.112806424,0.096260674,0.3840257,0.14808635,0.2683641,0.19154319,0.47194174,-0.013243061,-0.051736705,-0.58911455,127.163246
2021-09-16,0.2785097,0.060733855,0.109680116,0.14768475,0.3925806,0.16844441,0.28939968,0.18180251,0.4976458,-0.0063142106,-0.032850135,-0.5378506,389.75058
2021-09-17,0.28238067,0.055271596,0.1210251,0.11992908,0.40820244,0.16882193,0.29255682,0.19098333,0.5026137,-0.0021307394,-0.04241986,-0.5788783,153.8781
2021-09-20,0.25496936,0.018924333,0.08790752,0.06390979,0.3887574,0.13903104,0.25548702,0.19658281,0.4494523,-0.0493067,-0.048858467,-0.6188402,2434.2795
2021-09-21,0.15446009,-0.036196984,0.05567398,0.017604701,0.28143987,0.07422468,0.15266481,0.15324248,0.30052692,-0.06612213,-0.06085775,-0.56648266,676.5827
2021-09-22,0.2096054,0.008824069,0.066797614,0.057707526,0.38783807,0.11323491,0.23127192,0.21674496,0.4307932,-0.045379795,-0.056244127,-0.6647378,690.7885
2021-09-23,0.23580779,0.031370766,0.07954229,0.102706574,0.37872964,0.13196176,0.251011,0.1844167,0.45163274,-0.030544989,-0.039650213,-0.58598983,486.28635
2021-09-24,0.2787707,0.064856485,0.10750576,0.13916683,0.3563543,0.15811948,0.26082546,0.16800685,0.46386382,-0.015928596,-0.0246194,-0.50764483,335.993
2021-09-27,0.23930155,0.04876607,0.09046644,0.11912663,0.31217468,0.13058452,0.22623958,0.16145045,0.4118428,-0.025012016,-0.04137109,-0.4882709,256.29132
2021-09-28,0.23784465,0.034419343,0.07133498,0.083536476,0.2973389,0.1129711,0.20819984,0.15045202,0.38017884,-0.053252965,-0.03245324,-0.50993115,260.66806
2021-09-29,0.18134335,-0.016297814,0.027150176,0.02447097,0.2168071,0.077731505,0.13452111,0.10926309,0.24636525,-0.08723913,-0.04417866,-0.4702264,567.7295
2021-09-30,0.24638462,0.044322222,0.05945906,0.09398235,0.31495625,0.11792825,0.21572709,0.17858261,0.40733346,-0.028105881,-0.03508062,-0.5365847,1199.4934
2021-10-01,0.18819784,0.0008960143,0.071603954,0.06875769,0.26480842,0.08716904,0.1695599,0.14155439,0.31916216,-0.07638374,-0.047738157,-0.5264802,484.38226
2021-10-04,0.2377213,0.051408917,0.08719718,0.13263424,0.31492764,0.11491048,0.22187342,0.14711678,0.39965352,-0.04663745,-0.0293462,-0.50827825,5970.184
2021-10-05,0.17941998,0.009947889,0.06414977,0.0698593,0.2458736,0.07505869,0.15061955,0.1361761,0.2845906,-0.08145183,-0.045442194,-0.5098579,433.6935
2021-10-06,0.20100038,0.039777607,0.044917624,0.11100624,0.2968366,0.106817305,0.19820793,0.15816605,0.36790782,-0.055445515,-0.03590764,-0.5315319,597.98706
2021-10-07,0.19266044,0.01999845,0.07306137,0.10181003,0.2722066,0.09953984,0.18373495,0.1523039,0.33626467,-0.0726897,-0.05084045,-0.5334381,232.58038
2021-10-08,0.20939572,0.033782482,0.056992464,0.12660259,0.28714448,0.12924369,0.20715442,0.15037408,0.3648019,-0.061501175,-0.04437732,-0.5138244,213.56783
2021-10-11,0.22583853,0.03407921,0.0585192,0.119727194,0.30661935,0.13020378,0.21586454,0.15658349,0.36226746,-0.08933641,-0.04685156,-0.53670514,88.682365
2021-10-12,0.20331459,0.012178846,0.052808788,0.10023502,0.31632328,0.11681035,0.20599242,0.16811079,0.34941623,-0.107447654,-0.05140061,-0.58136904,167.51353
2021-10-13,0.19711071,0.010984577,0.06817612,0.10094826,0.31711102,0.11549168,0.20458822,0.16660152,0.34892264,-0.09483619,-0.04752566,-0.5827528,65.28167
2021-10-14,0.20556173,0.0147129,0.03536016,0.09249825,0.3657272,0.13351592,0.22196707,0.19805127,0.38575807,-0.06073363,-0.056607187,-0.6329618,227.28374
2021-10-15,0.2295525,0.050867632,0.043137323,0.1620194,0.3586198,0.16978334,0.2595436,0.13594165,0.412285,-0.052382104,-0.0206447,-0.5017517,536.84235
2021-10-18,0.2545005,0.040516116,0.09180914,0.1679753,0.33637196,0.16850787,0.25476414,0.1402455,0.41645637,-0.04893312,-0.029248158,-0.47930965,213.42912
2021-10-19,0.23579302,0.030669682,0.10974923,0.15980273,0.3164851,0.15063472,0.23634526,0.15111122,0.39179513,-0.046850964,-0.04877331,-0.48820224,166.34439
2021-10-20,0.26559657,0.058279254,0.11231658,0.18600953,0.3439454,0.16629271,0.25407976,0.17042074,0.42206714,-0.046737358,-0.0407379,-0.5019872,188.02176
2021-10-21,0.27974457,0.054990336,0.124002844,0.18817571,0.312033,0.1655921,0.24539608,0.16009572,0.39936838,-0.051608585,-0.039066475,-0.4637427,69.2375
2021-10-22,0.2737089,0.060751177,0.14140844,0.18837321,0.34509325,0.16245733,0.252527,0.17403722,0.42613828,-0.03110078,-0.04140724,-0.500425,111.21942
2021-10-25,0.28706676,0.056551106,0.14294095,0.1691359,0.3208602,0.14629541,0.24100235,0.17199709,0.40687785,-0.05088733,-0.036577504,-0.4693826,131.8042
2021-10-26,0.2880288,0.06715219,0.15004759,0.18910933,0.34044856,0.1550434,0.2560272,0.17692652,0.43364027,-0.042768575,-0.031405214,-0.47819838,95.59759
2021-10-27,0.25640616,0.052328184,0.12990594,0.16366294,0.3482291,0.1403355,0.24685144,0.17086832,0.4168746,-0.0624444,-0.032391794,-0.512644,138.92961
2021-10-28,0.18935211,-0.0039342344,0.11985694,0.08385051,0.30559936,0.08775051,0.16532683,0.18410811,0.30760399,-0.074705675,-0.0714744,-0.59070086,462.38846
2021-10-29,0.26974547,0.04334064,0.15876296,0.15807325,0.34540936,0.14304174,0.2287851,0.19409731,0.41135213,-0.0360476,-0.04715575,-0.53992856,1613.0039
2021-11-01,0.23797217,0.018162686,0.14051634,0.1291092,0.31872612,0.12858945,0.21075343,0.16488375,0.3660254,-0.05448746,-0.052157495,-0.522221,216.50912
2021-11-02,0.24164645,0.00027846545,0.160518,0.10560738,0.27251962,0.11705091,0.17734005,0.15859888,0.32982743,-0.036141567,-0.06787151,-0.49230427,255.00078
2021-11-03,0.27387235,0.025799133,0.1497027,0.12169945,0.34954214,0.13673991,0.21805592,0.19233444,0.4004881,-0.030504763,-0.052409045,-0.546344,9360.158
2021-11-04,0.27296925,0.028420776,0.13901451,0.097879626,0.35421067,0.13534172,0.20793137,0.20483345,0.39269853,-0.026966188,-0.05226469,-0.570457,68.93762
2021-11-05,0.19452968,-0.0025871322,0.12079188,0.08383395,0.32094616,0.10670598,0.18122354,0.17693636,0.33879834,-0.03985932,-0.058654822,-0.550783,299.52335
2021-11-08,0.22446977,-0.0132248625,0.14683211,0.09056738,0.29350746,0.10332501,0.1721775,0.17537378,0.3226893,-0.037622705,-0.070796944,-0.52569646,509.37354
2021-11-09,0.25819203,0.0254106,0.15384993,0.1380193,0.31568372,0.14374879,0.22190088,0.15055148,0.3694832,-0.03978859,-0.040018603,-0.47664294,527.1142
2021-11-10,0.24126558,-0.00026616454,0.13909726,0.0989665,0.3358981,0.12901413,0.20518686,0.19234806,0.36026186,-0.04921696,-0.06867133,-0.57053745,314.92514
2021-11-11,0.20436797,-0.027915098,0.1013329,0.054323323,0.3074705,0.10897994,0.16701174,0.1834664,0.3042004,-0.08823344,-0.07584763,-0.59994435,10633.117
2021-11-12,0.23346442,0.0019419044,0.14262728,0.10623122,0.32115975,0.12842634,0.20004518,0.19243148,0.37619302,-0.026530914,-0.06383173,-0.55723804,421.01816
2021-11-15,0.22434196,-0.007888675,0.14775538,0.11063038,0.30218965,0.13418609,0.19506814,0.17947692,0.35689938,-0.02279909,-0.07532562,-0.54161364,577.4947
2021-11-16,0.2067734,-0.026674673,0.13155577,0.083011925,0.28942454,0.12518132,0.17801376,0.16643779,0.32020417,-0.037301697,-0.080566294,-0.543758,390.08652
2021-11-17,0.21399531,-0.01876551,0.14002725,0.09725062,0.30608216,0.13044426,0.18806945,0.1908517,0.35369885,-0.005151991,-0.082169965,-0.5621839,189.04004
2021-11-18,0.20964101,-0.01749421,0.118887305,0.08342783,0.32653236,0.12474533,0.1887203,0.20519641,0.34941062,-0.022050843,-0.08696918,-0.60193074,399.1617
2021-11-19,0.17626113,-0.028330587,0.090411335,0.055267043,0.32252392,0.10791489,0.1666288,0.1979022,0.32003182,-0.039217606,-0.08603194,-0.6150309,255.06487
2021-11-22,0.15486991,-0.04988358,0.09946074,0.0356969,0.2981246,0.09458978,0.13408482,0.19250843,0.27662566,-0.05382263,-0.09077494,-0.6284033,234.29279
2021-11-23,0.17964056,-0.026160888,0.12324053,0.059734065,0.2811468,0.094105005,0.13019592,0.18913761,0.27650884,-0.0528844,-0.07957998,-0.5884998,186.12292
2021-11-24,0.24096197,0.026919603,0.14686106,0.106845364,0.3526863,0.12850681,0.18711062,0.22178057,0.38111216,-0.021152839,-0.06627685,-0.61687434,577.41626
2021-11-26,0.26328683,0.03115739,0.15613286,0.106523745,0.37195408,0.1317502,0.20825948,0.22866547,0.40933618,-0.0044228993,-0.065426156,-0.6199692,142.29758
2021-11-29,0.16608469,-0.044374954,0.1152907,0.011707284,0.2800303,0.06802159,0.10369609,0.1974934,0.25700355,-0.0513703,-0.0910849,-0.63698345,1672.0728
2021-11-30,0.1724501,0.0006539002,0.099714115,0.08759415,0.3236931,0.10880281,0.16760463,0.17951737,0.33384418,-0.022031166,-0.06383598,-0.58252853,1038.7738
2021-12-01,0.13951972,-0.05523079,0.06942173,0.011469353,0.27413666,0.06709061,0.10148659,0.1757885,0.2343846,-0.07524351,-0.08338262,-0.6147423,9085.392
2021-12-02,0.15414181,-0.0375377,0.08364852,0.039815255,0.3138134,0.08529912,0.14925425,0.18859841,0.3082712,-0.049899727,-0.07399066,-0.6268786,484.56564
2021-12-03,0.20281146,0.009780396,0.118530154,0.10085846,0.356141,0.11385596,0.19925462,0.20393732,0.38324848,-0.030748505,-0.06245094,-0.6282883,519.76807
2021-12-06,0.17677832,-0.025529906,0.1003104,0.06663673,0.3155117,0.086054504,0.17071785,0.18247303,0.3331348,-0.06734717,-0.062896,-0.5956132,621.8576
2021-12-07,0.20235646,0.010153428,0.111701265,0.12549397,0.3306136,0.12299688,0.2061926,0.17908847,0.3839837,-0.03326573,-0.0497237,-0.55274236,418.28113
2021-12-08,0.22957382,0.039898314,0.14131694,0.19253546,0.32455444,0.14317495,0.22938131,0.15295392,0.40607336,-0.015808497,-0.037812654,-0.4688683,527.77655
2021-12-09,0.21269521,0.020193081,0.15421496,0.1870647,0.29098114,0.13467607,0.21674003,0.12999396,0.35628626,-0.055969357,-0.038897112,-0.43660656,381.56714
2021-12-10,0.23318288,0.021277566,0.17575108,0.18637872,0.2973437,0.13518248,0.22563155,0.1390189,0.38192788,-0.03237444,-0.0425373,-0.4448297,103.53796
2021-12-13,0.18152308,0.025532082,0.1354433,0.20477635,0.241184,0.11380454,0.20174338,0.09335789,0.3367001,-0.039518587,-0.03462095,-0.35001117,226.92416
2021-12-14,0.1860151,0.012897655,0.18044803,0.19544959,0.2706075,0.102580056,0.19536513,0.11567429,0.32556188,-0.076509014,-0.044407733,-0.41964763,283.94427
2021-12-15,0.18416585,0.00012865663,0.15180477,0.17602572,0.23482299,0.0952606,0.18282771,0.10070202,0.3027572,-0.09755803,-0.04034698,-0.38345632,217.81311
2021-12-16,0.2007156,0.04074148,0.14104235,0.20302513,0.2711475,0.12061548,0.20389529,0.121016935,0.3547531,-0.04325833,-0.0243109,-0.38324478,31784.664
2021-12-17,0.21224934,0.02230674,0.15719536,0.18285596,0.23571151,0.1129548,0.19768892,0.10377447,0.33053306,-0.057905626,-0.031624362,-0.35196856,188.02469
2021-12-20,0.16953218,0.0026080087,0.14970411,0.16829091,0.23623067,0.09984647,0.18118694,0.10675913,0.3178983,-0.051453978,-0.039198056,-0.39429346,195.1523
2021-12-21,0.16185147,-0.010699395,0.12863643,0.12030281,0.26590827,0.08619178,0.16851082,0.14468497,0.3145596,-0.07445891,-0.051536165,-0.48978803,727.5849
2021-12-22,0.20403175,0.03221876,0.14088307,0.18546462,0.29179317,0.12415016,0.2174654,0.12933895,0.37702265,-0.045149054,-0.027008688,-0.4261597,704.10986
2021-12-23,0.25142223,0.060612336,0.16794302,0.2165319,0.3196888,0.1524125,0.2536373,0.15002789,0.43702185,0.0017681718,-0.024275303,-0.42016393,343.6245
2021-12-27,0.283221,0.08827379,0.17650358,0.25249732,0.34366748,0.18014295,0.29110086,0.14120817,0.47752538,-0.0016288906,-0.007235231,-0.38667417,405.89218
2021-12-28,0.2911947,0.10578033,0.18866834,0.26870212,0.34662285,0.17788972,0.29437938,0.14605586,0.48743036,0.0054274574,-0.0021962393,-0.37811828,549.75903
2021-12-29,0.28930914,0.083132304,0.2005888,0.24556646,0.32282144,0.17615676,0.27407908,0.13856941,0.45526025,0.0048799887,-0.015859876,-0.37175238,697.3573
2021-12-30,0.2982933,0.10542379,0.21539888,0.26907432,0.34081358,0.18009633,0.28710482,0.13807097,0.47148785,-0.012391031,-0.0046009645,-0.37213936,488.3717
2021-12-31,0.30168486,0.10132623,0.22629955,0.27322888,0.32889992,0.18104662,0.28914738,0.123622715,0.46410608,-0.00828442,-0.0041406043,-0.3466995,78.37686
2022-01-03,0.32664976,0.10770142,0.24030656,0.27949828,0.33015597,0.18760248,0.2935469,0.14185634,0.4846371,0.00947988,-0.006374184,-0.346539,316.1686
2022-01-04,0.34530956,0.119704306,0.21833782,0.27460232,0.32576048,0.20740311,0.30246532,0.13817742,0.5028456,0.028877959,-0.001362022,-0.3309168,336.78928
2022-01-05,0.3369669,0.09478414,0.21736556,0.22984934,0.28598985,0.19232619,0.26500833,0.12664795,0.4566688,0.021486975,-0.004367424,-0.33383784,336.49963
2022-01-06,0.3056422,0.044903703,0.17304361,0.1551849,0.24384686,0.16383511,0.22761782,0.10841434,0.39099577,0.020006783,-0.018376593,-0.3346958,515.1437
2022-01-07,0.2933203,0.056231946,0.19019647,0.17838064,0.22744401,0.16324122,0.21364291,0.09836364,0.38137278,0.02926395,-0.014564026,-0.3157683,151.75171
2022-01-10,0.33699885,0.080465235,0.19687922,0.1922034,0.27318764,0.17631093,0.24303502,0.14043507,0.43893963,0.053801186,-0.015645865,-0.36822277,276.87875
2022-01-11,0.30061528,0.07564104,0.18587336,0.18094593,0.29451025,0.15225539,0.23878472,0.14852138,0.43399936,0.025816627,-0.009894352,-0.42103255,161.43741
2022-01-12,0.31759208,0.084493056,0.1966766,0.194942,0.32103693,0.16136259,0.25249133,0.17266348,0.4656631,0.028081767,-0.016410645,-0.45252806,157.2898
2022-01-13,0.33080158,0.09339081,0.19871065,0.19902161,0.32804647,0.17342699,0.2610553,0.17319179,0.4755761,0.039954424,-0.015948579,-0.45235735,78.43574
2022-01-14,0.29634196,0.052829437,0.18012461,0.13367996,0.28388742,0.13673058,0.2158447,0.15109235,0.3974732,0.0016925484,-0.020867858,-0.44930646,304.4386
2022-01-18,0.25623065,0.029626973,0.16432318,0.14522852,0.29767567,0.15043035,0.23001374,0.15212804,0.41592604,0.027902834,-0.032651346,-0.4757339,1712.554
2022-01-19,0.19270578,-0.022604689,0.13413925,0.09389187,0.25239053,0.120107554,0.18148963,0.14732246,0.32773313,-0.02326927,-0.052704968,-0.50232685,586.03784
2022-01-20,0.18292731,-0.023888353,0.12425685,0.08313226,0.27346078,0.111785375,0.1834379,0.16857904,0.34272334,-0.0124127045,-0.06341584,-0.5544983,142.29762
2022-01-21,0.15781736,-0.033309475,0.08876981,0.06484828,0.2726489,0.10126711,0.17359377,0.16598728,0.31683838,-0.050452985,-0.05849465,-0.57470757,445.74823
2022-01-24,0.1502595,-0.046150245,0.08711386,0.031275496,0.28361267,0.07686647,0.15057074,0.18144614,0.29836962,-0.0654971,-0.06788801,-0.6232322,207.81703
2022-01-25,0.13952914,-0.032039378,0.10010372,0.055161506,0.26601797,0.077848084,0.14729907,0.15498778,0.29139537,-0.051175255,-0.057101503,-0.57180357,201.58144
2022-01-26,0.16892952,-0.026626509,0.0976055,0.0507053,0.29214296,0.088572316,0.16487467,0.17497544,0.31366727,-0.056408968,-0.05240805,-0.5950167,127.113815
2022-01-27,0.1922541,0.021505848,0.111679345,0.10666279,0.3355742,0.1097576,0.21071868,0.1661016,0.38625202,-0.03337563,-0.024200186,-0.5589788,514.8687
2022-01-28,0.18586427,0.011208653,0.13090149,0.10717412,0.3094426,0.104399934,0.19577652,0.15865666,0.36050466,-0.034663353,-0.028387653,-0.53528935,125.2032
2022-01-31,0.1743361,0.03214942,0.12032728,0.12966298,0.3127309,0.10149789,0.19420673,0.14853065,0.35524234,-0.041962117,-0.031301208,-0.5151654,269.656
2022-02-01,0.18148917,0.03776484,0.13553128,0.15789819,0.3220119,0.11180042,0.20591494,0.14484122,0.36291856,-0.04910531,-0.030270033,-0.49813125,103.39661
2022-02-02,0.2200436,0.057797916,0.17617711,0.19232357,0.34231693,0.12978695,0.22675104,0.1503725,0.39017266,-0.058428816,-0.022076175,-0.49085632,217.44008
2022-02-03,0.20090264,0.055344917,0.16937903,0.19451427,0.32028708,0.12109391,0.21507105,0.13348526,0.36840263,-0.06560346,-0.017617611,-0.45372054,93.07596
2022-02-04,0.17046264,0.01628752,0.148844,0.1362563,0.28133705,0.09239265,0.17087264,0.14122681,0.29662758,-0.113186345,-0.04338123,-0.50198776,438.8993
2022-02-07,0.1852337,0.040311642,0.16939345,0.17425895,0.2924178,0.11390342,0.19265477,0.12698995,0.3394433,-0.06575533,-0.03700216,-0.46054786,327.21024
2022-02-08,0.22055885,0.050529413,0.17717944,0.17624599,0.32399362,0.12200502,0.21230827,0.16457659,0.3766243,-0.068583176,-0.040747713,-0.5102399,144.031
2022-02-09,0.21101306,0.049679056,0.17434067,0.18644336,0.31701446,0.12540033,0.21136238,0.1470417,0.37339833,-0.06992686,-0.03874312,-0.48303723,42.5027
2022-02-10,0.23053446,0.052303024,0.17655367,0.19793844,0.3210497,0.14089626,0.2292928,0.146965,0.39694664,-0.045628376,-0.04307333,-0.46188524,100.74396
2022-02-11,0.2052052,0.013242424,0.16437969,0.14016852,0.29250067,0.116391465,0.17862187,0.14762507,0.32003477,-0.079687774,-0.060483582,-0.5042369,314.19247
2022-02-14,0.18011019,-0.0007399842,0.16290903,0.13292497,0.27445298,0.0990966,0.17649026,0.13410407,0.31961688,-0.0702527,-0.060149845,-0.49350455,169.9122
2022-02-15,0.20070432,0.017909009,0.16602772,0.15239722,0.3090518,0.11739963,0.19872604,0.15856099,0.36464146,-0.054728337,-0.058102217,-0.5216137,2655.3833
2022-02-16,0.26243767,0.06777649,0.15907101,0.22097954,0.3253337,0.16144867,0.24353953,0.14294638,0.42452282,-0.023102082,-0.023584139,-0.41993895,586.6982
2022-02-17,0.26859656,0.0723148,0.18683892,0.22938359,0.332873,0.16084576,0.25043565,0.14604264,0.4300033,-0.025157787,-0.028608698,-0.43181422,72.31268
2022-02-18,0.20172593,0.020062238,0.1601766,0.15261847,0.2742619,0.1127177,0.17622237,0.13719246,0.32425353,-0.05017867,-0.05658181,-0.4551901,455.35297
2022-02-22,0.22677273,0.03758511,0.14772575,0.1590637,0.3109345,0.12100604,0.20161563,0.16028264,0.37108496,-0.048715547,-0.049663424,-0.48938555,200.8182
2022-02-23,0.20869479,0.02820871,0.14676021,0.14733708,0.27820492,0.110199004,0.1817831,0.14659992,0.3419292,-0.04958563,-0.05325417,-0.46984878,99.64063
2022-02-24,0.17532438,0.002397336,0.1290285,0.11730277,0.27017632,0.095661044,0.16063096,0.14680558,0.3101491,-0.07038316,-0.054345623,-0.495679,226.59697
2022-02-25,0.13900632,0.00147295,0.12450008,0.12187873,0.25118384,0.08517281,0.15004268,0.121878,0.28215727,-0.05953126,-0.05450528,-0.46762916,138.64581
2022-02-28,0.1698932,0.01747068,0.10772822,0.1423994,0.2369418,0.10879,0.14875937,0.12412681,0.28409252,-0.029758792,-0.046289593,-0.3977444,1255.4434
2022-03-01,0.15724802,-0.0039792657,0.14044453,0.12912014,0.25534797,0.09450369,0.1574107,0.14452961,0.29259208,-0.045385614,-0.07704122,-0.48215032,356.22522
2022-03-02,0.13726027,-0.028709114,0.110616826,0.09176099,0.2594782,0.085311875,0.14347611,0.15865582,0.27039543,-0.06257038,-0.08957243,-0.5366752,787.34485
2022-03-03,0.19187069,0.027809605,0.13640831,0.1785843,0.29603514,0.13896951,0.20390068,0.14790517,0.3603436,-0.018397845,-0.053867064,-0.46125662,638.2401
2022-03-04,0.1675275,-0.0057362616,0.15647608,0.14533386,0.27036458,0.108986855,0.18275002,0.14265426,0.31838542,-0.060393974,-0.06653416,-0.47780034,477.82693
2022-03-07,0.19251046,0.019115996,0.1493531,0.16335452,0.31289655,0.12045579,0.21460567,0.14810263,0.3685718,-0.05805742,-0.03604017,-0.481831,578.9251
2022-03-08,0.17042358,0.00241372,0.15604351,0.1385158,0.27901435,0.10125568,0.18751177,0.13013813,0.3301066,-0.07626933,-0.036259945,-0.47006097,214.91187
2022-03-09,0.21484521,0.03574761,0.1582593,0.19549897,0.3202073,0.14915429,0.2521877,0.12349765,0.42112106,-0.032903563,-0.009135582,-0.42954,1719.1593
2022-03-10,0.2440772,0.07621172,0.14171675,0.22045434,0.35228324,0.17426226,0.28574443,0.12324259,0.4677857,-0.004069194,0.007150408,-0.40113845,473.9773
2022-03-11,0.24477905,0.045893863,0.16360566,0.18107572,0.34219944,0.16100019,0.2613502,0.14745642,0.43977055,-0.016774226,-0.017852968,-0.4434964,790.4845
2022-03-14,0.23875725,0.042611673,0.18035717,0.20202261,0.31400198,0.15453091,0.26624224,0.1168924,0.43375972,-0.038081653,-0.0038155876,-0.39287642,284.7095
2022-03-15,0.23714912,0.04328668,0.15822169,0.18122458,0.3085636,0.15921101,0.2556556,0.11920321,0.42659912,-0.02657757,0.00058005564,-0.39291868,182.61224
2022-03-16,0.2547111,0.08340976,0.16078298,0.21232346,0.34735858,0.16605708,0.28159618,0.133771,0.46868315,-0.016754244,0.0029311813,-0.40369657,613.01324
2022-03-17,0.28223202,0.10555449,0.18139169,0.23581538,0.35429263,0.18336105,0.2975107,0.12406191,0.48334527,-0.0022773184,0.013937127,-0.36689678,560.692
2022-03-18,0.2907555,0.09546609,0.19281572,0.22950214,0.34164327,0.18609165,0.29359412,0.13211021,0.4753342,-0.011794437,-0.002268836,-0.36662212,570.33636
2022-03-21,0.28548053,0.08702268,0.19703466,0.20853454,0.34514582,0.17186674,0.2789834,0.14656787,0.45948812,-0.007750511,-0.0142751485,-0.3971701,621.7087
2022-03-22,0.28028113,0.07667299,0.2053282,0.20702863,0.33338684,0.17765261,0.27636954,0.14529671,0.45683423,-0.0054820776,-0.020164773,-0.40385816,100.010895
2022-03-23,0.29190236,0.08563788,0.212946,0.22003627,0.33489648,0.18266721,0.28019014,0.14479399,0.4634006,0.0025613755,-0.021329846,-0.39396134,187.22408
2022-03-24,0.26446998,0.049230546,0.1958928,0.18514088,0.2981547,0.15831378,0.25166208,0.13014328,0.41159698,-0.020100921,-0.030492466,-0.384173,1061.7723
2022-03-25,0.2949941,0.076428466,0.19736214,0.21035197,0.3304913,0.17685416,0.2786208,0.15106392,0.46336442,-0.0010928884,-0.02597627,-0.39338735,254.84862
2022-03-28,0.2929365,0.06645356,0.20879024,0.19536057,0.31409192,0.17857686,0.26830176,0.15330923,0.44978008,0.0049878657,-0.03358989,-0.393185,626.47815
2022-03-29,0.2903161,0.059522815,0.20285083,0.16608033,0.32331714,0.16999611,0.25151375,0.17555271,0.43911532,0.017804153,-0.04244181,-0.43145436,353.07123
2022-03-30,0.25806537,0.027954921,0.19027445,0.12258833,0.2678305,0.14366733,0.20904878,0.14136857,0.36407483,0.003761515,-0.053603403,-0.39894694,295.3313
2022-03-31,0.2938525,0.05758957,0.2157709,0.16205016,0.31512502,0.16536273,0.24808146,0.1725043,0.4311883,0.014472373,-0.0500819,-0.43513313,557.7446
2022-04-01,0.28080297,0.039769813,0.21144527,0.1379035,0.32837215,0.15927812,0.2417721,0.17774794,0.4225717,-0.0054288805,-0.048235297,-0.4773527,218.65549
2022-04-04,0.29076022,0.050640836,0.18317913,0.14119956,0.3452744,0.1708262,0.25141254,0.20074077,0.4512184,0.026043355,-0.04700884,-0.4881612,667.26434
2022-04-05,0.28547743,0.04699927,0.19450688,0.14174983,0.3264448,0.16824636,0.24082313,0.18547559,0.43013448,0.021127619,-0.049029082,-0.4672336,66.49414
2022-04-06,0.271051,0.030716054,0.17718697,0.099404536,0.32817784,0.15663126,0.21704948,0.20535225,0.4093702,0.022481449,-0.06591928,-0.5287047,165.34084
2022-04-07,0.25424773,0.023140088,0.1567082,0.07485011,0.33672374,0.13687854,0.20374016,0.22339559,0.40092227,0.005036734,-0.066771165,-0.57088387,186.18636
2022-04-08,0.26326543,0.04624413,0.15149304,0.09928603,0.35318628,0.1435731,0.22201395,0.24587014,0.4359288,0.036262847,-0.07158275,-0.57126784,804.1472
2022-04-11,0.28728166,0.031002358,0.16460264,0.08048984,0.33535573,0.14497167,0.21442148,0.23473191,0.42135015,0.042579345,-0.08092372,-0.5638398,118.75168
2022-04-12,0.24833047,0.0046570525,0.14430882,0.04293607,0.31634346,0.11136843,0.16958292,0.22114831,0.35116002,-0.012680441,-0.07986161,-0.5903463,365.52185
2022-04-13,0.2555958,0.027387932,0.16254108,0.104725026,0.34275812,0.1317156,0.21290998,0.21905941,0.41318128,0.0019515604,-0.062146243,-0.56579596,860.07214
2022-04-14,0.26325977,0.037739903,0.17741635,0.14233238,0.3535707,0.14998871,0.23313938,0.21568617,0.44190183,0.026452623,-0.059572615,-0.54835075,1383.5631
2022-04-18,0.26415652,0.026931643,0.1675134,0.1309103,0.31673354,0.15667224,0.21790086,0.18839508,0.40572512,0.030194424,-0.053845935,-0.48998404,119.23902
2022-04-19,0.28737032,0.051598072,0.204386,0.17893532,0.3370848,0.16971481,0.25197944,0.1874592,0.45680234,0.03330481,-0.039640885,-0.47427616,242.43748
2022-04-20,0.30329567,0.071090154,0.2094738,0.20535389,0.33439338,0.1835538,0.26532826,0.18169382,0.4715698,0.039793506,-0.03435903,-0.42991558,123.291084
2022-04-21,0.29815397,0.07619515,0.22361565,0.22605076,0.31985345,0.18162532,0.27169302,0.16008975,0.46807835,0.024869218,-0.028929453,-0.39827386,106.80122
2022-04-22,0.26853105,0.064839214,0.20218602,0.20952335,0.3376341,0.17023155,0.2651069,0.14325641,0.44144502,-0.032627814,-0.018393304,-0.4306315,347.93723
2022-04-25,0.20082864,0.0305323,0.16801286,0.16129875,0.29564512,0.12860283,0.20851701,0.11481604,0.35570094,-0.0686524,-0.021494132,-0.4471089,346.64923
2022-04-26,0.24515113,0.060354307,0.18411176,0.18541032,0.35845336,0.14167908,0.24526808,0.17693552,0.4350004,-0.044068098,-0.02825192,-0.51325566,351.75278
2022-04-27,0.18878466,0.010522444,0.16014586,0.13475162,0.3121327,0.10797186,0.19815527,0.15179831,0.34942,-0.09061796,-0.039643906,-0.5288614,384.69562
2022-04-28,0.22789624,0.04933197,0.15755017,0.16885072,0.36200124,0.14125265,0.24315901,0.17580977,0.43171337,-0.04025174,-0.03154029,-0.53334713,602.2208
2022-04-29,0.22150472,0.054920465,0.15459386,0.1922422,0.35221416,0.14963962,0.24691592,0.15794843,0.431783,-0.02630224,-0.026770461,-0.4879996,108.50556
2022-05-02,0.1304418,-0.015681285,0.12609386,0.11043617,0.24401906,0.08215545,0.14370479,0.11719419,0.2618784,-0.09860876,-0.046106167,-0.47881597,762.4371
2022-05-03,0.18924034,0.04327155,0.1577668,0.19684282,0.32780468,0.13103329,0.23119622,0.13493808,0.39443603,-0.06089054,-0.024372017,-0.4791861,830.3185
2022-05-04,0.2410207,0.06710812,0.1948371,0.21931422,0.35815972,0.14470398,0.25405985,0.16310088,0.43721208,-0.057220973,-0.021230005,-0.4952643,200.93286
2022-05-05,0.27006626,0.10390544,0.20383373,0.26169133,0.36158788,0.16974369,0.2809913,0.14755137,0.47226515,-0.028893143,-0.0012491122,-0.4243253,295.18256
2022-05-06,0.19265321,0.032467015,0.16179113,0.1720505,0.29550534,0.11818986,0.20731677,0.120945916,0.34184563,-0.10520722,-0.018651467,-0.45064008,1936.3167
2022-05-09,0.23582935,0.061637156,0.19287351,0.20971993,0.3267437,0.13304898,0.23679139,0.14872643,0.4067954,-0.074350335,-0.010831352,-0.45473078,304.85736
2022-05-10,0.19682354,0.031421795,0.18440492,0.15564016,0.30811155,0.099894136,0.1947156,0.14439805,0.34935287,-0.10383341,-0.02178213,-0.49599007,310.99063
2022-05-11,0.22174829,0.05519572,0.17814414,0.2000345,0.34681118,0.13442451,0.24616155,0.14846292,0.425183,-0.06102837,-0.011024134,-0.48391506,311.3605
2022-05-12,0.21345241,0.033605292,0.18401548,0.18272054,0.31983376,0.12194464,0.2266892,0.13849992,0.38768637,-0.08603053,-0.013698844,-0.4649424,164.46236
2022-05-13,0.19012494,0.027305871,0.18223736,0.17280272,0.29768026,0.10503725,0.19917925,0.13572225,0.35461414,-0.09483702,-0.020067303,-0.47123155,137.60942
2022-05-16,0.2156376,0.050732695,0.16972184,0.2083683,0.3131438,0.1390941,0.2291788,0.12949736,0.3963374,-0.05250689,-0.013746398,-0.4291257,280.76288
2022-05-17,0.2276202,0.047993466,0.17778036,0.19507965,0.32843328,0.13766244,0.23280421,0.15360627,0.40152583,-0.051355135,-0.024642263,-0.4702572,140.54378
2022-05-18,0.2783521,0.088287964,0.20089625,0.2512532,0.35012376,0.17830615,0.28019556,0.12887737,0.4607108,-0.027513333,0.0012228303,-0.40014133,401.66577
2022-05-19,0.14213304,0.0033814684,0.13439666,0.14462659,0.18921657,0.08416271,0.13586318,0.06158747,0.22002825,-0.106391236,-0.024776734,-0.3397443,2903.3313
2022-05-20,0.20348415,0.031774692,0.21038006,0.19390157,0.27897692,0.10755536,0.19857615,0.13921386,0.3448844,-0.06933051,-0.039963778,-0.45035073,1406.3082
2022-05-23,0.19383997,0.043389484,0.1635231,0.19023755,0.30994654,0.110927224,0.21062665,0.14763793,0.3621905,-0.06680358,-0.02801491,-0.47284698,135.36826
2022-05-24,0.24225157,0.07729747,0.20722058,0.23118773,0.30165553,0.13715087,0.22849327,0.13831124,0.39915198,-0.03338924,-0.023346338,-0.41606206,281.3841
2022-05-25,0.25479117,0.079085745,0.21173665,0.2169722,0.323611,0.13203403,0.23578992,0.15699396,0.41415396,-0.0400908,-0.024542373,-0.44994462,80.62439
2022-05-26,0.2731034,0.08194304,0.22565994,0.2295846,0.3021071,0.14566955,0.23805709,0.15259518,0.42057922,-0.013401229,-0.028271373,-0.41155344,135.77516
2022-05-27,0.26583117,0.07382857,0.2163074,0.22404414,0.28750777,0.15224364,0.23679835,0.14553043,0.41693532,1.9337982e-05,-0.030134175,-0.38586628,147.4684
2022-05-31,0.27451557,0.084267415,0.21978429,0.23330924,0.30186254,0.15939052,0.24932162,0.14294429,0.42918512,0.004646059,-0.026314635,-0.38707754,23981.393
2022-06-01,0.25081736,0.03808014,0.2188793,0.18000284,0.24860461,0.13770495,0.20317335,0.11763418,0.3473421,-0.026536118,-0.042586997,-0.36728388,911.341
2022-06-02,0.2595321,0.039806813,0.23070036,0.19659004,0.26693958,0.14375094,0.21644686,0.1315608,0.36902502,-0.02524367,-0.037665144,-0.38237396,79.54103
2022-06-03,0.2640358,0.065987036,0.23961747,0.2263419,0.26305434,0.15070751,0.23140012,0.12330824,0.3929678,-0.008523945,-0.029919561,-0.34776694,208.31519
2022-06-06,0.27859473,0.042528942,0.22860873,0.18560275,0.29072505,0.15082088,0.2335628,0.14077872,0.38937154,-0.02222709,-0.04210878,-0.40385565,307.8977
2022-06-07,0.29531536,0.054623574,0.22822897,0.20371193,0.30003566,0.16550525,0.2501306,0.15601473,0.4253083,-0.0033721253,-0.039473817,-0.4091135,176.83606
2022-06-08,0.30669597,0.067991756,0.22884165,0.22027534,0.330808,0.17950836,0.27387086,0.16216448,0.46236888,0.00464803,-0.029101964,-0.41709623,343.65335
2022-06-09,0.30700782,0.05762458,0.23444656,0.2184068,0.31671867,0.1839386,0.27126718,0.15314758,0.45319018,0.006136045,-0.037788354,-0.40662864,98.24179
2022-06-10,0.26532757,0.027805261,0.20841172,0.12815523,0.2993343,0.14873175,0.21759011,0.1895527,0.40914136,0.035173953,-0.061941296,-0.49542353,754.64746
2022-06-13,0.22731549,-0.02650465,0.17354971,0.07313167,0.30218816,0.123200856,0.18456689,0.19400916,0.36188924,-0.0041989945,-0.07566826,-0.5704805,465.75665
2022-06-14,0.16415,-0.06583946,0.12955739,0.010759577,0.24555755,0.07965189,0.109773844,0.16827284,0.25812253,-0.04225912,-0.08228412,-0.5790194,1340.032
2022-06-15,0.20843406,-0.015190534,0.13997008,0.06242256,0.31852224,0.11049957,0.17795731,0.21103245,0.36892465,-0.005497709,-0.068907626,-0.6099146,899.57544
2022-06-16,0.21130723,-0.0033134446,0.13197581,0.07092164,0.32477975,0.114716634,0.185912,0.20744854,0.37748033,0.008048572,-0.064160794,-0.59035844,369.6547
2022-06-17,0.16701251,-0.044857025,0.1114056,0.01202517,0.28940094,0.07570407,0.13239676,0.19134322,0.28920752,-0.04179697,-0.08631249,-0.6247898,2137.8826
2022-06-21,0.16476536,-0.019019067,0.09546426,0.038246498,0.30190912,0.08286558,0.14722127,0.18687443,0.31107262,-0.040728316,-0.06418288,-0.5961869,358.95776
2022-06-22,0.1396738,-0.016932715,0.10829203,0.06815748,0.23339999,0.0842991,0.11576888,0.1393602,0.2597946,-0.037551757,-0.050373696,-0.48601517,253.33162
2022-06-23,0.19951276,0.020086508,0.12886208,0.089014694,0.32769996,0.09839436,0.1746737,0.19739296,0.34971103,-0.038400203,-0.057533816,-0.577531,530.62463
2022-06-24,0.1983608,0.033487156,0.12164217,0.09777497,0.33064342,0.10427122,0.17315899,0.2035945,0.3474817,-0.018831119,-0.06470907,-0.5636805,160.08409
2022-06-27,0.21866252,0.055118427,0.12597224,0.13570744,0.33472815,0.12162501,0.1919465,0.18314976,0.3613504,-0.020262994,-0.051107943,-0.5084003,198.37677
2022-06-28,0.22132015,0.045471907,0.15023035,0.12969896,0.3259798,0.11632131,0.18585391,0.18613797,0.35231903,-0.032797035,-0.054343805,-0.51758814,126.67581
2022-06-29,0.2371529,0.0605174,0.1586085,0.14962935,0.33959126,0.12005808,0.20597827,0.18567535,0.386525,-0.031978287,-0.040964883,-0.52135533,117.20144
2022-06-30,0.25270522,0.07066209,0.15833844,0.16727549,0.34948438,0.1380479,0.2238888,0.18804488,0.40920922,-0.015686028,-0.042428035,-0.49992612,127.65236
2022-07-01,0.22291486,0.04368899,0.15947905,0.15082508,0.33998913,0.12441632,0.2058605,0.19153108,0.3852724,-0.030123167,-0.05433239,-0.5338499,215.7442
2022-07-05,0.22832552,0.065508425,0.15462112,0.16988519,0.35287547,0.13501093,0.22718361,0.18984634,0.41519025,-0.013417508,-0.055544026,-0.5290846,157.94244
2022-07-06,0.19193451,0.04443922,0.14932634,0.16079655,0.30551714,0.118735075,0.19562274,0.15173405,0.35545143,-0.03836542,-0.04978679,-0.4771802,336.8177
2022-07-07,0.19963165,0.049464434,0.14680085,0.18855417,0.2991575,0.13403729,0.20918791,0.1433006,0.3671544,-0.039855175,-0.050044306,-0.4491186,75.30731
2022-07-08,0.22809044,0.07345273,0.16513632,0.22309473,0.32007605,0.1600869,0.24857257,0.12993532,0.41977972,-0.01315821,-0.03794767,-0.42036778,260.03333
2022-07-11,0.2394225,0.08370884,0.16003427,0.22407228,0.3349908,0.15624881,0.25852057,0.14279142,0.43069312,-0.02798514,-0.039619952,-0.43521193,166.63222
2022-07-12,0.2188074,0.060734108,0.15967311,0.20229256,0.3208419,0.13940746,0.23685068,0.1378601,0.39793006,-0.03353732,-0.04504444,-0.44350582,115.88378
2022-07-13,0.22421493,0.06342496,0.16797741,0.20991597,0.31804115,0.14283398,0.24030037,0.12880947,0.40552297,-0.04572706,-0.028430294,-0.43235162,104.87745
2022-07-14,0.2217328,0.06345028,0.17946586,0.23189357,0.31286144,0.14155406,0.24340504,0.12298694,0.40573898,-0.05264868,-0.03174589,-0.41538647,57.569103
2022-07-15,0.18443568,0.04543753,0.13953644,0.20001009,0.3053639,0.1340733,0.2249325,0.12574601,0.37912127,-0.04703588,-0.040359464,-0.42767784,146.03456
2022-07-18,0.2162422,0.06599137,0.14231992,0.23281613,0.2573421,0.15648432,0.22316657,0.08048272,0.36464924,-0.02506259,-0.018046517,-0.29111224,287.85086
2022-07-19,0.23957437,0.063239805,0.18978307,0.23218521,0.2871395,0.15466592,0.24514228,0.11664951,0.40142652,-0.028313544,-0.047895864,-0.3648626,329.89877
2022-07-20,0.27292764,0.078786105,0.17724949,0.23170415,0.29116666,0.17941634,0.2576601,0.12610415,0.42985734,0.01962179,-0.04012225,-0.32964396,278.1999
2022-07-21,0.25416243,0.062521964,0.20779791,0.21569598,0.2666167,0.1610599,0.22809386,0.1235836,0.38205093,0.0013197474,-0.05399183,-0.34212446,226.54886
2022-07-22,0.27695563,0.07852616,0.20504808,0.23888713,0.27906305,0.17227273,0.24923724,0.11632866,0.404134,-0.01009661,-0.034891784,-0.30477056,990.5262
2022-07-25,0.27205512,0.057184868,0.18443438,0.1936506,0.27711555,0.16032077,0.2345054,0.1258196,0.38367826,-0.014772505,-0.046508037,-0.33424422,173.97754
2022-07-26,0.29918894,0.08057827,0.19994801,0.23059005,0.29478633,0.17937699,0.25500596,0.14037207,0.42277846,-0.012853496,-0.041173022,-0.34102944,153.62242
2022-07-27,0.30781707,0.07584851,0.18745045,0.23773965,0.30556047,0.18649238,0.27681217,0.12616442,0.44468686,-0.02291172,-0.024057887,-0.32679173,173.57742
2022-07-28,0.3020617,0.093424916,0.19808546,0.2620635,0.27794912,0.1973814,0.2638385,0.10988754,0.43560812,0.029932238,-0.021374304,-0.27729392,332.39536
2022-07-29,0.29741,0.08664377,0.2264912,0.27343073,0.27682823,0.19765326,0.26356167,0.110798985,0.42620865,0.025647558,-0.031589463,-0.27655083,93.48362
2022-08-01,0.30733675,0.0857674,0.2394456,0.2653378,0.25436446,0.19954865,0.24634998,0.108861625,0.4081868,0.046090446,-0.03407914,-0.25250274,130.8936
2022-08-02,0.2953614,0.06423654,0.24521345,0.24004856,0.25510907,0.18354842,0.23344353,0.11344299,0.38879895,0.026026502,-0.040601254,-0.29095566,141.34679
2022-08-03,0.2773018,0.03163266,0.19362362,0.17256343,0.26871926,0.17125018,0.21022922,0.13723402,0.36307105,0.027899995,-0.06596616,-0.367573,251.59555
2022-08-04,0.26589358,0.042331308,0.20760703,0.19608456,0.25554192,0.16675557,0.20868538,0.12684202,0.36271712,0.021496356,-0.049683183,-0.3390702,130.11084
2022-08-05,0.26180875,0.024920166,0.20152405,0.15538302,0.2595616,0.14978746,0.19135624,0.13550028,0.3340612,0.001876127,-0.06091334,-0.37862942,226.67572
2022-08-08,0.31147045,0.06623209,0.19994356,0.17113009,0.30217323,0.17377058,0.22936092,0.14891717,0.3923774,0.003918566,-0.045239083,-0.38785163,412.34418
2022-08-09,0.31419685,0.069471225,0.20974629,0.15605563,0.33003694,0.1731675,0.2430505,0.18832758,0.4370152,0.030092351,-0.04143079,-0.44641402,764.31537
2022-08-10,0.36368275,0.09227592,0.2055557,0.16152251,0.36243713,0.19451995,0.26933408,0.20984828,0.48517606,0.05736924,-0.041141342,-0.47190043,206.53825
2022-08-11,0.36541507,0.113833174,0.19163674,0.19096631,0.36698538,0.20602266,0.28793347,0.19611031,0.50908524,0.06967383,-0.029433705,-0.43595853,131.90851
2022-08-12,0.38421342,0.10355869,0.19907849,0.16256306,0.35614586,0.20293851,0.2764771,0.18661492,0.4857973,0.059456952,-0.03390808,-0.4420173,82.02796
2022-08-15,0.4091578,0.12543003,0.1864345,0.19761524,0.37054273,0.22172871,0.30299488,0.19726631,0.5288998,0.08272297,-0.016748402,-0.4054124,191.01718
2022-08-16,0.4015164,0.104120314,0.18610592,0.15880173,0.35730374,0.20892343,0.27870023,0.20334549,0.49868405,0.0895393,-0.03779068,-0.433178,205.5612
2022-08-17,0.40026343,0.09785704,0.18475309,0.13165265,0.36210525,0.19850768,0.2679348,0.2202366,0.49093965,0.08701224,-0.051096097,-0.47943172,92.910416
2022-08-18,0.39962786,0.089977965,0.17435896,0.11319222,0.3762582,0.1999941,0.2705177,0.23564932,0.5024101,0.09388461,-0.058960136,-0.5207945,74.73075
2022-08-19,0.3877162,0.0952328,0.17519489,0.16922107,0.36062872,0.20878342,0.28720352,0.20061518,0.50740415,0.07884214,-0.040986195,-0.4451072,150.41724
2022-08-22,0.37007037,0.06907536,0.16270496,0.13343775,0.36327136,0.20279641,0.27834037,0.21593422,0.501488,0.07211425,-0.05237724,-0.4945806,123.2222
2022-08-23,0.35656044,0.05798614,0.1581402,0.098578066,0.37721527,0.18323861,0.26336285,0.23424867,0.4920105,0.066387415,-0.059844952,-0.5633935,113.9814
2022-08-24,0.36242387,0.0766016,0.17729592,0.15023229,0.38360763,0.20014133,0.282962,0.22577494,0.521501,0.07994362,-0.045092147,-0.532897,176.71693
2022-08-25,0.3678617,0.07770559,0.15498239,0.14001666,0.40583995,0.20653872,0.2903297,0.24661589,0.5406161,0.08701392,-0.047950074,-0.56583446,68.18195
2022-08-26,0.38209832,0.098212704,0.16477428,0.18008724,0.39604306,0.21517113,0.30075637,0.23447943,0.5534473,0.103521325,-0.03304027,-0.50084895,144.2272
2022-08-29,0.2803326,0.02275537,0.13409713,0.0648188,0.32542703,0.1369417,0.2025747,0.19649011,0.3955088,0.021027468,-0.052942723,-0.55046487,467.49066
2022-08-30,0.31000715,0.04532075,0.16375564,0.115900256,0.36267674,0.1628534,0.24424179,0.23123449,0.4719925,0.0497206,-0.055761915,-0.57303524,444.51242
2022-08-31,0.28983232,0.048150524,0.15143017,0.114493646,0.3627733,0.15069406,0.2351947,0.22525835,0.45580477,0.03661347,-0.047914933,-0.5728805,79.16431
2022-09-01,0.28910938,0.05244591,0.159917,0.12318245,0.38746825,0.15458646,0.24789588,0.23269266,0.47512707,0.018784724,-0.048117533,-0.6154333,101.23878
2022-09-02,0.23714954,0.048529886,0.1338788,0.12235411,0.37597197,0.1333461,0.22870007,0.20461118,0.43203282,-0.0323051,-0.037600357,-0.6003249,384.27023
2022-09-06,0.21690887,0.034676664,0.13572574,0.12741573,0.34984553,0.121692896,0.22297262,0.17336863,0.40778112,-0.04807251,-0.033101518,-0.56804883,147.82138
2022-09-07,0.2348979,0.042562187,0.12676011,0.12814012,0.369724,0.13716355,0.22904669,0.20216179,0.42197546,-0.05253592,-0.037171405,-0.5973358,106.15135
2022-09-08,0.2440697,0.06620497,0.1514994,0.1486848,0.36108,0.13687658,0.23378442,0.19269569,0.4373536,-0.023713313,-0.031495124,-0.55172926,185.71361
2022-09-09,0.27230412,0.098665446,0.15367743,0.18421757,0.38953876,0.16677925,0.2716831,0.17357124,0.46987614,-0.048170403,-0.009245522,-0.52404916,328.0321
2022-09-12,0.30287758,0.11528842,0.18057323,0.23104826,0.39111,0.18354702,0.2954197,0.16961306,0.5027291,-0.020009845,-0.012161624,-0.4839451,197.11845
2022-09-13,0.31320482,0.11804582,0.1781163,0.23944765,0.39123166,0.19484268,0.30477,0.15377149,0.5012691,-0.028145496,-0.006428808,-0.45706996,123.128105
2022-09-14,0.19310424,0.014080353,0.10872425,0.09919065,0.29972205,0.109137,0.18565409,0.11329383,0.30430827,-0.12215231,-0.028166343,-0.5105463,1079.8586
2022-09-15,0.2724746,0.07032267,0.1698325,0.20109528,0.36480805,0.16299337,0.2682466,0.16345856,0.45746365,-0.05068311,-0.018378422,-0.5046827,904.0463
2022-09-16,0.24998114,0.0551527,0.12059973,0.13763157,0.34558976,0.1339389,0.2294327,0.14895883,0.3977175,-0.07980177,-0.017072476,-0.50680846,214.84866
2022-09-19,0.24871698,0.06471205,0.14231996,0.16813055,0.3587579,0.13887572,0.2480375,0.15687042,0.43074206,-0.07180699,-0.019415911,-0.5163917,112.8639
2022-09-20,0.27235806,0.078752905,0.14448906,0.17509902,0.37135342,0.14983305,0.26436833,0.16396081,0.45922148,-0.05232142,-0.014395997,-0.5127758,119.678856
2022-09-21,0.21983889,0.03784988,0.12698576,0.14198276,0.33015382,0.12692669,0.22639935,0.14818434,0.39142618,-0.07953118,-0.03056102,-0.5230777,333.68045
2022-09-22,0.18469033,0.007949129,0.116695076,0.08898226,0.32531083,0.10068016,0.20390557,0.15577169,0.37130114,-0.072518036,-0.037736803,-0.5682549,223.69681
2022-09-23,0.19127741,0.028695181,0.0892358,0.09563019,0.33641297,0.11052167,0.20869783,0.1722877,0.38147727,-0.06971441,-0.037601262,-0.5748683,329.82413
2022-09-26,0.15497653,-0.0035954714,0.07260406,0.059435368,0.33179948,0.08606762,0.18445231,0.17800626,0.336283,-0.113649584,-0.05153682,-0.6268296,347.3979
2022-09-27,0.13693352,-0.014318388,0.08326102,0.048391096,0.2957464,0.07571079,0.15949902,0.18127975,0.3205297,-0.080373265,-0.063929334,-0.607003,442.57635
2022-09-28,0.13596609,-0.0120325945,0.066032186,0.068872966,0.3206853,0.08969509,0.18337764,0.18041517,0.33348152,-0.106038705,-0.061532658,-0.6284709,165.2992
2022-09-29,0.19950247,0.046717398,0.089838654,0.106222406,0.37132984,0.11167302,0.23197742,0.19000006,0.41930458,-0.043072443,-0.03599376,-0.589298,830.2333
2022-09-30,0.16770265,0.009181347,0.07778776,0.08633641,0.34346184,0.104250684,0.21069694,0.18485014,0.35913795,-0.10239805,-0.05402472,-0.6262743,362.91
2022-10-03,0.17392263,0.015803583,0.0794186,0.09659181,0.36706236,0.11747065,0.23908919,0.17555986,0.4058374,-0.07983945,-0.044768255,-0.6123888,182.24893
2022-10-04,0.23954685,0.070877984,0.121007025,0.17460841,0.40356976,0.15944774,0.29805082,0.16720925,0.5002872,-0.015745655,-0.016378302,-0.5382671,773.5281
2022-10-05,0.27458686,0.09486908,0.1321901,0.21878484,0.40306407,0.1852059,0.31948566,0.1449537,0.51721823,-0.01046887,-0.0030878447,-0.46237618,251.94237
2022-10-06,0.26961434,0.07535837,0.15782118,0.21042565,0.39249107,0.17966726,0.31471258,0.1400863,0.4975432,-0.04769803,-0.0061928034,-0.46642202,516.9037
2022-10-07,0.26402068,0.061314255,0.18466343,0.20782405,0.3635291,0.17327003,0.2956244,0.13647436,0.47460845,-0.041087426,-0.011273839,-0.44618824,163.39313
2022-10-10,0.23044036,0.02991411,0.17549258,0.16775846,0.31478345,0.14638369,0.256979,0.11470446,0.41568866,-0.055603445,-0.015234843,-0.43888202,230.64159
2022-10-11,0.22566038,0.021009002,0.19206879,0.17251185,0.30608726,0.1426006,0.25011015,0.12918621,0.4172881,-0.036523543,-0.028909508,-0.45847374,193.68953
2022-10-12,0.22358838,0.024581887,0.1895522,0.18732077,0.332335,0.15185295,0.2665013,0.13331641,0.44237405,-0.03646218,-0.015948594,-0.46776316,105.67194
2022-10-13,0.24075991,0.045855477,0.19933087,0.21570143,0.33873922,0.16335009,0.28585017,0.11928028,0.46302465,-0.030893978,-0.0062957928,-0.44164142,227.86655
2022-10-14,0.24047613,0.07465367,0.19134146,0.24532205,0.33244044,0.16274977,0.28775716,0.10771167,0.46820778,-0.034246206,0.004676286,-0.40418246,287.98138
2022-10-17,0.20597097,0.04013014,0.16379195,0.1630353,0.29987162,0.12112765,0.23421282,0.11374457,0.39118284,-0.07403643,-0.010311183,-0.44592127,631.57947
2022-10-18,0.28249806,0.086452655,0.18354318,0.21901226,0.34133452,0.17023124,0.28770366,0.14738247,0.49014816,0.0019108877,-0.017157309,-0.43592432,502.27237
2022-10-19,0.28856903,0.07774042,0.18025184,0.1949848,0.3421174,0.16869324,0.28482297,0.14903969,0.4790357,-0.0148167685,-0.0285668,-0.45744205,977.3383
2022-10-20,0.2802106,0.05727637,0.18305168,0.17110127,0.34003082,0.16741064,0.27506015,0.14933929,0.45438966,-0.03243567,-0.038121846,-0.49119234,212.90417
2022-10-21,0.26166743,0.039856166,0.15935995,0.13650757,0.3379845,0.15172093,0.25307554,0.16587818,0.4228616,-0.055822663,-0.046227835,-0.53449845,208.35509
2022-10-24,0.30227852,0.087218806,0.14719167,0.19440195,0.37970996,0.18681741,0.29852694,0.16252476,0.50402105,-0.009607308,-0.017834876,-0.4798914,413.47836
2022-10-25,0.31904057,0.081271775,0.14271557,0.16235903,0.38671637,0.17518076,0.28886557,0.19030288,0.49175444,-0.011468593,-0.03699665,-0.51672125,197.21158
2022-10-26,0.324352,0.060190365,0.14816144,0.13492465,0.35968477,0.16867203,0.27128422,0.18985632,0.46008793,-0.0018888563,-0.050984975,-0.51818925,193.40741
2022-10-27,0.30547664,0.034394145,0.09968354,0.087043904,0.33729377,0.14949779,0.24815734,0.17135663,0.40586445,-0.06500167,-0.043609597,-0.51611394,3520.722
2022-10-28,0.32769302,0.040125124,0.122214645,0.09178374,0.33162495,0.15993887,0.2555928,0.16671899,0.42763618,-0.026944067,-0.04283957,-0.5008711,134.98285
2022-10-31,0.3105775,0.047598094,0.13148437,0.11964825,0.3393498,0.16260092,0.26135752,0.17509255,0.45611018,-0.01389312,-0.03483579,-0.5011356,146.89426
2022-11-01,0.29937893,0.023603417,0.09569755,0.081314504,0.32840037,0.15601334,0.24871191,0.1702146,0.4157551,-0.039663814,-0.05125355,-0.52556413,374.51907
2022-11-02,0.27786964,0.01602193,0.1237174,0.10041449,0.26585507,0.13889635,0.21219891,0.1326228,0.3617266,-0.05095284,-0.039098356,-0.43902394,240.4953
2022-11-03,0.284784,0.0026459098,0.07624816,0.014220111,0.33036274,0.1261852,0.21383388,0.17104816,0.38224044,-0.046444364,-0.044661127,-0.5696037,331.8316
2022-11-04,0.3155874,0.015280601,0.092938855,0.03672144,0.33602175,0.14241642,0.22270726,0.19865203,0.42119628,-0.0057101026,-0.048163183,-0.5715327,809.4008
2022-11-07,0.32555822,0.06257791,0.11058753,0.122984186,0.35676908,0.17559485,0.27169627,0.1797906,0.48927012,0.025443256,-0.026611023,-0.5152088,1243.8966
2022-11-08,0.3421876,0.08073377,0.102019235,0.13053653,0.4042161,0.1912437,0.29916444,0.19073763,0.5147134,0.0071749017,-0.024187718,-0.5554082,180.32927
2022-11-09,0.32831103,0.067435466,0.08555534,0.09941731,0.4010396,0.17591584,0.2848622,0.18983296,0.48543653,-0.016131695,-0.026642382,-0.57346797,418.48334
2022-11-10,0.31061238,0.037069164,0.09896159,0.033559933,0.39062595,0.15222126,0.24389032,0.2093538,0.4515184,-0.014232501,-0.045775384,-0.6472062,276.49884
2022-11-11,0.29557833,0.06992866,0.0974026,0.12752518,0.35877702,0.16188622,0.25541463,0.18437685,0.46456888,0.031248279,-0.03221409,-0.5065053,780.0215
2022-11-14,0.2643077,0.030270495,0.124552935,0.081677265,0.3269369,0.1370696,0.20948866,0.14740238,0.37389717,-0.025249738,-0.053246398,-0.542643,466.10202
2022-11-15,0.29179263,0.022174336,0.119002745,0.07554623,0.35786587,0.14465539,0.23109558,0.18522286,0.4088454,-0.03512665,-0.058458336,-0.5895642,166.97304
2022-11-16,0.24647573,0.008508448,0.1426988,0.090347745,0.3289584,0.12117477,0.20818979,0.18606503,0.38709462,-0.039838396,-0.06491892,-0.58190835,182.42485
2022-11-17,0.25545505,0.01203984,0.11727944,0.06400462,0.3602342,0.1252266,0.21626861,0.20747557,0.39332846,-0.04828029,-0.07287504,-0.645398,166.3241
2022-11-18,0.2584103,0.0135202035,0.096397296,0.055353284,0.38451737,0.13582988,0.2263933,0.22981027,0.41649327,-0.045000277,-0.07527752,-0.68879557,98.133316
2022-11-21,0.2500142,0.01526089,0.10842934,0.073301174,0.35473102,0.13568714,0.21966203,0.20661724,0.4042537,-0.04734736,-0.06696502,-0.6374738,108.5947
2022-11-22,0.26082477,0.015451498,0.11204584,0.07576943,0.35945714,0.14030203,0.23281644,0.19527026,0.41659948,-0.047408454,-0.06425221,-0.61298066,39.565624
2022-11-23,0.28713676,0.04599443,0.11547166,0.10375842,0.36243144,0.1571073,0.2503602,0.20423406,0.45803925,-0.00087108463,-0.055624235,-0.57143784,401.00146
2022-11-25,0.30766833,0.051092803,0.102474555,0.08510342,0.38545275,0.1605281,0.26293245,0.21873984,0.47551587,0.0042264313,-0.06486924,-0.60718524,680.0071
2022-11-28,0.3049384,0.047489315,0.0729093,0.08180902,0.39083457,0.16871077,0.26246664,0.21531564,0.4592598,-0.023410447,-0.066407055,-0.6125208,709.47235
2022-11-29,0.28002188,0.01480034,0.07975895,0.046586826,0.36717772,0.15495664,0.2289838,0.22106144,0.42383063,-0.018848293,-0.07797094,-0.6440648,208.85083
2022-11-30,0.30749053,0.049558356,0.082572624,0.0940717,0.3575457,0.17050633,0.24359196,0.20023356,0.43508378,-0.021594562,-0.05132917,-0.5681834,441.74637
2022-12-01,0.28230396,0.06629751,0.07620699,0.13325664,0.3765092,0.17421441,0.26970425,0.17578052,0.47075906,0.010186322,-0.0384693,-0.5142862,311.65164
2022-12-02,0.2579928,0.032695323,0.060925312,0.07921856,0.36879575,0.13854238,0.23265581,0.16356759,0.39191058,-0.041992575,-0.049168188,-0.5548485,727.802
2022-12-05,0.3000434,0.031462774,0.06946714,0.07278973,0.42255902,0.15743388,0.25624847,0.22652844,0.4478573,-0.031437047,-0.067439094,-0.66327214,215.16437
2022-12-06,0.22947988,-0.026113369,0.043205097,-0.0021468624,0.37813243,0.11914752,0.19224267,0.23466331,0.3641431,-0.06151531,-0.0924703,-0.73117685,572.3962
2022-12-07,0.20428947,-0.039737917,0.03976419,-0.02938877,0.36826143,0.095024265,0.17042445,0.24340007,0.34278154,-0.065332256,-0.09702799,-0.75450623,1398.1533
2022-12-08,0.23874965,-0.024280239,0.04829112,-0.014792956,0.38599813,0.108375706,0.19110738,0.26073253,0.38176516,-0.033282764,-0.100764245,-0.747396,230.22168
2022-12-09,0.24472016,-0.010094099,0.049541805,0.01737526,0.39189932,0.12609796,0.21090747,0.23935246,0.39957657,-0.027802624,-0.09165132,-0.70291054,353.54257
2022-12-12,0.19840565,-0.03148144,0.04003699,-0.008406758,0.35761455,0.101165175,0.17288466,0.21611917,0.33439413,-0.07843137,-0.09560396,-0.7099056,658.3513
2022-12-13,0.25935182,0.019385446,0.06953849,0.05872056,0.4003795,0.1468887,0.23244603,0.23617893,0.4358247,-0.011434235,-0.08070541,-0.66889536,1302.4764
2022-12-14,0.23957737,-0.00021804497,0.10467234,0.0723581,0.36207867,0.13171452,0.21546356,0.19305494,0.39612508,-0.029743597,-0.07540506,-0.6121973,412.24023
2022-12-15,0.25806236,-0.006373659,0.07702159,0.055728436,0.3646865,0.14083272,0.22191265,0.19822352,0.39013043,-0.04740905,-0.08342774,-0.61182535,2965.1274
2022-12-16,0.19108656,-0.039981127,0.06097153,0.038976572,0.31468236,0.103919275,0.18648243,0.16249281,0.31950557,-0.10190041,-0.08298059,-0.59595907,814.2229
2022-12-19,0.2357997,0.004880503,0.07290653,0.09924842,0.35966852,0.1447203,0.23562633,0.19792525,0.40343767,-0.06687542,-0.062522784,-0.5980334,497.17676
2022-12-20,0.27097183,0.02739308,0.07605238,0.11019321,0.40916938,0.16291492,0.26774856,0.20318043,0.46096134,-0.053669825,-0.048906334,-0.62692773,594.77234
2022-12-21,0.2926855,0.0625114,0.102260366,0.15061775,0.42365837,0.18317406,0.2890562,0.21195447,0.5022209,-0.014476441,-0.04377792,-0.6089004,330.9525
2022-12-22,0.33919272,0.10451846,0.1023557,0.192875,0.4301235,0.2050144,0.3200366,0.20010273,0.54773086,0.027445197,-0.023989338,-0.5240016,498.78894
2022-12-23,0.2914617,0.037328534,0.110999435,0.10930241,0.4046332,0.1627357,0.26258898,0.21572351,0.4682483,-0.017567359,-0.055686563,-0.63223296,513.74255
2022-12-27,0.32315916,0.07461861,0.10934541,0.1406545,0.43368763,0.19154559,0.29186165,0.23917282,0.5276975,0.03196753,-0.04914423,-0.6256571,495.30386
2022-12-28,0.34187433,0.0819568,0.10913232,0.146202,0.44008514,0.20272966,0.30736378,0.22799894,0.53706485,0.02587089,-0.04180008,-0.6131307,74.85454
2022-12-29,0.33525503,0.06860816,0.11447735,0.1283707,0.42155993,0.18669651,0.29252005,0.20819032,0.5122236,0.0022789538,-0.040232304,-0.59267586,163.85638
