Date,ADBE,AMZN,AVGO,CAT,COST,JPM,LLY,MA,MSFT,NVDA,UNH,XOM,total
2019-01-02,0.15966482,0.21318772,8.955598e-05,0.40562472,0.08297449,0.091727346,-0.067446254,0.23903465,0.037926584,0.19008392,0.37157074,-0.01319737,0.0
2019-01-03,0.15094408,0.2224966,-0.0050729513,0.39816633,0.10874245,0.08518237,-0.098813005,0.25110918,0.019791987,0.15802228,0.37770048,-0.047487725,6192.134
2019-01-04,0.14983103,0.21244767,-0.019620199,0.395973,0.11319369,0.09824404,-0.128164,0.24743709,0.027340522,0.16978197,0.37771907,-0.036232352,412.4465
2019-01-07,0.12994185,0.22585121,-0.004328694,0.38744342,0.11728226,0.083128795,-0.08386568,0.24617839,0.024830954,0.15841052,0.37327492,-0.044145968,192.63951
2019-01-08,0.14659677,0.23718548,0.018161066,0.36928275,0.11981205,0.08236632,-0.08404183,0.24921596,0.0136157945,0.17019862,0.3900466,-0.06420636,649.1335
2019-01-09,0.16758072,0.25712457,0.028317317,0.33803034,0.12529603,0.074589655,-0.084624596,0.2537475,0.023762297,0.1654887,0.3847762,-0.08130674,208.90932
2019-01-10,0.18165648,0.27811083,0.039875284,0.31602314,0.14257959,0.056518,-0.051261,0.2573058,0.01842326,0.1531339,0.3829521,-0.104155585,201.24788
2019-01-11,0.19606134,0.3023212,0.024930663,0.2836296,0.13832049,0.05325837,-0.051746108,0.2525657,0.022005253,0.15015022,0.39066133,-0.12511954,119.43877
2019-01-14,0.21118426,0.334041,0.032923616,0.23875698,0.14254066,0.046215016,-0.05181475,0.26545686,0.017880447,0.1431275,0.41346738,-0.15540347,141.06323
2019-01-15,0.23654501,0.36643136,0.00940467,0.22175992,0.13152757,0.03465504,-0.060855724,0.25612378,0.0031855628,0.14280045,0.42299417,-0.16306674,243.61139
2019-01-16,0.24677768,0.37969512,0.0288136,0.19927767,0.13827145,0.025126565,-0.047369152,0.25068784,-0.01084628,0.14401996,0.4108186,-0.18188992,737.12366
2019-01-17,0.2661727,0.38527918,0.024619766,0.18328056,0.13717467,0.02424791,-0.053159066,0.24687922,-0.020269308,0.15197271,0.40771374,-0.19222555,148.78302
2019-01-18,0.2831119,0.38557333,0.044142768,0.15135916,0.13956037,0.019476783,-0.040077604,0.24054074,-0.030665766,0.1650914,0.3953635,-0.21258178,225.28912
2019-01-22,0.29539302,0.41874978,0.042973608,0.12286563,0.1553593,0.0024009384,-0.009426959,0.24599385,-0.0638527,0.17446107,0.40280515,-0.2325935,337.3474
2019-01-23,0.32944858,0.41707677,0.0664763,0.0977633,0.16352242,0.000568714,-0.039889418,0.26468626,-0.053459655,0.18753517,0.40925363,-0.24377185,529.53546
2019-01-24,0.35680112,0.4414718,0.061377443,0.07653953,0.15917042,-0.013179973,-0.028183639,0.26198742,-0.063796684,0.18051742,0.38840362,-0.26103368,2529.3162
2019-01-25,0.39629638,0.44963327,0.032453448,0.06927712,0.16651005,-0.031564273,-0.044481963,0.2631022,-0.08429234,0.20657803,0.38646507,-0.26053536,319.1367
2019-01-28,0.3878514,0.44785547,0.03566234,0.07743609,0.16964072,-0.03793654,-0.03415146,0.26598558,-0.09482892,0.20017618,0.37900323,-0.2599817,88.32203
2019-01-29,0.38700628,0.46950722,0.031245105,0.08942934,0.172005,-0.03509254,-0.043898255,0.27561462,-0.07647848,0.17986363,0.39710698,-0.26648423,110.75336
2019-01-30,0.38379315,0.48479867,0.03671325,0.08785782,0.17513987,-0.024097335,-0.05838959,0.27322775,-0.0735762,0.1808142,0.41267136,-0.27762154,102.79924
2019-01-31,0.38314912,0.4834164,0.06522766,0.08934182,0.18613885,-0.03906748,-0.025856271,0.26943064,-0.08846122,0.17843992,0.40257502,-0.27956313,230.0109
2019-02-01,0.37922564,0.46531868,0.08170282,0.05405476,0.17357075,-0.030795496,-0.01971896,0.26032442,-0.08705519,0.17211284,0.38062313,-0.2965215,141.2181
2019-02-04,0.3705741,0.45539778,0.055962317,0.07251416,0.1457282,-0.02102856,-0.038923286,0.24527225,-0.07953298,0.17110789,0.35741907,-0.27346727,244.09253
2019-02-05,0.37115014,0.45090824,0.058047496,0.04529739,0.14773172,-0.037725147,-0.046335876,0.2448748,-0.089681804,0.15798917,0.33060056,-0.28668112,175.14372
2019-02-06,0.38489404,0.4630205,0.052702807,0.021346223,0.13851696,-0.041113626,-0.046980277,0.23818973,-0.09657228,0.16468363,0.3250833,-0.29783675,105.293
2019-02-07,0.38708326,0.462691,0.042463332,0.031060096,0.1431208,-0.045339886,-0.034797825,0.23210555,-0.110122606,0.17617266,0.32563445,-0.29334742,130.34796
2019-02-08,0.4016012,0.47943458,0.028096192,0.01630117,0.13871932,-0.05551777,-0.03748075,0.24004242,-0.11904821,0.17825685,0.337119,-0.29975244,140.37222
2019-02-11,0.39561257,0.46985087,0.038454838,0.02098823,0.13624667,-0.055808175,-0.021255895,0.2398197,-0.11586459,0.16785213,0.3261189,-0.30006534,126.67694
2019-02-12,0.38584974,0.4540541,0.026656702,0.029115658,0.13435651,-0.05924457,-0.018981852,0.2318756,-0.12302287,0.1695136,0.3284482,-0.29492322,106.385765
2019-02-13,0.3838661,0.43192887,0.03033398,0.02594101,0.12392462,-0.048638023,-0.015480243,0.23131695,-0.13303533,0.18088257,0.310523,-0.30338973,97.61464
2019-02-14,0.3766413,0.44031334,0.037192084,0.012708984,0.12024538,-0.0468046,-0.012292035,0.22207832,-0.13632856,0.1722589,0.3141968,-0.31078586,119.63173
2019-02-15,0.38480994,0.4521687,0.03666208,-0.026831828,0.10720177,-0.06640881,-0.0029084608,0.19868824,-0.14287113,0.16855805,0.29414472,-0.32646036,475.38806
2019-02-19,0.40481517,0.46008682,0.037995376,-0.03741958,0.09524037,-0.062508896,0.0213041,0.2010481,-0.15310739,0.19692679,0.28064823,-0.33596906,932.24756
2019-02-20,0.39474675,0.4793411,0.03843855,-0.03820326,0.0862537,-0.058512423,0.02401387,0.2020557,-0.1473979,0.18790925,0.2947071,-0.34016758,53.549934
2019-02-21,0.39525828,0.48604766,0.05043724,-0.036015086,0.09220108,-0.057713445,0.034256294,0.20426115,-0.14017244,0.19841008,0.2929758,-0.33716443,102.43657
2019-02-22,0.38399503,0.4805485,0.03295044,-0.035708092,0.07802527,-0.056091584,0.01948838,0.20923774,-0.12997496,0.1897921,0.28252152,-0.33516043,119.01652
2019-02-25,0.3912882,0.47807845,0.038255632,-0.061683543,0.07799615,-0.059148144,0.011865113,0.21520898,-0.13203508,0.19885688,0.26662812,-0.34762317,154.42023
2019-02-26,0.38024196,0.4575024,0.041046694,-0.05587592,0.06773801,-0.05566225,0.0035472587,0.20277166,-0.12295435,0.20205238,0.24500799,-0.34043616,137.42685
2019-02-27,0.39189905,0.45503834,0.05444011,-0.06850519,0.08067307,-0.06500955,0.007927015,0.21336576,-0.12349498,0.21113434,0.23900548,-0.34940562,233.43753
2019-02-28,0.37467557,0.45324603,0.06420866,-0.05430364,0.09129248,-0.07223195,0.03149724,0.21472642,-0.105556816,0.19316874,0.22663161,-0.34085894,396.37225
2019-03-01,0.36797017,0.44805318,0.07940482,-0.06750711,0.09520725,-0.06974082,0.024422958,0.20992258,-0.114116415,0.18726107,0.21585456,-0.35146818,102.38562
2019-03-04,0.36149237,0.44799495,0.07927609,-0.08088032,0.08353983,-0.07806344,0.06069681,0.19232368,-0.11291669,0.19862933,0.19091758,-0.3536247,222.12949
2019-03-05,0.37358198,0.445892,0.06989942,-0.08819377,0.08468795,-0.0739387,0.037910536,0.1905263,-0.11679676,0.21339557,0.18678305,-0.34582072,85.06057
2019-03-06,0.36549342,0.4678008,0.06134916,-0.08566434,0.08030124,-0.07871857,0.068410866,0.18617415,-0.11623669,0.2068175,0.19839445,-0.35020983,127.608894
2019-03-07,0.37960643,0.46228656,0.034388073,-0.06923952,0.07319917,-0.07029255,0.03983026,0.18866035,-0.12074189,0.22990493,0.2074846,-0.34763873,151.1772
2019-03-08,0.38795376,0.46572587,0.032773808,-0.05545851,0.07788023,-0.04938635,0.016914658,0.1787216,-0.12049647,0.23639064,0.21038732,-0.34104484,132.79852
2019-03-11,0.35706955,0.44693536,0.03532224,-0.028437681,0.08175799,-0.04550207,0.030306496,0.17474714,-0.11831488,0.23229617,0.22470403,-0.34537497,174.35208
2019-03-12,0.36274672,0.44999823,0.02542989,0.004619114,0.10191785,-0.0549242,0.039250307,0.19563156,-0.13182524,0.24275991,0.24661747,-0.3387069,260.9579
2019-03-13,0.37616384,0.48359323,0.0078060925,-0.0017742142,0.08187115,-0.06665914,0.069046535,0.18698454,-0.1412301,0.26023465,0.2666569,-0.3534518,367.05838
2019-03-14,0.35932294,0.47689775,0.01602339,0.012649752,0.09308003,-0.07417941,0.109457426,0.1853274,-0.13696323,0.24825823,0.2605519,-0.35726354,1019.48425
2019-03-15,0.36096287,0.4873403,0.008437831,0.02504431,0.0975926,-0.076484814,0.09527166,0.19255649,-0.13454442,0.24895805,0.2703246,-0.35157245,180.17761
2019-03-18,0.38184327,0.51467913,0.0026599541,0.032331385,0.111163534,-0.07323542,0.11605426,0.2084009,-0.118463084,0.26610187,0.29475996,-0.3471073,186.31163
2019-03-19,0.37864074,0.5289358,-0.0014830977,0.031516068,0.108391136,-0.073756754,0.1281755,0.2088084,-0.11356337,0.26380476,0.29808018,-0.3493733,182.51137
2019-03-20,0.38333493,0.53652596,-0.005945809,0.028037444,0.11268045,-0.08210567,0.14002319,0.20745504,-0.10211015,0.25286147,0.29483852,-0.35372648,356.35242
2019-03-21,0.39711687,0.53827935,-0.013477422,0.016588673,0.10444737,-0.07821122,0.13679972,0.19821921,-0.093926415,0.26501566,0.30114198,-0.3568442,206.07133
2019-03-22,0.37861538,0.5306555,-0.02567814,0.03097257,0.09471519,-0.07727529,0.12103026,0.19478062,-0.08580531,0.24707225,0.30396378,-0.3574735,223.61848
2019-03-25,0.36997345,0.52710146,-0.047975067,0.04905407,0.0949828,-0.078340456,0.089932494,0.20380116,-0.06611845,0.2440885,0.33485112,-0.34972584,216.63008
2019-03-26,0.3586031,0.5241877,-0.048554897,0.0477026,0.10385585,-0.08570391,0.09272654,0.20778167,-0.058128398,0.2256212,0.3388382,-0.35288897,53.136192
2019-03-27,0.36078945,0.5252481,-0.038271356,0.047704786,0.11557831,-0.09201415,0.08978435,0.21176273,-0.0635239,0.225239,0.33117518,-0.35838893,59.006374
2019-03-28,0.36298248,0.5215261,-0.049777556,0.05074159,0.11851451,-0.09473591,0.0701542,0.20840427,-0.06908195,0.2342805,0.34409708,-0.36153805,84.23936
2019-03-29,0.35457316,0.52222,-0.06044641,0.05688166,0.11275645,-0.109704465,0.07594166,0.20136073,-0.081988394,0.24214399,0.3460902,-0.35015672,94.038216
2019-04-01,0.35394156,0.5335297,-0.060602583,0.058420293,0.098810405,-0.102352336,0.056015786,0.19937602,-0.087564036,0.2329476,0.34839952,-0.3504067,62.938343
2019-04-02,0.34557614,0.53805125,-0.053580765,0.05991234,0.10858683,-0.10445215,0.055267587,0.19419985,-0.0958869,0.23223676,0.3447243,-0.34819043,44.726627
2019-04-03,0.37249276,0.54112136,-0.067893654,0.047826517,0.08444682,-0.09826912,0.021913238,0.17504072,-0.10541375,0.24440302,0.3416724,-0.3557227,171.83447
2019-04-04,0.35205895,0.54338735,-0.08194328,0.057350386,0.085114524,-0.10520822,0.008413419,0.15752608,-0.11528207,0.2232249,0.346885,-0.3546939,145.81679
2019-04-05,0.36444032,0.5394159,-0.10327305,0.06043339,0.07794611,-0.09988321,-0.018014409,0.15404248,-0.115456894,0.23717116,0.34833744,-0.35179546,373.0986
2019-04-08,0.36653435,0.54526085,-0.0968342,0.058107488,0.08149753,-0.10196683,-0.011607558,0.16212839,-0.1143332,0.23146039,0.35884383,-0.35701248,67.07848
2019-04-09,0.35968053,0.55386883,-0.11005876,0.05505859,0.07347391,-0.10102102,-0.023174755,0.16808304,-0.11603172,0.21527298,0.35207745,-0.35832742,147.18353
2019-04-10,0.36611548,0.5407052,-0.11882731,0.048342504,0.06665131,-0.106807604,-0.051865995,0.17415321,-0.11524965,0.20411828,0.35256836,-0.36208642,173.80421
2019-04-11,0.3703119,0.54685646,-0.12064513,0.05244773,0.072482064,-0.114168584,-0.05103127,0.174604,-0.11688693,0.20149274,0.35255477,-0.35919732,33.322483
2019-04-12,0.3716503,0.529511,-0.13821134,0.074625276,0.073355734,-0.117898524,-0.06527758,0.16428849,-0.13068987,0.19999388,0.34464094,-0.34433055,117.61203
2019-04-15,0.3857746,0.51878136,-0.14146313,0.08037284,0.08028586,-0.114601,-0.07947846,0.16469556,-0.13452251,0.21890564,0.3467429,-0.33896536,64.68485
2019-04-16,0.3967289,0.51447904,-0.12059281,0.06902603,0.08312622,-0.11125016,-0.0718128,0.16048312,-0.13748677,0.2313959,0.3507069,-0.355873,65.24469
2019-04-17,0.38965026,0.5057404,-0.14557475,0.085163966,0.084615216,-0.10346924,-0.07846878,0.16312736,-0.14308886,0.25233546,0.34602505,-0.33293995,88.18276
2019-04-18,0.39219072,0.49325818,-0.1663115,0.08990849,0.0749012,-0.097764164,-0.09530181,0.158723,-0.14712001,0.27283934,0.33796254,-0.31899917,81.541824
2019-04-22,0.38306674,0.48475447,-0.16864529,0.099541806,0.07126628,-0.09147853,-0.0953559,0.15009932,-0.13938135,0.28461486,0.33149388,-0.31324285,46.235023
2019-04-23,0.38002005,0.47484425,-0.1731292,0.10480535,0.06456596,-0.09061377,-0.09441821,0.13531524,-0.13414715,0.29694566,0.31850502,-0.29755545,48.980392
2019-04-24,0.38001227,0.48623908,-0.15781423,0.08655087,0.06325748,-0.09348437,-0.085343726,0.13258724,-0.13641798,0.29111657,0.3077475,-0.31720528,59.123795
2019-04-25,0.3698117,0.47675145,-0.17899463,0.08934029,0.046374537,-0.09059924,-0.106210046,0.13065918,-0.12930703,0.28651416,0.30690107,-0.32215005,85.58632
2019-04-26,0.35330355,0.47918144,-0.17674658,0.10022153,0.04408074,-0.09198628,-0.08204122,0.1292733,-0.10817522,0.27129576,0.29125518,-0.32092413,75.83518
2019-04-29,0.37972113,0.4783125,-0.16093537,0.07453971,0.03818216,-0.088693395,-0.08682797,0.12705538,-0.11148293,0.2772157,0.28649673,-0.34177786,80.11234
2019-04-30,0.37086686,0.4711116,-0.15508345,0.07737565,0.03581149,-0.08565775,-0.09555324,0.117840126,-0.1179491,0.25676695,0.28713337,-0.3443042,52.34939
2019-05-01,0.3618888,0.46031815,-0.16890147,0.073550336,0.020983513,-0.08727114,-0.107203566,0.11523838,-0.12824143,0.2567847,0.2937881,-0.34411913,87.359695
2019-05-02,0.36158076,0.4439228,-0.19499812,0.093928754,-0.0009815767,-0.07906038,-0.11968186,0.10029586,-0.11501126,0.2712414,0.3029559,-0.33370435,207.59058
2019-05-03,0.3538073,0.4438701,-0.21053109,0.11116765,-0.0052087605,-0.073127136,-0.10651413,0.105691046,-0.10359369,0.26962724,0.30799523,-0.32179883,498.77277
2019-05-06,0.36338276,0.43570706,-0.20250678,0.09362391,-0.007227406,-0.07345332,-0.118163355,0.10692454,-0.1185054,0.27691913,0.30556774,-0.32454854,94.18448
2019-05-07,0.35677415,0.43122822,-0.2170113,0.1035534,-0.012676798,-0.06978141,-0.12807739,0.102882326,-0.1128678,0.27329618,0.3121652,-0.32074746,122.57915
2019-05-08,0.3363089,0.42232847,-0.24421361,0.13734807,-0.013048962,-0.06263058,-0.14055091,0.10867901,-0.087511495,0.25482127,0.32583413,-0.29979965,121.661804
2019-05-09,0.30877873,0.4265114,-0.22895023,0.15323457,0.0006034449,-0.06177664,-0.117535405,0.11998692,-0.07250731,0.22375815,0.33031884,-0.2970508,191.38985
2019-05-10,0.31049532,0.42859975,-0.237109,0.15906146,0.0063405856,-0.061940964,-0.12077404,0.11973907,-0.067254975,0.22212502,0.33365148,-0.28424975,975.6632
2019-05-13,0.28381088,0.44059452,-0.22235829,0.16319436,0.013829395,-0.06800787,-0.10244631,0.120977595,-0.06065738,0.18686312,0.33270642,-0.28957033,192.16512
2019-05-14,0.24400838,0.42412788,-0.25227156,0.23108533,0.018692095,-0.04932754,-0.12684396,0.13373414,-0.0068343803,0.1698705,0.35936758,-0.2312254,295.7939
2019-05-15,0.22126706,0.4333114,-0.23729157,0.24571508,0.027549166,-0.05513472,-0.09538525,0.13532461,-0.005976204,0.1381713,0.35417953,-0.23149088,141.67723
2019-05-16,0.22642729,0.44583055,-0.21533474,0.23585466,0.03243351,-0.06570143,-0.08760355,0.12519847,-0.017131638,0.13129796,0.36064366,-0.24091217,268.55685
2019-05-17,0.20730379,0.4371251,-0.18385148,0.23294783,0.035190083,-0.077893436,-0.06674432,0.11180817,-0.023330625,0.10682537,0.34407824,-0.24967322,150.86682
2019-05-20,0.1873252,0.43659317,-0.19141808,0.24238437,0.034475304,-0.08163957,-0.08034113,0.11748072,-0.006559413,0.08644515,0.34381187,-0.2307803,148.81851
2019-05-21,0.18813238,0.42810163,-0.1832889,0.25605062,0.04007721,-0.065561056,-0.070622854,0.11188056,0.013878997,0.09907268,0.34607098,-0.21142906,400.30643
2019-05-22,0.18443765,0.435894,-0.16618204,0.25035375,0.045452856,-0.067593545,-0.04993341,0.11921307,0.0092609525,0.09346613,0.3418503,-0.20388082,111.42756
2019-05-23,0.18108161,0.4312348,-0.15264982,0.23421583,0.04388001,-0.06538029,-0.03514859,0.11519694,0.014410153,0.07853241,0.33793828,-0.21087003,133.34158
2019-05-24,0.16284221,0.3930617,-0.18595189,0.251988,0.037999287,-0.039406024,-0.05290977,0.11975128,0.05884977,0.09152724,0.33541313,-0.16967458,501.16473
2019-05-28,0.15092263,0.405697,-0.17497784,0.26589754,0.053531498,-0.048542053,-0.031131893,0.123285934,0.055877917,0.07118018,0.3294472,-0.15843697,165.80939
2019-05-29,0.16754305,0.40826333,-0.17648226,0.2521103,0.058583118,-0.057162605,-0.03568065,0.114424914,0.045694277,0.07725549,0.32124636,-0.16524799,100.23244
2019-05-30,0.17671868,0.41841203,-0.1944777,0.25837338,0.0569124,-0.053064927,-0.03844639,0.117385715,0.052477308,0.08587888,0.32603893,-0.14959641,77.97266
2019-05-31,0.18770307,0.4289142,-0.19884235,0.2322424,0.06509241,-0.064224884,-0.02172234,0.12443012,0.052648548,0.08419371,0.32446107,-0.1612674,116.56236
2019-06-03,0.18039998,0.41831613,-0.20063052,0.21872067,0.064410135,-0.04832798,-0.038776614,0.13922809,0.055170443,0.087982655,0.32947025,-0.1578156,142.26079
2019-06-04,0.13266385,0.35165477,-0.23909938,0.26563612,0.04021442,-0.0024325624,-0.07091862,0.15943602,0.09365247,0.0786385,0.315114,-0.097235076,436.0728
2019-06-05,0.13301918,0.35610533,-0.21020305,0.27272004,0.057656594,-0.0010398887,-0.044163086,0.17846262,0.073758826,0.07862362,0.31547132,-0.117118634,208.394
2019-06-06,0.14002189,0.36921245,-0.19546479,0.25472993,0.06303657,-0.021891836,-0.03803116,0.17576388,0.058621563,0.079689115,0.3209663,-0.13990578,2095.5667
2019-06-07,0.13651597,0.3824666,-0.1929731,0.22421995,0.0667397,-0.02412175,-0.03375584,0.19255692,0.05243689,0.08634803,0.33349255,-0.15777436,91.78318
2019-06-10,0.11635708,0.36188638,-0.1854657,0.21497285,0.056815654,-0.029163923,-0.02397275,0.18877473,0.049502753,0.07049556,0.3282074,-0.16314676,123.82529
2019-06-11,0.10170753,0.34519503,-0.20713091,0.24561968,0.0661751,-0.04553395,-0.029690877,0.19364029,0.04927287,0.071110204,0.314487,-0.1358769,164.40625
2019-06-12,0.1284047,0.33767453,-0.2263698,0.23278347,0.0717624,-0.04368897,-0.033946723,0.21263507,0.059199326,0.10025801,0.31579086,-0.13571358,141.25047
2019-06-13,0.12510477,0.34476018,-0.2113291,0.22362122,0.068749726,-0.030312564,-0.023526408,0.21647426,0.075083695,0.09173027,0.31936863,-0.14184964,123.557755
2019-06-14,0.13156995,0.3312029,-0.23426703,0.22405368,0.071370035,-0.03390194,-0.047507823,0.215251,0.07725213,0.111569226,0.30495748,-0.13378993,173.0092
2019-06-17,0.1438104,0.32068363,-0.22052744,0.21159574,0.07026177,-0.025275255,-0.036130093,0.20593876,0.08677385,0.121872604,0.28584892,-0.14185914,113.03658
2019-06-18,0.13798389,0.32449317,-0.21980649,0.20961738,0.06538248,-0.02037989,-0.035064775,0.2050868,0.09476017,0.1161211,0.27990055,-0.14032334,53.262722
2019-06-19,0.15358588,0.36014912,-0.18912166,0.19858043,0.08861803,-0.019980926,-0.007554479,0.22823566,0.09374718,0.10735685,0.29081824,-0.15396856,191.00026
2019-06-20,0.17663917,0.3927658,-0.14624828,0.17239496,0.103668585,-0.029222999,0.010046616,0.22413802,0.06829376,0.07987696,0.2752275,-0.19093329,440.0618
2019-06-21,0.18942672,0.42997307,-0.117050715,0.14959985,0.109571695,-0.046409223,0.025824184,0.22170472,0.04959423,0.068790704,0.27909002,-0.2136051,327.07132
2019-06-24,0.17387567,0.43792987,-0.13570109,0.16148418,0.1039294,-0.043759476,0.02852488,0.23096159,0.06382719,0.053221073,0.28352305,-0.19953176,118.93902
2019-06-25,0.18755755,0.44980186,-0.14479333,0.13784693,0.08568734,-0.041717652,0.008129487,0.22456062,0.06145384,0.060677852,0.28618398,-0.21695343,155.80672
2019-06-26,0.16892771,0.46068197,-0.17683002,0.16728655,0.08219248,-0.01813889,-0.00042281672,0.23714438,0.092605844,0.05734716,0.31358245,-0.18623403,307.15152
2019-06-27,0.18600535,0.46819258,-0.16045712,0.18731767,0.11554655,-0.026450034,0.030412015,0.26832828,0.0665995,0.07882781,0.33211935,-0.19185284,7499.7095
2019-06-28,0.19730884,0.47986105,-0.13186133,0.1746243,0.1277903,-0.044644225,0.024661034,0.24802887,0.04321142,0.075700834,0.33752927,-0.20855753,188.44614
2019-07-01,0.21212351,0.48473024,-0.118739426,0.16563459,0.14022699,-0.045375135,0.023960406,0.25596094,0.027720865,0.082209244,0.338971,-0.21779123,90.33114
2019-07-02,0.21407604,0.49296024,-0.06326475,0.16413246,0.15215582,-0.047267895,0.057376154,0.25278032,0.010627702,0.07559158,0.3411169,-0.2298863,279.5261
2019-07-03,0.24166422,0.49775228,-0.045185164,0.12564544,0.14611143,-0.031603817,0.055726334,0.2667716,0.00450531,0.10682838,0.35230416,-0.25699368,225.40965
2019-07-05,0.22563776,0.5136418,-0.029558923,0.120884284,0.15048555,-0.023092423,0.068746224,0.27031675,0.0012243465,0.08621876,0.35608512,-0.27153492,201.66216
2019-07-08,0.21189035,0.5163239,-0.039791927,0.15288454,0.14278671,-0.018933233,0.075063884,0.27649435,-0.0018178523,0.08127001,0.37545574,-0.26497772,364.37772
2019-07-09,0.2263998,0.5230757,-0.04966385,0.14212614,0.13528702,-0.01659752,0.043332383,0.28365448,-0.0036140718,0.10804285,0.37350085,-0.26223144,235.76248
2019-07-10,0.2106536,0.5345409,-0.01666003,0.14790584,0.12627417,-0.0050997026,0.05345253,0.27354044,0.0040746033,0.08640216,0.3838649,-0.26885626,420.5982
2019-07-11,0.17332649,0.5398886,-0.016815344,0.16387637,0.104003996,0.0033215098,0.055025242,0.275879,0.014958318,0.07394758,0.39049765,-0.259419,503.7789
2019-07-12,0.1666947,0.51586556,-0.039237287,0.19085765,0.11049595,0.002051916,0.047067113,0.30407906,0.013524622,0.102047816,0.3914442,-0.23519939,284.39572
2019-07-15,0.1989413,0.50595933,-0.02514324,0.15821308,0.11440074,0.005041998,0.03893718,0.3080492,0.008582398,0.13558273,0.37476945,-0.24247256,318.87973
2019-07-16,0.19103666,0.49968255,-0.014955677,0.16767655,0.10927687,0.013130404,0.043141164,0.31086066,0.02070826,0.15686235,0.3917783,-0.23481122,393.00317
2019-07-17,0.18537632,0.48280823,-0.012887698,0.1862739,0.10839974,0.0265706,0.03238465,0.30706868,0.04087135,0.15598258,0.39228764,-0.22457144,262.9928
2019-07-18,0.18657793,0.48793554,-0.00031981245,0.18540275,0.111531645,0.018081523,0.022449613,0.30421668,0.038698286,0.15735157,0.40010104,-0.22779077,175.76146
2019-07-19,0.17463756,0.48550782,0.007724736,0.19927871,0.099524304,0.023116823,0.03170462,0.29444355,0.0459219,0.15926981,0.40385363,-0.22391135,2635.3555
2019-07-22,0.17655373,0.4950101,-0.010658555,0.2025503,0.11108613,0.020944815,0.036473375,0.30529884,0.05987218,0.16048926,0.40616548,-0.2106975,320.0342
2019-07-23,0.17065015,0.5176129,0.007579919,0.19602314,0.116503924,0.01402656,0.043903183,0.303712,0.05260163,0.14801809,0.41923282,-0.22083846,268.9909
2019-07-24,0.1774077,0.52753,0.030264147,0.19137326,0.131125,0.009775016,0.04919547,0.3104195,0.05002326,0.14900714,0.42733452,-0.22479612,373.93332
2019-07-25,0.17976388,0.56614625,0.032703593,0.18502559,0.14827016,-0.01049852,0.05918628,0.31964,0.03998522,0.13952059,0.4401237,-0.23665133,298.48126
2019-07-26,0.19906121,0.5617739,0.026620418,0.18906645,0.15936118,-0.016731542,0.060604323,0.3299767,0.03892217,0.14894864,0.442117,-0.22727758,118.60249
2019-07-29,0.20364794,0.5645335,0.03424836,0.17656775,0.14651716,-0.012468755,0.055390466,0.32195458,0.038906667,0.14795497,0.4277089,-0.23891798,91.71961
2019-07-30,0.21615414,0.555897,0.036437206,0.18084541,0.14435315,-0.0028152876,0.04240995,0.31964862,0.041624397,0.16990091,0.44050553,-0.23194405,147.26271
2019-07-31,0.20757335,0.5631919,0.02152539,0.18838763,0.13415587,-0.007917911,0.04354904,0.30386057,0.04131401,0.16241111,0.45044884,-0.2312378,254.02922
2019-08-01,0.21077913,0.53818595,0.008061908,0.20092267,0.1331568,0.025142599,0.006421879,0.31186327,0.06505863,0.16023993,0.4592044,-0.2181279,647.78186
2019-08-02,0.2155522,0.5180121,-0.029750831,0.20440668,0.13498852,0.010861505,-0.010127723,0.31842205,0.0916178,0.15272045,0.45032832,-0.20496988,848.2435
2019-08-05,0.20479235,0.48387063,-0.016781718,0.22769734,0.1352619,0.020466745,-0.004445698,0.31131494,0.12093453,0.12347138,0.4208248,-0.18858181,279.23923
2019-08-06,0.16476826,0.38276622,-0.072445154,0.284378,0.10852209,0.039738547,-0.045351364,0.26992983,0.15316562,0.11856902,0.40974674,-0.12189713,1512.9802
2019-08-07,0.13733473,0.38594663,-0.04289826,0.29419884,0.102425985,0.03902785,-0.029820114,0.25650123,0.16577488,0.09178598,0.40353978,-0.13889812,154.62929
2019-08-08,0.13843548,0.3726718,-0.049341507,0.29124102,0.09928779,0.028962053,-0.039792,0.24576178,0.17235138,0.095303506,0.40009835,-0.13794777,96.08492
2019-08-09,0.13343209,0.36887497,-0.03205791,0.282211,0.08701523,0.030904453,-0.02505868,0.23169893,0.16991387,0.08737299,0.3574963,-0.14999393,133.69328
2019-08-12,0.1342071,0.35969162,-0.05538928,0.27170137,0.082074255,0.024036374,-0.036364187,0.22033973,0.17854397,0.07696779,0.35071436,-0.14778338,177.8527
2019-08-13,0.13391195,0.35469368,-0.07488221,0.26969802,0.07697519,0.01055425,-0.061475046,0.2221168,0.1831793,0.07685958,0.35655698,-0.13184737,184.889
2019-08-14,0.10552807,0.34478498,-0.048346702,0.2714706,0.08258282,0.005942248,-0.02638442,0.22155194,0.18197118,0.046834845,0.33077425,-0.13838911,220.31813
2019-08-15,0.108452216,0.2711043,-0.11898689,0.32253525,0.08365686,0.018206283,-0.11506965,0.22570994,0.18773608,0.07908097,0.35846254,-0.069287285,865.0772
2019-08-16,0.10582079,0.28344214,-0.12780419,0.31687668,0.08529888,0.00033345446,-0.09636887,0.21711713,0.17987017,0.08165045,0.3538457,-0.076457076,155.40694
2019-08-19,0.11678773,0.29571193,-0.108773366,0.30310354,0.103026114,-0.006484419,-0.075279444,0.23998767,0.15714738,0.083965346,0.35483825,-0.09001383,2165.229
2019-08-20,0.12484197,0.30845255,-0.08721614,0.27984175,0.110387914,-0.0008987449,-0.049612172,0.25532708,0.14221393,0.084877655,0.3454874,-0.111224934,209.26009
2019-08-21,0.15254791,0.3241117,-0.11394055,0.26392496,0.111113206,-0.018402752,-0.06599214,0.25952524,0.12353656,0.10081035,0.37795234,-0.12045118,2096.1187
2019-08-22,0.15649095,0.33793223,-0.09356287,0.24433225,0.12314256,-0.034349173,-0.042875208,0.27223957,0.098286614,0.09873766,0.38627574,-0.1436559,213.52682
2019-08-23,0.16416122,0.3348586,-0.11870705,0.23325732,0.117647216,-0.034262132,-0.03873958,0.26345786,0.088992886,0.09727332,0.37724766,-0.14438498,68.58877
2019-08-26,0.19158399,0.32714453,-0.19541451,0.21662605,0.13286293,-0.056702983,-0.11304621,0.25281602,0.08343311,0.0707141,0.3533853,-0.13258123,413.0901
2019-08-27,0.19177628,0.3389909,-0.18020865,0.21055412,0.116445616,-0.05221455,-0.10351115,0.25026405,0.06280086,0.06745863,0.3276449,-0.15623102,98.47682
2019-08-28,0.20068806,0.31875482,-0.18732113,0.20102979,0.11400139,-0.053498887,-0.13887554,0.25984913,0.045792043,0.085674524,0.32896003,-0.15725744,116.78547
2019-08-29,0.19833264,0.33455092,-0.18011805,0.19914825,0.11722204,-0.042121883,-0.14332181,0.267255,0.043973632,0.08867337,0.33897394,-0.15881899,52.56154
2019-08-30,0.22083081,0.34436235,-0.15015516,0.20149575,0.11704998,-0.03956076,-0.12649816,0.2610441,0.023162376,0.09920868,0.32768878,-0.17000997,121.96297
2019-09-03,0.23285708,0.35073215,-0.13604449,0.17991602,0.109956935,-0.038201425,-0.12645617,0.26234055,0.025841005,0.103993356,0.3306012,-0.18453489,63.248306
2019-09-04,0.23545656,0.35580164,-0.12494069,0.17163022,0.10854437,-0.04519542,-0.12726182,0.2619901,0.03061156,0.08473462,0.31821963,-0.19211277,80.524536
2019-09-05,0.23347437,0.36007768,-0.12835464,0.17518036,0.111713275,-0.05477864,-0.11202846,0.26004472,0.011652235,0.09688935,0.32225692,-0.1890792,122.808075
2019-09-06,0.23509568,0.35195187,-0.10000978,0.17299768,0.11821028,-0.043894995,-0.074646406,0.26009032,0.007187307,0.10225855,0.3015903,-0.18724228,136.59477
2019-09-09,0.24910963,0.35987777,-0.107801065,0.16299006,0.1082171,-0.0503246,-0.09187463,0.26266754,4.7262758e-05,0.13977952,0.32151595,-0.18903865,212.56133
2019-09-10,0.23539019,0.375359,-0.13844264,0.18905178,0.12037841,-0.043773226,-0.09428681,0.25418064,-0.0005533509,0.14094341,0.34083536,-0.1490461,1383.1299
2019-09-11,0.21361254,0.36890474,-0.16151941,0.20643201,0.108409755,-0.023464747,-0.10382909,0.24190533,0.01904628,0.13734587,0.32352078,-0.123851776,3674.646
2019-09-12,0.24941826,0.36388332,-0.1488896,0.17260337,0.10162776,-0.01570037,-0.110784255,0.22485107,0.010029774,0.16430095,0.31617388,-0.14339769,180.44223
2019-09-13,0.25864363,0.37701648,-0.15380275,0.17884222,0.09268582,-0.025284056,-0.10882153,0.20594561,-0.0020122118,0.16520926,0.31608286,-0.16444352,229.56241
2019-09-16,0.26276273,0.3929563,-0.1465534,0.17055815,0.09372111,-0.021616261,-0.11051259,0.20506963,-0.0128985755,0.17213228,0.31286153,-0.17016228,582.4706
2019-09-17,0.28189924,0.39565772,-0.13208193,0.16749473,0.09314608,-0.018947242,-0.14087772,0.20363544,-0.02620725,0.19275051,0.31699255,-0.17328346,179.08994
2019-09-18,0.29028383,0.41452795,-0.13772297,0.13780122,0.0813946,-0.040075112,-0.12466698,0.1845004,-0.04803675,0.18189436,0.30591792,-0.20707986,286.69644
2019-09-19,0.2775882,0.45226818,-0.1158302,0.12113768,0.08609808,-0.033118438,-0.09934701,0.19219688,-0.031596627,0.15095802,0.31195313,-0.22729033,152.0504
2019-09-20,0.296108,0.45995402,-0.08847567,0.10518921,0.09961082,-0.037290428,-0.085317776,0.20786572,-0.029644426,0.13894182,0.3027282,-0.2487075,122.23687
2019-09-23,0.27724198,0.45563453,-0.075588666,0.109949976,0.0881573,-0.021314386,-0.094103575,0.21293065,-0.0059578083,0.11087684,0.3037356,-0.24702972,194.58568
2019-09-24,0.29659358,0.4620719,-0.11134373,0.11054587,0.06617384,-0.029875163,-0.12655929,0.19694132,-0.023693781,0.13361052,0.30786335,-0.25206473,484.93015
2019-09-25,0.2823167,0.4421417,-0.11851359,0.14029375,0.060136355,-0.023610085,-0.1623795,0.1987882,-0.022576075,0.12807184,0.32977775,-0.22984636,126.607086
2019-09-26,0.27257708,0.45079696,-0.10047214,0.17051867,0.07786343,-0.03235905,-0.16823041,0.20374155,-0.040100012,0.1367477,0.34071442,-0.2170296,208.09233
2019-09-27,0.28428718,0.44932213,-0.096968,0.1504696,0.074783415,-0.033429418,-0.19441897,0.19945756,-0.05232166,0.1457055,0.34608638,-0.22929904,89.06033
2019-09-30,0.2667962,0.43266886,-0.07591754,0.16545695,0.07618709,-0.01277769,-0.18245554,0.2058281,-0.033636924,0.13487032,0.34605968,-0.21530843,163.78622
2019-10-01,0.27540308,0.41961852,-0.070211574,0.16587253,0.08421593,-0.020939719,-0.17211646,0.19540003,-0.04798867,0.14684512,0.34348512,-0.22190693,154.51205
2019-10-02,0.26336092,0.4022074,-0.09916596,0.17176622,0.074410245,-0.023579348,-0.19331169,0.19131035,-0.03805371,0.13077877,0.3477051,-0.20738004,131.38924
2019-10-03,0.21266568,0.37475497,-0.12954845,0.20946628,0.082815394,-0.015191607,-0.18804818,0.18201092,-0.008843381,0.09538567,0.34636,-0.17205486,254.3581
2019-10-04,0.18638954,0.37106457,-0.096548386,0.21563607,0.09115039,-0.015767548,-0.17184979,0.18791607,-0.020429175,0.082321525,0.34713015,-0.18355122,219.08424
2019-10-07,0.18284822,0.3834339,-0.077512294,0.21367681,0.10281128,-0.019070152,-0.14677331,0.1942006,-0.021756556,0.08196066,0.34731773,-0.1882925,87.106636
2019-10-08,0.178897,0.37226468,-0.08339103,0.21231169,0.10567669,-0.01668131,-0.13970307,0.20747268,-0.0076737665,0.07778472,0.34003666,-0.1797001,116.74569
2019-10-09,0.18586165,0.36116636,-0.097735986,0.2187841,0.10661757,-0.0073044784,-0.15070203,0.22718099,0.023569576,0.079912335,0.34009263,-0.16115338,521.8168
2019-10-10,0.17351559,0.36902338,-0.07939623,0.2282761,0.122697085,-0.010223094,-0.11471575,0.24330062,0.021966685,0.08267076,0.35576925,-0.1627586,133.79189
2019-10-11,0.19066244,0.3776841,-0.07708159,0.21974534,0.12692995,-0.0108840205,-0.09803765,0.2541229,0.022261288,0.104430616,0.35134435,-0.16192752,77.19954
2019-10-14,0.22872537,0.37964687,-0.05506578,0.20045936,0.13858935,-0.003389202,-0.08232031,0.26458442,0.022469588,0.13997075,0.35652018,-0.16585782,194.88486
2019-10-15,0.23719248,0.38300836,-0.07786967,0.17880264,0.12951109,-0.016562425,-0.09447609,0.25866988,0.024775982,0.1395656,0.35244918,-0.17262404,484.81268
2019-10-16,0.28158057,0.37103194,-0.03170415,0.17085882,0.15305968,0.0052062273,-0.07853516,0.27467754,0.018143948,0.18434134,0.36041474,-0.17954424,323.36646
2019-10-17,0.27297094,0.3832037,-0.05430764,0.17181477,0.15519544,-0.00023779646,-0.09475378,0.27584335,0.018133018,0.17137057,0.39064905,-0.19219896,227.76497
2019-10-18,0.2832687,0.39333123,-0.04431217,0.1552104,0.16863528,0.007478986,-0.09196476,0.28781185,0.02213721,0.18742976,0.4060509,-0.20240252,3336.253
2019-10-21,0.26485234,0.38683924,-0.03739579,0.1615758,0.16314441,0.019526746,-0.09449101,0.29119194,0.029284988,0.18038535,0.42361394,-0.21221098,241.34525
2019-10-22,0.29567388,0.39104947,-0.04078821,0.16158578,0.16229805,0.018189993,-0.10945671,0.2939625,0.01335185,0.21530879,0.42853615,-0.21052405,121.68219
2019-10-23,0.29674459,0.38142803,-0.057360385,0.143776,0.14381367,0.028397892,-0.1282894,0.27719083,0.023462925,0.21664818,0.41937163,-0.21371034,224.89464
2019-10-24,0.32874793,0.35695228,-0.06317506,0.123264275,0.14376879,0.03804567,-0.13791063,0.26680163,0.016144462,0.26891556,0.37715316,-0.21666369,153.62378
2019-10-25,0.32778823,0.38607997,-0.042609066,0.10168693,0.1490179,0.02740492,-0.11597296,0.27393144,-0.0024119057,0.25778353,0.38843033,-0.24844173,245.44609
2019-10-28,0.3461753,0.41720885,-0.018926699,0.056861073,0.13150892,0.029682416,-0.1119025,0.23730645,-0.029226515,0.25305104,0.3765254,-0.28782797,1282.7896
2019-10-29,0.3352086,0.41934332,-0.0023376346,0.04431943,0.1205807,0.020711679,-0.11410194,0.2137076,-0.028830785,0.24509574,0.3618433,-0.31257504,180.82246
2019-10-30,0.37553766,0.42918593,-0.010348555,0.035306744,0.11844449,0.011814106,-0.15690085,0.20159203,-0.042417753,0.25587773,0.3582627,-0.32481593,521.74817
2019-10-31,0.37829003,0.44404536,-0.0039552413,0.015672028,0.11881758,0.009247735,-0.16436917,0.1940504,-0.04532745,0.23624331,0.35120806,-0.34966454,176.27777
2019-11-01,0.38716832,0.46683228,-0.026146151,-0.0062539056,0.104598805,-0.001911521,-0.17617762,0.18477714,-0.04153722,0.21500579,0.33888027,-0.35960227,876.73785
2019-11-04,0.4089431,0.46990925,-0.0514673,0.005589448,0.11111674,-0.005417321,-0.17762709,0.17654906,-0.06175418,0.25918075,0.33749756,-0.3428685,561.6933
2019-11-05,0.416135,0.47343984,-0.054005995,0.011071116,0.10983946,0.0020099878,-0.17650104,0.16798842,-0.07050286,0.26667342,0.32250643,-0.3487132,272.454
2019-11-06,0.42905596,0.4918756,-0.022404082,0.02208538,0.12776935,-0.003704222,-0.122102,0.16395584,-0.10246733,0.2861727,0.31450266,-0.3597613,557.1367
2019-11-07,0.43443075,0.50848436,-0.014883369,-0.008309305,0.116141304,-0.0078106634,-0.11966687,0.16112679,-0.100335255,0.27228084,0.31505135,-0.39096132,315.28244
2019-11-08,0.41480973,0.49825877,-0.030340519,0.009994969,0.10331947,-0.015793357,-0.11839049,0.14884515,-0.11262204,0.27010518,0.30103502,-0.3816992,472.46313
2019-11-11,0.4137154,0.5181883,-0.019029148,-0.014778934,0.09513401,-0.028232854,-0.13807347,0.14268005,-0.120376244,0.24869093,0.3076427,-0.40441856,419.8232
2019-11-12,0.42467895,0.51826274,-0.03209232,-0.012400396,0.08068435,-0.029773418,-0.14573255,0.13257745,-0.13615745,0.2566346,0.31251028,-0.41028005,140.01549
2019-11-13,0.42200026,0.5272334,-0.049932785,-0.022709139,0.07194382,-0.03915775,-0.14576012,0.12827516,-0.14247648,0.2380436,0.30730954,-0.42234555,203.1914
2019-11-14,0.40895328,0.5263736,-0.056862295,-0.015660182,0.06475536,-0.047725234,-0.14499137,0.12154102,-0.15390132,0.21303762,0.30478895,-0.42343783,105.42337
2019-11-15,0.41071185,0.50652766,-0.05833786,-0.036041066,0.045374736,-0.05176394,-0.12505677,0.11141045,-0.16450782,0.2348804,0.28142834,-0.42551255,222.71452
2019-11-18,0.39560893,0.5033605,-0.03734883,-0.03546153,0.03299488,-0.039248955,-0.115306415,0.10619086,-0.15729316,0.19792113,0.27333072,-0.43019363,129.9297
2019-11-19,0.39105082,0.4916444,-0.028248738,-0.04297544,0.027254537,-0.035294298,-0.12523025,0.1170556,-0.15354444,0.18545169,0.25349346,-0.4246479,112.57532
2019-11-20,0.38267574,0.48143366,-0.01996607,-0.04871177,0.019309223,-0.047948588,-0.09762304,0.109313354,-0.16505541,0.17725046,0.24014366,-0.4294061,158.85814
2019-11-21,0.3851504,0.46577096,-0.037972543,-0.04430697,0.00067713857,-0.045189727,-0.11465173,0.10001556,-0.16410659,0.18574739,0.21847227,-0.41514358,249.03827
2019-11-22,0.36346036,0.4629676,-0.04359414,-0.039005406,-0.018349357,-0.040072426,-0.1139132,0.09030305,-0.16114663,0.18086754,0.21461943,-0.40082836,2874.1633
2019-11-25,0.3634766,0.45461378,-0.046449255,-0.051935486,-0.03393843,-0.046972852,-0.10474781,0.085094936,-0.15821622,0.18047945,0.19862017,-0.39516747,168.39795
2019-11-26,0.36377144,0.44854024,-0.024865739,-0.06933089,-0.02768553,-0.053935934,-0.09755523,0.10018687,-0.16110684,0.16953686,0.19046277,-0.40571702,153.89482
2019-11-27,0.347324,0.4544415,-0.026618209,-0.09576187,-0.034498893,-0.07091203,-0.10625105,0.095797546,-0.15244512,0.13299325,0.18063346,-0.42212588,156.52348
2019-11-29,0.34022114,0.44877803,-0.017550983,-0.11054521,-0.03018196,-0.093247324,-0.09577639,0.10110696,-0.14578798,0.109188676,0.16820228,-0.42362422,141.70699
2019-12-02,0.32570204,0.44330686,-0.011939056,-0.11889603,-0.03374485,-0.098078996,-0.09422194,0.09728657,-0.14399071,0.08709861,0.1744686,-0.4295034,93.98089
2019-12-03,0.32692236,0.4461459,-0.0310736,-0.08920889,-0.0368616,-0.09172599,-0.08848908,0.114677854,-0.12851538,0.09583235,0.1856443,-0.4067775,258.3986
2019-12-04,0.342048,0.4548207,-0.011700705,-0.0862736,-0.036929816,-0.08748312,-0.09572586,0.10837555,-0.1256768,0.09631562,0.21995243,-0.4193421,114.97352
2019-12-05,0.33364648,0.44473714,-0.01506003,-0.07093846,-0.03315746,-0.0851041,-0.08292296,0.1071968,-0.111661956,0.08894563,0.21298143,-0.40319052,104.379654
2019-12-06,0.33095032,0.4415186,-0.007967234,-0.06740699,-0.031384043,-0.08854772,-0.08703127,0.10743286,-0.104600176,0.08446276,0.22052136,-0.39867386,84.200905
2019-12-09,0.33711642,0.43302387,-0.012913398,-0.066662155,-0.030226804,-0.08785697,-0.07668205,0.10880026,-0.10803822,0.098663196,0.2194885,-0.39460152,106.19439
2019-12-10,0.3411728,0.43224865,-0.0078000054,-0.07077601,-0.024896294,-0.08519386,-0.08186812,0.11530353,-0.1007313,0.1025818,0.2283499,-0.3942489,95.41926
2019-12-11,0.33492768,0.42205864,-0.012733035,-0.062209897,-0.024197012,-0.08314139,-0.083754264,0.11189343,-0.096768394,0.098383725,0.23641437,-0.39143276,102.28682
2019-12-12,0.33861423,0.4242543,-0.026524544,-0.0509293,-0.030561991,-0.085609704,-0.08497093,0.1028703,-0.09838633,0.118079245,0.24269152,-0.3796494,194.2137
2019-12-13,0.34058666,0.4186676,-0.02679047,-0.044767767,-0.018676497,-0.09195694,-0.054680996,0.0988352,-0.09970911,0.12907615,0.23300847,-0.3702134,118.00691
2019-12-16,0.34490117,0.40856197,-0.028788269,-0.05906727,-0.014633611,-0.098046884,-0.06755589,0.1031472,-0.10778494,0.116876766,0.22236899,-0.3672162,122.18343
2019-12-17,0.31928033,0.4010798,-0.011881486,-0.05617427,0.004430771,-0.10228895,-0.02211659,0.103030816,-0.106773406,0.1090031,0.2102361,-0.3670115,288.052
2019-12-18,0.31122983,0.38532197,0.010102786,-0.07328283,0.009572051,-0.113877684,-0.018361878,0.09632453,-0.09919958,0.10344949,0.20143318,-0.37961328,392.59634
2019-12-19,0.29960024,0.35775453,0.03378906,-0.07639619,0.017515525,-0.1233533,-0.00760762,0.097714394,-0.093697086,0.09343399,0.18352619,-0.37816882,425.40942
2019-12-20,0.30053276,0.3614305,0.039197102,-0.08978034,0.02616183,-0.14720729,0.0033760834,0.107517,-0.103105456,0.08629501,0.18147731,-0.39071375,280.09024
2019-12-23,0.29111096,0.34533292,0.0555225,-0.096303605,0.03858591,-0.14646608,0.01497934,0.11676388,-0.10125846,0.08717495,0.17249581,-0.3938979,465.3624
2019-12-24,0.29777777,0.35642105,0.051157393,-0.092800654,0.042641595,-0.1461635,0.02661266,0.12279885,-0.11260195,0.10812789,0.17768043,-0.39277053,149.07849
2019-12-26,0.29800862,0.36168158,0.04883281,-0.091727875,0.04786595,-0.14905697,0.031704295,0.12406822,-0.12851691,0.11359157,0.17937759,-0.39510265,62.38663
2019-12-27,0.28255475,0.34419984,0.060957916,-0.07676002,0.04710471,-0.14008556,0.0016742293,0.12494906,-0.13985534,0.109027326,0.19821057,-0.39232612,178.24745
2019-12-30,0.2894385,0.34044373,0.052074216,-0.08496522,0.04419123,-0.13795637,-0.017541394,0.13222055,-0.14123605,0.10419774,0.19429523,-0.39833748,1198.969
2019-12-31,0.28361326,0.3298745,0.04876273,-0.059074096,0.052911203,-0.13150913,-0.025586594,0.14622875,-0.1349258,0.10045564,0.20782581,-0.38769856,140.50732
2020-01-02,0.35369197,-0.10111183,0.3935591,-0.11291636,0.46152854,0.27671042,0.43356842,0.66267955,0.53291637,0.11726723,-0.029213812,-0.6266041,4871.3535
2020-01-03,0.3560702,-0.10655184,0.3635047,-0.12165878,0.47296366,0.2713101,0.4048151,0.6694414,0.5235942,0.1190019,-0.03392199,-0.6321393,53.74115
2020-01-06,0.36314777,-0.103835806,0.3626742,-0.11585573,0.45827976,0.26221532,0.40507138,0.66850644,0.54554963,0.101857506,-0.02133726,-0.6263655,72.80737
2020-01-07,0.3472438,-0.108097255,0.3342818,-0.1118995,0.46439996,0.2581004,0.3932144,0.6559916,0.54673314,0.10138593,-0.034092713,-0.6217896,88.62154
2020-01-08,0.3629935,-0.10053116,0.3091673,-0.11845081,0.47272208,0.27160898,0.42072624,0.626887,0.55876046,0.0917841,-0.02963886,-0.60708964,70.46035
2020-01-09,0.35375607,-0.0846619,0.302945,-0.12507105,0.46857688,0.25578874,0.41355273,0.63277274,0.5412893,0.1034537,-0.0034300266,-0.591503,142.11292
2020-01-10,0.3643095,-0.09040691,0.31105503,-0.13202289,0.4635515,0.2618084,0.42356646,0.6383012,0.51813567,0.104461305,-0.026230466,-0.6025256,696.57104
2020-01-13,0.3729504,-0.09898895,0.31871998,-0.12833607,0.46411124,0.26146376,0.44098297,0.6410338,0.5172478,0.10782764,-0.017714996,-0.59936607,58.296
2020-01-14,0.36115673,-0.089454755,0.3235183,-0.14883703,0.49295226,0.27026844,0.4520544,0.6289397,0.5157272,0.070496865,-0.010200313,-0.5988087,121.680405
2020-01-15,0.3446171,-0.08430314,0.3472754,-0.15448692,0.49543074,0.29564953,0.46167177,0.61660475,0.5268512,0.055167086,-0.012567039,-0.5885545,84.277664
2020-01-16,0.34968898,-0.09132555,0.33053893,-0.16116622,0.49848017,0.28496596,0.46219215,0.60203916,0.514571,0.06828865,0.003989783,-0.58460385,184.18385
2020-01-17,0.3297861,-0.1005781,0.33574367,-0.15477574,0.49309275,0.27617466,0.46904597,0.57840484,0.5043903,0.079146735,-0.005189649,-0.5660089,282.07016
2020-01-21,0.32332376,-0.10335629,0.3310629,-0.16188025,0.48656335,0.26308742,0.4584044,0.568806,0.49687642,0.060326777,0.0087970765,-0.572524,316.62866
2020-01-22,0.33254054,-0.1024899,0.27417323,-0.13651407,0.4774244,0.24562228,0.42990184,0.56034625,0.495406,0.05592639,0.005324536,-0.56236786,101.60232
2020-01-23,0.30934188,-0.10112773,0.2569916,-0.17178237,0.47409216,0.25339958,0.46438906,0.52258384,0.50826406,0.026696272,0.027042184,-0.5503528,523.90845
2020-01-24,0.3072933,-0.09143166,0.25327402,-0.19046679,0.49393865,0.27064598,0.48010552,0.5028221,0.5174857,-0.0050861165,0.0438956,-0.5478707,224.37143
2020-01-27,0.3239216,-0.10686818,0.23903185,-0.21338773,0.48499957,0.26062664,0.45199427,0.47797126,0.5016951,-0.04982666,0.084311716,-0.5623795,1033.6941
2020-01-28,0.3444325,-0.08005926,0.24239016,-0.16347688,0.44111484,0.20636392,0.38942292,0.4798463,0.5174244,-0.060448177,0.14668208,-0.51156324,207.78093
2020-01-29,0.3080363,-0.058711052,0.22351418,-0.17282426,0.48190334,0.21004903,0.40633002,0.45324224,0.54048985,-0.07979799,0.15650824,-0.47949553,121.091934
2020-01-30,0.30662772,-0.05433943,0.21383648,-0.14711869,0.48998764,0.18379629,0.3972861,0.46153265,0.5186654,-0.07287227,0.1463278,-0.4664061,67.289276
2020-01-31,0.26732787,-0.05885396,0.24752396,-0.09949685,0.48745117,0.145046,0.39289936,0.48059452,0.4800495,-0.06349931,0.1126919,-0.44129425,144.76178
2020-02-03,0.2999814,-0.07075976,0.20480107,-0.014163397,0.4131281,0.038336225,0.24764878,0.45705074,0.42722097,0.0038704649,0.090438366,-0.4328463,404.91562
2020-02-04,0.26908752,-0.042834222,0.20379479,-0.008771785,0.3988988,0.024182238,0.23736694,0.42993623,0.41849518,0.02422937,0.09953908,-0.40081328,684.28424
2020-02-05,0.22454676,-0.03899598,0.2287622,-0.0062573925,0.37684998,0.0062505677,0.23654445,0.39389217,0.38981044,0.045402743,0.09446978,-0.38583982,257.90878
2020-02-06,0.21032616,-0.05220899,0.22080661,-0.0077616796,0.36365038,-0.008948907,0.22195406,0.378758,0.36377597,0.022247404,0.07849262,-0.40207416,403.21487
2020-02-07,0.20944527,-0.039063662,0.23080872,-0.023207583,0.38086936,0.013882332,0.24014169,0.3668626,0.36955783,0.012909345,0.07913797,-0.40086696,545.0133
2020-02-10,0.21452078,-0.03398183,0.22688468,-0.010450445,0.36452895,0.009598188,0.22441503,0.36848342,0.35894275,0.00956282,0.068426594,-0.40734488,158.19034
2020-02-11,0.20468855,-0.02592247,0.23346846,-0.015022881,0.36790913,0.016645417,0.23196717,0.34182853,0.37559703,0.00075268,0.07204556,-0.39526838,264.92648
2020-02-12,0.17936917,-0.047111586,0.23459351,-0.027271882,0.36858773,0.06992183,0.24644828,0.32751018,0.40117165,-0.0069234148,0.06473523,-0.38130754,1547.1329
2020-02-13,0.20216975,-0.08466008,0.20850213,-0.04839822,0.38997534,0.106343575,0.24256799,0.33854312,0.4016982,-0.007028125,0.06634166,-0.40204716,253.39966
2020-02-14,0.19911802,-0.07676767,0.2304459,-0.05168668,0.3880156,0.12015314,0.24171865,0.34489852,0.42767212,-0.020453788,0.08576777,-0.38882965,273.93
2020-02-18,0.19374228,-0.072306454,0.23997323,-0.042639658,0.35294196,0.12652507,0.2284136,0.35362488,0.46084937,-0.054105483,0.103357576,-0.3538909,254.30327
2020-02-19,0.21100262,-0.06121338,0.20378736,-0.018969625,0.32941,0.1255525,0.19176425,0.3457361,0.47073653,-0.038450338,0.11591674,-0.33361036,169.51544
2020-02-20,0.20769897,-0.07921788,0.19499286,-0.028444372,0.297701,0.15515691,0.20130463,0.3634802,0.49079582,-0.045605578,0.119358666,-0.33865464,155.9051
2020-02-21,0.20202151,-0.055208407,0.20746754,-0.017568432,0.26927346,0.12728193,0.18063161,0.37431854,0.4902623,-0.054994054,0.13787484,-0.32993588,157.22356
2020-02-24,0.2130464,-0.017467216,0.1864921,-0.008318119,0.23023191,0.13375613,0.16348729,0.37901425,0.540411,-0.07652343,0.17688493,-0.26845118,263.21973
2020-02-25,0.12888363,0.06358949,0.14786752,0.083373986,0.12778044,0.0987413,0.13282967,0.27908176,0.5060925,-0.07813058,0.1907082,-0.14814673,1803.4597
2020-02-26,0.13371693,0.1126374,0.048981294,0.10247312,0.06989135,0.102244176,0.08686777,0.21070094,0.48493582,-0.06978134,0.21805492,-0.10486649,337.0408
2020-02-27,0.14082259,0.13779935,0.07128758,0.08793544,0.056363612,0.11661794,0.118466794,0.21211593,0.4807619,-0.085007735,0.24223804,-0.11159421,198.02806
2020-02-28,0.14583361,0.17467386,-0.012273079,0.099318735,-0.016414221,0.086531155,0.05822555,0.1520359,0.46621102,-0.06554019,0.26740882,-0.043330006,492.06592
2020-03-02,0.1688988,0.20438662,-0.04769842,0.111735895,-0.045662753,0.10630334,0.053607494,0.111439794,0.4827247,-0.075505085,0.30484572,-0.030385219,632.2656
2020-03-03,0.16090637,0.16306731,-0.006969551,0.18022352,-0.047459625,0.061113514,0.038625363,0.15243088,0.499545,-0.089012064,0.31271145,-0.044271342,352.46094
2020-03-04,0.15626204,0.16417566,0.011908064,0.18429932,-0.07259101,0.038771726,0.020726245,0.14209129,0.48192003,-0.06813484,0.32517466,-0.020407286,504.1927
2020-03-05,0.17382821,0.09400112,0.08190317,0.24120596,-0.077057734,-0.03316567,0.020754676,0.1700313,0.45496705,-0.055550195,0.30488965,-0.055922568,1088.4866
2020-03-06,0.17367676,0.08987855,0.09916346,0.22694314,-0.08997415,-0.03752549,0.016453266,0.15616813,0.44541678,-0.046916313,0.31335118,-0.036577575,145.25517
2020-03-09,0.18482035,0.08486614,0.10611035,0.21880677,-0.09761539,-0.032113515,0.025577866,0.1451703,0.45139468,-0.048835672,0.31549856,-0.025312029,144.91615
2020-03-10,0.15007845,0.09375906,0.09517013,0.19570455,-0.11483889,-0.036825277,0.019565292,0.10290675,0.4265736,-0.023239352,0.3157394,0.015436478,354.0544
2020-03-11,0.1545527,0.07922746,0.13564916,0.22209549,-0.11402271,-0.053670205,0.029346108,0.11421035,0.43240434,-0.026884682,0.32577643,0.011657067,226.64253
2020-03-12,0.16530183,0.07444689,0.14323358,0.2312426,-0.1410492,-0.058378756,0.019257817,0.12354727,0.4297986,-0.0041313022,0.34030616,0.008051783,218.35051
2020-03-13,0.121881336,0.09665499,0.15080191,0.21522102,-0.18972847,-0.05383694,0.03271907,0.112120226,0.40516365,0.006823115,0.34850177,0.02347748,654.6298
2020-03-16,0.121613726,0.07160187,0.1872485,0.2468107,-0.18993285,-0.0874679,0.037588052,0.1145359,0.40578455,0.020451017,0.35597804,0.018641286,367.2268
2020-03-17,0.099567175,0.09097875,0.18126042,0.23134297,-0.23868942,-0.055177398,0.030714002,0.12667637,0.3901877,0.015794374,0.3667886,0.037104852,274.8271
2020-03-18,0.120895624,0.06511219,0.21565665,0.2513335,-0.23012012,-0.077499606,0.044309124,0.1452342,0.39416307,0.009967096,0.36257872,0.010118075,292.22113
2020-03-19,0.1468453,0.07250653,0.22223495,0.23704463,-0.22958562,-0.06536221,0.041276433,0.17202823,0.38701963,-0.0114449635,0.35021332,-0.02123398,612.65515
2020-03-20,0.16862684,0.07223951,0.22470154,0.21651444,-0.21040973,-0.049049206,0.05245769,0.18701123,0.3914033,-0.041925944,0.355754,-0.05935011,542.6273
2020-03-23,0.17774034,0.08611615,0.20948817,0.196789,-0.20242679,-0.029084988,0.05798708,0.19475125,0.40258342,-0.06182415,0.37234652,-0.067728415,168.76814
2020-03-24,0.18934315,0.08937291,0.22213818,0.18230349,-0.2027021,-0.017077938,0.06802853,0.21225096,0.3996324,-0.080654986,0.3727832,-0.10017818,170.65088
2020-03-25,0.19446635,0.069278926,0.2282467,0.19301447,-0.19494826,-0.023081444,0.07658787,0.21416362,0.42154807,-0.055191018,0.3813523,-0.10204818,127.49703
2020-03-26,0.20091453,0.06047506,0.23564087,0.18716615,-0.21568611,-0.009189911,0.088372886,0.22524829,0.43825376,-0.040769495,0.3922551,-0.094768286,153.76495
2020-03-27,0.21866918,0.027316315,0.26943696,0.20647979,-0.19389442,-0.030833326,0.09351257,0.25451386,0.4203647,-0.056346424,0.3734581,-0.122439146,429.03296
2020-03-30,0.21917531,0.025215913,0.2626648,0.18754452,-0.20770857,-0.0068675205,0.09889331,0.257302,0.44090438,-0.06627462,0.38195145,-0.115861736,141.45795
2020-03-31,0.2313706,0.0048061237,0.29173154,0.18608615,-0.19150102,-0.015134595,0.10636823,0.29001164,0.42896432,-0.07078121,0.3583603,-0.14230865,285.31216
2020-04-01,0.24188784,-0.0015411042,0.30571893,0.17867717,-0.19239905,-0.012032039,0.10536601,0.31225324,0.42910102,-0.10430663,0.35453388,-0.15388863,231.569
2020-04-02,0.23594302,-0.007457748,0.3266089,0.16832557,-0.21276894,0.008222245,0.12912346,0.34067625,0.41315258,-0.11263455,0.342977,-0.17609829,638.973
2020-04-03,0.25004628,-0.016712308,0.32008678,0.1496228,-0.19207022,0.022886612,0.13150838,0.35833496,0.43363416,-0.11763733,0.33652464,-0.16687751,354.80365
2020-04-06,0.24791601,-0.01950647,0.32599652,0.13487071,-0.19540954,0.033455886,0.13675433,0.3760605,0.42297965,-0.12505773,0.32670856,-0.17571916,103.11235
2020-04-07,0.23971173,-0.040078655,0.3619039,0.11670838,-0.15396471,0.00014757365,0.1440857,0.39625514,0.37310943,-0.1403139,0.29589725,-0.21628845,321.26096
2020-04-08,0.2506099,-0.052277178,0.33519584,0.10361085,-0.1250841,0.0558941,0.15741275,0.41812122,0.42438838,-0.1025585,0.2929058,-0.1965408,37913.3
2020-04-09,0.26310465,-0.068242356,0.37089717,0.065362155,-0.105112165,0.019516312,0.15508212,0.43106085,0.36648354,-0.1322726,0.26497254,-0.24644014,246.25986
2020-04-13,0.25495675,-0.064895436,0.36930308,0.04680468,-0.07739864,0.054336675,0.16336372,0.44328576,0.39814326,-0.13379401,0.26521704,-0.23549208,264.1051
2020-04-14,0.25520852,-0.071577825,0.35965434,0.025272824,-0.029825699,0.026297875,0.14726928,0.45354253,0.37381005,-0.1549288,0.23006865,-0.28675976,241.1761
2020-04-15,0.26114714,-0.08024274,0.36558938,0.0010178313,0.008506421,0.023071088,0.15594545,0.4599939,0.3804668,-0.15682226,0.21500656,-0.3151665,279.6156
2020-04-16,0.2563072,-0.09463443,0.36450356,-0.004482284,0.010259412,0.036260106,0.1605296,0.46742278,0.377907,-0.1400429,0.2012384,-0.3444124,669.8463
2020-04-17,0.25939152,-0.11012897,0.3593138,-0.007184997,0.032871917,0.046639644,0.17713283,0.47630125,0.3933404,-0.12258194,0.1902565,-0.37454098,371.32993
2020-04-20,0.2564101,-0.1263619,0.3675937,-0.017840944,0.050252043,0.07542191,0.18988165,0.49215806,0.41887024,-0.108387895,0.18247062,-0.39160132,318.3298
2020-04-21,0.25348106,-0.1300647,0.3698973,-0.033255927,0.051237337,0.09559084,0.1935935,0.49671787,0.41974923,-0.11751378,0.16660827,-0.41072518,144.89117
2020-04-22,0.24894735,-0.13647598,0.34397507,-0.026149616,0.06410185,0.1298222,0.18602102,0.51019937,0.45718738,-0.11223293,0.17481276,-0.38955045,126.13089
2020-04-23,0.23987994,-0.14511403,0.35182267,-0.0374394,0.093458034,0.11644841,0.18757242,0.5158261,0.42771927,-0.12150697,0.15358362,-0.4142152,146.64581
2020-04-24,0.22998038,-0.1415795,0.35070285,-0.053733453,0.1225628,0.13847527,0.1844997,0.52860945,0.45368657,-0.1260086,0.15177578,-0.41075808,116.36368
2020-04-27,0.23113668,-0.14339234,0.36600915,-0.075156435,0.15294838,0.13736838,0.19768405,0.5270638,0.43972626,-0.13346088,0.13739504,-0.41850019,99.39725
2020-04-28,0.22041789,-0.13474987,0.37612176,-0.09458885,0.16438207,0.133055,0.19738124,0.52114934,0.42829052,-0.15407637,0.12636584,-0.43672156,81.60316
2020-04-29,0.2105371,-0.13327216,0.36304048,-0.09109021,0.17574537,0.16528481,0.1974195,0.53525317,0.45593983,-0.13813367,0.13821873,-0.42137435,76.31445
2020-04-30,0.19195014,-0.1204811,0.35487866,-0.119468935,0.19195655,0.15759265,0.18294364,0.53417486,0.437829,-0.14512044,0.12275938,-0.43863857,97.55287
2020-05-01,0.17878218,-0.12532493,0.34786633,-0.11899062,0.21342036,0.16713381,0.18677214,0.5311121,0.45386785,-0.1286886,0.11721388,-0.4306954,54.473244
2020-05-04,0.19470638,-0.121739164,0.36604965,-0.13461581,0.18159139,0.16277504,0.17687204,0.5223583,0.45470425,-0.14305434,0.13177153,-0.4432373,81.2765
2020-05-05,0.18896495,-0.11341977,0.3564513,-0.15041837,0.2005617,0.16593668,0.1709539,0.51227397,0.46177223,-0.14848658,0.12682252,-0.43524703,52.71949
2020-05-06,0.18035807,-0.12112832,0.37295926,-0.13524723,0.216611,0.14120007,0.16889404,0.52113134,0.44627008,-0.14779305,0.11534058,-0.43837905,65.50909
2020-05-07,0.16816425,-0.110887975,0.374963,-0.14305699,0.23423168,0.14518249,0.18128006,0.52155465,0.44934437,-0.1466437,0.10977205,-0.45302,49.53091
2020-05-08,0.16955644,-0.10095292,0.3599664,-0.16083547,0.25587982,0.17376584,0.1956287,0.52236617,0.4655995,-0.14288807,0.1176103,-0.45346084,76.63166
2020-05-11,0.17542948,-0.10274425,0.36746544,-0.17272678,0.2587267,0.17100346,0.19773349,0.5228342,0.46330324,-0.16277447,0.11445979,-0.47122705,39.59005
2020-05-12,0.17704879,-0.1072263,0.37762427,-0.18712792,0.26967064,0.16939825,0.20843102,0.5178741,0.46853665,-0.17372444,0.10630073,-0.46498418,44.224667
2020-05-13,0.17732015,-0.10836388,0.3772254,-0.17977053,0.27525643,0.18378395,0.2125552,0.5232154,0.49074885,-0.17176276,0.119009875,-0.46210754,37.269638
2020-05-14,0.1815255,-0.10451622,0.3794524,-0.17976525,0.275627,0.19148758,0.21391849,0.5202082,0.5105915,-0.18484157,0.12419567,-0.45296082,30.052631
2020-05-15,0.19041865,-0.11544168,0.36969328,-0.16913942,0.26184952,0.1841358,0.21380039,0.5164605,0.48681965,-0.16485015,0.12780808,-0.4626008,53.95691
2020-05-18,0.20112485,-0.105873615,0.38202566,-0.17823806,0.26093274,0.18500361,0.21896948,0.50572443,0.48585483,-0.19017139,0.13450599,-0.46096042,49.09736
2020-05-19,0.20764089,-0.107008845,0.3797682,-0.19487059,0.26069656,0.18310946,0.21656168,0.4989283,0.48242626,-0.19627032,0.13096602,-0.46586335,25.400602
2020-05-20,0.21512851,-0.110850066,0.36713794,-0.19343996,0.26880217,0.19035721,0.2132909,0.511646,0.48472404,-0.19205981,0.12892301,-0.46638876,26.676577
2020-05-21,0.235239,-0.10198368,0.33432898,-0.19552884,0.26809618,0.18474221,0.20329563,0.50921595,0.4521678,-0.1973969,0.13242024,-0.4633283,48.60061
2020-05-22,0.2379227,-0.10932477,0.3331804,-0.18965006,0.2564026,0.15591496,0.19939682,0.50701773,0.42963755,-0.22079423,0.1314672,-0.47989082,55.134583
2020-05-26,0.2323255,-0.11091332,0.28097343,-0.18910053,0.29530615,0.1732603,0.20049545,0.5182899,0.43650502,-0.20229116,0.13936536,-0.4760173,65.63006
2020-05-27,0.22520807,-0.10186149,0.25992864,-0.18556625,0.28010282,0.20307112,0.19674435,0.5254934,0.44201338,-0.18749523,0.15339276,-0.46188515,67.8087
2020-05-28,0.2173067,-0.10470313,0.23106958,-0.17798871,0.28128478,0.20783845,0.17991097,0.53643554,0.43875358,-0.18693706,0.1574369,-0.4668826,39.645786
2020-05-29,0.21770367,-0.100151226,0.24537927,-0.18297502,0.26322106,0.20839992,0.1794675,0.5479621,0.4285566,-0.17352515,0.15209255,-0.4571906,37.580776
2020-06-01,0.2223638,-0.107678175,0.23588744,-0.19439286,0.2892741,0.20918435,0.18029934,0.54958355,0.41947618,-0.16617355,0.13473728,-0.4537483,49.317467
2020-06-02,0.24278855,-0.085826784,0.22156997,-0.2407234,0.2947655,0.22252053,0.1938601,0.501477,0.3840901,-0.16565892,0.096533746,-0.4356244,125.02361
2020-06-03,0.23555088,-0.08930664,0.19826378,-0.23517832,0.32453033,0.2312969,0.18831058,0.5199251,0.3855184,-0.1482805,0.09491939,-0.44533968,55.205887
2020-06-04,0.22527471,-0.0740982,0.19492026,-0.24406451,0.308703,0.24576306,0.18807165,0.5158255,0.38214687,-0.14012855,0.090340115,-0.42756027,54.09262
2020-06-05,0.21649083,-0.034537643,0.19647339,-0.25047955,0.3015807,0.26563433,0.20855053,0.510002,0.38015792,-0.15343103,0.09238251,-0.40678024,100.25876
2020-06-08,0.20968744,-0.040025674,0.1472548,-0.26233193,0.3265348,0.26252633,0.18029171,0.50355697,0.36205867,-0.12278149,0.08242907,-0.44401243,117.73792
2020-06-09,0.20814091,-0.017993286,0.18451583,-0.27372152,0.3117699,0.26360172,0.19285198,0.49842852,0.3558844,-0.14219907,0.063467674,-0.43332878,141.27455
2020-06-10,0.22532043,-0.028790832,0.14117186,-0.30750182,0.35835335,0.27782127,0.17470853,0.51494074,0.364796,-0.12828138,0.047173984,-0.47213662,184.07077
2020-06-11,0.21835384,-0.027069584,0.1603751,-0.31394276,0.35919902,0.2858867,0.19444293,0.51159304,0.38034886,-0.14235517,0.038256,-0.45850983,76.87761
2020-06-12,0.2111212,0.004104182,0.11495986,-0.28297248,0.38921055,0.29992247,0.18004704,0.52310425,0.42732757,-0.16178542,0.047765236,-0.46862507,232.639
2020-06-15,0.20748511,0.034593925,0.14288838,-0.27813947,0.41738972,0.2868772,0.18295741,0.5105786,0.4232906,-0.17053685,0.03069197,-0.4683155,828.38367
2020-06-16,0.20169035,0.054268107,0.11561995,-0.27881855,0.4539616,0.30683666,0.17997758,0.49351215,0.44366354,-0.15758273,0.03132956,-0.46372798,115.14937
2020-06-17,0.24161917,0.012635365,0.19011088,-0.25202572,0.48746756,0.22113457,0.17604819,0.5069786,0.39953056,-0.15047172,0.012372752,-0.47842643,288.9116
2020-06-18,0.23788232,0.013530366,0.16839378,-0.2691387,0.50928056,0.22272986,0.158259,0.48913026,0.3902395,-0.17001846,0.0023909556,-0.48488212,143.00566
2020-06-19,0.23445398,0.0037170053,0.13242991,-0.29444066,0.5285277,0.21038926,0.12525576,0.48668224,0.3780387,-0.18675137,-0.011475391,-0.4920106,729.79047
2020-06-22,0.22429517,0.013990164,0.13702796,-0.2935121,0.5190229,0.18575555,0.11236033,0.47076082,0.36826783,-0.20573547,-0.01919273,-0.48585057,392.83005
2020-06-23,0.23178339,-0.00736627,0.12225038,-0.3084449,0.54600614,0.19214568,0.11759636,0.47713727,0.36004683,-0.2054713,-0.028301805,-0.50047433,239.34898
2020-06-24,0.22332183,-0.008506134,0.1324118,-0.30845997,0.54312843,0.1853075,0.11731987,0.4797181,0.3624806,-0.22091636,-0.031438895,-0.5023499,51.95554
2020-06-25,0.2309345,-0.0015802532,0.12225058,-0.31200564,0.5398379,0.18979225,0.11434418,0.48556668,0.37198973,-0.24122623,-0.03490602,-0.4987688,123.993835
2020-06-26,0.22541249,-0.0116812885,0.11185865,-0.3034255,0.53574246,0.15923119,0.08959445,0.4793499,0.3629395,-0.22361714,-0.044995677,-0.49714357,731.59534
2020-06-29,0.23918468,-0.0034888238,0.099610984,-0.31469685,0.5562602,0.15618742,0.091116846,0.47885758,0.37265766,-0.23316413,-0.039249364,-0.49026623,119.55132
2020-06-30,0.24322969,-0.018978804,0.08828173,-0.3245653,0.5685538,0.15899423,0.091753244,0.48371476,0.35921463,-0.20746928,-0.04430904,-0.5034829,496.12332
2020-07-01,0.23609057,-0.015743196,0.10016589,-0.3347967,0.5942147,0.17170358,0.09905013,0.48595756,0.3768995,-0.20435148,-0.044596285,-0.49152273,66.97073
2020-07-02,0.22952247,-0.030796148,0.09396486,-0.33221325,0.5974332,0.18375373,0.10347899,0.48514223,0.3926348,-0.18767822,-0.039206184,-0.49037838,142.21208
2020-07-06,0.24027821,-0.019590639,0.10820677,-0.33690742,0.5838166,0.1999048,0.1409952,0.48797697,0.41332477,-0.19285223,-0.03369784,-0.4833142,129.06639
2020-07-07,0.2445493,-0.0117871165,0.11187883,-0.3204721,0.58754295,0.20114028,0.16142389,0.4681096,0.39958262,-0.1629127,-0.03890032,-0.49169475,105.72092
2020-07-08,0.23949277,-0.02319292,0.11591432,-0.30821317,0.5693669,0.20657712,0.20018286,0.47386342,0.4075693,-0.17174843,-0.024206974,-0.5178499,187.81491
2020-07-09,0.24439773,-0.019927315,0.11263523,-0.30673888,0.57459277,0.2250368,0.21836579,0.46453917,0.42006287,-0.1524759,-0.02129798,-0.5133671,67.50974
2020-07-10,0.23769099,-0.024597973,0.09267265,-0.29088312,0.54366,0.24942046,0.24076885,0.46870404,0.45195672,-0.16462487,0.00037065614,-0.5134377,193.76434
2020-07-13,0.18567654,-0.006411627,0.07982817,-0.27673918,0.5245342,0.2886825,0.24156114,0.46145713,0.50155556,-0.15226007,0.02236921,-0.49221823,6093.3223
2020-07-14,0.18680885,-0.0074741393,0.061656,-0.2597624,0.4736695,0.35454634,0.24731156,0.48059142,0.54650277,-0.11746267,0.061337445,-0.47830194,293.96716
2020-07-15,0.19918406,0.0004492551,0.03822329,-0.2523595,0.46420097,0.378357,0.242087,0.46146113,0.5467441,-0.07911939,0.06933283,-0.4724794,215.23819
2020-07-16,0.200062,-0.004516043,0.026142543,-0.26102516,0.44330668,0.4142468,0.24498278,0.47318542,0.56140894,-0.045948558,0.0893861,-0.4648261,1233.5833
2020-07-17,0.18889791,0.006196603,-0.0037227967,-0.25614443,0.41532484,0.46342438,0.2372505,0.48572534,0.59098375,-0.03069479,0.12247188,-0.44687626,462.23517
2020-07-20,0.1908052,0.0061924607,-0.008532645,-0.27170685,0.4112021,0.47362435,0.23295248,0.48814416,0.60230947,-0.034317322,0.13862363,-0.44375163,169.46082
2020-07-21,0.19203253,0.00023227185,0.014044547,-0.2729119,0.42386964,0.43762606,0.20534158,0.4796241,0.586265,-0.032809205,0.10067299,-0.47684506,428.10568
2020-07-22,0.18185255,0.009227499,-0.00553692,-0.26073188,0.40784815,0.46050078,0.19880341,0.47892207,0.60491234,-0.021621458,0.116441496,-0.4533978,4092.1013
2020-07-23,0.18165335,0.008518159,0.005028823,-0.26319957,0.4008133,0.44507897,0.19347478,0.47611105,0.59124935,-0.020391084,0.117425285,-0.4583711,217.79875
2020-07-24,0.18111803,0.008282125,0.0009763441,-0.26224956,0.35581717,0.4753433,0.19218414,0.485211,0.6021771,-0.001068823,0.14989215,-0.428552,235.37703
2020-07-27,0.18014023,0.021342203,-0.0235067,-0.24746636,0.34174433,0.49518144,0.1825588,0.489878,0.60382444,0.011459671,0.15751079,-0.40298992,3869.0876
2020-07-28,0.19290043,0.029291078,-0.026225822,-0.27814016,0.36540106,0.5052065,0.1889511,0.47931218,0.60167575,0.012638979,0.15055996,-0.4158846,101.155594
2020-07-29,0.1944859,0.018462315,-0.041279696,-0.26151213,0.3520847,0.49663246,0.16225514,0.47834647,0.60479796,0.017607458,0.15493439,-0.39390177,168.86304
2020-07-30,0.18176469,0.023908436,-0.045720015,-0.26747912,0.3427882,0.48646986,0.13507473,0.46797305,0.61204326,0.031656347,0.1445241,-0.39068207,161.2088
2020-07-31,0.1743336,0.03098531,-0.070942454,-0.25690466,0.34171352,0.4639464,0.10031924,0.4515844,0.5997256,0.011324473,0.15335011,-0.39843333,201.31526
2020-08-03,0.16615616,0.025116563,-0.09586072,-0.24240813,0.3593572,0.44629085,0.06771535,0.45226818,0.60521126,-0.002519615,0.13782236,-0.40640232,241.3086
2020-08-04,0.17589223,0.005040765,-0.09357556,-0.2478899,0.3458835,0.44127524,0.08167381,0.45434386,0.59408474,0.010842845,0.15879902,-0.40500048,664.1218
2020-08-05,0.20259368,0.007714793,-0.108914286,-0.23683727,0.35000375,0.46823543,0.10237552,0.46747822,0.6073172,0.023547702,0.1639556,-0.40530556,247.34026
2020-08-06,0.21058613,-0.0056004077,-0.08874061,-0.2519346,0.3109523,0.4218254,0.05942461,0.46073556,0.57138497,0.022599094,0.12623858,-0.4497523,309.81665
2020-08-07,0.19525436,-0.010051116,-0.060228724,-0.25172707,0.3029054,0.39383104,0.053841777,0.46450353,0.55412555,0.03497041,0.1347943,-0.44815463,203.29628
2020-08-10,0.20041549,-0.028554909,-0.071898475,-0.21145254,0.27005482,0.41074324,0.06887865,0.49202514,0.5854502,0.05070164,0.15934482,-0.43559194,342.76135
2020-08-11,0.2149168,-0.050927095,-0.09001755,-0.20855722,0.26242957,0.38903338,0.042588145,0.48355877,0.5867773,0.04544577,0.13777886,-0.455649,188.88455
2020-08-12,0.24702433,-0.066957444,-0.09431614,-0.17984474,0.2126132,0.42851245,0.04746297,0.5148293,0.5999985,0.09235782,0.14518107,-0.42077398,230.50906
2020-08-13,0.23531386,-0.037257038,-0.107787095,-0.20625305,0.28179958,0.48370606,0.09648722,0.5214192,0.62089175,0.10299235,0.14069857,-0.43387073,249.25198
2020-08-14,0.2424522,-0.044261284,-0.07772926,-0.20538121,0.2757142,0.45253664,0.09080436,0.5264681,0.60545444,0.09209948,0.124177285,-0.4510498,94.36824
2020-08-17,0.255483,-0.053439036,-0.07535647,-0.19627723,0.27232507,0.44493383,0.08281431,0.5359689,0.60480237,0.098551385,0.12194338,-0.45062262,56.11516
2020-08-18,0.28012416,-0.06875986,-0.05838096,-0.20537096,0.31383556,0.42385054,0.10863265,0.5298626,0.5915816,0.07163256,0.10451351,-0.49764854,172.00134
2020-08-19,0.29571614,-0.054970205,-0.047260284,-0.2119849,0.34802297,0.38303247,0.09402114,0.5322341,0.5823096,0.054892503,0.08535392,-0.52369136,130.81352
2020-08-20,0.2975361,-0.051374964,-0.055719085,-0.21331838,0.35132253,0.4136722,0.10826291,0.56750304,0.608425,0.052035816,0.11927021,-0.51775104,106.96385
2020-08-21,0.28980422,-0.048062846,-0.04806505,-0.21587619,0.3590921,0.3722962,0.09559972,0.55601513,0.5938463,0.016771965,0.113771334,-0.52145606,125.406685
2020-08-24,0.28701642,-0.036613107,-0.061575226,-0.20412284,0.36322638,0.39233288,0.11349775,0.56520754,0.6314774,0.003797181,0.15265062,-0.5124923,204.83432
2020-08-25,0.28286356,-0.035815403,-0.04725986,-0.19778627,0.37349853,0.42336988,0.14490904,0.5819397,0.64647114,0.0062206015,0.16339856,-0.53079987,148.16258
2020-08-26,0.27581784,-0.02535145,-0.033791356,-0.20478573,0.37492034,0.3972966,0.13781372,0.5739239,0.6292387,0.0116270855,0.1584541,-0.531344,169.26463
2020-08-27,0.24331915,-0.027484246,0.0066011227,-0.21911272,0.43695438,0.32293776,0.15876086,0.53724223,0.5553593,-0.017906547,0.098321624,-0.5288466,507.74747
2020-08-28,0.21278796,-0.046444893,0.039945815,-0.16764206,0.40417814,0.3173919,0.18219349,0.56513,0.57513475,0.0288015,0.10692304,-0.5098723,916.0717
2020-08-31,0.20908901,-0.03865937,0.041619446,-0.19104707,0.40856805,0.32826278,0.18527724,0.56895477,0.59557974,0.029234797,0.1311796,-0.51811033,72.893814
2020-09-01,0.24806467,-0.051678307,0.03220941,-0.17507115,0.4120408,0.36247414,0.2121716,0.5905512,0.62371933,0.04103265,0.14736122,-0.5336087,173.27922
2020-09-02,0.2500147,-0.06632195,0.046292964,-0.17593673,0.3918346,0.34131062,0.2135697,0.57936287,0.5888021,0.035539515,0.1533581,-0.5634671,115.28822
2020-09-03,0.25698653,-0.05403763,0.07708124,-0.17608312,0.3854392,0.37377396,0.248142,0.57072246,0.5782166,0.07029938,0.14020063,-0.56162447,225.23485
2020-09-04,0.2589279,-0.038465016,0.112791635,-0.08919414,0.25070214,0.35529312,0.23451437,0.61265475,0.62437564,0.09907325,0.22343805,-0.4500838,306.13156
2020-09-08,0.22886005,-0.04317625,0.09768128,-0.07756922,0.24234244,0.39180678,0.26036167,0.594307,0.63847977,0.118832774,0.23867795,-0.39342478,119.53099
2020-09-09,0.21604174,-0.051681474,0.036193147,-0.016071625,0.12301388,0.4012069,0.24586737,0.57934546,0.66461515,0.15191221,0.31338647,-0.2988822,314.51367
2020-09-10,0.25609866,-0.05039622,0.012379872,-0.023033008,0.15904376,0.4167297,0.22324164,0.59222966,0.65805936,0.16513667,0.28785107,-0.3390941,206.01659
2020-09-11,0.25402066,-0.028813615,-0.007113606,-0.001050964,0.121373184,0.40618652,0.22456491,0.57288486,0.63335973,0.1434924,0.31498477,-0.31227422,360.80615
2020-09-14,0.24401894,-0.012376502,0.0004529166,-0.004586898,0.10448254,0.41934222,0.2436567,0.560318,0.6412141,0.13871273,0.33130202,-0.28652915,549.6435
2020-09-15,0.2486265,-0.0037590861,-0.007841388,-0.005168535,0.11155664,0.42002517,0.21762173,0.5762365,0.63633054,0.13948935,0.32138208,-0.29409477,1942.9207
2020-09-16,0.2775009,-0.016313046,-0.024726173,-0.019588389,0.16877398,0.42971152,0.21486372,0.5697804,0.63167256,0.112411655,0.29487935,-0.3292393,936.2233
2020-09-17,0.27590194,-0.01982186,-0.027634941,-0.007295154,0.12846568,0.41766906,0.21609785,0.5377889,0.6191082,0.12936494,0.3085765,-0.29978815,160.14238
2020-09-18,0.27373365,-0.016541697,-0.024617113,-0.01416152,0.12109945,0.42887628,0.22753924,0.53218436,0.6233048,0.12811208,0.31725124,-0.29198512,144.1911
2020-09-21,0.27366975,-0.008669168,-0.021866284,-0.009932704,0.09455726,0.41111183,0.23048845,0.51288056,0.6045636,0.14027223,0.318753,-0.26409796,142.15712
2020-09-22,0.26606253,0.022936493,-0.06192095,-0.004302524,0.14299953,0.4120242,0.23840103,0.4815178,0.6221597,0.108702935,0.33093968,-0.25865617,699.51904
2020-09-23,0.31210396,0.021636203,-0.07542017,-0.02092553,0.18264651,0.4178903,0.20486286,0.5103782,0.6098978,0.0782362,0.32438162,-0.31933716,535.77997
2020-09-24,0.3192574,0.036164448,-0.07955477,-0.017017312,0.13156283,0.37962303,0.18320258,0.4781627,0.5889219,0.07840484,0.3486544,-0.27242798,173.43686
2020-09-25,0.31287482,0.038283996,-0.08038496,-0.030054845,0.12802282,0.37033844,0.16924804,0.48293883,0.5858488,0.06751492,0.34418666,-0.2638683,118.10386
2020-09-28,0.30580705,0.023964249,-0.09304452,-0.024547271,0.15300772,0.3630314,0.1464222,0.50290227,0.60635984,0.056652583,0.33854154,-0.2710873,136.81197
2020-09-29,0.29613984,0.012637779,-0.10379217,-0.040854372,0.17627901,0.39142227,0.14757092,0.5091428,0.6074274,0.064241074,0.31716856,-0.2972635,183.00302
2020-09-30,0.28362444,-0.02455075,-0.05995162,-0.04495573,0.16644716,0.32325754,0.13214403,0.48736912,0.5783406,0.036915474,0.2918665,-0.32425493,452.87317
2020-10-01,0.28418216,-0.018364027,-0.038525887,-0.044266425,0.1694895,0.30679533,0.12801537,0.48248345,0.5583692,0.041105397,0.2786432,-0.34545115,99.58605
2020-10-02,0.2601168,-0.03392116,0.010119362,-0.05541356,0.15805799,0.26662484,0.10755257,0.4531417,0.4984898,0.036476992,0.21906276,-0.40015775,345.7386
2020-10-05,0.2426832,-0.023604274,0.031193713,-0.023041688,0.098466985,0.24919441,0.13252153,0.45418382,0.51297784,0.084406145,0.27187884,-0.3437749,543.98004
2020-10-06,0.2541556,-0.040613577,0.031678736,-0.038288683,0.1275813,0.2927271,0.15540814,0.45667595,0.5305676,0.10010179,0.26326352,-0.38581944,246.79294
2020-10-07,0.2393885,-0.038772926,0.050639182,-0.026997812,0.091805615,0.29337293,0.15863141,0.4484601,0.5305184,0.12228871,0.28964585,-0.36162287,170.285
2020-10-08,0.23302773,-0.044298828,0.054304462,-0.012013305,0.10825936,0.28232414,0.13859078,0.46289295,0.4927685,0.17726316,0.2879772,-0.39826247,179.9684
2020-10-09,0.21772042,-0.049618013,0.0508869,0.0027063787,0.100276195,0.31974375,0.15581137,0.50116736,0.5010124,0.20722957,0.2944605,-0.40179622,210.43683
2020-10-12,0.2526985,-0.07264559,0.07595828,-0.02304475,0.114964224,0.30837727,0.13639224,0.524285,0.43557602,0.2260699,0.22632214,-0.432137,1151.3639
2020-10-13,0.23597842,-0.084734574,0.07124927,0.012082793,0.13233504,0.31098354,0.12932351,0.5282561,0.435675,0.26074114,0.18552682,-0.43053323,237.53967
2020-10-14,0.21803948,-0.08278692,0.071395196,0.015963465,0.10847422,0.31571895,0.11846824,0.5486535,0.45089653,0.24531704,0.1938344,-0.44037545,90.20428
2020-10-15,0.21258494,-0.072033316,0.08070242,0.028725587,0.10626186,0.3575603,0.17096879,0.5776571,0.4708966,0.24935883,0.23211384,-0.44162536,199.48341
2020-10-16,0.18530315,-0.06185004,0.06915123,0.024275344,0.06971908,0.35668558,0.17343576,0.5668642,0.4888176,0.2676506,0.2582195,-0.40923393,124.44394
2020-10-19,0.18467185,-0.07685944,0.08497504,0.029549718,0.079634726,0.3555981,0.15979975,0.5456616,0.46055183,0.2793466,0.21957573,-0.44831687,130.01614
2020-10-20,0.20153797,-0.0907346,0.07657006,0.044551447,-0.013463851,0.33831638,0.13822354,0.56092346,0.44617203,0.2635629,0.25618976,-0.41530436,258.7215
2020-10-21,0.2081973,-0.10839504,0.06842481,0.005848728,0.040304102,0.3656615,0.14884248,0.5605646,0.42573443,0.25675404,0.18265057,-0.4123758,572.03143
2020-10-22,0.24040079,-0.08611561,0.07619273,-0.0209577,0.04809296,0.3404518,0.15540433,0.5297677,0.4226196,0.2446303,0.17490497,-0.4093861,552.2446
2020-10-23,0.27222747,-0.06713311,0.054885767,0.0040810257,0.008861851,0.3445396,0.15232801,0.55026287,0.4609923,0.29103845,0.2724477,-0.39606756,358.4145
2020-10-26,0.2950087,-0.07265733,0.04694236,0.009730846,0.0074833333,0.32730272,0.1264052,0.5590407,0.44563794,0.3014486,0.25561836,-0.41697863,227.04692
2020-10-27,0.32605377,-0.0970197,-0.0045413584,0.057477355,-0.057008646,0.28812233,0.09975837,0.5829326,0.43545252,0.31519163,0.28066024,-0.4019438,1563.7799
2020-10-28,0.2257576,0.02200751,0.056851108,0.08207312,0.04690464,0.2581607,0.14053085,0.5165093,0.49473104,0.30898154,0.36238083,-0.46496686,1853.4102
2020-10-29,0.27590153,-0.020269305,0.017099248,0.07338405,-0.11255528,0.110487826,0.0391907,0.49214852,0.43078944,0.2453441,0.34277892,-0.3457012,833.3998
2020-10-30,0.28124484,-0.017445944,0.015004421,0.07723204,-0.054424975,0.12083205,0.052652724,0.4842093,0.44283652,0.21373433,0.3466075,-0.3887425,159.57983
2020-11-02,0.29385284,0.013357602,-0.0071515576,0.048602134,-0.05433484,0.13755885,0.07427864,0.46674585,0.4688007,0.20130709,0.3798899,-0.3444414,457.14536
2020-11-03,0.2753501,0.00074605644,0.0042079627,0.06843883,-0.009202169,0.12060066,0.06936997,0.4822994,0.47113758,0.20029525,0.39126593,-0.3580778,413.65298
2020-11-04,0.2601891,-0.00021425635,-0.013451016,0.07646752,0.020478483,0.13372028,0.05976527,0.47837782,0.49353725,0.21592085,0.38798043,-0.38165173,933.66785
2020-11-05,0.33334514,-0.07350622,0.037910134,0.10770625,0.06014386,0.009225048,-0.016849805,0.53269756,0.40431812,0.18670191,0.33086428,-0.4125826,35139.19
2020-11-06,0.31607857,-0.101469755,0.027377253,0.11280381,0.07086762,0.05176363,-0.00063401926,0.5292135,0.41366202,0.18618847,0.31303203,-0.42546695,662.6792
2020-11-09,0.3187182,-0.102593884,0.021734694,0.11259081,0.07871323,0.059057064,0.006864759,0.5231616,0.4122335,0.18118015,0.30820686,-0.4469982,1241.4204
2020-11-10,0.28903973,-0.11758654,-0.06380697,0.15596439,-0.014150187,0.08130167,-0.037696056,0.46471453,0.39625365,0.18223995,0.31230095,-0.3499486,1299.461
2020-11-11,0.29064405,-0.13555124,-0.022690265,0.17413715,-0.052159686,0.054406546,-0.015634824,0.46409923,0.37502673,0.22483376,0.3289915,-0.30914727,498.00873
2020-11-12,0.31259114,-0.16673052,-0.021485548,0.15734014,-0.00072951615,0.091508396,-0.0073515186,0.48373127,0.35930344,0.23072687,0.29340854,-0.3611317,303.95825
2020-11-13,0.3328329,-0.16430509,-0.015344029,0.15114179,-0.01575842,0.08113658,0.0034768516,0.48342848,0.34556445,0.25159523,0.28880754,-0.36390418,2274.4688
2020-11-16,0.3407151,-0.18070929,-0.004863667,0.12150192,0.011258915,0.08893693,0.014615103,0.5050722,0.33180952,0.25481313,0.25399745,-0.39020008,630.6964
2020-11-17,0.33630726,-0.195323,-0.010508621,0.107914455,0.033066206,0.1262117,0.033305496,0.516362,0.3401121,0.25088006,0.25335953,-0.41165894,512.1435
2020-11-18,0.3328459,-0.1967209,-0.0074400106,0.08470371,0.072336555,0.12763244,0.029401295,0.5370817,0.3283125,0.22481243,0.22581893,-0.44067162,219.85547
2020-11-19,0.34363875,-0.18324116,0.013832381,0.08218825,0.06978557,0.14729702,0.056843415,0.5499376,0.32442123,0.21432932,0.23891103,-0.46288237,430.33328
2020-11-20,0.33548245,-0.15556423,0.044018365,0.07027409,0.10825021,0.15496176,0.07606985,0.55358016,0.33506438,0.18460828,0.2350941,-0.47690704,366.78366
2020-11-23,0.3563,-0.13811731,0.112331584,0.046716183,0.093950815,0.1540038,0.11950266,0.5768182,0.3310635,0.18570074,0.2289285,-0.50464207,291.4815
2020-11-24,0.3543903,-0.123643115,0.106892504,0.042136267,0.12192825,0.17725974,0.1218971,0.5870414,0.33893257,0.17841846,0.21792616,-0.49654156,87.02666
2020-11-25,0.36628336,-0.11452396,0.117602296,0.03164076,0.14175025,0.1580033,0.11440317,0.56889355,0.3131696,0.19510326,0.20227294,-0.5076051,108.38231
2020-11-27,0.35355863,-0.063627765,0.13133493,-0.00524519,0.19426909,0.17680871,0.1066682,0.57282275,0.295604,0.11145065,0.19757283,-0.47130626,290.53372
2020-11-30,0.34109443,-0.050223663,0.1496375,-0.035748407,0.22741923,0.17409608,0.11062319,0.5708814,0.29189995,0.11660556,0.17749277,-0.4636855,660.37756
2020-12-01,0.3208699,-0.007826537,0.1340556,-0.10050834,0.2732482,0.26231375,0.18409085,0.5473594,0.30369207,0.090804525,0.15887184,-0.46653536,460.54245
2020-12-02,0.32711175,-0.0027159303,0.09881023,-0.11588394,0.30644393,0.25617766,0.1786489,0.5402129,0.29122782,0.12069885,0.13939239,-0.47533947,178.75679
2020-12-03,0.33423093,0.014578864,0.10658814,-0.118901916,0.3095984,0.25503403,0.2069714,0.541996,0.273738,0.11811403,0.124222346,-0.47814512,686.7229
2020-12-04,0.343151,-0.0014166683,0.1470624,-0.12543738,0.34368494,0.20719096,0.21903682,0.5388802,0.2605785,0.08423311,0.13043067,-0.50148124,235.39954
2020-12-07,0.33178133,-0.01995653,0.18663804,-0.15392694,0.3559125,0.18198824,0.2206962,0.5151324,0.22725102,0.07077894,0.0997801,-0.51668,1437.8097
2020-12-08,0.32021764,0.00017738342,0.17582591,-0.19760981,0.39209816,0.20395377,0.24188226,0.5104858,0.22867495,0.060602583,0.06663376,-0.5089295,221.00838
2020-12-09,0.33057138,-0.0006995499,0.18622056,-0.209907,0.40874383,0.19724077,0.2395494,0.5140912,0.2162649,0.043655828,0.046774257,-0.51435673,583.20825
2020-12-10,0.3449308,-0.001342982,0.24124826,-0.20325792,0.3814585,0.19070977,0.25747415,0.5258407,0.217947,0.0658675,0.042700555,-0.4807561,215.69269
2020-12-11,0.35005358,0.023579746,0.2539147,-0.21664658,0.3852062,0.19069612,0.26645127,0.5174485,0.21967003,0.03739129,0.04354613,-0.4751219,1922.3453
2020-12-14,0.34832278,0.050353274,0.252451,-0.22570351,0.40359846,0.20408913,0.26813224,0.5152695,0.2332052,0.0051088184,0.030587528,-0.46270025,256.51703
2020-12-15,0.3392494,0.064587,0.23995322,-0.23723987,0.43116137,0.19258142,0.2642878,0.49448186,0.21905693,-0.0121842995,0.028284285,-0.4820563,415.14606
2020-12-16,0.35920775,0.064053506,0.27445585,-0.25321096,0.43509018,0.20520085,0.28881133,0.49035764,0.22615144,-0.023996033,0.02164163,-0.4717825,171.19464
2020-12-17,0.35153612,0.07160522,0.3089872,-0.26455012,0.46144614,0.19820818,0.28909373,0.48041648,0.23103836,-0.051942058,0.0134514915,-0.4858233,202.01811
2020-12-18,0.328316,0.085256055,0.318454,-0.28889862,0.5017403,0.18359336,0.29038894,0.4687873,0.23416087,-0.07114584,0.0028728517,-0.500233,176.84312
2020-12-21,0.30872473,0.09984517,0.33395296,-0.29703075,0.52738196,0.18404526,0.30310246,0.4753697,0.24328801,-0.091071434,0.0011231648,-0.50808156,136.27773
2020-12-22,0.30837652,0.12995726,0.3219205,-0.29663986,0.52164376,0.2048198,0.31232888,0.47955197,0.2674032,-0.085182585,0.0075090947,-0.50943536,635.5163
2020-12-23,0.3174982,0.13267411,0.2977577,-0.30997893,0.5474771,0.21273637,0.31438127,0.4816835,0.27524912,-0.12004044,0.0037972005,-0.5204122,122.4123
2020-12-24,0.32431272,0.13764367,0.31221142,-0.2784363,0.532226,0.2059215,0.31988928,0.4909765,0.2956629,-0.09903229,0.016351748,-0.52721715,387.44373
2020-12-28,0.32030785,0.12678695,0.302117,-0.29968238,0.5309883,0.20701152,0.32191727,0.4880367,0.29273656,-0.1247272,0.007663836,-0.50738055,105.810425
2020-12-29,0.35945287,0.103580564,0.2709427,-0.29714411,0.57670635,0.20207143,0.30133265,0.52111894,0.29327315,-0.08555163,-0.022009928,-0.54660624,492.37485
2020-12-30,0.3690683,0.089942515,0.27190125,-0.27755758,0.5835046,0.18580759,0.2946514,0.52872735,0.30034566,-0.0734799,-0.03375515,-0.55073726,106.33273
