Date,ADBE,AMZN,AVGO,CAT,COST,JPM,LLY,MA,MSFT,NVDA,UNH,XOM,total
2021-01-04,0.2424147,0.026171869,0.053367898,0.045953415,0.23726563,0.19253467,0.38798916,0.39748126,0.5173664,-0.091112524,-0.048801333,-0.6608869,0.0
2021-01-05,0.2305817,0.0048744734,0.01572761,0.012331221,0.24089122,0.17540474,0.3553867,0.37998867,0.49220383,-0.0801014,-0.05229193,-0.68446624,280.8503
2021-01-06,0.24592821,0.017869392,0.02736725,0.028457522,0.24857165,0.18420412,0.37017223,0.39568716,0.5109974,-0.070670426,-0.048560295,-0.68325734,517.4321
2021-01-07,0.24743555,0.015292095,0.026763141,0.021269958,0.25127524,0.18999234,0.37996456,0.40375918,0.5222799,-0.08347042,-0.05293104,-0.70624506,84.10101
2021-01-08,0.24606888,0.017700048,0.03743115,0.026234131,0.24713598,0.19241239,0.3879206,0.40507817,0.52610195,-0.092460275,-0.0558257,-0.7042843,102.088356
2021-01-11,0.24950354,0.014643731,0.029308781,0.020553928,0.2517438,0.19097577,0.38241696,0.4075938,0.52597594,-0.08390209,-0.054945145,-0.7132327,78.79335
2021-01-12,0.24026857,0.0029898118,0.017459229,0.0021697022,0.25112852,0.18769448,0.3773749,0.4014371,0.5204235,-0.096432716,-0.061846886,-0.7353211,249.59828
2021-01-13,0.24933374,0.01742273,0.038936213,0.022030547,0.24770279,0.19196962,0.38795877,0.41007358,0.53002715,-0.087771446,-0.05749755,-0.7088664,1554.9487
2021-01-14,0.24666713,0.02435154,0.05690147,0.03427211,0.23692563,0.18734598,0.38679212,0.405285,0.52377254,-0.08366528,-0.05591931,-0.67457825,164.21284
2021-01-15,0.24411975,0.022299746,0.054893553,0.0304774,0.23357497,0.18383132,0.3797197,0.40222824,0.5176153,-0.0806123,-0.054782722,-0.6676647,37.814457
2021-01-19,0.23411812,0.01931178,0.056815982,0.027678352,0.2249089,0.17939901,0.37273893,0.39192766,0.5057768,-0.0875999,-0.05578811,-0.6525906,55.75103
2021-01-20,0.2365772,0.027234456,0.069280386,0.039959647,0.21957423,0.17623277,0.37077865,0.3913092,0.502846,-0.07606277,-0.05250353,-0.6235573,137.29193
2021-01-21,0.23728082,0.03588015,0.08688257,0.054026596,0.21290386,0.17378485,0.37397066,0.3903641,0.50220126,-0.07136281,-0.050558843,-0.5956532,112.66837
2021-01-22,0.2383504,0.029105837,0.07365437,0.041765485,0.21849664,0.17399912,0.37035754,0.39220637,0.50325286,-0.07085718,-0.050794452,-0.61774176,66.53165
2021-01-25,0.23793572,0.030450622,0.07692709,0.044073064,0.21610671,0.16959609,0.36643884,0.38921785,0.49902764,-0.06446858,-0.049109697,-0.6080631,34.946434
2021-01-26,0.242595,0.03237243,0.07454552,0.04511503,0.22044517,0.16829917,0.36466375,0.39085388,0.5005362,-0.054500442,-0.047496207,-0.6105663,36.86797
2021-01-27,0.2384955,0.027828751,0.06710599,0.03922224,0.21932192,0.1639701,0.357415,0.38475978,0.49292085,-0.053278368,-0.04630339,-0.61329454,52.11777
2021-01-28,0.22319646,0.015578652,0.0542252,0.025164299,0.21436596,0.15632066,0.34614232,0.36850423,0.47621194,-0.0657963,-0.049754933,-0.6239533,155.85172
2021-01-29,0.23075628,0.027335765,0.06744222,0.04332852,0.21264155,0.15500215,0.34723064,0.37090468,0.477283,-0.04869948,-0.043231163,-0.59637135,221.76869
2021-02-01,0.21657811,0.013461912,0.050154276,0.026234712,0.21078832,0.15174241,0.3389987,0.35826415,0.46487948,-0.06617871,-0.047241133,-0.6160366,181.80031
2021-02-02,0.22520931,0.03041623,0.07111175,0.052383944,0.20581403,0.148358,0.3379541,0.3589452,0.46293053,-0.042135444,-0.03823398,-0.56811064,340.0729
2021-02-03,0.23022658,0.0265155,0.057557344,0.043780588,0.21538158,0.15099113,0.33638808,0.36431736,0.4679433,-0.038010444,-0.037275057,-0.589323,76.034775
2021-02-04,0.22971986,0.02045604,0.04659675,0.03466892,0.21939419,0.14809144,0.33016282,0.36309922,0.46512502,-0.034533795,-0.037416246,-0.60304326,81.35185
2021-02-05,0.2383694,0.024529317,0.04489439,0.037479557,0.2261009,0.14836542,0.32855257,0.36897767,0.46976227,-0.019708801,-0.033606384,-0.6019055,95.083664
2021-02-08,0.23723847,0.024099464,0.041523054,0.03776085,0.22534822,0.14614424,0.32252875,0.36551827,0.46404725,-0.01471227,-0.030001685,-0.5931116,53.843456
2021-02-09,0.25294104,0.036256522,0.048381224,0.05054443,0.23418589,0.15118006,0.3290435,0.37833416,0.4776084,0.0036906488,-0.023685735,-0.58578974,270.62286
2021-02-10,0.25219354,0.040124558,0.049133793,0.05784549,0.23093735,0.14853732,0.32021624,0.37247044,0.46803373,0.01396485,-0.017187495,-0.5592044,346.69525
2021-02-11,0.2669562,0.046907775,0.05125594,0.06373845,0.23971604,0.15029891,0.32210734,0.3850363,0.4789719,0.034657314,-0.011825698,-0.560857,228.221
2021-02-12,0.27515066,0.05324105,0.054326817,0.07159236,0.24151213,0.14665025,0.31489426,0.38781744,0.47723475,0.05783303,-0.0049741,-0.5420522,169.54782
2021-02-16,0.278807,0.058436573,0.058914274,0.07898323,0.23990357,0.14200474,0.3076768,0.38664585,0.47227478,0.075109005,0.0003666589,-0.5197743,178.67577
2021-02-17,0.28216568,0.06003356,0.055452883,0.080060184,0.24236625,0.14004426,0.30145887,0.3866827,0.46967426,0.08724644,0.0042746095,-0.51241034,1099.5684
2021-02-18,0.2889697,0.060000017,0.050687462,0.07761304,0.24980819,0.14321782,0.30349892,0.39419574,0.47724622,0.0924989,0.004493882,-0.5259248,37.473328
2021-02-19,0.28881848,0.05655489,0.044263482,0.073296875,0.25103825,0.14082533,0.2983441,0.39319265,0.47404778,0.096875116,0.0055281287,-0.53047764,57.42643
2021-02-22,0.293958,0.06934059,0.06254578,0.094148725,0.24489397,0.13891426,0.3004085,0.3945803,0.47387654,0.11054149,0.011427664,-0.492938,226.92677
2021-02-23,0.2986137,0.06221725,0.0456208,0.078319594,0.25862816,0.14914413,0.30749273,0.40541822,0.48801923,0.09964624,0.007696188,-0.53607285,128.05138
2021-02-24,0.31124505,0.070510395,0.054502353,0.08749138,0.26516697,0.15348671,0.31841958,0.4193275,0.5039638,0.10885755,0.008209688,-0.54016095,81.10852
2021-02-25,0.30787307,0.068734355,0.051606685,0.08503525,0.26381707,0.152133,0.31543204,0.41547722,0.4998353,0.10708811,0.007555143,-0.53858554,25.679064
2021-02-26,0.29887807,0.053231627,0.035483167,0.060075868,0.26890248,0.15738323,0.32107612,0.4158061,0.5050017,0.077751935,-0.0030649127,-0.58853966,271.58865
2021-03-01,0.30027777,0.05329013,0.037610933,0.059186473,0.27045694,0.16061269,0.32706633,0.4201911,0.5113337,0.07230128,-0.0064479066,-0.59767836,133.80058
2021-03-02,0.30445752,0.06624299,0.057697058,0.08126203,0.26312074,0.15814477,0.32729778,0.41995096,0.50870574,0.08721184,-0.0011784127,-0.55325514,231.07207
2021-03-03,0.2954109,0.05306842,0.041267544,0.06253894,0.26604196,0.16460107,0.3312629,0.41800237,0.51022387,0.06027164,-0.008281681,-0.58928686,721.7281
2021-03-04,0.29687217,0.052975833,0.045674786,0.061713845,0.26757184,0.16807897,0.33942094,0.4237107,0.5184662,0.05289084,-0.012357243,-0.60015374,84.101616
2021-03-05,0.28490046,0.043611385,0.040786058,0.049472775,0.26229188,0.16756241,0.33905664,0.41649175,0.51286113,0.031817842,-0.01907415,-0.61403924,153.93289
2021-03-08,0.27713335,0.05232939,0.06554365,0.06825806,0.2449434,0.16038594,0.3369863,0.40580982,0.5004336,0.033341456,-0.01847507,-0.56344926,154.05238
2021-03-09,0.26302868,0.039279304,0.05670826,0.05001445,0.24031027,0.1596329,0.3368305,0.3973995,0.49472964,0.0077786744,-0.028689936,-0.5879623,212.16512
2021-03-10,0.2637185,0.044963837,0.06942229,0.06059933,0.23558588,0.15864621,0.34015125,0.39755112,0.49499387,0.010550853,-0.028843436,-0.57065934,101.09564
2021-03-11,0.26044172,0.04361379,0.07338679,0.059722193,0.23228449,0.15625209,0.34085074,0.3949712,0.4931928,0.0069797337,-0.03214507,-0.57045215,60.861866
2021-03-12,0.25970796,0.047306992,0.08268207,0.06774357,0.22721559,0.15286271,0.33974436,0.39215297,0.48931497,0.012052637,-0.031775277,-0.5530328,117.90719
2021-03-15,0.25564116,0.040317208,0.07725771,0.05746796,0.22711675,0.15400986,0.34135506,0.39170337,0.49011558,0.0005842522,-0.036878467,-0.57185656,154.23297
2021-03-16,0.25901356,0.03693174,0.06937124,0.05099079,0.23355599,0.15908988,0.34589478,0.39781976,0.49778563,-0.0041939802,-0.03919502,-0.595463,870.0321
2021-03-17,0.2606135,0.035145976,0.06614871,0.048972264,0.23595281,0.16181552,0.34832492,0.40091002,0.5011511,-0.0067347996,-0.03967859,-0.6052119,82.4054
2021-03-18,0.25934908,0.035858937,0.06692396,0.05233195,0.23484124,0.16462362,0.35102758,0.4001928,0.50120795,-0.012157332,-0.039001707,-0.6025485,96.379845
2021-03-19,0.2525101,0.027646558,0.06125404,0.0423629,0.23168875,0.16200311,0.34751716,0.39528507,0.49559513,-0.021258097,-0.04244123,-0.61456233,145.01212
2021-03-22,0.24723266,0.0319117,0.070454836,0.05371259,0.22364315,0.16514704,0.35144576,0.39039874,0.4915247,-0.03198303,-0.041269265,-0.59296376,124.65775
2021-03-23,0.25225168,0.02759893,0.059277877,0.0446897,0.23269814,0.1732922,0.35949817,0.39991808,0.5037559,-0.040536594,-0.044003554,-0.6269577,103.50864
2021-03-24,0.23796757,0.022015972,0.056537643,0.041309044,0.22385378,0.17187376,0.3565664,0.3861993,0.49127576,-0.060021807,-0.046257425,-0.6223615,103.34493
2021-03-25,0.23615645,0.015913932,0.04687117,0.033078853,0.22588907,0.17540765,0.3577003,0.38727522,0.49264893,-0.06948431,-0.048153516,-0.6416233,92.29885
2021-03-26,0.23701404,0.018701883,0.053193465,0.038380302,0.22498558,0.17785259,0.36413345,0.3897153,0.49693397,-0.07402569,-0.049094655,-0.6410118,61.07523
2021-03-29,0.22685741,0.021977121,0.06673061,0.04963277,0.20954387,0.1703614,0.35758907,0.37619627,0.48069987,-0.07496923,-0.047444038,-0.60172755,106.93906
2021-03-30,0.22924428,0.012114255,0.048297323,0.030448124,0.22195165,0.17846116,0.36528012,0.38471985,0.49372703,-0.089535296,-0.054209705,-0.65441066,172.45404
2021-03-31,0.22869255,0.015674742,0.054789945,0.03810635,0.21863051,0.17727485,0.36494154,0.382367,0.49083275,-0.08698179,-0.052709006,-0.63951725,79.57399
2021-04-01,0.22632773,0.015615361,0.056741655,0.040104166,0.2163447,0.17663766,0.36610422,0.38002306,0.4891758,-0.09048653,-0.053056158,-0.63866895,17.712467
2021-04-05,0.23293348,0.019684719,0.058621943,0.04455819,0.22087343,0.17842528,0.37001213,0.38611084,0.4960308,-0.08393906,-0.05076018,-0.6415412,62.587593
2021-04-06,0.22884168,0.021966776,0.06040305,0.049932316,0.21653898,0.17352273,0.3635402,0.37718534,0.4860835,-0.07933822,-0.0478533,-0.62278885,53.355988
2021-04-07,0.23739906,0.017727194,0.046833694,0.039366737,0.23140816,0.18212189,0.37343714,0.39011157,0.5031682,-0.084620744,-0.04999618,-0.66790426,106.530785
2021-04-08,0.2460055,0.015402922,0.035198852,0.032734744,0.24265961,0.18225472,0.37242177,0.3976243,0.5104114,-0.073818594,-0.04881309,-0.69259983,85.82771
2021-04-09,0.24750449,0.015208,0.029316157,0.033594593,0.24580781,0.17942089,0.36812857,0.39566582,0.5075121,-0.06620321,-0.04553357,-0.6950274,43.665253
2021-04-12,0.24870513,0.011066189,0.018710531,0.026348282,0.25253388,0.17716849,0.3652161,0.3956126,0.50808567,-0.06310874,-0.046118196,-0.71371514,99.022354
2021-04-13,0.24328421,0.010649174,0.010878049,0.029277727,0.2496648,0.17166243,0.35146537,0.3827833,0.49186152,-0.055177454,-0.040429793,-0.6927562,101.21131
2021-04-14,0.25175375,0.01127027,0.0038461983,0.028915536,0.258772,0.17223802,0.3527409,0.38957554,0.49883544,-0.04482692,-0.037565168,-0.70975846,111.02997
2021-04-15,0.25503972,0.011099277,-0.0008470714,0.02843495,0.2618985,0.16851194,0.3473253,0.3893857,0.49672988,-0.03317866,-0.035120506,-0.7114341,164.6146
2021-04-16,0.24760863,0.013617875,0.005292028,0.03547222,0.25111383,0.1585575,0.33623597,0.37562746,0.47987264,-0.025625017,-0.031449895,-0.6808155,832.76465
2021-04-19,0.24690871,0.006383108,-0.009347916,0.023931753,0.2564577,0.1555862,0.32909894,0.3740102,0.47679937,-0.022452962,-0.03249686,-0.69910985,388.17545
2021-04-20,0.24715449,0.004355306,-0.016457759,0.020811226,0.26070446,0.15489414,0.32732356,0.37275892,0.4763211,-0.020615261,-0.03341294,-0.7082117,136.34578
2021-04-21,0.24078949,0.0011542924,-0.01633653,0.018150348,0.25730225,0.14995967,0.32484427,0.36570925,0.4701664,-0.025040131,-0.036234643,-0.7105841,128.27003
2021-04-22,0.24893646,0.011094397,-0.0038459152,0.033025954,0.25549784,0.1459176,0.32472387,0.36877435,0.47136456,-0.005006429,-0.03167714,-0.6900757,1122.939
2021-04-23,0.24700427,0.006014863,-0.011708178,0.025743261,0.2592391,0.14678705,0.32614657,0.36860067,0.4730569,-0.0121114515,-0.034636475,-0.7097045,430.05286
2021-04-26,0.25132906,0.013283173,-0.004397914,0.037183285,0.2579493,0.14604843,0.3263801,0.36953586,0.47301424,-0.0012763776,-0.030390862,-0.6923095,334.97134
2021-04-27,0.25100395,0.010404579,-0.010538824,0.032431386,0.2615479,0.14638922,0.32603016,0.36934996,0.47380275,-0.0031642877,-0.031595383,-0.7035189,329.65912
2021-04-28,0.24599303,0.008492708,-0.013850309,0.03215615,0.2587494,0.14371054,0.32066864,0.36229503,0.4657098,-0.004513327,-0.030283272,-0.69724387,108.48262
2021-04-29,0.2585762,0.013076821,-0.016015455,0.034436762,0.27035317,0.15266582,0.3310605,0.3775422,0.48323077,-0.0003383942,-0.028348409,-0.7145681,205.12071
2021-04-30,0.25662643,0.014387207,-0.01553148,0.037995894,0.26954883,0.15460439,0.33400968,0.3755527,0.48297083,-0.0063241087,-0.027208615,-0.7137286,1800.1675
2021-05-03,0.25059894,0.0068171453,-0.024193287,0.028311998,0.26878422,0.15037389,0.3270906,0.36968517,0.47573426,-0.010264751,-0.02898454,-0.723373,214.56342
2021-05-04,0.24887669,0.008540845,-0.025013126,0.03181726,0.26881328,0.15491496,0.33086815,0.36869478,0.4766311,-0.018059786,-0.028171975,-0.7222006,125.28892
2021-05-05,0.24912481,0.014972003,-0.012426555,0.041681502,0.26589805,0.15824108,0.3404217,0.37040287,0.48186177,-0.024859134,-0.02808103,-0.7137914,203.53717
2021-05-06,0.2547383,0.019897973,-0.0055027977,0.04736638,0.26652572,0.15881588,0.3447782,0.37638342,0.48799843,-0.018896919,-0.026471969,-0.7121543,139.22134
2021-05-07,0.25049993,0.020833025,-0.00068382174,0.049912818,0.26256981,0.15765662,0.3467057,0.37273413,0.4858395,-0.024910849,-0.027382288,-0.70813745,139.32529
2021-05-10,0.2521671,0.025743553,0.009623192,0.056618422,0.25908554,0.15521601,0.3478365,0.37345004,0.48624915,-0.019034233,-0.026672512,-0.6951929,1576.4254
2021-05-11,0.24635883,0.01639261,0.0024851933,0.040126145,0.26100412,0.15470493,0.34784535,0.3726439,0.487402,-0.032183807,-0.034414977,-0.7195334,245.06879
2021-05-12,0.24479158,0.018619845,0.009045482,0.04405944,0.25786054,0.1534803,0.34762457,0.3706159,0.48537007,-0.03184599,-0.034892984,-0.7086659,294.96985
2021-05-13,0.24550042,0.020202609,0.018614031,0.044919837,0.25393572,0.14595817,0.3442821,0.37029624,0.48331165,-0.022156049,-0.03594428,-0.7002284,159.05148
2021-05-14,0.25384033,0.033975795,0.039682984,0.06416652,0.2509392,0.14630634,0.3504382,0.3764075,0.4894488,-0.008291464,-0.031879965,-0.67215043,311.62857
2021-05-17,0.25732183,0.046093144,0.06193416,0.08340247,0.24252547,0.1414849,0.350274,0.37554437,0.48654798,0.007276777,-0.026857678,-0.63238573,340.03592
2021-05-18,0.2529904,0.039216436,0.0547131,0.07247844,0.24475853,0.14176051,0.34990522,0.3738739,0.4864175,-0.0022743195,-0.03176091,-0.6494276,195.25778
2021-05-19,0.25540692,0.043609016,0.06181316,0.07886957,0.24306019,0.14101627,0.34934172,0.3748663,0.48623466,0.004609838,-0.029944275,-0.63460404,346.32703
2021-05-20,0.2555819,0.042799637,0.06500478,0.07676326,0.24223207,0.13889098,0.34869364,0.3758034,0.48668075,0.0064104646,-0.03191668,-0.63503295,57.84855
2021-05-21,0.26154384,0.05096052,0.074721694,0.08921154,0.23988841,0.13929957,0.35014477,0.37916952,0.4884044,0.017640658,-0.026966188,-0.61472183,249.38698
2021-05-24,0.257546,0.049175426,0.076617405,0.087391704,0.23799224,0.13973759,0.35281685,0.3769759,0.48815137,0.0086187795,-0.029418584,-0.6177443,72.83528
2021-05-25,0.26502088,0.05099374,0.07378179,0.087732315,0.24434227,0.14344098,0.355642,0.38454622,0.49579826,0.014764916,-0.02824391,-0.6258694,97.00376
2021-05-26,0.25768733,0.051775917,0.07806741,0.09221673,0.2367465,0.14123139,0.35201678,0.3753404,0.4860531,0.009955987,-0.026929293,-0.60556,65.71839
2021-05-27,0.2652669,0.051400214,0.076894775,0.08844608,0.24366711,0.14237957,0.35704416,0.38484377,0.4967235,0.014666762,-0.028598119,-0.6263489,76.09565
2021-05-28,0.26204816,0.047352336,0.07120654,0.08410102,0.24276122,0.14317054,0.35488215,0.38257945,0.49360788,0.009289164,-0.02853281,-0.63020986,61.657135
2021-06-01,0.2636494,0.053989455,0.080794066,0.09507921,0.23875143,0.14588775,0.3574832,0.3831669,0.49371654,0.010944754,-0.024273816,-0.60812604,81.85726
2021-06-02,0.2718969,0.060470663,0.08531526,0.102802515,0.24146323,0.1506927,0.3609113,0.3908471,0.5004901,0.019359,-0.02039932,-0.59850216,132.0399
2021-06-03,0.2700988,0.055280812,0.076218635,0.09442727,0.24314214,0.1533541,0.35915363,0.3911879,0.50011045,0.012960408,-0.020851158,-0.6097128,68.30488
2021-06-04,0.26711592,0.05175706,0.07250829,0.08794891,0.24158455,0.15064831,0.35272685,0.3880077,0.49487257,0.013909169,-0.02143082,-0.6077493,35.684593
2021-06-07,0.26565647,0.060248762,0.08564086,0.10443632,0.23161551,0.14720593,0.34846297,0.38199204,0.48557946,0.02259009,-0.014556379,-0.56742775,165.98372
2021-06-08,0.27194333,0.06503478,0.09186382,0.10576147,0.23471405,0.14484164,0.35025832,0.38695687,0.49166432,0.034256592,-0.01611882,-0.56475514,87.70653
2021-06-09,0.27689335,0.07203549,0.104644306,0.11369817,0.23203047,0.13930048,0.34849006,0.38893336,0.49200872,0.050363682,-0.014965131,-0.5446036,97.80082
2021-06-10,0.27637905,0.07345638,0.109266266,0.11342746,0.22916691,0.13473834,0.3452609,0.38709337,0.48932713,0.056569304,-0.015973724,-0.5351472,34.064667
2021-06-11,0.27438325,0.079591066,0.122720025,0.12101027,0.22139616,0.12615916,0.34100643,0.381261,0.48259985,0.067011915,-0.015749302,-0.50749224,66.97601
2021-06-14,0.2634526,0.07629798,0.123344146,0.11726649,0.21249515,0.11888398,0.33235002,0.36825114,0.46855167,0.06246975,-0.017073348,-0.493358,48.342663
2021-06-15,0.25838244,0.06562765,0.10244503,0.097961724,0.21840097,0.122455165,0.32955846,0.36603642,0.46789938,0.04931567,-0.021230303,-0.5242134,108.337906
2021-06-16,0.25110322,0.06378172,0.101034544,0.095679,0.21449059,0.12364195,0.3299614,0.35985166,0.46349958,0.036980305,-0.02293368,-0.52146,48.4105
2021-06-17,0.23954986,0.061365925,0.10387391,0.0953747,0.20453785,0.11812265,0.3235749,0.34667557,0.4497531,0.029063363,-0.0240761,-0.50495994,58.73809
2021-06-18,0.23393556,0.052597597,0.085331,0.08251609,0.20662184,0.11773287,0.3130205,0.3404593,0.44086188,0.025534805,-0.024125863,-0.5151097,70.70416
2021-06-21,0.21565142,0.042371422,0.0756153,0.0727924,0.19872464,0.11263579,0.30718723,0.32217818,0.424658,0.0038425662,-0.02849808,-0.52163,173.82803
2021-06-22,0.21929769,0.05472724,0.08830265,0.09076786,0.19369017,0.11300856,0.3077793,0.3207019,0.42241687,0.015035234,-0.022272956,-0.48627338,396.27075
2021-06-23,0.20851083,0.053765245,0.08962192,0.092107385,0.18577127,0.111533314,0.30542728,0.30900425,0.41195673,0.0027660169,-0.022667777,-0.47251347,108.13365
2021-06-24,0.2030017,0.051294453,0.085842766,0.09008908,0.18348213,0.11088543,0.30250314,0.30305856,0.40603533,-0.0033084042,-0.022983607,-0.47115606,241.06726
2021-06-25,0.20599811,0.059833884,0.096240185,0.10152188,0.18008314,0.11211568,0.3043572,0.30401742,0.4066345,0.0030664764,-0.019402124,-0.4476343,260.22803
2021-06-28,0.20588769,0.060996927,0.098680995,0.103366524,0.17931233,0.11112836,0.30449772,0.30334774,0.40613538,0.004519563,-0.01987826,-0.44452253,58.58381
2021-06-29,0.20458554,0.05432348,0.086632654,0.09287258,0.1852246,0.115340635,0.30617997,0.30517423,0.40961283,-0.0053625666,-0.023216177,-0.46851033,283.8735
2021-06-30,0.20315415,0.05683796,0.09132558,0.09765172,0.18130161,0.11470726,0.30553284,0.30262154,0.40654978,-0.004976187,-0.02168271,-0.4558741,36.861427
2021-07-01,0.198727,0.053955793,0.08945168,0.094686,0.17934723,0.115465805,0.30534938,0.2996822,0.4040199,-0.012995239,-0.022926893,-0.4580032,183.08559
2021-07-02,0.20199387,0.062953494,0.10405266,0.10946554,0.17407545,0.11432721,0.306949,0.30018562,0.40339518,-0.003927272,-0.018784318,-0.43091097,148.78679
2021-07-06,0.205658,0.06339737,0.10439984,0.10932283,0.17745458,0.11435117,0.3094552,0.3040468,0.40804175,-0.00012974441,-0.01972482,-0.4392148,111.830055
2021-07-07,0.20025781,0.055141106,0.09534868,0.09800258,0.178865,0.11284223,0.30739704,0.30042678,0.4054463,-0.009152655,-0.024328243,-0.4575903,7021.1753
2021-07-08,0.2049193,0.060899243,0.10444196,0.107367426,0.17656188,0.106841505,0.3040448,0.30061346,0.403215,0.007876683,-0.021482378,-0.4404948,241.66403
2021-07-09,0.1966521,0.044048317,0.08005986,0.08378342,0.18202661,0.107012406,0.298831,0.29662406,0.39947844,-0.008242454,-0.027640712,-0.48008552,326.53738
2021-07-12,0.19975038,0.067163736,0.118643455,0.121824786,0.16414341,0.099530354,0.29903138,0.29018462,0.3905432,0.014477827,-0.017844174,-0.40302813,496.08435
2021-07-13,0.19759129,0.051096432,0.09222686,0.09681648,0.17734419,0.10878898,0.30465472,0.2963626,0.4005846,-0.0089004,-0.025995698,-0.4624795,313.63126
2021-07-14,0.19329134,0.04319814,0.08287941,0.087366655,0.17848529,0.107274845,0.30182698,0.2932825,0.39736295,-0.015279587,-0.029534813,-0.47938034,131.27827
2021-07-15,0.1900387,0.038727067,0.07321789,0.08346051,0.17923032,0.10732378,0.2981541,0.2892902,0.39259785,-0.01853862,-0.029258553,-0.48554346,55.951916
2021-07-16,0.1844403,0.036368966,0.07346943,0.08318206,0.17675902,0.10470922,0.29861933,0.2832294,0.38842672,-0.025323223,-0.0318983,-0.48885682,63.14233
2021-07-19,0.18454698,0.030216316,0.06267205,0.07467516,0.1815231,0.1044976,0.2978934,0.28444105,0.38991943,-0.027506713,-0.03431915,-0.51130897,66.655495
2021-07-20,0.17373554,0.011742648,0.03545034,0.047840636,0.1865128,0.1033473,0.29022422,0.2774626,0.38334328,-0.045485016,-0.04141374,-0.5537732,251.26767
2021-07-21,0.17698698,0.036696076,0.07416448,0.08960654,0.16770189,0.09539373,0.28972617,0.26909816,0.37245753,-0.020342212,-0.030397948,-0.4717461,531.3793
2021-07-22,0.18104957,0.03788986,0.074227445,0.09159297,0.17037858,0.09656012,0.29188558,0.2730531,0.37635717,-0.016177546,-0.0296554,-0.47512195,37.56257
2021-07-23,0.17560546,0.033660285,0.07221954,0.08766091,0.168577,0.09349036,0.2900327,0.267623,0.37170097,-0.021468755,-0.032782096,-0.48038104,73.62241
2021-07-26,0.17347406,0.034965046,0.0751193,0.091315284,0.16356933,0.08859812,0.2840868,0.2623446,0.36395678,-0.014793102,-0.031025577,-0.4641535,67.414215
2021-07-27,0.17758967,0.02695561,0.05904516,0.076528236,0.17495617,0.09241977,0.28579643,0.26980555,0.37261128,-0.01745319,-0.035295162,-0.50129604,119.71524
2021-07-28,0.18079464,0.029454844,0.06315394,0.07994115,0.1764197,0.0935923,0.28941616,0.27329928,0.37696984,-0.015129607,-0.03553591,-0.5011046,42.36467
2021-07-29,0.19223812,0.0468804,0.087605216,0.10542594,0.172625,0.092281654,0.29324895,0.2792567,0.38128674,0.008505601,-0.02852498,-0.46031085,328.37497
2021-07-30,0.19315146,0.05003634,0.09320005,0.11152395,0.16997822,0.091892496,0.29405212,0.27905503,0.38055187,0.011775963,-0.027054135,-0.44917235,67.897
2021-08-02,0.19752528,0.0440225,0.08270257,0.099500075,0.17982824,0.09779081,0.29929835,0.2886778,0.39192125,0.0056658685,-0.030982144,-0.48206225,130.4894
2021-08-03,0.20127216,0.04796949,0.08700282,0.10491459,0.17990862,0.10069619,0.30218962,0.2925945,0.39551508,0.008426901,-0.029045295,-0.47593644,84.01285
2021-08-04,0.1983724,0.055654675,0.10286535,0.117247134,0.17038463,0.10042301,0.30543596,0.2887507,0.3924163,0.0059100688,-0.027305912,-0.4481932,97.869644
2021-08-05,0.19232346,0.051725566,0.10320876,0.11297622,0.165534,0.09732108,0.3022031,0.2836575,0.3865364,0.00054932386,-0.02943534,-0.4464473,123.23524
2021-08-06,0.19251178,0.05767998,0.114006765,0.12245944,0.15921104,0.09429504,0.30013654,0.28106117,0.3822127,0.008071817,-0.026595335,-0.42196837,1424.6534
2021-08-09,0.19375326,0.054810114,0.11212446,0.11710513,0.16142668,0.09378798,0.2999244,0.28383142,0.38468575,0.00868015,-0.028539613,-0.43194994,32.489037
2021-08-10,0.20167354,0.05140475,0.10294434,0.10893038,0.17222229,0.09868525,0.30357754,0.29484296,0.396162,0.010893054,-0.030375253,-0.45939788,83.73932
2021-08-11,0.19947712,0.057324924,0.11909992,0.120959684,0.16362394,0.09485704,0.30567083,0.29082918,0.39238933,0.012947857,-0.029533856,-0.4367185,77.78768
2021-08-12,0.20367807,0.06118816,0.12717783,0.1271909,0.16291477,0.09519783,0.30930203,0.29541743,0.39666647,0.017483834,-0.028054401,-0.4310321,66.77149
2021-08-13,0.20707498,0.059852466,0.12621698,0.12362489,0.16717388,0.09707494,0.312351,0.301202,0.4031109,0.016994141,-0.029208984,-0.4433865,26.347107
2021-08-16,0.20877644,0.0628227,0.13249448,0.12995735,0.16394018,0.09307541,0.3085368,0.30035046,0.39941102,0.027237717,-0.025929742,-0.42755067,99.43168
2021-08-17,0.21327876,0.060691267,0.12804613,0.1240394,0.17149864,0.097632125,0.313046,0.30793342,0.40860635,0.024915438,-0.028505918,-0.44644997,52.136623
2021-08-18,0.21323244,0.055828497,0.1268926,0.11670722,0.17112961,0.09438944,0.3106675,0.30969435,0.40869007,0.026409503,-0.031671572,-0.45627388,39.03695
2021-08-19,0.21605004,0.054738373,0.12697178,0.11558536,0.17307642,0.09345953,0.31179854,0.3132432,0.4118516,0.029762212,-0.03251309,-0.46486595,25.939238
2021-08-20,0.20177025,0.05181966,0.13409147,0.11638138,0.15820841,0.08468239,0.30471236,0.2972619,0.39476287,0.020679362,-0.034717005,-0.44401142,89.525955
2021-08-23,0.19546674,0.05863355,0.15290572,0.1324995,0.14045231,0.07075864,0.29291892,0.2831356,0.37511998,0.03578147,-0.029944755,-0.392944,183.69493
2021-08-24,0.1946264,0.060489103,0.15620959,0.13641304,0.13803712,0.070246115,0.29225704,0.28116554,0.3727253,0.036630545,-0.028782446,-0.383199,21.447432
2021-08-25,0.19618683,0.062469587,0.16168,0.14027289,0.13685676,0.069118336,0.29286247,0.28207803,0.37317926,0.040244572,-0.028404102,-0.37704557,26.30788
2021-08-26,0.20154239,0.058087744,0.15215006,0.13183288,0.144934,0.071209386,0.2934782,0.28938305,0.38009974,0.042973682,-0.0293644,-0.40101334,51.75594
2021-08-27,0.19395448,0.05068335,0.14441827,0.123686135,0.14278029,0.068372324,0.28758863,0.2823615,0.37205857,0.03527383,-0.030414551,-0.40784445,62.98931
2021-08-30,0.19277777,0.056272224,0.15311345,0.13599801,0.13473809,0.06422061,0.28156185,0.27661514,0.3624574,0.044632066,-0.024100956,-0.37577376,101.176956
2021-08-31,0.19254616,0.048468202,0.13657537,0.122295395,0.14333107,0.07109393,0.28334558,0.28048193,0.36796,0.0329985,-0.026440632,-0.40542647,99.15946
2021-09-01,0.18691744,0.044805273,0.13181451,0.11966807,0.13944952,0.06846805,0.27550754,0.273673,0.3582628,0.031172678,-0.024045404,-0.398041,46.759373
2021-09-02,0.18917494,0.047409005,0.13259953,0.12453641,0.13957866,0.06920181,0.27387768,0.27444938,0.35732466,0.036244046,-0.019835174,-0.38858977,50.136723
2021-09-03,0.17866556,0.042973943,0.13042513,0.12130532,0.13115504,0.06465815,0.2655199,0.26307195,0.3437038,0.029030086,-0.019039165,-0.37631628,69.829956
2021-09-07,0.1679396,0.039709426,0.13053177,0.12063496,0.12163666,0.060371075,0.25729647,0.25115335,0.32932842,0.02219478,-0.017733593,-0.35847408,75.07631
2021-09-08,0.17897002,0.03525333,0.113710634,0.107645966,0.13889383,0.0701931,0.26383808,0.26690298,0.34710747,0.021400962,-0.01997935,-0.40043098,114.05725
2021-09-09,0.1782244,0.032527767,0.1063316,0.10448219,0.14200056,0.07354972,0.26538342,0.26741487,0.3486166,0.015073501,-0.019837562,-0.41130766,58.799522
2021-09-10,0.17677695,0.032281816,0.104146875,0.10653488,0.14211534,0.073975384,0.26523694,0.26531574,0.34672067,0.012983296,-0.018024083,-0.41104946,30.702316
2021-09-13,0.17240918,0.03294296,0.10433683,0.10918902,0.13789807,0.07192169,0.26140139,0.258888,0.3395391,0.011806771,-0.015329036,-0.39898536,45.825512
2021-09-14,0.1856383,0.03672559,0.097889185,0.10913672,0.15242107,0.08637519,0.27590933,0.27674472,0.3614646,0.008614674,-0.014700654,-0.42579988,112.77193
2021-09-15,0.17886321,0.025715081,0.08002769,0.0934909,0.15668811,0.09090789,0.2766176,0.27452886,0.36144042,-0.010817666,-0.018623684,-0.45658526,334.8126
2021-09-16,0.17977352,0.03284485,0.08775715,0.1045413,0.15220684,0.094019294,0.27824503,0.27401578,0.36021176,-0.00949828,-0.0137842735,-0.43305615,100.44608
2021-09-17,0.18045308,0.027167426,0.076336324,0.094144434,0.15905757,0.1007532,0.28222945,0.27920452,0.36718088,-0.020336132,-0.016190425,-0.45777336,194.81313
2021-09-20,0.17233424,0.018076004,0.06480935,0.08329671,0.15877955,0.10298745,0.28144646,0.27445024,0.36344796,-0.0374684,-0.019530147,-0.47562352,178.748
2021-09-21,0.16765796,0.0039130524,0.037835553,0.059509873,0.16973525,0.11074488,0.28489396,0.27636403,0.36963603,-0.060638633,-0.026123032,-0.5279944,275.90775
2021-09-22,0.1687635,0.02325829,0.06662519,0.091881044,0.15468903,0.10660647,0.28495726,0.26933914,0.36067978,-0.045289274,-0.016088098,-0.46308193,719.134
2021-09-23,0.16425069,0.029881978,0.07603621,0.10453518,0.14522362,0.10490394,0.28060487,0.2607872,0.35015616,-0.04301993,-0.0104891835,-0.42675346,122.04406
2021-09-24,0.17722495,0.023656132,0.053410828,0.08857958,0.1681424,0.1208792,0.29415467,0.28190637,0.37591332,-0.052106973,-0.013155079,-0.48752478,185.82532
2021-09-27,0.16521688,0.016958287,0.047820963,0.082596354,0.16294311,0.12007193,0.29094985,0.27129966,0.3661572,-0.06909387,-0.014571571,-0.48916999,107.22186
2021-09-28,0.18135826,0.014268843,0.03093712,0.071728036,0.1852796,0.13294445,0.30314568,0.29317504,0.391694,-0.068627,-0.016614992,-0.5420743,143.26588
2021-09-29,0.18208468,0.0044023786,0.013205104,0.053541824,0.19760604,0.13812993,0.3073556,0.29985142,0.401743,-0.08078165,-0.021732159,-0.58750427,225.89354
2021-09-30,0.19874689,0.021924173,0.033882968,0.07558997,0.20031667,0.13859792,0.314024,0.31248707,0.41370264,-0.05454358,-0.014756226,-0.5626682,684.8057
2021-10-01,0.2012311,0.015757421,0.021888927,0.06471955,0.21109076,0.14193098,0.31809148,0.31890815,0.42270195,-0.05994847,-0.01774472,-0.597599,128.83539
2021-10-04,0.20718603,0.031026253,0.042151332,0.087171495,0.20724793,0.14156292,0.32128844,0.3203045,0.42392808,-0.04547086,-0.010449353,-0.559432,302.5813
2021-10-05,0.21329464,0.02285101,0.026197478,0.06961163,0.22338037,0.14510591,0.32558647,0.33144832,0.43804842,-0.047870543,-0.015925918,-0.60766274,172.03479
2021-10-06,0.22279878,0.040237807,0.049936518,0.0946064,0.21904936,0.14295699,0.32573047,0.335028,0.43892723,-0.024280649,-0.0074348645,-0.5605288,322.16098
2021-10-07,0.22555451,0.033144593,0.037337393,0.08258714,0.22969298,0.14699073,0.32776642,0.34165227,0.44682786,-0.028754916,-0.01045129,-0.5930665,133.68625
2021-10-08,0.2325143,0.043965325,0.054209575,0.100255415,0.22479524,0.14160162,0.32280567,0.34297323,0.44321334,-0.004990224,-0.0032907398,-0.5542883,268.52008
2021-10-11,0.23140955,0.037382677,0.0467373,0.08935095,0.230216,0.14666997,0.32812792,0.3474999,0.45029104,-0.018143754,-0.008137205,-0.5811344,466.36963
2021-10-12,0.23100913,0.035773,0.044955447,0.08570902,0.23142277,0.14934894,0.32957634,0.3489474,0.45241207,-0.023020145,-0.0103045115,-0.58651733,70.48439
2021-10-13,0.23380785,0.03939923,0.049863577,0.090361744,0.23243628,0.15408875,0.3355375,0.35337502,0.45825705,-0.025743183,-0.010204474,-0.5841145,48.88513
2021-10-14,0.22106436,0.044485718,0.06506297,0.10423356,0.21404652,0.14491437,0.32596838,0.33516806,0.43699044,-0.02550197,-0.00692878,-0.5329208,132.50645
2021-10-15,0.21751566,0.049309045,0.081035905,0.11217652,0.20357345,0.14327124,0.3288472,0.3324653,0.43436623,-0.029695604,-0.008517367,-0.50888735,96.816315
2021-10-18,0.21677524,0.03753587,0.06700205,0.0908618,0.21053964,0.1521509,0.3386117,0.34133285,0.44725186,-0.052095998,-0.017781332,-0.5590035,272.8058
2021-10-19,0.2065635,0.029455679,0.06012126,0.078931615,0.20732984,0.15643826,0.34183505,0.33628285,0.4453681,-0.07665391,-0.024139557,-0.5744247,142.48817
2021-10-20,0.2030953,0.030790443,0.067421205,0.08219725,0.20010005,0.1540335,0.34067467,0.33287227,0.4408157,-0.07816166,-0.024620127,-0.55923253,36.492393
2021-10-21,0.18857816,0.021216186,0.06476784,0.07085754,0.18932243,0.15136681,0.33697397,0.32201767,0.42974246,-0.098454595,-0.03036987,-0.56092304,119.5695
2021-10-22,0.17975897,0.011479018,0.05763963,0.056183804,0.18457684,0.14999232,0.33340755,0.3166572,0.42397556,-0.11212224,-0.036544114,-0.57363635,126.244736
2021-10-25,0.16648534,0.004718,0.058698565,0.051070035,0.17138356,0.14501403,0.32652307,0.3044567,0.4092901,-0.124304,-0.039884906,-0.56156623,119.181145
2021-10-26,0.16415043,0.009049499,0.06995592,0.059140056,0.16345184,0.14337867,0.32564434,0.30095804,0.40449426,-0.12319499,-0.040089875,-0.53618366,142.46236
2021-10-27,0.15433346,0.002326114,0.06342183,0.050041907,0.1565167,0.14209141,0.3184025,0.29235318,0.39377916,-0.13387859,-0.04118817,-0.5315857,130.14247
2021-10-28,0.14154904,-0.004322747,0.058526784,0.04265562,0.14833291,0.13782747,0.31111887,0.2793622,0.38019484,-0.14613079,-0.04300945,-0.52782744,349.2886
2021-10-29,0.13592541,0.0015543457,0.071395256,0.0549616,0.13487864,0.12925346,0.30101642,0.26819217,0.36438358,-0.13630857,-0.038134012,-0.48258743,244.09087
2021-11-01,0.12903285,0.00035514124,0.07545516,0.054071702,0.12622498,0.12025531,0.2894655,0.25756872,0.35027587,-0.13066089,-0.03780769,-0.46021453,124.21091
2021-11-02,0.13488168,0.00052741356,0.06716866,0.052594442,0.13137914,0.121154845,0.2841895,0.2611477,0.35074335,-0.11873296,-0.03379907,-0.46199393,95.0502
2021-11-03,0.13655572,0.00967407,0.081519894,0.066943355,0.12713964,0.121184334,0.2880899,0.2607405,0.3512989,-0.115051925,-0.031026863,-0.4370269,1805.7811
2021-11-04,0.14071469,0.011968387,0.08162501,0.068560466,0.12874971,0.12004499,0.28541625,0.26310474,0.35188442,-0.10500063,-0.028695174,-0.4318734,50.944984
2021-11-05,0.124425694,0.013355536,0.0953982,0.07674715,0.10760499,0.10442804,0.26944557,0.24000673,0.32430166,-0.102158755,-0.026264671,-0.38145372,126.47739
2021-11-08,0.12973955,0.013726199,0.0883249,0.07548524,0.11292298,0.106753126,0.2681164,0.24401258,0.32724208,-0.09495264,-0.023950629,-0.38732418,43.745773
2021-11-09,0.13965586,0.012653409,0.07867863,0.06811818,0.1261754,0.115409106,0.2771053,0.25757688,0.3439762,-0.09578891,-0.025518578,-0.4197627,85.811516
2021-11-10,0.14097996,0.014068009,0.077659346,0.06895124,0.12833461,0.12079845,0.2827898,0.260629,0.34927076,-0.10209888,-0.02551334,-0.4242207,33.47271
2021-11-11,0.14196524,0.014305545,0.07916646,0.068848014,0.12756957,0.11819892,0.2804793,0.26041216,0.34798822,-0.09692526,-0.025736656,-0.42202005,14.954578
2021-11-12,0.15169267,0.01857243,0.078284465,0.07327174,0.13363507,0.12133749,0.28296438,0.26910597,0.35578543,-0.08533494,-0.022589926,-0.4250035,82.98494
2021-11-15,0.15819931,0.021632219,0.074647784,0.07625872,0.14217454,0.13298589,0.29658577,0.27889293,0.37044114,-0.09437412,-0.022312656,-0.44361869,74.24637
2021-11-16,0.16757566,0.018953158,0.06006077,0.067360915,0.15711944,0.14241429,0.30421022,0.29123998,0.38588673,-0.096156806,-0.023705754,-0.48039618,94.712204
2021-11-17,0.17220378,0.01903507,0.051011898,0.06620661,0.16546813,0.15161674,0.31170687,0.29795808,0.39546618,-0.1026437,-0.022893813,-0.49946648,53.143574
2021-11-18,0.16964148,0.014475657,0.039768383,0.059696585,0.16977824,0.15745284,0.31623918,0.29808444,0.39867172,-0.11632374,-0.024048451,-0.52057517,88.67297
2021-11-19,0.16886403,0.014834413,0.036966108,0.060040064,0.17052515,0.1566097,0.31586394,0.29580173,0.39740634,-0.11641416,-0.022858914,-0.52285147,18.197208
2021-11-22,0.16627522,0.016035246,0.038584933,0.06292953,0.16756813,0.15010287,0.3107294,0.28890193,0.39013755,-0.11058627,-0.021501891,-0.514718,42.99411
2021-11-23,0.16792475,0.005883632,0.016662993,0.04412798,0.17773981,0.145905,0.29914728,0.2896254,0.3879946,-0.10190925,-0.022793818,-0.5429126,183.71852
2021-11-24,0.16862236,0.013199812,0.025961265,0.056999914,0.17480482,0.14787582,0.30444515,0.28884533,0.38892913,-0.10283044,-0.019151308,-0.5276343,234.71649
2021-11-26,0.16732289,0.018155145,0.035882354,0.066302754,0.16930519,0.14477816,0.30399373,0.28505212,0.38483024,-0.09934391,-0.016907074,-0.508789,119.28435
2021-11-29,0.15330546,-0.011106638,-0.004614018,0.022798875,0.17781039,0.1346964,0.2835266,0.27449757,0.3710982,-0.1096849,-0.026930306,-0.5663332,455.021
2021-11-30,0.15779492,0.023836927,0.047032632,0.07914092,0.15452321,0.13123164,0.2890466,0.2667014,0.3620877,-0.08747262,-0.01118251,-0.45968714,1804.458
2021-12-01,0.1468188,0.0013796352,0.012714013,0.046662137,0.16341458,0.13108984,0.2806352,0.26076305,0.35666227,-0.1073598,-0.018752322,-0.5141078,329.93936
2021-12-02,0.13798223,0.010724751,0.033523403,0.06617859,0.14477877,0.12301606,0.274595,0.2459881,0.33922586,-0.10400422,-0.012731588,-0.4602804,964.85034
2021-12-03,0.14352962,0.017528495,0.041716263,0.075104095,0.14533745,0.124697104,0.27839458,0.2506197,0.34409213,-0.097129434,-0.010484627,-0.4494483,138.4519
2021-12-06,0.1323271,0.0051314738,0.027662463,0.058191095,0.14446531,0.12723224,0.27926138,0.24527925,0.3411753,-0.12207864,-0.016236365,-0.47738186,227.4219
2021-12-07,0.1446314,0.020542359,0.04844015,0.07918842,0.14297955,0.12857546,0.2859027,0.2545802,0.34970993,-0.10358818,-0.011971871,-0.44697195,479.35162
2021-12-08,0.13982119,0.02464193,0.05811642,0.08921374,0.13436154,0.1289189,0.28597987,0.2490588,0.34336668,-0.10799077,-0.009939243,-0.4197567,93.53981
2021-12-09,0.1419282,0.009939628,0.03282678,0.062884405,0.14928749,0.14197578,0.2975469,0.26155645,0.3611329,-0.13208392,-0.018009849,-0.48948178,289.79297
2021-12-10,0.14402357,0.003994299,0.026218295,0.051590838,0.15536201,0.14712119,0.3045052,0.26928568,0.37140828,-0.14189455,-0.023878101,-0.51990753,161.44058
2021-12-13,0.1329837,0.0034084246,0.030182533,0.055297952,0.14448006,0.15105556,0.3073295,0.26060864,0.36392277,-0.1624425,-0.024545278,-0.5040761,80.80278
2021-12-14,0.13343945,-0.0033593606,0.022209916,0.042449716,0.1507277,0.15638709,0.31392792,0.26653653,0.37311345,-0.17422561,-0.03170154,-0.53479093,305.85562
2021-12-15,0.13797082,0.001010254,0.02942647,0.048368927,0.15044238,0.16095816,0.3206684,0.27301073,0.38014597,-0.17444804,-0.03190684,-0.52961266,191.22191
2021-12-16,0.13595164,0.008489588,0.048286885,0.06068548,0.13905324,0.15591337,0.3206702,0.26910233,0.37501293,-0.1687964,-0.032347057,-0.49505612,855.994
2021-12-17,0.12714246,0.008889081,0.0644926,0.06429011,0.12321408,0.14304349,0.3135788,0.25873408,0.36150327,-0.16474262,-0.03548247,-0.46509114,98.14595
2021-12-20,0.12807164,0.010365041,0.07260383,0.06416903,0.12113169,0.14202581,0.31624416,0.26122057,0.36465046,-0.16435346,-0.0394489,-0.4618164,47.302322
2021-12-21,0.12632334,0.0015828777,0.05480177,0.04758113,0.12711409,0.14558254,0.3130781,0.2617045,0.36541563,-0.17130992,-0.04311031,-0.4874512,164.3677
2021-12-22,0.124817565,0.025072286,0.09920668,0.09117903,0.100765035,0.12969844,0.3036941,0.24870266,0.3444165,-0.13963917,-0.031170756,-0.3792204,1771.5552
2021-12-23,0.12255561,0.019600892,0.09644824,0.081232876,0.10249584,0.13446845,0.3107485,0.2521808,0.35119262,-0.15576826,-0.038591493,-0.40248862,89.90088
2021-12-27,0.1265737,0.022265138,0.10460442,0.08478919,0.10062323,0.1319959,0.3116372,0.25579506,0.35351637,-0.14655674,-0.039297383,-0.3948823,45.3847
2021-12-28,0.13399403,0.02489612,0.10793832,0.08519477,0.10416752,0.13076021,0.3112786,0.26192236,0.35862884,-0.13327844,-0.040563572,-0.3950142,42.075314
2021-12-29,0.13812934,0.025235573,0.10859875,0.08455735,0.10811544,0.13391088,0.31604174,0.26742995,0.36557075,-0.13298394,-0.0428357,-0.40421066,25.728327
2021-12-30,0.14594674,0.027683755,0.11140012,0.085554,0.11217728,0.13365431,0.31794456,0.2749061,0.37251192,-0.1218518,-0.04330047,-0.40868053,38.92579
2021-12-31,0.15050927,0.0333706,0.124214426,0.095314786,0.10857233,0.12734894,0.31616938,0.27626294,0.37142274,-0.105092615,-0.041292317,-0.3893329,78.9814
2022-01-03,0.15565814,0.036283486,0.1261788,0.09968819,0.1105941,0.12952931,0.318288,0.28090107,0.37545848,-0.09875524,-0.03978103,-0.3858989,35.90175
2022-01-04,0.17019293,0.03650309,0.11028914,0.08836779,0.12704283,0.12431179,0.30409744,0.28855094,0.37903348,-0.06441569,-0.037769455,-0.3990096,104.15313
2022-01-05,0.16990013,0.022678,0.085388616,0.065372944,0.13955687,0.13503204,0.31162676,0.2965644,0.39105678,-0.086413816,-0.043597452,-0.45880166,178.10999
2022-01-06,0.176372,0.014591252,0.06724514,0.048031345,0.15448697,0.14337371,0.31880376,0.30962598,0.4070285,-0.09468925,-0.046542976,-0.50899506,142.18372
2022-01-07,0.19588001,0.026717635,0.076565854,0.060994837,0.16703476,0.15059562,0.3317229,0.329862,0.42925858,-0.078059435,-0.042834084,-0.51395917,190.73383
2022-01-10,0.1980908,0.024765441,0.07136649,0.05763611,0.17075075,0.15090336,0.33087853,0.3330223,0.431568,-0.07590628,-0.041368823,-0.5238127,33.00866
2022-01-11,0.20744732,0.025354901,0.06547257,0.05383686,0.18428446,0.1592093,0.34101287,0.34599924,0.4485535,-0.078011334,-0.042558093,-0.55314064,57.526417
2022-01-12,0.21069685,0.03327231,0.075647354,0.06717807,0.18145005,0.15789971,0.33970085,0.34644502,0.4467867,-0.06740534,-0.03738344,-0.5267354,106.910385
2022-01-13,0.21629387,0.032437176,0.070291325,0.06397615,0.18898301,0.16159882,0.342197,0.3538615,0.4544109,-0.06521137,-0.036323298,-0.54142976,36.96971
2022-01-14,0.21953298,0.025112564,0.05532714,0.04978595,0.20015047,0.16647731,0.3439854,0.36095995,0.46284163,-0.070193216,-0.03839908,-0.57643884,100.680115
2022-01-18,0.21988712,0.027196681,0.05529041,0.052353904,0.20036568,0.16869806,0.34425238,0.36108464,0.46295398,-0.070929825,-0.036950365,-0.5710731,21.015728
2022-01-19,0.20961876,0.015623866,0.037138738,0.034044392,0.20063923,0.16892497,0.3382019,0.35288638,0.45547938,-0.087112546,-0.040779147,-0.592814,157.92212
2022-01-20,0.19774397,0.017136013,0.042873576,0.040013872,0.18833895,0.16504066,0.33291182,0.33884454,0.4407711,-0.095540375,-0.039525744,-0.56396693,83.13637
2022-01-21,0.1918937,0.017033143,0.045204706,0.039889038,0.18381195,0.16329621,0.33195743,0.3328423,0.43586335,-0.1019232,-0.04103198,-0.5572136,27.629168
2022-01-24,0.18463272,0.010278899,0.035091028,0.028349664,0.18403979,0.16488805,0.3316809,0.32828778,0.4335743,-0.116836905,-0.044514123,-0.5741188,123.96736
2022-01-25,0.18023926,0.011298595,0.037056632,0.029238194,0.18125127,0.16547695,0.33228594,0.3239442,0.4308678,-0.12371075,-0.045696083,-0.56774455,34.686333
2022-01-26,0.172909,0.015697615,0.048452817,0.038723774,0.16898344,0.16041853,0.32671237,0.3140041,0.41855648,-0.123459175,-0.043033734,-0.53123623,136.08543
2022-01-27,0.17106965,0.020009467,0.056837738,0.045074902,0.16349532,0.15968733,0.3255938,0.3114342,0.41502854,-0.122683376,-0.041337136,-0.5092699,76.65145
2022-01-28,0.17260323,0.021541847,0.058660656,0.046071827,0.16449638,0.16279583,0.32838526,0.3143716,0.41852897,-0.12455514,-0.04160868,-0.5082883,21.551823
2022-01-31,0.1719205,0.026832355,0.065665275,0.054877695,0.16220465,0.16475005,0.33183417,0.31297827,0.4185644,-0.12629105,-0.040895168,-0.49439085,65.94722
2022-02-01,0.1710601,0.031712674,0.072382815,0.063549474,0.15979019,0.16508253,0.33346593,0.3105018,0.4169383,-0.12561297,-0.03992829,-0.47865692,54.16615
2022-02-02,0.16630921,0.03388632,0.07843593,0.06835245,0.15393543,0.16394341,0.33276996,0.30503967,0.411654,-0.12943877,-0.03959383,-0.46163523,40.580814
2022-02-03,0.16336282,0.030165074,0.07295111,0.06222307,0.1551986,0.16645269,0.33422053,0.30438852,0.41244012,-0.13845661,-0.041812792,-0.47314578,46.96939
2022-02-04,0.1621479,0.018574452,0.054454267,0.042977013,0.16521545,0.17315319,0.33943254,0.3093561,0.42096895,-0.15538555,-0.048016164,-0.5212756,148.42778
2022-02-07,0.16173394,0.02749548,0.07038402,0.05940523,0.1581751,0.17118807,0.34087858,0.30622602,0.4174798,-0.15081245,-0.045133095,-0.48980471,138.41037
2022-02-08,0.16859151,0.023479564,0.05951295,0.05004994,0.16976142,0.18059267,0.35009196,0.3182355,0.43256035,-0.15846105,-0.048198763,-0.5263439,92.41906
2022-02-09,0.1679313,0.025712254,0.064051345,0.055419818,0.16788115,0.18285196,0.35263392,0.31809744,0.43274993,-0.16179416,-0.047408562,-0.5177668,36.799973
2022-02-10,0.16591592,0.027881784,0.070574395,0.061325863,0.16196474,0.17865682,0.3487692,0.31390446,0.42633617,-0.15702823,-0.045463737,-0.4994511,50.778885
2022-02-11,0.16581179,0.014801836,0.0483395,0.039143108,0.17341629,0.18516701,0.35168496,0.3197941,0.43462062,-0.17155668,-0.050434493,-0.55020666,160.3701
2022-02-14,0.16984664,0.0155890975,0.047920346,0.039113637,0.1778157,0.19039142,0.35851875,0.3265497,0.44328642,-0.17554119,-0.050872725,-0.5617171,25.38588
2022-02-15,0.1708778,0.016882943,0.047113992,0.041508816,0.17972909,0.19312927,0.36037076,0.3274716,0.44498944,-0.17686951,-0.050050084,-0.56155056,22.81366
2022-02-16,0.18252495,0.030839859,0.06458382,0.062601715,0.17810787,0.19071701,0.3595566,0.3338161,0.44732696,-0.1505903,-0.042628195,-0.5240181,218.5905
2022-02-17,0.18009046,0.030074915,0.067788646,0.06281974,0.17513624,0.18969494,0.36005983,0.33201766,0.4456976,-0.15376559,-0.04366297,-0.52084184,17.51415
2022-02-18,0.1714526,0.019123921,0.05435636,0.047307573,0.17562069,0.19088803,0.35871628,0.32701313,0.4422686,-0.17134178,-0.04798065,-0.5457581,115.37527
2022-02-22,0.17287527,0.024343403,0.062280267,0.055924624,0.17345424,0.19013427,0.36022106,0.32693994,0.44229445,-0.16748253,-0.046294145,-0.5321458,71.25309
2022-02-23,0.17610635,0.02078628,0.051537514,0.04857382,0.18238935,0.19557513,0.36468533,0.3325562,0.45037943,-0.17269649,-0.047865126,-0.55893093,71.21245
2022-02-24,0.17091261,0.020284543,0.053678825,0.049705155,0.17888416,0.1929446,0.3644556,0.32688415,0.44599357,-0.17804137,-0.0487678,-0.5560417,23.353935
2022-02-25,0.16090703,0.018016433,0.05453021,0.04924623,0.170795,0.1844727,0.3544778,0.31271315,0.4304794,-0.17830323,-0.049124185,-0.54040945,42.698574
2022-02-28,0.17040889,0.034059852,0.07705457,0.07462338,0.16378196,0.17537317,0.34780607,0.31355166,0.42516065,-0.14366463,-0.040540397,-0.48584473,247.21336
2022-03-01,0.16233201,0.022085628,0.06097494,0.0545958,0.17101511,0.18872972,0.363269,0.31580442,0.43698138,-0.18388347,-0.05157916,-0.53972894,173.89404
2022-03-02,0.13781965,0.016970152,0.06778636,0.05516672,0.1484936,0.17429054,0.3468751,0.28656638,0.40498167,-0.1957075,-0.05348007,-0.5004005,109.79513
2022-03-03,0.15149915,0.027606832,0.0788667,0.066999376,0.15145041,0.17748418,0.35490862,0.30004007,0.41809505,-0.17997438,-0.05016984,-0.49155822,140.4744
2022-03-04,0.13336346,0.017625129,0.07734584,0.055204548,0.13978328,0.17341466,0.35218844,0.2852369,0.40531182,-0.20473179,-0.057466183,-0.49481595,115.37649
2022-03-07,0.121507734,0.012401054,0.081929624,0.04913726,0.12637578,0.16523546,0.34468684,0.27391917,0.39176512,-0.21159378,-0.061277825,-0.48119372,91.93245
2022-03-08,0.12262577,0.008844253,0.07642947,0.03862732,0.13044883,0.1687737,0.3465985,0.27851027,0.39767072,-0.21823654,-0.06587717,-0.4983753,81.02194
2022-03-09,0.11902577,0.018399952,0.09917744,0.05795282,0.110584036,0.1584979,0.3422055,0.27101254,0.3848911,-0.20368376,-0.057968613,-0.44231403,249.18582
2022-03-10,0.13492694,0.034027904,0.11976519,0.08064564,0.10594967,0.14910255,0.33489126,0.27889216,0.3841257,-0.15846184,-0.045886625,-0.39134932,228.13898
2022-03-11,0.11442587,0.02094725,0.11923555,0.06427048,0.091503456,0.14261827,0.328911,0.2627672,0.36842927,-0.18390985,-0.055117745,-0.39302424,140.62476
2022-03-14,0.12642105,0.024548994,0.12450262,0.064416856,0.09709889,0.14626245,0.33425534,0.27714336,0.38193524,-0.17350805,-0.05650826,-0.39903918,61.4635
2022-03-15,0.13779278,0.02746646,0.12604779,0.06382124,0.106090106,0.14954256,0.33929875,0.28975624,0.39511138,-0.16321585,-0.058021057,-0.41073486,55.597176
2022-03-16,0.14336148,0.040505297,0.15193494,0.08781773,0.0913838,0.13500717,0.33136818,0.2870655,0.3848359,-0.12781519,-0.04851131,-0.3524302,191.37375
2022-03-17,0.14522892,0.048697785,0.17038883,0.10581784,0.07750901,0.116313785,0.31481335,0.27854133,0.36683035,-0.09075354,-0.039005842,-0.2973117,160.07483
2022-03-18,0.13670263,0.041319825,0.17284566,0.09423525,0.071218565,0.11412816,0.31764212,0.27500927,0.3656615,-0.107755914,-0.048198212,-0.3107879,92.7232
2022-03-21,0.14669113,0.04549335,0.18051764,0.09742008,0.07618501,0.111344814,0.32109222,0.28369147,0.3748166,-0.092687756,-0.050188046,-0.31738028,61.618053
2022-03-22,0.14688928,0.038126335,0.16910094,0.08178766,0.08492088,0.11385214,0.32126483,0.2864857,0.3801399,-0.100611225,-0.057512496,-0.34938464,88.10349
2022-03-23,0.15387644,0.046176538,0.1822539,0.095167145,0.08155698,0.10752912,0.31989226,0.28901988,0.37982705,-0.07961212,-0.052587602,-0.3270379,96.748055
2022-03-24,0.14922792,0.04172246,0.18131538,0.08963226,0.07861249,0.103465304,0.31538767,0.2843643,0.37422302,-0.08192769,-0.055045445,-0.32847345,38.902943
2022-03-25,0.15870172,0.048126817,0.1893315,0.098655924,0.07974723,0.10173158,0.31516463,0.29119352,0.37826267,-0.063503295,-0.051445592,-0.31623745,75.611336
2022-03-28,0.16083348,0.046523437,0.18565278,0.09477916,0.08415654,0.10423337,0.31665125,0.29448056,0.38235524,-0.06529519,-0.05288397,-0.32769227,30.458052
2022-03-29,0.164613,0.047998205,0.18428096,0.0964582,0.087948814,0.1044807,0.31659108,0.29642013,0.3844899,-0.059688848,-0.051983286,-0.33100972,25.311417
2022-03-30,0.16911331,0.051241897,0.18348807,0.10157415,0.091171645,0.10537861,0.31685615,0.2987085,0.38641143,-0.052608315,-0.048754048,-0.32921106,39.723076
2022-03-31,0.15979819,0.044505462,0.17856151,0.09362517,0.087456904,0.10503702,0.31550354,0.2916076,0.38047302,-0.06809704,-0.052613117,-0.33772555,77.8481
2022-04-01,0.15441613,0.040223025,0.17243618,0.08852978,0.08717438,0.10629065,0.31414452,0.28714794,0.37686318,-0.07827458,-0.05399521,-0.34490764,45.987576
2022-04-04,0.15960582,0.044081613,0.17261554,0.09386769,0.08998355,0.10802512,0.3148433,0.2906531,0.37969494,-0.070949554,-0.05086278,-0.3414627,42.294384
2022-04-05,0.15935907,0.044682086,0.17046173,0.095798045,0.09059372,0.10764587,0.31369644,0.28842574,0.3776643,-0.069516644,-0.049710814,-0.34029636,12.141603
2022-04-06,0.1513534,0.034363426,0.15429479,0.079189435,0.095788166,0.11220567,0.31392857,0.28406322,0.37708095,-0.091507256,-0.056352396,-0.37190124,120.93069
2022-04-07,0.15047446,0.03325942,0.15457186,0.07693356,0.09699213,0.11359252,0.31947422,0.2855215,0.38150156,-0.099282995,-0.06008141,-0.38529226,31.48225
2022-04-08,0.13910218,0.032164037,0.16227484,0.080811046,0.08369424,0.10533208,0.31586882,0.27332157,0.3684465,-0.10532294,-0.06025326,-0.36695194,61.80993
2022-04-11,0.13386798,0.031238722,0.16726305,0.082377546,0.07647046,0.09908335,0.3122432,0.2672336,0.3609131,-0.10481951,-0.060710352,-0.356341,35.763813
2022-04-12,0.13912606,0.028671274,0.15722758,0.073949605,0.09067925,0.108063966,0.32191095,0.2759602,0.37566727,-0.11492087,-0.066015765,-0.39469627,95.610985
2022-04-13,0.13211866,0.031206245,0.16855241,0.083603844,0.07769635,0.09989686,0.31759843,0.26669383,0.36369485,-0.11181611,-0.062458564,-0.36510798,79.48231
2022-04-14,0.13506572,0.032963224,0.16756499,0.085513264,0.080505975,0.102958485,0.32033834,0.27007675,0.36767867,-0.1113483,-0.061490383,-0.36799976,23.398567
2022-04-18,0.1290773,0.02901758,0.16522527,0.08120844,0.077597834,0.10067019,0.31668034,0.2644052,0.36163652,-0.11684182,-0.062927745,-0.36752537,40.954136
2022-04-19,0.13510221,0.029602667,0.15993813,0.079620734,0.085133016,0.10661499,0.31963575,0.27131614,0.3692695,-0.11559673,-0.063200474,-0.3793938,37.840824
2022-04-20,0.14237483,0.032874063,0.15823181,0.08201744,0.09179423,0.11227675,0.32439208,0.27912262,0.37808233,-0.11219892,-0.061494384,-0.38565764,47.687744
2022-04-21,0.13963838,0.030703472,0.15519929,0.08025999,0.09103601,0.113807425,0.3243383,0.27744877,0.37648216,-0.1180491,-0.061677087,-0.38763168,21.835922
2022-04-22,0.13423076,0.026898568,0.15192233,0.076361805,0.0887154,0.11297774,0.3212207,0.2725674,0.37116727,-0.12435904,-0.06251027,-0.38767582,37.351315
2022-04-25,0.13678044,0.024311094,0.14220662,0.069679596,0.0986315,0.12184128,0.32831177,0.27880856,0.3813821,-0.13626683,-0.0651692,-0.41527843,73.885925
2022-04-26,0.14774814,0.02865654,0.13733375,0.072222665,0.11103626,0.12953286,0.3354978,0.28996718,0.39506745,-0.13138172,-0.06362339,-0.43148044,71.49657
2022-04-27,0.13134249,0.018898698,0.13088149,0.06151428,0.10322223,0.12763278,0.33314422,0.27656442,0.38383558,-0.15642911,-0.06871126,-0.440551,110.514534
2022-04-28,0.13781326,0.024938943,0.1366395,0.069740236,0.10530444,0.12735602,0.33608148,0.28133076,0.38867223,-0.14602661,-0.065852016,-0.43480095,72.87528
2022-04-29,0.13541792,0.028012114,0.14281422,0.07698994,0.09886291,0.12413868,0.33430675,0.27682042,0.3828767,-0.14220205,-0.062805295,-0.41572264,52.87441
2022-05-02,0.13369347,0.020828804,0.13181885,0.06359295,0.10794651,0.12896825,0.33954632,0.27934012,0.39028314,-0.15756726,-0.07016924,-0.45200762,100.765945
2022-05-03,0.14791356,0.0309545,0.13852048,0.07545041,0.11587746,0.13341065,0.34677032,0.29196417,0.40351453,-0.14100528,-0.06498039,-0.44666037,122.8976
2022-05-04,0.15037856,0.034922972,0.14582549,0.08330162,0.11316292,0.1332183,0.3489234,0.29401225,0.40454617,-0.1357558,-0.062386077,-0.434558,44.655895
2022-05-05,0.15464728,0.03850569,0.14979196,0.0878271,0.113491796,0.1335782,0.34902978,0.29769975,0.4067203,-0.12756327,-0.059628602,-0.4246476,36.368458
2022-05-06,0.14786388,0.0301773,0.1423747,0.07456626,0.11425938,0.13315015,0.3456769,0.29357693,0.40337068,-0.13932374,-0.064706706,-0.4393243,71.423485
2022-05-09,0.1617245,0.036880933,0.14646249,0.08006531,0.12327403,0.13939382,0.3538228,0.3088728,0.4192428,-0.12821065,-0.06348817,-0.44580203,77.24842
2022-05-10,0.16264047,0.033918805,0.13874261,0.07225746,0.13180785,0.1466547,0.36150986,0.3139453,0.42905903,-0.14166537,-0.06723942,-0.47260728,64.32411
2022-05-11,0.15897956,0.04098893,0.15345483,0.08923106,0.116057254,0.13655485,0.3517165,0.304273,0.41280115,-0.12489651,-0.05763502,-0.420786,122.69095
2022-05-12,0.1502325,0.03546281,0.15031415,0.08212948,0.11088445,0.13379593,0.34702405,0.29679757,0.40477234,-0.13470969,-0.059772085,-0.42071167,52.785347
2022-05-13,0.15387358,0.036003515,0.14878091,0.07981368,0.116045095,0.13734154,0.35061556,0.30214942,0.4116473,-0.13592625,-0.06068832,-0.43054155,24.40121
2022-05-16,0.14772463,0.039507188,0.15728255,0.090535104,0.10065744,0.12744687,0.33669087,0.29046232,0.39226997,-0.121823415,-0.051975444,-0.3815268,102.00265
2022-05-17,0.15463625,0.03986229,0.15419234,0.08674759,0.11011847,0.1373019,0.34697077,0.30209884,0.40732557,-0.1281013,-0.054663215,-0.4015876,55.337685
2022-05-18,0.15437153,0.04246089,0.15866321,0.09182188,0.104500934,0.13528964,0.34237587,0.30045158,0.4019577,-0.12097657,-0.050110046,-0.37868,44.78905
2022-05-19,0.15002735,0.034241855,0.14870523,0.076556675,0.10998244,0.13801683,0.34394395,0.3000136,0.40501583,-0.13649778,-0.057234276,-0.40769866,88.40783
2022-05-20,0.1554714,0.039593004,0.15432087,0.08374344,0.11005995,0.13504942,0.34252837,0.3028112,0.40598437,-0.12233065,-0.05404828,-0.39619377,54.9913
2022-05-23,0.15672196,0.04561363,0.16663775,0.093647204,0.10267506,0.124915466,0.3352319,0.29893625,0.3980676,-0.10236192,-0.049003653,-0.3644473,89.06195
2022-05-24,0.16859795,0.05074951,0.16852304,0.096353605,0.112481296,0.12649018,0.33937964,0.3098184,0.4099835,-0.08779055,-0.049032625,-0.37335625,58.27977
2022-05-25,0.17387055,0.052582413,0.17323598,0.096673444,0.11651967,0.12464714,0.34176758,0.31495136,0.4160797,-0.07985088,-0.0509414,-0.37924716,33.27675
2022-05-26,0.18693168,0.061689816,0.18466549,0.10700239,0.11970123,0.120089814,0.340692,0.32402015,0.4222458,-0.052199636,-0.046864256,-0.3640624,99.81315
2022-05-27,0.18984236,0.06466894,0.18994153,0.11064499,0.118134804,0.11644772,0.33757123,0.32518834,0.42109698,-0.040493082,-0.044920187,-0.35164642,48.5228
2022-05-31,0.19220872,0.06707868,0.19546087,0.11287004,0.11626477,0.1124724,0.33468828,0.32606727,0.4200513,-0.030036803,-0.043972377,-0.34048626,47.36502
2022-06-01,0.20098804,0.06465863,0.18632695,0.10299918,0.13209137,0.12230812,0.34448966,0.33924705,0.43804356,-0.03669561,-0.049455523,-0.37897608,101.1479
2022-06-02,0.20090853,0.06370958,0.18541285,0.10209021,0.13231726,0.122387886,0.34290448,0.33900875,0.43701577,-0.03608257,-0.04907078,-0.37813637,6.551832
2022-06-03,0.20393331,0.06882596,0.1902135,0.11192924,0.12797718,0.116103366,0.33356902,0.3366198,0.42888224,-0.015490871,-0.04163206,-0.34937915,115.2988
2022-06-06,0.21375005,0.069118224,0.18374106,0.10614389,0.14336322,0.12694018,0.3454658,0.35065413,0.44819513,-0.021788646,-0.044574454,-0.38260406,104.63691
2022-06-07,0.227843,0.07339124,0.18008715,0.107286975,0.15747681,0.13465816,0.3528119,0.36539447,0.46479002,-0.012739819,-0.04433402,-0.40159974,88.83253
2022-06-08,0.2291444,0.07611809,0.18266866,0.11237423,0.15503296,0.1338933,0.35012206,0.3650204,0.4620201,-0.00581434,-0.04030404,-0.3857542,81.43904
2022-06-09,0.2341164,0.07720874,0.18175401,0.112293676,0.1590289,0.13481171,0.34928006,0.36947364,0.46536136,0.0014086589,-0.039211005,-0.38667583,136.80035
2022-06-10,0.23706366,0.075242616,0.17437859,0.10640371,0.16723076,0.14016654,0.35334077,0.37445575,0.47300267,-0.0044008754,-0.041605856,-0.40825817,450.49615
2022-06-13,0.2289301,0.07090338,0.16893044,0.10100294,0.16444379,0.13927758,0.35086304,0.36690706,0.4666126,-0.0161645,-0.043135267,-0.4132611,295.97015
2022-06-14,0.22441953,0.06292943,0.15047485,0.08524124,0.17474484,0.14395091,0.35348374,0.36464936,0.47044998,-0.03592054,-0.049786687,-0.45584258,199.49327
2022-06-15,0.2226353,0.072024316,0.16612001,0.10326978,0.16283803,0.13644513,0.35219246,0.35830367,0.46220505,-0.025150213,-0.04227704,-0.41960314,115.6982
2022-06-16,0.21877396,0.074450046,0.1705699,0.109686345,0.15576161,0.12944548,0.34609267,0.350509,0.45226383,-0.018661145,-0.038141746,-0.40020669,69.73358
2022-06-17,0.19774246,0.0571943,0.15014264,0.08510998,0.15552475,0.12987266,0.3429559,0.33403605,0.44159523,-0.057273936,-0.048324898,-0.43909937,318.95175
2022-06-21,0.19865134,0.06797664,0.16888356,0.107427925,0.14222506,0.11410974,0.3315391,0.3244931,0.4257551,-0.02703577,-0.037726972,-0.38751686,174.95143
2022-06-22,0.21075909,0.075369194,0.17531207,0.116477996,0.14795962,0.11598238,0.33704382,0.3354103,0.4365506,-0.012158629,-0.035303615,-0.3875291,103.88857
2022-06-23,0.20906742,0.07375687,0.17696041,0.11557065,0.14786166,0.11629869,0.34091076,0.3350196,0.43831638,-0.018260766,-0.038282536,-0.39627424,67.55065
2022-06-24,0.20777875,0.077258885,0.1869408,0.12477513,0.14055686,0.10708748,0.33606517,0.3289947,0.43000108,-0.0057481714,-0.03607129,-0.37637326,116.26604
2022-06-27,0.20268787,0.08401255,0.20592679,0.14188436,0.12173363,0.08771537,0.32062906,0.31412596,0.40757176,0.021193832,-0.028717618,-0.32039207,584.83655
2022-06-28,0.20869482,0.08296769,0.20494612,0.13662973,0.13151261,0.09378956,0.33275798,0.32411474,0.42324382,0.014392078,-0.03619155,-0.3524438,102.27555
2022-06-29,0.20489386,0.08288527,0.21224457,0.13992864,0.12348864,0.0875317,0.32846683,0.31866407,0.41541094,0.018525656,-0.036084402,-0.3368964,58.920353
2022-06-30,0.20412175,0.08389117,0.21996178,0.14312613,0.11854859,0.082403705,0.3274918,0.31669483,0.4125497,0.023722582,-0.03754626,-0.32908562,53.396206
2022-07-01,0.20034078,0.08053909,0.21975972,0.13907395,0.11710994,0.08157574,0.32907024,0.31437346,0.41183403,0.016479727,-0.041946013,-0.3379462,57.320084
2022-07-05,0.19018888,0.08329317,0.23508865,0.15197998,0.09655716,0.06467062,0.31427908,0.29671162,0.3872928,0.031760637,-0.036048565,-0.28649572,201.0969
2022-07-06,0.1937832,0.079185106,0.22635707,0.14213,0.10686693,0.06924148,0.3178086,0.3022793,0.3959368,0.02710313,-0.041919984,-0.31579727,81.17336
2022-07-07,0.18666412,0.080019295,0.23626636,0.14886466,0.092147715,0.055851992,0.30558094,0.28953904,0.3777376,0.03975718,-0.039247904,-0.28105104,123.67825
2022-07-08,0.1790155,0.08400963,0.2523288,0.16285768,0.072665736,0.038994048,0.29022926,0.27411282,0.35447285,0.05973276,-0.03219781,-0.2263124,180.80182
2022-07-11,0.18172608,0.0825419,0.25216568,0.15843846,0.07725322,0.045022797,0.2994029,0.28127253,0.36508465,0.05049521,-0.036881514,-0.24550831,75.07326
2022-07-12,0.1868483,0.08014546,0.24474697,0.15110782,0.086720094,0.050635185,0.30356702,0.28824794,0.3744514,0.047644835,-0.041013584,-0.26906708,70.891525
2022-07-13,0.19213675,0.083324134,0.24773994,0.15596429,0.088551976,0.053183015,0.3073985,0.29380062,0.37982544,0.052008312,-0.039539125,-0.2678941,36.190434
2022-07-14,0.18623911,0.08446072,0.25477725,0.16254593,0.07810442,0.04640278,0.30149952,0.28497228,0.36805496,0.056108426,-0.03615385,-0.2423428,70.047264
2022-07-15,0.1910025,0.08384204,0.24921545,0.15844123,0.085465744,0.05209918,0.3056892,0.29125994,0.376235,0.05354101,-0.03788216,-0.25906098,51.772755
2022-07-18,0.18250783,0.08714644,0.26248062,0.17187868,0.06577406,0.03647941,0.29019436,0.27568057,0.35241798,0.070606574,-0.030242804,-0.20506218,164.84583
2022-07-19,0.1814205,0.081583865,0.251028,0.16156092,0.07368624,0.044056628,0.2959558,0.2781657,0.35929906,0.05479676,-0.03550398,-0.23491359,109.32996
2022-07-20,0.18477963,0.08533787,0.25439492,0.16759807,0.07356426,0.046983536,0.30000576,0.28180182,0.36304784,0.056365337,-0.033195272,-0.22957578,33.69644
2022-07-21,0.18389577,0.08035993,0.24864566,0.15772076,0.07922559,0.051802088,0.30638123,0.28514296,0.37056273,0.04231095,-0.03967622,-0.2576034,94.46384
2022-07-22,0.18397908,0.080019735,0.24770026,0.15756409,0.079412095,0.052896928,0.3067918,0.28555873,0.37089205,0.041017372,-0.03969863,-0.25881493,7.2499094
2022-07-25,0.18088394,0.0763533,0.24338455,0.15238148,0.08043038,0.053967487,0.30727842,0.28376585,0.3704361,0.0332991,-0.04232656,-0.26896,44.867878
2022-07-26,0.19274518,0.078351155,0.23502745,0.14976132,0.09554948,0.0669931,0.31828555,0.29867557,0.3892276,0.03085335,-0.043935444,-0.29739267,92.88737
2022-07-27,0.1883478,0.07568441,0.23433428,0.14760445,0.092296936,0.06619319,0.31660533,0.2950095,0.38509154,0.025545124,-0.044847462,-0.29552364,34.74517
2022-07-28,0.1942478,0.0804362,0.23625103,0.1545085,0.09384732,0.068529084,0.31785932,0.2998368,0.3884602,0.033677403,-0.04073864,-0.2876581,66.68043
2022-07-29,0.18598576,0.07706642,0.23776434,0.15277226,0.08675131,0.06488694,0.31515127,0.29195088,0.38027483,0.026131373,-0.042009722,-0.2811434,56.463768
2022-08-01,0.18838517,0.0753348,0.23283872,0.14706054,0.0917357,0.06947252,0.31879672,0.29680413,0.38685638,0.020880874,-0.044797536,-0.2970651,59.101845
2022-08-02,0.19680038,0.07202233,0.21615861,0.13564514,0.111290716,0.086198345,0.33221087,0.3114557,0.40816048,0.004870821,-0.049590085,-0.34552622,187.51836
2022-08-03,0.19067055,0.0702427,0.21369338,0.13538814,0.10727456,0.08534482,0.3292313,0.304547,0.40104643,-0.001228068,-0.048378978,-0.3394554,145.78452
2022-08-04,0.19680713,0.07101393,0.20704038,0.13367933,0.11556811,0.08979207,0.33078766,0.310606,0.40775478,0.0016707368,-0.047836907,-0.3525813,266.80203
2022-08-05,0.18738933,0.065687895,0.19846593,0.12927641,0.113257565,0.0889155,0.32728136,0.30036676,0.39876968,-0.010654379,-0.048234846,-0.35752106,769.1942
2022-08-08,0.19245139,0.065274574,0.18963023,0.12705109,0.12268927,0.09235826,0.32718077,0.30404118,0.40335813,-0.007496517,-0.047261115,-0.3718888,59.7848
2022-08-09,0.1968642,0.061053634,0.17006676,0.11730282,0.13812886,0.104872,0.33244485,0.3113739,0.41436383,-0.019392084,-0.048984375,-0.4072307,231.46223
2022-08-10,0.19763954,0.059217796,0.16127722,0.113885954,0.14537191,0.111888155,0.33739203,0.3141818,0.42023867,-0.029431168,-0.049266864,-0.42541465,84.03447
2022-08-11,0.20357427,0.06357784,0.15957983,0.12069023,0.1493932,0.11228643,0.33532116,0.31660238,0.42107216,-0.017499525,-0.043728277,-0.41870436,75.45758
2022-08-12,0.20337726,0.05669877,0.14389032,0.1091443,0.15897717,0.11835268,0.3370855,0.3190366,0.42594096,-0.028589156,-0.045837995,-0.44829214,119.84624
2022-08-15,0.21005948,0.058499098,0.14027388,0.11120161,0.1647563,0.12112166,0.33791384,0.3248464,0.43094024,-0.021287497,-0.04272576,-0.4528258,53.41533
2022-08-16,0.21748748,0.04566157,0.108637676,0.086386725,0.18596421,0.12988573,0.34014362,0.33700162,0.445371,-0.027143884,-0.04624707,-0.5167415,148.07524
2022-08-17,0.22050245,0.04309938,0.099995345,0.08307467,0.19271083,0.13163587,0.3408444,0.34025842,0.44904333,-0.02601507,-0.045465704,-0.5331532,34.783215
2022-08-18,0.225435,0.041874804,0.09467928,0.079916105,0.20080148,0.13456176,0.34514233,0.3467161,0.45726633,-0.025506478,-0.046094596,-0.5527159,32.615215
2022-08-19,0.22940825,0.047632962,0.101263925,0.08888836,0.20015898,0.13448319,0.34582576,0.348333,0.4581367,-0.01737341,-0.042694796,-0.539149,76.64478
2022-08-22,0.23213087,0.042841263,0.09028877,0.08011417,0.20725475,0.13791914,0.34659147,0.35351396,0.4634456,-0.01951557,-0.04374661,-0.560777,59.728397
2022-08-23,0.23699462,0.042124674,0.08472271,0.07477994,0.21647127,0.1455821,0.35657206,0.36272758,0.4770921,-0.027842637,-0.04687177,-0.58792293,89.67789
2022-08-24,0.23457497,0.047753975,0.09245396,0.0833469,0.21189648,0.15229134,0.36569145,0.36254108,0.48019886,-0.041022625,-0.045251828,-0.57760227,97.49702
2022-08-25,0.2346481,0.0524624,0.09924961,0.088270135,0.21055986,0.15821333,0.37463576,0.3655408,0.48650402,-0.050982904,-0.045136493,-0.5744723,57.330585
2022-08-26,0.23629665,0.060744792,0.11171858,0.10120003,0.2055918,0.15927942,0.37704608,0.3661403,0.48647308,-0.047167134,-0.041644257,-0.54942757,67.1293
2022-08-29,0.21989341,0.040249772,0.08400807,0.06994133,0.20673764,0.1630387,0.3732926,0.35768974,0.48024327,-0.08212009,-0.04910736,-0.59445477,204.09575
2022-08-30,0.21738037,0.03968452,0.07890902,0.06782974,0.20813611,0.17132573,0.37922665,0.3590833,0.48432755,-0.09813827,-0.04945619,-0.60312957,41.900455
2022-08-31,0.20763232,0.039164715,0.08256335,0.06970835,0.20017032,0.17090273,0.3797621,0.35059357,0.4772653,-0.11242409,-0.049921114,-0.592652,38.466652
2022-09-01,0.19933847,0.03505587,0.07957829,0.06580843,0.19607039,0.17050366,0.37881014,0.34399545,0.471622,-0.12561393,-0.051537994,-0.59615195,44.85424
2022-09-02,0.18819836,0.033263087,0.08553555,0.06753564,0.18558277,0.16560757,0.3741167,0.3325532,0.4594321,-0.13473272,-0.052500684,-0.578365,48.294556
2022-09-06,0.16955455,0.02798623,0.08756048,0.06681323,0.16908953,0.15875947,0.36477348,0.31347877,0.4382037,-0.15071821,-0.052537132,-0.55427104,71.18354
2022-09-07,0.16903315,0.026514357,0.085516036,0.063837536,0.17152561,0.16159932,0.36780152,0.31500232,0.44147938,-0.1569197,-0.05472732,-0.56281155,27.472872
2022-09-08,0.1730228,0.03413555,0.09687639,0.07757005,0.16866978,0.16092803,0.36701092,0.31655645,0.44040427,-0.14529501,-0.05038647,-0.5351355,89.18957
2022-09-09,0.17002001,0.033790134,0.102868035,0.07853555,0.16399759,0.15674509,0.36493936,0.31331134,0.4363206,-0.14474371,-0.051696207,-0.5261638,22.71834
2022-09-12,0.17120281,0.036791846,0.10931549,0.08397327,0.16176675,0.15545085,0.36492196,0.3138878,0.43584672,-0.14013979,-0.050664544,-0.5143959,32.66695
2022-09-13,0.1708069,0.032818608,0.10282906,0.07690153,0.16518007,0.15767312,0.365597,0.3153439,0.43815252,-0.14501542,-0.0529016,-0.52805,40.652054
2022-09-14,0.16557164,0.014216488,0.07457866,0.046147283,0.17457168,0.16093546,0.36100706,0.31577906,0.4392076,-0.16136664,-0.0596884,-0.5803104,170.60199
2022-09-15,0.17319052,0.021364065,0.0819811,0.05537234,0.1769213,0.16642992,0.36895683,0.32486254,0.44906145,-0.15798962,-0.057614516,-0.5754934,103.27394
2022-09-16,0.1623215,0.019719454,0.08979887,0.055401832,0.16412559,0.1576563,0.36106685,0.3129533,0.43492246,-0.16201402,-0.05851775,-0.5533481,52.983196
2022-09-19,0.15010665,0.018392174,0.09863951,0.058451973,0.14858328,0.14703645,0.34986448,0.2979077,0.41595128,-0.1629914,-0.058164928,-0.52262074,64.84353
2022-09-20,0.15384644,0.019818405,0.098292194,0.059424452,0.15050648,0.14756791,0.34850332,0.30101138,0.4175858,-0.15692124,-0.056556348,-0.5202636,22.682262
2022-09-21,0.14443474,0.014570778,0.095385976,0.054975323,0.14316592,0.14412467,0.34144488,0.29151702,0.40600368,-0.16477941,-0.05677751,-0.51286334,65.02475
2022-09-22,0.13684694,0.008885069,0.09056019,0.049131732,0.13772829,0.14134288,0.33621582,0.2842665,0.39733094,-0.1724916,-0.057514194,-0.51425993,78.09657
2022-09-23,0.13638161,0.008659231,0.09213665,0.04981744,0.13588814,0.14178656,0.3367059,0.28437823,0.3969345,-0.17361856,-0.058059726,-0.5122095,9.95363
2022-09-26,0.12853363,0.0040675607,0.09052942,0.04447026,0.13028806,0.13606378,0.33169132,0.27535075,0.3879243,-0.17848639,-0.060820933,-0.5123968,93.94581
2022-09-27,0.13341476,0.0029425863,0.08407811,0.042191003,0.13387953,0.13301086,0.32678413,0.27684447,0.3872554,-0.16554973,-0.060093928,-0.52026796,60.88045
2022-09-28,0.11805254,0.008707074,0.104396045,0.05869355,0.112956025,0.1252264,0.32384518,0.25789636,0.368284,-0.17477766,-0.05927548,-0.4710528,321.21216
2022-09-29,0.119114324,0.02237088,0.13485861,0.083125785,0.091633245,0.10222684,0.3065354,0.24698436,0.34713075,-0.13051514,-0.050038725,-0.39191797,338.90442
2022-09-30,0.12428655,0.02219077,0.14020443,0.077379964,0.09632609,0.10131627,0.31229886,0.25428683,0.35736138,-0.12719497,-0.057203818,-0.40780953,50.737495
2022-10-03,0.1241837,0.031387612,0.1608237,0.09603353,0.079816274,0.081832886,0.2954461,0.24359195,0.33742195,-0.09067243,-0.047795404,-0.34552518,192.32571
2022-10-04,0.14184105,0.04405486,0.17526636,0.11120266,0.08445273,0.08282301,0.30160132,0.25861976,0.3509247,-0.06379022,-0.043442085,-0.33108735,141.55986
2022-10-05,0.142033,0.052171133,0.1908475,0.12661676,0.070884034,0.068608746,0.28728747,0.25067848,0.3346697,-0.034139898,-0.033717036,-0.275094,172.76633
2022-10-06,0.15408523,0.050580293,0.19011012,0.11258951,0.08836663,0.084754914,0.31256333,0.27467513,0.36896655,-0.05334718,-0.047148567,-0.3336483,217.19751
2022-10-07,0.15947713,0.051331267,0.19020724,0.10786818,0.09348758,0.092988834,0.32133538,0.28546897,0.38205698,-0.059653204,-0.050361108,-0.34706107,57.677032
2022-10-10,0.1624649,0.050483897,0.18523999,0.10191088,0.09914592,0.09956683,0.32598263,0.29202265,0.39040682,-0.06578803,-0.052266687,-0.36051485,48.65695
2022-10-11,0.1687273,0.05440879,0.18385851,0.10350864,0.105592184,0.10348539,0.33024168,0.29824585,0.39846826,-0.061733987,-0.051214308,-0.36584932,39.538044
2022-10-12,0.15890397,0.053995162,0.18789731,0.10591438,0.09354493,0.09712675,0.3228886,0.28634268,0.38416374,-0.06342356,-0.048806146,-0.34040758,52.85746
2022-10-13,0.16776428,0.05951059,0.19145548,0.11108704,0.09821672,0.099806026,0.3259117,0.29498208,0.3921796,-0.052691128,-0.04592716,-0.33672306,60.26377
2022-10-14,0.16881488,0.06504677,0.2011738,0.120915994,0.09039299,0.09290679,0.3175905,0.2920881,0.38359416,-0.034784745,-0.03874641,-0.30047628,104.83829
2022-10-17,0.17565826,0.06413742,0.19867258,0.115781605,0.099724345,0.09736948,0.32254836,0.30172324,0.3949475,-0.034208532,-0.041592933,-0.3199871,49.3837
2022-10-18,0.18884465,0.07366276,0.20633382,0.12876375,0.10445572,0.09558652,0.32209328,0.3107031,0.40094304,-0.008248318,-0.035331983,-0.30475193,144.34026
2022-10-19,0.19451797,0.0724001,0.20392436,0.123889476,0.113175586,0.09785919,0.3257934,0.31812453,0.41021585,-0.0066509955,-0.038518976,-0.32418928,61.01082
2022-10-20,0.19959146,0.068243645,0.19620942,0.11259483,0.12476257,0.104095355,0.3315156,0.327676,0.4228844,-0.0134146325,-0.044324853,-0.3572677,172.6767
2022-10-21,0.2000497,0.06996638,0.20078123,0.11688371,0.121510066,0.09885599,0.32599953,0.32557827,0.4176681,-0.002886761,-0.04151802,-0.3424677,109.026405
2022-10-24,0.19946973,0.07285228,0.20862757,0.12357685,0.11477757,0.08977826,0.3176506,0.3208564,0.40856206,0.012480315,-0.03745108,-0.31701228,584.5217
2022-10-25,0.20082663,0.06543825,0.19765334,0.10692808,0.12579724,0.09522027,0.32319447,0.32720733,0.41955155,-0.0005266741,-0.046857223,-0.3578746,193.89229
2022-10-26,0.20480137,0.06803091,0.20534156,0.110984266,0.12501636,0.08911784,0.32137534,0.32908088,0.41986138,0.012837902,-0.04713555,-0.35225117,2561.5703
2022-10-27,0.19424523,0.06335061,0.2093538,0.10861485,0.112619296,0.07494442,0.3063898,0.31452012,0.40027857,0.019580953,-0.04760758,-0.329851,115.58018
2022-10-28,0.19789489,0.061422393,0.20664462,0.10312261,0.11780379,0.07614449,0.30679175,0.3196367,0.4054825,0.02112092,-0.050016433,-0.34219262,37.202198
2022-10-31,0.20161743,0.058271363,0.19770695,0.09551124,0.12551899,0.080538794,0.30642566,0.32524306,0.41092366,0.019874614,-0.051987138,-0.35968393,49.205105
2022-11-01,0.19992705,0.053671345,0.19359143,0.08886279,0.127256,0.08031033,0.3053374,0.32490242,0.41081434,0.015577491,-0.05536377,-0.37132654,51.28229
2022-11-02,0.20460723,0.058573045,0.20050466,0.10017583,0.12415187,0.076798335,0.30109987,0.32634372,0.40753064,0.03252363,-0.04917488,-0.3494601,163.07214
2022-11-03,0.20759727,0.05382841,0.18926734,0.08994001,0.13609466,0.08595456,0.30821958,0.33386618,0.4191613,0.019352313,-0.053446177,-0.3835178,113.37903
2022-11-04,0.21476421,0.058520816,0.19267565,0.09658,0.13833374,0.08561857,0.30762097,0.33924085,0.42234012,0.032640852,-0.04966102,-0.3759996,103.6606
2022-11-07,0.20752342,0.060983464,0.19819756,0.108762756,0.12303988,0.07228057,0.28876665,0.3238253,0.39776257,0.052161533,-0.03982461,-0.32675654,158.89462
2022-11-08,0.22207989,0.06093519,0.1861707,0.0999715,0.14688087,0.09245452,0.30969694,0.34620476,0.42889783,0.03721758,-0.045160737,-0.38087216,149.1285
2022-11-09,0.21477126,0.05899799,0.18879783,0.10192205,0.1373206,0.08681035,0.30245584,0.3372044,0.41661325,0.03758516,-0.043687906,-0.3628575,39.226906
2022-11-10,0.22059105,0.057015672,0.18150935,0.0952176,0.14819197,0.09352432,0.30827335,0.34565663,0.42799193,0.032783978,-0.04690979,-0.38961646,66.843735
2022-11-11,0.22061656,0.06450615,0.19064453,0.11231236,0.1377592,0.08459152,0.29757276,0.33835745,0.41393873,0.055022888,-0.036840018,-0.3466251,161.9283
2022-11-14,0.21696672,0.058974445,0.18109345,0.10315016,0.14461604,0.092491716,0.30573186,0.33926642,0.4207065,0.03265917,-0.041058376,-0.3766564,103.118454
2022-11-15,0.22916274,0.056542665,0.16432858,0.09247053,0.165175,0.10761757,0.3190336,0.35667622,0.44376993,0.023729227,-0.043001343,-0.42663506,120.23417
2022-11-16,0.23574728,0.06090358,0.16161974,0.098209724,0.17225246,0.114344224,0.32493502,0.36311448,0.45193398,0.02514562,-0.039091863,-0.43261278,50.932358
2022-11-17,0.23665853,0.05584018,0.14735913,0.08917444,0.18068567,0.12031609,0.3277559,0.36614865,0.457269,0.016374085,-0.038845386,-0.45913783,81.371475
2022-11-18,0.24471141,0.060654096,0.148202,0.09488547,0.18690816,0.12404396,0.332129,0.37339646,0.4652681,0.023622487,-0.03593008,-0.46188995,82.97701
2022-11-21,0.24862863,0.06350784,0.14862415,0.09934898,0.1892918,0.12603337,0.33357093,0.3763718,0.4680144,0.028014172,-0.033461753,-0.4595938,41.953026
2022-11-22,0.25805426,0.063294135,0.13703342,0.095582455,0.20242126,0.13469148,0.3390839,0.38694423,0.48044467,0.030220974,-0.03228749,-0.48407975,53.3554
2022-11-23,0.26024798,0.07015027,0.14366828,0.10809074,0.19969504,0.13399616,0.3373923,0.38556433,0.47721076,0.039109368,-0.026784647,-0.4601142,84.40744
2022-11-25,0.26071936,0.068952315,0.1403747,0.106698066,0.20246027,0.13781643,0.341629,0.38774246,0.4811502,0.032990724,-0.027358364,-0.47124416,32.55753
2022-11-28,0.2558535,0.066394046,0.14018367,0.10494381,0.19874899,0.13682497,0.3404459,0.38338667,0.47678626,0.026749752,-0.028586406,-0.47011304,35.93201
2022-11-29,0.26368392,0.061295807,0.12388845,0.09317644,0.21256071,0.14483865,0.34540814,0.3941,0.48957804,0.02490389,-0.031058643,-0.5088392,77.10398
2022-11-30,0.2664121,0.07008102,0.13739735,0.10899009,0.20783193,0.14293203,0.346075,0.39351946,0.48768172,0.034511067,-0.026877709,-0.48069522,105.08114
2022-12-01,0.2619803,0.07157082,0.14403579,0.11406806,0.20055692,0.14027686,0.34583887,0.38828135,0.4822576,0.031574722,-0.02721076,-0.46747193,33.648067
2022-12-02,0.25003904,0.06033834,0.13176505,0.10060798,0.19814192,0.14200012,0.34623107,0.38024145,0.4767453,0.008041978,-0.031830456,-0.49021366,142.70387
2022-12-05,0.2585548,0.06253454,0.1312074,0.101030916,0.2060199,0.14729728,0.35474622,0.3905089,0.48958033,0.009984981,-0.03316546,-0.5074305,55.31431
2022-12-06,0.26092777,0.051703684,0.1064778,0.0806227,0.2192643,0.15419042,0.35697994,0.39653397,0.49827492,0.00022886693,-0.03731974,-0.5577122,192.48509
2022-12-07,0.25837284,0.05047235,0.10542298,0.08079441,0.21812774,0.15554278,0.3599564,0.39484495,0.498181,-0.007106904,-0.03859726,-0.5630533,3216.8755
2022-12-08,0.25803164,0.051207572,0.107389964,0.082957715,0.21645086,0.15480311,0.3613858,0.39421427,0.49798483,-0.0076811127,-0.038715843,-0.56223994,16.50389
2022-12-09,0.26172864,0.055156603,0.112462595,0.08954558,0.21643005,0.1555776,0.36429092,0.39707547,0.5008707,-0.0031620301,-0.03741942,-0.5561861,87.68749
2022-12-12,0.26061064,0.051492944,0.10499276,0.08525392,0.21817969,0.15747355,0.36376154,0.39648438,0.5002955,-0.0074243434,-0.037440445,-0.5662005,157.59378
2022-12-13,0.26912123,0.05129929,0.09498353,0.081036925,0.22883612,0.163969,0.3666347,0.4056694,0.5101024,-0.0029682107,-0.036569085,-0.5846566,97.804596
2022-12-14,0.26571354,0.0553267,0.102562,0.092161134,0.22112916,0.16114275,0.36330244,0.39901102,0.50133634,-4.993379e-05,-0.032301016,-0.55740124,154.83408
2022-12-15,0.26940218,0.048924387,0.08674206,0.08010708,0.23108183,0.16689828,0.36522028,0.40541708,0.5087638,-0.0041970722,-0.033318948,-0.58913195,8367.27
2022-12-16,0.26592067,0.041442834,0.0716515,0.067512676,0.23501526,0.16921024,0.36215907,0.4033172,0.50714624,-0.012644466,-0.034521885,-0.6091065,262.73447
2022-12-19,0.26997903,0.04489907,0.07378057,0.07281244,0.23623376,0.1693771,0.3624591,0.40582138,0.5088086,-0.0053333156,-0.031798903,-0.6034731,88.96946
2022-12-20,0.27363873,0.047064163,0.069612384,0.07444167,0.2409302,0.17406587,0.3653622,0.4093244,0.51344365,-0.0053504966,-0.029644787,-0.60715085,29.101837
2022-12-21,0.27399302,0.05100669,0.07277371,0.08134557,0.23992048,0.17533624,0.36645392,0.40848857,0.5127865,-0.0044797324,-0.026620321,-0.595511,52.49581
2022-12-22,0.27958557,0.05915439,0.08399482,0.093112886,0.23745482,0.17295976,0.36513296,0.41084832,0.51276183,0.010201458,-0.022569824,-0.57065845,398.3398
2022-12-23,0.28005588,0.048682332,0.06346674,0.07371229,0.24859877,0.17979755,0.36802158,0.41644764,0.5209718,-0.0022771992,-0.026791103,-0.61484355,224.31631
2022-12-27,0.28011343,0.056441583,0.077911064,0.087612785,0.24126853,0.17744128,0.36774465,0.41407877,0.517026,0.0041906945,-0.023612626,-0.58268595,364.35892
2022-12-28,0.28170928,0.055967107,0.07477394,0.08533667,0.24493133,0.18185483,0.37083015,0.41764635,0.5217021,0.0003463775,-0.024377074,-0.58949417,110.785805
2022-12-29,0.27885196,0.05107595,0.06769569,0.07692379,0.24682361,0.18454923,0.37215152,0.41764617,0.5231273,-0.00955097,-0.027134493,-0.60431546,2903.1753
