Date,ADBE,AMZN,AVGO,CAT,COST,JPM,LLY,MA,MSFT,NVDA,UNH,XOM,total
2023-01-03,-0.118045546,-0.15036291,0.01949348,-0.056131106,0.11301018,-0.09951452,0.21283771,-0.09703584,0.3549261,0.22038975,0.16202621,0.15943626,0.0
2023-01-04,-0.11780507,-0.1464093,0.022268157,-0.06526548,0.09052247,-0.10686967,0.21455683,-0.08273922,0.34576198,0.18370554,0.16563797,0.17632312,108.219
2023-01-05,-0.121278524,-0.1493836,0.022632,-0.06167024,0.101376206,-0.104730986,0.21941593,-0.09199946,0.35204285,0.1963473,0.1656219,0.1695418,52.124332
2023-01-06,-0.12400689,-0.15106785,0.017245177,-0.059397604,0.10126616,-0.11005382,0.22141276,-0.0968343,0.34940934,0.19879398,0.16582939,0.16387548,47.681965
2023-01-09,-0.12417558,-0.15067947,0.017901827,-0.053599145,0.106245995,-0.11216449,0.2175005,-0.105346575,0.34018034,0.20395958,0.15898508,0.14913467,49.71813
2023-01-10,-0.1213349,-0.14988333,0.0067349114,-0.05165508,0.12493251,-0.110485025,0.21711709,-0.12131189,0.33241573,0.22112086,0.14576676,0.10984863,148.59169
2023-01-11,-0.1184232,-0.15004545,0.00068121776,-0.05223747,0.13472377,-0.108342335,0.21850167,-0.12721266,0.3360074,0.23401669,0.13964005,0.089539185,138.40323
2023-01-12,-0.11545207,-0.14830202,-0.003708411,-0.050823722,0.145042,-0.10772793,0.21688588,-0.13447432,0.33384177,0.24616322,0.13165545,0.06731407,701.8052
2023-01-13,-0.10942517,-0.14616343,-0.012186412,-0.047692467,0.15593083,-0.104688965,0.21212536,-0.14242055,0.3265882,0.2563704,0.11938365,0.036725435,320.95322
2023-01-17,-0.110159226,-0.14480221,-0.013122205,-0.043809194,0.16021861,-0.103713356,0.21117717,-0.14356665,0.32394192,0.2606466,0.11976686,0.030180361,42.977776
2023-01-18,-0.0983704,-0.14354254,-0.025369722,-0.04925173,0.18441918,-0.09180244,0.2114654,-0.15080121,0.33314693,0.28704584,0.10275704,-0.013078686,319.6014
2023-01-19,-0.096345596,-0.1424174,-0.028203163,-0.04430234,0.19528945,-0.085976295,0.20895994,-0.15531656,0.33099148,0.29800677,0.09760532,-0.030893836,186.17387
2023-01-20,-0.093304865,-0.13927639,-0.031465147,-0.042134944,0.20645566,-0.08379976,0.20751804,-0.16104908,0.32760173,0.30756247,0.08930476,-0.05267323,117.68252
2023-01-23,-0.10033219,-0.13815507,-0.023151938,-0.033305865,0.21371484,-0.08126799,0.20774394,-0.16167592,0.32616946,0.31438005,0.0961846,-0.04662707,84.582954
2023-01-24,-0.091816165,-0.13593629,-0.03147799,-0.034044277,0.24491397,-0.068964295,0.20689309,-0.17312767,0.32846364,0.3420856,0.077121034,-0.09345506,215.27126
2023-01-25,-0.08995729,-0.13716078,-0.034966033,-0.031807642,0.25646102,-0.06239383,0.206419,-0.17730196,0.32931146,0.35155573,0.07134025,-0.108353734,63.922604
2023-01-26,-0.0875998,-0.13797191,-0.03886028,-0.028681349,0.2663969,-0.05817736,0.20435835,-0.18340781,0.32669818,0.36034945,0.06375329,-0.12558605,69.08571
2023-01-27,-0.09824258,-0.14142105,-0.030022163,-0.018577475,0.26677507,-0.056148745,0.20509194,-0.18200317,0.32355526,0.35832384,0.07508975,-0.10637638,111.97623
2023-01-30,-0.092308864,-0.14114073,-0.036226828,-0.018721621,0.27908713,-0.048389763,0.20198028,-0.18339913,0.32362387,0.37024635,0.06442641,-0.13039608,88.52813
2023-01-31,-0.08622735,-0.14125577,-0.042538214,-0.021108538,0.29973385,-0.03857802,0.20193113,-0.19126384,0.32343847,0.3837679,0.049602155,-0.162003,119.78624
2023-02-01,-0.096037336,-0.14491919,-0.03315409,-0.010558646,0.31376854,-0.033851147,0.204951,-0.19901727,0.3229184,0.39250356,0.053724255,-0.15730037,122.144714
2023-02-02,-0.091630235,-0.14572978,-0.036809508,-0.0056567118,0.33048487,-0.025893971,0.20003974,-0.20541422,0.3232263,0.41307375,0.042189587,-0.18236022,139.78162
2023-02-03,-0.10067516,-0.14862227,-0.03071658,0.01581839,0.3415539,-0.014476448,0.19246602,-0.20632,0.30910245,0.41916907,0.04946425,-0.17934215,484.46063
2023-02-06,-0.08586245,-0.14895171,-0.042179476,0.008062378,0.34861487,-0.0012262613,0.18751012,-0.19996817,0.31797686,0.43096375,0.03635815,-0.20456581,246.78056
2023-02-07,-0.082304955,-0.14944622,-0.045876462,0.012531158,0.37737218,0.012475938,0.18814568,-0.21444298,0.31547704,0.44858292,0.022675928,-0.23925553,1261.3546
2023-02-08,-0.09654137,-0.15475062,-0.03200483,0.033144057,0.38185406,0.021757536,0.18549056,-0.21508591,0.30768168,0.44867462,0.039409336,-0.21295764,380.14795
2023-02-09,-0.091750406,-0.15478262,-0.034701597,0.03243657,0.38617992,0.026948035,0.1833307,-0.21247385,0.3126976,0.45708418,0.035470027,-0.22047757,59.943382
2023-02-10,-0.09630401,-0.15865323,-0.030370284,0.037888043,0.38959336,0.03364612,0.18473311,-0.21191384,0.31347328,0.4555426,0.04044645,-0.21094699,82.457825
2023-02-13,-0.09677861,-0.15689364,-0.026095334,0.03331156,0.391904,0.031319864,0.18943313,-0.20908396,0.3232074,0.46028706,0.04110733,-0.20678978,46.894993
2023-02-14,-0.1011813,-0.15644306,-0.0152182095,0.031767607,0.39780432,0.03488536,0.19401287,-0.2056124,0.33101937,0.46338066,0.048036706,-0.19172354,95.35292
2023-02-15,-0.102463566,-0.15532567,-0.012663875,0.031689987,0.39646506,0.03235984,0.1955233,-0.20341058,0.33407167,0.4639816,0.050223056,-0.18555132,37.258686
2023-02-16,-0.10134875,-0.15575182,-0.0104045905,0.027785257,0.39797333,0.03437999,0.19732292,-0.19870287,0.3423783,0.46771637,0.05037036,-0.18211336,46.819954
2023-02-17,-0.10588125,-0.15789099,-0.0054847896,0.030346135,0.40115416,0.038739607,0.19908921,-0.19679208,0.33719325,0.45771477,0.052466515,-0.1761636,88.765274
2023-02-21,-0.11056996,-0.1607225,0.00038491935,0.03345047,0.40374124,0.03821802,0.20195088,-0.1986035,0.3423101,0.46047688,0.055474233,-0.16740473,140.64404
2023-02-22,-0.11453956,-0.16486764,5.93327e-05,0.035767518,0.40420178,0.039328337,0.20311482,-0.20141736,0.33184776,0.4466448,0.054599945,-0.16589953,111.22955
2023-02-23,-0.124194436,-0.16682246,0.012709688,0.04057183,0.4078341,0.037105136,0.2086576,-0.2022472,0.3398422,0.45094398,0.063219965,-0.1473295,21384.146
2023-02-24,-0.1274656,-0.1692839,0.019001324,0.04396504,0.40464592,0.03952107,0.20792659,-0.19701909,0.34185472,0.44736153,0.068308726,-0.13326333,91.187
2023-02-27,-0.13041154,-0.17317978,0.02013379,0.04773784,0.3923944,0.040171444,0.2048848,-0.18944474,0.33341444,0.42865542,0.07398641,-0.117936775,55.597733
2023-02-28,-0.14485484,-0.17947209,0.03505367,0.060554724,0.39225227,0.044703,0.20577604,-0.19160055,0.32207707,0.4137592,0.088047266,-0.089095,178.8859
2023-03-01,-0.15318668,-0.18418741,0.04108194,0.06880067,0.37901962,0.043366924,0.20473105,-0.18688808,0.3124509,0.39209995,0.10012257,-0.06249466,100.31767
2023-03-02,-0.15718141,-0.188019,0.04781571,0.06998269,0.36489013,0.044123247,0.20382465,-0.17749853,0.31605917,0.38262245,0.11247133,-0.033944923,95.325
2023-03-03,-0.16275048,-0.18971083,0.054753736,0.07215814,0.35132992,0.040221423,0.20463678,-0.16951671,0.3185134,0.37315294,0.12541232,-0.0059985556,136.6019
2023-03-06,-0.1690461,-0.19267723,0.062017545,0.07554911,0.33902606,0.041568413,0.20557566,-0.16206479,0.31609192,0.3562484,0.13762517,0.020881664,498.24353
2023-03-07,-0.1684266,-0.19410574,0.05731623,0.07236934,0.3373276,0.042369403,0.20861389,-0.16330439,0.3133989,0.3479266,0.13774644,0.01990546,25.519049
2023-03-08,-0.1665566,-0.19321606,0.057572376,0.06696963,0.3219365,0.040640965,0.20804806,-0.14917533,0.32006252,0.3388882,0.14519578,0.037774432,126.94342
2023-03-09,-0.17088223,-0.19634897,0.060373645,0.07324919,0.3245555,0.048072763,0.20812881,-0.1499121,0.31573856,0.33477563,0.14944503,0.042633194,56.447254
2023-03-10,-0.16856539,-0.19699994,0.051575568,0.0755319,0.32062387,0.045891494,0.20504333,-0.15346324,0.30331612,0.3253693,0.14121836,0.029456828,72.13184
2023-03-13,-0.17385335,-0.19768342,0.056528367,0.082396075,0.3134126,0.04262287,0.20328791,-0.1528864,0.29692486,0.3179486,0.14623144,0.042347435,84.47711
2023-03-14,-0.16708009,-0.19366902,0.051006775,0.08529704,0.31903455,0.044167317,0.19536802,-0.15942226,0.28235486,0.3191743,0.13169585,0.01643527,109.22548
2023-03-15,-0.18669425,-0.19996798,0.07116521,0.098248556,0.3093853,0.04959774,0.2014034,-0.14623396,0.29695925,0.31755707,0.16470145,0.075430006,486.0714
2023-03-16,-0.1503438,-0.18942901,0.0361398,0.0851253,0.32477346,0.05150576,0.18396316,-0.15820506,0.28863725,0.34210497,0.112496644,-0.021392424,283.57144
2023-03-17,-0.16827296,-0.19584557,0.05428522,0.117951214,0.3252365,0.06852438,0.17195521,-0.15417604,0.27109513,0.33848894,0.13443078,0.014287371,339.76163
2023-03-20,-0.13854167,-0.18523487,0.023176305,0.12322456,0.34382612,0.074789464,0.14480056,-0.17107426,0.23756766,0.35664365,0.084623426,-0.08184883,854.1309
2023-03-21,-0.15448731,-0.1862857,0.042086847,0.14232448,0.34489614,0.08475235,0.14175895,-0.16451626,0.2302208,0.3498913,0.105940476,-0.0457508,203.01735
2023-03-22,-0.153408,-0.18262258,0.04578506,0.14305131,0.35088333,0.08403021,0.13883494,-0.16362849,0.23624942,0.3647599,0.10326789,-0.049885835,35.58212
2023-03-23,-0.13244113,-0.17771128,0.022209428,0.13567089,0.37335885,0.091705635,0.13151062,-0.1761135,0.23491731,0.39057013,0.06832655,-0.12072013,284.92142
2023-03-24,-0.12887749,-0.17341721,0.021935757,0.14763321,0.37939623,0.09436855,0.119596854,-0.18195015,0.21747386,0.39411584,0.061170314,-0.13755776,64.80497
2023-03-27,-0.114136204,-0.16999963,0.011196438,0.13683978,0.3858571,0.09689222,0.116415754,-0.18071155,0.23169547,0.41425517,0.047646422,-0.16402605,130.3954
2023-03-28,-0.10712106,-0.1669609,0.006929774,0.12905239,0.40017897,0.10047069,0.11825432,-0.18601443,0.23710382,0.42683303,0.03686249,-0.18544124,104.710434
2023-03-29,-0.10923415,-0.16340509,0.011322159,0.13405168,0.4042942,0.09652236,0.116665676,-0.19096611,0.23127416,0.43010142,0.035804223,-0.1881691,87.89032
2023-03-30,-0.11125947,-0.1600098,0.016360592,0.13067715,0.40352952,0.08984341,0.120037064,-0.1898527,0.23842475,0.43536073,0.038879942,-0.18101782,78.23694
2023-03-31,-0.10489365,-0.15703186,0.009517413,0.12310274,0.40597036,0.086517125,0.12099831,-0.19111224,0.2420868,0.4407128,0.029992592,-0.19816333,96.07304
2023-04-03,-0.103865944,-0.15446617,0.0068891086,0.12041244,0.40240857,0.07742609,0.12130104,-0.19349216,0.2409358,0.44108006,0.026070174,-0.20279865,61.27128
2023-04-04,-0.09334099,-0.14865512,-0.0016423278,0.09218382,0.40714538,0.06780501,0.13383488,-0.19304925,0.26217067,0.45033023,0.011412289,-0.22529297,263.57034
2023-04-05,-0.10145621,-0.14321738,0.007334426,0.092685014,0.3937353,0.050960787,0.136079,-0.1882434,0.25628337,0.4363735,0.01778325,-0.20451559,662.17773
2023-04-06,-0.094610296,-0.13757926,0.004218925,0.073808104,0.39229837,0.03590554,0.14312221,-0.18723287,0.27427146,0.4480283,0.007838938,-0.21346366,179.13377
2023-04-10,-0.0919644,-0.13052064,0.012657188,0.0609963,0.37914497,0.022734225,0.14563294,-0.17525671,0.29004976,0.44984552,0.011792276,-0.19345625,339.44525
2023-04-11,-0.08621917,-0.12522931,0.012254331,0.045892097,0.3696839,0.014110118,0.14930247,-0.16767213,0.3020349,0.44888026,0.010565836,-0.18773793,103.22673
2023-04-12,-0.083540685,-0.12290835,0.01123447,0.038887,0.3642336,0.0042821094,0.15017426,-0.16985686,0.30287588,0.4466991,0.0038046204,-0.19027954,167.66957
2023-04-13,-0.08134162,-0.119165175,0.011284854,0.030838832,0.34743243,-0.008293271,0.15003826,-0.1633844,0.30580837,0.4395593,0.00474314,-0.17781898,362.79202
2023-04-14,-0.08380628,-0.11420399,0.02032806,0.028653504,0.3372968,-0.02178359,0.15002845,-0.16139902,0.307452,0.43717107,0.008481983,-0.1611279,350.51385
2023-04-17,-0.06854777,-0.1133243,0.002838295,0.00085933134,0.33485094,-0.031454578,0.16055821,-0.16194347,0.33343497,0.4475733,-0.0058047585,-0.18140791,446.34552
2023-04-18,-0.052753963,-0.10870403,-0.009439293,-0.021373581,0.35299972,-0.033323586,0.1693372,-0.17286561,0.3534204,0.4710985,-0.026663523,-0.22174673,3463.32
2023-04-19,-0.054232642,-0.10989821,-0.0101517625,-0.025587585,0.34951827,-0.040972665,0.17432468,-0.17758475,0.35613993,0.4677806,-0.02675702,-0.21673732,64.86431
2023-04-20,-0.0475875,-0.10958934,-0.020225551,-0.036832806,0.3504557,-0.049649373,0.17924885,-0.18445873,0.36628333,0.47830504,-0.035590846,-0.23339759,229.65436
2023-04-21,-0.04071956,-0.10842185,-0.027427878,-0.047270793,0.35666707,-0.055311628,0.18356542,-0.19285148,0.378357,0.4946512,-0.045550894,-0.25299755,142.67769
2023-04-24,-0.040252812,-0.10953833,-0.02889638,-0.052314784,0.34799513,-0.06242276,0.18682936,-0.1919637,0.3870512,0.4950775,-0.04140796,-0.24363478,50.90672
2023-04-25,-0.03332815,-0.10650706,-0.035351846,-0.06172606,0.36009198,-0.06518368,0.190396,-0.20199782,0.39111426,0.50770205,-0.053956676,-0.27095008,120.45163
2023-04-26,-0.031838473,-0.10401642,-0.03333957,-0.0685727,0.3450539,-0.07188737,0.19140323,-0.18979163,0.40050575,0.50280195,-0.045553584,-0.2533485,70.06091
2023-04-27,-0.035134204,-0.10819817,-0.031764004,-0.068402424,0.34212458,-0.06895095,0.19440426,-0.18796124,0.40512526,0.500205,-0.03822514,-0.24114661,49.385525
2023-04-28,-0.047246844,-0.106059015,-0.018328924,-0.056350667,0.33502766,-0.07771291,0.19332278,-0.18749532,0.3983913,0.496928,-0.02352028,-0.2145871,163.7542
2023-05-01,-0.03568531,-0.101206556,-0.027826462,-0.06536652,0.33470082,-0.07967937,0.19120672,-0.18604718,0.4054006,0.50708705,-0.03261346,-0.23425113,152.98586
2023-05-02,-0.022801701,-0.09744528,-0.0397028,-0.07294001,0.34115443,-0.07453456,0.18798178,-0.18852915,0.40521905,0.51449573,-0.044114698,-0.26239598,154.27773
2023-05-03,-0.017805837,-0.09355416,-0.039361987,-0.07518816,0.33506292,-0.0734683,0.18424192,-0.18096064,0.40960202,0.51662207,-0.04213367,-0.2590581,46.321518
2023-05-04,-0.013378842,-0.09149538,-0.0413404,-0.07195358,0.31778184,-0.07974465,0.17497079,-0.17755103,0.4027401,0.5103451,-0.039146144,-0.25014082,70.43119
2023-05-05,-0.0077536255,-0.0907841,-0.047558326,-0.06497006,0.30219674,-0.08263177,0.16273381,-0.17851056,0.386705,0.4998154,-0.040106107,-0.25210592,92.91094
2023-05-08,-0.011055101,-0.09612537,-0.044633526,-0.055642765,0.28868872,-0.08075176,0.15793498,-0.17850241,0.3841752,0.49213627,-0.028464865,-0.22884305,119.11212
2023-05-09,0.001713953,-0.09636903,-0.0635978,-0.059152063,0.2979665,-0.075646445,0.15296611,-0.19236019,0.37231976,0.4948251,-0.048196975,-0.27202272,276.8203
2023-05-10,0.005984014,-0.09922962,-0.06973353,-0.059159,0.2889977,-0.07421544,0.14898738,-0.19184129,0.37167123,0.49130493,-0.047699448,-0.27105555,271.809
2023-05-11,0.007288892,-0.10374437,-0.07273586,-0.04875717,0.2815714,-0.0696546,0.13957489,-0.19490142,0.36152637,0.4872164,-0.04603753,-0.26875487,72.76665
2023-05-12,0.010641132,-0.10832467,-0.080721244,-0.040643062,0.2733091,-0.063408494,0.12963724,-0.19516404,0.3477685,0.47831145,-0.04749761,-0.27457556,108.15333
2023-05-15,0.007805476,-0.115489,-0.08226323,-0.029534634,0.25792164,-0.05750162,0.121933535,-0.19168867,0.33050495,0.45336452,-0.03981148,-0.25812903,117.524315
2023-05-16,0.0034802137,-0.122003496,-0.08320211,-0.017004129,0.26692262,-0.04867839,0.11956577,-0.20448236,0.3184568,0.45188507,-0.040191565,-0.26485732,139.60492
2023-05-17,0.0035651596,-0.1270796,-0.09030452,-0.009766169,0.2607769,-0.041156054,0.11472967,-0.2026159,0.31006002,0.4428687,-0.038881544,-0.26617074,88.80407
2023-05-18,-0.0069702165,-0.13005805,-0.079954654,0.008315055,0.25701436,-0.036958374,0.10956879,-0.20210883,0.29507202,0.42952487,-0.026422668,-0.24531116,558.5733
2023-05-19,-0.008844655,-0.1323674,-0.081162274,0.013043463,0.2535738,-0.032666408,0.10639663,-0.19774783,0.29089162,0.4253027,-0.024772588,-0.2444206,114.055954
2023-05-22,-0.009207698,-0.13265625,-0.082682386,0.019319745,0.2600316,-0.02544818,0.10223673,-0.19849883,0.27957433,0.4228019,-0.029214274,-0.25693262,110.77453
2023-05-23,-0.014971596,-0.13326271,-0.07771079,0.025649179,0.2708593,-0.018752873,0.105406255,-0.20146896,0.2811892,0.4287822,-0.023560766,-0.25406772,159.35922
2023-05-24,-0.013857086,-0.13228723,-0.07796338,0.021428129,0.26922116,-0.012037583,0.1063375,-0.18940412,0.283567,0.4221263,-0.022814106,-0.25209656,74.58698
2023-05-25,-0.017571043,-0.13054642,-0.06980114,0.02048609,0.26565123,-0.010481738,0.108826935,-0.17846961,0.2889091,0.41721568,-0.015810896,-0.23598589,105.4832
2023-05-26,-0.030789748,-0.12834623,-0.05095065,0.0413116,0.2609876,-0.00254073,0.09960045,-0.16280426,0.27217713,0.40376446,0.0017625205,-0.20463473,433.79803
2023-05-30,-0.0393458,-0.124611564,-0.035272676,0.06310833,0.2611753,0.0061592385,0.08145771,-0.15035276,0.23918176,0.38842267,0.0049356334,-0.19587459,682.82275
2023-05-31,-0.03030551,-0.12266458,-0.044115085,0.057473443,0.28460333,0.016818404,0.07858507,-0.15340929,0.23416302,0.4004012,-0.014848471,-0.23795103,673.63184
2023-06-01,-0.030766835,-0.12482375,-0.04438794,0.062680736,0.2953717,0.024982288,0.07417371,-0.15456752,0.22828537,0.40579155,-0.019220274,-0.24822558,109.27183
2023-06-02,-0.03348022,-0.1281935,-0.03977293,0.0738614,0.31303054,0.033194482,0.067583755,-0.16426666,0.2192818,0.41869667,-0.023501951,-0.25893295,127.478004
2023-06-05,-0.03877183,-0.12909383,-0.03330185,0.07383819,0.31521198,0.031798728,0.07175472,-0.16233301,0.23015839,0.42631897,-0.017186414,-0.24380608,84.554306
2023-06-06,-0.022133583,-0.13147041,-0.053306025,0.053650245,0.34058875,0.04270664,0.07597224,-0.17427783,0.23842224,0.44380397,-0.047358874,-0.30020118,394.1368
2023-06-07,-0.027700143,-0.1362941,-0.053791773,0.061119534,0.34761307,0.045512974,0.07855925,-0.1853403,0.23762715,0.4493324,-0.045681376,-0.3009852,67.42116
2023-06-08,-0.023994863,-0.13962224,-0.06123993,0.05040133,0.34282786,0.045397803,0.08462311,-0.18409277,0.24914998,0.44875017,-0.048777986,-0.30271006,69.553085
2023-06-09,-0.031250283,-0.14147502,-0.05256204,0.05698242,0.34324425,0.043253087,0.084653005,-0.18681894,0.24533325,0.44626996,-0.044658277,-0.29057238,79.69409
2023-06-12,-0.03157207,-0.14224184,-0.054391693,0.052978657,0.34311166,0.040702283,0.08852574,-0.18821605,0.2525443,0.45069954,-0.044677217,-0.28920472,27.782642
2023-06-13,-0.02328337,-0.14167684,-0.061470527,0.04125974,0.35838583,0.04723326,0.09255114,-0.19471171,0.26083243,0.4637016,-0.05596364,-0.31446746,130.44492
2023-06-14,-0.028448505,-0.14385483,-0.056382854,0.043154113,0.35133284,0.047026776,0.09321588,-0.19050623,0.25954175,0.453945,-0.04829928,-0.29630157,63.943123
2023-06-15,-0.031615406,-0.14803481,-0.06114846,0.049295537,0.34652796,0.04543952,0.091275625,-0.19618353,0.25126958,0.45080456,-0.047212858,-0.29960272,53.76826
2023-06-16,-0.035662457,-0.14997202,-0.059461754,0.052810304,0.34005612,0.043705992,0.092001826,-0.19637085,0.2507665,0.44750097,-0.039428655,-0.28772247,51.95745
2023-06-20,-0.03411612,-0.14967808,-0.06364584,0.048092723,0.33408016,0.043029524,0.09534136,-0.19189565,0.256755,0.446022,-0.03459091,-0.2846968,45.75544
2023-06-21,-0.025904758,-0.14858192,-0.07004395,0.034570515,0.34148693,0.048563085,0.102190584,-0.19077416,0.2710527,0.45259944,-0.03968964,-0.2986156,112.48854
2023-06-22,-0.031160008,-0.1526342,-0.067002,0.0404407,0.33963996,0.05124881,0.104389146,-0.19288506,0.27206603,0.44909152,-0.030997533,-0.28513512,81.22995
2023-06-23,-0.03376761,-0.15499428,-0.06731181,0.043375164,0.33712685,0.049410105,0.106926724,-0.1958405,0.27432868,0.44815913,-0.026002925,-0.27823967,45.49461
2023-06-26,-0.02803223,-0.15364444,-0.07294588,0.03723138,0.3393539,0.050393686,0.10754068,-0.19633056,0.27841538,0.4522806,-0.032590363,-0.29215062,76.60826
2023-06-27,-0.03134674,-0.1561924,-0.07139075,0.039128467,0.34822485,0.052830085,0.11286804,-0.2052791,0.2800234,0.45421806,-0.03167438,-0.29311115,41.815388
2023-06-28,-0.03923727,-0.16058025,-0.06668928,0.04594764,0.34381396,0.050492764,0.115327716,-0.20919435,0.27780747,0.44753763,-0.023447115,-0.27583888,95.90099
2023-06-29,-0.04075946,-0.16122714,-0.066677764,0.044790864,0.33747834,0.046267457,0.11709206,-0.20777981,0.27870235,0.44214594,-0.021360856,-0.2694835,31.962687
2023-06-30,-0.03583632,-0.1625063,-0.07245873,0.03526368,0.33488667,0.044604562,0.12189601,-0.20736824,0.28568432,0.43818676,-0.02582686,-0.27484936,77.77434
2023-07-03,-0.04641325,-0.1694986,-0.068608776,0.046166837,0.3306215,0.040977143,0.12354083,-0.21853338,0.27441424,0.42653438,-0.018844131,-0.2592101,125.52016
2023-07-05,-0.04208052,-0.17006929,-0.078764394,0.037153512,0.34043133,0.03483671,0.13059811,-0.23251502,0.27883023,0.4358777,-0.028646778,-0.28104475,138.30287
2023-07-06,-0.03410427,-0.16896316,-0.08789614,0.025068007,0.33665726,0.028553441,0.13444005,-0.23292725,0.28945434,0.4397415,-0.03471486,-0.29214063,115.81868
2023-07-07,-0.022551961,-0.16762325,-0.10032244,0.01845878,0.33215195,0.027356595,0.13077098,-0.2339112,0.2875696,0.4382337,-0.0447342,-0.3107937,120.0914
2023-07-10,-0.03857404,-0.17273149,-0.08817136,0.03331806,0.3267843,0.025058262,0.13394062,-0.23980282,0.2827792,0.43278167,-0.02359512,-0.27734044,242.59297
2023-07-11,-0.04022312,-0.16997589,-0.0843056,0.028224925,0.3288635,0.021295004,0.14035887,-0.23903956,0.29179934,0.43752754,-0.017474893,-0.27085772,78.86805
2023-07-12,-0.039103255,-0.16847375,-0.08390914,0.022945376,0.32697237,0.016864352,0.1443737,-0.238389,0.30014977,0.4411917,-0.014131654,-0.2678255,71.30741
2023-07-13,-0.04620161,-0.17032003,-0.078187406,0.03283713,0.31601185,0.014959596,0.14013718,-0.23718093,0.2842672,0.42434868,-0.004180167,-0.24921386,173.74376
2023-07-14,-0.046354532,-0.17096111,-0.08147803,0.033457574,0.31368786,0.0127905905,0.1408395,-0.23737685,0.28298876,0.4224281,-0.0021273904,-0.24984755,72.88787
2023-07-17,-0.029437974,-0.16952556,-0.102090895,0.025437154,0.322366,0.01490505,0.1363378,-0.24578045,0.2843503,0.4366391,-0.0236875,-0.29496178,1147.9939
2023-07-18,-0.019728176,-0.16670972,-0.10516676,0.012947952,0.3390313,0.017402686,0.14007944,-0.25079203,0.30083776,0.45808318,-0.03569902,-0.3172509,182.44052
2023-07-19,-0.019547492,-0.16852799,-0.10614391,0.017922062,0.34255356,0.01815842,0.13565926,-0.25756276,0.29387137,0.46092018,-0.03852809,-0.32096133,64.61795
2023-07-20,-0.015042949,-0.17008841,-0.109494686,0.013046395,0.34257728,0.016519211,0.13418177,-0.25919524,0.29899654,0.46689317,-0.0435112,-0.3242216,82.0782
2023-07-21,-0.0062183957,-0.16960594,-0.116248235,0.0007650368,0.34351456,0.013045587,0.13489272,-0.25974283,0.30603635,0.47084242,-0.055110287,-0.33675942,215.01758
2023-07-24,-0.005330761,-0.16994068,-0.113457754,-0.0018391199,0.3486464,0.009688236,0.13693707,-0.26546934,0.31478357,0.48162636,-0.058712605,-0.33731702,400.06885
2023-07-25,-0.0041097114,-0.17053434,-0.11459914,-0.004594855,0.36097464,0.008030109,0.14036636,-0.27762678,0.31512898,0.4881062,-0.066852614,-0.34956065,220.78471
2023-07-26,2.3620203e-05,-0.17136028,-0.117382556,-0.010509621,0.3628325,0.007206343,0.14108802,-0.280062,0.31860724,0.4893075,-0.07327454,-0.35452795,256.75516
2023-07-27,0.00037705805,-0.17144811,-0.11708543,-0.011466589,0.36282882,0.00082983077,0.14229576,-0.2850922,0.32182485,0.4934462,-0.07631533,-0.35499337,1603.0219
2023-07-28,0.0036918856,-0.1690691,-0.116836786,-0.022302445,0.3501605,-0.0039537027,0.14376457,-0.26963297,0.32983157,0.48505357,-0.07378921,-0.34249324,1572.6418
2023-07-31,-0.0035471162,-0.16914526,-0.10182193,-0.017726708,0.35157123,-0.004279293,0.14571293,-0.26926753,0.3343476,0.48639673,-0.06461321,-0.3205762,260.10114
2023-08-01,-0.00732975,-0.16917667,-0.1030184,-0.019828271,0.35667074,-0.0064248964,0.15134712,-0.27301732,0.3318469,0.4833291,-0.06526579,-0.32386544,179.95227
2023-08-02,-0.0011266819,-0.16647184,-0.105514556,-0.03596818,0.33673853,-0.010841556,0.15304096,-0.2511892,0.345428,0.47391963,-0.060854238,-0.3094451,270.74588
2023-08-03,-0.0033613183,-0.16428748,-0.10064641,-0.039298195,0.32105637,-0.016984507,0.15240695,-0.2388172,0.34137514,0.45561558,-0.054446194,-0.28994188,302.0481
2023-08-04,-0.018379312,-0.17004701,-0.08695309,-0.034708228,0.31040242,-0.020022862,0.15847924,-0.2345355,0.3428127,0.4415169,-0.034813676,-0.24851657,556.4258
2023-08-07,-0.030978896,-0.17011301,-0.073988765,-0.03189112,0.30304712,-0.027167238,0.16329065,-0.22865616,0.34409618,0.433673,-0.021653157,-0.2198383,186.70496
2023-08-08,-0.039049253,-0.1706025,-0.06852539,-0.032000195,0.30702558,-0.028276168,0.1697339,-0.22902267,0.34296826,0.42833623,-0.01618718,-0.21163203,74.10041
2023-08-09,-0.030013563,-0.16078079,-0.067453995,-0.050069418,0.28865954,-0.039745703,0.16971138,-0.20818467,0.3568955,0.4231197,-0.016737588,-0.20219985,155.71799
2023-08-10,-0.032883108,-0.15667617,-0.058394317,-0.059830602,0.26468638,-0.05135069,0.17151861,-0.1897764,0.3625482,0.4053739,-0.004462179,-0.16776934,188.59642
2023-08-11,-0.03643182,-0.15257087,-0.05232813,-0.06463441,0.24838918,-0.06409529,0.17347547,-0.18142125,0.36345518,0.39324883,0.0026764274,-0.14719564,243.83354
2023-08-14,-0.03322387,-0.14648935,-0.05005661,-0.07706727,0.22981697,-0.075297974,0.1740172,-0.16570176,0.36640587,0.3772611,0.0035457313,-0.13383417,116.73486
2023-08-15,-0.039775245,-0.1437181,-0.041518856,-0.08122496,0.22520943,-0.08239433,0.1796229,-0.1629685,0.36780262,0.36983413,0.010519769,-0.116961256,272.0073
2023-08-16,-0.029471872,-0.13813111,-0.048939634,-0.093424916,0.21262352,-0.086720005,0.17632039,-0.15087071,0.3690316,0.36121312,0.00235603,-0.124749795,169.71321
2023-08-17,-0.03741586,-0.13791007,-0.041954484,-0.091873646,0.19477642,-0.09478365,0.17664365,-0.14398035,0.36431316,0.34457636,0.014969185,-0.09520097,630.4177
2023-08-18,-0.042088717,-0.13799027,-0.039047074,-0.0940804,0.17877108,-0.10174719,0.17811596,-0.13739885,0.3623291,0.33057433,0.023482103,-0.07402541,126.56843
2023-08-21,-0.050043434,-0.13428426,-0.02797253,-0.096708134,0.16656855,-0.112506315,0.18253984,-0.12861323,0.36529025,0.32101953,0.034776576,-0.047030162,167.29216
2023-08-22,-0.05278168,-0.13135162,-0.023111854,-0.098829344,0.17188904,-0.11173315,0.1864724,-0.12736991,0.3677117,0.3238574,0.037083812,-0.04571439,45.207207
2023-08-23,-0.05716899,-0.13083819,-0.022262368,-0.09995903,0.16278717,-0.11792159,0.18935625,-0.12462969,0.3677456,0.3163885,0.043607473,-0.033020545,75.72824
2023-08-24,-0.06302645,-0.12973046,-0.014582086,-0.09240143,0.15929896,-0.11906062,0.18802848,-0.12541653,0.36292773,0.31445357,0.051119015,-0.021176543,112.60903
2023-08-25,-0.051817007,-0.12803021,-0.031718526,-0.10019834,0.1607274,-0.117015675,0.18672507,-0.124467924,0.36649966,0.32072833,0.040063858,-0.048891034,304.5944
2023-08-28,-0.057316847,-0.12731901,-0.023760367,-0.0981646,0.15966219,-0.11861543,0.19039682,-0.123270124,0.37044093,0.31992555,0.047931697,-0.035307657,91.9946
2023-08-29,-0.06396133,-0.12528749,-0.021124613,-0.09129575,0.16686909,-0.120732374,0.19227873,-0.13336062,0.35887152,0.31857315,0.049024355,-0.04025347,66.58442
2023-08-30,-0.06963315,-0.12567793,-0.02159134,-0.08437614,0.16809158,-0.12559885,0.19364212,-0.14293933,0.34777796,0.3120634,0.04914744,-0.04294168,43.686886
2023-08-31,-0.06563459,-0.12534097,-0.033713844,-0.0890722,0.17216957,-0.12663461,0.19661684,-0.14818467,0.34877548,0.3153834,0.041555703,-0.06382424,141.60542
2023-09-01,-0.070409045,-0.12572604,-0.03583977,-0.08715865,0.17018928,-0.13145131,0.19920926,-0.14997938,0.34384474,0.309412,0.043281525,-0.064302444,31.728495
2023-09-05,-0.076845355,-0.123295315,-0.027696986,-0.089453414,0.17011759,-0.13667944,0.2048388,-0.1473282,0.348522,0.30942392,0.050848257,-0.05290435,81.61298
2023-09-06,-0.07254198,-0.12215878,-0.036034677,-0.09644635,0.17787568,-0.13283783,0.20815699,-0.1473058,0.34873593,0.3090739,0.04326592,-0.07124311,103.19888
2023-09-07,-0.075452685,-0.120307475,-0.03272916,-0.09838903,0.17515366,-0.13722456,0.21108335,-0.14491485,0.35138866,0.30748343,0.04685909,-0.064490676,43.63504
2023-09-08,-0.08159765,-0.11740169,-0.02626187,-0.09698871,0.17170638,-0.14620543,0.21276207,-0.14481533,0.34700453,0.30186164,0.050647188,-0.05519933,66.686745
2023-09-11,-0.08748556,-0.11658401,-0.021272127,-0.09545384,0.16374432,-0.15174982,0.21395251,-0.14147332,0.34361163,0.2922675,0.057633307,-0.04063071,84.13377
2023-09-12,-0.0931694,-0.116272986,-0.017600719,-0.087054804,0.17020848,-0.15064965,0.21158049,-0.14824924,0.32701224,0.28570518,0.05685004,-0.044865873,62.251663
2023-09-13,-0.08638904,-0.11311989,-0.022887085,-0.097503796,0.16662158,-0.15414621,0.21251427,-0.14132385,0.33706602,0.28988355,0.0527964,-0.05124255,87.448166
2023-09-14,-0.08649667,-0.11148983,-0.0217661,-0.0975264,0.17141438,-0.15623212,0.21329159,-0.14409548,0.33793646,0.29511204,0.049878884,-0.057506766,32.855804
2023-09-15,-0.09409249,-0.11247346,-0.0132310055,-0.092171684,0.16677651,-0.15864095,0.21326171,-0.14086379,0.33445755,0.2883626,0.058327965,-0.03876857,113.7115
2023-09-18,-0.076797895,-0.109580725,-0.027922127,-0.10521497,0.17324369,-0.153103,0.20953338,-0.1391788,0.3412138,0.29934025,0.03935279,-0.074139014,286.0457
2023-09-19,-0.08307954,-0.111130156,-0.02356704,-0.09943861,0.18461859,-0.15346053,0.21309759,-0.15101272,0.3382734,0.30573052,0.040254485,-0.07657489,56.257206
2023-09-20,-0.08105812,-0.11159375,-0.025642063,-0.10189666,0.18379532,-0.15363687,0.21309663,-0.15035161,0.34178594,0.3087351,0.039474245,-0.07799168,20.93562
2023-09-21,-0.08505242,-0.111986354,-0.020673905,-0.09999733,0.18063691,-0.15922199,0.21254994,-0.1513111,0.3376718,0.30345535,0.04025341,-0.06984244,48.103504
2023-09-22,-0.06960872,-0.11388444,-0.031751584,-0.1117021,0.18248051,-0.15492797,0.20808055,-0.14773467,0.34876436,0.31398565,0.02410208,-0.09064837,169.99373
2023-09-25,-0.092514984,-0.11753823,-0.007514138,-0.098433465,0.17418838,-0.16882297,0.21308634,-0.15160085,0.34065908,0.2982086,0.043214276,-0.0423917,282.74484
2023-09-26,-0.08776224,-0.11838524,-0.009344835,-0.10586068,0.18107042,-0.16440138,0.21437396,-0.15148045,0.34557745,0.3022026,0.036091696,-0.051066022,84.7478
2023-09-27,-0.08431376,-0.119251356,-0.011158008,-0.11171974,0.17020462,-0.16687244,0.21067235,-0.14446805,0.342504,0.29050857,0.032228287,-0.04558027,69.664345
2023-09-28,-0.09785354,-0.12367018,0.004581183,-0.106984526,0.15526313,-0.17514788,0.21298541,-0.13844442,0.33731827,0.26832053,0.04659033,-0.0024627186,332.37738
2023-09-29,-0.10607014,-0.12667748,0.013752136,-0.10138306,0.14247362,-0.1812967,0.2094931,-0.13746695,0.32224393,0.24644881,0.051433183,0.022093002,1250.4583
2023-10-02,-0.1133563,-0.13081908,0.016814888,-0.09780744,0.13085717,-0.1845966,0.20934804,-0.13484856,0.31423908,0.2293796,0.05886599,0.043529782,168.77538
2023-10-03,-0.10378374,-0.1300139,0.011650894,-0.10453747,0.14914271,-0.17082907,0.20994535,-0.13526808,0.32813543,0.25255153,0.049390897,0.019561734,154.36168
2023-10-04,-0.10229763,-0.13150185,0.010364827,-0.10909195,0.14172356,-0.16838317,0.20740572,-0.12785974,0.32319805,0.23969322,0.04768799,0.024863008,68.20838
2023-10-05,-0.11587783,-0.13624161,0.022763602,-0.095486954,0.13933179,-0.17311585,0.20730822,-0.13597159,0.3155004,0.23633465,0.057313886,0.049522627,283.01385
2023-10-06,-0.11433398,-0.1378032,0.01921323,-0.09216981,0.13423787,-0.17299911,0.20203613,-0.1386292,0.3086079,0.23436868,0.055801902,0.04973026,35.844006
2023-10-09,-0.12689044,-0.14166859,0.032378905,-0.076476544,0.124920145,-0.17150709,0.19878697,-0.13630517,0.29604182,0.21779993,0.072416574,0.085146755,222.55898
2023-10-10,-0.114155225,-0.1385581,0.022767495,-0.08658889,0.14743748,-0.16247799,0.20077236,-0.14216204,0.3112405,0.24623993,0.0554084,0.047511566,169.60332
2023-10-11,-0.10898555,-0.14022905,0.016329445,-0.08695094,0.147162,-0.15936601,0.19642754,-0.14346834,0.3117462,0.25314397,0.050343502,0.03836618,70.97123
2023-10-12,-0.10837383,-0.14237514,0.012349043,-0.08381778,0.15146439,-0.15443644,0.19627155,-0.14556135,0.31464463,0.25884992,0.0497232,0.033571225,54.539562
2023-10-13,-0.101559915,-0.14332095,0.0036983192,-0.083646506,0.15402135,-0.14554824,0.19097722,-0.141219,0.31552443,0.26457855,0.043708738,0.018892627,148.64423
2023-10-16,-0.088370554,-0.13711381,0.0013924204,-0.08805381,0.16578974,-0.13844293,0.1839206,-0.14098084,0.31601176,0.2769355,0.02681347,-0.008965801,292.25845
2023-10-17,-0.098809175,-0.14767846,0.003752511,-0.07762596,0.17171974,-0.12855002,0.1881406,-0.14917591,0.31665885,0.27804178,0.037152883,0.007044714,437.42352
2023-10-18,-0.096119605,-0.14795375,-0.0036376566,-0.07833475,0.1735061,-0.12814012,0.18705513,-0.15376407,0.31421423,0.2798433,0.031807747,-0.003993612,378.26877
2023-10-19,-0.08457474,-0.14226013,-0.00910392,-0.08891846,0.17836133,-0.12773797,0.18431719,-0.14879508,0.31791013,0.28596535,0.016989265,-0.02725872,819.95593
2023-10-20,-0.08376581,-0.14384982,-0.00799479,-0.09046014,0.182789,-0.12293116,0.18534903,-0.14790301,0.3248848,0.29367724,0.01553129,-0.028001536,39.592995
2023-10-23,-0.090371825,-0.14060453,0.0056704096,-0.08922295,0.17121027,-0.12795796,0.18492062,-0.13451312,0.32762805,0.28645715,0.028538186,0.0031811036,400.55396
2023-10-24,-0.101802826,-0.14498322,0.017465293,-0.08203356,0.17297906,-0.11920235,0.18764402,-0.13175887,0.32209483,0.27557668,0.040806085,0.027191583,1046.4838
2023-10-25,-0.12469829,-0.14738588,0.043866556,-0.06619367,0.1507564,-0.12331036,0.18759279,-0.11538966,0.3124444,0.24799415,0.07356961,0.095872,569.24023
2023-10-26,-0.09779355,-0.1423516,0.02108201,-0.08937046,0.1588171,-0.11455808,0.18377201,-0.1079528,0.33091262,0.2698254,0.048427787,0.046864595,232.87785
2023-10-27,-0.10828161,-0.13943505,0.044783343,-0.086348996,0.14141116,-0.1243163,0.17910522,-0.09008129,0.3266873,0.2552567,0.063463934,0.09289217,303.08975
2023-10-30,-0.127512,-0.14360037,0.06689793,-0.06909247,0.1175127,-0.1243929,0.1724372,-0.07127985,0.30379426,0.21513674,0.08740781,0.15183412,255.57446
2023-10-31,-0.13045911,-0.14119874,0.077138565,-0.06281036,0.13146524,-0.11482,0.17114328,-0.06946209,0.30528492,0.2277889,0.09048588,0.15150864,61.360867
2023-11-01,-0.1292272,-0.13938051,0.07622211,-0.056217935,0.13882948,-0.11247584,0.16717805,-0.07116602,0.3038712,0.23813245,0.08708651,0.14068426,42.234146
2023-11-02,-0.12442956,-0.13707882,0.07618806,-0.049086865,0.16002053,-0.10197997,0.16157068,-0.07606585,0.3063713,0.26569512,0.07820797,0.11433315,94.25127
2023-11-03,-0.12888293,-0.13437471,0.084351614,-0.032364313,0.1644599,-0.09599669,0.15255798,-0.07279065,0.29227108,0.26639083,0.08272069,0.1173992,82.17528
2023-11-06,-0.12409244,-0.13562611,0.07475142,-0.02595767,0.18381377,-0.083792,0.15055099,-0.07988894,0.29286554,0.28351346,0.07342047,0.08703138,115.11485
2023-11-07,-0.12021794,-0.13714379,0.06314181,-0.011272375,0.20560317,-0.067311764,0.14291067,-0.090953305,0.27687562,0.29403052,0.062085588,0.04954334,194.47478
2023-11-08,-0.101361014,-0.13370645,0.0452481,-0.014157381,0.24717347,-0.04737547,0.14031401,-0.10417898,0.2923367,0.34243664,0.03236388,-0.023700293,356.07596
2023-11-09,-0.08382938,-0.1302866,0.0274837,-0.008116212,0.2773741,-0.030696243,0.1296387,-0.11791675,0.28750363,0.37350425,0.0046480857,-0.089787975,545.21655
2023-11-10,-0.08016985,-0.12856922,0.023128591,0.006139796,0.2913044,-0.018529482,0.11859785,-0.123343006,0.2702636,0.3796825,-0.004627656,-0.11578111,491.11548
2023-11-13,-0.075864956,-0.13265258,0.018388897,0.018506777,0.30353034,-0.0042911842,0.110360146,-0.13089293,0.26442465,0.3900055,-0.011993524,-0.13623996,506.2873
2023-11-14,-0.07853114,-0.13568547,0.015547261,0.039809544,0.31980383,0.014154568,0.099756666,-0.14104873,0.23526251,0.38416824,-0.01740114,-0.1563584,661.32227
2023-11-15,-0.075994305,-0.14161518,0.011914607,0.057137646,0.32204783,0.023986608,0.08551921,-0.15029119,0.2144357,0.38162255,-0.022473145,-0.16883552,212.12434
2023-11-16,-0.07639245,-0.14881903,0.0021996573,0.06895238,0.31702375,0.030579522,0.077077255,-0.1554116,0.19640729,0.37121245,-0.023966592,-0.1737612,170.84904
2023-11-17,-0.05381751,-0.14765972,-0.01614375,0.052051555,0.34041995,0.043858647,0.07998502,-0.16261019,0.22091022,0.40327182,-0.045640264,-0.22399892,1088.4285
2023-11-20,-0.060827255,-0.15370286,-0.013053846,0.06188755,0.33503363,0.049281508,0.080005094,-0.16363488,0.21777087,0.39645976,-0.03413106,-0.20416854,106.936516
2023-11-21,-0.06290799,-0.1557461,-0.013604838,0.06848645,0.34645516,0.056107067,0.08277711,-0.17372231,0.21521956,0.40046346,-0.032775525,-0.21087079,55.95804
2023-11-22,-0.052715316,-0.15539119,-0.025015164,0.06529766,0.36075228,0.05945488,0.08380507,-0.18582648,0.22285432,0.41945097,-0.045427736,-0.24301048,185.39182
2023-11-24,-0.042814046,-0.15671891,-0.036909413,0.060166948,0.37499708,0.060598314,0.086474165,-0.20033033,0.23527828,0.44268832,-0.05831236,-0.27383357,144.06595
2023-11-27,-0.035812885,-0.16017583,-0.049449246,0.06148953,0.3908719,0.06318533,0.0851323,-0.21875156,0.23080227,0.45628175,-0.07482414,-0.31019092,120.547066
2023-11-28,-0.031181594,-0.15956537,-0.057005074,0.057059973,0.4117952,0.063672766,0.09222315,-0.23605792,0.24046317,0.47848544,-0.08568068,-0.34054288,91.50814
2023-11-29,-0.029963372,-0.16000569,-0.058245573,0.059933677,0.42869693,0.06569974,0.09394497,-0.2498404,0.24295658,0.4956121,-0.09129916,-0.3579894,42.685528
2023-11-30,-0.020727742,-0.15983838,-0.07133271,0.05048932,0.44126946,0.062301762,0.099782065,-0.2626099,0.25694144,0.5181359,-0.10558151,-0.39043573,123.59132
2023-12-01,-0.015746295,-0.16315523,-0.0788776,0.045202255,0.45761225,0.065782815,0.10674231,-0.27602747,0.27102536,0.5369321,-0.11450045,-0.41205797,91.62679
2023-12-04,-0.009842478,-0.16355182,-0.08366586,0.04399385,0.47474834,0.065178394,0.10760848,-0.29233217,0.27204585,0.5531865,-0.12848826,-0.4412861,80.57553
2023-12-05,-0.0008765757,-0.16208526,-0.09568669,0.024448812,0.46878916,0.059536584,0.118236214,-0.28996685,0.29474047,0.55849123,-0.13256961,-0.44903156,185.61446
2023-12-06,0.00029526092,-0.16342473,-0.094855264,0.021953158,0.4760748,0.060680076,0.12199579,-0.29533005,0.3028774,0.5663827,-0.13493773,-0.4536992,161.09006
2023-12-07,0.005152967,-0.16577841,-0.10295719,0.021577481,0.4782992,0.058752447,0.120027974,-0.30562013,0.3014472,0.57329416,-0.1428381,-0.4701018,1676.8215
2023-12-08,0.0037272796,-0.1708914,-0.107006654,0.029809237,0.47560558,0.05945295,0.11722891,-0.31546354,0.28969425,0.5650616,-0.14370857,-0.4713916,86.361336
2023-12-11,0.0043209773,-0.1716615,-0.10884635,0.027824102,0.4636025,0.055974945,0.11776252,-0.31144807,0.29440582,0.5606211,-0.13824473,-0.4590654,43.68873
2023-12-12,0.009946421,-0.17074266,-0.112773106,0.018994667,0.46906456,0.05748944,0.11956017,-0.31355447,0.29953045,0.56566423,-0.14518051,-0.47373685,183.00494
2023-12-13,0.0052896906,-0.17539683,-0.113242954,0.031003859,0.4691931,0.060203105,0.11471118,-0.32047734,0.28439113,0.55769634,-0.14412822,-0.47408554,131.45724
2023-12-14,0.0043302123,-0.17650616,-0.11202422,0.038492665,0.45840073,0.05368261,0.10673101,-0.32325676,0.2700379,0.5482146,-0.14420566,-0.4695427,72.715935
2023-12-15,-0.0076356847,-0.18622586,-0.10751721,0.05205938,0.43236724,0.053801753,0.10296492,-0.3159846,0.25112727,0.51021105,-0.124983534,-0.4286435,368.76465
2023-12-18,-0.009824047,-0.19200918,-0.11095783,0.04442422,0.4009853,0.045516,0.10678391,-0.30055094,0.25826254,0.48447007,-0.10957356,-0.39318088,109.37283
2023-12-19,-0.00484523,-0.1917386,-0.11301738,0.032727845,0.40004098,0.049912363,0.10836263,-0.293098,0.2653766,0.4832705,-0.111294284,-0.39806154,98.67231
2023-12-20,-0.01986782,-0.20094582,-0.10687208,0.048075005,0.3834319,0.045666687,0.109318346,-0.29521108,0.25103337,0.45644537,-0.0920369,-0.36080506,419.061
2023-12-21,-0.01991306,-0.20192191,-0.10994652,0.042426467,0.36766323,0.042880587,0.11183928,-0.28425577,0.25461876,0.4438243,-0.08354652,-0.3459355,49.10966
2023-12-22,-0.028176976,-0.20626876,-0.10102159,0.045175783,0.36202735,0.044903606,0.11653726,-0.281374,0.258906,0.4361724,-0.06907098,-0.3203252,97.85294
2023-12-26,-0.036991715,-0.21142021,-0.09969148,0.052613653,0.3536259,0.04665696,0.119035244,-0.27946046,0.25295794,0.42127386,-0.055583034,-0.30039033,92.074936
2023-12-27,-0.045579627,-0.2139658,-0.09071186,0.052770708,0.3483199,0.049794383,0.12487748,-0.2725533,0.2567923,0.41095957,-0.039166827,-0.27274,92.033775
2023-12-28,-0.057248667,-0.21718168,-0.079878435,0.06118431,0.33317974,0.050654255,0.12585475,-0.26338992,0.24983847,0.3878895,-0.018710751,-0.23418485,139.89484
2023-12-29,-0.049747996,-0.21554735,-0.08910674,0.053626053,0.32968572,0.046106756,0.12636669,-0.2639183,0.25628075,0.3948122,-0.024075042,-0.24657954,86.71979
2024-01-02,-0.04192605,-0.2120656,-0.093125224,0.043274872,0.32622468,0.04585138,0.12686409,-0.2566578,0.26459986,0.3965352,-0.02763344,-0.25288436,66.91891
2024-01-03,-0.052966155,-0.21045256,-0.078722715,0.033232667,0.2832184,0.031707346,0.13557212,-0.22746204,0.25946864,0.33513868,-0.001981888,-0.18775125,264.04086
2024-01-04,-0.044166423,-0.20571741,-0.07953316,0.014622709,0.27486086,0.023487113,0.14032872,-0.21683456,0.28499994,0.346747,-0.0025679506,-0.1815229,159.14119
2024-01-05,-0.04606145,-0.20664036,-0.078805745,0.016080394,0.26626107,0.014401525,0.13989913,-0.22111465,0.28477654,0.3472962,0.0006487705,-0.17148389,190.74596
2024-01-08,-0.04707095,-0.20339558,-0.0709565,0.007056553,0.24730441,0.0028039888,0.14350101,-0.20803048,0.29934046,0.34291747,0.013040144,-0.13992281,2100.7383
2024-01-09,-0.050353467,-0.19956842,-0.061358053,0.005885344,0.23654236,0.000445202,0.1432526,-0.19687045,0.30321443,0.33762708,0.025884163,-0.11405067,252.81508
2024-01-10,-0.04159756,-0.1931324,-0.06617707,-0.002433192,0.22389798,-0.0033693463,0.13896666,-0.18333952,0.30850756,0.3366979,0.024428044,-0.11558239,1050.824
2024-01-11,-0.04053872,-0.19256729,-0.066790655,0.00046026707,0.21163504,-0.0050799213,0.13329788,-0.17860644,0.30276403,0.32907814,0.028522927,-0.10630362,214.50372
2024-01-12,-0.039553836,-0.18859771,-0.06526999,0.0012373142,0.19770472,-0.010543052,0.12865986,-0.16963969,0.3019169,0.32507187,0.03434806,-0.09422232,331.50333
2024-01-16,-0.03485588,-0.18327111,-0.06709564,0.0019054823,0.18932447,-0.012292646,0.12184721,-0.16395484,0.2989234,0.32806003,0.034451824,-0.09707488,106.22029
2024-01-17,-0.027361972,-0.17946412,-0.074979365,-0.0049617216,0.19600739,-0.004932899,0.122224644,-0.15837942,0.29933727,0.32825297,0.027562674,-0.116566196,503.1026
2024-01-18,-0.022955403,-0.17936796,-0.081360385,-0.0048585683,0.20169127,-0.0015098006,0.1212886,-0.16332994,0.30176005,0.33879086,0.021170754,-0.13280217,144.07101
2024-01-19,-0.037089285,-0.18519704,-0.074522585,0.017739609,0.2034085,0.00036998838,0.118085936,-0.17721036,0.28624955,0.3394859,0.032847803,-0.118639335,746.0077
2024-01-22,-0.04074426,-0.18686256,-0.07577489,0.028224338,0.20535068,0.0044026673,0.114678845,-0.18116026,0.27596912,0.3387622,0.035006326,-0.12219246,1180.925
2024-01-23,-0.030800058,-0.18159282,-0.08553326,0.021294713,0.22320378,0.009915769,0.11549328,-0.18627544,0.2797283,0.35556623,0.019675199,-0.16019595,283.32535
2024-01-24,-0.036520205,-0.18418416,-0.08408943,0.031261213,0.22174428,0.0130473,0.11439015,-0.189161,0.27220428,0.35054114,0.02717175,-0.1528817,149.99942
2024-01-25,-0.038833328,-0.18523711,-0.08370605,0.03705286,0.21657412,0.016146585,0.11145592,-0.18622251,0.26465705,0.34235054,0.032452155,-0.14557432,85.41479
2024-01-26,-0.042472214,-0.18181597,-0.07919678,0.035917476,0.21861571,0.011059016,0.11601131,-0.18507977,0.2721902,0.35133225,0.037015285,-0.14217722,78.6854
2024-01-29,-0.042172,-0.1807636,-0.08009213,0.03193865,0.21049125,0.011221379,0.11737625,-0.17635308,0.27499643,0.3451174,0.042592358,-0.13411407,48.108078
2024-01-30,-0.041713446,-0.17521152,-0.07868287,0.027799672,0.22159825,0.010330118,0.12172276,-0.17893876,0.27631947,0.35150257,0.03953853,-0.14635234,55.892426
2024-01-31,-0.038455326,-0.17177796,-0.08218065,0.02221075,0.21655361,0.0065566935,0.12228903,-0.17457972,0.27757442,0.34952807,0.038866583,-0.14935747,80.79491
2024-02-01,-0.028896533,-0.16588205,-0.08899835,0.010149738,0.22058374,-0.00093857944,0.124086544,-0.17681052,0.28578267,0.3607688,0.026256572,-0.17195587,263.55914
2024-02-02,-0.03473488,-0.16361567,-0.079827845,0.014728315,0.21628778,-0.0063436925,0.12575004,-0.17726564,0.29002914,0.3644152,0.03680523,-0.1547111,709.1134
2024-02-05,-0.032262467,-0.15852118,-0.08367635,0.013361603,0.20782246,-0.014044419,0.12200321,-0.1720435,0.28338248,0.35926098,0.036266852,-0.15844071,163.14304
2024-02-06,-0.012482418,-0.14389434,-0.08749384,-0.011493102,0.20641674,-0.017005906,0.11938937,-0.15393761,0.29843453,0.36775634,0.021433204,-0.18085246,358.2672
2024-02-07,-0.015489079,-0.1406522,-0.080515176,-0.008256283,0.19112012,-0.027336657,0.11533566,-0.1497973,0.29359055,0.36000237,0.029740687,-0.16098455,190.20035
2024-02-08,-0.009167127,-0.13581473,-0.08499317,-0.012917258,0.18413034,-0.034763947,0.112726614,-0.14624403,0.29546648,0.36092278,0.024810854,-0.16732672,163.1417
2024-02-09,-0.004142233,-0.13125274,-0.08510257,-0.022465702,0.17611198,-0.040242262,0.1127788,-0.13604845,0.3036461,0.36039594,0.024312392,-0.16341974,166.61162
2024-02-12,-0.005556641,-0.12962046,-0.08060776,-0.021126293,0.17347366,-0.04078108,0.11190672,-0.13149427,0.30702886,0.36231756,0.029119529,-0.15434547,80.56342
2024-02-13,-0.006517822,-0.129412,-0.080629066,-0.022972558,0.18050902,-0.038202517,0.11515878,-0.1339985,0.30689195,0.36297074,0.02838599,-0.15872402,46.994144
2024-02-14,0.004458866,-0.12654114,-0.08926615,-0.03498051,0.18223582,-0.03772897,0.1157804,-0.12924545,0.31624162,0.36842465,0.017101377,-0.17721042,295.84497
2024-02-15,-0.004598584,-0.12795097,-0.07699366,-0.025946159,0.17575705,-0.04102321,0.11594261,-0.13021852,0.31862637,0.37011003,0.031943362,-0.14993192,360.3952
2024-02-16,-0.012880907,-0.1315124,-0.0722425,-0.022499021,0.16448678,-0.04663431,0.11948387,-0.1284454,0.31418076,0.35263434,0.042900708,-0.12558085,283.51306
2024-02-20,-0.018431824,-0.13375255,-0.06509663,-0.023233533,0.14089878,-0.053482324,0.11965202,-0.11487125,0.31359598,0.3311704,0.059383336,-0.08750549,172.69998
2024-02-21,-0.018728323,-0.13535464,-0.06031734,-0.03269575,0.14482477,-0.053797588,0.1268885,-0.11284031,0.32600424,0.3331853,0.05916435,-0.08195369,73.34511
2024-02-22,-0.036277518,-0.14430541,-0.04590675,-0.029160265,0.122279346,-0.06022203,0.1351837,-0.10235967,0.3285738,0.3050238,0.0856359,-0.023320053,303.8838
2024-02-23,-0.05393043,-0.15076545,-0.026660886,-0.023023583,0.0966351,-0.06938009,0.13873006,-0.09112786,0.32766488,0.278577,0.11278288,0.03902633,473.87964
2024-02-26,-0.05589775,-0.15446612,-0.02836724,-0.027783405,0.085216984,-0.07336269,0.14132102,-0.086155444,0.32739645,0.26328817,0.11524136,0.05091315,96.2649
2024-02-27,-0.055314496,-0.15724155,-0.030995037,-0.03527486,0.092302635,-0.07063463,0.1470181,-0.0877554,0.33073464,0.2609648,0.10897733,0.043117646,79.63829
2024-02-28,-0.07215675,-0.16373357,-0.01691771,-0.026735108,0.07340677,-0.07725939,0.15046236,-0.082419485,0.3242623,0.23654744,0.13109216,0.09075689,284.571
2024-02-29,-0.07580129,-0.16823268,-0.017421853,-0.027480926,0.06516637,-0.07778878,0.15236984,-0.07964845,0.32070732,0.22161388,0.13434885,0.101771355,52.13899
2024-03-01,-0.08971338,-0.17321679,-0.0059593506,-0.020221531,0.053881034,-0.080859065,0.1555701,-0.075616494,0.31676745,0.2073254,0.15202622,0.13623068,196.64647
2024-03-04,-0.10198879,-0.17477599,0.006882187,-0.0135955885,0.039792903,-0.083642736,0.15621583,-0.065741226,0.310122,0.18890586,0.16953996,0.17153886,354.3199
2024-03-05,-0.10011498,-0.17486984,0.0018081777,-0.015593264,0.04737041,-0.07815506,0.1573192,-0.06710255,0.30657592,0.18778613,0.1639507,0.15810873,131.55362
2024-03-06,-0.10280977,-0.17710464,0.0049233697,-0.016506616,0.032808084,-0.07961823,0.15629384,-0.056724902,0.3045948,0.17258039,0.17181113,0.17875077,257.43478
2024-03-07,-0.12005879,-0.18136369,0.024164382,-0.007103443,0.010155454,-0.085044,0.15821473,-0.043729346,0.298685,0.1461174,0.1991079,0.23557554,631.9093
2024-03-08,-0.12818629,-0.18350977,0.031053778,-0.0032040887,-0.005641725,-0.08735147,0.15766762,-0.032737862,0.2899509,0.12359879,0.21213634,0.26433536,312.19247
2024-03-11,-0.12743437,-0.18051663,0.03209666,-0.010549519,-0.008816149,-0.0906849,0.16164081,-0.025734063,0.29584157,0.1193061,0.21377553,0.26912904,326.9152
2024-03-12,-0.13485381,-0.18071508,0.04156798,-0.015204951,-0.0004129056,-0.088526905,0.17197594,-0.022913475,0.30430087,0.118046276,0.22145133,0.28286114,207.22906
2024-03-13,-0.13740656,-0.18020424,0.047202155,-0.016393766,0.0038231164,-0.08780289,0.17548145,-0.019920345,0.31207228,0.12397213,0.22543506,0.28987235,1077.2245
2024-03-14,-0.13821916,-0.17762174,0.047238555,-0.018828373,0.0027204808,-0.090678275,0.17622276,-0.01786175,0.30490312,0.1139572,0.22456917,0.2894362,70.73532
2024-03-15,-0.1339925,-0.17529759,0.042415284,-0.027078811,0.009234829,-0.0929893,0.18078254,-0.01863974,0.315465,0.12462945,0.2188574,0.2770398,326.99908
2024-03-18,-0.13903499,-0.17792243,0.051913157,-0.026941475,-0.009416398,-0.09577602,0.17940798,-0.0059132613,0.3104228,0.09875458,0.23197584,0.31263527,343.3621
2024-03-19,-0.1446994,-0.1776414,0.0605893,-0.025996018,-0.0075694732,-0.09877538,0.18330102,-0.0074831434,0.3117909,0.0975568,0.23836707,0.32614928,84.64945
2024-03-20,-0.14364198,-0.17792097,0.06072092,-0.029358368,-0.013054661,-0.102287896,0.18433446,-0.00570124,0.31508967,0.09374739,0.23950668,0.333309,122.07228
2024-03-21,-0.14650998,-0.18112174,0.062334128,-0.027639087,-0.021492518,-0.10543688,0.18375708,-0.0060655475,0.30995348,0.08220701,0.24354054,0.34678176,106.39162
2024-03-22,-0.15745279,-0.18403515,0.07212365,-0.017901506,-0.0427589,-0.11035901,0.18067257,0.0032207966,0.29661044,0.0546793,0.26233083,0.38809657,375.8282
2024-03-25,-0.1400351,-0.18224683,0.05933122,-0.03521775,-0.03301507,-0.102997154,0.18155341,0.0070366375,0.31746542,0.07407027,0.24558683,0.3573595,331.71954
2024-03-26,-0.14471504,-0.1824239,0.06299394,-0.031438332,-0.027077872,-0.09968386,0.1835384,0.0039845966,0.3118449,0.07106422,0.24810216,0.3583691,93.1467
2024-03-27,-0.15202393,-0.1857346,0.069131285,-0.023551397,-0.035703827,-0.10056016,0.18310523,0.006663684,0.3086435,0.06139045,0.25920197,0.38155314,167.48499
2024-03-28,-0.15534483,-0.18560919,0.07603854,-0.022430245,-0.032781016,-0.100596815,0.1857558,0.0076945983,0.31304413,0.064368874,0.26312035,0.3901891,52.197353
2024-04-01,-0.15155752,-0.18516763,0.07181904,-0.026330572,-0.034814645,-0.10167959,0.1849118,0.008369945,0.31386122,0.06320609,0.2593253,0.38475862,47.02656
2024-04-02,-0.15469255,-0.18560006,0.074456826,-0.025253486,-0.027822327,-0.09690744,0.18786131,0.0075219385,0.31485164,0.063938126,0.26150805,0.38590962,49.1845
2024-04-03,-0.15055752,-0.1846607,0.07159466,-0.030944306,-0.02086981,-0.09587307,0.18959728,0.0061404146,0.32218662,0.0747917,0.25390908,0.3720331,100.71146
2024-04-04,-0.16526881,-0.18784535,0.08262071,-0.017367404,-0.032627556,-0.09946065,0.18927537,0.0083692,0.30737072,0.054073993,0.27047637,0.4045422,214.88126
2024-04-05,-0.16245662,-0.18699041,0.07959265,-0.021164775,-0.030301072,-0.099607944,0.19032638,0.009857576,0.31468982,0.06252712,0.2676511,0.39787057,74.01187
2024-04-08,-0.16520476,-0.18556741,0.08570036,-0.01972454,-0.029131528,-0.09888302,0.19258814,0.01296908,0.3177664,0.06249742,0.27265826,0.40515137,58.997566
2024-04-09,-0.16410816,-0.1852209,0.08441649,-0.02270485,-0.01925413,-0.094800405,0.19535805,0.009603791,0.3232102,0.07237819,0.27035698,0.3959959,103.50685
2024-04-10,-0.16532902,-0.18460098,0.084658355,-0.020190552,-0.015620917,-0.09456269,0.19531114,0.007942092,0.32199827,0.07605677,0.2698214,0.39209512,55.526657
2024-04-11,-0.15925416,-0.1820359,0.07806191,-0.024863046,-0.01340922,-0.08958531,0.19389002,0.014175586,0.32411072,0.078428455,0.26493475,0.37892523,143.5786
2024-04-12,-0.15720543,-0.18033004,0.081393495,-0.024757292,-0.0045735575,-0.08520833,0.1934147,0.014224051,0.3282121,0.089025654,0.2608653,0.36937132,97.116776
2024-04-15,-0.16304816,-0.1821998,0.08113554,-0.017953295,-0.0097708255,-0.08452914,0.1911361,0.016736837,0.31738886,0.079053454,0.26557076,0.37679946,184.14539
2024-04-16,-0.16173682,-0.18104526,0.08009645,-0.019579176,0.0057776663,-0.076457925,0.19344975,0.013194233,0.31689656,0.08704855,0.25903475,0.3581337,220.51556
2024-04-17,-0.15886462,-0.17883277,0.07780025,-0.018678132,0.016043033,-0.07644463,0.19347423,0.0073647425,0.32108504,0.1029551,0.2504474,0.33957466,260.44437
2024-04-18,-0.17522109,-0.1861148,0.09196319,-0.007315684,0.005104374,-0.07693144,0.19577909,0.011758201,0.31704268,0.08626283,0.27003643,0.38279894,261.09424
2024-04-19,-0.18596452,-0.18743819,0.10330165,0.0011839829,0.0011040159,-0.083104976,0.1958225,0.011212746,0.3092221,0.07730883,0.2775848,0.40407377,247.6126
2024-04-22,-0.17870745,-0.1847844,0.099685,-0.007782448,0.010997903,-0.08667488,0.19679685,0.006557796,0.3193836,0.09358795,0.2634361,0.38337046,1743.1749
2024-04-23,-0.1786357,-0.18434,0.10391767,-0.009794619,0.023988068,-0.08646737,0.19931455,-0.00014816597,0.32900736,0.11135986,0.25927466,0.37804696,277.246
2024-04-24,-0.17883165,-0.18451099,0.10142983,-0.012167554,0.027490439,-0.09040794,0.20235676,-0.007572498,0.3288508,0.11309107,0.2543736,0.36967155,5064.037
2024-04-25,-0.17978872,-0.18601438,0.09735902,-0.01300092,0.023867719,-0.09485338,0.2034208,-0.011358265,0.32573965,0.107801884,0.25357234,0.37029785,86.93456
2024-04-26,-0.17779937,-0.18674761,0.095737725,-0.018987056,0.026462868,-0.09605178,0.20582698,-0.012476016,0.3284122,0.10813237,0.24782473,0.3651375,77.157326
2024-04-29,-0.18786919,-0.18978485,0.10643621,-0.010511596,0.025586506,-0.098655954,0.20790546,-0.014811199,0.33060464,0.10986599,0.25813767,0.3862284,101.061295
2024-04-30,-0.18387917,-0.18921018,0.10184538,-0.018231183,0.040686853,-0.09268273,0.21288319,-0.020300664,0.33550695,0.1179769,0.24831618,0.36564288,202.70724
2024-05-01,-0.16203642,-0.1828109,0.08112219,-0.035343852,0.04616572,-0.09362943,0.20956324,-0.018699974,0.3496674,0.13985097,0.22446984,0.32069752,198.06226
2024-05-02,-0.17126852,-0.18151724,0.09944582,-0.028906401,0.05208815,-0.093406044,0.21223788,-0.01688585,0.354557,0.14469457,0.23354952,0.34173813,86.71898
2024-05-03,-0.17841761,-0.18230829,0.10715827,-0.016017787,0.046295416,-0.09751995,0.20455374,-0.019720197,0.33838698,0.13854316,0.23671795,0.3542025,106.69997
2024-05-06,-0.18667835,-0.18663818,0.11169894,-0.015933622,0.04515882,-0.09560276,0.20913856,-0.015798647,0.33961204,0.13143799,0.24439912,0.36974293,51.439022
2024-05-07,-0.184038,-0.18371409,0.10980437,-0.019636039,0.058952153,-0.09120539,0.20948495,-0.018068582,0.340865,0.14382716,0.23676361,0.3504679,95.72305
2024-05-08,-0.17309657,-0.18493283,0.09474513,-0.029499512,0.06285023,-0.09128126,0.20831555,-0.022819128,0.34877107,0.15780108,0.22135176,0.3220507,130.75304
2024-05-09,-0.16748144,-0.18583006,0.09012394,-0.035703693,0.062274627,-0.09033537,0.2065988,-0.02110773,0.35402134,0.16291648,0.2147186,0.3143279,50.055798
2024-05-10,-0.17536885,-0.190947,0.09456724,-0.028920125,0.052199464,-0.09511657,0.20296668,-0.023658391,0.33909506,0.1464363,0.21840067,0.33189085,88.34045
2024-05-13,-0.18414977,-0.19680023,0.099921405,-0.021790035,0.041726544,-0.09717616,0.20043908,-0.022844117,0.3275775,0.12923308,0.22601521,0.3551108,90.93164
2024-05-14,-0.17115557,-0.19797862,0.085490935,-0.035276633,0.060058538,-0.089069135,0.20343931,-0.033347797,0.33990562,0.15085569,0.20743148,0.31675842,223.26059
2024-05-15,-0.18276906,-0.20357281,0.096477166,-0.02614757,0.04734437,-0.09138951,0.20145674,-0.030301254,0.32801977,0.13007256,0.21936102,0.3500164,115.74938
2024-05-16,-0.18632782,-0.20660642,0.104822956,-0.021784388,0.03698908,-0.09026176,0.19814102,-0.022278946,0.3289633,0.121743046,0.2275226,0.37543646,97.67647
2024-05-17,-0.17945932,-0.20953321,0.09425591,-0.025649298,0.032481093,-0.08747116,0.19457258,-0.020011958,0.33008564,0.12135663,0.22209452,0.36767346,65.29283
2024-05-20,-0.18750328,-0.2160123,0.10451169,-0.023637787,0.026402663,-0.08246809,0.19614519,-0.013537854,0.32638517,0.1033907,0.23224832,0.39663637,112.264946
2024-05-21,-0.18453848,-0.21565133,0.10250664,-0.023183372,0.03530183,-0.072467595,0.19560094,-0.013857972,0.33070925,0.11407626,0.23200496,0.38833883,67.92009
2024-05-22,-0.18083477,-0.21862403,0.099403664,-0.024353508,0.02991824,-0.06532781,0.19317089,-0.0061506033,0.33493713,0.113299735,0.23535933,0.39559102,98.694084
2024-05-23,-0.16725817,-0.21358761,0.09169431,-0.027650591,0.03354857,-0.0593744,0.18659078,-0.0008983351,0.34281844,0.13021804,0.22652893,0.37490588,167.41972
2024-05-24,-0.1719465,-0.21855849,0.095186666,-0.022008017,0.022943752,-0.05137173,0.1834798,0.010477256,0.33752558,0.116949275,0.23796076,0.39819473,1365.3909
2024-05-28,-0.18770802,-0.22354436,0.11376649,-0.007977139,0.016753722,-0.04461482,0.18281338,0.02117712,0.3302411,0.1058153,0.25883538,0.44072625,268.47256
2024-05-29,-0.18987226,-0.22093782,0.11717834,0.001350902,0.013527542,-0.038103398,0.17519864,0.027305515,0.31175822,0.094216034,0.26326376,0.44349858,208.10648
2024-05-30,-0.175838,-0.21506348,0.110999554,-0.008542243,0.017043993,-0.031776823,0.17117433,0.03848304,0.32778975,0.11308055,0.25360355,0.42360112,866.8108
2024-05-31,-0.18179138,-0.21372023,0.12437993,-0.006574847,0.00736019,-0.03194123,0.17165698,0.05102771,0.32769856,0.10573496,0.26540858,0.44903716,146.49327
2024-06-03,-0.19146875,-0.21354553,0.13528286,-0.0022413582,-0.006860338,-0.040422037,0.173524,0.058235142,0.32138112,0.09024528,0.2794678,0.4802345,343.87537
2024-06-04,-0.18586567,-0.20677817,0.13739656,-0.0052097775,-0.0023996606,-0.0401309,0.16760823,0.06067691,0.31594428,0.09389591,0.27141944,0.46879014,224.43982
2024-06-05,-0.17010763,-0.20093998,0.12456691,-0.014222205,-0.0071817115,-0.042617157,0.15978731,0.065652,0.31952712,0.10185842,0.25564694,0.44376248,432.73517
2024-06-06,-0.18660629,-0.20098037,0.14847526,-0.0039427876,-0.016180862,-0.039607752,0.16397417,0.07978127,0.312778,0.08180267,0.28015146,0.48928836,299.34555
2024-06-07,-0.17732647,-0.19926292,0.13740942,-0.006469164,-0.022098776,-0.038262125,0.15677609,0.08234286,0.30719212,0.07988597,0.2705108,0.47156337,136.12064
2024-06-10,-0.1613334,-0.19380176,0.12334424,-0.0137964785,-0.019365054,-0.037636377,0.15157372,0.08354694,0.31698447,0.095243484,0.25570512,0.44143164,188.32237
2024-06-11,-0.15907952,-0.19022489,0.12777911,-0.014639866,-0.016455699,-0.031791046,0.14811704,0.08762275,0.31209415,0.093557775,0.25409564,0.43874878,55.214905
2024-06-12,-0.16256997,-0.1890679,0.12985449,-0.006835211,-0.019779518,-0.030443624,0.14650027,0.091480024,0.3070857,0.08941409,0.26004943,0.44567454,97.62364
2024-06-13,-0.17140666,-0.1866287,0.14292303,0.0074432455,-0.023456682,-0.02525596,0.14166513,0.099705696,0.2921384,0.08087676,0.27214536,0.46325448,296.62006
2024-06-14,-0.1656903,-0.18269405,0.13681367,0.012272283,-0.024592869,-0.024068195,0.13404755,0.10281885,0.284783,0.08087868,0.2658538,0.44711944,100.95709
2024-06-17,-0.16325203,-0.17685492,0.13932599,0.017288135,-0.018880699,-0.018669426,0.12622978,0.10739754,0.27577674,0.08238834,0.26077774,0.43315086,113.381256
2024-06-18,-0.15438884,-0.17304963,0.13245527,0.02102743,-0.0037832595,-0.009213679,0.11872114,0.10041992,0.27116776,0.09985826,0.24920191,0.4019015,211.72646
2024-06-20,-0.15610558,-0.1704525,0.13442951,0.032900788,-0.00027986616,-0.006250251,0.11201288,0.09697503,0.25855866,0.10495697,0.2502267,0.39633563,205.96805
2024-06-21,-0.14800858,-0.16954169,0.12510797,0.030582944,0.0087759085,0.00070777535,0.11001791,0.09366602,0.26611122,0.12199837,0.24207018,0.37458256,3399.8752
2024-06-24,-0.13109954,-0.1705459,0.10375768,0.023640603,0.033336375,0.011375472,0.108766034,0.07762756,0.28338555,0.15788004,0.21805441,0.3223514,1916.8887
2024-06-25,-0.13123503,-0.17252755,0.09929837,0.029361373,0.053469583,0.020652793,0.10920654,0.062354665,0.2808627,0.17135075,0.21084987,0.3026637,210.62527
2024-06-26,-0.13170242,-0.17196676,0.09690397,0.03139867,0.06591893,0.020584464,0.113039345,0.053345904,0.29153055,0.19121861,0.20853059,0.2933277,71.18007
2024-06-27,-0.122459196,-0.16942129,0.08588793,0.029362308,0.086341575,0.02628623,0.11145331,0.041594777,0.29632992,0.21315184,0.19075184,0.25314376,143.80562
2024-06-28,-0.11243168,-0.16137487,0.080403514,0.024489049,0.10721585,0.025489286,0.10955234,0.031685594,0.30035046,0.23696834,0.16925915,0.20892975,129.92088
2024-07-01,-0.113841616,-0.16109926,0.081194825,0.023175783,0.11294334,0.02192679,0.11182688,0.026765496,0.3024672,0.2420586,0.16498072,0.20474686,52.076847
2024-07-02,-0.114066616,-0.15691635,0.084723294,0.01833014,0.13936743,0.024509832,0.120988145,0.016629647,0.31802714,0.2670377,0.15745392,0.18399218,139.44841
2024-07-03,-0.10578718,-0.1524669,0.07877138,0.011613475,0.16040345,0.022383831,0.12430586,0.003188923,0.32965973,0.29129842,0.1395229,0.14874461,204.38394
2024-07-05,-0.10850856,-0.15106755,0.08326215,0.017079089,0.16983497,0.023342296,0.12275092,-0.0016671531,0.3251153,0.29839408,0.13701525,0.14308006,229.36613
2024-07-08,-0.09963178,-0.14769939,0.07349543,0.018602693,0.18543585,0.024957731,0.11890815,-0.013462681,0.3239611,0.31558174,0.119840726,0.1061136,802.3095
2024-07-09,-0.081994824,-0.14463857,0.05342153,0.0058766305,0.21610938,0.03243863,0.123836026,-0.030750316,0.33833823,0.3467778,0.09133668,0.041500222,393.56766
2024-07-10,-0.07848447,-0.14272392,0.052530013,0.006958749,0.22847982,0.036803104,0.124088004,-0.035197858,0.34194356,0.35734847,0.08372604,0.025097754,111.50348
2024-07-11,-0.08231996,-0.14282754,0.06283547,0.012401069,0.23134628,0.04114995,0.12205756,-0.03096747,0.34380504,0.3608486,0.08704987,0.036126945,178.94559
2024-07-12,-0.066017225,-0.13697073,0.049183954,0.004481282,0.2401569,0.036998123,0.11668314,-0.040785853,0.342155,0.37508872,0.06182428,-0.008267332,315.78952
2024-07-15,-0.08047328,-0.14229722,0.063095406,0.012121443,0.23540705,0.038137846,0.12371571,-0.036798608,0.34868422,0.36700535,0.082242236,0.032691147,777.9374
2024-07-16,-0.06350778,-0.13803391,0.044834558,-0.010851119,0.25433317,0.033104867,0.13328095,-0.050755005,0.36704057,0.39033914,0.056845974,-0.01752552,505.546
2024-07-17,-0.069903806,-0.14054662,0.055854477,-0.02083819,0.24722596,0.018007644,0.14305238,-0.05183624,0.38284966,0.39000353,0.06310986,0.012200911,371.39853
2024-07-18,-0.054670393,-0.14044788,0.038500402,-0.045784403,0.24260536,0.000506036,0.14734192,-0.06043331,0.38973534,0.3878052,0.041062485,-0.011358667,521.68274
2024-07-19,-0.06210714,-0.14058015,0.046674006,-0.053636994,0.24052294,-0.015711598,0.15770455,-0.0642672,0.40051436,0.38866198,0.04675686,0.007792849,3456.6128
2024-07-22,-0.05951383,-0.1412355,0.04446955,-0.0650527,0.24018358,-0.022955216,0.16384049,-0.06660189,0.40993243,0.3888612,0.043453846,0.008142244,98.366875
2024-07-23,-0.07002901,-0.1423068,0.05587021,-0.06040181,0.25262144,-0.025541015,0.17094912,-0.07956816,0.41107193,0.39675677,0.05002438,0.018626224,237.653
2024-07-24,-0.058106296,-0.14096484,0.041378304,-0.068757,0.25697118,-0.025646798,0.16918434,-0.08480197,0.41040418,0.4009263,0.034401488,-0.011438813,261.342
2024-07-25,-0.05697228,-0.14038706,0.04154239,-0.0775224,0.24588782,-0.030036844,0.17083989,-0.07471621,0.41392568,0.3900903,0.03755824,0.00055522844,167.39957
2024-07-26,-0.07761065,-0.14448261,0.063745566,-0.07488923,0.22725235,-0.041254193,0.17891906,-0.06336343,0.417441,0.3702361,0.065722466,0.06404589,11676.813
2024-07-29,-0.09711096,-0.14472696,0.088050455,-0.06808807,0.21867156,-0.04850535,0.185646,-0.05724552,0.41766906,0.35660264,0.089981794,0.11431545,226.41092
2024-07-30,-0.08867283,-0.14428742,0.07203752,-0.07468134,0.23531847,-0.044614635,0.18874909,-0.06969038,0.41614714,0.36604366,0.07466051,0.07412788,131.10126
2024-07-31,-0.08647206,-0.14213523,0.06984034,-0.08000016,0.23836917,-0.050377123,0.19097233,-0.07461725,0.41564125,0.3665188,0.06940617,0.064847544,56.41404
2024-08-01,-0.10840655,-0.146319,0.089626044,-0.06258084,0.22645634,-0.05722206,0.19381995,-0.07741216,0.40042797,0.34235728,0.09464548,0.114111245,224.82085
2024-08-02,-0.079793006,-0.14138846,0.04668537,-0.07798709,0.2547886,-0.059886433,0.19354343,-0.106478035,0.3995014,0.37424868,0.04562136,0.0073702447,312.03583
2024-08-05,-0.062137492,-0.13970086,0.020660434,-0.080502644,0.26044086,-0.0639394,0.1821009,-0.12669323,0.3747881,0.3738554,0.012942854,-0.05406421,1027.6428
2024-08-06,-0.083869666,-0.14373985,0.03180601,-0.06625411,0.25188255,-0.070775844,0.18792307,-0.12795858,0.36120492,0.35159072,0.03671618,-0.014322605,394.45258
2024-08-07,-0.10715064,-0.14716876,0.05605964,-0.05512959,0.24871267,-0.081379466,0.1961373,-0.1340458,0.36539254,0.35100067,0.06259447,0.035984833,571.6124
2024-08-08,-0.09567298,-0.1436291,0.04332034,-0.06640327,0.2534278,-0.0851933,0.19508025,-0.13933483,0.36839983,0.36148536,0.046081025,0.003996376,186.44379
2024-08-09,-0.11011611,-0.14616954,0.05123136,-0.05609322,0.24311467,-0.097885,0.19835353,-0.15009987,0.35250023,0.34095028,0.05660722,0.027260523,693.9946
2024-08-12,-0.10420257,-0.14746192,0.034679294,-0.06623684,0.23773323,-0.107393496,0.20172186,-0.15901755,0.3505978,0.3359672,0.04449706,0.006537322,175.62683
2024-08-13,-0.102250114,-0.14529826,0.03095001,-0.075420976,0.2414633,-0.11100821,0.20825706,-0.1632819,0.35562396,0.33691785,0.040777568,-0.0024078898,185.72499
2024-08-14,-0.101937674,-0.14575812,0.028732691,-0.07551409,0.23169042,-0.11851877,0.2080714,-0.16685416,0.3548214,0.33223277,0.041343447,0.0026387982,233.59344
2024-08-15,-0.104127645,-0.14517573,0.025736833,-0.08097899,0.21507867,-0.12881601,0.21157284,-0.16134264,0.35612127,0.31729352,0.04907837,0.020150702,728.2593
2024-08-16,-0.10434998,-0.14320263,0.022789385,-0.08547266,0.21335909,-0.13869365,0.21585666,-0.16827519,0.35679713,0.3159102,0.047502432,0.01496898,62.914803
2024-08-19,-0.086005196,-0.14040372,-0.0022595339,-0.09590833,0.22464623,-0.1423003,0.21390866,-0.18642716,0.35696307,0.33318904,0.01839577,-0.043684896,619.86523
2024-08-20,-0.08429696,-0.1406447,-0.010070454,-0.09533404,0.2318894,-0.1423865,0.21524994,-0.19700073,0.35324052,0.33947834,0.014194813,-0.05960461,420.23657
2024-08-21,-0.060200445,-0.13610438,-0.03826118,-0.107419,0.24826202,-0.13983625,0.21145113,-0.21049593,0.35901898,0.3653277,-0.016184103,-0.12688135,678.02783
2024-08-22,-0.057277746,-0.1370579,-0.045008127,-0.104761794,0.2566964,-0.14015155,0.21254025,-0.22447543,0.36430183,0.38210934,-0.019100267,-0.14209567,72.51701
2024-08-23,-0.04649005,-0.13495174,-0.05832095,-0.11098756,0.25673583,-0.1378816,0.21229486,-0.22570191,0.37321603,0.39065742,-0.023556601,-0.1599525,98.77106
2024-08-26,-0.043968454,-0.13406071,-0.056452174,-0.10933809,0.256465,-0.14006162,0.20941445,-0.2322105,0.37131104,0.39521328,-0.025313694,-0.16203457,27.139086
2024-08-27,-0.03957342,-0.13224155,-0.066830724,-0.11677028,0.2578583,-0.14134331,0.21285507,-0.23491259,0.3708977,0.3930623,-0.029130999,-0.17609166,65.210884
2024-08-28,-0.02354875,-0.1304934,-0.08220711,-0.12798162,0.26826078,-0.14142947,0.211898,-0.24576388,0.37914622,0.41199705,-0.049244042,-0.21665542,182.70886
2024-08-29,-0.01819866,-0.12866244,-0.08924851,-0.12936054,0.26664168,-0.14503682,0.21079735,-0.25037938,0.38198227,0.4187633,-0.051278394,-0.22615491,50.22294
2024-08-30,-0.015368383,-0.12621307,-0.090939954,-0.13314156,0.2697936,-0.1493932,0.21292318,-0.2567554,0.38374418,0.4222466,-0.054871146,-0.23544289,42.420994
2024-09-03,-0.012864424,-0.12782417,-0.09802486,-0.13443051,0.26642415,-0.15359476,0.21290451,-0.2633154,0.3808801,0.41972867,-0.058921132,-0.24398725,45.30598
2024-09-04,0.00418541,-0.12237591,-0.11498076,-0.13417564,0.2902564,-0.1408462,0.20551252,-0.27559578,0.37386894,0.4433858,-0.083709344,-0.30411002,253.85428
2024-09-05,0.0023347987,-0.12326506,-0.11339344,-0.129171,0.29992005,-0.14801116,0.20457788,-0.2916356,0.37119728,0.45544443,-0.09282321,-0.317655,83.51979
2024-09-06,-0.0011157952,-0.12542802,-0.115755185,-0.12133266,0.3074957,-0.15070331,0.20343715,-0.3038021,0.3620933,0.458168,-0.09943214,-0.33107916,181.16621
2024-09-09,0.007679727,-0.12540343,-0.12904052,-0.11909482,0.31949922,-0.14127296,0.19822833,-0.31034842,0.3558558,0.47195917,-0.11430396,-0.36779207,847.26965
2024-09-10,0.0022709267,-0.122982204,-0.11948319,-0.113456115,0.3370018,-0.14352429,0.20099159,-0.3192863,0.3559597,0.48374137,-0.11849736,-0.3790446,105.100845
2024-09-11,0.013211003,-0.12745768,-0.1438736,-0.10526089,0.35903978,-0.12858748,0.19502123,-0.34057477,0.33911145,0.500492,-0.14507596,-0.44469976,587.55206
2024-09-12,-0.0011095628,-0.13483709,-0.13914531,-0.082989305,0.3587301,-0.124415934,0.1905197,-0.34817538,0.3206472,0.48290977,-0.13703555,-0.43151614,163.96835
2024-09-13,0.0075285714,-0.13711055,-0.15558344,-0.073234886,0.3785325,-0.115640864,0.17951025,-0.36570475,0.302768,0.5013874,-0.16297747,-0.48928896,868.87836
2024-09-16,0.0019527059,-0.14427276,-0.15852368,-0.05251016,0.36954468,-0.11141021,0.1674027,-0.37067607,0.27579144,0.48355305,-0.15999235,-0.48510185,138.76653
2024-09-17,-0.00151564,-0.15168643,-0.1598942,-0.050396573,0.36981422,-0.09840807,0.17153876,-0.36891496,0.2801972,0.47530916,-0.15070803,-0.47305986,213.9227
2024-09-18,-0.009609772,-0.15736336,-0.1578883,-0.0409632,0.35143209,-0.098692216,0.16880572,-0.36530373,0.27012068,0.45340142,-0.1348699,-0.44319043,590.616
2024-09-19,-0.0032204315,-0.15776524,-0.16011295,-0.04746486,0.33814886,-0.09534726,0.164172,-0.35112196,0.26923653,0.44031584,-0.13523814,-0.43776587,102.53092
2024-09-20,-0.037412107,-0.1727247,-0.13589911,-0.02871513,0.2972612,-0.098558396,0.16950114,-0.34003013,0.2541716,0.38540092,-0.08364086,-0.3336002,1227.6978
2024-09-23,-0.04113201,-0.17643225,-0.13516657,-0.035684656,0.26749265,-0.10213352,0.17054448,-0.31974354,0.25236058,0.35173848,-0.06858382,-0.296818,95.597984
2024-09-24,-0.055399314,-0.18266812,-0.12114729,-0.04127353,0.24139927,-0.10269342,0.17848097,-0.29685104,0.25658366,0.31797558,-0.03972208,-0.23648374,160.05275
2024-09-25,-0.083300985,-0.19236672,-0.09246923,-0.032371785,0.18377355,-0.1090695,0.17987484,-0.26072708,0.24205887,0.24559596,0.012103882,-0.121196344,351.58975
2024-09-26,-0.09189899,-0.19457284,-0.08331537,-0.032050516,0.15391088,-0.11130434,0.17971183,-0.23616628,0.2427539,0.21735102,0.037151244,-0.06985995,311.25204
2024-09-27,-0.10333748,-0.20151931,-0.06431484,-0.024881165,0.1209432,-0.1039357,0.1747558,-0.20854117,0.23584288,0.17759721,0.0681382,-0.0016365387,305.88873
2024-09-30,-0.119416825,-0.20637727,-0.05206016,-0.020449337,0.09126725,-0.109813124,0.17808004,-0.19061206,0.23313236,0.14462551,0.096891455,0.058550317,3835.134
2024-10-01,-0.11481888,-0.20162013,-0.046904024,-0.03333776,0.096264884,-0.102701716,0.18322283,-0.17565542,0.24596983,0.14437184,0.098117754,0.060804155,112.56896
2024-10-02,-0.1320694,-0.20288396,-0.02891906,-0.032527562,0.074227005,-0.11428176,0.18848418,-0.16201435,0.24120995,0.11575015,0.12150845,0.11380923,234.00412
2024-10-03,-0.14596891,-0.20283875,-0.009719703,-0.037610684,0.05208031,-0.12242134,0.19629563,-0.13884445,0.24841201,0.08997015,0.14564596,0.17027551,242.70575
2024-10-04,-0.15430138,-0.20113331,-0.0029265806,-0.03873195,0.037094686,-0.12897685,0.19864964,-0.12525073,0.24354547,0.068737105,0.15601383,0.19626024,172.47754
2024-10-07,-0.17845401,-0.2028833,0.024689792,-0.032841425,0.0134206675,-0.13502699,0.2058162,-0.09940593,0.24475765,0.03753596,0.19232613,0.273377,1176.5824
2024-10-08,-0.18072727,-0.20241576,0.0261853,-0.03644949,0.009290855,-0.13415107,0.20743866,-0.09180291,0.24176216,0.02673576,0.19480059,0.28014785,92.16544
2024-10-09,-0.18840776,-0.20428762,0.03707105,-0.032657545,0.00028136373,-0.13426986,0.20905401,-0.08061017,0.2477482,0.021827094,0.2085476,0.30880547,205.30315
2024-10-10,-0.2113373,-0.21595016,0.051202793,-0.017842237,-0.030741632,-0.13427442,0.20765464,-0.06492758,0.23396912,-0.015310019,0.24197769,0.37631226,11361.027
2024-10-11,-0.2200414,-0.2222594,0.05743761,-0.011224829,-0.04500891,-0.1287218,0.20572653,-0.05341058,0.22677818,-0.036453255,0.25548226,0.40565842,280.071
2024-10-14,-0.23340964,-0.22883683,0.06912612,-0.002637986,-0.06435031,-0.128292,0.2048585,-0.041258033,0.22179744,-0.058979593,0.27788508,0.45227882,256.61737
2024-10-15,-0.22492792,-0.22560537,0.06904945,-0.011848342,-0.0537015,-0.12184161,0.20862387,-0.036865395,0.23899269,-0.042447634,0.2720543,0.44126746,428.67676
2024-10-16,-0.21729986,-0.22566003,0.060589977,-0.015669096,-0.048305977,-0.119637236,0.20883714,-0.0417686,0.2420823,-0.03500203,0.262528,0.42186287,99.90555
2024-10-17,-0.22968176,-0.23232216,0.070494376,-0.0044370033,-0.0592512,-0.118921846,0.20861655,-0.0390437,0.23811081,-0.04550793,0.28150064,0.4578551,173.97986
2024-10-18,-0.21873511,-0.22988528,0.06523164,-0.009053711,-0.050784606,-0.113359034,0.20852903,-0.03916354,0.24925095,-0.030501582,0.27338204,0.43890312,181.32358
2024-10-21,-0.2221277,-0.23275608,0.067090854,-4.4245273e-05,-0.05077265,-0.11259512,0.20650809,-0.044987764,0.24421465,-0.029642023,0.27738428,0.44371125,129.09752
2024-10-22,-0.20676619,-0.2252703,0.06011813,-0.0052618943,-0.025849327,-0.105035216,0.20665967,-0.05196507,0.25470385,-0.0004581809,0.25995156,0.39989248,12003.376
2024-10-23,-0.20028037,-0.22390828,0.061260633,-0.0056896396,-0.016713873,-0.099193715,0.20558089,-0.052017268,0.26379973,0.0140971765,0.25556478,0.38950682,3239.9226
2024-10-24,-0.19478875,-0.22505838,0.055666402,-0.004676722,-0.009157654,-0.09612109,0.20545037,-0.05823944,0.2694223,0.026138254,0.2501279,0.37567738,183.7465
2024-10-25,-0.19837137,-0.22532496,0.063237056,0.0028775148,-0.0053313784,-0.093707226,0.20338148,-0.059133623,0.26769045,0.031188484,0.2549695,0.38262632,247.67146
2024-10-28,-0.20430033,-0.22757909,0.06599894,0.0107094925,-0.00865775,-0.09274753,0.20349433,-0.05865312,0.2648877,0.02833001,0.26531413,0.39621523,362.64066
2024-10-29,-0.18940373,-0.22206566,0.061593637,0.0024393536,0.019474462,-0.08485822,0.20526554,-0.06892289,0.28017458,0.060980733,0.24524134,0.353472,584.8102
2024-10-30,-0.18950596,-0.22332978,0.058393035,0.009607684,0.027600177,-0.07892436,0.2043363,-0.07392576,0.2763146,0.065498,0.24355327,0.342887,368.57877
2024-10-31,-0.18181188,-0.2233156,0.048208013,0.01285243,0.045471285,-0.069313556,0.2014267,-0.082565516,0.27550882,0.08248335,0.22995584,0.30815136,187.25674
2024-11-01,-0.17493303,-0.2216968,0.043495156,0.006893385,0.05438699,-0.06792399,0.20171933,-0.08171162,0.28483033,0.09724022,0.22015809,0.2898297,114.92163
2024-11-04,-0.1881122,-0.22346464,0.057086032,0.024856117,0.06599295,-0.0649079,0.20134167,-0.08860503,0.27627358,0.10295683,0.22908933,0.29890954,350.6334
2024-11-05,-0.18923745,-0.22348595,0.054783463,0.031321593,0.092680454,-0.054797195,0.20319651,-0.1023906,0.2701474,0.11588478,0.2169832,0.26747847,133.72327
2024-11-06,-0.1931479,-0.2235499,0.059131272,0.03837859,0.10589044,-0.049991027,0.20349923,-0.105501786,0.26764932,0.12392856,0.21473747,0.25852194,71.02315
2024-11-07,-0.18000828,-0.21596536,0.055281587,0.023279924,0.113391414,-0.058312632,0.20230547,-0.101479754,0.27971545,0.1419108,0.19671506,0.23472758,120.79139
2024-11-08,-0.17791164,-0.21995607,0.05363618,0.026084218,0.12686872,-0.04800953,0.19703591,-0.107104704,0.26259756,0.13283508,0.1805991,0.2122505,86.02054
2024-11-11,-0.18095253,-0.22519723,0.045661777,0.031663775,0.13520676,-0.0544767,0.19747154,-0.12343007,0.2566691,0.14073512,0.16969489,0.19432937,98.54253
2024-11-12,-0.16474006,-0.22270674,0.03395859,0.016085315,0.15799369,-0.04938276,0.19786708,-0.13305752,0.26787835,0.16570836,0.14253616,0.14679615,181.67613
2024-11-13,-0.15452665,-0.2193062,0.022086445,0.014608711,0.18162328,-0.046903335,0.19553606,-0.14916976,0.26280424,0.1841871,0.117491186,0.0963486,150.11351
2024-11-14,-0.15249003,-0.21653044,0.02500701,0.013121629,0.19966953,-0.045887187,0.19661127,-0.154749,0.26959354,0.2059615,0.1085819,0.07827234,83.12861
2024-11-15,-0.15221451,-0.2170409,0.02146114,0.017821154,0.21850392,-0.040190555,0.19735083,-0.16633323,0.2655265,0.21804214,0.09952065,0.054555926,126.13921
2024-11-18,-0.14626437,-0.21317574,0.02017738,0.015017971,0.232171,-0.039546818,0.19758828,-0.1717988,0.270693,0.23327896,0.08912231,0.034140434,95.46739
2024-11-19,-0.15207207,-0.21121866,0.02893249,0.022190144,0.25064024,-0.035513036,0.19932754,-0.18099286,0.26428312,0.2409701,0.08811507,0.027636413,146.26953
2024-11-20,-0.1519736,-0.2127446,0.024330689,0.027381537,0.2603964,-0.033105187,0.19889635,-0.18988098,0.26199326,0.25106686,0.08355565,0.012620207,120.453026
2024-11-21,-0.14733174,-0.2108635,0.02143633,0.022529794,0.26929367,-0.031367414,0.20043191,-0.19144382,0.2689626,0.26293188,0.07725209,-0.0016243123,171.61555
2024-11-22,-0.14553589,-0.21006632,0.022097062,0.019119048,0.27033567,-0.03212364,0.20001616,-0.19010718,0.27225,0.2673511,0.07530895,-0.0032619275,129.75883
2024-11-25,-0.14515232,-0.21047568,0.020917758,0.017235553,0.26866436,-0.035513423,0.19942825,-0.19162604,0.27050987,0.26669705,0.07298361,-0.004593756,72.71122
2024-11-26,-0.1383074,-0.21310833,0.009050917,0.014895558,0.27448028,-0.03473141,0.19860879,-0.20471409,0.2688654,0.27285945,0.061011333,-0.025919873,571.4457
2024-11-27,-0.12590179,-0.21123621,-0.0060735606,0.009256512,0.29184115,-0.03300847,0.19770111,-0.21921049,0.27133816,0.29355672,0.040212188,-0.07144229,451.8568
2024-11-29,-0.12979412,-0.21376556,-0.0058593713,0.020397328,0.29220176,-0.03569839,0.19309574,-0.23073427,0.25719804,0.29023182,0.038865242,-0.07212244,154.67673
2024-12-02,-0.12953955,-0.2151489,-0.009258393,0.025389861,0.29164803,-0.039381586,0.19019087,-0.23905562,0.25197244,0.29296035,0.035909686,-0.07760373,117.12402
2024-12-03,-0.1155219,-0.21120355,-0.019588899,0.014592918,0.3101963,-0.030147284,0.19147928,-0.24212568,0.26885384,0.3204029,0.02240337,-0.11116426,295.45416
2024-12-04,-0.10820234,-0.210985,-0.027923424,0.01627299,0.3189627,-0.025428638,0.18605907,-0.24924894,0.26402923,0.32953984,0.00999121,-0.13609007,167.22221
2024-12-05,-0.10469175,-0.21080586,-0.032215495,0.023408432,0.3297766,-0.019900102,0.18111439,-0.255989,0.2647069,0.34768918,0.004073549,-0.15319303,170.60225
2024-12-06,-0.09428965,-0.21175581,-0.04619005,0.027579792,0.3386728,-0.0060180724,0.17395116,-0.25819588,0.26698697,0.36733148,-0.003967274,-0.18124534,371.0718
2024-12-09,-0.09726586,-0.21067157,-0.0458731,0.041859843,0.34936708,0.0014795512,0.16936119,-0.26339972,0.2629022,0.3848827,-0.0010128953,-0.19231835,275.41495
2024-12-10,-0.094355345,-0.20959333,-0.047338177,0.048233166,0.36214706,0.020966113,0.1650042,-0.26049334,0.26226565,0.39587834,0.0011682846,-0.20427765,1570.975
2024-12-11,-0.08024616,-0.20525482,-0.061372105,0.049910516,0.37863776,0.03204211,0.15850921,-0.2680497,0.2635782,0.4190577,-0.015390743,-0.24826501,1559.6339
2024-12-12,-0.08074101,-0.20595652,-0.06236085,0.068399616,0.38536656,0.044690616,0.148452,-0.273459,0.25305507,0.431335,-0.0124056,-0.25806457,119.49382
2024-12-13,-0.07179217,-0.20538047,-0.06821649,0.069110096,0.36426935,0.051112995,0.13824615,-0.25622347,0.25219494,0.42167827,-0.0050519593,-0.24832632,120.44374
2024-12-16,-0.08763444,-0.20975631,-0.04598211,0.09276451,0.32680598,0.060680605,0.12211043,-0.22363313,0.22761631,0.37503293,0.028774824,-0.17935959,862.57056
2024-12-17,-0.1007656,-0.20855942,-0.023149762,0.11654824,0.29458365,0.06783881,0.10459541,-0.19611855,0.19505337,0.32811764,0.057410408,-0.12151168,297.73596
2024-12-18,-0.097446345,-0.20847118,-0.023810755,0.12648897,0.27394548,0.07422054,0.091244355,-0.18290251,0.18058664,0.3090788,0.06643529,-0.10752618,91.08606
2024-12-19,-0.08783175,-0.20700619,-0.03230409,0.1230035,0.2605427,0.0765169,0.08354587,-0.1722879,0.1755953,0.29767618,0.06324804,-0.11236048,86.968765
2024-12-20,-0.08905629,-0.20953873,-0.02683914,0.12647517,0.25979888,0.081044376,0.08503154,-0.17205559,0.18669635,0.30369833,0.07132901,-0.09944841,63.086067
2024-12-23,-0.105622575,-0.2137031,-0.009571221,0.15356663,0.24623777,0.08488721,0.07788064,-0.16999437,0.16393921,0.2789105,0.09517896,-0.056273807,223.11954
2024-12-24,-0.10542721,-0.21756077,-0.0150912665,0.15410872,0.24210857,0.08844325,0.08021751,-0.17098793,0.16498971,0.27228722,0.098509446,-0.052726742,82.28546
2024-12-26,-0.107078224,-0.21939015,-0.010711823,0.1560174,0.2378423,0.09072703,0.08099519,-0.16834031,0.16921642,0.26815212,0.10401429,-0.039176214,74.895485
2024-12-27,-0.10618947,-0.22117177,-0.01317871,0.15986201,0.23201679,0.092367515,0.07856996,-0.16770379,0.1662791,0.26104042,0.10548416,-0.035558533,49.80123
2024-12-30,-0.09459362,-0.22013211,-0.026779402,0.14877059,0.23290579,0.09055504,0.08019517,-0.17001839,0.17619129,0.26911643,0.093280196,-0.057655733,210.09178
2024-12-31,-0.0989631,-0.21839067,-0.019864235,0.14527972,0.24011548,0.08794077,0.08918129,-0.17325415,0.18762319,0.27431163,0.09702149,-0.049562108,79.13792
2025-01-02,-0.10168771,-0.21578854,-0.012625147,0.14308113,0.23705097,0.08448611,0.09328364,-0.16748329,0.19752079,0.27585265,0.10483445,-0.033627283,101.07744
2025-01-03,-0.10217495,-0.21279263,-0.010180291,0.13112558,0.20464171,0.06716,0.09674165,-0.15092106,0.19351959,0.23664117,0.10968207,-0.0062852465,179.53712
2025-01-06,-0.101470314,-0.21459514,-0.011448074,0.12495828,0.21002065,0.06577205,0.103578344,-0.15367824,0.20704693,0.24568284,0.10765445,-0.008005094,72.30521
2025-01-07,-0.11159011,-0.2153522,-0.0017009564,0.13355017,0.21508835,0.06756961,0.10509907,-0.15458347,0.20097023,0.24243698,0.11532186,0.0058248453,293.68948
2025-01-08,-0.11087788,-0.21210799,-0.00024091825,0.12444447,0.21305859,0.061003804,0.11048192,-0.14798893,0.21303886,0.24606612,0.116557404,0.010545861,204.47087
2025-01-10,-0.11391754,-0.21226397,0.008208711,0.11994541,0.21468867,0.059725054,0.116976455,-0.14410987,0.23051375,0.254374,0.1237015,0.026793007,3696.8208
2025-01-13,-0.10537609,-0.20707253,0.0057856888,0.10469738,0.20688717,0.053868234,0.116858065,-0.130863,0.24026129,0.25372523,0.11705223,0.023720544,96.23376
2025-01-14,-0.11705691,-0.21000811,0.019613411,0.09864891,0.20654078,0.046026878,0.12986834,-0.13021557,0.25862935,0.25692517,0.12989397,0.055585537,437.84265
2025-01-15,-0.13177654,-0.21416518,0.03319955,0.10361175,0.19342588,0.036585473,0.13388832,-0.12671949,0.2525058,0.23843515,0.14426523,0.094344646,211.85448
2025-01-16,-0.14958009,-0.21347108,0.057592962,0.1088959,0.18045765,0.027729206,0.13878483,-0.11458565,0.24967772,0.22127372,0.1678723,0.14832343,218.44931
2025-01-17,-0.14261718,-0.21783829,0.043270245,0.09820074,0.17673789,0.02652771,0.14391294,-0.118462935,0.2599659,0.2197305,0.1617644,0.13696502,70.97841
2025-01-21,-0.1469807,-0.22031358,0.046766713,0.0910247,0.16786449,0.018911727,0.1513565,-0.11494364,0.27028167,0.21530685,0.16975787,0.15745486,87.339905
2025-01-22,-0.14781898,-0.2230815,0.04207201,0.09251945,0.16374673,0.014644563,0.14993109,-0.1236449,0.25500232,0.19923934,0.16500866,0.15380153,65.26939
2025-01-23,-0.14286077,-0.22424966,0.034857247,0.0810844,0.16547751,0.015534908,0.15598552,-0.11977239,0.27296594,0.20991144,0.16559684,0.14902882,63.55343
2025-01-24,-0.14115903,-0.22527358,0.030703707,0.07828086,0.16049403,0.010896087,0.15570632,-0.12165217,0.27266937,0.20907182,0.1663545,0.15041915,53.54095
2025-01-27,-0.12988344,-0.22331396,0.015996583,0.071214005,0.16194853,0.0070570335,0.15353283,-0.13004938,0.27130115,0.21508002,0.15279748,0.12229261,140.44737
2025-01-28,-0.10529267,-0.21157238,-0.0082052685,0.049357176,0.18894957,-0.0033776723,0.15417583,-0.15290086,0.2826724,0.25633457,0.114094794,0.042082887,502.99197
2025-01-29,-0.10579749,-0.20929414,-0.0065656565,0.054758757,0.20055798,-0.0054385588,0.15410763,-0.16614833,0.28120562,0.26984483,0.11314592,0.03166787,139.71947
2025-01-30,-0.088635445,-0.20444623,-0.02555922,0.043607123,0.21457142,-0.008961424,0.15230802,-0.18133654,0.28612748,0.2923256,0.08950563,-0.018776309,600.52783
2025-01-31,-0.08200556,-0.19769588,-0.03287961,0.047373086,0.22326306,-0.023502588,0.1472317,-0.20379992,0.27363998,0.30524763,0.0703052,-0.05617748,459.52383
2025-02-03,-0.059758596,-0.19232821,-0.059842695,0.02847708,0.23718004,-0.030080646,0.14846894,-0.21789108,0.28456795,0.32949153,0.036899205,-0.12134333,369.16507
2025-02-04,-0.03877372,-0.1821003,-0.080007076,0.012507983,0.26571837,-0.037232757,0.14733075,-0.2416539,0.28242448,0.35629353,-0.006228607,-0.20224819,370.1299
2025-02-05,-0.05141463,-0.18264529,-0.0726178,0.032336667,0.25598007,-0.05424227,0.13924046,-0.25866494,0.25038153,0.33907232,-0.0051461905,-0.19084206,301.74182
2025-02-06,-0.03224485,-0.17680246,-0.09415808,0.01799096,0.27169004,-0.06273345,0.13707973,-0.2775708,0.250935,0.36051992,-0.040457208,-0.25450647,871.2265
2025-02-07,-0.022119017,-0.17425448,-0.10451549,0.008448642,0.27126363,-0.06816011,0.13478504,-0.28095368,0.2549349,0.370005,-0.05436701,-0.27668616,155.9049
2025-02-10,-0.012575161,-0.1695755,-0.11307612,-0.006518692,0.2708336,-0.076630086,0.13616733,-0.28272137,0.25782755,0.37123328,-0.06911826,-0.29800934,281.72614
2025-02-11,-0.010384625,-0.16399056,-0.110780805,-0.009970963,0.2895152,-0.0791131,0.13803236,-0.2956797,0.25930977,0.3901049,-0.0815026,-0.32228488,123.515526
2025-02-12,0.0011248365,-0.16117263,-0.124046415,-0.026725862,0.29700848,-0.08119721,0.14191873,-0.29808587,0.2734553,0.4079506,-0.098235995,-0.3531306,341.54526
2025-02-13,-0.0025711749,-0.16033071,-0.1216723,-0.01760682,0.29342544,-0.08515728,0.1362576,-0.30191454,0.2581165,0.4005276,-0.0981092,-0.35001078,384.93735
2025-02-14,0.002489034,-0.15668651,-0.121730715,-0.02207413,0.30065307,-0.084792,0.13503681,-0.30372506,0.26285517,0.4130934,-0.10727513,-0.36406755,247.21846
2025-02-18,0.0056016445,-0.1564475,-0.12553573,-0.024026442,0.3025564,-0.08008638,0.134566,-0.30115348,0.269626,0.42239836,-0.108592406,-0.37008277,152.26216
2025-02-19,0.008695481,-0.15105477,-0.12600905,-0.028636348,0.320404,-0.07659225,0.13814662,-0.3055974,0.27614242,0.44147006,-0.11587514,-0.39217338,112.24759
2025-02-20,0.010876207,-0.15116078,-0.12818818,-0.036007877,0.32309145,-0.074188605,0.14317226,-0.30205306,0.28994572,0.4497243,-0.115700245,-0.3931372,68.65996
2025-02-21,0.010963196,-0.1496714,-0.12839875,-0.037723694,0.32380733,-0.074187174,0.1439855,-0.30056253,0.2908846,0.45195282,-0.11646131,-0.39447623,9.817201
2025-02-24,0.009103132,-0.14670593,-0.12592496,-0.040180195,0.31373808,-0.08053717,0.14506917,-0.29210272,0.29532975,0.45099798,-0.109843805,-0.38139245,53.360897
2025-02-25,0.013423128,-0.14011535,-0.12512739,-0.052434888,0.32405216,-0.08137371,0.15098363,-0.29049522,0.30755,0.46446612,-0.11591323,-0.39492053,108.23139
2025-02-26,0.012950091,-0.13683832,-0.12239386,-0.057229053,0.30998224,-0.092231296,0.15052892,-0.2840697,0.30965635,0.45848635,-0.112218395,-0.38075486,46.135235
2025-02-27,0.0067798924,-0.13031304,-0.11193511,-0.052342888,0.2900606,-0.10469367,0.14644863,-0.27494562,0.29804623,0.4394839,-0.10064225,-0.35299307,120.85993
2025-02-28,0.017488888,-0.124038115,-0.121666476,-0.06956193,0.28245658,-0.10939753,0.1487677,-0.26797712,0.3069577,0.44273344,-0.10654998,-0.36396456,228.298
2025-03-03,0.019048044,-0.11697122,-0.11375803,-0.07453033,0.2711148,-0.11918377,0.14767212,-0.26108557,0.3125717,0.44337174,-0.10221057,-0.34958032,54.52196
2025-03-04,0.025371572,-0.110472456,-0.12170263,-0.07347646,0.2741187,-0.12139168,0.14064105,-0.2707716,0.29148468,0.44008058,-0.11428356,-0.37552944,85.30652
2025-03-05,0.024421448,-0.10794154,-0.11887054,-0.07593599,0.2671719,-0.12939692,0.14140601,-0.26995975,0.2929636,0.43792093,-0.11268677,-0.36776733,26.145077
2025-03-06,0.017125435,-0.10604479,-0.10537876,-0.06669921,0.24331294,-0.1377887,0.13204269,-0.25796288,0.27466735,0.40819395,-0.09914929,-0.3300623,116.92675
2025-03-07,0.027098177,-0.10452138,-0.12061308,-0.082577765,0.24796225,-0.13869745,0.13833013,-0.26396286,0.2897643,0.42709288,-0.1081202,-0.35264435,133.60695
2025-03-10,0.021587426,-0.10337497,-0.109453455,-0.08976461,0.23824461,-0.14708695,0.14498709,-0.25527936,0.30600613,0.4251434,-0.097221866,-0.3239165,81.7463
2025-03-11,0.021127438,-0.10308685,-0.11485243,-0.097176775,0.24176224,-0.14581513,0.15127407,-0.25737366,0.3008001,0.41469556,-0.100561306,-0.33035764,32.679455
2025-03-12,0.007976022,-0.10319386,-0.09650919,-0.09447907,0.2267492,-0.15447153,0.15357052,-0.24418436,0.29837358,0.39087817,-0.085316285,-0.28767574,134.51796
2025-03-13,-0.008157169,-0.10066423,-0.07509214,-0.08927138,0.20896335,-0.16674417,0.15305577,-0.2277265,0.2935503,0.37036055,-0.06775428,-0.24078695,299.0395
2025-03-14,-0.013613449,-0.10353376,-0.072706744,-0.09635767,0.19505513,-0.1682316,0.15868221,-0.21459647,0.29869878,0.3551431,-0.05624373,-0.21480016,131.48796
2025-03-17,-0.038396172,-0.10426875,-0.036253806,-0.092593536,0.1642117,-0.18128946,0.1627978,-0.18298244,0.308156,0.32564595,-0.018440295,-0.1242813,398.52548
2025-03-18,-0.049361907,-0.10828206,-0.031044226,-0.098988086,0.16362274,-0.18107083,0.17576382,-0.17929013,0.31650203,0.3155938,-0.0052121803,-0.09994708,161.25583
2025-03-19,-0.057367392,-0.109695196,-0.027418997,-0.102794155,0.15020093,-0.18544987,0.1823266,-0.169767,0.3197758,0.2985397,0.0088879205,-0.0708859,358.7492
2025-03-20,-0.07701448,-0.114907295,-0.0045612827,-0.093201,0.13383797,-0.18909553,0.18878639,-0.15748282,0.32317358,0.2752694,0.03856656,-0.006128397,589.46783
2025-03-21,-0.073576026,-0.11584835,-0.013047453,-0.10830319,0.12813306,-0.19205303,0.19727337,-0.15237278,0.33687767,0.27090764,0.03829328,-0.0047319643,250.42221
2025-03-24,-0.08209096,-0.120424934,-0.004871387,-0.109536365,0.116379604,-0.19190815,0.20437366,-0.14256841,0.34419236,0.25308225,0.054945596,0.03300028,948.23627
2025-03-25,-0.089266896,-0.12008017,0.0062463544,-0.10786797,0.11739373,-0.19143878,0.20893139,-0.14043587,0.34607032,0.24799263,0.06512995,0.053638544,327.24982
2025-03-26,-0.08905166,-0.120181054,2.1848828e-05,-0.11424717,0.11039482,-0.19575667,0.21089534,-0.1383843,0.34265614,0.23581582,0.06446597,0.05618163,128.16487
2025-03-27,-0.084091835,-0.11896558,-0.0070878007,-0.12439656,0.10961516,-0.20023564,0.21446075,-0.13796236,0.34910804,0.23605686,0.05895392,0.048322376,32585.166
2025-03-28,-0.07652277,-0.115499124,-0.013400767,-0.1328113,0.12099558,-0.20518443,0.2169712,-0.14728296,0.35597226,0.25156733,0.0447073,0.02110019,217.56448
2025-03-31,-0.08205155,-0.11533718,-0.012321036,-0.12914616,0.111374885,-0.21182917,0.21433698,-0.14430763,0.3427455,0.23486343,0.048338424,0.033576127,110.210815
2025-04-01,-0.08282917,-0.11281958,-0.0061737224,-0.13336383,0.128917,-0.21181421,0.22139592,-0.14985077,0.35418645,0.25163242,0.045676295,0.024733428,121.50277
2025-04-02,-0.09099983,-0.115969,-0.0011566281,-0.12979616,0.12452491,-0.21484244,0.22291513,-0.14866401,0.35025826,0.2420834,0.052890953,0.043033425,197.59924
2025-04-03,-0.09008743,-0.11629481,-0.005329661,-0.13171446,0.12580696,-0.21807052,0.22304422,-0.15303844,0.3461579,0.24039605,0.047118332,0.03373785,403.46967
2025-04-04,-0.07024577,-0.11924754,-0.032741744,-0.13543327,0.13203643,-0.2064086,0.21328534,-0.16382448,0.33479416,0.25382867,0.023865093,-0.01982538,780.4249
2025-04-07,-0.06940224,-0.11756854,-0.02340277,-0.13044284,0.13788302,-0.19990295,0.2073966,-0.15414698,0.3326235,0.25897637,0.02007125,-0.023064826,85.978134
2025-04-08,-0.08681781,-0.12256415,-0.0019314997,-0.13159786,0.15321903,-0.19981736,0.21983106,-0.15230294,0.34646055,0.26340804,0.026076116,-0.0008949898,272.24066
2025-04-09,-0.11030353,-0.12747708,0.029330408,-0.102833405,0.13722295,-0.19398472,0.20626827,-0.13382636,0.3196254,0.23113734,0.05009884,0.061808746,8821.314
2025-04-10,-0.1371873,-0.132929,0.06667279,-0.04179248,0.122418866,-0.1765475,0.17571746,-0.1256498,0.26759344,0.20040202,0.087969765,0.12604767,465.12366
2025-04-11,-0.10716402,-0.13904583,0.021682434,-0.07849984,0.14348024,-0.17700133,0.18238261,-0.15040757,0.2799771,0.22764981,0.032553095,0.03774373,374.03204
2025-04-14,-0.13664582,-0.14798902,0.05716093,-0.038174804,0.12695058,-0.16960797,0.17151986,-0.13978678,0.25890526,0.20267898,0.07565032,0.12046412,647.7041
2025-04-15,-0.12381291,-0.15388486,0.045179863,-0.05553681,0.15069588,-0.16019212,0.18053225,-0.15475754,0.28550354,0.23528138,0.055394854,0.08735974,200.65082
2025-04-16,-0.12049853,-0.15763214,0.04145795,-0.053638797,0.15092255,-0.15287331,0.17715083,-0.15460081,0.28741398,0.23757145,0.054649405,0.08646928,27.46858
2025-04-17,-0.1147588,-0.16039306,0.033205513,-0.052105363,0.15372743,-0.14712702,0.17205174,-0.16020946,0.2767081,0.23140103,0.043549705,0.069533855,87.62116
2025-04-21,-0.12347344,-0.1646512,0.03887835,-0.053918038,0.13917182,-0.15647331,0.18066655,-0.1568739,0.29608688,0.23742649,0.06300588,0.10348062,156.82518
2025-04-22,-0.11589291,-0.16180438,0.027107129,-0.05269369,0.1469035,-0.14841402,0.1779368,-0.16121428,0.29459342,0.25139502,0.057729118,0.07493587,97.74738
2025-04-23,-0.12517957,-0.16355482,0.037391942,-0.052643206,0.13361724,-0.15400863,0.18563074,-0.15324306,0.30891752,0.2495684,0.08014427,0.11162327,162.58989
2025-04-24,-0.11254419,-0.16347148,0.022264238,-0.06824756,0.13200721,-0.15320174,0.19127889,-0.15089852,0.3339161,0.2677422,0.07665819,0.094880894,121.268295
2025-04-25,-0.11385287,-0.1607837,0.019602206,-0.063887,0.119843155,-0.16217151,0.18787502,-0.15422799,0.3195471,0.25528342,0.07938786,0.09775931,55.759384
2025-04-28,-0.10860253,-0.1608096,0.008544076,-0.06923017,0.10471359,-0.1632803,0.18827872,-0.1460002,0.32557362,0.24963471,0.08621155,0.10286559,106.17905
2025-04-29,-0.09757509,-0.15397424,-0.0012029372,-0.08118698,0.11306049,-0.16028856,0.1905284,-0.14660557,0.3321302,0.26155183,0.07723868,0.074649066,201.79388
2025-04-30,-0.09593039,-0.15156841,-0.0050826184,-0.07522349,0.09606767,-0.16355872,0.18402995,-0.1411935,0.32371,0.25123307,0.08634484,0.085639924,390.27658
2025-05-01,-0.072980545,-0.14559254,-0.027147178,-0.090454176,0.103578076,-0.15903114,0.1815383,-0.14280026,0.34093833,0.27862868,0.0680818,0.038684163,587.5163
2025-05-02,-0.07497341,-0.14943302,-0.028507832,-0.07845949,0.108625576,-0.14696786,0.17619097,-0.14431512,0.33420932,0.2827757,0.07508941,0.03949361,55.95358
2025-05-05,-0.080108635,-0.14923298,-0.022982445,-0.055737186,0.105548605,-0.13869597,0.16351648,-0.14517705,0.3108296,0.27530444,0.0857847,0.049034182,119.616
2025-05-06,-0.057053894,-0.14449382,-0.050285775,-0.058291506,0.14315514,-0.12145612,0.15758505,-0.16757135,0.31132823,0.31870183,0.055083614,-0.035668176,446.90494
2025-05-07,-0.052713744,-0.14894766,-0.06032623,-0.04501679,0.16146046,-0.10667732,0.15150265,-0.1815918,0.30115756,0.3302623,0.045375805,-0.066681206,202.07762
2025-05-08,-0.051410533,-0.15426013,-0.06562723,-0.034731653,0.17990094,-0.09380789,0.1522035,-0.19185926,0.30884054,0.35178688,0.04397598,-0.084222466,105.73484
2025-05-09,-0.048991412,-0.15971643,-0.0711309,-0.026586886,0.20122929,-0.07810968,0.15220916,-0.20178838,0.31129616,0.36837038,0.038513575,-0.10719973,119.06049
2025-05-12,-0.052196577,-0.16510516,-0.073960304,-0.009765435,0.22275859,-0.06369512,0.14987983,-0.21808569,0.29812142,0.3755732,0.03355838,-0.12979823,156.05804
2025-05-13,-0.074094065,-0.1686007,-0.04892553,0.010273043,0.22629966,-0.05429048,0.15343936,-0.20944981,0.29052874,0.3599838,0.060381208,-0.08608873,426.10703
2025-05-14,-0.060663953,-0.17364758,-0.07459462,0.0057033636,0.2566116,-0.040991075,0.15592892,-0.23021077,0.29067108,0.38261297,0.030811455,-0.1564856,304.5724
2025-05-15,-0.07055935,-0.17813578,-0.06976813,0.0217598,0.25766966,-0.036174744,0.15363242,-0.23005404,0.28032172,0.37781405,0.041077975,-0.1452019,365.94135
2025-05-16,-0.07028793,-0.17811564,-0.06884217,0.02723512,0.27290925,-0.02674874,0.15341567,-0.23302303,0.27806345,0.3862471,0.037411448,-0.16098712,83.123276
2025-05-19,-0.07181405,-0.18006754,-0.06920721,0.0325844,0.27951536,-0.020513467,0.15420608,-0.2352138,0.27975503,0.39242426,0.040122118,-0.16433622,62.15851
2025-05-20,-0.07005781,-0.17936993,-0.07251161,0.037816484,0.30252016,-0.007933967,0.15434958,-0.24549653,0.2734701,0.40184668,0.031905245,-0.19177592,139.50734
2025-05-21,-0.07063479,-0.17997009,-0.07284564,0.045136552,0.312151,-0.001273647,0.15265054,-0.24955998,0.27253416,0.41079065,0.031550396,-0.20010167,118.88362
2025-05-22,-0.06497824,-0.1813464,-0.0807569,0.04790596,0.32665554,0.010368377,0.15071352,-0.255331,0.27164266,0.4209614,0.021882202,-0.22606315,994.4878
2025-05-23,-0.0713232,-0.18407053,-0.0732034,0.057796188,0.33391622,0.019598722,0.15209685,-0.25510553,0.27486455,0.42500368,0.031474296,-0.21426055,184.72069
2025-05-27,-0.07281018,-0.18729135,-0.0720686,0.06836116,0.342303,0.03281936,0.14872406,-0.25756285,0.26695865,0.42333314,0.031793963,-0.21866833,103.15579
2025-05-28,-0.07371524,-0.18623453,-0.06714447,0.071665466,0.34978104,0.037078485,0.14914136,-0.2578728,0.2734294,0.43490025,0.034435112,-0.2170736,43.229115
2025-05-29,-0.06997723,-0.18826196,-0.070492774,0.07147217,0.35790712,0.05076831,0.15070248,-0.25474393,0.2809094,0.43847036,0.03414568,-0.22396345,60.491436
2025-05-30,-0.07092535,-0.19067076,-0.06947583,0.081300944,0.3628492,0.059416592,0.14598258,-0.25708905,0.27368513,0.438697,0.034095366,-0.22687005,44.365627
2025-06-02,-0.07629461,-0.19467476,-0.06868249,0.09489298,0.3617451,0.0611903,0.14111851,-0.2625002,0.26074997,0.4329103,0.037180718,-0.22207181,53.466053
2025-06-03,-0.07408973,-0.19514787,-0.06915197,0.09817499,0.37888533,0.07156408,0.13938718,-0.26945624,0.2554189,0.43916693,0.028366085,-0.24193887,68.987
2025-06-04,-0.08103601,-0.19847006,-0.063348696,0.10436393,0.37169296,0.0701775,0.1395875,-0.26520792,0.25694284,0.43436152,0.038447235,-0.22114487,77.15515
2025-06-05,-0.07976971,-0.20109993,-0.06491503,0.108861536,0.37260842,0.077367276,0.13576485,-0.26440966,0.2514146,0.42912123,0.035554845,-0.22572838,36.154377
2025-06-06,-0.079278074,-0.20154941,-0.06675154,0.1106734,0.3676538,0.07760152,0.13398683,-0.26183644,0.24992639,0.42563358,0.037029494,-0.22305058,15.987104
2025-06-09,-0.081954926,-0.19966236,-0.062150214,0.11059685,0.3644728,0.07399051,0.13602124,-0.257984,0.2552624,0.42682597,0.042394992,-0.21334693,41.038746
2025-06-10,-0.0805997,-0.19731355,-0.06166405,0.102219254,0.36985373,0.074784786,0.14137237,-0.25617346,0.26031175,0.4264848,0.03959633,-0.21848853,29.442238
2025-06-11,-0.08382613,-0.19533813,-0.056621116,0.09720397,0.35949287,0.0663858,0.14647086,-0.24868177,0.2708011,0.42433086,0.048622284,-0.19914635,74.83399
2025-06-12,-0.08134468,-0.19268063,-0.056202363,0.08453266,0.3471317,0.058952942,0.15168814,-0.23782317,0.2829824,0.41891676,0.05196454,-0.1870354,59.389
2025-06-13,-0.091192655,-0.19226304,-0.04566561,0.08842085,0.33242375,0.052201264,0.15408053,-0.22963364,0.2798895,0.4024305,0.06740303,-0.15429215,108.625626
2025-06-16,-0.09007143,-0.18710476,-0.040599633,0.07268852,0.31630406,0.041010648,0.15963615,-0.21188436,0.29418197,0.39541546,0.07319905,-0.13426559,98.84859
2025-06-17,-0.09928441,-0.18474492,-0.02218816,0.058450952,0.30655482,0.035687216,0.1728576,-0.19307584,0.3166356,0.3885523,0.09314139,-0.08982694,179.3574
2025-06-18,-0.09757293,-0.18124574,-0.020902555,0.04551749,0.29344532,0.024850823,0.1760621,-0.18147872,0.3230708,0.3804449,0.09422,-0.079144895,91.20945
2025-06-20,-0.11407762,-0.18189251,0.005090393,0.040516295,0.269909,0.018878251,0.184656,-0.15426908,0.33674046,0.3580523,0.12549652,-0.0078732185,337.90573
2025-06-23,-0.124086216,-0.18265265,0.0194349,0.03791634,0.24678734,0.008303806,0.18639071,-0.1369629,0.3375591,0.33720523,0.1416154,0.037372027,967.7244
2025-06-24,-0.12798007,-0.18190755,0.031495515,0.029356843,0.24136992,0.009477407,0.19074534,-0.12276782,0.34549728,0.32888132,0.15154845,0.06363119,199.30452
2025-06-25,-0.1510916,-0.1912167,0.053430054,0.04204335,0.20983572,0.0070794076,0.19376838,-0.10338324,0.34190407,0.29273665,0.19092469,0.14567173,358.72
2025-06-26,-0.14798301,-0.1903553,0.05467065,0.03398683,0.20006943,0.0078749955,0.1935047,-0.08890073,0.34890822,0.28650713,0.19452663,0.15780869,68.424095
2025-06-27,-0.15991203,-0.19315562,0.07056671,0.03771519,0.17587702,0.003936995,0.1930538,-0.07038441,0.34608433,0.26129603,0.21766698,0.21145608,188.23746
